#include "nn_parameters.h"

// NN network parameters -- atribute values
const float weights_in[NUM_NODES][NUM_STATES] = {{-4.063036442e-01, -5.448168516e-02, -2.864430845e-01, 2.497494370e-01, -1.685846150e-01, 3.838655353e-01, -5.411736965e-01, -3.115882576e-01, 5.494308099e-02, -1.415666491e-01, 4.902071953e-01, 8.354979753e-02, 5.390163139e-02, 3.255012333e-01, -1.108817980e-01, 2.262171209e-01, 7.801575959e-02, 5.661773495e-03, -8.101552725e-03}, {-1.688332111e-01, 1.057358310e-01, -4.262747243e-02, 6.046428904e-02, -1.463819295e-01, -1.255273223e-01, -4.924954847e-03, 9.654871188e-03, 1.793135256e-01, 1.120603979e-01, 1.811331064e-01, 1.226017997e-02, 1.514217496e+00, -1.743922196e-02, -8.726479113e-02, 8.645184338e-02, 3.731057793e-02, 4.721526802e-02, 2.796517313e-02}, {-6.233085319e-02, -1.932292134e-01, -1.029985309e+00, 2.398493886e-01, 8.965153992e-02, 8.581341058e-02, -6.736109257e-01, -1.223317906e-02, -5.254344940e-01, 1.154263616e-01, 1.493318081e-01, -9.111909568e-02, -2.254289240e-01, -9.568785131e-02, -6.395462900e-02, 1.153476760e-01, 6.066552922e-02, 2.233048901e-02, -7.516971976e-02}, {4.723037183e-01, -6.752918661e-02, 8.151157498e-01, -3.068075776e-01, 9.147799760e-02, -4.142876267e-01, 1.572801322e-01, 6.482262164e-02, 7.490424812e-02, 6.567783654e-02, 2.849165350e-02, 2.230600454e-02, -4.610977322e-02, -1.071482748e-01, 3.126621246e-02, 5.216453597e-02, -1.434729318e-03, -3.540413082e-02, 2.700629877e-03}, {-3.042396307e-01, -3.931896389e-01, 6.470200419e-01, 1.822283566e-01, 1.847072989e-01, -2.847252786e-01, -3.311260939e-01, -5.370527506e-02, -1.885882914e-01, 6.830809265e-02, 2.434836179e-01, -2.742984518e-02, -1.620861292e-01, -1.189962849e-01, 2.425168902e-01, -1.469155028e-02, 3.477644175e-02, -3.058268130e-02, 3.422559425e-02}, {-3.539581001e-01, 1.574964374e-01, -4.408002794e-01, 3.492588699e-01, 5.155085027e-02, 7.567822933e-02, -1.596383750e-01, -2.591837347e-01, -3.059304953e-01, 2.853901088e-01, -6.196051240e-01, -2.153618038e-01, 2.953790724e-01, -1.025192440e-01, -4.508733377e-02, 1.107885092e-01, 6.695289165e-02, -2.841608599e-02, 2.237921394e-02}, {1.350571811e-01, -2.585462928e-01, -2.110096663e-01, -8.062327653e-02, 3.198557496e-01, 3.409339190e-01, -2.463254184e-01, -1.455458160e-02, -7.763572037e-02, 3.745502532e-01, -1.653726399e-01, -2.842694148e-02, 2.601920664e-01, -1.606662720e-01, -6.685886532e-02, -2.138769925e-01, 9.554945678e-02, 4.319743812e-02, -6.331935525e-02}, {1.094147414e-01, -2.123380601e-01, -2.005294412e-01, -1.515450235e-02, 7.519381493e-02, 2.937871497e-03, 1.266756356e-01, 4.050192982e-02, 3.898699535e-03, -8.601198345e-02, -2.612755299e-01, -2.102019079e-02, -9.306593239e-02, 1.526193414e-02, 1.139746904e+00, 7.005825639e-02, 7.589018345e-02, -5.823014770e-03, 4.638175294e-02}, {1.354652345e-01, -2.729668617e-01, -1.985881180e-01, -4.110935703e-02, 2.546034157e-01, 1.652299464e-01, -6.372611504e-03, 3.725894690e-01, -7.067185640e-02, -4.075395465e-01, 2.958297729e-01, 3.760134429e-02, -6.734243128e-03, 5.108101666e-02, 8.332847618e-03, -1.964275241e-01, 6.037033349e-02, -7.786037028e-02, 1.412325632e-02}, {-1.237051934e-01, -4.961271882e-01, 1.214161068e-01, 3.496975601e-01, -2.802050859e-02, 4.081884623e-01, -1.997217089e-01, -2.518786676e-02, -1.920471936e-01, -2.778079174e-02, -7.078881562e-02, -3.378496319e-02, -4.834298790e-02, 1.257147789e-01, -6.968784332e-02, 1.784455031e-02, 1.095696241e-01, 5.906054005e-02, 1.188419461e-01}, {4.586483836e-01, 5.793803558e-02, -8.926824480e-02, -3.265293241e-01, 6.850793213e-02, -4.414146841e-01, 1.899650842e-01, -1.196251884e-01, 9.838095866e-03, 8.159458637e-02, 5.020990968e-01, 4.187249020e-02, 3.581763804e-01, 7.245480269e-02, 7.420758251e-03, -1.589390566e-03, -2.283011330e-03, 1.128319353e-01, -1.040696818e-02}, {1.246483549e-01, 9.519206733e-02, -3.668074310e-01, -1.497253031e-01, -7.248856872e-02, 5.936340988e-02, -1.971175671e-01, 4.645531178e-01, -6.550784111e-01, 1.349745244e-01, -2.079731673e-01, -6.522228569e-02, -2.523193136e-03, 1.867260039e-01, 8.027745783e-02, -8.450809866e-02, -6.472727656e-02, 2.983585745e-02, 1.040978432e-01}, {1.629724503e-01, -2.084379345e-01, -3.998093009e-01, -2.652838826e-01, 4.758257270e-01, 4.869893491e-01, 1.688573807e-01, -3.033141978e-02, -6.787230819e-02, -2.786988020e-01, -4.039910138e-01, -7.454883307e-02, 1.179393195e-02, 3.991877288e-02, 2.727282047e-01, -1.068939194e-01, -3.253433108e-01, -2.596930265e-01, 6.797580421e-02}, {-8.055368811e-02, -8.859627694e-02, -1.926171035e-01, -1.793402731e-01, 1.027248129e-01, 6.825583428e-02, 8.795452863e-02, 1.538625569e-03, -9.425190836e-02, 1.510953158e-01, 1.827706844e-01, -5.243903724e-04, -4.088473320e-01, -7.975097001e-02, 5.198028684e-01, 3.001897335e-01, -1.483403519e-02, -1.226761341e-01, -2.006210946e-02}, {1.657302231e-01, -4.392609596e-01, -4.470385611e-01, 7.064678520e-02, 6.016534567e-02, 4.624121785e-01, -2.304846495e-01, -1.021491438e-01, -4.158278108e-01, 5.288850665e-01, 3.484568894e-01, 5.190594867e-02, 2.295697927e-01, -2.023775429e-01, -2.574668825e-01, 1.204761788e-01, 1.599480063e-01, 1.049508825e-01, 3.886932507e-02}, {-4.022059739e-01, -1.863376796e-01, -4.575266689e-02, 4.056529701e-01, 9.737581760e-02, -1.405612677e-01, -5.037261844e-01, 2.565779984e-01, 2.094577849e-01, 1.093980670e-01, -1.958665252e-01, 5.632174015e-02, 6.505509466e-02, 3.277263641e-01, -8.173460513e-02, 1.545120683e-02, 3.985933028e-03, 6.416749954e-02, 1.122150123e-01}, {6.793630868e-02, -9.608517587e-02, 2.735014558e-01, -9.532199800e-02, -3.471910208e-02, -6.296814084e-01, 1.732253432e-01, -4.663789272e-02, 2.463593036e-01, -2.053626627e-01, 5.086141229e-01, 1.439149827e-01, 2.121528238e-01, -3.336062729e-01, -5.804188550e-02, 3.547595143e-01, 1.104139760e-01, 1.670697238e-03, 3.096801927e-03}, {-1.401198208e-01, 8.036539704e-02, -3.140533864e-01, 2.808878422e-01, -2.227565795e-01, 7.783599943e-02, -4.505052567e-01, 6.789890584e-03, -1.271102279e-01, 3.748469055e-01, -5.890420675e-01, -5.379282404e-03, -1.766364872e-01, 7.891693711e-02, 8.373486251e-02, -1.209099814e-01, 6.045810133e-02, -1.497466564e-01, -3.407366748e-04}, {-2.571358383e-01, 1.747171730e-01, -3.940536082e-01, 4.574003816e-01, 1.342219766e-02, 3.551682234e-01, 1.370375156e-01, -2.170530409e-01, 7.420314103e-02, 2.279586196e-01, 1.574563682e-01, 1.482663751e-01, 2.785854042e-01, 3.719055057e-01, 2.833574452e-02, -6.532930583e-02, -2.160113156e-01, 2.193378508e-01, -1.465226430e-02}, {2.368321270e-01, -5.303337052e-02, 1.359316558e-01, 1.146422252e-01, 1.707893014e-01, 2.221060097e-01, 3.414899409e-01, -2.921656892e-02, -5.925319344e-02, 3.662829101e-01, 1.854299903e-01, 1.914398521e-01, -1.276015490e-01, -1.666961461e-01, 1.466343403e-01, -1.257867664e-01, 1.363900770e-02, -3.214734048e-02, -8.582586795e-02}, {-1.281492710e-01, -2.040776610e-02, -3.312652111e-01, 2.567804158e-01, -1.988233626e-01, -1.904613376e-01, -2.548770308e-01, -2.216094546e-02, 1.443658173e-01, 3.782081902e-01, 1.760133356e-01, 1.150395051e-01, -3.080700040e-01, 1.891786158e-01, 3.752361238e-01, -1.200460941e-01, -7.498121820e-03, 5.433241650e-02, 4.983445629e-02}, {2.355154455e-01, 2.613399029e-01, -3.299420476e-01, -3.395248652e-01, -1.807029843e-01, 1.532096118e-01, -5.091078281e-01, 2.990364730e-01, 6.314042490e-03, -5.407156423e-02, -5.544393659e-01, -1.010996252e-01, 1.842386462e-02, -5.541270599e-02, -9.727753699e-03, 9.658837318e-02, 5.221052095e-02, -1.340833157e-01, 1.731630601e-02}, {-3.578008711e-01, 3.714949489e-01, 4.181430042e-01, 7.022215519e-03, -1.181389168e-01, -3.298994303e-01, -1.568686776e-02, -9.336889535e-02, -2.684638798e-01, -1.640094668e-01, -2.264228463e-01, -7.023262978e-02, -2.180898637e-01, 1.548631638e-01, 3.633752465e-01, 1.204749569e-01, -5.486476049e-02, -4.715876654e-02, -4.547245055e-02}, {-1.018773556e+00, -1.071518213e-01, 1.603808254e-01, -4.837408662e-02, -2.440423239e-03, 5.288283154e-02, -3.009829298e-02, 2.873849869e-01, 2.676101588e-02, 3.067113459e-01, -3.249502182e-01, -6.258567423e-02, 7.773111761e-02, 4.879596457e-02, 1.376917809e-01, -9.623631835e-03, 1.467914227e-02, 3.273520991e-02, -6.261739880e-02}, {1.725099236e-01, 3.715568781e-01, -5.159094185e-02, -1.591179371e-01, -5.325751305e-01, 4.669036567e-01, -2.880791724e-01, 2.813371420e-01, 6.968188882e-01, -9.169592708e-02, -1.038454399e-01, -1.690622717e-01, 1.591082811e-01, 5.577921867e-02, -1.309170723e-01, 6.798214465e-02, 4.140042141e-02, 9.926595539e-02, -2.420430072e-02}, {-9.917366505e-02, -5.651792884e-02, 6.797502190e-02, 1.270936131e-01, 4.217689112e-02, -9.926931560e-02, 6.514246762e-02, -4.110889137e-02, 9.497040510e-02, -1.270563751e-01, 1.692865491e-01, -3.085240163e-02, -4.574775230e-03, 1.717061400e+00, -1.854861714e-02, 2.952281944e-02, 1.964575425e-02, 6.692822557e-03, -4.064043518e-03}, {2.243275940e-01, 4.840980768e-01, 7.953146100e-02, -1.507640481e-01, -6.467283368e-01, 3.948123381e-02, -4.829026163e-01, 1.490197033e-01, -1.422920078e-01, 5.212931708e-02, -4.284254834e-02, -2.920574322e-02, 7.046538591e-02, -1.297663003e-01, -1.953877881e-02, 1.958786882e-02, -1.223625708e-02, -2.041157521e-02, 5.721251480e-03}, {-2.636048794e-01, -1.318174005e-01, -1.408974379e-01, 2.916567028e-01, 1.291014403e-01, 1.326771826e-01, 6.161184907e-01, 5.578611046e-02, -2.119985819e-01, -4.485476315e-01, 4.159911871e-01, 1.911084354e-01, 1.395845711e-01, 9.180919081e-02, -6.078150123e-02, -2.403328866e-01, 2.168161236e-02, 3.101708554e-02, 3.355083615e-02}, {-4.721678197e-01, 5.009268597e-02, 5.064083934e-01, 5.396120548e-01, -2.204748839e-01, -9.546640515e-01, -6.834512353e-01, -1.255763769e-01, -3.457261920e-01, 1.359402090e-01, 2.809069157e-01, 2.982333675e-02, 1.173508838e-01, -3.105345927e-02, -6.790994108e-02, -7.153445482e-02, -1.155730709e-02, 5.455268174e-02, 2.895385586e-02}, {-1.452190429e-01, -3.084762394e-01, -4.422068596e-01, -3.074152581e-02, 2.367980927e-01, 1.121928822e-02, -1.557548046e-01, 4.375530407e-02, -1.512677372e-01, 1.625331789e-01, -6.454795599e-02, 3.231556714e-02, -3.079884872e-02, -4.422617555e-01, -1.143030915e-02, -8.517088741e-02, -4.630619660e-02, -9.395240247e-02, 1.088183597e-01}, {-7.566034794e-02, -7.974552363e-02, -1.007601321e-01, 1.391460150e-01, 6.560818106e-02, 9.807686508e-02, -8.736163378e-02, -5.734902620e-02, -2.301422134e-02, -1.211615875e-01, -1.613598913e-01, -6.903520320e-03, 1.397688866e+00, 1.205585152e-01, 1.834096760e-02, -9.335098416e-02, -1.851728000e-02, -4.514247924e-02, -1.846742234e-03}, {5.326626822e-02, -3.987020850e-01, -3.778758347e-01, 1.341338307e-01, 4.475384951e-01, 1.371963620e-01, 1.088140681e-01, 9.071897715e-02, 1.185763106e-01, -4.724540412e-01, 4.800367951e-01, 2.314459532e-02, -6.066307425e-02, 2.581360042e-01, 1.560841948e-01, 2.010846138e-01, -1.772760302e-01, 1.327848583e-01, -5.771907046e-03}, {-4.028318524e-01, 7.117769122e-01, 1.467574686e-01, 1.560984999e-01, -1.969430745e-01, -4.129440486e-01, 2.952958047e-01, 3.368737549e-02, 5.676493645e-01, -2.920017838e-01, 6.108719110e-02, 6.777423620e-02, -2.126460671e-01, 1.972949803e-01, 6.685849279e-02, -1.826596558e-01, -8.020197600e-02, -2.577482350e-02, 7.009596447e-04}, {3.985521793e-01, 1.937149167e-01, 9.266465902e-02, -3.885222971e-01, -2.871013880e-01, 8.195583522e-02, -3.972744346e-01, 2.345290035e-01, 3.238840029e-02, 1.500340104e-01, 5.163787603e-01, 7.767727971e-02, 2.117317729e-02, 8.348108828e-02, 2.752766907e-01, -1.700519621e-01, -8.055590093e-03, 5.782443285e-02, 6.400164962e-02}, {-9.968633205e-02, 6.082132459e-02, -9.188104272e-01, -1.723144650e-01, -4.750563577e-02, 9.161199927e-01, -3.172473013e-01, -1.568768919e-01, 2.581882477e-01, 1.006162837e-01, 9.335415810e-02, -6.046771258e-02, 2.689799666e-01, -3.119018674e-02, -1.934874058e-01, 7.546970621e-03, 1.909778565e-01, -5.295055732e-02, 2.370357886e-02}, {-1.491879374e-01, 1.882411242e-01, -3.282104731e-01, -2.083986439e-02, -2.261177003e-01, 2.484224290e-01, -2.069804221e-01, -2.114774883e-01, -7.920853794e-02, -4.147443175e-01, -5.590028763e-01, 3.362823427e-01, -3.062454760e-01, 1.996004581e-02, -4.377206205e-04, -2.810555138e-02, -1.317611784e-01, -1.823480129e-01, -6.873173267e-02}, {7.571335137e-02, -2.344464213e-01, 4.405003786e-01, 1.999417245e-01, 3.478893638e-01, -6.060796380e-01, 1.090901718e-01, -3.123904169e-01, 1.087487936e-01, -1.568132341e-01, -2.246534526e-01, -1.319080219e-02, 8.408563584e-02, 1.002656296e-01, 9.245605022e-02, -7.931175828e-02, 4.603433609e-02, -4.999677837e-02, 4.910255224e-02}, {1.586515456e-01, -3.597312272e-01, 2.782204151e-01, -3.208217025e-02, 4.040816426e-01, 1.356869563e-02, -1.037829816e-01, -6.750075817e-01, 1.980365962e-01, 3.120893240e-01, 5.976309255e-02, -1.705868244e-01, -2.524650097e-01, 3.671356663e-02, 5.369817838e-02, 7.235328853e-02, -3.304604068e-02, -5.323341116e-02, 2.769900113e-02}, {-3.843245804e-01, -1.921107024e-01, -9.262195975e-02, -8.328933269e-02, 1.734199971e-01, 2.427871376e-01, 1.950792521e-01, 1.438994706e-01, -2.636334002e-01, 3.463751078e-01, 2.543050945e-01, 6.041680649e-02, 2.908414006e-01, 4.932220578e-01, -2.579703927e-02, 1.654442400e-01, 8.771882951e-02, -6.278413534e-02, 1.789713651e-02}, {-6.796474010e-02, -1.185029969e-01, -1.209747493e-01, 4.527811334e-02, 7.086151093e-02, 1.306786090e-01, 3.835110664e-01, -7.555145770e-02, 2.448250204e-01, -4.157001078e-01, -8.446790576e-01, -9.390898980e-03, -4.368335009e-02, -7.008308172e-02, -2.654279768e-01, 1.652318388e-01, 3.747211024e-02, 6.175877992e-03, 5.063018203e-02}, {8.854658902e-02, -2.887359262e-01, -3.920100331e-01, -2.981125712e-01, 2.571136653e-01, 1.130742058e-01, 4.265587926e-01, 2.588528097e-01, -5.179271847e-02, 1.070037261e-01, -4.315795004e-02, 1.963279992e-01, -1.986770928e-01, 8.620247990e-02, 1.177369356e-01, -1.316511035e-01, -6.385917217e-02, -3.092383966e-02, -4.058378562e-02}, {-8.690557629e-02, -8.057682216e-02, -4.807940498e-02, 1.456305832e-01, -5.540962145e-02, 2.392130941e-01, 8.146865666e-02, -1.483355463e-02, 2.661783099e-01, 2.018658817e-01, 4.667174518e-01, 1.774089485e-01, -2.109418511e-01, 7.939402759e-02, 9.185882211e-01, -4.387657344e-02, -3.987428173e-02, -6.780647486e-02, -3.213993832e-02}, {-8.861652017e-02, -2.743207477e-02, 2.930828333e-01, 5.010299757e-02, -2.746449709e-01, -8.879037201e-02, 2.656679749e-01, -8.804637194e-02, -2.679361105e-01, 1.554907262e-01, -3.718444407e-01, -9.309121221e-02, 4.036046267e-01, -3.236417174e-01, 7.913976163e-02, 2.508424222e-01, 1.072294414e-01, 2.508197725e-02, -7.356263697e-02}, {2.860464454e-01, 2.034229189e-01, 1.024107635e-01, -4.207793772e-01, -3.426482975e-01, -8.239479363e-02, -4.255450070e-01, 1.591257006e-01, -3.387667611e-02, -1.579680741e-01, 1.738982648e-01, -7.865253836e-02, -2.380952798e-02, -8.063590527e-02, -3.900661832e-03, 3.141632378e-01, 1.530842297e-02, -7.267740369e-02, 3.638435155e-02}, {-6.503645182e-01, 1.161885485e-01, 1.755941957e-01, 2.303395271e-01, 4.342651665e-01, -4.709821939e-01, 1.748881638e-01, -1.209715009e-01, 1.118505374e-01, -3.093097508e-01, -1.999999210e-02, -9.547462314e-02, 1.874669641e-01, 1.199858636e-01, -2.357145697e-01, 1.047015637e-01, -1.701123454e-02, -2.259810828e-02, 2.642186359e-02}, {9.132383019e-02, -2.562126815e-01, 4.007926211e-02, -2.789412439e-02, 1.608487368e-01, 4.272031784e-02, 3.476424217e-01, 1.639985144e-01, -3.280381858e-01, 1.472393721e-01, -2.298121005e-01, -3.103608824e-02, -2.329794923e-03, 2.150572985e-01, -3.938922882e-01, 3.011391265e-03, -4.326511174e-02, 6.091614813e-02, 2.513490058e-02}, {-2.659776807e-01, -3.738477230e-01, -3.268304467e-01, 3.792993128e-01, 3.077617586e-01, -1.024739593e-01, 2.757126093e-01, -1.110928580e-01, -3.724630475e-01, 8.684299141e-02, 3.260959089e-01, -3.468721211e-01, -1.036775112e-01, 2.792082429e-01, 1.089294329e-01, -2.063524351e-02, 1.251622569e-02, 2.551990747e-02, -1.792824455e-02}, {1.017125621e-01, -3.560953736e-01, -4.678211510e-01, -2.437223196e-01, 1.188896000e-01, 3.179884851e-01, 2.354322374e-01, 2.549775504e-02, -5.290842615e-03, 3.951382935e-01, -6.479965448e-01, 2.104733437e-01, -1.107878760e-01, -2.232439667e-01, 7.230629027e-02, 1.541337073e-01, 1.401351839e-01, -1.970968843e-01, 3.640972311e-03}, {8.740761876e-02, 4.710524082e-01, -2.054558694e-01, 5.908904225e-02, -3.696419895e-01, 4.061256051e-01, -1.041573882e-01, -3.106222749e-01, 7.736610621e-02, 7.883128524e-02, -3.469097242e-02, 4.123255238e-02, -9.500132501e-02, 7.531574368e-02, 6.731010042e-03, 7.184649818e-03, 7.423010468e-02, 7.747795433e-02, -4.612277448e-02}, {1.784676015e-01, 7.404177636e-02, 8.249818534e-02, 2.234485745e-02, -3.636222705e-02, 2.204716951e-01, -1.130973920e-01, -4.487719852e-04, 1.163719535e+00, 1.460266113e-01, -2.903622985e-01, 2.265670002e-01, 1.061496139e-01, 9.892563522e-02, 1.169200540e-01, -6.975934654e-02, 6.763841212e-02, 3.461765498e-02, 5.024579540e-02}, {1.288798153e-01, -4.224409759e-01, 2.466807514e-01, 1.092608273e-01, 2.674391270e-01, -1.310805678e-01, 1.502656639e-01, -5.899471641e-01, 2.455434799e-01, 1.214939952e-01, -1.703531742e-01, 1.175239608e-01, 1.990183443e-01, -5.136887431e-01, 2.346187085e-02, -4.192845663e-04, -2.061711997e-02, 3.204893693e-02, 4.759977385e-02}, {2.193163484e-01, -3.894393891e-02, -6.880736351e-02, -2.113086134e-01, 4.635855928e-02, -1.818631291e-01, 5.244408175e-02, 3.242933452e-01, -1.743228436e-01, 6.248129159e-02, -1.986372024e-01, -6.431798829e-05, 4.637476802e-01, 2.084800601e-01, -1.688330323e-01, -4.252182841e-01, -4.045815766e-02, 1.882330142e-02, 9.009017958e-04}, {5.442786589e-02, 2.016800344e-01, -6.795609742e-02, -6.586237252e-02, -4.331638515e-01, 3.654922247e-01, 9.249125719e-01, 2.449223399e-01, -1.640219539e-01, -2.264864184e-02, -1.508322656e-01, 1.470226496e-01, -2.331680246e-02, -1.600548998e-02, 2.747982554e-02, -4.420227185e-02, -7.869962603e-02, -6.950871646e-02, 1.889680885e-02}, {-5.580671132e-02, -5.865646154e-02, -3.917337954e-01, 5.021173134e-02, -7.987444848e-02, 4.521367848e-01, 1.196275800e-01, -3.963734582e-02, -1.936714537e-02, -9.079185128e-02, -5.200635195e-01, 1.915914267e-01, 5.396516323e-01, 1.353964806e-01, 3.107572496e-01, 2.084511667e-01, 5.749099702e-02, -5.020833574e-03, 4.846062884e-02}, {1.078417450e-01, 1.059259400e-01, -4.098250270e-01, -3.472860456e-01, -1.425940245e-01, -1.862898320e-01, 8.288683742e-02, -4.139484465e-02, 2.539302409e-01, -5.828425288e-02, 4.685601890e-01, -8.299081028e-02, -4.587122425e-02, 3.635217622e-02, 5.977001190e-01, -1.767896116e-01, -3.287307173e-02, -4.173893481e-02, 5.861192476e-03}, {2.134809494e-01, 5.300760642e-02, -2.051836401e-01, -1.580684036e-01, 3.648454547e-01, 1.752757877e-01, 4.980483949e-01, -2.724446356e-01, 3.705808222e-01, 6.662117839e-01, -6.724293828e-01, -7.220505178e-02, 9.259808809e-02, -8.206532896e-02, 7.236733288e-02, 6.313724816e-02, 4.403401911e-02, -5.367967114e-02, 1.792062819e-02}, {-6.525244098e-03, -9.539508261e-03, -6.499927957e-03, 4.417017847e-02, 7.169622928e-02, -1.337983087e-02, -8.691050857e-02, -2.404332757e-01, 2.320386022e-01, -1.185914204e-01, 1.082809791e-01, 2.793938853e-02, -5.138257742e-01, -1.378031522e-01, -2.464699447e-01, 3.813421726e-01, -6.900651846e-03, -1.191963106e-01, 1.790867932e-02}, {2.219300121e-01, -3.609133065e-01, 1.224398986e-01, -3.913673107e-03, 5.094166994e-01, -1.504749656e-01, 4.312939644e-01, 3.365201876e-02, -1.990606934e-01, 2.138718069e-01, -2.394387126e-01, 3.222827911e-01, -4.918316752e-02, 5.056921020e-02, 1.842499673e-01, 4.749402404e-03, 7.032040507e-03, 1.350798756e-01, -9.671118855e-02}, {-1.777486317e-02, -1.046107337e-01, 2.692546844e-01, -9.376706183e-02, 3.029349744e-01, -2.927480824e-02, 2.033639252e-01, -2.727189288e-02, 1.597464085e-01, 7.145559788e-02, -7.126217335e-02, 3.573811427e-02, -7.223217934e-02, 2.228754610e-01, 2.506872416e-01, -1.149160862e-01, -1.098390445e-01, -8.417534083e-02, -1.273085829e-02}, {2.104315013e-01, -5.727229267e-02, 1.874714047e-01, -1.939315945e-01, -2.587166615e-02, -1.102136523e-01, -5.859062076e-01, -6.047509909e-01, 8.240431547e-03, -4.485864043e-01, -1.363489777e-01, -1.096032783e-01, -1.746840030e-01, 4.507568479e-02, 5.678784475e-02, -5.279598385e-02, -5.383426324e-02, 1.996378414e-03, -9.315709770e-02}, {3.321977854e-01, -2.860873938e-01, 3.465496600e-01, -6.973886490e-02, -1.591094732e-01, -3.077752590e-01, -1.696905196e-01, 1.052608043e-01, -3.223043084e-01, 3.393463194e-01, -5.763806403e-03, 8.747458458e-02, -1.749073416e-01, 2.253512293e-02, 3.414415196e-02, -5.191135406e-02, -3.589363769e-02, 2.232605591e-02, -5.272225663e-02}, {-6.094777584e-01, 1.239042357e-01, 5.189548731e-01, 4.028774500e-01, 1.561526656e-01, -5.391522869e-02, -2.310274094e-01, 7.534801215e-02, 8.194197435e-04, 1.044715568e-01, -1.625617892e-01, -1.402827725e-02, -7.223831862e-02, -1.298626363e-01, -9.048086405e-02, 8.342213184e-02, -2.773639746e-02, -3.075961210e-02, -5.481642112e-02}, {-7.891076058e-02, 4.191548526e-01, -1.374857575e-01, -3.049944639e-01, -3.697735369e-01, -5.192676932e-02, -2.174683660e-01, -8.490284532e-02, 2.764914334e-01, 4.686089754e-01, -2.322949320e-01, 2.066386342e-01, 1.852811724e-01, -1.113528945e-02, -8.884136379e-02, 1.500020623e-01, 1.128181741e-01, -7.544627786e-02, 4.342206940e-02}, {-8.504135534e-03, -7.422514260e-02, 3.967485428e-01, -1.011061072e-01, 2.540877461e-01, -4.699920118e-01, -8.275861740e-01, 8.974424005e-02, 5.762910843e-02, 1.755746901e-01, -1.470025033e-01, 1.237304583e-01, -2.215762138e-01, -1.030715555e-01, 1.262015998e-01, -3.335215151e-02, -7.059358060e-02, -1.480926387e-02, 4.642636329e-02}, {-4.707146585e-01, -1.543676257e-01, -4.033431709e-01, 7.609423716e-03, -7.182779908e-01, 4.396815300e-01, -1.651308686e-01, 6.371069700e-02, 3.677647710e-01, 3.181805313e-01, 1.677347422e-01, 7.284215838e-02, -5.183224753e-02, -2.455489710e-02, 1.667200923e-01, 9.177869558e-02, -2.461574972e-02, -1.113954373e-02, -1.705478760e-03}, {2.370202094e-01, 3.777065277e-01, 2.615022957e-01, -3.265606612e-02, -5.280390978e-01, -2.637462020e-01, 3.482366204e-01, -1.141893268e-01, 3.291079700e-01, 2.205289453e-01, 5.805133581e-01, -1.415733397e-01, 1.380708441e-02, -1.349901408e-01, -1.292913407e-02, 2.755385451e-02, 5.413663015e-02, 3.678135201e-02, 4.746881872e-02}, {-2.167923599e-01, 2.705607414e-01, 7.259448171e-01, 7.980535179e-02, -1.292304099e-01, -2.544934750e-01, -1.183085814e-01, -1.252736151e-01, -6.277450360e-03, -1.844672859e-01, -1.334192902e-01, 2.157617360e-02, -3.036171496e-01, 1.891880184e-01, 2.234551460e-01, -1.766289324e-01, -4.436833039e-02, -7.178437430e-03, -1.443782076e-02}, {-5.734911561e-01, -3.256689310e-01, -3.516103327e-01, 1.385327429e-01, -1.993189156e-01, 4.574341178e-01, -6.372620463e-01, -3.072866239e-02, -2.957443297e-01, 8.763767779e-02, -5.370508414e-03, 7.634864748e-02, 1.129527763e-01, -9.787608683e-02, -6.934816390e-02, 9.047339112e-02, -2.119040675e-02, -5.973555148e-02, -2.153609321e-02}, {-1.909951866e-02, 1.851691604e-01, -1.279433221e-01, -2.402576990e-02, -1.164430007e-01, 8.446820080e-02, -1.621060446e-02, 1.552745402e-01, -1.180110965e-02, 3.683784604e-01, -3.957068622e-01, 7.966089994e-02, 6.311962008e-02, 1.618664861e-01, 3.446899645e-04, 8.511879444e-01, -6.028761715e-02, 1.515972987e-02, -2.711242624e-02}, {2.370567806e-02, 7.734303921e-02, 3.245185018e-01, 3.061619103e-01, -1.741438359e-01, 1.427997500e-01, 1.642730832e-01, 5.419731513e-02, -6.165257096e-01, 7.003725506e-03, 1.523165256e-01, -1.968274117e-01, 3.166460693e-01, 1.524223089e-01, 5.405160785e-02, 8.499829471e-02, 8.174445480e-02, -4.122372344e-02, 2.513138950e-02}, {5.697910860e-02, 3.395203948e-01, -3.797361255e-02, 1.178146601e-01, -1.849900484e-01, -3.558957577e-01, 5.626241863e-02, 6.664799899e-02, -7.700100541e-02, -8.148408681e-02, -2.630641460e-01, -2.144237421e-02, -4.187283218e-01, 4.030467570e-01, 2.382290661e-01, -1.058866382e-01, -1.681906134e-01, -1.916028559e-02, 4.191411659e-02}, {4.862434566e-01, -2.583389878e-01, 2.089188099e-01, -4.963400066e-01, 4.373384714e-01, -6.551390141e-02, 3.773310781e-01, -1.899854392e-01, -4.239771962e-01, 1.497079134e-01, 2.335001826e-01, -1.241699234e-02, -5.505504552e-03, 3.265857324e-02, -7.846011221e-02, 1.108969189e-02, -2.312749624e-02, -1.989155263e-02, 9.849638678e-03}, {-3.282268997e-03, -2.619303763e-01, 4.608270824e-01, 3.007937968e-01, 5.661245584e-01, -1.123051122e-01, 2.710565180e-02, -2.834278643e-01, 2.269327044e-01, 5.058740824e-02, 1.711863130e-01, 2.922485769e-02, 7.557769120e-02, 2.046881169e-01, -1.661145836e-01, -1.488633752e-01, -1.204279512e-01, 2.096223682e-01, -1.864075661e-01}, {5.016313866e-02, 5.973716080e-02, -4.380510747e-01, -1.769008487e-01, -7.227594405e-02, 3.557386100e-01, -2.434086241e-02, 7.835397869e-02, 5.435443297e-02, -1.477336586e-01, -3.186579645e-01, -5.551433191e-02, -1.321914941e-01, 3.530553877e-01, 2.180654407e-01, 1.477858722e-01, 3.287079930e-02, -1.670742780e-01, -1.445429772e-02}, {-1.189454943e-01, -4.942950606e-01, 1.735863388e-01, 1.522473246e-01, 4.032579362e-01, -4.010629952e-01, -3.864275813e-01, 2.817647159e-01, 3.846314847e-01, 5.387660861e-01, 2.060200088e-03, -6.412604451e-02, 2.295978367e-01, -1.207223758e-01, 6.487288326e-02, 3.577407598e-01, 4.271376505e-02, 1.508752722e-02, -2.712452039e-02}, {3.133879900e-01, 2.066552639e-01, 1.255941838e-01, -2.146987170e-01, 1.061644927e-01, 7.124531269e-02, 7.800119519e-01, 1.656766236e-01, -2.234903574e-01, 1.558347791e-01, 5.693665743e-01, 1.724874824e-01, 2.400258929e-01, -1.336263865e-02, -6.736852974e-02, 6.386927515e-02, 5.819714442e-02, -4.982703179e-02, -1.352236699e-02}, {-2.384144664e-01, 1.419808716e-01, -5.267063975e-01, 6.939602643e-02, -3.579561412e-02, 2.268929332e-01, -7.616160810e-02, 1.421951503e-01, -1.793473512e-01, -1.617478207e-02, 2.016808465e-02, -2.012342960e-01, -3.168079555e-01, 1.246293858e-01, -1.650899649e-01, -1.037556119e-02, -1.626674086e-01, -1.215072274e-01, -1.163990051e-01}, {3.338404745e-02, 4.724918678e-02, -2.103531957e-01, -1.017645672e-01, -3.495995328e-02, 2.753544748e-01, -4.810414277e-03, 2.621109411e-02, 7.852923870e-02, -9.430976212e-02, 1.054106578e-01, -2.332102321e-02, 1.201098785e-01, -4.890374839e-01, 7.657753676e-02, 7.074532509e-01, 5.794911832e-02, -1.043315530e-01, -4.656429216e-02}, {1.662670076e-01, 1.837079078e-01, -9.351573884e-03, -2.293768376e-01, -1.175737008e-01, 6.623532623e-02, -8.583407104e-02, 3.015988693e-02, 1.065964624e-01, 4.988488257e-01, -7.358871102e-01, -1.813289672e-01, -2.057046145e-01, 3.812355176e-02, 1.747192889e-01, -2.900843024e-01, -1.395558566e-01, 1.784333438e-01, 4.462058842e-02}, {3.851136658e-03, 1.397822332e-02, 2.545834482e-01, -4.815817811e-03, 7.560466230e-02, -3.415630013e-02, 1.486253291e-01, -1.537342668e-01, 5.219680071e-01, -3.761071563e-01, 1.857415289e-01, -8.686890453e-02, -1.988925040e-01, -3.383814692e-01, 1.053709388e-01, 2.952939272e-01, 5.913864449e-02, -3.365430608e-02, 6.974034011e-02}, {9.537229687e-02, 1.557166725e-01, 3.176048100e-01, 1.229499802e-01, -1.300153285e-01, -1.356775910e-01, 7.257564068e-01, 8.032183349e-02, -3.280796409e-01, -1.354084164e-01, 9.268323332e-02, -1.080718264e-01, -4.020982087e-01, -1.421952341e-02, -2.183373570e-01, 1.106448621e-01, 3.465514258e-02, 9.054365568e-03, -3.419675678e-02}, {-1.608546078e-02, -4.508766159e-02, -5.643511564e-02, 1.632127911e-01, 1.484684944e-01, 2.488665581e-01, -1.000089720e-01, -7.561169565e-03, 4.843610153e-02, -2.161175609e-01, -1.740992256e-02, 7.144562900e-02, 3.058113754e-01, -2.938638069e-02, 4.384559989e-01, -1.084855944e-01, -5.746517703e-02, 1.910752989e-02, 9.121472389e-02}, {-4.461261928e-01, -4.950582087e-01, 1.936017722e-01, 3.289608359e-01, 3.182447255e-01, -1.386601478e-01, 1.078164279e-01, -1.305949222e-02, -1.304073930e-01, 3.757607564e-02, -3.196562231e-01, -1.070453748e-01, -1.014419645e-01, -2.686560452e-01, -8.229915053e-02, -1.589267105e-01, 7.745566964e-02, -4.459239170e-02, -4.833840579e-02}, {1.365624461e-02, -1.774414778e-01, -1.250924319e-01, -1.522503048e-01, -2.475177348e-01, 1.624450684e-01, -5.826340988e-02, -5.197229981e-02, -4.437804818e-01, -4.690519571e-01, -6.246422231e-02, 4.022132605e-02, 2.108902931e-01, -1.020094976e-01, 7.267592847e-02, 1.584081650e-01, 4.191637412e-02, -3.500568867e-02, -8.494710922e-02}, {-2.947964072e-01, -6.057807431e-02, 2.744414508e-01, 9.183784574e-02, -1.967869550e-01, 1.105403453e-01, -1.649163105e-02, 3.247211576e-01, -3.112207055e-01, -5.496200919e-02, 1.310180780e-02, -8.084602654e-03, 2.051329017e-01, -1.518016458e-01, -2.072747946e-01, -5.012949556e-02, 6.082992628e-02, 4.197177291e-02, 3.164344653e-02}, {-1.756879389e-01, -3.198407888e-01, 3.796900213e-01, -2.556284964e-01, 1.354917735e-01, -3.095044792e-01, 2.364635095e-02, 7.225335389e-02, 5.645877719e-01, 1.991913915e-01, 2.961932421e-01, -5.417438969e-02, 3.151597083e-01, -9.446509182e-02, -4.156222939e-01, 1.567337811e-01, 3.226054087e-02, 6.116978452e-02, 8.868899941e-02}, {1.319088601e-02, 3.729903102e-01, 4.493756890e-01, 1.684221327e-01, 5.737303942e-02, -3.443306386e-01, 6.643341184e-01, 1.286540031e-01, 2.833217978e-01, 8.968393505e-02, -2.197877914e-01, -1.211897656e-02, 6.778416038e-02, -1.793703139e-01, -2.935716324e-02, -8.933500946e-02, -6.780460943e-03, 8.979683369e-02, -7.912390865e-04}, {2.553716004e-01, -4.165343195e-02, 2.743482888e-01, -3.335978985e-01, 1.953894645e-01, -2.899478078e-01, 2.053704560e-01, -2.070788294e-01, 2.897328734e-01, -5.518479645e-02, 1.376612335e-01, 2.004728913e-01, -7.052561641e-02, -2.413192242e-01, -1.560633928e-01, -7.950714789e-03, 5.851642042e-02, 6.436345726e-02, 3.874020278e-02}, {-2.093476057e-01, 2.013200372e-01, 2.392182350e-01, 3.123084903e-01, -1.732329875e-01, -4.035224319e-01, -1.584460586e-01, 1.745934933e-01, -1.354083568e-01, 1.288973242e-01, -2.986238897e-01, 2.034569904e-02, 2.973366976e-01, 1.262217164e-01, -2.399406768e-02, -3.586846888e-01, 7.685285527e-04, 2.789792232e-02, -5.157393171e-04}, {-2.870872617e-01, 2.393683791e-01, -1.059459373e-01, 3.566664755e-01, -5.156256557e-01, -5.210591555e-01, 6.840315461e-02, -4.763324931e-02, -8.689121343e-03, 8.031293750e-02, -1.729017645e-01, -8.914665319e-03, 1.418481022e-01, 1.554725617e-01, -3.883163035e-01, 1.291235387e-01, -1.400547661e-02, 6.187938526e-02, -1.128836535e-02}, {2.460210919e-01, -3.289745655e-03, -2.139525712e-01, -3.916040063e-01, -4.540606961e-02, 3.997018561e-02, -9.754770249e-02, 2.748815119e-01, -3.158105910e-01, 1.207920834e-01, 4.760014415e-01, 4.483628087e-03, -4.506846666e-01, -1.817288846e-01, 1.972267330e-01, -9.603193402e-02, -2.047684230e-02, 2.249898389e-03, -5.954863876e-02}, {-4.679736197e-01, 2.657644451e-01, 1.890910715e-01, 2.508006990e-01, -1.784981489e-01, -3.263633251e-01, 1.658566743e-01, 1.895679720e-02, 4.165570736e-01, 4.573433101e-01, 3.433464170e-01, -1.025774181e-01, -1.337695420e-01, 3.641134501e-02, -6.783759594e-02, 2.923469245e-01, 1.719782054e-01, 5.084986985e-02, 6.234915555e-02}, {-6.811151654e-02, -2.381156683e-01, -4.212543368e-01, 7.786488533e-02, 3.170403540e-01, 3.102538884e-01, -8.445646614e-02, -1.492840946e-01, 4.312308878e-02, 2.501905710e-02, 8.660756052e-02, 1.046400815e-01, -1.335861981e-01, 2.257613391e-01, 5.405019037e-03, -4.540821016e-01, -6.304315478e-02, 6.550369412e-02, 8.537998796e-02}, {-9.808607399e-02, 2.880812064e-02, -8.265803456e-01, 1.883073896e-01, -1.131954342e-01, 8.095833659e-01, 1.372244656e-01, 1.936264336e-02, -1.081261858e-01, -9.055883437e-02, 1.186731607e-01, -1.312228735e-03, -5.765688047e-02, 8.400110900e-02, 5.501359329e-02, -7.784980536e-02, -2.015920170e-02, 2.167981304e-02, -4.064703360e-02}, {-2.940384150e-01, 6.982855499e-02, -2.743549347e-01, 5.279014632e-02, 1.325953659e-02, 1.719722301e-01, 2.853822708e-01, -1.314523518e-01, -2.288600355e-01, -1.341543198e-01, -9.813994169e-02, 1.491523534e-01, 2.446785122e-01, -3.298488557e-01, -8.590336144e-02, -9.948138893e-02, 4.242224991e-02, 6.353932619e-02, -8.124729991e-02}, {9.291148931e-02, 1.810824871e-02, -2.115799785e-01, 2.216826975e-01, -6.806169450e-02, 5.983932018e-01, 3.881700337e-02, 2.271750122e-01, -3.957019374e-02, 2.843396366e-01, 3.589840233e-01, -9.474115074e-02, 8.771501184e-01, 1.439042389e-01, -3.493273258e-01, 3.719751239e-01, 1.563977301e-01, 2.601251304e-01, 3.732067347e-02}, {7.961019129e-02, -2.791779339e-01, -4.184655845e-03, -1.488264650e-01, 3.191668093e-01, 2.523561418e-01, -2.576207817e-01, -3.128434122e-01, -1.352509558e-01, 2.446352392e-01, -2.886989117e-01, -5.381185189e-02, 1.540722102e-01, 1.252105236e-01, -1.100847721e-01, 2.068149447e-01, -3.207204118e-02, -2.790310085e-01, 4.284865409e-02}, {-8.866585791e-02, 2.246727794e-01, 5.817742348e-01, 2.542176843e-01, -5.421020985e-01, -2.499425411e-01, -7.056330442e-01, -3.459850848e-01, -5.090525150e-01, 2.988572791e-02, -1.835726947e-02, 7.993040234e-02, -3.970927373e-02, -2.200271189e-02, -6.926054507e-02, 9.518077597e-03, 1.094814576e-02, -1.421758253e-02, 1.723668911e-02}, {1.077285111e-01, 1.764620990e-01, 5.897704512e-02, -3.020602465e-01, -3.215084672e-01, -2.235755920e-01, -1.656343490e-01, 2.117654681e-01, 4.006073996e-02, 2.043714970e-01, 9.456877410e-02, 1.205874491e-03, -3.999006152e-01, 8.185729384e-02, -2.404467314e-01, -5.177640356e-03, 4.779858515e-02, -2.508986928e-02, -2.813254297e-02}, {-4.018894434e-01, 2.961641848e-01, -2.252131253e-01, 3.674416542e-01, -3.523758054e-01, 3.956723213e-01, -3.091006577e-01, -2.559558153e-01, -3.692435324e-01, 1.940492839e-01, 2.294956148e-01, -1.376207322e-01, -2.211675420e-02, 5.627958477e-02, 1.140411273e-01, 7.759279758e-02, -5.436227843e-02, -1.030097157e-01, -5.519458558e-03}, {2.033139020e-01, -3.918075860e-01, -4.063444734e-01, -7.827050984e-02, 3.712806404e-01, 2.058350891e-01, 2.110204995e-01, 3.106981218e-01, 1.827910691e-01, -2.001565248e-01, -3.837146461e-01, 8.563668281e-02, 3.165251315e-01, -1.671379656e-01, 6.164005026e-02, 9.952602535e-02, -2.280368656e-02, -2.793358266e-02, -4.568554088e-02}, {1.271790639e-02, -4.134645686e-03, -4.842238501e-03, 2.425182797e-02, -1.460006088e-02, -6.714758463e-03, -3.854026645e-02, 1.000827178e-02, -2.656686306e-02, -3.806318343e-02, -6.984730810e-02, -6.588272750e-03, 1.665308140e-02, -1.860527508e-02, 1.449167252e+00, 6.002067123e-03, 7.321514189e-03, 1.206148788e-02, -9.371303022e-03}, {-7.415375113e-01, 9.489799291e-02, 1.140964702e-01, 4.484751076e-02, 7.518450916e-02, -2.693037689e-01, 2.364475280e-02, 1.350596398e-01, 6.680139899e-01, 1.949069053e-01, 1.617197394e-01, 3.194624186e-01, 1.162788868e-01, -1.793836802e-01, -1.173025668e-01, -2.502857521e-02, 6.153473258e-02, 2.187630348e-02, -6.122962385e-02}, {2.417792976e-01, 2.152532488e-01, 1.138284951e-01, -2.591334581e-01, -3.309561610e-01, 1.559383702e-03, -3.815213144e-01, -2.640112042e-01, -7.134313881e-02, 1.416790485e-01, 1.956452727e-01, -1.543709189e-01, -4.297320545e-02, -6.422359496e-02, 1.291965544e-01, -4.339191318e-01, 7.480294257e-02, -1.386665553e-01, 4.224928841e-02}, {4.757210147e-03, -7.705646753e-02, -3.156833053e-01, 3.200144768e-01, 1.618980765e-01, 8.082062602e-01, -3.483986259e-01, -6.996147335e-02, -4.906722158e-02, -7.784086466e-02, -1.969450563e-01, -3.954282776e-02, -3.892436028e-01, -1.674110293e-01, 1.903893501e-01, 7.870879769e-02, -5.392902344e-02, 4.460142553e-02, 1.475148555e-02}, {-1.981080472e-01, -1.888907999e-01, 2.076697201e-01, -4.552437738e-02, -9.886656702e-02, -3.707101643e-01, 2.274058461e-01, -1.476868987e-01, -3.964034840e-02, 4.703541100e-01, -8.785650134e-02, -5.866992101e-02, -2.478582785e-02, 2.838227749e-01, -5.362926051e-02, -4.001709223e-01, 9.414123744e-02, -6.859683245e-02, 1.877236553e-02}, {2.427933216e-01, -2.141452394e-03, 3.133026659e-01, -1.168361977e-01, -5.832853913e-01, -2.086682320e-01, -8.075081110e-01, -8.461205661e-02, 4.234865308e-01, -1.679846048e-01, 8.765250444e-03, 1.067016721e-01, -4.170535132e-03, 1.443258822e-01, 1.468750276e-02, -1.431383938e-01, -4.149370268e-02, -1.583683491e-02, 6.123088300e-02}, {9.662453085e-04, 4.728278518e-02, 1.868453175e-01, 2.246776596e-02, -3.968754411e-01, -2.501972020e-01, 5.510975718e-01, -3.456138372e-01, -1.936688125e-01, -6.579910219e-02, -1.432985216e-01, -5.859272089e-03, -3.267134130e-01, -2.782177329e-01, 2.829712257e-02, -4.782298207e-02, -6.792866439e-02, 5.505019799e-02, -2.116475441e-02}, {-9.311729670e-02, -7.760934532e-02, 1.003339961e-01, -1.182404999e-02, -1.187084615e-01, -4.701431096e-01, 2.645812631e-01, 8.565628529e-02, 1.825155765e-01, 2.628013492e-01, -3.171705306e-01, 1.139408946e-01, 5.273693427e-02, -5.394044518e-01, 5.331091583e-02, 2.044813484e-01, 1.555190533e-01, -1.999435723e-01, 7.783450186e-02}, {5.902373046e-02, 2.342389822e-01, -2.928782068e-02, 1.479121298e-01, -1.622903645e-01, 1.177509874e-01, 4.325426519e-01, 3.391702101e-02, 4.181154370e-01, 6.277094036e-02, 1.681835949e-01, -1.820916981e-01, 3.084272146e-01, -2.521112561e-01, -1.100086346e-01, 7.943122387e-01, 1.258192658e-01, -9.437364340e-02, -1.104724035e-02}, {3.172079921e-01, -1.840825975e-01, 5.416683480e-02, -3.266949654e-01, 2.482220829e-01, 2.907083631e-01, 3.340421915e-01, 2.867426872e-01, -3.259070814e-01, -1.815048009e-01, -8.710660040e-02, -3.188736737e-01, -6.962110847e-02, 4.810929298e-02, 6.575374398e-03, 1.679829694e-02, 2.028317936e-02, 5.467080977e-03, -1.331121922e-01}, {-1.225582585e-01, -4.066661298e-01, 7.741563022e-02, 2.163640559e-01, -1.449828595e-01, -6.610991061e-02, 2.599998116e-01, -1.382821947e-01, 5.943956971e-02, -5.108799785e-02, 3.765459657e-01, 5.601210892e-02, 2.857207954e-01, -1.870019138e-01, -5.210316926e-02, 1.244052500e-01, 1.703846268e-02, -9.211235493e-02, -5.364620686e-02}, {2.810232341e-01, 2.070908546e-01, -6.837522984e-02, -2.202576995e-01, -1.319026649e-01, -1.686107069e-01, -6.220332980e-01, 2.238741666e-01, -4.341073036e-01, -2.559717894e-01, 3.646827638e-01, -8.113553375e-02, -9.082521498e-02, 2.671500444e-01, -2.647479773e-01, -3.301882446e-01, -1.027202010e-01, 7.389607280e-02, -9.166814387e-02}, {1.630864292e-02, 5.471905321e-02, -7.283449173e-01, 7.183232158e-02, -3.393686842e-03, 6.180087924e-01, -1.074823514e-01, 4.793208465e-02, 3.519769758e-02, -2.401135564e-01, -4.281161726e-02, -4.558659717e-02, 1.136429161e-01, -6.354843825e-02, -7.866772264e-02, -3.361538053e-02, -2.496304736e-02, 8.347566426e-02, 4.738582671e-02}, {9.741301090e-02, 3.716875911e-01, 1.500797421e-01, 9.082776308e-02, -4.638231695e-01, -4.644481242e-01, -3.835768402e-01, 1.336759478e-01, 4.753740877e-02, -1.280362159e-01, 3.304651678e-01, -8.319625258e-02, -6.124476716e-02, -2.870350480e-01, 4.047657549e-02, -1.106286868e-01, -5.646574870e-02, 4.697295651e-02, 4.359893501e-02}, {-1.275812835e-01, -1.824171282e-02, -5.517650396e-03, 1.034777611e-01, 1.728735678e-02, -1.189684272e-01, 9.570374154e-03, 5.055990443e-02, -2.190239727e-01, 1.051318794e-01, -1.510498226e-01, -1.060653012e-02, 9.236538410e-02, -8.058852702e-02, -5.503668264e-02, 1.756443739e+00, 1.359886839e-03, 1.187844109e-02, -3.372175852e-03}, {2.822683156e-01, -2.718651891e-01, 2.035181224e-01, -2.163680345e-01, 2.685683966e-01, -3.425016999e-01, -4.465625808e-02, -1.624631435e-01, -3.141864836e-01, -1.429665536e-01, -4.531272650e-01, -1.112811491e-01, 1.501072198e-01, -4.187758546e-03, -6.820062548e-02, 2.011172473e-01, 3.871542588e-02, -4.568931647e-03, -2.348709153e-03}, {-5.767108500e-02, -1.152994633e-01, -4.806779325e-01, 3.728708625e-01, 5.575913563e-02, 3.330346942e-01, -2.976734936e-02, -1.127332672e-01, 2.344634533e-01, -5.598202944e-01, -1.328008324e-01, 1.640221477e-02, 4.916667640e-01, 9.922151268e-02, -1.450517029e-01, -5.330695584e-02, -3.919686750e-02, 1.237541437e-01, -2.781107649e-02}, {-9.263997525e-02, 1.492529958e-01, -2.709117234e-01, 3.167625964e-01, 1.452803016e-01, 1.147719622e-01, -1.274227053e-01, 1.933840513e-01, -4.655157216e-03, -5.191314220e-01, 4.250927269e-01, -2.365228534e-02, -3.437094390e-02, -1.774221957e-01, 1.678731740e-01, 1.344845742e-01, -2.413196862e-01, 2.215822488e-01, -4.278333858e-02}, {-2.984402888e-02, 2.841301858e-01, -2.384858765e-02, 1.968250126e-01, -3.088641167e-01, 1.060448363e-01, 2.517551929e-02, 1.127773225e-01, 9.755290300e-02, 1.022341251e+00, 4.343381822e-01, 2.399794757e-02, 1.145969182e-01, 1.907067373e-02, -1.769359410e-02, -2.909577079e-02, 1.875294000e-02, 3.860666603e-02, 3.222518787e-02}};

const float bias_in[NUM_NODES] = {-7.694344968e-02, -8.560057878e-01, -5.229067057e-02, 5.269523535e-05, 2.992128134e-01, -1.913152784e-01, 5.573270917e-01, -2.080913186e-01, -9.369652867e-01, -5.646131560e-02, 6.407623291e-01, 1.406837553e-01, -1.766395271e-01, 3.730225563e-01, 2.493764311e-01, 2.386911362e-01, 1.503737271e-01, 3.805699944e-01, -4.324146360e-02, 2.897678129e-02, 1.947324723e-01, -6.876968145e-01, -3.292175755e-02, -6.060063243e-01, -9.663172811e-02, -8.026584387e-01, 8.989848942e-02, -4.938764870e-01, -2.827419341e-01, 2.897054255e-01, -1.021033168e+00, -2.236740738e-01, -6.056925654e-01, -1.373189092e-01, -1.642751992e-01, -2.312688977e-01, 1.456005871e-01, 3.296005428e-01, -3.158444464e-01, -4.456210136e-01, -1.551115960e-01, -3.274787366e-01, -1.825857759e-01, 1.792070717e-01, -2.164442986e-01, 7.556769252e-02, 8.280000836e-02, -1.971947998e-01, 6.185516119e-01, -2.094011903e-01, 4.267749935e-02, -3.676066399e-01, -2.885414064e-01, 1.404746920e-01, 5.528963730e-02, -3.068030439e-02, -1.236424670e-01, -1.377128065e-01, 4.175538719e-01, -3.908638656e-01, 2.293708175e-01, -1.736767441e-01, -1.649600863e-01, -7.032017708e-01, -2.769179642e-01, -1.252135336e-01, -9.172770381e-02, 1.918692887e-01, 1.666208655e-01, 2.610891461e-01, 1.824598610e-01, -8.407761157e-02, -4.231737554e-01, 4.862513840e-01, -1.873730123e-01, -3.626395762e-01, -1.425897330e-01, 1.183147952e-01, -6.186594367e-01, -3.879294693e-01, -5.056036115e-01, 4.421369433e-01, -2.759702206e-01, 1.337160617e-01, -3.616795540e-01, -2.506429553e-01, -5.579904318e-01, -5.144598484e-01, 5.131046176e-01, 1.128883734e-01, -4.676254839e-02, 1.796186119e-01, -3.275512755e-01, 3.743168414e-01, 9.188091755e-02, -2.333703339e-01, -4.238238558e-02, -9.666909277e-02, -4.727518559e-01, 4.480487108e-01, -3.323665559e-01, -9.263917804e-01, -6.850072145e-01, -1.552339643e-01, -5.087130666e-01, -1.262122393e-01, -7.252134681e-01, -2.920699120e-01, -1.582096666e-01, -3.811805844e-01, -1.032946944e+00, 2.474936843e-01, -1.938984841e-01, 5.393745303e-01, 1.736913025e-01, -6.508706808e-01, -9.291511178e-01, -9.648793191e-02, -3.447453082e-01, 2.542446256e-01};

const float weights_out[NUM_CONTROLS][NUM_NODES] = {{6.515374780e-02, -8.093023300e-02, -4.290144891e-02, 3.943474963e-02, 1.294923015e-02, 4.182098433e-02, -7.909704745e-02, -7.851922512e-02, 5.588982627e-02, 1.458090097e-01, -3.664040565e-01, -2.986434847e-02, -1.968736947e-02, 6.388071924e-02, 1.122859418e-01, 3.128789365e-02, 7.283359766e-03, -2.946167290e-01, 7.565905340e-03, 4.622330517e-02, 2.984349430e-02, 9.541369043e-03, 1.251935065e-01, -5.085582659e-02, 2.065294385e-01, -7.327100635e-02, -2.833639979e-01, 9.130655229e-02, 6.895118207e-02, -3.639434576e-01, 8.953619748e-03, 1.178766717e-03, 1.758652739e-02, -5.428013578e-02, 1.310548335e-01, 6.132747233e-02, 4.132629558e-02, -1.316507440e-02, 2.762147225e-02, -3.435826600e-01, 2.153991014e-01, 6.823413074e-03, -9.405815601e-02, 4.957327154e-03, -5.343434587e-02, 9.131542593e-02, 2.965353988e-02, -6.058836728e-02, 3.229945432e-03, 3.797424957e-03, 8.218910545e-02, 5.672818422e-01, -7.285580784e-02, 2.746895887e-02, -3.736094013e-02, -1.959396154e-02, 1.694602370e-01, 3.195048193e-04, 5.887099355e-02, -6.862506736e-03, 8.925554901e-02, -1.761675030e-01, -1.209154446e-02, -1.730803996e-01, 9.112887084e-02, 6.948893070e-01, 4.551250115e-02, 4.565199465e-02, -3.646881087e-03, -7.138843834e-02, -9.570091963e-02, 6.900135893e-03, 5.963164382e-03, 6.406423450e-02, 1.028996613e-02, -4.038285464e-02, 8.438427746e-02, 6.056993082e-02, 2.654387988e-02, 9.559698403e-02, -1.150901243e-01, 3.505158424e-02, -2.649987340e-01, -5.552903563e-02, -8.600137196e-03, 4.105830565e-02, 6.022845954e-02, 1.482278388e-02, -8.495180868e-03, 5.609180033e-02, 5.627968907e-02, 4.008842260e-02, -6.755040959e-03, 2.224396169e-02, 1.433344781e-01, -4.821834341e-02, 1.292636245e-02, 4.185458273e-02, -2.371422946e-02, 2.204546332e-01, 3.376030177e-02, -1.390228122e-01, 2.930496335e-01, -5.353378877e-02, -2.889309451e-02, 6.885916926e-03, 3.136674315e-02, 3.383677453e-02, -3.616112471e-02, 1.648238488e-02, 7.932458073e-02, -1.723632775e-02, -2.449730933e-01, -3.254043683e-02, 4.348508716e-01, -2.445403636e-01, 4.083779827e-02, -3.901418298e-02, -2.792224102e-02, 5.527426302e-02}, {1.225745901e-01, 1.278143674e-01, -1.207686402e-02, -1.211044937e-01, -4.595062137e-02, -8.880036883e-03, -4.238517582e-02, 7.080938667e-02, -8.627744019e-02, -5.875273421e-02, 8.358065784e-02, 4.806151986e-02, 2.701666653e-01, 1.215230003e-01, -4.349205643e-02, 2.343796343e-01, -5.302127451e-02, 1.031320840e-01, 2.870084718e-03, -4.745742679e-02, 1.884040795e-02, -8.614080399e-02, 3.579368815e-03, 1.704854146e-02, -6.173441932e-02, 9.335718304e-02, -7.857066393e-02, 1.392966807e-01, -3.858404234e-02, -1.775559969e-02, -9.520700201e-03, 9.242555243e-04, -4.907915369e-02, -4.987258464e-02, -3.195141628e-02, 3.920957446e-02, 1.180793643e-01, -1.099871285e-02, 1.038516639e-03, 8.004899323e-02, 3.469088078e-01, 8.784197271e-02, -7.435183972e-02, 1.220003441e-01, 3.094593622e-02, -3.969969451e-01, -4.806285724e-02, -6.956145912e-02, 3.825980127e-01, 5.432692543e-02, 3.467835486e-02, 4.703266080e-03, -2.291485853e-02, 4.496330768e-02, 1.873124018e-02, -1.260073506e-03, 4.033689573e-02, 1.705705747e-02, 8.240798116e-02, 4.968922585e-03, -6.028208509e-02, -1.823981479e-02, 1.733742282e-02, 3.259402886e-02, 6.689129770e-02, -1.157249697e-02, -7.824046910e-02, 4.626334459e-02, -6.953358650e-02, 1.755959839e-01, 2.687144838e-02, 6.501940661e-04, 9.792885743e-03, 1.200368255e-01, -3.544920385e-01, 2.457912415e-01, -9.612589329e-02, 2.464703284e-03, 1.517421566e-03, 1.117456034e-01, -4.378032684e-02, -6.716722846e-01, -4.694604129e-02, 6.683258107e-05, -1.276527345e-02, -9.318944067e-02, -5.460321903e-01, -9.122048505e-03, -2.859653234e-01, 3.918195143e-02, 9.068556130e-02, -6.895248313e-03, 1.032487676e-01, -9.478838183e-03, 1.252320260e-01, -3.477656245e-01, 9.494463354e-02, 1.511126012e-01, -3.687623143e-02, 6.112808362e-03, -1.080933213e-02, -1.010468137e-02, -8.472542763e-01, -1.600116193e-01, 5.105639696e-01, -4.939424619e-02, 6.992419809e-02, 6.638117880e-02, 1.005260367e-02, 4.439728335e-02, -4.996418487e-03, -5.361558497e-02, -7.594902813e-02, 3.295716643e-02, 8.664655685e-02, -2.503367141e-02, 4.679866880e-02, -5.900672451e-02, -7.100008428e-02, -1.336368620e-01}, {3.475694731e-02, -7.561982423e-02, 1.821643710e-01, -7.568749785e-02, 8.328930289e-02, 1.979622096e-01, 1.494726837e-01, 9.627950191e-02, -2.237019502e-02, 3.591293842e-02, 1.179895252e-01, -2.785559185e-02, -1.121175066e-01, -2.688888833e-02, 2.950682491e-02, -3.380389884e-02, -4.068947863e-03, 1.697207987e-01, -3.876072168e-02, -2.014915273e-02, 7.668846101e-02, -3.053518012e-02, -1.517195255e-02, 2.664237097e-02, -6.135493517e-02, -5.374743044e-02, 8.912022412e-02, 5.191874504e-02, -1.392573770e-02, -9.710773826e-02, 1.370200962e-01, -1.015878003e-02, -1.030005701e-02, 6.648817658e-02, -1.193381399e-01, 1.210409030e-01, 4.485240206e-02, 2.362213843e-02, 9.622870386e-02, -1.331478953e-01, -1.114089489e+00, -3.510249546e-03, -1.879238039e-01, -1.313443389e-02, 2.827977836e-01, -1.678682864e-01, 6.230028719e-02, -6.006400660e-02, 2.409715950e-02, -4.363648593e-02, -8.232273459e-01, -1.887855083e-01, -4.060889408e-02, 3.095844015e-02, 2.510478795e-01, 9.917648882e-02, 2.097327076e-02, 1.153750300e+00, 3.533909842e-02, 9.371782094e-02, 5.592938140e-02, -6.076610833e-02, -3.841190785e-02, -7.404188067e-02, -6.423712522e-02, 1.237635128e-02, -6.202891842e-02, 2.974666841e-02, -4.563321173e-02, 2.074168064e-02, 4.614280537e-02, -1.614966244e-02, 1.688292436e-02, -1.170652658e-01, -7.034667581e-02, 2.761683464e-01, 7.477251440e-02, 6.971404701e-02, 1.484810263e-01, 3.363230079e-02, 6.572946906e-02, 5.350159109e-02, -1.271749884e-01, -4.232353531e-03, 7.206780463e-02, 3.333497941e-01, 6.233606488e-02, 1.950130425e-02, -3.132966161e-02, 2.904797671e-03, 2.376622111e-01, 5.594244599e-02, -6.468141079e-02, -3.354752064e-02, -2.444582758e-03, -3.442794457e-02, 2.043932118e-02, -2.582855523e-02, 6.611677259e-02, -3.135287464e-01, 1.113055572e-01, 1.233415827e-01, 3.976700008e-01, -8.523675054e-02, 2.660561800e-01, -6.433132570e-03, 5.834027007e-02, 1.539883018e-01, -4.169701412e-02, -1.676885039e-02, 1.141773686e-01, -4.049842432e-02, -3.247374669e-02, 6.992646307e-02, -1.717337035e-02, -1.777248830e-01, -2.608489059e-02, -2.693698928e-02, -3.261699900e-02, -8.452999592e-02}, {-8.332800120e-02, 3.414281085e-02, 3.982321545e-02, -2.007732391e-01, 3.022252582e-02, 1.882422157e-02, -3.167918697e-02, -2.023798972e-02, 1.422717422e-01, -3.215369955e-02, 3.833614290e-02, 3.615025431e-02, -4.241848588e-01, -2.000953443e-02, -1.097654775e-01, -3.211371601e-02, 2.621974349e-01, -6.218857318e-02, 4.813635722e-03, 2.828506008e-02, -2.793893963e-02, 1.211281896e+00, 6.639360636e-02, 1.429783851e-01, 3.672917141e-03, -6.062061712e-02, 4.197943024e-03, 9.040028602e-02, -1.135310158e-02, -6.490154564e-02, 3.585073650e-01, 1.455821097e-01, -3.478346765e-02, 2.977015078e-02, -6.884807348e-02, -2.308383584e-02, 1.029378921e-01, 7.317590714e-02, -4.224804416e-02, -3.834505379e-01, -1.718646437e-01, 2.054561488e-02, 4.966276884e-02, 5.280803889e-02, 7.221724838e-02, 1.342819333e-01, -1.197090074e-01, 8.951829374e-02, -3.407881781e-02, 1.096140519e-01, -2.367099822e-01, -6.969602406e-02, 2.931465395e-03, 5.644521862e-02, -2.813616069e-03, -5.286380649e-03, 1.009141877e-01, -2.432214655e-02, -2.346887439e-02, -2.568236366e-02, 1.505447477e-01, -7.202796638e-02, 2.235005051e-01, -1.207569800e-02, -5.671338737e-02, -9.676396847e-03, 6.608427316e-02, -7.950874567e-01, -9.461395442e-02, -2.583849011e-03, 1.043232158e-01, 3.744640201e-02, 3.123209625e-02, -8.625514805e-02, -2.659522295e-01, -1.224515885e-01, 9.697452933e-02, 8.424327709e-03, -1.498050708e-02, -2.963990904e-02, -4.997939616e-02, 1.403038763e-02, -8.682464808e-02, 9.585803375e-03, 1.387954801e-01, 9.074331820e-02, -2.995785512e-02, -4.334375262e-02, -3.918198124e-02, -9.281234816e-03, -1.601148769e-02, 6.907151639e-02, 1.434933245e-01, 1.273550745e-02, 4.951355234e-02, 1.298066825e-01, 1.849030703e-01, 9.049671888e-02, -4.503405094e-02, -9.052973241e-03, 4.291744530e-02, -3.087325953e-02, 1.819727868e-01, -7.468742132e-02, -5.613939762e-01, -2.740125917e-02, 1.970584132e-02, 2.352529019e-01, 3.072367981e-02, 9.822168201e-02, 4.431746900e-02, 5.803397653e-05, -1.531250309e-02, -3.289549798e-02, 1.587693207e-02, 3.079315647e-02, 1.094299555e-02, -3.737089457e-03, 1.064498723e-01, 1.819686294e-01}};

const float bias_out[NUM_CONTROLS] = {1.751389056e-01, 8.736458421e-02, 1.437146813e-01, 3.056115806e-01};

const float in_norm_mean[NUM_STATES] = {1.098325133e+00, -7.894632965e-02, -1.077717423e+00, 2.734200239e+00, -1.193189025e+00, -1.177644610e+00, 2.140825242e-01, -3.320572674e-01, 3.437085450e-01, 1.511622548e+00, 1.076264083e-01, -1.673077419e-02, 9.431528320e+03, 9.829918945e+03, 1.045453418e+04, 1.040734863e+04, 5.989057245e-04, -7.542131352e-04, 1.711831137e-04};

const float in_norm_std[NUM_STATES] = {9.087324739e-01, 1.036322951e+00, 1.271342278e+00, 2.199718237e+00, 2.723219872e+00, 2.379654169e+00, 8.142497540e-01, 5.382921100e-01, 7.663373947e-01, 4.249516964e+00, 4.091434956e+00, 1.049756408e+00, 2.544464844e+03, 2.270618164e+03, 1.905948364e+03, 2.025631592e+03, 2.328227460e-02, 2.314009890e-02, 5.831611343e-03};

const float out_scale_min = 3.000000000e+03;

const float out_scale_max = 1.200000000e+04;

const float weights_hid[NUM_HIDDEN_LAYERS-1][NUM_NODES][NUM_NODES] = {{{-4.624048993e-02, -2.201348990e-01, -1.833585463e-02, 2.310156263e-02, -4.635365009e-01, 9.960280731e-03, 8.886580169e-02, 1.854564250e-02, -6.621763110e-01, 1.111530513e-01, 1.218444705e-01, -6.055173278e-02, -1.160601079e-01, 4.706392065e-03, 1.405912042e-01, -4.164665639e-01, -8.695350587e-02, 3.950773925e-02, -9.156333655e-02, 1.196558475e-01, -1.841404736e-01, -4.071888030e-01, 1.530479640e-01, -1.069160923e-01, -4.623014852e-02, -6.777490675e-02, -7.728166133e-02, -7.330905646e-02, 1.163360626e-01, -1.407311708e-01, -1.519447416e-01, 2.168201096e-02, -9.308329225e-01, -2.927822471e-01, 1.292995960e-01, -1.762397885e-01, 2.513465285e-02, 4.797456563e-01, -8.041345328e-02, 1.002853066e-01, -3.490516683e-03, 2.052733153e-01, -3.041270673e-01, 3.274107352e-02, -1.131634861e-01, 2.050005496e-01, -3.402685374e-02, 2.091321498e-01, 1.301649213e-01, -1.684077643e-02, 2.607782483e-01, -1.936362311e-02, 1.872628778e-01, -7.792263478e-02, 5.310986191e-02, -1.476790104e-02, -6.447105855e-02, -1.110082343e-01, 6.182469055e-02, 4.503056407e-01, -1.314567477e-01, 3.893142566e-02, 1.630903631e-01, -3.832126856e-01, -1.340211928e-01, -1.464259177e-01, 9.512720630e-03, -3.540830314e-02, -1.959844232e-01, 2.035962343e-01, 3.735427558e-02, 3.215310276e-01, -2.220003307e-01, 3.696685657e-02, -5.679948330e-01, 5.803885460e-01, 3.916001320e-02, -5.579560995e-02, 2.494388968e-01, 9.868168831e-02, 5.379584432e-01, 1.120914966e-01, -3.552041650e-01, 5.358371884e-02, 1.323494166e-01, -8.417923748e-02, 3.867458925e-02, -3.408374637e-02, -1.565573514e-01, -1.596867293e-01, 6.232955307e-02, -5.115463734e-01, 3.206929564e-01, 2.765669823e-01, 1.369949877e-01, 3.424810618e-02, -9.795705229e-02, 5.036561564e-02, 1.182206422e-01, -1.263150871e-01, -2.315573394e-01, -9.206367284e-02, -8.171352148e-01, 1.196084544e-01, -7.092940211e-01, -1.419171989e-01, 2.345307469e-01, 2.801747918e-01, -2.958736150e-03, 7.563283294e-02, -1.437171996e-01, -1.924213618e-01, -4.580885470e-01, -3.064519726e-02, 5.856893957e-03, 1.050661951e-01, -3.566575795e-02, 8.218894713e-03, 4.446117580e-02, 1.541858912e-01}, {1.401581913e-01, -1.077551842e-01, 1.062641945e-02, 1.570245773e-01, 7.849984616e-02, -1.912351847e-01, 3.691322505e-01, 2.100506052e-02, -2.265938967e-01, -2.114403993e-01, -2.303158678e-02, -5.206147954e-02, -1.733650826e-02, 1.241554245e-01, 2.174349725e-01, 4.040828645e-01, -1.808929145e-01, -1.112661585e-01, 5.298085511e-03, -1.490504295e-02, -7.686062902e-02, -2.191905379e-01, 2.779243588e-01, -4.121618718e-02, -3.999024257e-02, -5.290800929e-01, 1.068069562e-01, -2.007787675e-01, -2.991605699e-01, 6.476905197e-02, 1.835588813e-01, -1.818255037e-01, -5.004861355e-01, 9.847013652e-02, 6.802846491e-02, 9.230118990e-02, -2.581981122e-01, 1.404659748e-01, -1.672209203e-01, -2.086167037e-02, -1.428186148e-01, 3.078386486e-01, 3.364937603e-01, 2.877768502e-02, -1.518422086e-02, -4.003057629e-02, 1.984604262e-02, -2.040134557e-02, -1.285297871e-01, 1.249385476e-01, 1.718221307e-01, -4.340001941e-02, -3.727490082e-02, 2.352253795e-01, 1.553758606e-02, 2.043472975e-02, -2.025043070e-01, -3.698988557e-01, 4.814702272e-02, 1.016038358e-01, -1.653571986e-02, 4.053741097e-01, -4.211106896e-01, 5.325533152e-01, -3.340145051e-01, 2.509711683e-01, 1.370602101e-02, 1.735642254e-01, -6.102607027e-02, 2.833538055e-01, -2.557132840e-01, 1.695623547e-01, -3.955235239e-03, 1.017674953e-01, 4.961634874e-01, 4.034153745e-02, -6.555079669e-02, 1.518359482e-01, -2.535228729e-01, -1.082136035e-01, -6.969485432e-02, -1.221848950e-01, 1.503112167e-01, 3.290263191e-02, 3.785582781e-01, 1.075209230e-01, 3.175585270e-01, 2.902497351e-01, -2.212123871e-01, -7.549462318e-01, 1.310824305e-01, -3.187365234e-01, 5.432174727e-02, -4.932215214e-01, 2.604925260e-02, 6.317698210e-02, 2.612245679e-01, -2.492199987e-01, 3.136052936e-02, -5.540472865e-01, -1.551996451e-02, 9.600894898e-02, 8.416220546e-02, -1.452045739e-01, 8.361520618e-02, -4.992747307e-02, 8.850416541e-02, 3.008405864e-01, -1.460700035e-01, 1.493429244e-01, -1.263652891e-01, 1.500281245e-01, -4.371921718e-02, -2.627704144e-01, -6.045682728e-02, 7.234375924e-02, -3.604537994e-02, -1.325939745e-01, -1.332599670e-01, -1.217028052e-01}, {8.492641896e-02, 1.737115979e-01, -1.295581609e-01, 4.182749987e-02, -1.547532380e-01, 4.833886027e-02, -1.784893721e-01, 7.904094458e-02, -7.209406048e-02, 1.960331947e-02, -2.635233402e-01, -2.080568373e-01, -4.165798798e-02, 4.414609075e-02, -4.088158533e-02, 2.280620486e-02, 2.530155703e-02, -1.849070340e-01, -1.521704644e-01, -1.968176067e-01, -4.587729275e-02, 1.223430634e-01, -6.263168156e-02, -2.362646610e-01, 1.675119810e-02, -4.431217909e-02, 1.494853348e-01, 1.207122672e-02, 1.600597054e-02, -1.197759807e-02, -1.969377995e-01, 5.136843324e-01, 1.922440678e-01, 1.680539846e-01, -2.282811403e-01, -1.010879502e-01, 1.084066778e-01, 7.740737498e-02, -4.178368673e-02, -5.129946396e-02, 9.609088302e-02, 1.535109282e-01, 1.017395258e-01, 5.014243722e-01, 8.115272969e-02, -1.723205894e-01, -6.699093431e-02, 2.456939965e-01, 4.624361917e-02, 1.378520578e-01, -1.547877491e-01, -1.292328387e-01, -7.645457238e-02, 4.015430436e-02, 1.822101139e-02, -1.657030731e-01, -6.889875233e-02, 7.379528880e-02, -7.277128100e-02, 1.815460473e-01, -2.542351186e-01, -1.549488902e-01, -1.246376783e-01, 2.210205048e-02, -3.779002279e-02, -1.191005204e-02, 1.064494774e-01, -3.023672476e-02, 7.371981144e-01, -9.883999825e-02, 1.398062855e-01, -5.378935859e-02, 2.042516470e-01, -1.202985495e-01, 5.122404173e-02, -7.180182636e-02, 7.681260258e-02, 2.630295455e-01, -3.438315094e-01, 1.149118245e-01, -1.212517731e-02, -1.707431674e-01, 8.213305264e-04, 2.733545899e-01, -1.357169542e-02, -2.233597636e-01, -5.966696739e-01, 4.371634126e-02, -9.298402667e-01, 3.898219019e-02, 3.513564169e-02, 6.109556928e-02, -3.053062595e-03, -2.573822737e-01, -9.741189331e-02, 2.258590311e-01, -1.398617029e-02, 1.574330479e-01, -6.639879942e-02, 1.153025329e-01, -9.412504733e-02, 4.654378593e-01, -5.010723136e-03, -6.647019833e-02, -1.504602470e-02, -1.297215521e-01, 1.275512576e-02, -3.934081644e-02, -1.964633763e-01, 2.523523271e-01, 1.790030152e-01, -1.752964407e-01, -7.262842357e-02, -4.586810991e-02, -1.865867376e-01, 2.066724300e+00, -1.288923025e-01, 1.217505038e-01, -7.738690823e-02, 1.781618148e-01}, {6.579917669e-02, 3.247140944e-01, 2.096633613e-01, -3.350527287e-01, -2.510476112e-01, 1.187274456e-01, 4.715130329e-01, 1.218534261e-01, 8.915203810e-02, 3.588361666e-02, -2.707262933e-01, 1.025305763e-01, -1.530127786e-02, -9.178727865e-02, 1.590739936e-01, -1.451245993e-01, 3.537471592e-01, 1.299756765e-01, 1.054189727e-01, -4.305303469e-02, -4.536302984e-01, -1.162291318e-01, 2.938055992e-02, -2.971850038e-01, 1.208368912e-01, -1.471673697e-01, 5.922542140e-02, -9.551438689e-02, -4.076326191e-01, 3.732954562e-01, 2.375447452e-01, -2.100404501e-01, 6.464969367e-03, -1.300649047e-01, -1.587634087e-01, -5.519290641e-02, -4.467335716e-02, 8.818649501e-02, 1.208346989e-02, -1.491646618e-01, 7.455901802e-02, 1.424135715e-01, -5.767110735e-02, 6.570607424e-02, -5.320885032e-02, 1.822585315e-01, -6.630938500e-02, 2.449632995e-02, 5.112685263e-02, 1.165290549e-01, -6.283916533e-02, -9.011455625e-02, -2.662566006e-01, 8.242495358e-03, -3.351511955e-01, -4.277292266e-02, -9.926987812e-03, 4.269411415e-02, -8.754231036e-02, -1.744670980e-02, 5.763627589e-02, -2.967122495e-01, -1.450676918e-01, -2.632740140e-01, -3.082742393e-01, -2.948208749e-01, -7.146976143e-02, 1.064299867e-01, 2.502533793e-01, -6.609662622e-02, -1.362223458e-02, -1.096497327e-01, -2.210671455e-01, 2.329948917e-02, -1.792575568e-01, -2.289092988e-01, -4.062559605e-01, 1.263610423e-01, -4.390330869e-04, 2.534556985e-01, -6.797534972e-02, 2.031578273e-01, 6.715237349e-02, 1.068435833e-01, -1.954548657e-01, 7.148581743e-02, -1.429414153e-01, -3.411314487e-01, -1.259614229e-01, -4.676993191e-02, 1.544731557e-01, 3.284036517e-01, 3.195434511e-01, -1.484847665e-01, -6.756094843e-02, 1.035236791e-01, -2.531523816e-02, -2.799864709e-01, -9.375742078e-02, 4.368901253e-03, 1.513001975e-02, -1.944139004e-01, -4.120428115e-03, -2.530460954e-01, 1.141383052e-01, -1.614484340e-01, -7.454325259e-02, -1.288855821e-01, 1.349085718e-01, 2.940783501e-01, -3.314309567e-02, 1.931301057e-01, 1.098981649e-01, 1.611813307e-01, -9.644237906e-02, -4.373564571e-02, -2.095274776e-01, -2.390540764e-02, 2.807201631e-02, -1.805580338e-03}, {6.349005550e-02, -2.090296149e-01, -2.157068849e-01, 8.095434308e-02, 2.160319686e-01, 1.360784471e-01, 8.429750055e-02, -2.989671826e-01, -1.488256603e-01, 2.098316699e-01, 2.881523967e-01, -7.142067701e-02, -5.472350717e-01, -1.680335104e-01, 1.949473470e-01, 2.568349838e-01, -5.967052281e-02, 3.825865313e-02, -3.123816550e-01, 1.560892314e-01, 1.967218816e-01, -8.731608093e-02, 2.361180484e-01, -8.738509566e-02, -6.388348341e-02, 2.253847867e-01, -5.023636222e-01, -8.688684553e-02, -2.025428712e-01, 5.146633461e-02, -1.553691477e-01, -2.109890580e-01, 1.780357212e-01, -3.872900084e-02, 5.645908043e-02, -7.542616129e-02, -1.234340388e-02, 3.830519617e-01, -1.328034252e-01, 4.128767923e-02, 1.099603102e-01, 2.160709649e-01, 1.332392450e-03, -1.307522506e-01, -4.504277408e-01, 1.077426970e-01, -1.474081427e-01, 1.695435047e-01, -3.908209205e-01, 1.196455508e-01, 4.200802371e-02, 1.195730567e-01, -1.760566682e-01, 3.220281303e-01, -1.195612922e-01, 2.673322707e-02, 2.347531468e-01, 9.740203619e-02, 3.681887686e-02, -5.874888599e-02, 1.503908634e-01, -2.970442474e-01, -6.824307889e-02, 1.747174859e-01, 9.844941646e-02, -1.827022582e-01, 4.400250614e-01, 1.973432600e-01, -5.691820756e-02, -2.121514827e-02, 1.774860919e-01, 4.084579274e-02, 2.559925318e-01, 1.359207481e-01, 3.742784560e-01, 1.686202288e-01, -2.361913025e-02, -1.501384773e-03, -2.124985009e-01, 1.903430074e-01, 2.316546142e-01, 2.318065464e-01, -5.926435697e-04, -1.759221405e-01, -1.461122483e-01, 8.361030370e-02, -4.994652793e-02, 5.494506657e-02, -2.118955366e-02, -4.629162550e-01, 8.222908527e-02, -2.569023073e-01, 4.946261644e-02, -5.746414661e-01, -4.625868201e-01, 5.596465990e-02, 3.608151376e-01, -3.096400499e-01, 1.889489293e-01, -4.615782797e-01, 9.677411616e-02, -8.384222537e-02, -1.917342544e-01, -2.357579395e-02, 2.003366351e-01, 2.403520495e-01, -2.692234516e-01, 5.310225859e-02, -2.546988726e-01, -6.493412703e-02, -1.308826953e-01, 1.229623798e-02, 1.014009640e-01, 3.495338559e-02, 5.535536911e-04, -7.234728336e-02, -1.236796603e-01, -1.675994098e-01, 9.814162552e-02, -4.104601964e-02}, {1.478327364e-01, -8.392008394e-02, -4.763426185e-01, 1.879473776e-01, -1.475988626e-01, 9.404513240e-02, 3.882648423e-02, -1.383528560e-01, 1.757977530e-02, -1.481197476e-01, 1.135886367e-02, 1.279757619e-01, 1.373369340e-02, -2.109622210e-01, -2.010388523e-01, 7.129720598e-02, -2.052090615e-01, -3.579939306e-01, -1.089559495e-02, -1.046761423e-01, -1.879457980e-01, -3.304455578e-01, -1.180555150e-01, -3.898749053e-01, 2.430688776e-02, -8.666113764e-02, 3.687852025e-01, 1.135801300e-01, -9.298692644e-02, 1.310462356e-01, -2.238448150e-02, -9.362754971e-02, 2.144723535e-01, 1.105730757e-01, -3.115699887e-01, -2.650279999e-01, 5.018350109e-02, 6.003025174e-02, 7.419057190e-02, 1.149295792e-01, 2.091466933e-01, 2.220916152e-01, -2.295933217e-01, 2.045397162e-01, 1.930726767e-01, -3.054665169e-03, -3.769969344e-01, 3.631015308e-03, 4.053411782e-01, -2.499095351e-02, 3.577556834e-02, -2.850580588e-02, 2.421096563e-01, 1.554120481e-01, -1.227436066e-01, 2.676974237e-01, 6.895515323e-02, -3.395858407e-01, 1.119743362e-01, 4.281204566e-02, -2.392299660e-02, -9.165709466e-02, -2.346756607e-01, -4.632699117e-02, -6.728627086e-01, 6.688601524e-02, 2.800592482e-01, -8.039464802e-02, -5.682931542e-01, 1.178128868e-01, 3.226819634e-01, 9.543197602e-02, -6.184500456e-01, 2.850939035e-01, 1.770230010e-03, 4.193014000e-03, -2.794128656e-01, 2.731642686e-02, -3.768156767e-01, -2.651538514e-02, -5.784985796e-02, -1.637320518e-01, -1.055543050e-01, 2.604540884e-01, 9.502014518e-02, 1.608870029e-01, -3.829725459e-02, 9.016955271e-03, -1.837405562e-01, -1.244490594e-01, 6.065953150e-02, 5.344475061e-02, 3.293688223e-02, -2.793954015e-01, -1.202715635e-01, 2.303243876e-01, -1.032187138e-03, -3.791996092e-02, 1.973482594e-02, -5.151601136e-02, 5.524087464e-04, 3.588040546e-02, -3.496631235e-02, 1.018203422e-02, 1.814600080e-01, 1.136502773e-01, 1.702521294e-01, 9.963679314e-02, -1.922270507e-01, -4.018463790e-01, -1.007371545e-01, -3.800124675e-02, -1.984821409e-01, 7.952473313e-02, 2.123701721e-01, 2.293786854e-01, -3.145806193e-01, -4.372958094e-02, -1.961632371e-01, -1.668748260e-01}, {-1.817603260e-01, 1.183670983e-01, 2.963985801e-01, -4.375163615e-01, 1.934959739e-01, -2.700356022e-02, -1.461273246e-02, 1.575745046e-01, 2.215650976e-01, 1.051838603e-02, 9.261171520e-02, 2.372238971e-02, 1.386514604e-01, 8.001164533e-03, 1.137801185e-01, 2.755159736e-01, 1.281693429e-01, 5.094536021e-02, -4.486222193e-02, 2.722660452e-02, -1.474489123e-01, -4.086295664e-01, 8.161972463e-02, 1.587268524e-02, 8.390256763e-02, 1.398078501e-01, -4.097162783e-01, 1.563224792e-01, -5.287935212e-02, 1.851924807e-01, -2.951492071e-01, -1.173874736e-02, -1.644247919e-01, -8.145349473e-02, 1.083264202e-01, 2.198615670e-01, 3.704055250e-01, 8.637377620e-02, -1.507685930e-01, 2.684177272e-02, -1.420507878e-01, 2.093140967e-02, -1.601096094e-01, -2.874146700e-01, 1.800598800e-01, -6.671139598e-02, 1.950559020e-02, -2.622207701e-01, -1.430788189e-01, 7.237992436e-02, -4.835443571e-02, 8.261064440e-02, 1.694361567e-01, -6.022961065e-02, 2.313954383e-01, 1.131166369e-01, -1.416117102e-01, 1.321990415e-02, 9.864525497e-02, 2.676261067e-01, 9.050964378e-03, -9.374623001e-02, -2.078615688e-02, 1.573806629e-02, 3.393712640e-02, -4.498984665e-02, -2.698314488e-01, 2.921444774e-01, -1.585466415e-01, 2.334634364e-01, -1.558268517e-01, 3.506632894e-02, 3.722341359e-02, -2.348527759e-01, 1.320776045e-01, 2.111645639e-01, -4.305743873e-01, 2.751601338e-01, -3.748128936e-02, -7.815191895e-02, 7.528605312e-02, 2.043704838e-01, 1.088856161e-01, -1.563033275e-02, 1.825125962e-01, 1.203190163e-02, -8.064397611e-03, -1.282147467e-01, 8.614136279e-02, -8.822804689e-02, -1.669820845e-01, -2.905223668e-01, 1.551599652e-01, -1.073021293e-01, 4.560169578e-02, 2.411929071e-01, -3.012108803e-02, -1.649037451e-01, 1.381663978e-01, 1.145684570e-01, 4.632882774e-03, -6.588964462e-01, 7.316666096e-02, 1.364654899e-01, 5.370660499e-02, 1.520653255e-02, 2.187227160e-01, 1.064170599e-01, 1.262023300e-01, 3.461728990e-01, 9.102369100e-02, 1.601071507e-01, -1.251511872e-01, -8.589061350e-02, 4.696782678e-03, 4.212809354e-02, -1.562550515e-01, -2.092082202e-01, -1.826216578e-01, 7.783576846e-02}, {1.031426564e-01, -1.724592149e-01, -3.451657891e-01, -5.997853726e-02, -3.557535112e-01, 3.657304682e-03, 1.725250483e-01, 2.145368457e-01, -2.896584757e-02, -2.590372860e-01, -2.826732993e-01, 1.248490363e-01, -1.126846448e-01, 3.447213471e-01, 6.696773926e-04, -5.341564119e-02, 2.062844932e-01, -2.690692805e-02, 4.439896047e-01, 1.010637358e-01, -1.606905311e-01, -1.246113405e-01, 2.831452489e-01, -3.105028868e-01, -9.318714589e-02, 2.992059588e-01, 1.670903563e-01, -2.141823769e-01, -9.732581675e-02, 1.178859361e-02, -1.868233830e-01, -1.368930936e-01, -1.865078211e-01, 2.204797417e-01, -1.844820231e-01, 8.110204339e-02, -4.250075817e-01, -2.373555750e-01, -1.032807976e-01, 1.698176414e-01, -9.451350197e-04, -1.115830615e-01, -6.114450842e-02, 1.945414543e-01, 2.079661638e-01, 1.885477602e-01, -5.440497026e-02, -2.188101225e-02, -1.020624116e-01, 6.592205912e-02, -2.965744734e-01, -3.089554608e-01, 2.268971652e-01, 1.626176834e-01, 5.744303465e-01, -2.097694725e-01, 1.322779506e-01, -4.541904628e-01, -2.461657375e-01, -6.098701805e-02, -2.108364552e-02, -6.300731003e-02, -7.650431246e-02, 2.100245655e-01, -1.589711308e-01, 8.563341200e-02, -4.766893983e-01, -2.565817237e-01, -1.897520870e-01, 3.106018603e-01, -2.706167102e-01, -1.640851647e-01, -1.135615706e-01, 3.510001004e-01, 2.554144897e-02, 2.009560168e-02, 1.171926484e-01, -1.598099917e-01, -1.794669181e-01, 1.700841039e-01, 2.484583259e-01, 1.597066969e-02, -2.134623826e-01, 3.439449072e-01, 3.210501373e-01, 1.041173786e-01, -1.823395677e-02, 1.784356534e-01, -1.694152504e-01, 4.680847526e-01, -1.082915068e-01, -1.095414981e-01, 3.039169610e-01, 1.436058134e-01, 3.404583335e-01, -1.404947191e-01, 1.348822117e-01, 2.290202826e-01, 1.662971824e-01, -3.010719717e-01, -8.759177476e-02, 4.713595659e-02, 1.907258630e-01, 1.550220549e-01, -1.010785177e-01, 2.527435124e-01, -6.184802204e-02, -2.733724415e-01, 3.056939878e-02, 8.170770109e-02, 2.645152807e-01, -1.337194592e-01, 2.783728242e-01, 1.141740456e-01, -1.201819815e-02, -1.271560788e-01, -1.849104837e-02, 3.048216999e-01, -2.928441167e-01, -1.789971143e-01}, {6.317982078e-02, -5.859189853e-02, 8.801853657e-02, -9.171506390e-03, 8.332832716e-03, 9.869507700e-02, -4.099818468e-01, 2.116007656e-01, -4.042061046e-03, 8.954135701e-03, 8.407726884e-03, 1.021907702e-01, 1.340650916e-01, 1.993381791e-02, -4.807700962e-02, -1.736115813e-01, 1.554351002e-01, 2.106689662e-01, -2.190161794e-01, -8.754982799e-02, 1.169982553e-01, 1.564156562e-01, 1.751869619e-01, -2.371502481e-02, 1.044089645e-01, 2.506583929e-01, 1.002091691e-01, 2.317511588e-01, 1.669897437e-01, -4.558242485e-02, -8.061707020e-02, 3.860407695e-02, -2.184609324e-01, -1.948595643e-01, 1.926064305e-02, 3.480003774e-01, 2.514413297e-01, -5.706321681e-04, 7.308758795e-02, 3.640926778e-01, 8.426134288e-02, 3.318618611e-02, 9.785619378e-02, 2.664161921e-01, 9.970248491e-02, -2.312092111e-02, 2.301912457e-01, 3.063387983e-02, 1.563487351e-01, -2.229914665e-01, -1.790053397e-01, -1.633080542e-01, -1.523052901e-01, -1.932810545e-01, 2.428392917e-01, 1.815565974e-01, 9.546810179e-04, 1.474620402e-01, -3.479015082e-02, 1.357240602e-02, 6.505850703e-02, 1.426701844e-01, -6.776463240e-02, 1.916303784e-01, 2.154603899e-01, 1.797722727e-01, 3.142009377e-01, -1.073273495e-01, 8.080374449e-02, 2.181317657e-01, -8.199942298e-03, -2.213341743e-01, -2.525702119e-01, 1.828710549e-02, 1.078661978e-01, 1.230952516e-01, -1.164433584e-01, 3.791949749e-01, 2.055544257e-01, -1.273033582e-02, 2.723752856e-01, -1.976697296e-01, 2.252823859e-02, 4.137843847e-02, 1.269403100e-01, -7.228241861e-02, -3.499677777e-02, 8.330236375e-02, -2.456763834e-01, 1.555737108e-01, -9.208185971e-02, 3.213297129e-01, -5.359672755e-02, -1.633635461e-01, -9.034108371e-02, 2.057759911e-01, -2.612383068e-01, 7.377383858e-02, 9.434425086e-02, 1.222597435e-01, 1.273230761e-01, 1.659044921e-01, -2.083320357e-02, -1.447859555e-01, 1.322798431e-02, -3.423358127e-02, 1.092912778e-01, 8.293363452e-02, 1.122368276e-01, 1.581511796e-01, -1.358365864e-01, 1.215991899e-01, -2.517760098e-01, -1.905627400e-01, -9.153498709e-02, 5.162119865e-01, 3.044931591e-01, -2.346407175e-01, 9.754392505e-02, 1.696649790e-01}, {-1.457678229e-01, 5.783331990e-01, 1.324155778e-01, -7.750400901e-02, -2.658091784e-01, 4.560778141e-01, -1.483076215e-01, 1.569945663e-01, 3.768634498e-01, -1.503455788e-01, 2.088271976e-01, -5.191040039e-02, -2.177725732e-01, -1.989958808e-02, 1.042229086e-01, -8.177825809e-02, 1.327278018e-01, -2.241608687e-02, -2.506738901e-01, -4.963395372e-02, -1.570739448e-01, -5.610805750e-01, -1.610582471e-01, 4.143822193e-01, 1.297700256e-01, 4.205318633e-03, 1.303324103e-01, -8.604834229e-02, 6.415650994e-02, -2.945287526e-01, 1.129664540e+00, -1.675884705e-04, -1.309584826e-01, 3.483757377e-01, 4.245053604e-02, 2.259309292e-01, -4.646281525e-02, -1.317024082e-01, 4.290166125e-02, 2.140859812e-01, -3.005296588e-01, 7.377383113e-02, 4.082751274e-02, 1.089801714e-01, 5.693110228e-01, -2.727374732e-01, 1.653325111e-01, -2.616496682e-01, -1.708719432e-01, -1.416272819e-01, -1.177517772e-01, 4.261976480e-01, -5.382016897e-01, -2.174213231e-01, 1.886549145e-01, 7.809261233e-02, 9.002411366e-02, 1.077840105e-01, -2.518875599e-01, -2.448376566e-01, -1.862673759e-01, -1.695648134e-01, 7.896021008e-02, 8.450343274e-03, 1.728552394e-02, 2.589173317e-01, -1.398570687e-01, 8.394080796e-04, -9.941142797e-02, 2.045095898e-02, -2.626907527e-01, -2.560764551e-01, -4.784229770e-02, -1.378892213e-01, 2.464264035e-01, 5.058945715e-02, 2.741633952e-01, -8.221513033e-02, -2.949892581e-01, -5.878508091e-01, -1.550031900e-01, 2.054391652e-01, 1.236688495e-01, 1.658871174e-01, 2.405509539e-02, 6.163960323e-02, 1.336546093e-01, 1.683312953e-01, 3.100915253e-01, -6.372456253e-02, -2.171576321e-01, -9.161847830e-02, 1.376210898e-01, -7.353311777e-01, -7.540442050e-02, -1.170612872e-02, 3.255674541e-01, 1.615471095e-01, 1.153170019e-01, -9.546627849e-02, -9.624057449e-03, 1.747977287e-01, -1.129138023e-01, -5.560550094e-02, 2.709855437e-01, -1.858922541e-01, 1.592498124e-01, 1.957047284e-01, 9.689643979e-02, 1.517430544e-01, -3.202068061e-02, 1.388866454e-01, 5.214644969e-02, -2.361329794e-01, -3.922037035e-02, 1.255573928e-01, -4.538370371e-01, -6.304831505e-01, 1.651493609e-01, 2.394516170e-01}, {4.099517316e-02, -6.265003234e-02, -4.514144361e-02, 9.602840990e-02, 2.507183254e-01, 6.023266539e-02, 1.988982409e-02, 1.760553271e-01, 1.597330272e-01, -6.777384877e-02, -1.813166142e-01, 1.374464929e-01, -1.861130744e-01, 1.904600859e-01, -6.428071856e-02, -1.218225881e-01, 3.734209016e-02, -1.543076485e-01, -2.592006922e-01, 1.302177785e-03, -7.755751908e-02, 4.534926638e-02, 1.486066878e-01, -1.895171963e-02, 1.480311155e-01, -1.763908416e-01, 1.301390976e-01, 9.592098743e-02, 1.712949015e-02, 1.101811901e-01, 1.044488922e-01, -1.307382882e-01, 1.521002352e-01, -3.202205524e-02, -2.441682667e-01, 6.342042238e-02, -5.857039988e-02, -4.188845307e-02, -2.204730213e-01, -1.331952959e-01, -2.091782689e-01, -4.698458314e-02, 2.481140047e-01, -2.320501395e-02, -3.036009707e-02, -1.796234548e-01, 3.592873812e-01, 1.142151877e-01, -3.045339324e-02, -6.373090297e-02, 3.036866784e-01, 1.285326779e-01, -1.501469016e-01, 1.367985755e-01, 1.648823470e-01, 1.837734431e-01, -2.588566244e-01, 1.614168733e-01, 2.130844072e-02, 1.014522612e-01, -9.572449327e-02, -4.637844861e-02, -1.279305667e-02, 1.251282990e-01, 1.706434190e-01, 5.072705448e-02, -1.551063955e-01, 9.589741379e-02, -1.457470469e-02, -1.094647795e-01, -7.042025682e-03, 1.913752109e-01, -2.466911972e-01, -1.532661766e-01, 1.557109356e-01, 8.827362210e-02, -1.430102251e-02, 3.977505118e-02, -3.663216904e-02, 2.630301714e-01, -2.661365317e-03, 1.828057170e-01, 1.548528299e-02, 1.237141639e-01, 1.137511507e-01, -1.007469371e-01, 3.790195286e-01, 1.389988214e-01, -1.073233038e-01, -1.038900986e-01, 1.022319943e-01, -1.050635129e-01, -1.386976540e-01, -7.080955058e-02, 9.264571220e-02, -6.026557088e-02, 3.849269450e-02, 3.467629850e-02, -1.683705449e-01, -1.070020050e-01, -1.144065261e-01, 7.182780504e-01, 7.919614017e-02, -1.398933232e-01, 1.466796994e-01, -1.047485694e-01, -4.656314477e-02, -5.613520741e-02, 1.246679127e-01, 5.742552876e-02, 1.652768929e-03, -2.212167718e-02, -1.195773408e-01, 4.445715621e-02, 2.945930660e-01, -4.799421411e-03, 1.170034260e-01, 1.414767206e-01, 2.806224227e-01, 4.812571406e-02}, {-2.588711679e-01, 1.024147049e-01, 2.071734816e-01, -2.000439018e-01, -3.461924493e-01, 1.233509704e-01, -2.063195705e-01, -2.917596400e-01, 1.218839064e-01, 2.931463718e-02, -4.911134243e-01, 1.027524918e-01, 1.625976712e-01, 3.963291273e-02, -3.956704140e-01, 2.790140212e-01, -2.375715226e-01, -8.153556846e-03, -9.800514579e-02, -1.625115871e-01, 2.130011320e-01, 2.293910086e-01, 2.054590918e-02, 3.342493773e-01, -1.678292900e-01, 2.710691653e-02, 3.123115003e-01, 1.097187623e-01, -3.019251823e-01, 1.265054047e-01, 2.050238550e-01, -7.548225671e-02, 1.137411818e-01, -3.093033656e-02, -3.097518981e-01, 2.513357699e-01, 3.168650344e-02, -1.813810766e-01, 7.085677236e-02, 2.234807014e-01, 3.491367698e-01, -2.272944897e-01, 1.486855298e-01, 2.712248564e-01, 1.298090070e-01, -3.210811317e-01, -3.492290080e-01, 1.092051044e-01, 2.255528271e-01, 1.903587282e-01, 8.085296303e-02, -3.075502813e-01, 2.092760503e-01, -2.587843873e-02, -7.468406111e-02, -5.013994873e-02, -6.189679727e-02, 7.214409113e-02, 6.498072296e-02, 1.709278673e-01, -2.058225125e-01, 3.649018332e-02, -2.566383779e-01, -3.364070952e-01, -2.400939763e-01, -3.209571838e-01, -1.487134770e-02, -2.698604763e-01, 2.007234395e-01, 2.286146581e-01, -1.448641121e-01, -1.417635232e-01, 5.047985166e-02, 9.850659966e-02, -1.376153082e-01, -3.995549977e-01, 1.913783257e-03, 2.293133736e-01, -1.374569684e-01, -1.112374365e-01, -3.489589393e-01, 1.206340864e-01, 1.932154894e-01, 1.291859299e-01, 2.144239843e-01, -1.873340607e-01, 1.157923564e-01, -1.291566342e-01, -2.078576386e-01, 5.834555626e-02, 1.044814475e-02, 2.074038833e-01, 3.862404525e-01, 2.466440666e-03, 8.109061420e-02, -1.012545109e+00, 1.893793792e-01, -7.416221499e-02, 1.192915514e-01, 2.239724547e-01, 3.941982985e-02, -1.320552528e-01, 4.546491802e-01, -4.534659535e-02, 1.886584163e-01, 3.721590340e-02, 3.863149583e-01, 7.336622477e-02, -1.702706665e-01, -1.357650906e-01, 1.331416070e-01, -1.045604050e-01, 1.767961234e-01, 2.667699754e-01, 8.498914540e-02, 6.577415019e-02, 6.272918731e-02, 1.077039540e-01, -2.352266014e-02, -9.092192650e-01}, {-2.241496183e-02, 3.987897038e-01, -2.029510438e-01, -6.481237710e-02, -2.721275687e-01, -2.276645303e-01, 1.098062545e-01, -4.315498769e-01, 3.849579394e-01, 5.337974429e-02, -6.136320904e-02, 1.803076942e-03, -7.422588468e-01, -3.230624199e-01, 4.060431123e-01, -1.730033010e-01, 2.236823887e-01, -3.221057355e-02, -9.284516424e-02, -7.218009233e-02, 2.661606669e-01, -2.469283193e-01, 2.716999128e-02, -2.451123893e-01, 1.574018300e-01, 2.395625114e-01, 1.524250358e-01, 2.564685047e-01, 3.276063874e-02, -1.208749190e-01, 6.455944180e-01, -7.402701769e-03, -7.016150355e-01, -1.732043177e-02, 1.899878532e-01, -4.398328364e-01, -1.367451902e-02, -1.409344524e-01, 2.564583160e-02, 4.356881231e-02, -2.947510183e-01, 7.091592550e-01, -3.335782886e-01, -9.120371193e-02, 1.568870097e-01, 1.827218831e-01, 3.668586016e-01, 3.550926596e-02, 1.902837902e-01, 8.486827463e-02, 5.260563921e-03, 1.709648669e-01, -5.659836158e-02, 5.496186018e-01, 1.819732487e-01, 2.040956318e-01, -1.330578774e-01, -1.403789036e-02, -6.274721026e-02, -2.873827815e-01, -1.804916412e-01, 2.323161811e-02, -2.702946588e-02, -3.665698171e-01, 1.831252314e-02, -5.623363703e-02, -2.436017543e-01, -2.955701947e-01, -5.895116553e-02, -1.373048276e-01, -2.904631197e-01, -5.287503600e-01, 1.534598763e-03, -2.498550862e-01, 1.630326360e-01, -1.441371441e-01, -2.977868617e-01, 1.176674962e-01, 3.960424662e-02, -4.996412247e-02, 1.201836914e-01, 1.215016246e-01, -1.094610542e-01, 1.300227195e-01, 5.726492405e-02, 2.006516792e-03, 1.820577681e-01, -4.012961686e-02, -2.422826551e-02, 1.846654564e-01, -2.563102543e-01, -1.169156134e-01, -3.659031540e-02, 2.578578293e-01, 2.022121847e-02, 2.475695163e-01, -1.758598834e-01, -2.479132861e-01, 7.639459521e-02, 4.151695222e-02, 8.542802930e-02, 1.061909914e+00, -1.988852024e-02, 2.756904811e-02, -6.532675028e-02, 1.264367835e-03, 1.384740975e-02, 1.709560454e-01, 2.325324565e-01, 5.391176417e-02, 4.860082567e-01, -1.331007034e-01, -4.835367203e-03, 1.662103981e-01, -1.466354262e-02, 5.659119785e-02, 2.455278337e-01, 3.779018670e-02, 1.608048677e-01, -1.877892166e-01}, {-1.544896066e-01, 3.209739625e-01, -3.316487744e-02, 6.063432619e-02, -1.062957346e-01, 1.501051635e-01, 6.656692177e-02, -1.256338656e-01, 2.672694623e-01, 4.409217276e-03, 2.239016593e-01, -8.351404220e-02, -2.066637129e-01, -1.836832911e-01, -2.403800189e-01, 2.658222988e-02, 1.140667424e-01, -3.125763237e-01, 2.477532625e-01, 4.188633710e-02, 2.950948477e-02, 1.381004900e-01, -1.595771015e-01, -3.392202556e-01, 7.194212079e-02, 7.143145055e-02, 1.666317880e-01, -4.010831192e-02, -1.537902951e-01, 2.686569095e-01, 2.270362973e-01, 9.333810769e-03, -1.443640441e-01, -8.763119578e-03, -2.184034586e-01, 6.502052397e-02, -3.350958824e-01, -1.135243177e-01, 2.307989448e-01, -2.840556391e-02, -2.765863240e-01, -2.116908729e-01, 2.113147229e-01, 7.681201398e-02, 1.738676280e-01, -4.425370321e-02, -2.524869144e-01, 1.123088673e-01, 6.000855565e-02, -1.685438454e-01, 9.212802351e-02, -1.836760491e-01, -1.096334532e-01, 8.201923221e-02, 7.809355110e-02, 7.690719515e-02, -1.585838348e-01, -1.921626329e-01, -4.813578725e-01, 1.115322784e-01, -6.449231412e-03, 2.376341522e-01, -2.682595253e-01, 2.199062407e-01, -5.669788122e-01, 1.179052815e-01, -2.377847880e-01, -1.678252369e-01, 8.007913828e-02, 1.381200552e-01, -1.077523828e-02, -4.605298862e-03, 5.371296778e-02, -7.515642326e-03, 1.589507610e-01, -3.248589858e-02, -1.097655520e-01, 4.130851328e-01, 2.778346464e-02, -1.636366993e-01, -1.496360358e-02, -1.292583048e-01, -1.136135384e-01, 1.319900602e-01, 2.017316520e-01, -8.487448841e-02, 1.635637432e-01, 1.286719553e-02, -3.204397112e-02, -7.684841752e-02, 8.249054849e-02, -2.010216713e-01, 7.700391114e-02, -1.493123919e-01, 1.761564910e-01, 3.325596750e-01, 9.160324186e-02, 1.685095578e-01, 1.343661454e-02, -2.255132049e-01, 1.245284602e-01, -1.581225893e-03, 1.502231210e-01, -3.978120163e-02, 2.065595984e-01, -9.625742584e-02, 1.263955235e-01, 1.558089554e-01, 2.117269635e-01, 4.154134989e-01, -5.713609979e-02, -3.149004653e-02, 1.219071373e-01, -6.436457485e-02, 3.498669863e-01, 2.883851230e-01, 3.774549067e-01, 2.222317606e-01, 3.291960433e-02, -9.976372123e-02}, {-4.974507540e-02, -4.919135198e-02, -6.968170404e-02, -1.437091082e-01, -1.954403669e-01, -4.287672043e-02, 8.711963892e-02, 1.525972225e-02, 3.100794554e-02, 7.674726099e-02, -2.865442932e-01, 1.716332436e-01, 1.104209200e-01, -3.328336775e-02, -1.432264149e-01, -9.473459423e-02, -1.812716573e-01, 1.258176267e-01, 4.511652887e-02, 6.914352626e-02, 1.284993142e-01, 8.453661203e-02, -2.810570002e-01, -6.423756480e-02, 3.109399080e-01, -3.128633499e-01, 4.587334394e-02, 2.635007799e-01, -1.085707825e-02, 2.073811144e-01, -5.731024742e-01, 1.767371893e-01, -1.889843196e-01, -2.077921927e-01, -5.515598059e-01, 1.587375849e-01, -2.818707190e-02, 1.274666190e-01, 1.705581695e-02, -2.073542476e-01, 3.470621705e-01, 1.714069769e-02, -9.441239387e-02, 6.548900902e-02, -2.857926488e-01, -6.928727031e-02, 4.760974646e-02, -7.427961379e-02, 2.727621794e-01, 2.011070102e-01, 1.200558990e-01, -2.542756125e-02, -1.182587165e-02, 9.608425945e-02, 1.970961690e-01, -2.703904510e-01, 3.175185621e-01, -1.143785715e-01, 2.340401262e-01, -2.464488149e-01, -4.048883021e-01, 1.152786985e-01, 2.943260223e-02, -9.520579129e-02, 2.457420528e-01, 1.549497060e-02, 8.901708573e-02, 1.335977167e-01, -6.679500453e-03, -7.790775038e-03, -1.683509201e-01, 1.777393371e-01, 2.618052661e-01, -1.209761854e-02, -3.625459075e-01, -1.011340600e-02, -3.732898086e-02, 8.062524348e-02, -3.233164176e-02, 6.890062988e-02, -7.390978187e-02, 1.769996434e-02, -8.579432219e-02, -2.442406118e-01, -1.887576729e-01, -1.561103612e-01, -2.114391923e-01, 4.405106604e-02, -2.356348634e-01, -2.912917137e-01, 1.298925132e-01, 2.460490763e-01, -4.388731904e-03, 6.815655529e-02, 1.241890565e-01, -8.400557190e-02, 2.985011041e-01, -2.122160047e-01, 5.350068957e-02, 2.775186598e-01, -1.472043395e-01, -3.782686591e-01, -1.371855587e-01, 2.169903517e-01, -2.003472298e-01, -1.348290145e-01, -2.652083635e-01, -2.133071274e-01, -2.179727405e-01, -7.097959518e-02, -9.795400500e-02, 3.277505562e-02, -3.553547338e-02, 9.378237277e-02, -1.100237966e-01, 1.508811116e-01, -5.001185834e-02, -3.886569738e-01, -6.279615313e-02, 1.720089465e-01}, {4.065949023e-01, -2.431247681e-01, -1.874941438e-01, -9.249768220e-03, -4.816916585e-02, 8.991913870e-03, -2.259043455e-01, -3.004862666e-01, 4.205082357e-01, 5.320988595e-02, -5.935885012e-02, -3.079484105e-01, 8.514427580e-03, -7.241442800e-02, 2.836632729e-02, -1.134547815e-01, 1.834639460e-01, -2.176757306e-01, 1.197636053e-01, -1.729067564e-01, -2.765820324e-01, -2.823484242e-01, 4.319924116e-01, -8.393805474e-02, 3.302149177e-01, -6.902598590e-02, 1.815613243e-03, 5.824838579e-02, 6.371602416e-02, -8.747081459e-02, -1.389562935e-01, 1.484395117e-01, -8.789423108e-02, 1.070476845e-01, -4.871704057e-02, 4.832844064e-02, 2.615685463e-01, -1.473004222e-01, -1.611154824e-01, -5.880898237e-02, 2.263852954e-01, -6.258023530e-02, 2.068747729e-01, 2.070960552e-01, 1.883581397e-03, -1.305613667e-01, 5.998064205e-02, 2.372737974e-01, -4.302727059e-02, -6.678480655e-02, -5.853386596e-02, -1.308497787e-01, -2.343264222e-01, 1.080260277e-01, 1.107352376e-01, -2.352172509e-02, -9.436058812e-03, 1.297321767e-01, -3.226929903e-02, -1.489813626e-01, -6.779869646e-02, -7.395043969e-03, -4.875709489e-02, -2.145336755e-02, -2.625381947e-01, 1.102914941e-02, -5.983272195e-02, -6.456629932e-02, 6.995913982e-01, -1.015755087e-01, 1.208491102e-01, 3.445492685e-02, 3.753085807e-02, 2.723477185e-01, 4.404976368e-01, -1.947284937e-01, 3.627620870e-03, 4.637635648e-01, -1.622177362e-01, 1.140190382e-02, 2.807875723e-02, 3.571307659e-02, -4.481383413e-02, -2.221306711e-01, -1.562134922e-01, 1.069231704e-01, 1.151246578e-01, 3.058071733e-01, -6.342562437e-01, -9.941785038e-02, 3.066168129e-01, -1.652446836e-01, -3.955185413e-02, 9.363953024e-02, -3.022222817e-01, -3.626872003e-01, -2.329363972e-01, 8.901917189e-02, 4.785284773e-02, -3.056058288e-01, 2.030331343e-01, -5.050063133e-03, -9.059915692e-02, -6.837303638e-01, -8.918734267e-03, -2.926523983e-01, 3.131656349e-02, 3.000074998e-02, 1.402244419e-01, 1.998997629e-01, 8.662114292e-02, 2.164579332e-01, 4.235202074e-02, -7.984128594e-02, -4.718157649e-02, 1.285752416e+00, -1.192925200e-01, -1.953170262e-02, -7.164108008e-02, 3.720135614e-02}, {-5.729444697e-02, -3.069674969e-01, 2.366477251e-01, -3.351897299e-01, -6.175776944e-02, -2.996086776e-01, 2.935548127e-01, -7.322236896e-02, -6.619700193e-01, 9.614268690e-02, 6.965871155e-02, -1.050155237e-02, 7.380812615e-02, -9.075293690e-02, 3.766510189e-01, -9.641502053e-02, -2.338065654e-01, -2.572268546e-01, -1.215246879e-02, -8.171131015e-01, -2.425880730e-01, 3.381407261e-01, 9.831207991e-02, 6.343196034e-01, -3.242512643e-01, 9.905046225e-02, -2.125993073e-01, 8.513981849e-02, -5.077862740e-01, 2.986041643e-02, -4.887463152e-01, 2.154317647e-01, 4.995061159e-01, -2.307476848e-01, 3.022616208e-01, -3.890201449e-01, -1.283001453e-01, -1.333408803e-01, 2.258176953e-01, 1.871732622e-01, 1.785693020e-01, -5.412459373e-02, 3.132804856e-02, 5.580659583e-02, 1.034141108e-01, 1.273872852e-01, 1.096371189e-01, 5.669335723e-01, 1.513747424e-01, -5.931602716e-01, 1.590296030e-01, -3.308803737e-01, -2.279738933e-01, -3.644202054e-01, 8.519633859e-02, 6.174659729e-02, -7.190008461e-02, -2.503304780e-01, 1.437856257e-01, -2.290259600e-01, -1.908832341e-01, 1.494970266e-02, -5.043779612e-01, 2.311122790e-02, -7.643709779e-01, 3.377094567e-01, 3.369250894e-01, 1.941159219e-01, 2.260866612e-01, -1.538822353e-01, -1.216723993e-01, -1.287830025e-01, -1.386989281e-02, 1.096644253e-01, 4.684962034e-01, -3.117235899e-01, 2.390594035e-02, -1.088620648e-01, -1.785885692e-01, -1.346938591e-02, 2.097948082e-02, 3.336677700e-02, 1.763111502e-01, -4.891118109e-01, 1.047012489e-02, 9.168751538e-02, 1.851525903e-02, -2.259155065e-01, -1.855463833e-01, 9.550146013e-02, 1.347893178e-01, 2.876168191e-01, -2.013877779e-01, -2.035750598e-01, -4.481335729e-02, -4.572886825e-01, 2.632646859e-01, 2.201568484e-01, -4.116193056e-01, 3.276128694e-02, 1.453999430e-01, -1.789081544e-01, -3.584045172e-02, 1.496943235e-01, -5.280286446e-02, 3.159529269e-01, -5.714947581e-01, -9.022093564e-02, 7.041225210e-03, -2.708951533e-01, 1.061891317e-01, -1.817918718e-01, -5.549130589e-02, -5.279829502e-01, 1.593027711e-01, 1.402537525e-01, -2.777976394e-01, 2.435421497e-01, 1.448566187e-02, -4.191800356e-01}, {1.118314490e-01, -2.763449252e-01, -1.930092275e-01, -1.193757355e-01, -2.455016673e-01, 2.304746807e-01, 8.417658508e-02, -1.063245684e-01, -1.430402249e-01, -2.984437644e-01, -7.218858600e-02, 6.704608351e-02, -2.236227542e-01, 7.052809745e-02, 1.988321692e-01, 2.397685200e-01, -4.996960983e-02, 2.311462313e-01, -4.626955837e-02, 1.297926307e-01, 3.907699585e-01, -5.282278731e-02, 2.379464954e-01, 7.628159970e-02, -1.171780601e-01, 8.210005760e-01, -2.602874637e-01, 2.797100926e-03, 2.398962528e-02, 3.996768594e-02, -7.516780496e-01, 2.075865865e-01, -2.088603973e-01, 6.702443957e-02, -7.975909859e-02, -2.986192890e-02, 8.334468119e-03, -2.642950509e-03, 1.167532206e-01, 1.243857965e-01, -8.593621850e-02, -1.510925591e-02, -1.305471659e-01, 9.225756675e-02, 1.448640078e-01, 1.291342378e-01, -6.753523648e-02, 7.709472626e-02, 2.187697291e-01, -7.557062805e-02, -4.869830608e-02, -1.899703890e-01, 5.270466954e-02, -2.371456176e-01, -8.905690908e-02, -2.929481491e-02, 2.804766595e-02, -2.258638889e-01, 6.581058353e-02, -2.968891859e-01, 9.806763381e-02, -3.898474574e-01, -1.267640591e-01, 2.166276872e-01, -1.164381653e-01, 1.203815863e-01, -2.939277589e-01, 6.048905849e-02, -1.463613361e-01, 1.951446533e-01, 6.670783460e-02, -2.705052197e-01, -2.232697010e-01, 1.479607075e-01, -1.641242206e-01, -1.275389642e-01, -2.065792978e-01, -4.749988765e-02, -6.998092681e-02, -2.580892146e-01, -2.530709207e-01, 8.660402149e-03, -2.750001848e-01, -2.983787954e-01, 7.826360315e-02, -1.383790970e-01, 2.967391629e-03, -2.322897874e-02, 1.563660651e-01, 2.752212584e-01, -5.938363075e-02, -1.733974665e-01, -2.856289148e-01, 1.485226154e-01, 1.156374533e-02, 2.620669827e-02, -1.703305542e-02, -1.847175509e-01, -2.404158935e-02, -1.933961809e-01, -5.450448394e-01, 1.946546882e-02, 1.124812365e-01, 1.666945070e-01, 1.064159423e-01, 2.238544226e-01, -5.876443908e-02, 1.789825410e-01, 2.927996777e-02, -3.428448141e-01, -4.450707883e-02, 2.056494355e-03, -6.397956610e-02, 2.607578598e-02, -7.709804922e-02, -5.268368721e-01, 2.972448245e-02, 1.248513386e-01, -2.115632296e-01, -6.633022428e-02}, {1.253303438e-01, -6.635450721e-01, 4.274509847e-02, 5.046217144e-02, -1.562537812e-02, 2.521908581e-01, -1.701257825e-01, 9.984151274e-02, 8.558350801e-02, 1.758429110e-01, -3.141878173e-02, -1.842832267e-01, -6.082085893e-02, 4.255576432e-02, 1.911278069e-02, 4.921880737e-02, -3.029308021e-01, 1.180375069e-01, -2.666415870e-01, -9.454046935e-02, 2.070071101e-01, -6.019942928e-03, 1.864766926e-01, -3.883022368e-01, -1.082827523e-01, 1.096636578e-01, -2.626514137e-01, 4.902506713e-03, 3.985548317e-01, -8.202224970e-02, 1.101394057e+00, 8.017444611e-02, 5.141768456e-01, -4.589780793e-02, -4.381046891e-01, 1.573339850e-01, -7.758107781e-02, 1.481663138e-01, -2.634574771e-01, -7.872062176e-02, 2.199094146e-01, 1.235726625e-01, -9.928639978e-02, -9.856518358e-02, -2.147167623e-01, -2.664206624e-01, -3.665341437e-01, 2.493546009e-01, -1.083085313e-01, -4.008072987e-02, -3.486420512e-01, 2.390787750e-02, 1.723562181e-01, 7.649228722e-02, 1.804680675e-01, 2.508197725e-01, 4.264430404e-01, 5.575324968e-02, -2.928102762e-02, 1.877772510e-01, 1.048930082e-02, 2.499875985e-02, -3.443684876e-01, 9.183754213e-03, -1.002096534e-01, -2.302911431e-01, 6.380420178e-02, 1.683220118e-01, -1.204993427e-01, -1.133040637e-01, 1.849701852e-01, 4.618106037e-02, -2.570004575e-02, 1.111524832e-02, -3.399829939e-02, -4.010718465e-01, 1.091405973e-01, -1.581328511e-01, 1.168325320e-01, 1.289321780e-01, 6.623826027e-01, 7.488577103e-05, 1.339945644e-01, 1.199721396e-01, -1.902245730e-01, 2.376111690e-03, -2.380805612e-01, 1.664243937e-01, -5.884810090e-01, -2.439188063e-01, 5.614578128e-01, 2.688904405e-01, 2.471112609e-01, -2.852250040e-01, -2.637084723e-01, 6.919538975e-02, -3.649647534e-02, -1.950243115e-01, 3.492499292e-01, -3.501826525e-01, -3.776181936e-01, 4.780925214e-01, 6.131052598e-02, 1.164858714e-01, 3.346535563e-01, -1.266682893e-01, 2.601116300e-01, 3.573516905e-01, -5.026812106e-02, -2.347555384e-02, -2.045444958e-02, -5.290389657e-01, -1.175006106e-01, -3.197984397e-01, -1.325913221e-01, -1.720443950e-03, 7.352241129e-02, -5.349356309e-02, 1.218761597e-02, -7.813187689e-02}, {-1.829291433e-01, -1.844413728e-01, 3.177753687e-01, -1.219955157e-03, -8.382444084e-02, -1.230125055e-01, -1.087958440e-01, -1.348379850e-01, 1.558278352e-01, -6.959703565e-02, -2.069009393e-01, 9.729224443e-02, -1.733319014e-01, -3.579852283e-01, 2.894482762e-02, 2.079461887e-02, 6.794593483e-02, 4.828779772e-02, 2.128308415e-01, -1.314762384e-01, -1.899194568e-01, -1.424798965e-01, 9.552864730e-02, 1.160793379e-01, -2.152905315e-01, 2.146350592e-01, -5.924768373e-02, -1.482562721e-01, 7.443703711e-02, 1.709015071e-01, -6.966930032e-01, 1.183212772e-01, 1.316096634e-01, -1.524937749e-01, 4.100189731e-02, 2.496587783e-01, 1.449078470e-01, 2.159965485e-01, 9.214252979e-02, 2.026982456e-01, -1.883394569e-01, -6.480635703e-02, -6.139167398e-02, 1.872817986e-02, -1.768151373e-01, 1.066012084e-01, 8.416035026e-02, 1.603355855e-01, 1.151956767e-01, -2.217454463e-01, 5.319998786e-02, -1.477040201e-01, 5.082764477e-02, -1.381677985e-01, 1.678240672e-02, -8.108416945e-02, 1.212102473e-01, -8.201419562e-02, -1.873135567e-01, 4.027298391e-01, 1.907493025e-01, 3.570888937e-02, 1.143952459e-01, 3.974260688e-01, 8.937256038e-02, 2.046564780e-02, -1.199931800e-01, 1.166614369e-01, -9.790195525e-02, 9.469746053e-02, 3.888197988e-02, 1.975292712e-01, 1.871376634e-01, -8.137682825e-02, 1.999563426e-01, 2.683550417e-01, -1.789441705e-02, -1.030738503e-01, 6.392917037e-02, -1.538045555e-01, 5.809680000e-02, -1.047729775e-01, -4.121757299e-02, 6.722726673e-02, -2.795999870e-02, 1.479942501e-01, 1.340437084e-01, 2.878683507e-01, -1.438247561e-01, 6.712222844e-02, 9.499132633e-02, 1.793590188e-01, -7.816750556e-02, 6.987902801e-03, 8.207567036e-02, 4.229627177e-02, 1.811035909e-02, -7.884959131e-02, 3.597233593e-01, 1.092167795e-01, 2.173381858e-02, -2.318214327e-01, -5.055081844e-02, -9.175855666e-02, 3.374632075e-02, 1.633204520e-01, -1.448588353e-02, 1.497793645e-01, 5.437159166e-02, 8.100152761e-02, -1.483901292e-01, 2.194040827e-02, 1.952293068e-01, -1.939467192e-01, 1.569064148e-02, 1.007642150e-01, -1.471587829e-02, -1.330506206e-01, -8.446475118e-02, -3.187026456e-02}, {-1.150591522e-01, 2.982178889e-02, 4.459991679e-02, -2.420934737e-01, 7.094116509e-02, -3.583137095e-01, -6.448364258e-02, 2.117056549e-01, -2.628231235e-02, 2.195335627e-01, -2.864573598e-01, -2.018964589e-01, -1.111855730e-01, 2.604991198e-02, 1.441054344e-01, 1.716726124e-01, 1.674262136e-01, 3.211284280e-01, 2.851445973e-02, 4.146056622e-02, 1.887122169e-02, 1.548208743e-01, -1.676842272e-01, -1.295527965e-01, -7.282737643e-02, 9.768614918e-02, -3.590579629e-01, -1.173045486e-01, -1.333288550e-01, -1.757112443e-01, -5.990100503e-01, 2.357191592e-01, -2.774948776e-01, -1.363236457e-01, 8.633241802e-02, 1.352270842e-01, 1.148635224e-01, 6.572463317e-04, -4.211539030e-01, 3.462688923e-01, 4.320951551e-02, 1.682094634e-01, 7.372206450e-02, 2.122254223e-01, -4.093132913e-01, -1.666918546e-01, -4.200153947e-01, -2.000401020e-01, 1.982803792e-01, 3.513293564e-01, 9.204988182e-02, 2.451888621e-01, -2.770791054e-01, -9.050133079e-02, -6.207234785e-02, -6.554128230e-02, 9.044414014e-02, -2.338697761e-02, 9.288510680e-02, 6.167687848e-02, -9.122256190e-02, -4.410588145e-01, -1.967807114e-01, -2.533190548e-01, 1.700083166e-01, 3.608531058e-01, 2.309386581e-01, -3.298330009e-01, 2.993953787e-02, -8.239068836e-02, 4.578300938e-02, 2.708971202e-01, -1.527253240e-01, 1.771276891e-01, -2.851198912e-01, -2.559083700e-01, -2.167170942e-01, 4.520232975e-02, 8.733929694e-02, -2.188390642e-01, -4.389907792e-02, 2.886171639e-01, -4.706019536e-02, 7.360944152e-02, -2.326419950e-01, -1.840334982e-01, -3.204303384e-01, -2.846442163e-02, 3.576118350e-01, -9.561746567e-02, -6.671083719e-02, 1.288934499e-01, -1.426940560e-01, -3.065401129e-02, 4.178861156e-02, 2.685977817e-01, -4.393402636e-01, -4.419941008e-01, -2.045465410e-01, 1.827885658e-01, 1.780947298e-01, 7.268992066e-01, 1.764242798e-01, -1.703184247e-01, 1.107489765e-01, -5.385775566e-01, 1.757575870e-01, -1.353643090e-01, 7.222264260e-02, -1.385692954e-01, 6.154670566e-02, -8.346590400e-02, -2.921641171e-01, 5.320286378e-02, 1.089255139e-01, 3.552567586e-02, -2.930704057e-01, -1.980972588e-01, 4.204468057e-02, 5.698329955e-02}, {6.647641957e-02, -2.341581881e-01, 5.268879607e-02, -2.110263854e-01, 1.683416814e-01, 2.935715616e-01, 3.277798891e-01, -6.012844853e-03, 1.223658547e-01, -1.473673433e-01, 5.350521766e-03, -4.976017401e-02, 1.460519284e-01, -8.569680154e-03, 1.246166825e-01, -2.924601138e-01, 5.798687041e-02, -3.838700010e-03, 1.077939495e-01, 8.595338464e-02, 1.784065068e-01, 6.133280694e-02, 6.665781140e-02, -4.043713510e-01, 4.534398019e-01, -8.943878859e-02, -1.362767965e-01, -1.266738633e-03, 2.824745178e-01, 9.701759368e-02, 4.012406170e-01, -9.305071086e-02, -3.528912961e-01, -1.697156876e-01, 3.011357971e-03, -5.348384976e-01, 2.625150979e-02, -6.832539290e-02, 1.079116240e-01, -4.093804061e-01, 4.836653918e-02, -4.482296109e-02, -4.394116998e-01, -2.423646152e-01, 1.338543929e-02, 7.450742275e-02, 9.560466558e-02, -1.498317271e-01, 6.535560638e-02, 4.677591026e-01, -2.925983071e-01, -2.922448516e-01, -1.375718117e-01, 1.354184002e-01, 2.731968462e-01, 1.764313132e-02, -3.505397215e-02, -1.232695766e-02, 3.267616928e-01, -1.598814279e-01, -2.063282430e-01, -1.466766298e-01, -1.259112507e-01, -3.989927769e-01, -8.782850206e-02, 6.155924872e-02, -2.031311020e-02, -1.852870882e-01, 6.695473939e-02, -6.333038677e-03, 1.527728736e-01, -1.649825424e-01, -1.200136095e-01, -5.181615055e-02, 1.275050044e-01, -3.145942092e-01, 3.473094199e-03, -1.640207920e-04, -2.422982007e-01, 2.311607003e-01, 3.212395608e-01, 5.333083495e-02, 2.267650962e-01, -1.643508673e-02, 1.523657888e-01, -1.666102111e-01, -2.752903402e-01, -2.180055380e-01, -2.563433722e-02, -9.805337759e-04, 7.981287688e-02, -4.204367697e-01, 4.221941829e-01, -3.673845828e-01, 2.370039523e-01, 1.987824738e-01, -1.205553487e-01, -1.435018927e-01, 9.106687456e-02, -6.607957184e-02, 3.508063778e-02, 3.388719261e-01, 1.695410162e-01, -2.800820395e-03, 2.256537378e-01, 1.230158061e-01, -2.618775666e-01, -9.903442115e-02, 9.496665001e-02, 8.238621987e-03, 5.198284388e-01, -4.891260341e-02, -1.456891187e-02, 2.001142800e-01, 3.060623705e-01, -2.526729703e-01, -5.722751617e-01, -9.016055614e-02, -4.809345007e-01, -1.229386870e-02}, {-1.824697852e-01, 2.334235460e-01, -2.258449346e-01, 1.511317212e-02, -2.299342304e-01, -1.505725086e-01, -8.409409970e-02, 9.489904344e-02, 8.513861895e-02, -1.237038001e-01, -9.448510408e-02, -1.349589825e-01, 1.031930149e-01, -2.991190851e-01, -3.448981047e-02, 9.751845896e-02, 2.417209595e-01, -2.667937875e-01, -3.025934799e-03, -2.309474647e-01, -7.024760246e-01, -9.285669774e-02, 3.280550241e-01, 3.910271525e-01, -2.420692593e-01, -7.884218544e-02, -1.835354567e-01, 1.139948703e-02, -1.747827530e-01, 2.011061646e-02, -5.050195754e-02, -1.388271153e-01, 2.472101450e-01, -3.897942305e-01, -4.320438802e-01, 3.792835772e-01, 1.879547238e-01, -2.843759358e-01, -1.545586288e-01, 3.838788271e-01, -3.812781274e-01, -4.641464055e-01, 2.272956222e-01, -1.091543958e-01, 4.930954427e-02, 1.744344085e-01, -3.880242705e-01, 4.584528878e-02, 1.037790924e-01, -1.814742088e-01, -1.707071662e-01, 2.050982267e-01, -1.412002929e-02, -3.091543727e-02, 5.782720447e-02, 4.669298828e-01, -1.079434156e-01, -2.364511639e-01, -1.603399776e-02, 2.862982079e-02, -6.306239963e-02, 1.872366518e-01, 5.263375863e-02, -3.364519179e-01, -7.835184336e-01, 1.455952227e-01, 1.872549653e-01, 2.203028202e-01, -1.025860012e-02, 1.021902487e-01, 6.626469642e-02, 4.915643856e-02, 2.462545484e-01, 1.595157757e-02, 1.103896555e-02, -4.507307708e-02, -1.586175114e-01, -1.871079654e-01, -1.285809577e-01, 3.839845955e-02, 1.556112319e-01, 5.651507527e-02, -1.690080464e-01, -1.731283516e-01, 2.390162945e-01, 2.818353474e-01, 2.755622268e-01, 1.899743974e-01, -3.639101982e-02, 1.328386664e-01, 3.079528511e-01, 3.240971565e-01, 1.490989476e-01, -3.268168569e-01, 8.964736015e-02, 1.387798041e-01, 1.749998517e-02, -1.084238812e-01, 4.402048886e-01, 8.397953957e-02, -6.590725482e-02, -5.124663115e-01, 1.063466370e-01, 3.060173988e-01, 1.172461212e-01, -2.026545703e-01, 9.578000009e-02, 6.617890205e-03, -5.954249948e-02, 