#include "nn_parameters.h"

// NN network parameters -- atribute values
const float weights_in[NUM_NODES][NUM_STATES] = {{-5.605947971e-01, -5.991120934e-01, -5.985146016e-02, 7.854361534e-01, -7.191115618e-02, -2.152119726e-01, -8.036907315e-01, -6.584149599e-01, -6.015391946e-01, -6.404210627e-02, -5.338305235e-02, 2.638586238e-02, -1.454359144e-01, 2.896910906e-02, 2.668636441e-01, -1.125710309e-01, -1.317357272e-01, -6.599229574e-02, -2.103474438e-01, -2.251104452e-02, -1.495810971e-02}, {3.046750464e-02, 7.881124318e-02, -3.500942141e-02, 9.580463171e-03, -4.399219528e-02, -8.503799886e-02, 7.426256780e-03, 2.315229969e-03, 8.883628249e-02, -9.763180614e-01, -1.196654201e+00, 1.339042932e-01, -1.391660273e-01, -1.003230959e-01, 1.720516980e-01, -1.040857937e-02, -2.182938391e-03, -1.201506704e-01, -1.095231697e-01, -5.252444372e-02, 1.763601899e-01}, {1.064855233e-01, 1.967082173e-01, -1.394783799e-02, -3.125628829e-01, -6.736644357e-02, 5.503538996e-02, -1.779673547e-01, 6.726884097e-02, 2.932388522e-02, -6.462880373e-01, 6.902363896e-01, -2.157798707e-01, -9.922280163e-02, -9.890186191e-01, -7.507044077e-02, 5.710244775e-01, 2.437645495e-01, -3.041228056e-01, 8.523331583e-02, -4.771410301e-02, 1.457704008e-01}, {-4.985204712e-02, -4.452423453e-01, -1.453927636e+00, 2.685981989e-01, 2.533229291e-01, 4.601043463e-01, -1.688408494e+00, -2.888874114e-01, 1.163988709e-01, -3.171070293e-02, -1.152878627e-01, 1.381680220e-01, -2.004338242e-02, -1.251653116e-02, 3.682742640e-02, 3.613608330e-02, -3.503094241e-02, -5.560328439e-02, 3.497274965e-02, -4.694821686e-02, -3.424449638e-02}, {-9.507252276e-02, -1.980132014e-01, 5.367016792e-01, 4.211211801e-01, -1.772542894e-01, -2.654351294e-01, 5.057637691e-01, -4.104513228e-01, 5.597413778e-01, -6.612250805e-01, -4.597293139e-01, 1.724242568e-01, -6.869319081e-01, -3.088756651e-02, 4.156572521e-01, 2.998861372e-01, -7.574383169e-02, -2.537905872e-01, 1.718344539e-01, -3.086136887e-03, -2.375266105e-01}, {5.817446113e-01, 1.153639674e+00, -2.737319171e-01, -2.332679927e-01, -2.923513055e-01, 1.599459052e-01, -1.745707154e+00, 7.781292796e-01, 2.123766661e+00, -8.729094267e-02, 7.384984940e-02, -5.727344006e-02, -1.522684842e-01, 1.257778108e-01, 3.727126867e-02, -6.756384671e-02, 2.382652462e-02, -3.207471222e-03, 1.150413752e-01, 4.858831763e-01, -1.603153050e-01}, {6.706200540e-03, -9.800893068e-02, -1.178772971e-01, -1.275892556e-01, 8.409923315e-02, 1.278125346e-01, 7.012146711e-02, -6.429222226e-02, -1.751863807e-01, 3.672280014e-01, -1.961986572e-01, 2.895662934e-02, 8.364246786e-02, 2.740727901e+00, -3.544981778e-02, 7.402303815e-02, 1.425283998e-01, -1.137779951e-01, -8.083055913e-02, 1.367703825e-02, -1.507334113e+00}, {-5.107615590e-01, 2.835788727e-01, -1.697603911e-01, 4.571976066e-01, -8.256278038e-01, 6.495561451e-02, -1.346358776e+00, -3.394548893e-01, 1.255298257e-01, -2.733585835e-01, -3.885754049e-01, 2.021662295e-01, 8.944004774e-02, 6.521526724e-02, -1.512658447e-01, -1.687941700e-02, 2.696078122e-01, 3.048432469e-01, 1.479997188e-01, -6.266807765e-02, -2.081163675e-01}, {-1.206179142e+00, -1.011515498e+00, -5.036279559e-01, 5.719339848e-01, 7.358570099e-01, 4.169101715e-01, 1.276365042e+00, -1.271280885e+00, -3.106082678e-01, 2.107788920e-01, -2.617436834e-02, 1.636625975e-01, 1.452373527e-02, -1.657091379e-01, 1.409387030e-02, 2.783503234e-01, 1.455267519e-01, -9.891567379e-02, 5.837562308e-02, -2.163836509e-01, -8.378782868e-02}, {8.722878695e-01, 8.510835767e-01, -1.188714147e+00, 9.310069680e-02, -3.885447085e-01, 2.375931889e-01, -6.939406395e-01, -1.641213149e-01, -1.946207404e+00, 4.251049086e-02, 9.356668219e-03, -4.212865233e-02, -1.561166197e-01, 9.192972444e-03, 4.724459257e-03, -1.035951525e-01, -5.557253584e-02, -5.285418127e-03, 2.605122328e-02, 8.435363173e-01, 5.716936663e-02}, {1.177184463e+00, -5.140967369e-01, -1.584472358e-01, -3.386850953e-01, 6.750883460e-01, 3.380150199e-01, 6.388000399e-02, -2.597279847e-01, -2.508451939e+00, 1.929390430e-01, 1.293323636e-01, -1.419013143e-01, -1.976836845e-02, -8.139193058e-02, -1.916708052e-02, -3.135253489e-02, 9.643532336e-03, 9.715720080e-03, -6.818086654e-02, 3.569601476e-02, 8.708609641e-02}, {5.728797317e-01, 2.437720150e-01, 5.899677277e-01, -4.381680787e-01, -8.053575158e-01, -3.832647800e-01, 8.003544211e-01, -7.798404098e-01, 9.121755362e-01, -3.873242810e-02, 6.666152924e-02, 5.132067949e-02, -5.401976407e-02, 2.061039060e-01, 6.996423006e-02, -9.383977205e-02, -8.301834762e-02, 4.073268268e-03, -5.396291986e-02, -4.537612572e-02, 4.119548202e-02}, {1.312790394e+00, 1.771908522e+00, 6.055395007e-01, -2.962932289e-01, -6.681922674e-01, -9.460022300e-02, 1.570447564e+00, -1.519725680e+00, 8.221186996e-01, -1.310414523e-01, 3.330843896e-02, -1.014405414e-01, -1.577998325e-02, 9.800145775e-02, 1.135669276e-01, -1.763346493e-01, -1.055907905e-01, 1.648091152e-02, 6.370125338e-03, 3.412333727e-01, 1.351682693e-01}, {-9.284631908e-02, -3.854791224e-01, -9.401265979e-01, -3.875630200e-01, 1.014517784e+00, -2.546204627e-01, -1.451043189e-01, -6.017144918e-01, 1.253709316e+00, 2.408866435e-01, 1.370648202e-02, -7.986077666e-02, 3.568196893e-01, -3.882060647e-01, -3.511514068e-01, 5.950809717e-01, 3.236801028e-01, -8.197641373e-02, 3.581901640e-02, 1.107418835e-01, -1.773071587e-01}, {-7.084683776e-01, 1.265816092e+00, -1.572785497e+00, 5.111521482e-01, -4.622080326e-01, 2.976071537e-01, -5.954369307e-01, -4.073030502e-02, 4.970197082e-01, -4.883219674e-02, -9.802576900e-02, 1.959544420e-01, -4.171756282e-02, 1.992585324e-02, 3.745711595e-02, -5.367764831e-02, -3.233008459e-02, 2.265414037e-02, 6.625588983e-02, 1.517013311e+00, 9.835404158e-02}, {3.014689088e-01, 1.773340404e-01, 6.367887836e-04, -9.220810980e-02, -1.912126392e-01, 3.948281407e-01, 1.506611854e-01, 3.158540130e-01, -1.095714942e-01, 4.059182703e-01, 6.429313421e-01, 7.542992383e-02, 7.136495709e-01, 1.547781378e-01, -5.496456027e-01, 9.941816330e-02, 2.611005902e-01, 3.692908287e-01, 6.104191393e-02, -2.476119553e-04, -9.986037761e-02}, {3.290997148e-01, 1.303435117e-01, -7.000777125e-02, -7.776555419e-02, -2.349788845e-01, 2.472508252e-01, -4.679825008e-01, 1.316827536e-01, 6.888855696e-01, -8.896772563e-02, 1.159919947e-01, 8.411305547e-01, 2.059630603e-01, -2.994329110e-02, 1.708593220e-01, -1.915260218e-02, 5.025487542e-01, 7.735309005e-01, 1.174067378e+00, 2.211583108e-01, -2.011886120e+00}, {-4.365723133e-01, 8.977989107e-02, 1.217362583e-01, -4.272276536e-03, 1.013502777e-01, -1.224159263e-02, 2.633911371e-01, 1.372939050e-01, 9.436573982e-01, 2.182436585e-01, -3.480884731e-01, -2.077371581e-03, -7.667148858e-02, -1.390388966e+00, 3.843165934e-02, 2.176143825e-01, 8.336742967e-02, -4.396611452e-02, 6.060242653e-03, 6.912204623e-02, -5.408480298e-03}, {8.728985190e-01, 3.024357855e-01, -3.194557428e-01, -3.764053881e-01, -1.192180961e-01, 2.180364281e-01, -2.637989521e-01, 9.237281233e-02, -2.515210152e+00, 4.955237210e-01, -2.280034721e-01, -1.890881956e-01, 1.864911914e-01, -3.329788446e-01, -3.996460140e-02, 2.950555980e-01, 1.222258210e-01, -1.062619090e-01, -1.114720851e-01, 1.259638667e-01, 1.069857553e-01}, {-7.559163123e-02, -6.531769782e-02, 1.422823370e-01, -2.889687568e-02, 1.136699244e-01, -4.601694643e-02, -2.789565548e-02, 6.938557490e-04, 3.349317121e-04, -1.821333915e-01, -1.640943140e-01, 4.897155985e-02, -2.425126791e+00, 1.098641455e-01, 2.718207538e-01, -8.216690272e-02, -1.062458083e-01, -3.719694167e-02, -8.266803809e-03, -4.477920756e-02, 1.949308515e-01}, {-6.861712784e-03, 1.058445215e+00, 9.455666542e-01, -1.444274634e-01, 3.567823470e-01, -5.721797943e-01, 1.687144637e+00, 6.823339462e-01, 1.041418076e+00, 4.698219895e-01, -1.865569204e-01, -6.246414185e-01, 1.579436213e-01, -7.495739032e-03, -8.370836824e-02, -4.410408810e-02, 1.597325355e-01, 2.756571472e-01, -3.075793758e-02, 2.536178529e-01, 4.485120252e-02}, {-2.179934829e-01, 9.109913111e-01, -7.925297618e-01, 3.003304265e-02, -5.119200945e-01, 3.682356179e-01, 1.374889970e+00, 8.876049519e-01, -1.191615343e+00, -5.222747847e-02, -8.122516423e-02, -1.020700261e-01, -1.365305930e-01, 1.913137734e-01, 6.024277955e-02, -1.598590463e-01, -4.708651826e-02, -3.912794590e-02, 4.091473669e-02, -1.702673882e-01, 5.451350212e-01}, {-4.682557285e-01, -1.687749386e+00, 7.065799236e-01, 1.062621474e-01, 8.083749413e-01, -5.365021825e-01, -6.717705131e-01, -4.642360806e-01, -4.302623570e-01, 1.575722545e-01, -7.754565217e-03, 2.094268948e-01, 3.891789541e-02, 5.624219030e-02, -1.127446368e-01, 1.141714901e-01, 3.858758509e-02, -4.388181493e-02, -1.185359666e-03, 3.261204958e-01, 2.960005403e-01}, {4.390726388e-01, 1.782055020e+00, -9.078624845e-01, -6.199490279e-02, -6.248169541e-01, 3.491532803e-01, 1.256084204e+00, -2.045272887e-01, 1.922458887e+00, -1.459708065e-01, 8.302181214e-02, 7.635296322e-03, -6.224833429e-02, 4.351486568e-04, -1.080547925e-02, -6.747705489e-02, -1.648871414e-02, 4.109008703e-03, 6.241934374e-02, 8.282744288e-01, -1.076053083e-01}, {1.241140217e-01, 3.159919381e-01, -1.284469366e-01, -1.777128279e-01, 1.073476076e-01, 1.306046546e-01, -3.234480321e-01, -4.119978473e-02, -1.109718919e+00, 8.955155313e-02, 6.999243051e-02, -9.254424274e-02, -3.771002963e-02, 4.079558328e-02, 6.289201975e-02, -9.367931634e-02, -3.909176961e-02, 5.730410106e-03, 7.134631276e-02, 9.833005667e-01, 5.758047700e-01}, {-1.035823207e-02, -3.517075256e-02, -2.073834650e-02, 7.099840045e-02, 1.223563030e-01, 9.836819023e-02, -1.289442480e-01, -6.119302660e-02, -4.384639859e-02, -1.094113588e-01, 7.637107372e-02, -2.450241894e-02, 1.579379290e-01, -6.760351062e-01, 6.732558459e-02, 1.937344670e-01, -3.054328859e-01, 2.103077620e-01, 6.823176146e-02, 5.983054042e-01, -5.567409396e-01}, {-6.866770983e-01, 1.031936526e+00, -7.125698924e-01, 5.634016991e-01, -2.985857725e-01, 4.032299221e-01, -5.318178535e-01, -7.840616107e-01, 3.058884442e-01, 1.387286484e-01, 1.096532419e-01, -2.633374333e-01, 1.692010611e-01, -1.482539177e-01, -6.232932582e-02, 5.173278973e-02, 5.675171688e-02, -2.868445404e-02, -5.529026687e-02, 2.923066318e-01, -8.199293911e-02}, {1.089124441e+00, 1.752910018e-01, 2.178307474e-01, -8.066186309e-01, -1.711648852e-01, 5.635764450e-02, 2.554366887e-01, 3.907124102e-01, -1.644984841e+00, -3.093942106e-01, 1.667079180e-01, -3.576043844e-01, -7.698137313e-02, 1.484111995e-01, 6.674408168e-02, -4.974161834e-02, -9.829393029e-02, -1.880252175e-02, 1.443949491e-01, 3.982085288e-01, 2.983043492e-01}, {-1.962261647e-01, 6.966154277e-02, -1.481350511e-01, 5.172509328e-02, -2.305864990e-01, 7.126177847e-02, -1.553926021e-01, 7.754355669e-02, 1.371747851e-01, 1.629222035e+00, 7.923766971e-01, 1.870954484e-01, 1.688024104e-01, -1.183254123e-01, -1.113929972e-01, 6.658754498e-02, 4.879926890e-02, -4.443197104e-04, -3.822074039e-03, 6.472019479e-03, 5.292231590e-02}, {-3.746501505e-01, -1.875620484e-01, -1.973060519e-02, 5.702133775e-01, -2.683996260e-01, -1.678354889e-01, -2.139876783e-01, -1.711612940e-02, 6.792844534e-01, 1.734904349e-01, 8.213740587e-01, 1.515846401e-01, 4.891997576e-01, 4.698669314e-01, -4.920185208e-01, -3.611650765e-01, 6.637994200e-02, 4.188206792e-01, 7.139901072e-02, -1.019910201e-01, -1.122886166e-01}, {4.252887890e-02, -1.152694598e-01, -2.370781749e-01, -1.056418791e-01, 8.321505040e-02, 2.456900477e-01, -2.684113085e-01, 5.511893425e-03, -4.377790689e-01, -2.077632584e-02, -1.470372528e-01, -4.762367159e-02, 6.456509829e-01, 7.765808105e-01, 5.720203519e-01, 2.356173992e-01, 8.217087388e-02, -6.521110237e-02, 3.852563351e-02, 2.522069216e-01, 4.321001470e-01}, {9.503130615e-02, -1.467487309e-02, -1.178971585e-02, -1.727616191e-01, 1.276779026e-01, 1.482065320e-01, 7.156565785e-02, 7.297179103e-02, -6.555231661e-02, 3.825678229e-01, 2.162488699e-01, 2.100011520e-02, 2.351537198e-01, 1.797168255e-01, 8.032845259e-01, 9.372846782e-02, -9.500255436e-02, -5.478273705e-02, -2.115966752e-02, 1.648658887e-02, 2.899893373e-02}, {5.039557219e-01, -1.157928351e-02, -3.200482428e-01, -5.645487309e-01, -4.311573505e-01, 8.377652615e-02, -1.195190907e+00, -1.018565670e-01, -8.313561678e-01, -4.108448327e-01, 2.747246325e-01, 8.391654119e-03, -3.342022300e-01, 6.315533519e-01, 1.519829333e-01, -4.117094576e-01, -2.743669450e-01, 1.572432816e-01, -5.445475504e-02, -4.211558029e-02, 1.246800413e-03}, {2.293402851e-01, -1.292297482e+00, -1.861106753e-01, 6.216281652e-02, 4.379638731e-01, 1.030973345e-01, 2.191711515e-01, -6.572947651e-02, -3.567721546e-01, 4.983002786e-03, 2.160620876e-03, -1.149900109e-01, 3.312603384e-02, 8.199065179e-02, 4.162728414e-02, -7.157409936e-02, -6.448345631e-02, -6.145981140e-03, 2.086529974e-03, 3.412854970e-01, 3.691985309e-01}, {8.910694718e-02, -7.211036235e-02, -7.445219904e-02, -5.965763330e-01, 3.873147070e-01, 2.814233899e-01, -2.215690166e-01, -1.990535557e-01, -2.591007948e-01, -5.707716346e-01, -7.739238143e-01, 1.403653175e-01, -1.595428586e-02, 2.301897705e-01, 2.207449526e-01, -2.021660358e-01, -8.977290392e-01, -1.031498909e+00, 2.986321449e-01, -2.445460483e-02, -2.006085217e-01}, {3.723330498e-01, -4.630382061e-01, -3.023697734e-01, 3.278006613e-01, 7.788362354e-02, 1.674866825e-01, -6.328966469e-02, -4.689646959e-01, -7.350381613e-01, 2.149265856e-01, 1.698327065e-01, -1.023628414e-01, 4.454434291e-02, 1.728303432e-01, -3.122903705e-01, 7.946381718e-02, 1.566683501e-01, 2.159800529e-01, -1.071375310e-01, -8.901424706e-02, -1.200996488e-01}, {-5.720202327e-01, 1.104023457e+00, 8.099114895e-01, 3.264624774e-01, 1.337568760e-01, 6.070968509e-02, 1.010321779e-03, 6.992377639e-01, -4.370267987e-01, -6.908717006e-02, 1.814834587e-02, 1.094682366e-01, 1.299497485e-01, -2.978901938e-02, 6.635000557e-02, -1.548493505e-01, -9.407601319e-04, 4.986378178e-02, 6.516380236e-04, 6.313126683e-01, 2.779603899e-01}, {-2.928274572e-01, 1.490217447e+00, -6.006873399e-02, 4.588717818e-01, -5.819913149e-01, -3.934178054e-01, -5.404688120e-01, 3.030914068e-01, 2.085449934e+00, 2.468920872e-02, -4.690354690e-02, 2.446260490e-02, -1.070963033e-02, 1.699882373e-02, 1.719066203e-01, 1.296806931e-01, -6.911624223e-02, -1.279027909e-01, -4.709489644e-03, 1.406016946e-01, 9.127742797e-02}, {-4.512030482e-01, 1.007886887e+00, 1.003727794e+00, 4.211716652e-01, -4.506910741e-01, -3.634698093e-01, 1.490383148e+00, 6.580896378e-01, 3.744316055e-03, -1.201549023e-01, 4.104132578e-02, 1.115794554e-01, -4.723943025e-02, 7.268492877e-02, 1.256072819e-01, -1.865371130e-02, -4.348029941e-02, -5.874135345e-02, -2.641656436e-02, -2.469648272e-01, 4.730844870e-02}, {2.692501843e-01, 2.159272432e-01, 1.287195738e-02, -1.122708321e-01, -2.379346639e-01, 1.208655909e-01, 2.014756016e-02, 1.378311496e-02, -1.085610151e+00, 2.760755643e-02, -2.431613021e-02, 1.562258750e-01, -9.469615668e-02, -7.126809657e-02, -6.321883202e-02, -1.423243433e-01, 7.102145553e-01, 6.774591208e-01, 1.220642686e+00, 2.897047997e-02, -1.910978794e+00}, {2.484490573e-01, 5.701147020e-02, -2.823096514e-02, -6.442687660e-02, -6.598106120e-03, 9.330014884e-02, 2.401557267e-01, 3.766082693e-03, 5.731101036e-01, 4.698085487e-01, 3.314757347e-01, 1.759548485e-01, 4.355793893e-01, -1.117873669e+00, 1.214881897e+00, -6.513085961e-01, 3.961879909e-01, 1.897655874e-01, 1.532955170e-01, 1.190458145e-02, -6.525278091e-01}, {-3.966340423e-02, -1.512472630e-01, 1.266301423e-01, -5.480904505e-02, 2.355487458e-02, -6.419734657e-02, 1.385854036e-01, 1.082717348e-02, -2.810597718e-01, 1.034080386e-01, -1.071900725e-01, -2.607720159e-02, 3.015131056e-01, -4.735835828e-03, -2.709248364e-01, -8.952165246e-01, 1.768232137e-01, -1.599381715e-01, -4.939493164e-02, 7.239942253e-02, 3.875734210e-01}, {6.487258077e-01, -1.067354321e+00, 7.306840271e-02, -5.497714281e-01, 1.427148700e+00, 1.431142092e-01, 1.607828975e+00, 1.284791678e-01, -7.375850528e-02, -2.181913108e-01, 3.445759648e-03, 1.738428324e-01, 1.633693576e-01, -7.977313548e-02, -7.457098365e-02, -1.191372611e-02, 5.333310738e-02, 8.039674908e-02, -2.907668054e-01, -6.114870682e-02, -4.851666689e-01}, {4.333084226e-01, -2.019199431e-01, -4.212468565e-01, -4.634419382e-01, 3.843370974e-01, 4.561199248e-01, 3.084158301e-01, -4.023303464e-02, -8.879988641e-02, 5.869525671e-01, 7.829438150e-02, 1.898805350e-01, -2.848266661e-01, -5.590184331e-01, 3.219211474e-02, 3.106957376e-01, 8.012879640e-02, -1.815205067e-01, -5.502692657e-04, 1.190382764e-01, -3.287080908e-04}, {9.542458653e-01, 1.070104480e+00, 1.837728977e+00, -2.369701415e-01, -7.243828773e-01, -5.927173495e-01, -6.194636822e-01, -3.636401296e-01, 2.405233622e+00, -1.690980345e-01, 1.450245529e-01, -1.062438637e-01, 3.339692950e-02, 8.172980696e-02, 1.126538515e-01, -1.191802695e-01, -6.953767687e-02, 8.052793890e-02, 8.576635271e-02, 8.129460216e-01, 2.904669382e-02}, {-1.694317222e+00, 1.147128582e+00, 3.977400810e-02, 5.146957040e-01, -1.088447198e-01, 1.669582725e-02, 2.616659701e-01, 1.510924697e-01, 1.032782912e+00, -4.655669257e-02, -3.191204369e-02, -4.703322053e-01, 1.022062972e-01, -1.359639168e-01, -6.611140072e-02, 1.076746508e-01, 1.480642147e-02, -2.946374752e-02, 1.936356653e-03, 6.513901353e-01, 2.171593606e-01}, {5.412771553e-02, -8.177806437e-02, 2.257407643e-03, -1.100908518e-01, 5.962815881e-02, 6.378687918e-02, -8.605790138e-02, 4.665823653e-02, -2.859327793e-01, 1.780155599e-01, 1.810806990e-01, -5.771278590e-02, -1.253334522e+00, 2.212837785e-01, 2.483595759e-01, 6.181563810e-02, 9.499837458e-02, -2.018506266e-02, -3.815551475e-02, 8.202309906e-02, 2.563622296e-01}, {9.596532583e-02, -3.044999838e-01, -1.836748980e-02, 9.066294879e-02, 3.417079747e-01, -2.968977392e-02, 1.045474336e-01, -2.231514305e-01, -2.746040523e-01, 2.750452049e-02, -4.340348840e-01, 1.000864357e-01, -6.290668249e-01, 5.735737681e-01, 5.137764812e-01, -3.854189813e-01, -4.167595804e-01, 7.293665782e-03, -2.244455740e-03, -3.833582625e-02, -5.064418912e-02}, {-1.203492954e-01, 7.836170495e-02, -9.723935276e-02, -3.089925833e-02, -3.717813641e-02, 1.061940715e-01, -5.068475381e-02, 7.040179521e-02, 1.354083866e-01, -3.086820245e-02, -7.598254085e-02, -1.848195307e-02, 1.175418776e-02, -4.711432010e-02, 3.920219183e+00, 4.754683748e-02, 4.339298978e-02, 4.441032931e-02, -2.489363588e-02, -8.685725741e-03, -2.681029081e+00}, {5.329146050e-03, -3.975254297e-02, -5.683632195e-02, 7.807076722e-02, -7.951150090e-02, -3.012114950e-02, -2.728919089e-01, -4.829414934e-02, -1.908751428e-01, -5.034990311e-01, 4.001442790e-01, -6.327281892e-02, 1.091302857e-01, 2.008145571e+00, 1.613447666e-01, 5.263755322e-01, -2.946804762e-01, 1.754879057e-01, -2.746980079e-02, -5.072331056e-03, -1.165509105e+00}, {-8.558883667e-01, 1.372700214e+00, 1.174472451e+00, 6.536308527e-01, -8.138406277e-01, -4.589985311e-01, -3.643121421e-01, -2.462791651e-01, 1.557950139e+00, -5.579371750e-02, 6.311088055e-02, 1.928572804e-01, 1.738092676e-02, -4.245357960e-02, -7.266815752e-02, 9.033223987e-02, 9.900233895e-02, -6.651919801e-03, 1.621737331e-01, 7.309505939e-01, 1.620918326e-02}, {-4.710627496e-01, -1.093050987e-01, -3.496762514e-01, 1.960723698e-01, -4.473858178e-01, 1.555214971e-01, -1.144835591e+00, 9.317623377e-01, 8.823449612e-01, -1.793907583e-01, 2.645959258e-01, -1.690926552e-01, -4.333483055e-02, 3.570245504e-01, 5.196920130e-03, -3.740745783e-01, -1.012351215e-01, 3.283794597e-02, 8.657813817e-02, 3.823457286e-02, 1.259382218e-01}, {1.672022343e+00, 4.242808521e-01, -6.308992505e-01, -4.743448496e-01, -4.242407680e-01, 3.067685962e-01, -7.601031065e-01, 9.353749752e-01, 4.700095057e-01, -9.749390185e-02, 1.959365606e-01, -2.938182559e-03, 2.475243760e-03, 1.742283106e-01, -5.295440555e-02, -1.917372048e-01, -1.036200002e-01, 1.217626631e-01, 1.168523729e-02, 8.621007800e-01, -1.741667390e-01}, {1.511583447e+00, -1.139818318e-02, 2.649282515e-01, -2.435077131e-01, 5.134829283e-01, -5.767640471e-01, 1.655060887e+00, 1.276467144e-01, -1.339929461e+00, 1.701625288e-01, 1.737744659e-01, 2.146979719e-01, 1.404706538e-01, -2.206173390e-01, 1.386023406e-02, 3.002313673e-01, 1.149889380e-01, -5.333559588e-02, 3.469787911e-02, 1.758671105e-01, -5.456667859e-04}, {5.103501678e-01, 2.589047551e-01, 1.712763906e-01, -5.744572878e-01, -3.042542040e-01, 3.596225521e-03, -1.322483420e+00, -3.244479895e-01, -4.608235061e-01, -1.817240566e-01, -2.390195429e-02, -1.417074651e-01, -3.269682825e-01, 3.857769668e-01, 2.086533308e-01, -3.169987500e-01, -2.573774159e-01, -3.196152672e-02, 6.986674666e-02, -1.145198345e-01, 2.063188553e-01}, {-4.672988057e-01, 6.973268390e-01, -6.408864260e-02, 4.939921796e-01, -1.126029372e+00, -5.128494278e-02, 4.865585864e-01, 3.786002994e-01, 1.581965446e+00, 7.378474474e-01, 3.405868292e+00, -7.218987942e-01, -9.502640367e-02, -2.614690661e-01, 1.828608215e-01, 6.561875343e-02, -2.715778537e-02, -9.443705529e-02, -1.165241227e-01, 6.874519587e-02, -1.406785399e-01}, {1.053916663e-01, -2.240912467e-01, 1.159105077e-01, 2.832148969e-02, 1.180403680e-01, 4.277685285e-02, 3.329772949e-01, 6.505553424e-02, -1.240700036e-01, -1.032559797e-01, 1.818183422e+00, 4.244808257e-01, 1.256864965e-01, 8.339952677e-02, -1.727685332e-01, -3.101184219e-02, -1.937071420e-02, 9.803190082e-02, -1.003864035e-02, -1.109192297e-01, 1.152924746e-01}, {-7.998539507e-02, -5.010580420e-01, -1.027343512e+00, 3.788528740e-01, 2.323338687e-01, 3.912404180e-02, -1.084242821e+00, -7.574723959e-01, -5.603252649e-01, 3.374374509e-01, -7.321283221e-01, -1.952711791e-01, 1.754968613e-02, -2.579327822e-01, 1.153132319e-01, 3.159404695e-01, 8.918063343e-02, -1.702027917e-01, -1.215678733e-02, -7.343790680e-02, -8.389728144e-03}, {5.239576101e-02, -5.561841726e-01, 6.626462936e-01, 5.313522220e-01, 3.574780002e-02, 3.087713122e-01, 6.221085191e-01, 5.412560701e-01, -6.978048682e-01, 4.857780784e-02, -1.800355762e-01, -1.247895658e-01, -1.005904600e-01, -2.099687234e-02, 4.214294627e-02, 8.805651963e-02, 2.079943754e-02, -4.933534935e-02, -3.268330917e-02, -2.093316615e-02, 2.202359959e-02}, {9.626567364e-01, 1.893954635e+00, 1.890165955e-01, -2.977339625e-01, -8.538012505e-01, 6.293460727e-02, -9.420500994e-01, 6.155804917e-02, -1.789772362e-01, -8.503538370e-02, 2.064554719e-03, -7.641989738e-02, -2.424795367e-02, 1.426041033e-02, 1.150587108e-02, -1.042478904e-01, -7.421574742e-02, -1.004041824e-02, 7.731129974e-02, 8.890724182e-01, 8.382195979e-02}, {-1.266936302e+00, -1.106737137e+00, 7.663192153e-01, 3.492935598e-01, 4.419353604e-01, -2.723070979e-01, -8.354599476e-01, 4.669992328e-01, -9.624033235e-03, 2.949215472e-02, -1.373308301e-01, 1.407083776e-02, 3.155031800e-02, -1.960623711e-01, -4.576804116e-02, 1.373887360e-01, 9.899404645e-02, -2.589880489e-02, -5.814654380e-02, -8.398734033e-03, 5.271843448e-02}, {1.217826083e-01, 2.674037218e-01, 6.845326722e-02, -2.122999132e-01, -2.510509491e-01, 1.082503870e-01, -7.912701368e-02, 6.890404224e-02, -4.371060058e-02, 9.736307859e-01, -1.074117422e+00, -4.187184274e-01, -1.089033857e-02, -1.209175363e-01, 1.376320329e-02, 2.967427857e-02, 2.762739174e-02, 1.182476580e-01, -9.465271235e-02, 7.159292698e-02, -3.945063427e-02}, {6.292369217e-02, 4.763545990e-01, -9.592039883e-02, -2.690253258e-01, -2.792989612e-01, 4.473088086e-01, -2.791813314e-01, 2.230355889e-01, 1.412962973e-01, 1.323933452e-01, 1.152849421e-01, -4.951190650e-01, -2.607421875e-01, 1.047026739e-01, -1.252399832e-01, 1.134843081e-01, -3.036596775e-01, 2.173863798e-01, -1.344145417e+00, 9.855576605e-02, -1.312949657e+00}, {9.985737801e-01, 9.139314890e-01, -3.787091076e-01, -8.113736510e-01, -3.558896780e-01, 4.644076526e-02, -7.439242601e-01, 9.760208130e-01, -2.315195084e+00, -1.072396189e-01, 5.571994781e-01, -3.647115314e-03, 3.500327095e-02, 2.825241983e-01, -1.198976412e-01, -2.481224686e-01, -6.458802521e-02, 1.871849447e-01, -9.399148822e-02, 2.463864535e-01, 3.067100346e-01}, {-7.103339583e-02, -2.551800609e-01, 5.407651886e-02, -1.472022086e-01, -7.953924686e-02, -1.765647084e-01, 4.147961736e-01, -1.799423844e-01, 2.605168223e-01, 4.499461055e-01, -3.590395153e-01, 1.793477535e-01, 1.659471542e-01, -8.236017227e-01, 3.981656209e-02, 1.203906536e+00, 3.449843526e-01, -3.714313209e-01, 3.294847906e-02, -7.566939574e-03, -1.646959186e-01}, {-2.429571748e-02, -2.805098426e-03, 4.038579389e-02, 3.808256090e-01, -2.118090391e-01, -1.880552769e-01, 1.623308212e-01, 1.471617967e-01, 1.099861786e-01, 3.825857043e-01, 4.914865792e-01, -1.018049940e-01, -1.821581274e-02, -1.245783493e-01, -1.373092532e-01, 1.453931481e-01, 5.455526114e-01, 6.417825818e-01, -1.542496830e-01, 4.839643836e-02, 5.481339991e-02}, {2.012398243e-01, 1.274920106e+00, -7.419299483e-01, -1.331222504e-01, -4.112782478e-01, 2.775242031e-01, -1.550197244e+00, -2.424780875e-01, -1.078000307e+00, -1.177389398e-01, 5.124095455e-02, 1.255126577e-02, -3.454216942e-02, 7.098655403e-02, -8.434846252e-02, -1.486739814e-01, -5.206584185e-02, 4.230707418e-03, -1.995239966e-02, 4.842125475e-01, -4.408888146e-02}, {3.405954838e-01, -7.298076749e-01, 1.042054221e-01, -4.941328168e-01, 4.154985249e-01, -6.736904383e-02, -7.664616704e-01, -1.274600267e+00, 2.611917973e+00, 7.295544446e-02, 1.918719709e-02, -1.968294531e-01, 4.603703320e-02, 8.573154360e-02, -3.067541309e-02, -8.287828416e-03, 3.505353257e-02, 6.922592223e-02, 3.890462965e-02, -3.720404208e-01, 1.375553161e-01}, {-1.457316279e+00, -4.372050762e-01, 1.949592233e-01, 6.559434533e-01, 4.548302293e-01, 8.520649374e-02, 1.110367253e-01, 1.335409999e+00, -7.131100632e-03, 1.977422088e-01, -1.136111021e-01, 1.455662102e-01, -6.870742887e-02, -4.973831028e-02, -2.157789841e-02, 1.529955864e-02, -5.788284540e-02, -1.988387406e-01, 6.362127513e-02, 4.136735797e-01, 1.958018690e-01}, {5.075902864e-02, -3.797622025e-01, 1.431519032e+00, -6.000084430e-02, 5.400803685e-02, -3.501713276e-01, -8.844966888e-01, -2.360124141e-01, -8.308970928e-01, 5.855797976e-02, 5.496583879e-02, 7.260635495e-02, 1.162142828e-01, 5.547755212e-02, 7.882598042e-02, 1.719691418e-02, -5.096356943e-02, -2.660858631e-02, -7.383231074e-03, -1.219127998e-01, -1.272132061e-02}, {-9.153840132e-03, -9.916944057e-02, -3.481727839e-02, -6.146261692e-01, -2.839558125e-01, 2.861025371e-02, 2.381205559e-02, 7.754682563e-03, -7.701049000e-02, 3.913015425e-01, -6.116222739e-01, 1.276743691e-02, 1.394949108e-01, -7.102134228e-01, -3.655225970e-03, 4.527066648e-01, 9.063228369e-01, -1.025696158e+00, -7.377570122e-02, 5.221031234e-02, -3.739518300e-02}, {-8.743796945e-01, 3.005888164e-01, 5.925997975e-04, 3.202329576e-01, -4.504995942e-01, -4.154680073e-01, -6.526733637e-01, 1.392190754e-01, 9.479600191e-01, -3.207915127e-01, 4.290232360e-01, -2.894668840e-02, 2.019253820e-01, 2.584140301e-01, 2.349993885e-01, 4.005629122e-01, 3.223512694e-02, 2.171470076e-01, 2.354827151e-02, -2.461127006e-03, -1.496302336e-01}, {2.434918284e-01, 8.672801256e-01, -1.155264020e+00, 9.114975482e-02, 7.280877233e-02, 6.401745677e-01, -1.807993770e+00, 3.108223081e-01, 1.655687332e+00, -1.065311283e-01, -9.449860081e-03, 7.126909215e-03, -9.634398669e-02, -3.300323337e-02, 7.834228873e-02, -9.229648858e-02, -3.815999255e-02, -3.230671212e-02, -1.165139582e-02, 3.267297745e-01, -2.770471014e-02}, {-4.813218489e-02, -1.161981598e-01, -8.603689075e-02, 5.330292881e-02, -1.137000173e-01, -6.587564200e-02, 4.645746648e-01, -5.469853058e-02, 3.761399984e-01, 5.792775750e-01, 1.138346642e-01, 1.035420448e-01, 8.016027212e-01, -6.295581460e-01, -8.140052557e-01, 5.026681423e-01, 5.415267944e-01, 1.333525181e-01, 2.201392315e-02, -1.186954323e-02, -1.516898125e-01}, {1.241932154e+00, -1.583129615e-01, 7.633264661e-01, -5.541779995e-01, 7.214921713e-01, -1.939979345e-01, 1.787564993e+00, 2.150784433e-01, -1.213972688e+00, 4.476876259e-01, 3.822727799e-01, 5.469131097e-02, 2.806921005e-01, 1.391311549e-02, -1.572355032e-01, -2.114494331e-02, 1.384207159e-01, 8.212292939e-02, 1.133124903e-01, -3.428865969e-01, 4.579302669e-01}, {9.503920078e-01, 1.232894659e+00, 1.554235578e+00, -1.252696663e-01, -3.775992393e-01, -2.682692111e-01, 1.644088030e-01, -8.345243335e-01, 1.623272300e+00, -1.085998416e-01, 1.234362349e-01, -1.473424733e-01, 1.669816487e-02, 1.455374211e-01, -3.289184824e-04, -4.913111776e-02, -3.151051700e-02, 6.526958942e-02, 4.724063911e-03, 7.983826399e-01, -1.666307747e-01}, {1.345172226e-01, -1.299306452e-01, -7.942107320e-02, -7.595978677e-02, 8.735015988e-02, 1.534871310e-01, -1.625612080e-01, 1.213002354e-01, -6.931073666e-01, -3.611894324e-02, 1.132524014e-02, -6.259529293e-02, 2.470300049e-01, 3.640903234e-01, 2.021573782e-01, 1.016333848e-01, -2.869337983e-02, 1.458068937e-01, -8.052947372e-02, 1.229277253e-01, -1.496601582e+00}, {-1.675204515e+00, 7.862225771e-01, -8.630672693e-01, 6.632308960e-01, 4.137347639e-02, 2.021491081e-01, -5.498372316e-01, -8.031757474e-01, -4.948775470e-01, -1.953974366e-02, -1.367802024e-01, 2.046250403e-01, -5.209325254e-02, -9.878046066e-02, 8.128590137e-02, -2.142444253e-02, -4.064613953e-02, -1.127884239e-01, 2.320635132e-02, 2.713480294e-01, 2.258140892e-01}, {1.836871356e-01, 4.667793512e-01, -9.304083586e-01, -5.613501072e-01, -3.648906946e-01, 2.846377492e-01, 2.177021205e-01, -2.559803128e-01, -1.013157725e+00, 4.928944260e-02, 2.291648239e-01, -1.705778092e-01, 1.272306442e-01, -1.798371375e-01, -3.544223011e-01, 7.178074867e-02, 8.774214238e-02, 1.214696392e-01, 4.633232951e-02, 2.898717821e-01, 8.777967305e-04}, {-6.043424830e-02, 1.482250839e-01, 2.712113559e-01, 1.283596009e-01, -7.724145055e-02, -3.035625219e-01, 3.195813298e-01, -3.020675108e-02, 5.836778283e-01, 4.014314711e-02, 1.813150942e-01, 5.580049753e-02, -8.122932911e-01, -9.803510308e-01, -7.225908041e-01, -3.013995588e-01, -1.150844619e-01, 6.336700171e-02, -5.713081732e-02, -3.330653012e-01, -5.257769823e-01}, {1.332931221e-03, 5.828949213e-01, -4.978380203e-01, 6.012982875e-02, -2.214132398e-01, 5.920279622e-01, -6.648982763e-01, -1.420863867e-01, 2.336036712e-01, -3.504336774e-01, 6.964328885e-02, 3.578605056e-01, -3.369779140e-02, 3.879757226e-01, -3.174498677e-01, 4.936873019e-01, -4.316025376e-01, 7.440003753e-01, -4.889334142e-01, 2.119524218e-02, -1.772557616e+00}, {8.465729654e-02, 9.514282644e-02, 6.803152710e-02, 2.061479166e-02, -6.388369203e-02, -3.845921531e-02, -4.603781551e-02, 8.465077728e-02, -1.233785078e-01, -1.941866726e-01, 6.178780273e-02, 8.265772462e-02, 1.372595429e-01, -5.567577481e-01, 9.341339767e-02, 1.737256534e-02, -2.233944684e-01, 1.191018298e-01, -1.624234170e-01, -6.531778574e-01, 1.076421380e+00}, {-1.474594623e-01, 6.657734513e-02, 3.147906810e-02, -8.118241280e-02, 6.266943365e-02, 1.287631541e-01, 8.674243838e-02, -5.582929775e-02, 5.404148102e-01, 1.412276179e-01, 1.832849346e-02, -4.292247444e-02, 2.858730793e+00, -4.336443916e-02, 3.858958185e-01, 1.645625085e-01, -5.791230127e-03, -8.618325926e-03, 5.154287443e-02, 7.371506840e-02, -1.299534440e+00}, {5.869156122e-01, -1.738962233e-01, 9.225191474e-01, 1.344634742e-01, 1.408635676e-01, -3.851359189e-01, -4.239121675e-01, -9.254131317e-01, 2.232282400e+00, -5.525078997e-02, -5.400669202e-02, 4.301733971e-01, 6.677107513e-02, -8.252315968e-02, 3.229475021e-02, 4.352391884e-02, 6.139676273e-02, -8.051136881e-02, -2.119785547e-02, 3.353642821e-01, -3.043036535e-02}, {2.319799811e-01, -2.617081404e-01, 2.080664784e-01, -1.900933534e-01, -1.904281676e-01, -2.212700993e-01, 1.136763766e-01, 4.809890315e-02, 3.972018883e-02, 6.208233535e-02, -4.181590304e-02, 6.735576391e-01, 2.093920484e-02, -2.026611716e-01, 9.000761807e-02, -1.280539632e-01, 3.607126772e-01, -2.590014637e-01, 8.394934535e-01, -1.059701443e-01, 7.130165100e-01}, {1.374375224e-01, -1.993553787e-01, -2.859999053e-02, 2.536635697e-01, -5.849933997e-02, -4.140095413e-02, -2.840489447e-01, -3.094986677e-01, -5.779616833e-01, -7.707005739e-01, -7.822579741e-01, -6.742888689e-02, -8.509383351e-02, 2.269455194e-01, -5.017817616e-01, 2.454891219e-04, -2.119113207e-01, 6.840417534e-02, -3.323581219e-01, -7.784521580e-02, -4.239521921e-01}, {-3.777825534e-01, 5.784742907e-02, -5.685295537e-02, -3.896323219e-02, -1.839703918e-01, -2.509299219e-01, -2.648772299e-01, -3.598473072e-01, 1.796430349e-01, -3.037466109e-01, -3.476377726e-01, -1.513173878e-01, -8.726069927e-01, -3.985248804e-01, 8.217440248e-01, 1.236137375e-01, -2.884252369e-01, -5.728994608e-01, 4.104742780e-02, 9.056661278e-03, 2.615417913e-02}, {-5.317621306e-02, -3.361350596e-01, -8.578336239e-01, -3.627202809e-01, 3.299562931e-01, -8.625948802e-03, -8.302078843e-01, 4.117259085e-01, -3.824067414e-01, 2.241800278e-01, 4.944452047e-01, -1.587323993e-01, 9.493037462e-01, 2.428404987e-01, 1.279633641e-01, 2.113751322e-01, 1.048546731e-01, 1.275987178e-01, 6.371750683e-02, -2.223891951e-02, -9.911367297e-01}, {1.258727163e-01, -7.136216015e-02, -1.695581079e-01, 3.445403278e-02, 1.573459059e-01, 1.235686317e-01, -2.763073742e-01, 7.293270528e-02, -2.637971342e-01, -1.241711617e+00, 7.669755220e-01, -4.247935116e-01, -1.809081882e-01, 2.249782383e-01, 9.962590039e-02, -2.048113942e-01, -1.566309333e-01, 1.202842593e-01, 2.284688875e-03, 3.678924590e-02, -2.525350451e-01}, {-9.426080436e-02, 9.670462459e-02, -3.021304309e-01, 2.309380174e-01, -3.788277507e-01, 4.911261499e-01, 2.707293332e-01, -2.582641244e-01, -3.289304674e-01, -3.977341950e-01, -4.425104558e-01, 1.578603238e-01, -6.894078851e-01, -5.740716681e-02, 1.009456143e-01, -1.464475393e-01, -7.991525531e-02, -9.081135690e-02, -1.299576368e-02, 6.374669820e-02, -3.872938827e-02}, {-4.347252548e-01, -1.438148618e+00, -2.321309410e-02, 3.893464506e-01, 1.305529118e+00, 8.377203345e-02, 3.027741909e-01, -5.827581286e-01, 1.586935043e+00, -1.838977188e-01, 3.479755819e-01, -6.390228122e-02, 1.266389787e-01, 5.673466921e-01, -9.624298662e-02, -5.882694721e-01, -1.680110097e-01, 3.078873456e-01, -8.985711262e-03, 5.873168707e-01, 7.578774542e-02}, {-7.212738693e-02, 1.256936044e-01, -1.638115048e-01, 4.078565240e-01, 1.230882667e-02, 6.369020790e-02, -4.624335170e-01, 5.791630596e-02, -1.459526829e-02, -3.146559298e-01, 2.158275694e-01, 1.909279265e-02, 9.892719984e-02, 8.984289169e-01, 2.134698443e-02, -7.419373393e-01, -2.715044618e-01, 3.714687824e-01, 3.219144419e-02, 7.960376143e-02, 4.595088772e-03}, {-7.331058383e-01, 3.302592635e-01, 1.267319322e+00, 8.293522596e-01, 2.318401188e-01, -6.082841754e-01, 1.196121931e+00, -2.528102398e-01, 3.365851045e-01, -1.151172724e-02, -2.817077637e-01, 4.427969083e-02, 1.213830430e-02, 6.857705861e-02, -9.486634284e-03, 1.488244981e-01, 3.044676036e-02, -2.902796306e-02, -1.751948334e-02, 7.558661103e-01, -6.908803433e-02}, {-3.694918156e-01, 9.409684688e-02, 9.472953081e-01, 4.635777473e-01, -3.694796264e-01, -4.228949845e-01, -4.565990567e-01, -4.927903414e-01, -4.110092521e-01, -1.047425941e-01, -2.569829822e-01, -2.226757109e-01, -6.232796982e-02, 3.081897087e-02, 9.763191640e-02, 4.965770990e-02, -2.633251250e-02, -8.381827176e-02, -8.548555523e-02, 1.525866389e+00, 1.008252800e-01}, {-3.390006348e-02, 4.222281650e-02, -1.582725495e-01, -2.193913311e-01, 2.712097168e-01, -1.280014813e-01, -2.436255217e-01, 1.134240776e-01, 1.203297734e+00, -2.589550912e-01, 5.090261102e-01, 2.437142879e-01, -7.343459129e-01, 3.912850618e-01, 1.073746920e+00, 1.469485015e-01, -2.713726461e-01, -2.929843962e-01, 1.210623160e-01, 4.020342231e-02, -2.002248317e-01}, {-2.858740389e-01, 2.210294008e+00, 5.467520952e-01, 2.260179967e-01, -8.326742649e-01, -4.213886335e-02, 2.258801162e-01, -2.670944929e-01, 2.886055112e-01, -4.135592282e-02, -7.148981839e-02, -2.105605043e-02, -8.906424046e-02, -1.419421565e-02, 4.768165573e-02, 1.935504377e-02, 3.627498075e-02, -3.056030162e-02, -5.641575903e-02, 9.888255000e-01, 2.183066215e-03}, {5.676608160e-02, 1.212377772e-01, -3.509224951e-01, 3.525691330e-01, 1.827067286e-01, 3.787494302e-01, -8.884209394e-02, -1.060531363e-01, -7.071713805e-01, 4.761738703e-02, 2.123430669e-01, -4.431423545e-01, -1.800895333e-01, 2.869666219e-01, -3.053109348e-01, -1.899144351e-01, -7.394145727e-01, 8.556399941e-01, -8.715206981e-01, 1.074998453e-02, -1.533128977e+00}, {-6.181440353e-01, 3.418646157e-01, 3.092919476e-03, 2.854177952e-01, -1.242479216e-02, -5.339613929e-02, 7.093065977e-01, -1.678671390e-01, 2.424623966e+00, 1.229458004e-01, -8.722116053e-02, 1.156882420e-01, 1.898578182e-02, -1.036448255e-01, -4.738862067e-02, 1.997069865e-01, 9.845746309e-02, -2.819095924e-02, 2.601769939e-02, -1.966429204e-01, 1.073897853e-01}, {4.916681945e-01, 3.452799618e-01, -1.687079668e-01, 7.278110087e-02, -1.383904517e-01, 1.269526780e-01, -9.362859726e-01, 1.785358936e-01, -2.579951048e+00, -2.030861378e-02, 2.731975913e-01, 1.145165190e-01, -5.019272491e-02, 2.163572162e-01, 9.482613951e-02, -1.868239641e-01, -7.234276831e-02, 8.667300642e-02, 2.694281377e-02, -2.194345891e-01, 2.029812187e-01}, {1.696155220e-01, 5.165461916e-04, 8.337630890e-03, -2.833768725e-01, -1.193909720e-01, 7.507357001e-02, -1.772222519e-01, 1.611417681e-01, -7.104294896e-01, -9.411361068e-02, 2.794247568e-01, 7.427127659e-02, 1.354663819e-01, -3.984708786e-01, 1.171165798e-02, 1.721713066e+00, 1.653611958e-01, -1.278542578e-01, -1.782452315e-01, 7.854056358e-02, -7.999246716e-01}, {2.395326458e-02, 2.065200657e-01, 1.347915977e-01, -1.315666735e-01, -5.255939439e-02, 2.740652859e-02, -5.580369234e-01, -8.160712719e-01, -2.270856142e+00, -5.605985224e-02, -1.433531493e-01, -6.898163259e-02, -1.249355525e-01, -1.455198880e-02, 9.420347959e-02, -5.066010356e-02, -5.372226611e-02, -5.860257521e-02, 6.613039225e-02, -1.703319699e-01, 1.502321362e-01}, {-1.722916514e-01, -8.352873474e-02, 4.956486076e-02, 2.512757480e-01, 1.282843389e-02, -8.361238241e-02, 1.960647553e-01, -2.438808046e-02, 6.585161388e-02, 6.234645844e-01, -7.269043922e-01, 1.997427791e-01, 8.803005517e-02, 9.655260444e-01, 8.817896247e-02, -6.037091017e-01, -3.029392660e-01, 2.950682342e-01, -7.798202336e-02, -2.345413342e-02, -8.869885653e-02}, {5.217568278e-01, -3.955154419e-01, -1.235551387e-01, -2.363049835e-01, 4.376602173e-01, 1.551015526e-01, 3.976040054e-03, -4.057616740e-02, -1.019148946e+00, 4.084403217e-01, -6.555053592e-01, 2.547053099e-01, 1.485976130e-01, 3.122799695e-01, 6.222203746e-02, 2.122602612e-01, 9.872903675e-02, 1.822974719e-02, 1.975911856e-01, 5.846051872e-02, -8.602074534e-02}, {1.518050909e+00, -7.146394849e-01, 1.270413846e-01, -2.186990827e-01, 9.680647403e-02, -1.148951054e-01, -2.056331784e-01, 6.468687207e-02, -3.302158356e+00, 2.983469702e-02, -3.099680692e-02, 1.267299950e-01, 1.676675677e-01, 2.163715195e-03, -2.026901348e-03, 1.214492097e-01, 5.290324986e-02, -3.404031321e-02, -5.664853007e-02, -3.636221886e-01, 7.971676439e-02}, {6.153581738e-01, 3.929329515e-01, 1.710236520e-01, -4.300857782e-01, -1.396939307e-01, 3.168600053e-02, 2.084669620e-01, 3.274796605e-01, -8.959114552e-01, 1.190328225e-01, -4.265943468e-01, 8.668628931e-01, 1.292467713e-01, -2.964945138e-02, -3.120574951e-01, -9.477268904e-02, -8.077353239e-02, 1.793448180e-01, -1.120649874e-01, -1.183560211e-02, 2.380873561e-01}, {-1.542073190e-01, -3.021457419e-02, 2.019294538e-02, 2.471895888e-02, 1.363192033e-02, -6.226751581e-02, -1.303261369e-01, 1.217478141e-02, -4.045943022e-01, -3.105207384e-01, -2.274982184e-01, -1.192592904e-01, -2.558145225e-01, 7.451238036e-01, -8.604567051e-01, 4.479332268e-01, -2.527755797e-01, -1.243770644e-01, -1.193598136e-01, -9.733377956e-03, 4.441922009e-01}, {8.261617422e-01, -4.311855137e-01, 3.463015854e-01, -6.470595002e-01, 7.773243785e-01, 8.387138695e-02, 2.200095505e-01, 7.902399302e-01, -2.436269969e-01, -1.084807590e-01, -3.370102122e-02, 2.457469255e-01, -1.911153644e-01, 7.502233237e-02, 1.402177215e-01, -2.561380863e-01, -1.996275336e-01, -5.820380151e-02, 5.312537774e-02, -9.806603193e-03, -1.109497622e-01}, {-1.158842146e-01, 1.105404019e+00, 7.865040898e-01, 2.036596239e-01, -5.483610630e-01, -2.246308625e-01, 1.005171180e+00, 7.258592844e-01, -1.088101864e+00, -1.527925283e-01, 1.275903583e-01, -6.580008194e-03, -2.262672782e-02, 2.019293159e-01, 6.501480192e-02, -1.100573614e-01, -3.875242174e-02, 1.934478804e-02, 1.163729802e-01, 1.137793422e+00, 2.276979983e-01}, {-5.474356413e-01, -1.626017839e-01, 1.258889437e-01, -1.524329558e-02, 2.344383746e-01, 2.862867713e-01, -4.173249900e-01, -3.174583018e-01, 1.011766195e+00, -5.581914186e-01, 6.879940033e-01, -1.609781832e-01, 3.893064857e-01, 1.121462062e-01, -1.015160605e-01, 3.988727927e-01, 1.186603457e-01, 5.443464592e-02, 5.618402362e-02, -2.860931754e-01, -2.038448006e-01}, {-3.231532276e-01, 2.017481253e-02, 5.352361128e-02, -7.409664989e-02, -5.529547110e-02, -1.109350994e-01, -2.248604894e-01, -1.178906560e-01, 1.842064112e-01, 7.148306966e-01, 7.113745809e-01, 3.350660205e-02, -8.514469862e-01, 1.253829002e-01, 7.132858634e-01, -8.707097173e-02, -4.812623560e-01, -3.023107946e-01, -9.885087609e-02, -2.354143374e-02, -1.688514948e-01}, {4.322594032e-02, -8.502835780e-02, -8.970169723e-02, -1.924688369e-01, 1.104201190e-02, -1.865504831e-01, -1.183461677e-02, 1.651441902e-01, -5.982695520e-02, -2.191614658e-01, 1.267506834e-02, 1.531305462e-01, 9.758114815e-02, 1.758787483e-01, 2.267417312e-01, 6.132568233e-03, 1.963155270e-01, -1.496842206e-01, -4.273417592e-01, 2.217764594e-02, -8.871726692e-02}, {8.401578665e-01, -1.865095198e-01, 4.745585322e-01, -2.361914515e-01, 5.373536423e-02, -1.478712708e-01, -3.428267837e-01, 3.094671667e-02, -4.119769931e-01, 2.754991502e-02, 6.306133419e-02, 3.051988780e-02, 3.416759893e-02, 6.477361172e-02, 1.169329695e-02, -5.576850381e-03, -2.351145446e-02, 5.762774963e-03, 5.041337572e-03, 3.178436756e+00, 1.486115605e-01}, {6.374675035e-01, 2.428234220e-01, -1.130176187e+00, -3.548376560e-01, 1.043506060e-02, -1.845528185e-02, 1.177347302e+00, 1.343695372e-01, 2.311082363e+00, -4.765784368e-02, 2.477524132e-01, -3.454837203e-02, -3.108393773e-02, -1.084431857e-01, 2.179463394e-02, -8.556094952e-03, -1.679836959e-02, -4.624472558e-02, 4.968445376e-02, 1.418670565e-01, 1.071952432e-01}, {-9.447965026e-01, 1.916044593e+00, 6.166687608e-01, 5.523064137e-01, -6.620763540e-01, 3.297123313e-01, 9.114611149e-02, -6.757798791e-01, 4.804582596e-01, -7.655420154e-02, -9.607250243e-02, 4.219500721e-02, -1.907767951e-01, 2.456061915e-02, -2.460157126e-02, -9.947371483e-02, -1.283777654e-01, -1.081485674e-01, 6.497684866e-02, 9.013209939e-01, 8.656524867e-02}, {7.055856586e-01, 1.028729677e+00, 1.186948776e+00, 1.355490685e-01, -7.014830112e-01, -3.255026937e-01, 1.914205194e+00, -6.503245234e-01, -8.643764853e-01, -8.174512535e-02, -1.455608457e-01, -9.838701040e-02, 2.363042347e-02, 1.327378601e-01, 9.162081033e-02, 6.509889662e-02, -4.927637056e-02, -8.540318161e-02, -4.067836702e-02, 1.602744013e-01, 1.324417889e-01}, {7.484833710e-03, -2.517195977e-02, 2.070082910e-02, -6.512535363e-02, 2.561825886e-02, 2.878635889e-03, -4.946818948e-02, 7.737705112e-02, -1.079481393e-01, 5.907105282e-02, -5.539704114e-02, 1.710171998e-02, 1.841226593e-02, -8.303139359e-02, 2.182081528e-02, 4.196673870e+00, -3.017150983e-02, 1.125663985e-02, -1.442177407e-02, -7.040271163e-02, -2.680847883e+00}, {-3.390368223e-01, 7.700645924e-01, 4.145247638e-01, 5.474866033e-01, 2.623738647e-01, -2.343044728e-01, 1.210016012e+00, -4.436218739e-02, -8.206111193e-02, 2.618719339e-01, -5.744125247e-01, 1.033450142e-01, -1.529798806e-01, -5.398809910e-01, 7.942474447e-03, 5.514788628e-01, 1.255796254e-01, -2.167706490e-01, 4.375162348e-02, 7.921660691e-02, -1.027702987e-01}, {-1.585391462e-01, -1.055184826e-01, 1.930676401e-03, 2.113956958e-01, 1.852832288e-01, 3.510282189e-02, 1.242378727e-01, -2.045896649e-01, 1.158440635e-01, 5.826357603e-01, -4.817018509e-01, -1.782885045e-01, 2.171293646e-01, 5.690124035e-01, 2.719756961e-02, 1.062778950e+00, 6.230854988e-02, 4.096590728e-02, -3.942397982e-02, -2.537842281e-02, -5.903494954e-01}, {4.631580710e-01, 2.276712842e-02, 1.718664616e-01, -2.890586257e-01, -2.339187264e-01, -1.002805904e-01, -5.444293022e-01, 5.788627863e-01, -2.926483393e+00, -1.715910733e-01, 1.368180197e-02, -1.452356577e-02, -4.744780809e-02, 1.893324256e-01, -1.474980917e-02, -1.586592048e-01, -1.899288595e-02, 6.844808906e-02, 1.009393185e-01, -9.822203778e-03, 2.688676491e-02}, {1.488026977e+00, 1.668412834e-01, -4.827796221e-01, -3.409890532e-01, -3.828726411e-01, 1.957720071e-01, -3.963651657e-01, 1.201257348e+00, 2.618556499e+00, -2.643035725e-02, 1.780909151e-01, 6.063934043e-02, -5.999927968e-02, 1.489041150e-01, -2.207015408e-03, -1.074168831e-01, -6.298460066e-02, 1.190888509e-01, 9.715823829e-02, 5.551720262e-01, -1.003895104e-01}};

const float bias_in[NUM_NODES] = {2.191897631e-01, -4.527366459e-01, -1.027745962e+00, 1.161762595e+00, 2.157869339e-01, -2.236384392e+00, -4.546400070e+00, -1.167365193e+00, -4.474339187e-01, -1.570128202e+00, -1.697764039e+00, 9.045758098e-02, -5.148598552e-01, -4.332114458e-01, -9.040088058e-01, 7.262997627e-01, -3.951648235e+00, -1.872415423e+00, -3.240074158e+00, -3.796427488e+00, -1.714711189e+00, -3.597715139e+00, -2.254159212e+00, 4.076441526e-01, -1.542531729e+00, 2.422393560e+00, -4.592004716e-01, -3.621576786e+00, 9.629791379e-01, 2.707375288e-01, 3.066116571e+00, -4.440414906e-01, -3.543614149e+00, 1.774441004e+00, -2.404634953e+00, 2.569271028e-01, -3.801390409e+00, 1.002606869e+00, 5.445258617e-01, -5.184142590e+00, -1.970574617e+00, 1.922205210e+00, -7.875022888e-01, 3.193451837e-02, -3.804097891e+00, -1.830071330e+00, 2.695334196e+00, 1.107376292e-01, -4.648658276e+00, -1.565801263e+00, -1.000353932e+00, -5.734899044e-01, -2.616592646e+00, -1.391487718e+00, -1.363598824e+00, -1.607790947e+00, 9.000682831e-01, -5.884461403e-01, -6.112120152e-01, -3.485115290e+00, -2.288727522e+00, -1.564063668e+00, -3.555160522e+00, -2.634889126e+00, 9.238755107e-01, 1.482060432e+00, -3.301569939e+00, -1.003195047e+00, -3.488430023e+00, -3.627166986e+00, -8.966870904e-01, 5.997832417e-01, 2.345748246e-01, 6.078577787e-02, 2.311903954e+00, -6.940489411e-01, 5.034946203e-01, -3.111232042e+00, -2.101649284e+00, -3.853769064e+00, -3.438200712e+00, 2.136294127e+00, -2.429306030e+00, 6.207572222e-01, 2.433128834e+00, -2.414916992e+00, -6.470707059e-01, -2.107312918e+00, -1.585599303e+00, -1.456079364e+00, -2.287824154e+00, -1.244807243e-01, -5.409189463e-01, -1.657675624e+00, -4.619576931e-01, -4.999587834e-01, -4.144174099e+00, 2.994373083e+00, -3.934161425e+00, -1.532741070e+00, -4.007905483e+00, 1.106586695e+00, -1.227024674e+00, -1.511176825e+00, -1.394269466e+00, 1.348907828e+00, -3.485602856e+00, -1.602508783e+00, -4.160035551e-01, 9.091431499e-01, 4.063177407e-01, -1.959653139e+00, -1.792859733e-01, -2.221698523e+00, 7.469118237e-01, -4.909343719e+00, -1.538062334e+00, -5.359494686e-01, -3.542586088e+00, -3.358652353e+00};

const float weights_out[NUM_CONTROLS][NUM_NODES] = {{-1.300890185e-02, 1.816084608e-02, 1.233796962e-02, 6.108114962e-03, 3.132326296e-03, 2.223859308e-03, 4.598846659e-02, -1.047029044e-03, 6.371928751e-02, -2.491182240e-04, 3.700454906e-02, 3.974267747e-03, 5.018401518e-02, 2.144369297e-02, -2.948952606e-03, -3.183643101e-03, -2.794740349e-02, 2.316627419e-03, -1.563482336e-03, -9.418492019e-02, 1.180547941e-02, -4.620460793e-02, 1.833034679e-02, -1.416581869e-01, -3.841455560e-03, -6.047292612e-03, 5.078922841e-04, -2.150978521e-02, -1.118417606e-01, 3.889999539e-02, 9.318794124e-03, -1.491751638e-03, -1.637555286e-02, 9.714857442e-04, -1.064581913e-03, -4.125400633e-02, 6.385450065e-02, 7.801111788e-03, 2.734773420e-02, -1.275948947e-03, 1.157803554e-02, 1.943709096e-03, -2.167766914e-02, 1.359831914e-02, 9.870378673e-02, 1.058045775e-03, 3.147162264e-03, -3.358180076e-02, -3.504292294e-02, 1.246205298e-03, -9.371739812e-03, -5.323097855e-02, -3.416398540e-02, 6.679430604e-03, -2.520098817e-03, -7.785834372e-02, 3.432021476e-04, -5.162438750e-02, 2.041742802e-01, -7.141225040e-02, 1.208580658e-02, -4.348345473e-02, -2.639410794e-01, -5.989504233e-02, 2.067781519e-03, -3.066563513e-03, 6.779529154e-02, 6.086330488e-02, 6.682999432e-03, -1.311717904e-03, -4.004778806e-03, -1.402843744e-03, -1.617381908e-02, 6.192303076e-02, 2.718042815e-03, -1.351437811e-02, -1.117123943e-02, -1.908183214e-03, 2.752192784e-03, 2.739806660e-03, -4.158094991e-03, -1.859506778e-02, -1.659054542e-04, -1.717985421e-02, -1.973946579e-02, 1.172395423e-03, -2.420037799e-02, -2.840874251e-03, -2.653021514e-01, -3.677624464e-02, 3.897885978e-02, -2.885562927e-02, 1.263268205e-04, 3.708052635e-02, 3.008233197e-02, 7.603798294e-04, 4.729870707e-02, 8.287408948e-02, -3.234999999e-02, 2.356509119e-02, -1.475131512e-02, -3.393574655e-01, 4.998162761e-02, 2.304764464e-02, 3.657187149e-02, 1.060455324e-04, -3.483047243e-03, 7.452911884e-02, -7.476747781e-02, 8.895851672e-03, -4.047935829e-03, -1.212193631e-02, -7.985119522e-02, -3.180842474e-02, -2.714030852e-04, 2.019211883e-03, -1.397042125e-01, -3.778276220e-02, -3.976626322e-03, -2.328092605e-02}, {-8.325158618e-03, -3.567422740e-03, 1.354164444e-03, 5.608664453e-02, -1.284535392e-03, -7.695829868e-02, 1.694272389e-03, -3.464583540e-03, 9.820215404e-03, 1.827466860e-02, 3.669899330e-02, 2.923830412e-02, 2.145848796e-02, 6.933856755e-03, -1.075815037e-01, -2.616565302e-02, -3.405049443e-02, 3.167091310e-02, 1.509973663e-04, 6.023745518e-04, -1.219504103e-01, -6.648924900e-04, 5.591785908e-02, 1.662198687e-03, -1.042647753e-02, -2.150853397e-03, -1.304013431e-01, -3.686247393e-02, 2.207219834e-03, 5.890863482e-03, 4.771405831e-02, -7.260240964e-04, 9.258263162e-04, -4.003533721e-02, 2.062312793e-03, 3.369529173e-02, -1.248768121e-01, -2.340628766e-02, 3.241230920e-02, 8.706143498e-02, -6.849154085e-02, -1.519785030e-03, -6.030745339e-03, -3.444016725e-02, 2.918367507e-03, 3.697250038e-02, 3.534537554e-02, 1.503007952e-02, 1.901436015e-03, 3.952302039e-03, 4.626946524e-03, 2.115541883e-02, 4.595688544e-03, -5.021065846e-02, 3.316746792e-03, 6.740926206e-02, -5.004320992e-04, 2.764858771e-03, 1.367246732e-03, 3.732395917e-02, -4.130867310e-03, -2.094874904e-02, 1.492415322e-03, 1.564594102e-03, -3.443677269e-04, 3.051547101e-04, -6.868083496e-03, 1.613039640e-03, -3.780177832e-01, 4.979686439e-02, 5.602066591e-02, -1.068090573e-01, -5.504929647e-02, 6.710339338e-02, 3.089738078e-03, -6.997670233e-02, 5.885472521e-03, 1.774278581e-01, -4.910288844e-03, 2.118407981e-03, -3.341774642e-02, -1.370914653e-02, -1.549903653e-03, 7.954693399e-03, -4.334731493e-03, 3.304351354e-03, 7.477194816e-02, 9.452382475e-02, -3.672584658e-03, -6.273496896e-02, 1.496017212e-03, -6.138759782e-04, -6.753772614e-04, 1.031536013e-01, -9.982580319e-03, -4.808441177e-02, -1.115753897e-03, 4.115560092e-03, 1.122464193e-03, -7.715765387e-03, 3.619473893e-03, 3.440265777e-03, 9.033823153e-04, 5.393592641e-03, 1.160939876e-02, -4.102072492e-02, 8.680347353e-03, 1.896889880e-02, 1.495862100e-02, -9.680139832e-03, 3.587621078e-02, -2.420997471e-01, 1.219454594e-02, 1.428121119e-03, 3.267360106e-02, 6.050114054e-03, 6.641258299e-02, -2.055336023e-03, -2.615148388e-02, 5.741838738e-02}, {5.773263052e-02, -9.969624877e-02, -8.947114646e-02, -2.607770439e-04, -4.442827776e-03, -3.988381475e-03, 2.273289114e-02, -1.303284080e-03, 1.737222262e-02, 7.484970847e-04, -4.239902273e-02, 5.449976772e-03, -1.772447117e-02, 1.570441015e-02, -2.526152646e-03, 8.045638911e-03, -8.393642493e-03, 9.710402228e-03, -1.104182843e-02, 7.559931837e-03, 3.650830477e-04, -3.909152374e-02, -1.184550580e-02, 2.877802472e-04, -1.056775525e-01, 3.198230267e-02, 2.169409301e-03, 7.030031644e-03, 8.199081756e-03, -1.078175083e-01, -1.854209346e-03, -2.092197388e-01, 9.894321859e-02, 9.823029395e-04, -1.523813116e-03, -3.902205080e-02, -1.768842340e-02, 3.206076473e-02, 1.659556292e-02, 7.460194756e-04, -8.147947490e-03, 7.694140077e-02, 2.640729956e-02, -5.710735917e-02, -3.483834211e-03, -2.820779569e-03, 6.149087101e-02, 2.992606163e-02, 2.568718744e-03, -3.969356418e-03, 4.190662131e-02, 2.677929588e-02, -5.644287169e-02, -4.538927693e-03, 1.758357161e-03, -1.504243072e-02, 4.010496661e-03, -3.202603757e-02, 9.567442467e-04, -4.355402663e-02, -4.594283178e-02, -7.943650708e-03, 1.011101063e-03, 3.615155350e-03, -1.827961067e-03, -4.261333495e-02, -1.003740132e-01, -1.624101400e-02, 3.869585344e-04, -3.190346528e-03, -1.970898546e-02, 7.269399241e-03, -2.979360754e-03, 6.608497351e-02, 1.465783268e-01, 8.092445321e-03, -7.140554488e-02, -5.965725984e-03, 1.094971085e-03, 4.849307984e-02, 2.543818206e-03, -1.024809629e-01, -2.677425509e-03, -4.825572949e-03, 2.747280709e-02, -1.093955562e-01, 1.203017589e-02, 1.035619341e-02, 4.446065519e-03, 1.158329286e-02, 4.678492621e-02, -2.869769000e-02, 3.507794579e-03, -9.196254611e-02, 2.806327865e-02, 3.258909564e-04, 9.450957878e-04, 4.657875374e-02, -3.281662986e-02, 5.110703036e-02, 6.308517605e-02, 8.407760412e-03, 4.705300089e-03, 3.592398763e-02, 2.003391646e-02, -4.844702489e-04, 1.972216647e-03, -3.480999172e-02, -2.669068519e-03, 5.042240024e-03, -1.520705223e-02, 1.882652869e-04, -1.512867119e-02, 4.079086706e-02, -4.343010485e-03, -2.050124342e-03, -2.028440125e-02, -1.157421246e-01, -3.569158493e-03, -3.313842230e-03}, {3.516206983e-03, 2.463425742e-03, 1.643864787e-03, -9.740208089e-02, -1.576703936e-01, -3.150258213e-03, 2.799028531e-03, -1.147592738e-01, 2.386859991e-02, -5.792493373e-02, -4.215849936e-02, -4.604870081e-02, 5.278314929e-04, 3.415449057e-03, -5.635360256e-02, 1.351677626e-02, 8.837809786e-03, 2.579859830e-02, 5.440357700e-02, -4.337013699e-03, 4.918758757e-03, 3.884092439e-03, -1.557663642e-02, 3.429755801e-03, 9.958392009e-03, -9.810052579e-04, -6.504703197e-04, -1.023566729e-04, 2.276998712e-03, -1.081422716e-02, 7.875192910e-03, -5.469034426e-03, 3.832152579e-03, -5.334452726e-03, 4.711516947e-02, 4.003746808e-02, -6.378323771e-03, -1.444166433e-02, -1.359594334e-02, -6.994336378e-03, 2.978486940e-02, 2.435336122e-03, -7.014086843e-02, 1.338485256e-02, 4.131064285e-03, 1.855543582e-03, -6.976675987e-02, -5.135391653e-02, 2.979168203e-03, 3.638910875e-02, 8.098407998e-04, -3.308924139e-01, -3.659636248e-03, 1.203633007e-02, -5.818893015e-02, -2.824789844e-02, 3.457675874e-02, 1.028266386e-03, -2.535670763e-03, 3.363959491e-03, -2.116402145e-03, -8.927222807e-04, -4.515662789e-03, -2.981807047e-04, 9.887016565e-02, 8.369187126e-04, 5.512631498e-03, -3.495022655e-03, 1.204844215e-03, 7.300790865e-03, -4.244721960e-03, 4.665524513e-02, -2.640649863e-02, 6.984624267e-02, -1.571576111e-03, 3.209368885e-02, 2.406215935e-05, -4.177009221e-03, -6.297475100e-02, -5.600646604e-03, -1.106445491e-02, 4.885646980e-03, -4.060310125e-02, -7.588373125e-02, -2.192513086e-02, 3.420874244e-03, -2.117014490e-02, -4.627617076e-02, -3.824359970e-03, 1.852540486e-02, -8.481739089e-03, 4.861930385e-03, 1.452270895e-01, -5.019441247e-03, -3.285822691e-03, -5.945183337e-02, -1.717290143e-03, -3.655344481e-03, -2.469400410e-03, -5.888607819e-03, -3.713024082e-03, -3.998329339e-04, -3.307750449e-03, 7.376193069e-03, 3.721151734e-03, -1.479990687e-02, -1.890969723e-01, 3.617296740e-02, -7.539787330e-03, -3.707889840e-02, -1.449875347e-02, 6.284698378e-03, 2.024886385e-02, 2.337331651e-03, 2.537378855e-02, -5.748053268e-02, -4.912195262e-03, -1.028365176e-02, -7.921204716e-02, 9.391991422e-03}};

const float bias_out[NUM_CONTROLS] = {5.800654292e-01, 5.618917346e-01, 5.667675138e-01, 5.479527712e-01};

const float in_norm_mean[NUM_STATES] = {1.828994393e+00, 1.172462702e+00, -1.086763978e+00, 3.356398582e+00, -8.970054984e-01, -4.736545384e-01, 4.249938726e-01, -2.324539870e-01, 9.899896383e-01, 7.331951857e-01, 7.212511301e-01, 8.498432636e-01, 7.437597168e+03, 7.868658691e+03, 8.756665039e+03, 8.861719727e+03, 2.509492333e-04, -2.122044243e-04, 9.271168528e-05, -3.486089230e+00, 1.056930078e+04};

const float in_norm_std[NUM_STATES] = {1.196803451e+00, 1.376224399e+00, 1.198522449e+00, 1.263533354e+00, 1.345751166e+00, 8.920479417e-01, 4.358806908e-01, 2.710752487e-01, 8.452091813e-01, 1.892547846e+00, 1.835869551e+00, 8.582449555e-01, 1.611652466e+03, 1.592680542e+03, 1.274845703e+03, 1.304817383e+03, 2.276198193e-02, 2.305601351e-02, 5.777644925e-03, 4.998602271e-01, 8.671238403e+02};

const float out_scale_min = 3.000000000e+03;

const float out_scale_max = 1.200000000e+04;

const float weights_hid[NUM_HIDDEN_LAYERS-1][NUM_NODES][NUM_NODES] = {{{2.772451937e-01, 8.599899411e-01, -8.224459738e-02, 2.981854379e-01, -3.305177018e-02, 3.726912141e-01, 3.180524588e+00, 3.821521699e-01, 2.553870082e-01, -5.501369834e-01, 2.730177641e-01, 1.866882592e-01, 3.469408751e-01, -6.668432057e-02, 4.371318519e-01, -9.967526793e-01, 7.447057962e-02, -7.392842174e-01, -7.153490782e-01, 3.302896023e-01, 3.744041920e-01, 1.908814460e-01, 4.393291771e-01, 3.712452650e-01, 4.234693050e-01, -1.327283978e-01, 9.798119217e-02, 2.636193931e-01, 1.048393011e+00, -9.751068950e-01, 1.307164282e-01, 2.172764689e-01, -1.027928516e-01, -2.601582408e-01, -2.295186669e-01, 1.099356785e-01, -5.054962635e-01, 3.309420943e-01, -1.070506573e-01, 4.456269741e-01, -3.193297386e-01, -3.320429623e-01, 3.330251575e-01, -7.902029753e-01, 1.990886182e-01, -4.873558581e-01, -7.342212200e-01, -8.763180971e-01, 1.131069183e+00, 2.768220603e-01, -2.072841674e-02, 5.602278709e-01, -2.727337182e-01, 2.996201813e-01, 1.545105428e-01, 4.204339683e-01, 1.022867084e+00, -1.890592277e-01, -5.019915104e-01, -1.636069268e-01, 1.221285760e-01, 1.032505155e+00, 6.098352075e-01, -6.153341532e-01, -9.736932516e-01, 4.433548748e-01, -1.225815043e-01, -1.070062816e-01, 5.690073967e-01, 2.534051798e-02, 3.268491328e-01, 4.245533347e-01, 3.707970679e-01, -1.480521202e+00, -4.430958629e-02, -5.181982368e-02, 5.876978636e-01, -2.169608921e-01, -1.307526678e-01, -2.341551892e-02, 6.244502664e-01, -5.540399551e-01, 3.245210648e-01, 3.967610598e-01, 3.976669312e-01, -1.349320114e-01, -8.624039888e-01, 5.012193918e-01, 7.958728075e-01, -1.596517861e-01, -1.161485314e+00, -1.597211242e+00, 2.291493267e-01, 4.329964817e-01, -7.510029078e-01, -1.146562994e-01, -1.475536525e-01, 7.320756912e-01, 3.179101944e-01, 6.514886618e-01, -1.598353535e-01, 6.306962371e-01, 2.211872190e-01, -5.012335777e-01, 6.836258769e-01, 3.285737336e-01, 2.286945134e-01, 1.741533130e-01, -1.148423180e-01, 7.158480585e-02, 1.202136204e-01, -2.222218961e-01, 2.532232404e-01, -1.677192152e-01, 4.914962947e-01, 1.825849652e+00, 7.084929943e-01, -4.425823689e-02, -4.167369008e-02, -1.740240157e-01}, {3.974556029e-01, -3.145107329e-01, -3.372385502e-01, -6.582064629e-01, -2.475648820e-01, 8.329682797e-02, -2.720905066e+00, -3.314816058e-01, -1.180847645e+00, -9.097908735e-01, -3.093381226e-01, 8.001954556e-01, 6.337712407e-01, -3.316934407e-01, -8.815932870e-01, 8.676931262e-02, -1.150217578e-01, -1.888346523e-01, -6.877623200e-01, -1.663392335e-01, 2.154521197e-01, 7.175174356e-01, 1.030115597e-02, -5.623991787e-02, 1.536444426e+00, 2.163929939e-01, -2.103335381e+00, -1.257559538e+00, -1.048342109e+00, 5.850651860e-01, 2.198738232e-02, 5.572976470e-01, -1.718649715e-01, -1.213519216e+00, 1.278850883e-01, -3.566949069e-01, 6.326436400e-01, 2.629246414e-01, 4.754846692e-01, 5.832360983e-01, -1.023698151e-01, 2.140983790e-01, 8.668944985e-02, -4.047294259e-01, 2.075151205e-01, 1.345650911e+00, 1.902511418e-01, 4.053848684e-01, -2.075891495e+00, 7.376038283e-02, -9.285583496e-01, 3.362631202e-01, -8.555526733e-01, 1.882314831e-01, 3.106277585e-01, -7.319459915e-01, -6.613453031e-01, 2.282682620e-02, -2.429540828e-02, -1.438225508e+00, 5.987089872e-01, -1.838139296e+00, 8.246959001e-02, -9.055649638e-01, -1.561608315e+00, 3.196642548e-02, -1.722638011e+00, 6.048931479e-01, 6.503444910e-01, -6.448850036e-01, -7.163355947e-01, 2.411118895e-01, -3.195005953e-01, 1.117797256e+00, 4.905559719e-01, 1.027599573e+00, -8.651764989e-01, -1.649735093e+00, -6.456229091e-02, 8.954837918e-02, -1.987478375e+00, -7.193752378e-02, -2.077070475e-01, 1.794657260e-01, -2.439386398e-01, -4.975578189e-01, 3.203074932e-01, -3.366391957e-01, -1.440672949e-02, 1.683614999e-01, 2.138908654e-01, 1.247980237e+00, -2.175283581e-01, 6.198917031e-01, 3.053665161e-01, 1.294433624e-01, -9.237702191e-02, -6.614515185e-01, 3.473061621e-01, 2.303057313e-01, 1.957390904e-01, -4.223608077e-01, -1.376953125e+00, 4.419871867e-01, -7.068018913e-01, 1.311694086e-01, -8.072417378e-01, 2.730087638e-01, 3.211324215e-01, -9.143166244e-02, -4.114264548e-01, 3.667667508e-01, 2.374352142e-02, -4.227191806e-01, 6.333479881e-01, -2.838099003e+00, 2.891143262e-01, 3.671931624e-01, -3.641510308e-01, 2.828422561e-02}, {3.041012883e-01, -1.340266168e-01, 1.431025416e-01, 1.488092728e-02, -5.037810206e-01, -1.196273267e-01, -8.692855239e-01, -3.650854575e-03, 3.139545619e-01, 8.025344461e-02, 3.422401100e-02, -3.322257400e-01, -1.915528178e+00, 1.198747396e+00, 3.204197288e-01, -1.442767233e-01, -4.456985891e-01, 3.135255873e-01, 6.001804471e-01, -2.789999247e-01, 5.357715487e-01, 4.509774745e-01, -9.954358935e-01, -3.533884287e-01, -3.619111478e-01, -8.300998211e-01, 2.770961523e-01, -7.294500470e-01, -1.011518717e+00, -4.246031344e-01, -1.456427574e-01, 6.505612135e-01, -5.784180015e-02, -6.447086930e-01, -2.145065069e-01, -1.590527296e+00, -1.331290454e-01, 2.337266505e-01, -2.196533531e-01, -8.952160478e-01, 7.080580108e-04, -5.808216929e-01, 1.665709168e-01, -2.689222097e-01, 1.768059731e+00, 1.442735791e+00, -4.555548429e-01, 8.659202456e-01, -1.077303886e+00, 2.358137071e-02, -6.470140815e-01, 1.633818150e-01, 6.228214502e-01, -5.508572459e-01, -6.390258074e-01, -2.856616497e+00, -1.248943686e+00, -6.505446434e-01, -2.482949346e-01, 2.861573994e-01, -3.436934650e-01, -1.227757454e+00, 1.043820500e+00, 1.522675633e+00, 1.469785124e-01, -1.824560463e-01, 9.540147781e-01, 1.696429104e-01, -3.326926231e-01, 6.515566707e-01, -6.566658020e-01, -3.319587708e-01, 4.988268316e-01, -9.266774654e-01, -2.748018801e-01, -3.771415055e-01, -2.843784988e-01, 1.143642142e-01, -1.589664072e-01, 3.755402863e-01, -2.063252211e+00, -5.283561945e-01, -1.802826971e-01, -8.337013721e-01, 1.118682623e-01, 1.235773861e-01, 5.923612714e-01, -4.518065974e-02, 2.033462562e-02, 2.969565392e-01, 4.927673638e-01, 3.210092187e-01, 2.030639052e-01, 5.837911963e-01, 2.528164349e-02, 2.463230789e-01, -1.147561669e+00, 1.320461869e+00, 1.244366169e+00, -4.205529094e-01, 1.193689346e+00, 1.060433127e-02, 2.777358294e-01, 7.104729414e-01, -1.489390850e+00, 8.202825673e-03, 1.226264834e+00, -1.662547708e+00, -5.943142250e-02, -1.722126901e-01, -1.433245093e-01, 3.679726422e-01, 8.553904891e-01, -6.060182452e-01, -1.210339427e+00, 1.207309589e-01, -6.254492402e-01, -1.396175265e+00, 9.602501988e-01, 1.373534918e+00}, {-4.268417060e-01, -2.998481989e-01, -7.329291850e-02, 1.031578779e-01, 4.081578851e-01, -3.221070170e-01, 7.458953857e-01, -5.458619595e-01, -7.422059178e-01, -7.463506460e-01, -9.837123565e-03, 1.244397640e+00, 2.149766684e-01, -1.937790960e-01, -1.208484530e+00, -5.755245686e-01, 1.378159046e+00, -1.551842242e-01, -5.501723886e-01, -3.829965591e-01, 5.998031497e-01, 2.747648060e-01, 1.251977682e-01, -6.243382096e-01, 8.168336153e-01, 1.799315512e-01, -7.785882950e-01, -1.528798461e+00, -2.167990059e-01, 8.747445047e-02, -3.918822110e-01, 3.329038322e-01, -3.627338111e-01, -6.144615412e-01, -2.690182030e-01, -2.465931028e-01, 2.810724676e-01, -6.252657175e-01, 2.349851876e-01, 1.820234060e+00, 1.244279146e-01, 9.404776245e-02, -1.428724051e+00, 1.839059889e-01, 8.656062484e-01, 2.392984182e-01, 1.101980954e-01, 8.403536081e-01, 1.299744099e-01, -4.695462286e-01, -2.097404003e+00, 4.597600698e-01, -2.128703356e+00, 4.273972809e-01, 2.243695855e-01, 3.345989585e-01, -7.813280225e-01, 9.702892303e-01, -1.861065812e-02, -5.906857848e-01, 8.936313391e-01, -9.008371234e-01, -8.854135275e-01, -1.889563650e-01, 3.718467653e-01, 8.300880194e-01, -9.600933194e-01, 5.298179388e-01, 8.154597282e-01, 1.296872199e-01, 2.940707803e-01, 2.125368267e-01, -7.852776051e-01, -2.860402167e-01, 1.050371885e+00, 1.003147602e+00, 1.265464276e-01, -7.129299641e-01, -1.794836223e-01, 5.715844631e-01, 5.870366693e-01, -4.778770208e-01, 4.234267771e-01, -2.701826990e-01, -4.707098305e-01, 1.029919907e-01, 5.978863239e-01, -6.026786566e-01, 1.894359589e-01, -3.806574643e-02, -5.324077129e+00, -4.982177168e-02, 6.974697709e-01, -4.923228025e-01, 2.821581960e-01, 3.208388090e-01, -6.088318825e-01, -5.818796754e-01, -6.074700877e-02, 6.894967705e-02, -1.316960305e-01, -3.192384541e-01, -1.065284610e+00, -4.798993766e-01, -9.102833271e-01, 3.855091631e-01, -1.408808351e+00, 1.922516227e-01, 4.441304505e-01, -4.194217920e-01, -2.620918155e-01, 6.058098674e-01, -4.484160244e-01, -3.879888952e-01, 6.473233700e-01, -8.323720098e-01, 6.505590677e-01, 9.585769475e-02, 1.930334121e-01, -7.455779314e-01}, {1.937389001e-02, 5.289188623e-01, -3.755585849e-01, 7.060857415e-01, -1.065716267e+00, 5.981661081e-01, -2.143006474e-01, -3.337937295e-01, 4.003857076e-01, -3.796408772e-01, 6.595715284e-01, -2.030199528e+00, -1.370684862e+00, -3.483895063e-01, -4.040061235e-01, 5.742197037e-01, -2.037048042e-01, 7.267817259e-01, 3.749678731e-01, -1.814462095e-01, -7.163268328e-01, -3.056711257e-01, 7.398333400e-02, -2.430804968e-01, 5.631052256e-01, 7.758140564e-01, 9.621282220e-01, 1.883306026e+00, 3.628572822e-01, 7.041378617e-01, 4.833722711e-01, 9.781452417e-01, -1.987783432e+00, 7.894273400e-01, -3.227301538e-01, 1.151642919e+00, -1.058439374e+00, 6.368917823e-01, -1.247370720e+00, -1.675974250e+00, -1.128713489e+00, -5.109633207e-01, -3.434854746e-01, -1.895521879e-01, 3.078183830e-01, 8.524083495e-01, 6.272039413e-01, 8.407020569e-01, -9.874415994e-01, -4.331644177e-01, 8.571441174e-01, -1.517120242e+00, 6.029599905e-01, 7.420081496e-01, -5.027444363e-01, -1.281785518e-01, -6.635384262e-02, 3.489905894e-01, 6.438582540e-01, 1.406527519e+00, -3.997107744e-01, 5.701100826e-01, 1.088639736e+00, 8.497319371e-02, -8.692529798e-01, -4.084994197e-01, 5.878604650e-01, -5.153724551e-01, -4.908865988e-01, 1.011914164e-01, -7.262835503e-01, 8.620253801e-01, 9.470230341e-01, -1.109059930e+00, -1.127371907e+00, -3.433707058e-01, 8.363654017e-01, 4.694278240e-01, -1.593638897e+00, -8.212189078e-01, 6.310744584e-02, -2.504997253e-01, -3.971273601e-01, -1.628333807e+00, -6.926097274e-01, 2.668534219e-02, -1.366694570e-01, -1.375429511e+00, 4.685072303e-01, -2.224291265e-01, -3.739411354e+00, 3.741919398e-01, 1.211948752e+00, 6.289711595e-01, -2.087157369e-01, -2.540510595e-01, 1.450953722e+00, -1.342554569e+00, -1.816802919e-01, -7.749614865e-02, 6.404600143e-01, -3.934585750e-01, -1.334740162e+00, -2.623420000e+00, 4.716874659e-02, 6.792749465e-02, -1.155946732e+00, -1.599268913e+00, -4.894716740e-01, -4.865219593e-01, 1.611217558e-01, -3.364820719e+00, 6.425483227e-01, -2.407792769e-02, -7.528036833e-01, -9.216588736e-01, -6.906643510e-01, 3.575561643e-01, -3.984433413e-01, 1.359557867e+00}, {1.953850091e-01, -6.550394893e-01, 1.973808706e-01, 1.741979122e-01, 3.655591309e-01, 1.227202058e+00, -1.030127048e+00, 4.131546319e-01, 1.468030691e+00, -2.170233279e-01, -6.193011403e-01, -7.928386927e-01, -2.650710642e-01, -5.097802877e-01, -4.432198405e-02, -8.623860776e-02, 4.361433983e-01, 4.228480756e-01, 1.137801483e-01, 2.175623551e-02, -2.901295386e-02, -1.772870421e-01, -1.582626700e-01, 5.728095770e-01, 3.963557482e-01, 3.143300116e-01, 8.230196238e-01, 9.114290476e-01, 1.630402505e-01, -5.620672107e-01, 3.520845771e-01, -2.505785525e-01, -1.402677596e-01, -4.267268181e-01, -3.597850800e-01, 7.018284798e-01, -5.243486166e-01, -2.718622424e-02, -3.453917801e-01, -3.072106279e-02, 6.515608728e-02, 6.656447053e-01, 4.226320386e-01, -3.843591511e-01, -4.713625908e-01, -3.928650618e-01, 2.201410681e-01, 1.388895959e-01, -1.553171128e-01, -3.257808387e-01, -7.859705016e-03, 2.097968161e-01, -2.304173261e-01, 3.172924519e-01, 2.344433963e-01, 2.489080578e-01, -1.799278259e-01, 5.511994362e-01, 1.305929478e-02, 9.548554569e-02, -2.532796860e-01, 1.233135071e-02, -2.492614985e-01, -3.121508956e-01, 1.834750921e-01, 3.374976292e-02, 4.890190959e-01, 9.775944799e-02, 7.692991942e-02, 1.035693586e-01, -6.532520801e-02, -4.168962538e-01, -1.577090919e-01, 2.162741870e-01, -1.102048397e+00, -4.732929766e-01, -2.717031837e-01, -1.822903603e-01, -5.403295159e-01, -7.258646488e-01, -6.267166734e-01, 2.853622735e-01, 2.206197232e-01, -7.394765019e-01, -1.097744480e-01, 4.794709086e-01, -3.777616322e-01, 4.226376861e-02, 3.618189320e-02, 3.897553682e-01, 1.056189418e+00, -8.237798214e-01, -1.294303089e-01, -4.755449593e-01, 3.695441782e-01, 8.111341298e-02, 9.731059074e-01, -1.365964174e+00, -1.089836240e+00, 4.204538465e-01, 3.863717616e-01, 3.419773281e-01, -1.899892241e-01, -1.251480877e-01, -2.173649669e-01, 2.330063879e-01, -3.142608404e-01, -4.755236953e-02, 1.546160132e-01, -6.117885932e-03, -4.556242749e-02, -7.209545374e-01, 1.128229573e-01, 4.620943666e-01, -2.340995669e-01, -5.683377981e-01, 8.118435740e-01, -8.012081981e-01, -1.414970160e+00, -2.087051123e-01}, {3.183806241e-01, -8.848744035e-01, 1.915336251e-01, 7.194427848e-01, 1.595746160e+00, -2.688941360e-01, -3.437564135e+00, 5.607197881e-01, 6.613029242e-01, 1.690544635e-01, 1.562926412e+00, -7.374420762e-01, -1.424291492e+00, 2.120440006e-01, -1.922151297e-01, 3.165158927e-01, 2.871165991e+00, 5.114117861e-01, 2.730363607e-01, 1.561669558e-01, -2.676336467e-01, -1.064058580e-02, -6.593769193e-01, -7.513723969e-01, 4.059884846e-01, -1.829722822e-01, 4.283936024e-01, -3.199793994e-01, -3.828287423e-01, 8.706607819e-01, 1.043111011e-01, 1.082400084e-01, 8.977138251e-02, 5.426289439e-01, -2.579921186e-01, -2.201685607e-01, 8.877591789e-02, 1.573192716e+00, -1.570113420e+00, 1.565230489e-01, -1.441976577e-01, -6.095421314e-01, 3.768043518e-01, -3.190166354e-01, -3.519748449e+00, 1.561170697e+00, -1.081146821e-01, 1.028466344e+00, -3.532522202e+00, -5.782812834e-01, 1.111333728e+00, 9.909912348e-01, -5.165446401e-01, 6.842391491e-01, -1.535323858e-01, 4.502443671e-01, -4.916329980e-01, -4.934608638e-01, 6.687131524e-01, -3.231676519e-01, -6.033588648e-01, -3.425789177e-01, 2.440212816e-01, 1.016955733e+00, -1.648258805e+00, -3.839425445e-01, 9.222273529e-02, -1.926953077e+00, -1.220432878e+00, 1.577981561e-01, -2.664365292e+00, 5.534651279e-01, 1.942952275e+00, -9.274433255e-01, 4.017991479e-03, -9.192461967e-01, -2.995769978e-01, 8.861414790e-01, -6.500604749e-02, 1.985595748e-02, -5.096296668e-01, -3.902269304e-01, -7.507973909e-01, -1.265517473e+00, -2.765698433e-01, -6.084451675e-01, 7.348423600e-01, -3.970383108e-01, 3.449385464e-01, -6.327072978e-01, 1.068573833e+00, 1.129380345e+00, -1.023297310e+00, -8.589714766e-01, -1.907105744e-01, -6.786014885e-02, 7.955911160e-01, -1.308519125e+00, -5.060201883e-01, -1.670175910e+00, 1.153651595e+00, -7.148986459e-01, -8.932701945e-01, -1.915826499e-01, -1.701802611e+00, 6.059991717e-01, -2.631446123e-01, -9.670673609e-01, 3.157633245e-01, -5.149787068e-01, -2.954455614e-01, -5.976849198e-01, -9.741888642e-01, -3.134146929e-01, -9.012523293e-01, -5.766249657e+00, -1.403130740e-01, -4.012534320e-01, -4.338581860e-01, 1.443140984e+00}, {-8.548685312e-01, -6.053462625e-01, 4.000989497e-01, 1.342076622e-02, -4.043667316e-01, -2.915455103e-01, -6.056112647e-01, 1.118529201e+00, -1.228823289e-01, 5.619534254e-01, 2.895177305e-01, -2.282785922e-01, -6.507928967e-01, -9.923195094e-02, -1.783681661e-01, 6.357822418e-01, 1.446506977e+00, -2.538875937e-01, -2.633900046e-01, -1.070596501e-01, 1.023880601e+00, -7.825282216e-01, -9.063999057e-01, -3.852655292e-01, 2.670270503e-01, 1.098434702e-01, 4.922436774e-01, -1.773263335e+00, -1.485245675e-01, 5.400354043e-02, 4.003059268e-01, 3.589226604e-01, -1.309844851e+00, 1.066932008e-01, -1.213203192e+00, -2.211411148e-01, -9.485628009e-01, 3.821667135e-01, 2.771403491e-01, -5.949556231e-01, 1.047665253e-01, 2.602697909e-01, 9.678125978e-01, 8.230046630e-01, -7.252877355e-01, -6.848679781e-01, -1.108823538e+00, -2.515395284e-01, -5.739205360e+00, 2.094018459e-01, -5.923339128e-01, -6.709108949e-01, 6.582151055e-01, 2.849572338e-02, -6.961510777e-01, -1.918771386e+00, -7.828068137e-01, -2.606469095e-01, 3.306360915e-02, -2.525703907e-01, 6.139979959e-01, -6.509944052e-02, 3.997469544e-01, -2.417913824e-01, -2.522413135e-01, 7.986633778e-01, 3.719792366e-01, -1.823635846e-01, -6.243222356e-01, -6.440257430e-01, 3.180155456e-01, -1.450854301e+00, 2.882663012e-01, 5.857829452e-01, 5.596844852e-02, -6.958875060e-01, -2.484474331e-01, 6.020292640e-01, 3.343717158e-01, 1.322377622e-01, 1.263265848e+00, 3.784929514e-01, 7.004728913e-01, -6.516677737e-01, 5.046590418e-02, -1.801463366e-01, -1.440055370e+00, -8.971571326e-01, -8.019840717e-01, 1.521386504e+00, 3.403929994e-02, -6.477187276e-01, 3.526691794e-01, -5.262258053e-01, -5.282850862e-01, -5.536179543e-01, -2.618600130e-01, -1.318547130e+00, -2.702356279e-01, 5.922067761e-01, -5.396490097e-01, -5.749961138e-01, 3.511805236e-01, 3.457945883e-01, -4.131189585e-01, 2.027141303e-01, 3.187310398e-01, -5.686690807e-01, 5.206204653e-01, -5.798561573e-01, 1.442306582e-02, 2.050222307e-01, -2.124564350e-01, -1.013234854e+00, -9.678098559e-01, 2.269587278e+00, 1.214589402e-01, 4.553360641e-01, 8.796378970e-01, 6.736676097e-01}, {2.848455608e-01, 2.296652198e-01, 1.513211988e-02, 1.326998472e-01, 9.206889868e-01, -1.912990510e-01, -2.034087896e+00, -3.349198103e-01, 6.239203215e-01, -1.225776449e-01, 3.154439330e-01, -6.826354563e-02, -7.583492398e-01, 1.841234043e-02, -1.673031785e-02, 1.078925878e-01, -8.597342372e-01, -7.116417885e-01, 4.524623752e-01, 3.714713752e-01, -8.491616249e-01, -6.732180715e-01, -9.072534740e-02, 8.488665819e-01, 1.485049427e-01, 2.191031575e-01, 3.422110081e-01, -1.606894851e+00, -1.311848044e+00, -9.198383093e-01, -1.906291395e-01, 1.251068991e-02, -5.533055216e-02, 3.882558271e-02, 8.467826843e-01, -3.437576815e-02, -4.341742098e-01, 4.263175726e-01, -1.601298451e+00, -2.640551031e-01, -1.323420089e-03, -5.108676553e-01, 2.543874681e-01, 4.528830945e-01, -1.090354681e+00, -8.399772644e-01, 1.024417996e+00, 5.164520815e-02, -1.260647058e+00, -2.399442494e-01, -1.089311838e+00, 1.301728368e+00, 1.412438322e-02, -2.818705440e-01, 6.117884517e-01, 6.320172548e-02, -3.097690940e-01, 4.567256272e-01, 2.948836982e-01, 6.802693009e-02, -9.520814419e-01, -6.434546113e-01, 1.122249484e+00, 1.544299722e-01, 8.272892833e-01, -9.754861593e-01, 6.703585386e-02, -7.258309722e-01, -1.954813480e+00, -6.028237343e-01, -2.340402454e-02, 8.181263208e-01, 7.721068263e-01, 4.955069423e-01, -1.202883720e+00, -5.379906893e-01, -2.477905527e-02, 5.299393535e-01, -3.776711226e-02, -6.979047656e-01, -4.540442675e-02, 1.580998003e-01, -7.358154655e-01, 7.231155783e-02, 9.330915213e-01, -5.256844163e-01, -4.427308738e-01, -1.077862382e+00, -5.087684989e-01, 4.834768474e-01, 6.242704988e-01, 1.974625587e-01, -2.862033546e-01, 2.316231132e-01, 4.719325602e-01, -4.545390010e-01, 1.374803036e-01, -6.024053693e-01, 8.077900112e-02, -4.739999473e-01, 1.614671499e-01, -3.733453453e-01, -7.709950805e-01, -3.993133307e-01, -6.710798740e-01, -1.359830946e-01, 6.435648799e-01, -9.899439812e-01, 6.040877104e-01, -4.340172708e-01, 5.304158926e-01, -5.388751030e-01, 2.931541502e-01, 5.031212568e-01, -3.953584135e-01, -8.125378191e-02, 2.490033358e-01, 2.331377864e-01, -2.870161235e-01, -1.831801981e-01}, {-1.841512471e-01, 1.933492869e-01, -2.288546413e-01, 4.365278184e-01, 2.289971411e-01, 7.283320427e-01, 8.583517671e-01, -2.111546546e-01, 5.088772774e-01, -4.681798816e-01, -6.124684215e-01, -4.132304490e-01, -3.452656269e-01, -6.733292937e-01, 7.873121649e-02, -3.096536398e-01, -6.333267689e-01, -7.555104792e-02, 4.880997837e-01, -3.528761864e-01, -1.526879668e-01, -1.839592904e-01, -4.797554016e-01, 2.375359684e-01, 4.108931422e-01, 6.007732749e-01, 8.855979890e-02, -5.361580253e-01, 9.251748770e-02, -3.738287985e-01, 8.593782187e-01, 5.321464539e-01, -7.766438127e-01, -1.741542220e-01, 5.555202365e-01, -6.554459333e-01, -3.853802383e-01, 1.975698918e-01, -8.587733507e-01, -1.136333346e+00, 7.627092302e-02, -5.027614832e-01, -2.633252740e-01, -2.528339624e-02, -5.349938869e-01, 1.410985589e-01, 9.663987756e-01, 6.491637975e-02, 5.196737647e-01, -1.107070521e-01, -2.311437279e-01, 4.246934354e-01, 3.158421814e-01, -6.711285561e-02, -1.202785611e+00, 5.273636580e-01, 4.387933016e-01, 3.336612284e-01, 6.933310628e-01, -2.290699398e-03, -6.433879733e-01, 1.990467757e-01, -4.347562492e-01, 4.944313765e-01, -6.193963289e-01, -6.919844151e-01, 9.889673591e-01, -5.289115310e-01, -5.548114181e-01, 3.779467940e-01, -1.372254640e-01, -4.326896667e-01, 6.909134388e-01, -1.084313750e+00, -7.073136568e-01, -3.375071287e-01, 1.376013178e-02, 4.350963533e-01, -6.796739101e-01, -1.507291317e+00, 3.889288306e-01, 4.480341077e-02, -5.351210833e-01, -1.922484674e-02, 3.725635707e-01, 4.468907118e-01, 2.043501846e-02, -6.349401474e-01, -2.304668874e-01, -6.169081926e-01, 1.278512478e+00, 1.319251895e+00, -1.121339679e+00, -3.464711607e-01, 1.778367162e-01, 1.681336313e-01, 1.709864289e-01, -4.470527172e-01, -2.271513492e-01, -1.614698917e-01, 1.048573256e+00, 6.185903400e-02, -3.274128437e-01, -1.861506701e-01, 8.177298307e-02, -3.009047210e-01, -7.964828014e-01, -7.360690832e-01, 2.608715296e-01, -2.201793939e-01, 5.566548705e-01, -1.358160377e+00, 1.934118271e-01, 4.193766415e-01, -7.137271762e-01, -3.179862201e-01, -3.452916145e-01, 2.421305031e-01, -6.602653265e-01, 2.534378469e-01}, {6.166329384e-01, -1.163297296e-01, -6.358440518e-01, -5.989533067e-01, 6.864422560e-01, 2.345521599e-01, -1.325796723e+00, -1.539550126e-01, 1.218728781e+00, 1.163600564e+00, 6.477955580e-01, -1.286374688e+00, -3.840952814e-01, -5.450757146e-01, -3.975228667e-01, 6.827917099e-01, -3.143290520e+00, 2.562637925e-01, 4.980143309e-01, 7.435458153e-02, 1.627941847e+00, 9.821755439e-02, 1.550437361e-01, -9.849122763e-01, -7.953307778e-02, -1.241153758e-02, 1.211870193e+00, -1.563317060e+00, -3.839248419e-01, -8.906311393e-01, 2.322290987e-01, 2.382136732e-01, 6.534026861e-01, 5.150499940e-01, 3.684040904e-02, -4.689431787e-01, -1.415608883e+00, -5.863592625e-01, -7.444971204e-01, -3.737580478e-01, -8.979773521e-01, 4.134941101e-01, 4.065280855e-01, 9.463819861e-01, 1.364094496e+00, 8.592496514e-01, 2.411974370e-01, -1.032764077e+00, -1.485612631e+00, -3.420449495e-01, 1.355573535e-02, 5.261892676e-01, -9.241530895e-01, 1.068296790e+00, -7.595763803e-01, -1.233788967e+00, -4.612613916e-01, 2.710484266e-01, -3.452855051e-01, -6.501836181e-01, -7.932438850e-01, -2.861077785e-01, 2.426173538e-01, -5.441243052e-01, 2.829293609e-01, 2.054619044e-01, 1.156321764e+00, 1.841591835e+00, -1.903441101e-01, -9.305831790e-01, 3.923491538e-01, 5.616413355e-01, -4.596078098e-01, 7.109529972e-01, -6.006106734e-01, -4.279134870e-01, -1.612961441e-01, 7.306957990e-02, -2.753817737e-01, -5.062991381e-01, -3.947376907e-01, -6.464801431e-01, -2.394385189e-01, -2.532850504e-01, 1.844640225e-01, -1.185862422e+00, 5.404533073e-02, 2.077272385e-01, 2.602016628e-01, 1.208010674e+00, 5.495537519e-01, 4.709623456e-01, -6.131640077e-02, -9.014309645e-01, -3.167573810e-01, -1.054500580e+00, 7.925216556e-01, 8.021201007e-03, 6.151845455e-01, -1.337352246e-01, 1.031265482e-01, -2.071623355e-01, -8.524977416e-02, 1.918576807e-01, -2.351795137e-01, 5.437034369e-01, -3.326887131e+00, -1.685431242e+00, -1.030051783e-01, -2.023021132e-01, 8.498197049e-02, -8.305898309e-01, -8.556874394e-01, -3.749768436e-01, -9.729482532e-01, -1.606250286e+00, -1.009124160e+00, -3.844073713e-01, -5.889390111e-01, -1.530942023e-01}, {-1.288082719e+00, -2.653069496e-01, -3.030343950e-01, 1.967700869e-01, 3.812242448e-01, 7.296966910e-01, 5.271770358e-01, 1.240761518e+00, -1.297697663e+00, -6.879534721e-01, -1.627850652e+00, -6.462468207e-02, 1.193610951e-01, -4.055364430e-01, -1.908123493e-01, -4.435539246e-02, -4.789757729e+00, -5.326772574e-03, 4.302436411e-01, 3.726310730e-01, 4.828104675e-01, -4.053246602e-02, 3.730162382e-01, -9.953725338e-02, -4.668862820e-01, -1.344303608e+00, -2.854010276e-02, -5.553291440e-01, -5.082042813e-01, -6.522956491e-02, -1.300626278e+00, 9.639627934e-01, -4.610868990e-01, 2.249864787e-01, 1.707368493e-01, 1.101544276e-01, -6.470541358e-01, 1.370862961e+00, 3.045297228e-02, -1.365710378e+00, -5.721579790e-01, 4.696832597e-01, 8.599218726e-01, 9.877207875e-01, 9.972177744e-01, -2.876658440e-01, 9.559027851e-02, 3.058267534e-01, 6.599576473e-01, -1.378212929e+00, 1.356915951e+00, -1.774738789e+00, 1.290834904e+00, -6.626533866e-01, -6.184362769e-01, 6.789318323e-01, -6.075198054e-01, -1.697816700e-01, -1.017361805e-01, 7.598792911e-01, -9.241314530e-01, -6.366246343e-01, 2.194951057e+00, 9.251138568e-01, 2.677168846e-01, -1.245545149e+00, 1.510915279e+00, -1.065786481e+00, -4.141470417e-02, 7.612997890e-01, 1.238737702e+00, -3.339247465e+00, 6.399873644e-02, 3.425149918e-01, -5.934103392e-03, -5.532274246e-01, 9.863262177e-01, 8.613486886e-01, 1.264370382e-01, 5.537909865e-01, -1.529427648e+00, -1.050133348e+00, -1.652303576e+00, -5.018227100e-01, -7.701757550e-01, 4.885563552e-01, -6.269100308e-02, 5.849614143e-01, -8.808336854e-01, 7.779943943e-02, -3.626633406e+00, 3.615196943e-01, 2.038491726e+00, 9.969325364e-02, -1.092871279e-01, -2.330411822e-01, -3.823750496e+00, -2.861255109e-01, 7.303913832e-01, 8.359916210e-01, -3.181564808e-02, -1.371674776e+00, 1.015336871e+00, -1.019544005e+00, -2.631625831e-01, -5.576028228e-01, 2.590359747e-01, -1.320993662e+00, 2.386637449e+00, -1.354036629e-01, 1.218767762e+00, -4.549612403e-01, -2.488613576e-01, -5.280205607e-01, -1.020892143e+00, -1.768780872e-02, -1.208352804e+00, 2.400161982e+00, 4.017596543e-01, 9.272857904e-01}, {-4.123162031e-01, 2.101510316e-01, 3.597564995e-02, -1.122191787e+00, 2.765378058e-01, 4.793954790e-01, -1.967383146e+00, -1.517389268e-01, 5.609349608e-01, 4.510861933e-01, -8.909260631e-01, 6.370426416e-01, 1.328949690e+00, -2.610685527e-01, -5.846156478e-01, 1.798445135e-01, -1.357810974e+00, 1.020167470e+00, -1.590917230e+00, -5.241824314e-02, -4.529206157e-01, 3.331243396e-01, -7.153059840e-01, 6.536682844e-01, 6.798403859e-01, -7.090050727e-02, 4.830206037e-01, -7.622385621e-01, -2.778316140e-01, -5.549436212e-01, 4.530043304e-01, 5.772309303e-01, -3.618856370e-01, -1.059864759e+00, 2.211788446e-01, -2.351796925e-01, 6.016213894e-01, 9.711725116e-01, 9.517868608e-02, 4.091185033e-01, -4.991536587e-02, -3.145272378e-03, -9.075658023e-02, 3.820820153e-01, 8.986169100e-01, -2.811172605e-01, 3.364710808e-01, -2.924520075e-01, 7.277208567e-02, -5.840371847e-01, 8.340442926e-02, -8.590545058e-01, 8.693675399e-01, -5.549795628e-01, -3.842587173e-01, -4.220159650e-01, -4.650263190e-01, -4.003525078e-01, -8.430521488e-01, 9.659256786e-02, 1.913439393e+00, -1.915560961e-01, 1.970241405e-02, 2.954457402e-01, 4.064984322e-01, -1.578121930e-01, -1.364717007e+00, 6.350564957e-01, -3.384239972e-01, 1.015953064e+00, 1.546162069e-01, -6.503518820e-01, 9.007151723e-01, 6.082370877e-01, 2.797105610e-01, 1.282967925e+00, -2.501756847e-01, 2.504088283e-01, 1.016733274e-01, 3.074051738e-01, 3.008586727e-02, 6.177338362e-01, 9.802981466e-02, -1.080432385e-01, -4.322195351e-01, -4.928373098e-01, -6.697940081e-02, -7.102807760e-01, -6.014562845e-01, 6.391730905e-02, -2.828582525e-01, 6.780236959e-01, 1.231239676e+00, -5.832278728e-01, 3.854418099e-01, 1.348991990e+00, -5.474803224e-02, -1.435028791e+00, -6.039537787e-01, -7.395354509e-01, -2.246213913e+00, -3.733525053e-02, 1.935086399e-02, -1.214978456e+00, -1.682835668e-01, 1.265425384e-01, -4.888634384e-01, -3.879130781e-01, 5.691745281e-01, -1.387413591e-01, -1.754403710e-01, -1.687496454e-01, 1.395971775e+00, 6.841908693e-01, -4.782256782e-01, 7.803226709e-01, -8.208387494e-01, -1.538105905e-01, -1.732474208e+00, 7.209915519e-01}, {1.317302227e+00, -4.242339432e-01, 3.969357312e-01, -1.312959075e+00, -8.769343495e-01, -4.377827793e-02, -5.933649838e-02, -1.264525354e-01, -1.429332852e+00, -8.093773723e-01, -3.961946070e-01, 3.812488019e-01, 6.689882278e-02, 7.003452182e-01, -8.472561240e-01, -3.317693993e-02, -3.764508009e+00, -2.344039679e-01, -1.899541765e-01, 4.211678207e-01, 2.386183292e-01, 5.435589552e-01, 8.545081019e-01, -3.819041252e-01, -2.948392928e-01, -4.416027665e-01, -6.657384634e-01, 3.520908654e-01, -2.966706157e-01, -5.436183214e-01, 4.603895545e-01, 7.825964093e-01, 3.132252991e-01, 1.141343862e-01, -7.040265799e-01, 3.704868853e-01, 8.559567928e-01, 6.523085237e-01, 3.045366704e-01, -2.140269756e+00, -5.087544769e-02, 4.075122178e-01, -1.624126673e+00, 8.423312306e-01, 1.054196954e+00, -1.084570646e+00, -8.530752361e-02, -5.072190762e-01, -2.039526701e+00, 6.107926369e-02, 4.074485302e-01, 1.807454675e-01, -5.015558377e-02, 9.110556245e-01, -5.277051926e-01, 6.757777929e-02, -8.617311120e-01, 8.264864087e-01, 3.278907537e-01, -2.535498142e-01, -5.086387396e-01, -1.727731377e-01, 7.325111330e-02, 3.272579610e-01, -7.691912055e-01, 1.251728535e+00, 4.876328632e-02, -3.928915858e-01, 3.921009004e-01, 4.313707650e-01, -1.048922315e-01, 1.464391798e-01, -4.440832734e-01, -3.484957516e-01, 7.582888752e-02, 7.531046867e-02, -5.544759035e-01, -2.374898829e-02, 1.857314855e-01, -9.548041224e-01, 1.044749975e+00, 7.930732518e-02, 4.101322293e-01, -1.993138194e-01, -8.357973099e-01, 4.823552445e-02, -1.986825168e-01, -1.302784920e+00, -3.757744730e-01, -7.173450589e-01, -2.802089214e+00, -5.748311877e-01, -1.845581830e-01, 5.426915735e-02, -2.693201303e-01, -2.659171522e-01, 7.565081120e-01, -2.052833080e+00, 4.853456616e-01, -5.854202807e-02, -1.039087892e+00, -3.783232570e-01, 8.878726959e-01, 8.154256642e-02, -3.369169533e-01, 4.061541557e-01, -1.333585024e+00, 8.263450265e-01, 1.201502323e+00, 2.249148935e-01, -3.806547821e-01, 1.561977565e-01, 2.618888393e-02, -3.458720446e-01, 4.804421663e-01, 7.290398479e-01, -5.721750259e-01, -1.851497144e-01, 7.268263102e-01, 1.315845102e-01}, {6.259554029e-01, -4.873820841e-01, 3.506534919e-02, 8.176366687e-01, 2.639231682e-01, -4.334900975e-01, -2.486723900e+00, 9.032366425e-02, -8.305662274e-01, -5.575349927e-01, 2.354874760e-01, 5.028906092e-02, -1.492669702e+00, 1.970780343e-01, -4.239009693e-02, 6.539817452e-01, -2.237083316e-01, 2.013898939e-01, -6.383405626e-02, -3.710657060e-01, -2.191705555e-01, -8.968905210e-01, 3.274698257e-01, 9.808801860e-02, 7.278814912e-02, 9.721298814e-01, 2.540437877e-01, 3.408055007e-01, -1.595364362e-01, 2.678320408e-01, 7.776925564e-01, 1.110992283e-01, -6.571615934e-01, -6.340049207e-02, -2.496255934e-01, 2.099208683e-01, 2.696643472e-01, 6.174925566e-01, -6.703620553e-01, -4.686220288e-01, -5.995267034e-01, 5.524084568e-01, 1.699779779e-01, -1.077232659e-01, -1.542521864e-01, -1.286646008e+00, 1.053909898e+00, 3.432964087e-01, -1.007888079e+00, -3.492026329e-01, 6.003110111e-02, -5.054534674e-01, -1.474218220e-01, -6.037576199e-01, -5.726088285e-01, -2.308661640e-01, -5.173633099e-01, -2.967492342e-01, -3.814722300e-01, -7.996792197e-01, -5.531113148e-01, -1.978877932e-01, -2.166031003e-01, 4.765651226e-01, 1.978995800e-01, 3.186880350e-01, -6.058792472e-01, -4.777861536e-01, -3.203352094e-01, -1.109483093e-01, 2.752812803e-01, 5.815647170e-02, 5.166800022e-01, -2.255903557e-02, -1.420005798e+00, -9.170660973e-01, 2.068526745e-01, -5.497201085e-01, -1.097020864e+00, -5.172745585e-01, -8.310796022e-01, 8.602010608e-01, -1.193498373e-01, -6.986632943e-01, 4.729891196e-02, -4.906959832e-01, -1.276225001e-01, -8.114764094e-01, -9.592149854e-01, 2.930360138e-01, -4.234816134e-01, 3.039115071e-01, 4.276440144e-01, -1.563031375e-01, 5.176140666e-01, -1.258995533e+00, -6.039843559e-01, -3.323906422e+00, -9.420522451e-01, -1.303813010e-01, -1.133534670e+00, -4.350699484e-01, 3.394877315e-01, -6.819514036e-01, -3.105255365e-01, 6.683217287e-01, 6.652885675e-01, -4.394884109e-01, 3.297714293e-01, 6.186504290e-02, -2.637179792e-01, -1.092564106e+00, 3.136932850e-01, -1.289516807e+00, -9.919934869e-01, -4.062730670e-01, -8.100314140e-01, -5.169550776e-01, -7.095224261e-01, -2.761961520e-01}, {-4.660516679e-01, -6.261762381e-01, 5.814704299e-01, -1.685688257e+00, 6.800238788e-02, -7.031576037e-01, -4.592265129e+00, -6.711803675e-01, -1.700797915e+00, 3.883704171e-02, 3.853537738e-01, -1.236913353e-01, -4.029378593e-01, 3.685928285e-01, -1.474714875e+00, -1.982423067e-01, -2.271774769e+00, 8.593400717e-01, -9.122079015e-01, 1.455400605e-02, -1.305281818e-01, -4.142721742e-02, 1.997873932e-01, -1.283010393e-01, -7.175844163e-02, -1.057377532e-01, -6.523110867e-01, -3.538538814e-01, -1.082130790e+00, -2.249293625e-01, 3.233271837e-01, -5.159297585e-02, 1.115041852e+00, -5.884795785e-01, -7.711254358e-01, 1.127907753e+00, 1.318113089e+00, -8.167056441e-01, 7.874208093e-01, -5.512871146e-01, 2.933107913e-01, 9.011967480e-02, -6.570759416e-01, -4.177592695e-02, 1.790388674e-02, -2.069205940e-01, 5.107370615e-01, -4.695582390e-01, 1.285712272e-01, -4.106025696e-01, -8.638603091e-01, -4.331702292e-01, 2.428359836e-01, -9.054086357e-02, -6.728015542e-01, -4.920068681e-01, -8.163062334e-01, 4.534648657e-01, 1.840790808e-01, -5.612187982e-01, 6.568679214e-01, -6.868292689e-01, -2.483326048e-01, 4.598885477e-01, 4.814336076e-02, 6.127274632e-01, -1.266564012e+00, 1.892219856e-02, -6.036067382e-02, 9.702381492e-02, -1.493852437e-01, -7.516319156e-01, -3.360565305e-01, 8.146870732e-01, 1.528180718e+00, -2.643975019e-01, -3.703789711e-01, -1.456742525e+00, -2.535496950e-01, -3.356086910e-01, -9.647168219e-02, -3.994508982e-01, 2.950891554e-01, -6.159679592e-02, -9.310896993e-01, -6.152722836e-01, 3.656383753e-01, -4.846821427e-01, -3.819824159e-01, -5.804691836e-02, -9.028714895e-01, 2.540630698e-01, 3.565754294e-01, -3.570597470e-01, 5.763059855e-01, -4.146620035e-01, 3.556537926e-01, -3.081184864e+00, 9.106111526e-01, -3.071164191e-01, -1.398278832e+00, -4.320775270e-01, 2.007370070e-02, 2.725782692e-01, 2.887374759e-01, -8.929514885e-02, -6.191069484e-01, -1.592643261e-01, 8.212528192e-03, -2.744621038e-01, -1.426994801e-01, 8.502191305e-01, 1.195918679e+00, -1.610518336e+00, 3.082714677e-01, -1.842980385e+00, -8.506677300e-02, -8.595716357e-01, 5.864565372e-01, 2.278442234e-01}, {4.174962342e-01, -2.949964404e-01, 4.051600099e-01, 6.123685241e-01, 5.085031390e-01, -9.999503493e-01, 9.477052838e-02, 9.260202646e-01, 1.160765290e+00, -1.653186917e+00, 6.560099125e-02, -3.851537108e-01, 3.218860030e-01, 1.792533100e-01, -3.224270046e-02, -4.729028642e-01, -1.849216461e+00, 8.060018420e-01, -7.470332384e-01, -1.706064463e+00, 7.533154488e-01, -4.254767895e-01, -2.466846257e-02, -4.482561946e-01, 7.010883093e-01, 6.238483191e-01, -1.203901619e-01, -7.142488658e-02, -2.883394063e-01, 5.781080723e-01, -3.738591969e-01, 5.625267625e-01, -1.258726597e+00, -4.719882607e-01, 3.300922364e-02, 9.354546070e-01, 6.356332302e-01, 1.403727382e-02, 1.925524622e-01, -1.430961043e-01, -9.363689274e-02, 4.201739132e-01, -4.152990878e-01, -1.357525736e-01, 2.161844730e+00, 4.128657579e-01, -2.380003035e-01, -1.587817073e-01, -4.950646758e-01, -7.211923599e-02, 1.805434227e-01, -4.128463268e-01, -6.336691380e-01, 5.925152302e-01, 2.702212334e-01, -5.567698956e+00, -9.625775814e-01, 7.815995067e-02, -4.597240984e-01, -3.363156080e+00, 6.691543758e-02, -3.934205770e-01, -3.034419417e-01, -3.095141947e-01, 5.719018355e-02, 5.182603002e-02, -1.257103801e+00, 3.136714995e-01, 9.894239902e-01, -1.849836826e+00, -5.322990194e-02, -2.267208993e-01, -1.833817363e+00, 1.569486111e-01, -3.181998432e-01, 1.743445277e+00, -3.501891792e-01, -7.591952682e-01, -1.052419066e+00, 1.612340808e-01, 1.718327761e+00, 1.024104729e-01, -1.697832495e-01, -2.971727550e-01, 1.486476790e-02, -2.184640765e-01, 6.729924679e-01, -2.655801475e-01, -1.361848354e+00, 3.037497103e-01, -3.541070819e-01, -2.246402800e-01, 1.049786806e+00, 1.319417715e+00, 3.082453310e-01, -2.194827199e-01, -3.202926517e-01, -7.034164667e-02, 1.447864056e+00, 5.301198363e-02, -9.375866055e-01, 5.358214974e-01, 7.370096445e-02, 5.853474885e-02, -7.768259645e-01, 5.293040350e-02, -1.260439277e+00, 3.491138220e-01, -1.558892608e+00, -2.303365916e-01, 9.765836596e-02, 3.052894399e-02, -1.617484808e+00, -2.361214876e+00, 9.855619669e-01, -1.156030059e+00, 3.635121584e-01, 4.246872067e-01, -1.739007235e+00, -2.425250053e+00}, {8.667101264e-01, -1.698324323e+00, 1.285073876e+00, 4.646322429e-01, 1.150014281e+00, 1.284090281e-01, -4.475978851e+00, 1.014403105e+00, 1.069894552e+00, 1.478024721e+00, 1.092483282e+00, -6.482028961e-01, -7.545037270e-01, 2.930604517e-01, 6.049841046e-01, 8.296245337e-01, 5.856221318e-01, 6.455135942e-01, 6.782519221e-01, -5.205005407e-01, -8.256733418e-01, -4.338572323e-01, -1.344625950e+00, -1.232616082e-01, -9.475042671e-02, -4.275429845e-01, 6.409008503e-01, 8.920490146e-01, -1.326294303e+00, 4.721251130e-01, -6.941797137e-01, 1.787433177e-01, 1.755569816e+00, 5.753037333e-01, -2.611533701e-01, -9.064251184e-01, -6.759238839e-01, 3.338955343e-01, -7.825800776e-01, 1.967942864e-01, 2.699179053e-01, 8.987907320e-03, 4.327577353e-01, 1.113900304e+00, 1.260911942e+00, 6.174853444e-01, -1.551767886e-01, -3.404955938e-02, -2.974439144e+00, -1.637901306e+00, -1.201406240e+00, -7.566413879e-01, 7.191875577e-01, 1.228380874e-01, 7.717866898e-01, -8.665912785e-03, -1.566332340e+00, 4.760046303e-01, -4.563806653e-01, 3.803730011e-01, -9.419066310e-01, -1.093838573e+00, 4.879207015e-01, -1.070218325e+00, 5.113432407e-01, 3.233223259e-01, -2.828854620e-01, -1.177031517e+00, -1.543814838e-01, -1.537857354e-01, 5.821839571e-01, -1.777974218e-01, 2.743800282e-01, 7.387861013e-01, -8.901471496e-01, -4.957058728e-01, -8.190389276e-01, 1.368791103e+00, -4.017904699e-01, 3.783862591e-01, -9.032566547e-01, -1.065839902e-01, -2.586150169e-01, -1.490690827e+00, -3.867475688e-01, -8.118831515e-01, 1.403988361e+00, -1.383762240e+00, -2.581527472e+00, -2.635655403e-01, -6.475206375e+00, -8.786471486e-01, 2.128229290e-01, 4.069813490e-01, 1.990023971e+00, 1.150601745e+00, 3.191273212e-01, 8.628797531e-01, -1.560986042e-01, 3.514797688e-01, 8.733008504e-01, -1.932362020e-01, -5.546677709e-01, 3.393572569e-02, -2.304695100e-01, -1.041624248e-01, -2.875247300e-01, -8.741737604e-01, -3.264433444e-01, -8.696182966e-01, -3.187914193e-01, -1.039178610e+00, -3.148430288e-01, 1.225645188e-02, -1.659932882e-01, 4.094735384e-01, -6.579883695e-01, -9.005410969e-02, 3.005989827e-02, 3.709783852e-01}, {-4.159783423e-01, -3.846515715e-01, 3.863452673e-01, -5.355477333e-01, 2.361011207e-01, -5.454856157e-01, -2.051305056e+00, 8.792447299e-02, -6.823843122e-01, 3.879031837e-01, -1.747915894e-01, 2.863341570e-01, 2.009356916e-01, -3.929386437e-01, 1.609234214e-01, 3.440251648e-01, -7.469141483e-01, -1.199023128e+00, 1.166466400e-01, -6.136882305e-01, -4.659147263e-01, 5.320968628e-01, -2.500705235e-02, 5.906004310e-01, -6.995456219e-01, -5.127081871e-01, -1.814277917e-01, -6.198627949e-01, -6.718563437e-01, 1.223164678e+00, 1.674509943e-01, 2.469820827e-01, 7.431173921e-01, -1.109576821e+00, 2.939873748e-02, -8.066164851e-01, 1.294939160e+00, -2.112432718e-01, 6.465172768e-01, -1.325080037e+00, -9.252052903e-01, -5.668376684e-01, -1.433532834e+00, -2.187672704e-01, -1.061886907e+00, 2.837228477e-01, -2.194806933e-01, 4.296734333e-01, -9.583903551e-01, -1.544795036e-01, -9.946402311e-01, -5.203324556e-01, 7.682546377e-01, 1.364443749e-01, 8.525447920e-03, 3.838391304e-01, -8.355072737e-01, 1.141338330e-02, 4.713088870e-01, -6.774873286e-02, 5.578822643e-02, -4.855030775e-01, -1.070446014e+00, 8.030794263e-01, 1.197769880e+00, -3.940082788e-01, 9.132565558e-02, 8.303107619e-01, -2.687260509e-01, 7.224494815e-01, 7.403487712e-02, -7.440318912e-02, -5.977430344e-01, 1.181391120e+00, 9.491282701e-01, 3.208516836e-01, -5.383498073e-01, -6.998550147e-02, 6.291755708e-04, -2.414471656e-02, -7.171634436e-01, 1.157476306e-01, -5.092751980e-01, 4.759564996e-01, 4.040908813e-01, 3.619496524e-01, 7.366395593e-01, -3.580839336e-01, -9.081348181e-01, -2.737552822e-01, -3.680456877e-01, 7.704048157e-01, 9.779871255e-02, -1.304522064e-02, 4.754026532e-01, 3.269301653e-01, -2.205579579e-01, -3.327699184e+00, 3.126147985e-01, -3.790241778e-01, -7.859014869e-01, -4.288524091e-01, -1.589936465e-01, 2.215535343e-01, -8.944744468e-01, 9.591170587e-03, 1.193638146e-01, 1.377652884e-01, -5.026958585e-01, 4.281204566e-02, -5.999363959e-02, 1.344929099e+00, 4.836753905e-01, 1.443134248e-01, 2.075921893e-01, 3.956460953e-01, 3.733620942e-01, 5.167323947e-01, 4.334197938e-01, 3.945198059e-01}, {1.507736146e-01, -1.524766386e-01, -2.786678076e-02, 2.329878360e-01, -3.399592638e-01, 3.587560058e-01, -2.693047002e-02, 1.679162830e-01, -1.287532449e-01, -3.802025616e-01, 7.309390903e-01, -3.070060909e-01, -3.723674268e-02, 3.865163028e-01, -4.800700545e-01, 8.459117264e-02, -6.303503513e-01, -1.478577554e-01, -5.303965807e-01, 1.444746088e-02, -1.028164029e-01, -7.815377712e-01, -1.198492423e-01, -1.152016521e+00, 1.358163953e-01, 6.650751233e-01, -5.916239619e-01, -5.106065273e-01, 1.747163981e-01, -4.791002870e-01, 4.778076112e-01, 4.228002951e-02, -5.692682862e-01, -1.409837231e-02, -2.102572024e-01, 3.147727251e-02, -2.640401572e-02, -4.650850892e-01, 1.932058036e-01, 3.714295626e-01, 1.438407898e-01, 4.962986708e-01, -2.161636949e-01, -3.940831125e-01, -8.777942858e-04, -6.273851395e-01, 2.480742931e-01, -5.074028373e-01, -5.349122286e-01, -2.909430563e-01, -1.005114466e-01, 3.225984275e-01, -1.186851263e+00, 1.307179034e-01, 1.642860919e-01, -1.097114012e-01, -1.464749426e-01, 5.399135947e-01, 7.398141623e-01, -1.102907300e+00, -6.004557610e-01, -2.459277958e-01, -4.922281802e-01, -1.890598416e+00, -6.630843878e-01, 4.051972032e-01, -5.146166086e-01, 5.604587495e-02, 4.043276310e-01, -9.897859693e-01, -2.209509015e-01, 1.958755851e-01, -6.452533603e-01, 3.371667117e-02, 4.278749824e-01, -9.840773791e-02, 1.512369961e-01, -3.200892210e-01, 7.591884583e-02, -5.329977870e-01, 4.871492088e-01, -9.926531464e-02, 5.229378864e-02, 9.489784949e-03, 1.640345901e-01, 2.464201003e-01, 2.067354470e-01, 1.934998780e-01, 2.537460029e-01, 5.605988204e-02, 1.039111257e+00, 1.897488683e-01, -3.179374337e-01, 2.393025458e-01, 3.274908522e-03, -6.464502811e-01, -6.241122484e-01, -2.297778428e-01, -4.123199284e-01, 1.277944148e-01, 2.390549891e-02, -1.072264314e-01, -7.198746800e-01, 4.964743257e-01, 3.019578941e-02, 5.975635052e-01, -7.908226252e-01, 3.053697050e-01, -7.130165696e-01, 3.081498146e-01, -3.450393677e-02, -1.094638109e-01, -1.275573611e+00, -1.423673034e+00, -7.982803136e-02, -2.774770260e-01, -1.340130419e-01, 2.744534016e-01, -8.856090307e-01, -8.891240358e-01}, {2.749561965e-01, -3.000656068e-01, -4.528634548e-01, -1.395284235e-01, -2.870314419e-01, -1.577650756e-01, -4.609768689e-01, -2.935414612e-01, 6.869395822e-02, -2.634416521e-01, 2.449475378e-01, -3.136471212e-01, -1.518721581e-01, 2.032780647e-02, -8.980198205e-02, -1.337108135e+00, 4.209856689e-02, 5.994211137e-02, 1.931975037e-01, -1.777745336e-01, 6.255705357e-01, -5.778805017e-01, -3.227449059e-01, -8.151833713e-02, 1.199406385e-01, 2.761960924e-01, -1.432714760e-01, -3.580529094e-01, -1.483089030e-01, 7.578441501e-01, 1.820441037e-01, 5.885193348e-01, -3.997989297e-01, -2.674990892e-01, 5.160660148e-01, 1.956228465e-01, -9.124875814e-02, 3.029501140e-01, -6.386680156e-02, 1.735033989e-01, 3.294487596e-01, -3.845395744e-01, -1.909851134e-01, -2.729383707e-01, -4.294008017e-01, -3.871760368e-01, 1.357383728e+00, 6.198578477e-01, 5.440395355e+00, -5.792193487e-02, -3.311365247e-01, 8.445704728e-02, 1.439599991e-01, -2.070526481e-01, -6.690140367e-01, -1.447032243e-01, -1.567127109e-01, 1.029570177e-01, 2.786268294e-01, -8.435828686e-01, 2.105821073e-01, -2.704495788e-01, 1.583471447e-01, 6.302807927e-01, -3.534383476e-01, -1.385838628e+00, -2.295716852e-01, 1.487981826e-01, 1.580837928e-02, 1.277902443e-02, -8.244085312e-02, 6.315752268e-01, 2.553794682e-01, 5.615875125e-01, 5.183801055e-01, 2.670200765e-01, -1.605050564e-01, -1.024713144e-01, 1.749713272e-01, -2.255390733e-01, -4.180427790e-01, -2.700941861e-01, -2.013938501e-02, -1.284629689e-03, 2.104262710e-01, -6.349830627e-01, 9.675772488e-02, -6.773096919e-01, 1.656057686e-01, -6.425535679e-01, -9.172921628e-02, -1.125002280e-01, -1.353041530e-01, -1.123930961e-01, -1.398806721e-01, -2.378547043e-01, 1.741962880e-01, -1.245755553e+00, 