#include "nn_parameters.h"

// NN network parameters -- atribute values
const float weights_in[NUM_NODES][NUM_STATES] = {{6.373652816e-02, -3.830707073e-02, 1.541251242e-01, -9.990411997e-02, -4.712728411e-02, -2.732347846e-01, -1.318958551e-01, 3.052592576e-01, 3.679290786e-02, 1.433525383e-01, -4.120932892e-02, -2.119776607e-01, -8.191350847e-02, 4.458372667e-02, -3.123877198e-02}, {-2.907496989e-01, -2.248197794e-01, -2.961256355e-02, 2.182880193e-01, 2.118981481e-01, 2.166834660e-02, 3.547093868e-01, -4.793399274e-01, 1.462984830e-01, -2.517022192e-01, -1.018036250e-02, -3.829005361e-02, -3.053620160e-01, 2.335287258e-02, 2.697221935e-01}, {-1.489759386e-01, -1.790198125e-02, 4.403884814e-04, 6.608117372e-02, 3.686807351e-03, -9.687263519e-03, -9.861384332e-02, -2.675160468e-01, 4.197140783e-02, -2.143793553e-01, -2.221953036e-04, -3.424703777e-01, -2.283177078e-01, 3.450480700e-01, 2.590310872e-01}, {-2.851208858e-02, 2.193081528e-01, -4.043873772e-02, -2.238382958e-02, -4.979176521e-01, 1.800671034e-02, -3.207883537e-01, -1.379465610e-01, -1.148696244e-01, 1.001719981e-01, 5.545042828e-02, -8.533108979e-02, -2.889165282e-01, 3.721910715e-02, 2.971208990e-01}, {-7.248066366e-02, 1.057255641e-01, 1.556889564e-01, -2.890115418e-02, -4.479067028e-02, -1.192378029e-01, -1.263427585e-01, -1.527126133e-01, 1.513665169e-02, 4.652331024e-02, -4.200113472e-03, -1.596294343e-01, 2.054804564e-01, 4.601235390e-01, 2.832372300e-02}, {1.714244485e-01, -1.438077390e-01, -1.001489628e-02, -2.201307863e-01, -4.934460390e-03, 7.572000474e-02, 7.890726440e-03, 1.650555283e-01, -3.321636915e-01, 3.059222698e-01, -3.158963472e-02, -1.327161491e-01, -5.997762457e-02, 1.601852924e-01, -1.459696442e-01}, {3.811234534e-01, -2.467575818e-01, -1.402719468e-01, -1.771235913e-01, 1.256397516e-01, 8.534601331e-02, 9.963374585e-02, 1.917714477e-01, 1.002806351e-01, 1.656786352e-01, 6.301564723e-02, -5.409057438e-02, -6.544703990e-02, -2.864637412e-02, 6.906497478e-02}, {1.488573197e-02, 9.174925834e-02, -1.762565076e-01, -7.904695719e-02, -1.107182130e-01, 2.668402493e-01, -1.417441517e-01, 5.579525232e-02, 1.262590289e-01, -1.616726518e-01, 5.880116671e-02, -2.960771918e-01, 1.122798026e-01, -2.241869122e-01, -2.615188658e-01}, {-4.894820452e-01, -3.117794171e-02, 3.241146356e-02, 2.335869223e-01, 4.550935701e-02, -9.316248447e-02, -2.395887822e-01, 6.358245015e-02, -1.807187051e-01, 4.482620582e-02, 1.351062655e-01, 1.165072550e-03, 5.558658391e-02, 1.813901365e-01, -1.774379760e-01}, {-8.484317064e-01, 4.262380004e-01, 1.971763819e-01, 5.670114160e-01, -8.822265267e-02, -7.418654859e-02, 2.860336751e-02, -8.543632179e-02, -1.379188430e-02, 3.428406641e-02, 8.207305800e-04, -6.600732915e-03, -2.312193252e-02, -5.190627649e-03, 5.012920126e-02}, {-1.862112880e-01, -3.897107542e-01, -9.177296609e-02, 1.435839683e-01, 1.651919335e-01, 9.372660518e-02, 4.720513523e-01, -7.520106435e-02, 2.832848430e-01, -9.822241217e-02, 3.809947148e-02, 8.646836132e-02, -1.417378187e-01, -5.174818262e-02, 1.216283888e-01}, {4.948495328e-01, 5.788078904e-01, 4.139619414e-03, -4.476853609e-01, -4.404741526e-01, 4.633939825e-03, -4.665987566e-02, 1.913509145e-02, 1.223563179e-01, -9.930697829e-02, 4.261010885e-02, -1.192926243e-02, 4.894316196e-02, 2.015803242e-03, -1.110743545e-02}, {1.997338422e-02, 2.700809836e-01, 6.618329324e-03, -5.058118608e-03, -1.575271487e-01, -2.317902865e-03, -3.550434411e-01, 1.395517141e-01, 1.746846586e-01, -1.792837083e-01, 2.323481441e-01, -1.363313794e-01, -2.400253154e-02, -5.024068803e-02, 3.766195849e-02}, {-1.483739167e-01, -1.943776459e-01, -3.933386132e-02, 2.056791484e-01, 8.790745586e-02, 3.444916382e-02, 1.116241291e-01, -1.771980226e-01, -4.668467343e-01, -2.814638913e-01, -1.153132692e-02, 6.295596063e-02, 1.203894466e-01, 1.180786714e-01, -2.147665620e-02}, {-2.603648603e-02, 1.281940043e-01, -3.820798593e-03, -1.174324304e-01, -1.337174326e-02, 7.064679265e-02, -5.358607695e-02, 3.600149602e-02, -2.476817369e-01, 2.582489252e-01, 2.361710556e-02, -7.419982553e-02, -9.650056250e-03, -7.662139833e-02, -1.728495806e-01}, {-2.784626186e-01, -3.146509230e-01, 3.298584223e-01, -2.974360064e-02, 4.054076672e-01, -2.353488803e-01, 2.442136556e-01, 1.531059593e-01, 1.101835519e-01, 1.772691011e-01, -5.303845927e-02, 1.089092903e-02, -2.475488372e-02, 5.026526749e-02, 9.055999666e-02}, {-3.278797120e-02, 1.705410928e-01, -1.887991279e-01, -1.539774090e-01, -2.053295821e-01, 2.702839971e-01, 8.801633120e-02, 2.602807581e-01, 1.060070768e-01, -2.086863071e-01, -6.420420110e-02, -5.741449818e-02, -1.097068116e-01, -1.754625142e-02, 1.888199002e-01}, {4.407016933e-02, -1.423009634e-01, -1.384904049e-02, -1.055435911e-01, 1.786143333e-01, 3.192530246e-03, 1.711166501e-01, 9.808042645e-02, -1.955891252e-01, -1.055730283e-01, -2.561240457e-03, 2.633541226e-01, -1.898027658e-01, -2.792998254e-01, 5.017259717e-02}, {-9.621193260e-02, -2.597997487e-01, -2.521335781e-01, 1.620385647e-01, 2.798290253e-01, 2.832622826e-01, 1.855024695e-01, -5.274219811e-02, -1.268987805e-01, 6.780757010e-02, 1.172439847e-02, -1.606722623e-01, 7.286714017e-02, -1.711772978e-01, -3.085388243e-01}, {3.406940103e-01, 1.194338799e-01, 1.554208458e-03, -2.061013579e-01, -7.965689898e-02, -4.684210289e-03, -1.680234373e-01, 3.867509961e-01, -6.755815446e-02, 2.430985570e-01, -4.705364257e-02, 7.039570482e-04, 3.928318620e-02, 3.114143945e-02, -6.171883643e-02}, {-1.900008321e-01, 7.259885669e-01, 9.986180067e-02, 1.195154563e-01, -4.092633724e-01, -3.510646895e-02, -6.139842793e-02, -9.666403756e-03, -1.234099343e-01, -1.109300479e-01, -1.855894551e-02, 1.010743994e-02, -2.761169337e-02, -2.168253437e-02, 1.902093180e-02}, {4.454276711e-02, -9.796468914e-02, -4.071385041e-02, 1.087495461e-01, -6.199833006e-02, 8.124701679e-02, -2.196647972e-01, -2.889027894e-01, -1.207407936e-01, -2.424901724e-01, -3.926847503e-02, 1.148194596e-01, -1.256307028e-02, 1.310075633e-02, 1.819462329e-01}, {-6.377604604e-02, -1.156817600e-01, -1.798941493e-01, 1.428797375e-02, -1.692005247e-01, 2.015451491e-01, -1.940752268e-01, 1.629106998e-01, 7.964016497e-02, 1.207069382e-01, 9.168941528e-02, 1.393092573e-01, 7.044114918e-02, -9.440691024e-02, -1.597549915e-01}, {-6.940706819e-02, 2.853463590e-01, 2.316336904e-04, -3.669374064e-02, -3.090449274e-01, -3.986919671e-02, -3.572579324e-01, 2.126017511e-01, -1.312477887e-01, 7.369522005e-02, -3.059340827e-02, -3.265117109e-02, 1.638623625e-01, 1.410333365e-01, -2.018300891e-01}, {-1.220951416e-02, -3.451969847e-02, -3.545758128e-02, 6.666199118e-02, 2.382714860e-02, 2.233237028e-02, -5.047921091e-02, 5.166458338e-02, 1.115050018e-01, -6.470692158e-02, -4.653120413e-02, 1.781427115e-01, -2.638573349e-01, 1.113594919e-01, -3.817650676e-01}, {-3.900313675e-01, -1.811309755e-01, -1.703804545e-02, 3.191974163e-01, 1.754489094e-01, 2.956554666e-02, 3.531870246e-02, -2.601818740e-01, 5.318349600e-02, -1.557694823e-01, -9.047368541e-03, -8.486650139e-02, 2.298273891e-01, 6.775575131e-02, -2.028771788e-01}, {3.520193398e-01, 5.731075071e-03, 9.873434901e-02, -3.392549157e-01, -2.779957950e-01, -8.089832217e-02, -4.671098888e-01, 3.219839931e-01, -1.403418034e-01, 1.020081416e-01, -1.565018855e-02, 7.185315248e-03, 1.535802335e-01, 6.217472255e-02, -1.399641186e-01}, {-9.646731615e-01, -5.774023533e-01, 2.599393716e-03, 3.242631853e-01, 1.617503613e-01, 2.547794487e-03, -2.514885552e-02, 1.357944496e-02, 3.770794719e-03, 5.279218312e-03, 1.631978340e-02, -1.252214611e-02, 1.747559197e-02, -1.385514718e-02, -5.413522944e-02}, {-2.110938132e-01, 2.119267136e-01, 1.090166718e-02, 3.429746628e-01, -1.771889925e-01, 6.236770004e-02, -1.756903827e-01, -2.199237496e-01, 7.392265648e-02, 1.362799704e-01, -1.768925809e-03, -1.361303777e-01, -1.340489089e-01, 9.298440814e-02, 3.094625100e-02}, {2.514925785e-02, 4.207350686e-02, 9.424027801e-02, 1.917585358e-02, 6.983362138e-02, -2.060331255e-01, -7.772476971e-02, -2.657266520e-02, 1.200475767e-01, -3.362876177e-02, -3.253226867e-03, 2.311441004e-01, 2.985345125e-01, 2.445968539e-01, 1.880951822e-01}, {2.010319382e-02, 1.390681863e-01, -2.973618209e-01, 1.836923361e-01, 3.514316678e-02, 2.093290538e-01, 1.360409409e-01, -2.121510506e-01, 1.033769175e-01, -2.517871559e-01, -6.281983107e-02, 2.161325514e-01, 2.074147202e-02, -2.234228104e-01, -5.195544660e-02}, {4.165421426e-02, -3.111011088e-01, 1.581634209e-02, 5.149449036e-02, 1.263151020e-01, 3.399832407e-03, 4.037619829e-01, 9.957433492e-02, 1.462720186e-01, -5.737001449e-02, 2.470476739e-02, 2.551985681e-01, -9.209385142e-03, -3.661707640e-01, 2.839469910e-01}, {1.456707120e-01, 2.604894340e-01, -7.440887392e-02, -7.480680197e-02, -2.265697569e-01, 4.655465856e-02, -2.987372577e-01, 1.609146595e-01, -3.000783920e-01, 1.634016335e-01, 1.007118262e-02, -1.916495562e-01, 4.026296139e-01, 1.791795343e-01, -3.857612312e-01}, {-7.411199063e-02, -4.486465827e-02, 5.660791323e-02, 2.222855948e-02, -1.034895540e-03, -1.786849499e-01, 2.482174523e-02, -7.588714361e-02, -1.046007732e-03, -2.982869744e-02, -2.588263154e-02, -1.642281711e-01, 4.635110125e-02, -9.910702705e-02, 7.202827185e-02}, {-2.919235826e-01, 1.023023203e-01, -9.608858079e-02, 4.016583562e-01, -1.204551533e-01, 6.628589332e-02, -4.753778130e-02, -2.403378189e-01, 1.342704743e-01, 2.997023463e-01, -3.950712457e-02, 1.354242712e-01, 8.334666491e-03, -1.286171675e-01, 1.199010573e-02}, {9.654620290e-01, 9.369277954e-02, 7.343274355e-02, -4.286453724e-01, 9.145012125e-03, 1.003315765e-02, -1.587479189e-02, 4.421906918e-02, 1.234926376e-02, 1.851703785e-02, 6.701372564e-03, -3.883776069e-02, -6.077700760e-03, 1.376849250e-03, 3.354158485e-03}, {1.080004871e-01, 1.272386014e-01, 3.166542156e-03, 1.920288987e-02, -1.526707560e-01, -9.320100769e-03, -2.417261302e-01, 1.965882778e-01, -2.125149518e-01, 1.261540651e-01, 6.044353917e-02, -2.370833009e-01, 3.609647751e-01, -2.026354373e-01, -4.338114709e-02}, {5.899017304e-02, -8.721974492e-02, 1.277429312e-01, 9.348323941e-02, 3.371159136e-01, -1.428331435e-01, 2.382803559e-01, -3.262554109e-01, 1.578245610e-01, -1.897496730e-01, -8.495093137e-02, 1.640284210e-01, -1.786207855e-01, -3.828446195e-02, 9.375551343e-02}, {4.133582115e-02, -1.781562716e-01, -3.063853364e-03, -2.481107116e-01, -2.064746171e-01, 2.415875159e-02, -4.547808766e-01, -1.759013683e-01, -2.025919855e-01, -1.251408607e-01, -1.200220659e-01, -1.215461940e-01, 5.237085372e-02, 1.243418083e-01, -4.091189802e-02}, {1.308199465e-01, 1.049125288e-02, -3.600490838e-02, -3.020616174e-01, 5.942420661e-02, 6.343337893e-02, 5.155558884e-02, 1.139436439e-01, -5.777750164e-03, -3.794923052e-02, 8.771766722e-02, -1.067838818e-01, 4.052372649e-02, 8.719199151e-02, 5.179404467e-02}, {1.729248017e-01, -1.921548694e-01, 4.295872524e-02, -8.230628818e-02, 1.875870675e-01, -3.259815648e-02, 2.723871768e-01, 2.399876714e-01, 2.167519182e-01, 1.505853832e-01, -2.713995986e-03, -3.391318768e-02, 1.516969800e-01, 6.683800835e-03, -7.758706063e-02}, {7.104228735e-01, 1.668277830e-01, -2.784082852e-02, -1.682476401e-01, -1.271874160e-01, 1.091714948e-02, -1.848152578e-01, -2.207384557e-01, -6.850911677e-02, -1.188832521e-01, -1.565186121e-02, -1.057131812e-01, -2.560755005e-03, 1.044762433e-01, 8.426395245e-03}, {-1.262380332e-01, 6.303253770e-02, 2.427183464e-02, 4.931588098e-02, 6.777279079e-02, -1.435099989e-01, 2.965074182e-01, 1.082699969e-01, 2.119343579e-01, 1.732930839e-01, 4.687618464e-02, -2.589682303e-02, -2.591572702e-02, -1.684596986e-01, -1.364445686e-01}, {-9.547222853e-01, -4.562999904e-01, 6.468036771e-02, 2.870804667e-01, 1.001516804e-01, -3.653975902e-03, 3.226853535e-02, 1.475493144e-02, 1.267349813e-02, 9.733122773e-03, 8.658861741e-03, 6.112189963e-03, -1.549245510e-02, -1.599298976e-02, 1.481334306e-02}, {-5.471100286e-02, 2.892083675e-02, 2.059109360e-01, 1.934398115e-01, -1.910837926e-02, -1.759697795e-01, -1.406317111e-02, -1.782271117e-01, -5.087853968e-02, -2.515186071e-01, 3.275036439e-02, 1.942684650e-01, 2.019259483e-01, -2.283834517e-01, -3.429812491e-01}, {-6.971707344e-01, 5.653545260e-01, 1.596660540e-02, 1.299762577e-01, -2.267242074e-01, 4.509627819e-03, 1.595179178e-02, 8.052678406e-02, 2.819336660e-04, 3.962902725e-02, -1.039382163e-02, 3.752602264e-02, 3.207665309e-02, -5.778384954e-02, 1.331426669e-02}, {-3.049130440e-01, -5.859718323e-01, -1.057853028e-01, 4.502053559e-01, -1.733725518e-01, -1.303139050e-02, -2.999430597e-01, -3.794135153e-01, -1.006394178e-01, -1.658945382e-01, 7.374840230e-02, -1.269814372e-01, -8.675211109e-03, 1.204600111e-01, -1.627840102e-03}, {-1.528509706e-01, 2.501798570e-01, -3.417802509e-04, -3.850028291e-02, 4.813863337e-02, 1.398023032e-02, 1.987440139e-01, -1.975780278e-01, -1.594908983e-01, -1.065519303e-01, -4.804599285e-02, -1.831867397e-01, 9.292422235e-02, 4.419323802e-02, -6.077942252e-02}, {-1.140822172e-01, 4.131812751e-01, -2.706228755e-02, 8.297351003e-02, -2.542617619e-01, 3.902250528e-02, -4.226828218e-01, -5.351331085e-02, -1.226820573e-01, -3.201449662e-02, -4.517144058e-03, 1.486720443e-01, 5.577690899e-02, -1.883407682e-01, -2.569470182e-02}, {-9.985239059e-02, -1.719915122e-01, 6.029969081e-02, 1.207880750e-01, 2.932974696e-01, -5.850487575e-02, 1.391080171e-01, -1.162171289e-01, -1.628593355e-01, -4.383113235e-02, 1.843070239e-02, -2.850913703e-01, 3.490101397e-01, 3.173837662e-01, -2.593281269e-01}, {-2.987345867e-02, 1.124409437e-01, 1.655185074e-01, -1.644254848e-02, -1.979153454e-01, -1.044606045e-01, -1.217467710e-01, -7.076352835e-02, -2.678293884e-01, 4.749325663e-02, 1.398105770e-01, -1.645957492e-02, 2.071609199e-01, 5.099137500e-02, 1.497101635e-01}, {-3.122011258e-04, -1.437761486e-01, 5.354391783e-02, -5.265101418e-02, 1.255365312e-01, -1.040781140e-01, 1.500729024e-01, 5.137270316e-02, 1.223286614e-01, 2.318623960e-01, -6.641345471e-02, -8.330170065e-02, -1.433722824e-01, 5.225479230e-02, -8.337806910e-02}, {1.621753424e-01, 4.166910052e-01, 5.508440360e-02, -4.818201065e-02, -2.845697999e-01, -4.933458567e-02, -3.355430961e-01, 1.065233052e-01, -4.004428983e-01, -1.482643485e-01, -3.566014022e-02, -1.666741967e-01, 6.764935702e-02, 1.462628990e-01, -1.011901423e-01}, {-3.124176562e-01, 3.513913602e-02, -1.402025819e-01, 2.474708855e-01, -1.356821060e-01, 1.071737558e-01, 2.864698879e-03, -2.522845566e-01, -1.793646626e-02, -1.561849029e-03, -2.451357245e-01, 2.625576258e-01, -3.791770339e-01, 1.261294186e-01, -1.969432235e-01}, {-6.183820218e-02, -9.562052786e-02, 1.989146769e-01, 2.294171453e-01, 2.708857656e-01, -8.628772944e-02, 9.944147617e-02, -1.054535583e-01, 1.196043268e-01, -1.172525436e-01, 1.799281240e-01, -4.706123099e-02, 4.558390379e-02, -6.888987124e-02, 1.559168696e-01}, {-2.186105102e-01, -4.733868316e-02, 4.092295468e-02, -2.362527698e-01, -2.677268088e-01, 5.096251890e-02, -1.398975551e-01, 2.157480717e-01, 2.910638414e-02, -5.341090634e-02, -3.023940697e-02, -7.170715183e-02, 7.437154651e-02, -8.757065982e-02, 3.120980458e-03}, {-4.547154307e-01, 4.745357037e-01, 1.246895641e-01, 1.622891724e-01, -3.417606652e-02, 2.072935179e-02, 2.319877148e-01, 1.632813066e-01, 1.417455077e-01, 5.476042628e-02, 6.161304191e-03, 9.863115847e-02, -3.181941435e-02, -1.248432249e-01, 3.735364974e-02}, {9.945430793e-03, 6.509276479e-02, 9.697902948e-02, 3.164760768e-02, -6.420430541e-02, -1.087264121e-01, 3.174691275e-02, -3.099722601e-02, -1.067552641e-01, -7.412195951e-02, -1.136402693e-02, -1.981592774e-01, -2.304094285e-01, 3.194845915e-01, 2.849494517e-01}, {2.609986365e-01, -9.252605587e-02, 7.548145205e-02, -1.945278347e-01, -5.224343040e-04, -8.236095309e-02, 6.854952872e-02, 2.144846320e-01, -7.620435208e-03, 1.148950234e-01, -1.785325855e-01, 2.846391201e-01, -1.020072699e-01, 1.901984811e-01, -2.001628280e-01}, {8.900568634e-02, 6.402732134e-01, 1.326189190e-01, -8.044841886e-02, -4.488364458e-01, -1.514264047e-01, 2.196750343e-01, 8.794344962e-02, 1.031589359e-01, -1.009266227e-01, -4.948839173e-02, -3.590099141e-02, 3.918493539e-02, 6.740804017e-02, -1.282835752e-01}, {-3.110672832e-01, -1.650318205e-01, 1.172604971e-02, 1.317897886e-01, 1.271914393e-01, -4.870533571e-02, 2.049497217e-01, -2.107596248e-01, -1.280181110e-02, 1.174366623e-01, 1.976766139e-01, -1.041562576e-02, 1.326698512e-01, -2.137058079e-01, 1.584647149e-01}, {2.739813626e-01, -3.485050201e-01, 1.763996854e-02, -3.668219447e-01, 4.377949536e-01, -1.327544004e-01, 2.085743546e-01, 6.715688854e-02, -8.895523101e-02, -1.087469161e-01, -3.917319328e-02, 3.100509383e-02, 1.882385090e-02, -4.947943985e-02, 4.268955812e-02}, {3.092992902e-01, -1.141262949e-01, -4.915362597e-02, -1.172955260e-01, 2.925145999e-02, -1.975075155e-02, -4.799456149e-02, 7.577807456e-02, -3.904079646e-02, -5.597228408e-01, 7.103988901e-03, -8.191575110e-02, 1.024501678e-02, 2.563472837e-02, 3.342969343e-02}, {3.301210701e-01, 1.454129536e-02, -4.716673866e-02, -6.010070816e-02, 3.331477195e-02, 2.220121771e-02, 6.566032022e-02, 3.233038634e-02, -2.151411958e-02, 2.775665820e-01, 3.126177238e-03, 1.062949970e-01, 5.728207901e-02, -3.018031083e-02, 7.681492250e-03}, {4.495148957e-01, -9.963071346e-01, 1.322983503e-01, -2.204946429e-01, 3.288443387e-01, -3.482615203e-02, 1.681259461e-02, 2.706025168e-02, 5.895532668e-03, 2.922707796e-02, 1.084059849e-02, -2.627367713e-02, -2.612958197e-03, -1.321377791e-02, -2.830110257e-03}, {1.184754223e-01, -3.714516163e-01, 2.597285211e-01, 9.595280886e-02, 1.150544658e-01, -1.916338354e-01, -2.049056739e-01, -2.600356638e-01, 1.077041924e-01, 1.654955298e-01, -1.270177402e-02, -1.168574691e-01, 1.347909495e-02, -3.855203046e-03, -7.547982782e-02}, {-5.935036540e-01, 1.266474724e-01, -1.548774987e-01, 2.286166996e-01, -8.146105707e-02, 2.782613784e-02, -5.538826808e-02, -9.197678417e-02, 1.723871529e-01, 5.031315610e-02, -1.342923939e-02, -1.274772584e-01, 1.788553968e-02, 1.305788010e-01, -2.610650100e-02}, {1.019210577e+00, -5.729644895e-01, 1.163328514e-01, -1.611809582e-01, 1.102980524e-01, -2.466610447e-02, -1.368379686e-02, -9.173735976e-03, -4.040870816e-03, -1.754275896e-02, -2.201456763e-02, -5.736517906e-02, -5.729557946e-03, 2.435823157e-02, 1.503043808e-02}, {1.656572819e-01, 1.027892470e+00, -5.286721513e-02, -7.991500944e-02, -4.540216923e-01, -8.998431265e-03, 5.383862555e-02, -2.332404628e-02, 2.632012032e-02, -7.552218437e-02, 2.755356394e-02, 2.442604303e-02, 7.792115677e-03, 1.331553888e-02, -4.438987374e-02}, {-4.636224806e-01, -1.811636090e-01, -8.473093808e-02, 4.362060428e-01, 1.087592319e-01, 1.674035005e-02, -2.248399556e-01, -1.178126261e-01, -8.460257202e-02, -2.860151976e-02, 1.066591144e-01, -8.304841816e-03, 1.857998967e-01, 1.093794182e-01, 1.223218888e-01}, {-2.362313271e-01, -1.268394738e-01, -6.863284111e-02, 9.583599120e-02, 2.599122226e-01, 1.091113165e-01, 1.674662977e-01, -1.481119841e-01, 2.171555758e-01, -1.219962314e-01, -3.810597956e-02, -1.485297084e-01, -8.530211449e-02, 1.197348461e-01, -1.585930139e-01}, {2.511521876e-01, 6.089318916e-02, 3.155916929e-02, -2.773721218e-01, 2.390503883e-02, 1.587015018e-02, 4.967372119e-02, 3.601185083e-01, -1.619302034e-01, 3.993980587e-01, -7.834337652e-02, 1.631527096e-01, -1.042985246e-01, -2.452059984e-01, 1.207448691e-01}, {-3.131478727e-01, -9.192324281e-01, -2.314521223e-01, 9.207220376e-02, 3.047050834e-01, 5.806406215e-02, -2.063675225e-02, -1.468433905e-02, 1.196472347e-02, 5.091217812e-03, -6.835637614e-04, -1.886953413e-02, 3.071453050e-02, 3.923001513e-02, -2.738754498e-03}, {-4.052880779e-02, -2.692356147e-02, -5.488493945e-03, -1.968750954e-01, -1.599218249e-01, 2.421684097e-03, 1.038842723e-01, -6.687678397e-02, 6.176641583e-01, -4.681587219e-01, -2.013657941e-03, 4.891045019e-02, -8.627916127e-02, -3.040939383e-02, 6.204981729e-02}, {1.194422096e-01, -1.693237424e-01, 7.131098956e-02, -4.231964052e-02, 8.808191866e-02, -9.746816754e-02, 1.477882564e-01, 6.996843219e-02, 4.152088240e-02, -4.458557442e-02, 4.321752582e-03, -2.144860476e-02, -2.069194615e-01, -1.795401871e-01, -1.182767749e-01}, {1.443957239e-01, 2.231661975e-01, 1.591208130e-01, -1.948847771e-01, -1.357332766e-01, -8.673775196e-02, -1.913938075e-01, 1.659962386e-01, 2.890304662e-02, 1.114746407e-01, 6.435620785e-02, -4.662222788e-02, -9.990327060e-02, -7.848453522e-02, 2.685760334e-02}, {-3.891106248e-01, -3.691366315e-01, 1.985506527e-02, 1.783830225e-01, 1.162219122e-01, 1.824566349e-02, 7.887372375e-02, -1.239158809e-01, -9.517333657e-02, 7.824417204e-02, 4.713016748e-02, -1.475506574e-01, -7.698905468e-02, -8.668165654e-02, 1.486971080e-01}, {-4.728549719e-01, -5.510403514e-01, -1.070399489e-02, 7.122790813e-02, 1.111660525e-01, 2.060985658e-03, -9.540490061e-02, 1.682157964e-01, -5.834647268e-02, 4.253356904e-02, -2.203574032e-02, -5.733375438e-04, 4.537786916e-02, -4.899533838e-02, -6.419421732e-02}, {3.058250621e-02, -2.460678108e-02, -3.395689726e-01, 2.967668511e-02, 1.121472009e-02, 3.460557461e-01, 1.788395643e-01, -1.399281919e-01, 6.438042969e-02, -6.025276333e-02, -2.685433440e-02, -9.921212494e-02, 1.259762198e-01, 9.025826305e-02, 3.663279116e-02}, {3.197151423e-01, -4.156345725e-01, -1.578008831e-01, -2.222078145e-01, 3.514864743e-01, 1.139186770e-01, 2.581350505e-01, 4.110258445e-02, 2.967138030e-02, 3.260060027e-02, 7.388854772e-02, 8.032961935e-02, -1.339071691e-01, 1.620572805e-01, 6.721629947e-02}, {3.069619238e-01, -1.615075022e-01, -6.805334240e-02, -3.551095128e-01, 2.429188192e-01, 4.387997836e-02, 2.181200981e-01, 4.775467217e-01, 1.220661402e-01, 1.880848557e-01, 1.661267877e-02, 1.824425310e-01, 6.681729108e-02, -2.166128606e-01, -7.654430717e-02}, {-3.523530439e-03, -6.430942565e-02, 9.776899591e-03, 2.290581018e-01, -4.098133445e-01, 7.973310538e-03, 1.140884683e-02, 2.105115913e-03, 5.808227062e-01, 4.034082890e-01, 1.818296686e-02, 4.269131646e-02, -1.768729463e-02, -5.768136308e-02, 3.536092117e-02}, {1.311003268e-01, 1.981981546e-01, 1.597523242e-01, 2.636861522e-03, -1.947943717e-01, -1.601238996e-01, -7.955735177e-02, 2.524703443e-01, 1.892203689e-01, 3.276904523e-01, 2.972107008e-02, 3.593245447e-01, 1.625734270e-01, -3.129660487e-01, 4.634545371e-02}, {9.660711884e-02, 1.822681278e-01, -1.649071276e-01, -1.419476122e-01, -9.925700724e-02, 6.950193644e-02, 5.353279039e-02, 6.570435315e-02, -1.645919383e-01, -8.363393694e-02, -8.217266761e-03, 1.717711836e-01, -1.565344632e-02, -1.119388714e-01, 1.118310988e-01}, {-1.514539868e-01, 3.024028838e-01, -4.836975411e-02, 1.097570211e-01, -2.379097641e-01, 5.668605119e-02, -4.766956866e-01, -2.483103871e-01, -1.160162166e-01, -4.501027241e-02, 7.980408147e-03, -3.536130488e-01, 1.410152316e-01, 2.017781883e-01, -7.992117852e-02}, {-7.548592985e-02, 5.305314660e-01, 1.427258104e-01, -1.616773158e-01, -2.898478210e-01, -7.508007437e-02, 6.074553356e-02, 4.217182696e-01, -1.480161846e-01, 2.845799327e-01, 1.501403451e-01, -4.252773523e-02, -3.443525732e-02, -9.631976485e-02, -2.813496068e-02}, {1.456763297e-01, -2.512990236e-01, -9.194297716e-03, -9.309601039e-02, 4.819531441e-01, 2.719667368e-02, 4.418058097e-01, -4.028115794e-02, 3.328030407e-01, 2.439258248e-01, -3.270025179e-02, -6.542412937e-02, -6.295417249e-02, 1.393678039e-01, 3.265739977e-02}, {-2.730865479e-01, 7.201701403e-02, -2.420535237e-01, 2.497263625e-02, -3.164254427e-01, 1.532631963e-01, -1.628020704e-01, 2.565175295e-01, -3.070539236e-01, -2.334909737e-01, 1.866907626e-02, 9.646420926e-02, -1.342902333e-01, -1.950271726e-01, 1.097827703e-01}, {-1.940880716e-02, -8.931083232e-02, 1.015605479e-01, 5.525547266e-02, -7.554388046e-02, 1.334323287e-01, 3.582433239e-02, -3.096684515e-01, -1.208477318e-01, -1.982358396e-01, 1.309086531e-01, -8.542888612e-02, 4.404063802e-03, 6.107899919e-02, -1.496563200e-02}, {2.754226029e-01, 2.706158757e-01, -3.264102712e-02, -1.163516790e-01, 1.941232681e-01, 6.537351012e-02, 3.085466921e-01, 2.516847551e-01, -2.877653949e-02, -9.962198138e-02, 8.881413192e-02, 7.255174965e-02, -1.199442428e-02, -4.497756250e-03, 7.096904516e-02}, {7.205454260e-02, -2.399994135e-01, -4.269006848e-02, 1.749423146e-01, 3.196432590e-01, 1.179724708e-01, 1.940615922e-01, -3.621135140e-03, -3.142985702e-01, -6.289768964e-02, 5.290677771e-02, -4.778042808e-02, -8.170481026e-02, -3.247914836e-02, 3.582294658e-02}, {-3.508416414e-01, -9.309957176e-02, -1.406996399e-01, 2.077735215e-01, 1.543019712e-01, 1.632516235e-01, 9.623526037e-02, -1.277369261e-01, -1.643751264e-01, 7.624137402e-02, -8.698252589e-02, 1.071742363e-02, 1.812132150e-01, -2.493619546e-02, 7.369913161e-02}, {1.436382979e-01, 9.585809708e-02, -4.518119693e-01, -1.685982496e-01, -7.050147653e-02, 4.331862032e-01, -5.067675188e-02, 2.140406519e-01, 2.424423024e-02, 1.406971663e-01, 5.052676052e-02, -2.271764725e-01, -2.219148278e-01, -2.967841327e-01, -5.416110530e-02}, {-1.624703109e-01, -7.396400720e-02, -1.663224399e-02, 2.242051810e-01, 6.975845993e-02, 4.449993372e-02, -1.295009255e-01, 2.919313908e-01, -1.590158790e-01, 3.799185157e-01, -1.423328300e-03, -3.672208870e-03, 2.146029025e-01, -5.810607970e-02, -1.355731338e-01}, {6.075392663e-02, -3.540116549e-02, -2.197499722e-01, -2.087126225e-01, 2.419018373e-02, 1.902863532e-01, 1.705985703e-02, 1.939430982e-01, 5.036098510e-02, 2.655262351e-01, -4.105911776e-02, -1.993320137e-01, -2.063985616e-01, 2.436172962e-01, 3.499691784e-01}, {-3.478739876e-03, -1.870087236e-01, -3.892968176e-03, -7.958408445e-02, 2.260965705e-01, -3.704895452e-02, 3.276321888e-01, -6.764725316e-03, 7.078704983e-02, -5.252093077e-02, 2.314566672e-01, 3.324540332e-03, -2.447825857e-02, 2.463385090e-02, -7.926812023e-02}, {7.122952491e-03, -1.646319479e-01, -9.783177078e-02, -1.188668907e-01, 1.699182093e-01, 4.593215883e-02, 1.458520144e-01, 3.843340278e-01, -2.075618831e-03, 2.397328615e-01, -9.202020615e-02, 6.267809868e-02, 9.396309406e-02, 1.095712781e-01, -1.535473466e-01}, {1.653990149e-02, 8.823707700e-02, 3.683840483e-02, -4.663930833e-02, -1.343574524e-01, -8.538360894e-02, -7.468066365e-02, -2.093334869e-02, -3.377104551e-02, 1.786286244e-03, 9.465665370e-02, 8.373936266e-02, -1.321405768e-01, 1.682127565e-01, -1.324036121e-01}, {-5.692247748e-01, -5.306676626e-01, 4.200348258e-01, 1.806176901e-01, 1.603396684e-01, -1.369108558e-01, 9.691151790e-03, 9.511862881e-03, -2.098782221e-03, -2.590480493e-03, -8.645453490e-03, 3.006985411e-02, -2.724222653e-02, 5.049677566e-03, -3.552682698e-02}, {3.745650128e-02, -2.458371073e-01, -5.297108088e-03, -2.574526891e-02, 9.746345878e-02, -6.975340657e-03, 6.051182002e-02, 1.149922833e-01, 1.526247431e-02, -1.828495562e-01, -1.489019766e-02, -3.801554441e-02, -1.899817288e-01, -4.801664129e-02, -2.614431642e-02}, {-1.198030636e-01, 1.640920714e-02, 5.824285001e-02, 5.682436824e-01, 2.729660571e-01, -1.417564750e-01, 4.389472678e-02, -1.174915656e-01, -7.261656225e-02, 2.893712223e-01, -1.523461845e-02, -1.470830198e-02, -2.948749624e-02, 1.061353236e-01, 2.552631870e-02}, {-6.200456619e-01, 2.255122811e-01, 4.394419491e-02, 1.174724400e-01, 3.376356661e-01, -3.111821972e-02, 2.950435877e-01, -1.974331215e-03, 1.515228003e-01, -1.104932092e-02, 3.629884496e-02, 1.661757082e-01, -9.520702809e-02, -9.745748341e-02, 6.480889767e-02}, {-1.583953202e-02, -1.410029083e-01, -2.552741952e-02, -1.776940934e-02, 2.235791087e-01, 4.812473431e-02, 2.084455639e-01, 4.133674502e-02, 4.651200771e-01, 2.116173208e-01, 2.933994634e-03, 8.300351351e-02, 8.152539283e-02, -1.320874668e-03, 6.228101626e-02}, {2.116148593e-03, 8.207967877e-01, -1.889784634e-02, -1.265074611e-01, -1.227746308e-01, -5.688799545e-03, 2.870281339e-01, 8.908665925e-02, 5.536823999e-03, 9.398992360e-02, 2.045340277e-02, 7.477459311e-02, -1.210366338e-01, -7.837897539e-02, 1.462205499e-01}, {-5.525118709e-01, -1.544766277e-01, 1.405418962e-01, 3.872228786e-02, 5.829733983e-02, -1.875833049e-02, -1.338814944e-01, -7.335063070e-02, -1.774863303e-01, -3.746685386e-02, -9.632687271e-02, -2.316096425e-02, 7.552608848e-02, -1.729381457e-02, -7.488406450e-02}, {-3.756886348e-02, -1.985684186e-01, 4.995439574e-02, -1.299959868e-01, 2.611635327e-01, -5.933491513e-02, 2.492677718e-01, 1.002241671e-01, -1.968554407e-01, -8.095241338e-02, -8.228301257e-02, -1.467545480e-01, -1.868899614e-01, 9.860043228e-02, 2.906069160e-02}, {2.637296021e-01, -2.806695700e-01, -2.275981754e-01, -1.739331186e-01, 1.404925585e-01, 1.356825083e-01, -1.902624518e-01, 1.563381851e-01, 1.315325499e-01, -1.504381299e-01, -1.338331848e-01, 1.023986116e-01, 5.860507116e-02, -9.518363327e-02, -9.889216721e-02}, {6.731586903e-02, -4.622662067e-01, 4.459911957e-02, -2.702619508e-02, 3.729135096e-01, -5.909893289e-02, 1.334670186e-01, 2.905078419e-02, 1.646684706e-01, -6.785985827e-02, 2.531677671e-02, 5.595588312e-02, 2.835413814e-02, 5.607285351e-02, -4.941679537e-02}, {1.053235233e-01, 9.800323099e-02, -2.685551047e-01, -1.932159513e-01, -1.646168679e-01, -3.198251426e-01, 1.935167424e-02, 1.975473315e-01, 6.720621884e-02, 8.214469999e-02, 2.890587039e-02, 7.534927130e-02, 1.627160050e-02, -7.135853916e-02, 5.940056965e-02}, {2.370194048e-01, 2.436289638e-01, 1.468981653e-01, -2.499698102e-01, -2.800244093e-01, -1.616943181e-01, -2.512464821e-01, 2.752764821e-01, -3.777906531e-03, 9.367989749e-02, -1.145889144e-02, 1.586475223e-01, -1.126289964e-01, 9.846918285e-02, 1.902761757e-01}, {-2.052691430e-01, 3.089482486e-01, 1.056916192e-01, 1.988069415e-01, -3.783161342e-01, -1.399843246e-01, -3.798032105e-01, -2.865103483e-01, -2.856023014e-01, -1.940862508e-03, -5.593023449e-02, 4.238093644e-02, -1.543011516e-01, -1.208441798e-02, 8.791122586e-03}, {7.702700049e-02, -1.364061832e-01, 8.585238538e-05, 1.245233640e-01, 1.549237818e-01, 6.934444606e-02, 2.358898073e-01, -2.839346826e-01, 2.472807765e-01, 9.676761180e-02, -1.464316398e-01, 5.035445560e-03, -4.082974046e-02, -1.251882613e-01, 4.405878484e-02}, {-5.293067545e-02, -2.694447339e-01, -3.722760081e-02, -4.708174616e-02, 1.347184032e-01, 2.296316996e-02, 3.872044384e-01, -1.450194567e-01, 2.700898349e-01, -3.604893759e-02, 6.908338517e-02, -1.729701459e-02, -1.540611982e-01, -2.416071594e-01, 3.337011933e-01}, {-3.699791729e-01, 2.516815066e-01, 7.392346114e-02, 1.922681779e-01, 1.835251972e-02, -7.361934334e-02, -1.334871650e-01, -7.184356451e-02, 1.453511566e-01, -1.212829649e-01, -1.307035089e-01, 1.744860858e-01, -1.237071026e-02, -1.427941471e-01, 5.843613669e-02}, {3.292512894e-01, 1.977863759e-01, 1.060059443e-01, -9.462056309e-02, 6.617894024e-02, -7.159394026e-02, 2.423008233e-01, -1.473075300e-01, -1.942667551e-02, 2.090017498e-01, -2.700874582e-02, -9.407001548e-03, -4.155632481e-02, -4.578805342e-02, -3.413057327e-02}, {-1.974266320e-01, -1.461196542e-01, 1.532284915e-01, 1.350635588e-01, 9.966221452e-02, -1.927263141e-01, 1.389565617e-01, -2.070631385e-01, -2.243178636e-01, -2.955196798e-01, 5.906356871e-02, -3.179451823e-01, 1.412733644e-01, 1.713129133e-01, 6.797527522e-02}, {1.112273410e-01, -3.769142553e-02, -8.907542564e-03, 5.834236741e-02, 5.700691789e-02, -6.187830493e-02, -1.899045855e-01, -2.894416153e-01, -2.483074367e-01, 2.302722782e-01, 1.851806641e-01, -2.750135027e-02, 9.644223005e-02, 1.077770256e-02, -5.543711036e-02}, {-2.786213718e-02, 2.291551679e-01, 1.134585142e-01, 2.454359531e-01, -1.499232799e-01, -4.093404114e-02, -6.812421232e-02, -2.954121530e-01, -2.618455701e-02, -1.057028249e-01, -1.317399181e-02, -2.894054651e-01, -1.129822806e-01, 1.448993478e-02, 9.806597978e-02}, {1.209038310e-02, -2.403244078e-01, -1.843881160e-01, -4.896274954e-02, 2.693591416e-01, 1.271211207e-01, 4.273468256e-02, 3.418707475e-02, 1.447578371e-01, -5.745762587e-02, 2.887608409e-01, -2.299430668e-01, 9.354012460e-02, 1.272091866e-01, -4.687319696e-02}, {-1.552529633e-01, -6.353006959e-01, 3.701139614e-02, -2.264888138e-01, 8.447154760e-01, -5.708138272e-02, -1.210446060e-01, -4.549282044e-02, -1.350239366e-01, -1.086711511e-01, 1.574534737e-02, -1.036606655e-01, 3.511141613e-02, 9.358882904e-02, -4.932358488e-02}};

const float bias_in[NUM_NODES] = {-5.588729382e-01, -1.901035011e-01, -3.038736247e-02, 2.720293775e-02, -1.894254237e-01, -4.166898429e-01, -4.389933497e-02, -2.338813692e-01, 1.059447005e-01, 6.837229431e-02, 7.127750665e-02, -2.773252130e-01, -3.049471974e-01, -7.207985967e-02, 3.309261203e-01, -2.714527845e-01, 4.281255230e-02, 1.957282871e-01, -3.548653722e-01, 5.483647585e-01, 5.072771311e-01, 3.421233296e-01, 4.750995934e-01, -5.734554529e-01, -1.228069440e-01, 4.698381126e-01, -4.444784522e-01, 2.209693342e-01, 5.093007088e-01, 7.410327792e-01, -2.135243416e-01, -4.237654805e-02, 3.367722733e-03, 7.899282575e-01, -8.457124233e-02, 3.235722482e-01, 1.318611652e-01, -7.758943737e-02, -2.252943814e-02, 4.204444885e-01, 4.758843780e-01, -2.150797695e-01, -6.561840326e-02, -1.053858846e-01, -1.310814172e-01, 3.650616109e-01, -2.027510107e-01, -2.222242020e-02, 3.326970339e-01, 6.269011647e-02, 1.302315593e-01, 3.827750385e-01, 4.072907194e-02, -1.907730699e-01, 2.678399980e-01, 3.011475205e-01, -3.382885754e-01, 1.621760130e-01, -4.921862110e-02, -4.964061677e-01, -3.201175109e-02, 4.330706969e-02, 6.872780621e-03, 4.789814651e-01, 2.626530230e-01, -4.705401361e-01, -1.265071146e-02, 1.384191215e-01, 3.366135359e-01, -5.016288757e-01, 7.862824202e-02, -5.312324315e-02, 3.549440801e-01, -5.099650007e-03, 4.235797822e-01, 4.237853885e-01, 2.942919731e-01, -4.393470883e-01, -1.523090005e-01, -2.125894576e-01, -3.151893318e-01, -2.822905593e-02, 7.624511421e-02, 5.552087426e-01, -2.594698071e-01, -4.095038474e-01, -2.485720217e-01, -4.055764377e-01, 1.118943393e-01, -3.095400929e-01, 5.161886811e-01, -2.255669832e-01, -4.377616048e-01, -2.378693782e-02, 1.441445053e-01, -1.600238830e-01, -1.141173914e-01, 8.538187146e-01, 2.990969419e-01, 3.080174141e-02, -2.025857382e-02, 3.318925798e-01, -2.258224338e-01, -3.477429971e-02, 3.581911922e-01, -3.818397820e-01, -4.284522831e-01, 5.589056015e-01, 1.136377975e-01, 1.703888625e-01, -1.651436239e-01, 2.780710757e-01, -2.414392978e-01, 5.232270434e-02, -3.002825379e-01, -3.298315108e-01, 8.859618008e-02, -2.214677483e-01, -2.292128652e-02, -1.061942875e-01};

const float weights_out[NUM_CONTROLS][NUM_NODES] = {{1.844563484e-01, -1.162393242e-01, -5.243353844e-01, 8.584666997e-02, -1.349256486e-01, -6.345704794e-01, 1.212445199e-01, 2.090767473e-01, 5.389724970e-01, -1.326151639e-01, -1.009666100e-01, 1.613497920e-02, -9.642297029e-02, -1.443463415e-01, -1.603900045e-01, -8.495973796e-02, 1.122989133e-01, 3.010150685e-04, -8.583080769e-02, -2.072572112e-01, -8.610749990e-02, 1.190125197e-01, 9.373366088e-02, -3.913355619e-02, 6.192483008e-02, -7.086542994e-02, 3.901340663e-01, -1.599540003e-02, -1.993082762e-01, 2.310044877e-02, 4.398292303e-02, -1.242184937e-01, 8.573903143e-02, -7.227513194e-02, -9.649875760e-02, -1.217744872e-01, 1.643966585e-01, 4.528535903e-02, 1.245102659e-01, -8.830442280e-02, -1.651753485e-01, 4.037720710e-02, -1.420570165e-01, 1.074586436e-01, 1.471695583e-02, -4.790659249e-02, -4.692952633e-01, 1.266963482e-01, 2.503148019e-01, -6.909751892e-02, -1.135818884e-01, 1.612974703e-01, -2.290874720e-02, 7.613895088e-02, -1.398563832e-01, 4.428110272e-02, -2.409846149e-02, 3.935143724e-02, -1.231022477e-01, 1.193833444e-02, 2.671620622e-02, 2.084210068e-01, -3.978227079e-02, 1.545408219e-01, -1.248216070e-02, -1.539770812e-01, -1.378839016e-01, -3.660866320e-01, 2.676713765e-01, 1.769089577e-04, 2.780838311e-02, 1.897104830e-01, -9.961888939e-02, 8.741983026e-02, -4.351282492e-02, 1.378591508e-01, 1.734695286e-01, 2.014238834e+00, 3.507847199e-03, 2.381567359e-01, -1.150223240e-01, -3.582468256e-02, 2.789548039e-01, 6.267324835e-02, 1.509612352e-01, 1.058204025e-01, -2.769878879e-02, -1.419517398e+00, 4.575519636e-02, 1.934426837e-02, -1.581732780e-01, 1.160223261e-01, -7.284232974e-02, 2.023275942e-02, 3.872640198e-03, -4.864126444e-02, -4.608410597e-02, -7.173384726e-02, -8.370239288e-02, 1.474983394e-01, -1.003315449e-01, 6.680278480e-02, -6.160825491e-02, -9.675563127e-02, -4.112159461e-02, -3.678775206e-02, 1.462873816e-01, 3.174725175e-01, 2.233877219e-02, 1.182530671e-01, 4.282456636e-02, -1.878587157e-02, 1.977891922e-01, 1.641458869e-01, -2.013246566e-01, 2.620056272e-02, -7.844675332e-02, -8.923878521e-02, -1.029453501e-01, -1.259871125e-01}, {-2.776849866e-01, -7.673254609e-02, 6.188943516e-03, 6.311932206e-02, 2.171215266e-01, -8.627222180e-01, 6.894345582e-02, -1.926655024e-01, 6.575303078e-01, 1.732802242e-01, 3.946869075e-02, -4.946153164e-01, -2.357740887e-02, -1.214404702e-01, 1.246646345e-01, -3.729945421e-01, 1.356464028e-01, -7.789417356e-02, -4.136641324e-01, -1.724694012e-04, -2.232405357e-02, 2.146573961e-01, 8.132327348e-02, 1.348396391e-01, 1.573144495e-01, 9.741346538e-02, 1.385145932e-01, -7.196174562e-02, 1.784787774e-01, -1.369158179e-01, -1.232395396e-01, -1.530684829e-01, 5.824279971e-03, -1.050411016e-01, 1.568930037e-02, 7.419791073e-02, 8.651129901e-03, -3.665563092e-02, 1.049519032e-01, -5.195270479e-02, 3.233005106e-01, 6.136409193e-02, 1.098095998e-01, -4.399186932e-03, -3.214333951e-02, 6.130141392e-02, -7.106471341e-03, 2.726120949e-01, 8.723381162e-02, 2.025687099e-01, 1.159343049e-01, -1.302407980e-01, -6.524775922e-02, -1.684184521e-01, -1.529226005e-01, -9.940613061e-02, -3.624730557e-02, -1.464002877e-01, -1.297549903e-01, -7.721438259e-02, -1.084780097e-01, 1.462442726e-01, -1.294983745e+00, -7.527031004e-02, 1.367318779e-01, 6.315708160e-02, 5.959709883e-01, -2.490928620e-01, -2.332781296e-04, -1.643651724e-02, -1.033786312e-01, 1.374609768e-01, 1.006666645e-01, 2.761562541e-02, -2.231140994e-02, 1.115955636e-01, -3.790570796e-02, -1.269477513e-02, 6.781664491e-02, 5.950332433e-02, 8.497105539e-02, 4.768291116e-02, -1.431501508e-01, -9.865576774e-02, -6.786607951e-02, -4.431957006e-02, -1.386643350e-01, -2.442523688e-01, -7.581876963e-02, 1.088258326e-01, 6.449017674e-03, 2.861739099e-01, 1.947060041e-02, 1.470910013e-01, -1.376950294e-01, 9.533296525e-02, -3.715108335e-01, -1.655941606e-01, -4.823937267e-02, -5.044593662e-02, -4.793590307e-02, 2.200545743e-02, 8.271429688e-02, 2.566308975e-01, -2.710022405e-02, -3.298830613e-02, 1.859832406e-01, 1.884566545e-01, 1.113703027e-01, 7.868365943e-02, 2.537125945e-01, 1.891990006e-01, 1.355413049e-01, -1.480892450e-01, 1.443414986e-01, -9.414383024e-02, 2.962532453e-02, 1.040960103e-01, -6.331215799e-02, -8.929938078e-02}, {2.324547917e-01, -1.635414958e-01, 9.058318138e-01, 1.311211437e-01, -2.772448817e-03, -6.186096668e-01, 3.974418044e-01, -2.091443092e-01, 3.657077849e-01, 8.619830012e-03, 7.174050808e-02, 8.453670889e-02, -1.619315706e-02, -9.113112092e-02, 2.258532345e-01, 4.820349440e-02, 1.790537983e-01, -7.623273134e-02, -2.980448306e-01, 1.013490781e-01, 1.221294329e-01, 2.208805233e-01, 2.046348713e-02, -8.539576828e-02, 3.769467352e-03, 2.422955260e-02, 2.571198344e-01, -1.440827698e-01, 1.274338961e-01, -6.516343355e-02, -5.966658145e-02, 1.797164418e-02, 1.444178522e-01, 6.421080232e-02, -5.547336116e-02, -1.013956890e-01, 5.062258337e-03, 1.303911395e-02, -1.181406975e-01, -7.961121202e-02, -2.680895329e-01, 1.206210107e-01, 1.869414747e-01, 1.873543113e-02, -5.597600713e-02, 7.711133361e-02, 3.754919469e-01, 1.352923214e-01, 1.720636040e-01, -5.652340874e-02, 3.913786728e-03, 2.106508613e-01, -1.424244344e-01, -7.767635584e-02, -6.504358351e-02, 6.663420796e-02, -1.357982606e-01, 1.199281439e-01, 2.945769019e-02, 1.009960324e-01, -9.509450942e-02, 2.803121507e-01, -1.275382042e-01, -9.886978567e-02, 1.915257983e-02, -3.381966352e-01, -1.264670789e-01, 3.695735335e-01, -2.771630585e-01, 3.617050350e-01, 1.974790394e-01, 2.340594977e-01, 2.029800117e-01, -7.691465318e-02, -1.311909854e-01, 2.463703603e-02, -1.642810255e-01, -1.369194537e-01, 9.576589614e-02, 2.195641957e-02, 1.114107147e-01, -1.277422458e-01, -1.267441511e+00, -1.050752997e-01, -1.396468189e-02, 3.958132118e-02, -1.250073910e-01, 2.224121429e-02, -1.587776840e-01, -9.763399139e-03, -1.019834727e-01, 3.032742441e-01, -1.357747614e-01, -6.494397298e-03, 1.974871010e-01, -1.544752270e-01, -1.585887074e-01, 5.065760016e-02, -8.596628159e-02, 4.619572684e-02, -1.307948530e-01, 9.076424688e-02, -1.345084459e-01, 4.397135377e-01, 7.964553684e-02, 2.791590430e-02, 2.442031652e-01, -4.177553058e-01, 8.666034788e-02, -2.580716833e-02, -1.115090176e-01, -1.237478629e-01, 1.072764918e-01, -1.334284693e-01, 1.487374455e-01, 3.588829562e-02, -1.536869109e-01, -4.515226185e-02, 9.540785849e-02, 1.105953753e-01}, {-5.167642608e-02, -9.953848273e-02, -8.854725957e-02, 9.498176724e-02, 1.660329700e-01, -3.433378637e-01, 2.693337798e-01, 3.623723984e-01, 2.737936378e-01, -6.945025176e-02, -1.070129350e-01, -2.455848902e-01, -6.512025744e-02, -7.985016704e-02, -1.983118355e-01, 3.375714719e-01, 1.480036825e-01, 4.727396742e-02, 2.564114928e-01, -2.990139648e-02, 1.597366780e-01, 5.048483238e-02, 2.144172415e-02, -5.740663409e-02, 1.480507851e-02, 1.769278385e-02, 2.223692387e-01, -2.059433013e-01, -2.903161943e-01, -1.304082870e-01, -4.683374986e-02, -3.966268152e-02, 3.188428283e-02, 8.443515748e-02, -7.977191359e-03, -6.257127225e-02, -3.885819763e-02, -2.814833634e-02, 3.833300620e-02, 1.121024485e-03, 3.362029046e-02, 9.118097275e-02, 1.106152907e-01, 6.968758255e-02, 4.315091670e-02, -1.246235985e-02, -3.002860211e-02, -2.588814199e-01, 4.934620857e-02, 1.847487092e-01, 1.531095505e-01, -2.330394387e-01, -1.023496091e-01, 1.366711706e-01, 9.789007902e-02, -6.271588057e-02, -1.295344532e-01, 8.744037896e-02, -8.942951262e-02, -1.183003485e-01, 8.343692124e-02, 2.988348901e-01, 5.269111395e-01, 8.111610264e-02, 1.093842015e-01, -5.672099590e-01, -1.311620593e+00, 2.905400693e-01, 9.089699015e-03, 2.783690393e-02, -2.040550262e-01, 8.289173245e-02, -1.098370329e-01, 1.266735196e-01, 1.016336679e-01, -1.198709309e-01, -1.008078232e-01, 3.785534948e-02, -4.660893977e-02, -1.334570199e-01, -2.019183524e-02, 1.324830055e-01, -2.098902017e-01, -9.325223044e-03, -1.402787268e-01, -1.039396375e-01, 1.135814041e-01, -1.655513048e-01, -1.315775514e-01, 1.127635464e-01, -1.909876019e-01, 3.254450262e-01, -1.304158121e-01, 1.271121949e-01, -8.774018884e-01, 2.150727510e-01, -4.866204038e-02, 4.701468721e-02, 2.123423852e-02, 8.665358648e-03, -1.309737116e-01, -7.733492553e-02, -7.556790859e-02, 1.092523485e-01, 1.459769011e-01, -2.029175125e-02, 1.302211434e-01, -1.959906816e-01, 8.601004630e-02, 3.916179761e-02, -9.050149471e-03, 1.991241574e-01, 2.187209129e-01, -1.509574354e-01, -1.409860402e-01, 1.024283096e-01, -1.925825179e-01, 1.402947158e-01, -1.763647199e-01, 6.806460023e-02}};

const float bias_out[NUM_CONTROLS] = {3.228758648e-02, 1.945771946e-04, 6.392185390e-02, 6.268748641e-02};

const float in_norm_mean[NUM_STATES] = {6.063526496e-03, 1.094916090e-02, -3.015409969e-02, 2.538194414e-03, 4.529447295e-03, -5.673798267e-03, 2.537166001e-04, -1.547479042e-04, 4.759048170e-05, -2.987865300e-04, 3.654424334e-03, 7.590670410e+03, 7.589388672e+03, 7.590671875e+03, 7.589283691e+03};

const float in_norm_std[NUM_STATES] = {6.104201674e-01, 6.342431903e-01, 1.908040941e-01, 3.318963945e-01, 3.527424932e-01, 1.190016419e-01, 4.214487970e-02, 4.230211675e-02, 2.137111425e-01, 1.806912422e-01, 3.223097622e-01, 9.789877319e+01, 9.742518616e+01, 9.790844727e+01, 9.751821899e+01};

const float out_scale_min = 7.155569336e+03;

const float out_scale_max = 7.910779785e+03;

const float weights_hid[NUM_HIDDEN_LAYERS-1][NUM_NODES][NUM_NODES] = {{{7.402352989e-02, 1.007939801e-01, 6.730726361e-02, -5.079782102e-03, 1.498116404e-01, 3.194467723e-02, -1.787617244e-02, -3.832660243e-02, 4.879730195e-02, 1.308385283e-01, 1.530157477e-01, 6.227793545e-02, -9.351039305e-03, -8.289755881e-02, 2.712280117e-02, -1.219174340e-01, 1.228732467e-01, -4.035508260e-02, -3.875011951e-02, -5.818084255e-02, 1.181914210e-01, 7.664031535e-02, -1.887775725e-03, 1.296757311e-01, 3.591102734e-02, -2.845866047e-02, 1.089565605e-01, 2.494964376e-02, -5.574002117e-02, 1.653011441e-01, -1.817394421e-02, 1.084226072e-01, 5.531594530e-02, 1.340146661e-01, -4.577600956e-02, -1.393561158e-02, 5.775906146e-02, -2.120619826e-02, 1.577666700e-01, -8.941303194e-02, 4.791795090e-02, 1.996261925e-01, -4.910586029e-02, 1.112052519e-02, 7.600006461e-02, 9.360025078e-02, 1.299577206e-01, -1.390659902e-02, -3.034141846e-02, 1.522652358e-01, 4.310463555e-03, 1.125991866e-01, 5.237490684e-02, 1.941731274e-01, 2.630356140e-02, -3.121439368e-02, -1.263026595e-01, 8.280893415e-02, 1.860273778e-01, 5.247767270e-02, 5.113948137e-02, -1.038732156e-01, -2.306337357e-01, 2.290028520e-02, 3.477029502e-02, 9.086512029e-02, -3.941733390e-02, -1.417421829e-02, 2.524084970e-02, -6.815769710e-03, -4.610155523e-02, -9.669476748e-02, 2.965953574e-02, -2.807834446e-01, -5.632336438e-02, -1.330844499e-02, -7.291588187e-02, 1.664799079e-02, 5.185948685e-02, -1.394310780e-02, 1.287372410e-01, -2.065430433e-01, -1.860775985e-02, -6.016788632e-02, 4.730266053e-03, -1.134554949e-02, -1.964294314e-01, -1.919943839e-01, -5.982220173e-02, -4.176404700e-02, -1.464156061e-01, -2.291133069e-02, -5.061142892e-02, 5.741140340e-03, -6.507647038e-02, 7.152207941e-02, 9.249559045e-02, 1.301313192e-01, 5.494107306e-02, -1.471511275e-01, 5.916412920e-02, 8.059722185e-02, -7.296451926e-02, -1.211875118e-02, 1.372054592e-02, -1.181397066e-01, -1.031346917e-01, -7.342614233e-03, 1.220595930e-02, 1.587295830e-01, -9.210383147e-02, -2.519129030e-02, 1.551586241e-01, -9.697411209e-02, 6.027245522e-02, -1.775168069e-02, 9.040600806e-02, -1.257637423e-02, -5.128385499e-02, 1.041725427e-01}, {-8.233977854e-02, -1.130029466e-02, 9.731004387e-02, 3.050096519e-02, 3.000558354e-02, -5.920525268e-02, 5.890459567e-02, 3.208596259e-02, -9.320987388e-03, -5.029788613e-01, -2.503261566e-01, 1.855459251e-02, 3.912545368e-02, -1.541296300e-02, 7.030643523e-02, -1.565399915e-01, -4.188495502e-02, -4.889778327e-03, -1.027194038e-02, 4.765813425e-02, -1.746919006e-01, -7.430715859e-02, 1.326244324e-01, -1.426119953e-01, 3.357305378e-02, -4.802054539e-02, -1.335759461e-02, -2.827481627e-01, 1.523042191e-02, 4.319271445e-02, 1.756732911e-02, -6.126089022e-02, 1.338860691e-01, 8.168961108e-02, -1.080903858e-01, 1.477207541e-01, 5.663298070e-02, 8.369323611e-02, 7.667125016e-02, 7.719932497e-02, 1.414447129e-01, -1.184094474e-01, -8.702551574e-02, -1.062923148e-01, -1.025994495e-02, -4.157194495e-01, 4.881995171e-02, -2.931981906e-02, -5.444308370e-02, -4.238039255e-02, 4.692292586e-02, 1.062843204e-01, 2.671349049e-02, -5.479672179e-02, 2.769322880e-02, -9.917668998e-02, -7.752467692e-02, 7.055173069e-02, 3.661694750e-02, 6.122431159e-02, 4.348574951e-02, -1.076916456e-01, -1.993784914e-03, 1.619640887e-01, 2.548454888e-02, -1.407243162e-01, -2.625407837e-02, -7.333534086e-06, 3.322500736e-02, -9.274135530e-02, -7.910500467e-02, 6.842530519e-02, 1.040199175e-01, -7.417677343e-02, 9.485881031e-02, 1.020449474e-01, -8.955091983e-02, 2.267937511e-01, -3.865894303e-02, -1.242329329e-01, 1.347638816e-01, -1.005552188e-01, 1.409886181e-01, 8.794328570e-02, 6.534574926e-02, -1.026544347e-01, 1.372591108e-01, -9.241543710e-02, 3.591691609e-03, 2.164240927e-01, 3.798626363e-02, -1.081771478e-01, -4.866744578e-02, -1.824354678e-01, -3.847619891e-02, -5.208064988e-02, -3.027761281e-01, 9.450326115e-02, -3.882676363e-02, -4.749992862e-02, 3.239622712e-02, -1.349540353e-01, 1.272212714e-02, 2.125546634e-01, 5.883262679e-02, -3.097446635e-02, 6.659324747e-03, 1.354718059e-01, -8.515328169e-02, -1.389013976e-02, -1.008911207e-01, 3.165708482e-02, 6.439365447e-02, 1.331476420e-01, -1.167982165e-02, -5.501779169e-02, 1.707035862e-02, 3.674117848e-02, -6.151690707e-02, -8.020356297e-02}, {2.679131925e-01, 1.943505704e-01, 1.127850711e-01, 6.498662382e-02, 8.259633929e-02, -1.358111203e-01, 2.019498125e-02, -9.651052207e-02, 4.809521511e-02, 1.913075708e-02, 9.190241247e-02, -7.896649092e-02, 1.606484950e-01, -1.063910052e-01, 1.748011857e-01, 9.117059410e-02, -4.968938977e-02, -1.944804192e-02, 2.366681583e-02, -9.276989847e-02, 4.078024626e-02, 1.795248240e-01, 8.015237749e-02, 2.180138081e-01, 3.878199309e-02, -1.285507679e-01, 2.938329279e-01, -1.529247127e-02, -1.087760031e-01, -2.253513038e-02, 3.160069138e-02, 7.299534976e-02, -2.114824802e-01, -5.390160158e-02, -3.663401678e-02, -5.746325105e-02, 1.407416165e-01, -5.260895006e-03, -8.713565767e-03, -1.937120259e-01, 1.204494908e-01, -6.220368203e-03, -9.985881858e-03, 3.808099777e-02, 3.524503484e-02, 1.441228241e-01, 2.085014433e-01, -7.928964496e-02, 2.817600779e-02, -8.549104631e-02, 5.908970907e-02, -1.172844917e-01, 1.384461224e-01, -1.425842475e-02, -1.150627285e-01, 3.519887850e-02, -1.350628287e-01, -4.091980308e-02, 2.461618278e-03, -1.198392138e-01, 4.723596945e-02, -4.582438152e-03, -6.082449853e-02, -1.428717822e-01, -5.592307076e-02, 7.591024041e-02, 6.423129141e-02, -2.874217182e-02, 8.633771539e-02, 1.525479853e-01, 1.207377538e-01, 3.073230572e-02, -2.007393241e-01, 6.718503684e-02, -6.942103617e-03, -3.458793834e-02, 1.870201714e-02, -1.017301902e-02, -5.599153042e-02, 9.642549604e-02, -9.477121383e-02, -8.819544688e-03, 1.210793480e-01, -1.407505572e-02, 2.185892612e-01, 1.538754553e-01, 1.315885186e-01, 7.072667778e-02, 1.216236427e-01, 2.879852429e-02, 1.011369079e-01, -8.192992955e-02, -9.311032295e-02, -1.683658063e-01, -5.143697187e-02, -1.075163558e-01, -2.028718442e-01, 8.697045594e-02, 6.034062803e-02, -5.490706488e-02, -1.062533110e-01, -1.353503466e-01, 1.367125362e-01, -5.691629648e-02, 2.151946723e-02, 8.549886197e-02, 1.735316962e-01, -1.371855289e-01, 4.168094601e-03, 1.849326193e-01, 5.801602080e-02, 1.687188074e-02, -8.687881380e-02, -3.181237727e-02, 2.504638955e-02, 4.158205912e-02, 3.495610505e-02, 6.181355938e-02, 8.169825189e-03, -6.287782639e-02}, {-4.866781831e-02, 1.203569844e-01, 1.924892515e-01, 5.219996348e-02, 5.110176653e-02, 4.627293348e-02, 8.291882277e-02, 1.283406839e-02, -1.440314204e-01, 1.067811921e-01, -2.351310998e-01, 7.332091779e-02, -6.455961615e-02, -7.018727064e-02, -1.442777663e-01, 3.607590450e-03, -1.573121548e-01, 8.478898555e-02, 8.077841252e-02, -1.087541580e-01, 2.054426521e-01, -5.495364964e-02, -1.138282195e-01, 2.974307239e-01, 1.299483478e-01, 1.070942078e-02, 1.090142354e-01, 1.166789308e-01, -2.673240378e-02, 1.871207505e-01, 4.080907255e-02, 2.517193258e-01, -2.359811217e-03, -6.710834801e-02, -4.271529242e-02, -1.278919280e-01, 2.486360818e-01, 7.288805395e-02, -6.327176839e-02, -1.680349857e-01, 1.640317962e-02, 9.943222255e-02, -7.045190781e-02, 1.105811913e-02, 4.489573091e-02, 1.526097804e-01, -1.963354647e-03, -5.417155102e-03, -5.056053028e-02, 9.314463288e-02, 7.208424155e-03, -1.060925722e-01, 9.833444655e-02, 9.852692019e-04, -1.350812912e-01, -1.014521196e-01, -3.561133146e-01, 7.721924782e-02, 5.582828447e-02, -9.726068377e-02, 7.832118124e-02, -4.544179514e-02, -1.517636776e-01, -2.644450776e-02, 1.637548395e-02, 1.748292446e-01, 3.592019677e-01, 5.570615456e-02, 1.102831513e-01, 2.192874253e-01, -2.201795578e-03, 1.202881485e-01, -1.425113436e-02, -1.775401831e-01, 1.852426492e-02, 2.247404307e-03, -1.326400936e-01, -4.396497086e-02, 2.736596204e-02, 1.473144442e-01, 6.738595665e-02, -2.428862900e-01, -3.236492351e-02, -4.311047494e-02, 3.761837780e-01, -5.575000122e-02, 1.176561639e-01, 1.312845945e-01, 4.371333867e-02, -1.689937115e-01, -1.692343205e-01, -1.597025692e-01, 6.678151339e-02, -1.701712310e-01, 1.886069193e-03, 1.662852243e-02, 2.338326350e-02, 5.887817964e-02, 1.316013932e-01, -1.956946030e-02, -1.594061404e-01, -1.396921575e-01, -1.918180436e-01, 3.193647787e-02, 4.252474010e-02, 1.951872371e-02, 1.577968746e-01, 1.800240949e-02, -1.569104046e-01, -8.258303255e-02, 1.115031764e-01, -1.565116942e-01, 2.579172850e-01, -7.873597741e-02, -5.149213597e-02, -8.104456961e-02, -1.608292945e-02, 1.119156368e-02, 8.703091741e-02, -9.645072371e-02}, {1.956255287e-01, -9.642656147e-02, 5.890851468e-02, 4.504917189e-03, -5.857696757e-02, 2.688547783e-02, 1.404964328e-01, -1.123249810e-02, 5.974056199e-02, 4.421549966e-04, 7.303999364e-02, -7.408660650e-02, -7.116953284e-02, 7.084704936e-02, 2.471309155e-02, -9.735742956e-02, 6.188704818e-02, 1.212510914e-01, -1.587234321e-03, 6.672816817e-03, 1.004236564e-02, 2.044510096e-02, -2.424740233e-02, -4.192452133e-02, 3.207263723e-02, -6.414440274e-02, 2.189202642e-04, 3.405731916e-02, -5.890213419e-03, 6.217227504e-02, -1.373575535e-03, 7.445906848e-02, -7.237926871e-02, -1.923228949e-01, 1.962698996e-02, -8.044864982e-02, 1.729905903e-01, -1.749011502e-02, 5.016931146e-02, -1.812319756e-01, 2.280045114e-02, 5.264846608e-03, 3.614029288e-02, -4.835071042e-02, 4.212150723e-02, -5.146712065e-03, -9.543176740e-02, 6.679432094e-02, 7.260567695e-02, -3.127701581e-02, -9.932120331e-03, -8.469646424e-02, 7.342304289e-02, 8.091173321e-02, -1.592372358e-01, -6.784192473e-02, 2.033445425e-02, 2.100937068e-02, -9.886343032e-03, -9.968657792e-02, 1.066973731e-01, 1.226814277e-02, 4.641734809e-02, 1.627387106e-02, 8.513777703e-02, 1.128270663e-02, -1.909000054e-02, -2.064964175e-01, 1.690517068e-01, -1.004934311e-02, 1.347815432e-02, 6.798019260e-02, -7.947765291e-02, 6.093467772e-02, -1.469660271e-02, 1.523334533e-02, -9.242114425e-02, -3.702398157e-03, 2.984739840e-02, 3.969872836e-03, -6.126071885e-02, 6.249761209e-02, -1.585009247e-01, 1.493546218e-01, -3.297122195e-02, 4.787293822e-02, 6.754964590e-02, 1.031826586e-01, -1.823046478e-03, 9.632884711e-02, -2.738102153e-02, -4.442491010e-02, -1.068501249e-01, 2.863518521e-02, -8.935658634e-02, 1.262438744e-01, 1.132270694e-01, 1.603760570e-01, 5.254767835e-02, -1.422874331e-01, 3.023495898e-02, 9.541369975e-02, 1.437161267e-01, -6.239620224e-02, -1.976798475e-02, 6.147544831e-02, -8.882325888e-02, 1.013739109e-01, 9.369877167e-03, 1.288940609e-01, 7.017511874e-02, 3.171115369e-02, 1.045531705e-01, -7.154302299e-02, 1.085480303e-01, 1.073995829e-01, -2.962072752e-02, 1.024998203e-01, -1.207430512e-01, 2.475976013e-02}, {-7.516484708e-03, -1.867682487e-01, -5.048558861e-02, -9.615660459e-02, 1.155369803e-01, 7.844161242e-02, 9.373584390e-02, -6.441679597e-02, -6.360091735e-03, -2.185737491e-01, -5.602971092e-02, 1.461321414e-01, 4.361549765e-02, -8.019915223e-02, 1.395009309e-01, 8.324019611e-02, 1.480388734e-02, -7.377792150e-03, -7.517828792e-02, -6.889378279e-02, -9.455017000e-02, 9.836945683e-02, 1.000901982e-01, 3.299378231e-02, 7.633429766e-02, 3.954648599e-02, -4.544801638e-02, -1.047827303e-01, 2.961312234e-02, 5.874343216e-02, -2.233341634e-01, -5.899418518e-02, -9.415870160e-02, -5.258949101e-02, -4.515014123e-03, -1.264351159e-01, -2.014205791e-02, -1.934115887e-01, 1.291402616e-02, 1.096445918e-01, 7.822576165e-02, -8.571739495e-02, -3.326192673e-04, -8.932935447e-02, 7.171143591e-02, -9.156642482e-03, -8.917942643e-02, 6.534454972e-02, 9.078048170e-02, -1.015826762e-01, -6.005532295e-02, 5.140950531e-02, 1.475446820e-01, 6.216465030e-03, -2.049927562e-01, 4.876870662e-02, 1.343557388e-01, 3.416743129e-02, -2.303264476e-02, 1.526147723e-01, 6.074194983e-02, -1.187987626e-01, 7.031337917e-02, -3.914025426e-02, -2.952191979e-02, 8.974555880e-02, 4.767229781e-03, -6.880558282e-02, -1.717988700e-01, 7.540578488e-03, 1.186948493e-01, 1.089252681e-01, -3.480777889e-02, 1.629621089e-01, 6.367644668e-02, 4.365316033e-02, 1.274221577e-02, 9.652631730e-02, 3.403256088e-02, 4.116497934e-03, -1.730407476e-01, 1.005935892e-01, -8.067856729e-02, -3.387932107e-02, 4.461810365e-02, -1.682672463e-02, -4.777628556e-02, -4.655418172e-02, 8.342199028e-02, 9.029898793e-02, -2.196279727e-02, 1.198974624e-02, -6.385040283e-02, 7.375807315e-02, 9.468776733e-02, 1.929746568e-01, 7.567742467e-02, -2.627230622e-02, -6.055395678e-02, 8.249150962e-02, 8.240936697e-02, -1.691413373e-01, -5.574356392e-02, -1.087670103e-01, 1.510260105e-01, 5.074604973e-02, -6.159863435e-03, 7.683746517e-02, -1.476237457e-02, -1.109029651e-01, -5.007951334e-02, 3.029724769e-02, -5.687173828e-02, -9.612470865e-02, -5.959761888e-02, -8.026089519e-02, 1.371206809e-02, 8.717365563e-03, 3.493375704e-02, -1.659857668e-02}, {6.911904551e-03, 5.468960851e-02, -4.212907329e-02, 3.746846691e-02, 4.415061325e-03, 1.425991505e-01, 7.751545310e-02, 2.371877804e-02, 2.288487740e-02, 1.926217228e-01, 1.041809916e-01, -8.020595461e-02, -1.925655641e-02, 6.615760922e-02, 4.055779427e-04, -1.875033230e-02, 1.331726760e-01, 2.186078392e-02, 7.285341620e-02, -8.839812130e-03, 4.688577354e-02, 2.242726460e-02, 7.034532726e-02, -2.602472436e-03, 5.656936392e-02, -3.064084612e-02, -1.956053227e-01, 1.089614583e-03, -3.656149842e-03, -7.211145759e-02, -4.854073003e-02, 5.666832905e-03, 3.177068383e-02, 2.551013418e-02, 1.054511964e-01, 1.893289573e-02, 2.386809327e-02, 5.280793458e-02, 2.325066738e-02, -1.363658067e-02, -1.520736888e-02, -4.610851407e-02, 4.680337384e-02, -5.612692237e-02, 3.462753072e-02, 2.619683044e-03, -3.839665279e-02, 4.504820332e-02, -4.047378153e-02, -8.616044372e-02, -3.578118980e-02, -1.466420852e-02, -7.409984618e-02, -5.552226305e-02, 3.777506948e-02, -1.027213782e-02, 7.654955238e-02, 1.702290773e-02, 5.510310084e-02, 4.543213546e-02, -4.342823476e-02, 6.305682007e-03, -2.834120579e-02, -4.624468056e-05, 8.728615008e-03, -5.073739216e-02, -6.668450683e-02, -3.470306098e-02, 1.961608790e-02, -4.661674798e-02, 2.479233406e-02, -1.159249842e-01, -5.536712334e-02, 6.238963827e-02, 7.926797122e-02, 2.182120457e-02, 1.429690514e-02, -9.394336492e-03, 3.104838729e-02, 4.415716976e-02, -8.858147264e-02, 4.844337329e-02, 7.327546179e-02, 3.687560558e-02, -6.549460441e-02, -3.170531988e-02, -1.503687650e-01, -4.435542971e-02, 1.102139577e-01, 8.430561982e-03, 8.570051193e-02, -5.233359523e-03, 2.656176686e-02, 1.214777026e-02, -4.425935075e-02, 3.230173141e-02, -6.723487750e-03, 9.609986097e-02, -4.659146070e-02, 1.080387235e-01, -1.221573632e-02, 2.768480591e-02, -7.746886462e-02, 1.261977553e-01, 8.866062388e-03, 8.804861456e-02, 3.568241000e-02, -5.457121134e-02, 8.426837623e-02, -4.158668965e-02, -1.141471192e-01, 5.825619772e-02, -4.288634658e-02, 7.177907228e-02, 1.531215310e-01, 1.079251915e-01, -5.046891049e-02, 9.040213376e-02, -1.384654939e-01, 8.584516495e-02}, {-6.775957532e-03, 1.408682615e-01, 2.187524736e-02, 1.060154140e-01, 8.836261183e-02, 8.222344518e-02, 9.127197415e-02, -2.055723779e-02, -7.426161319e-02, -4.938594997e-02, 3.008524477e-01, -2.993625123e-03, 2.178505808e-02, 9.558130801e-02, 6.394024938e-02, 5.687212944e-02, 2.741469629e-02, -1.522142589e-01, 1.753794700e-01, -3.234678134e-02, -9.930638224e-02, -1.292936802e-01, -1.670456082e-01, -1.702518761e-01, -6.299246103e-02, -3.082921915e-02, -1.262826771e-01, 1.333277375e-01, -2.130949944e-01, -5.628331006e-02, 4.752696678e-02, -3.866444528e-02, 1.106465906e-01, -4.166756757e-03, -3.349177912e-02, -5.110361800e-02, -1.227035224e-01, 3.966904059e-02, -5.317331105e-02, 7.500670850e-02, 9.852281958e-02, 5.535956100e-02, -8.446534723e-02, 1.232148930e-01, 6.900490075e-02, -2.332365699e-02, -8.858282864e-02, -6.570764817e-03, 1.083291844e-01, 2.095982283e-01, 1.030555293e-01, 3.400303051e-02, 2.745199949e-02, 1.731208116e-01, 8.096116781e-02, -1.316456050e-01, 2.210313827e-02, -1.323210821e-02, 1.480105519e-01, -2.036672682e-01, 7.925267518e-02, 5.909647048e-02, -1.763880104e-01, 4.630094022e-02, 4.242714867e-02, -6.443799473e-03, -1.463211142e-02, 1.042864621e-01, -1.222887263e-01, -6.523195654e-02, 1.122321188e-01, -1.152611300e-01, 2.518223412e-02, -9.523070604e-02, 1.889165118e-02, 1.413876750e-02, 1.272037346e-02, -1.674483567e-01, -1.533357427e-03, -9.406457096e-02, 2.270021588e-01, -9.389759600e-02, 1.431723982e-01, 1.842539571e-02, -3.195949830e-03, -7.293574512e-02, 1.665908098e-01, -2.177312411e-02, -5.752445012e-02, -1.678869128e-01, 4.945085943e-02, 2.433841117e-02, 1.271277219e-01, 6.293746829e-02, -1.148212180e-01, 8.351963945e-03, 3.683486953e-02, -8.414477855e-02, 4.429816827e-02, 4.772712663e-02, -1.041368693e-01, -3.062877432e-02, -8.268294483e-02, -1.795040667e-01, -3.255977109e-02, 7.052732259e-02, 1.475819014e-02, 1.086854190e-01, -4.869186133e-02, 1.267201900e-01, -9.300284833e-02, -1.028512791e-01, 1.248341128e-01, 1.088261232e-02, -8.965105563e-02, 8.927973360e-02, 1.278259326e-02, -7.956937701e-02, 1.034464389e-01, -1.050738245e-01}, {3.190298006e-02, -2.955456078e-01, -1.775713116e-01, 1.280333381e-02, -1.990804970e-01, 1.320881695e-01, -4.970624298e-02, -1.836760193e-01, 4.521237686e-02, -7.174201310e-02, -2.805148251e-02, -6.770572811e-02, 1.047568396e-01, 8.610288054e-02, 1.082351282e-01, -5.497210100e-02, 9.327670187e-02, -2.206394263e-02, -1.865149289e-02, 2.157525718e-01, 4.826670885e-02, 7.110325154e-03, 5.199695006e-02, -3.589949608e-01, -2.781670690e-01, 1.292369962e-01, -7.494299207e-04, 4.980340973e-02, 6.908238679e-02, -2.874673605e-01, 3.929738700e-02, -4.540049732e-01, -1.238392219e-01, -9.548617154e-02, 2.149009705e-01, 3.009970114e-02, -3.186681867e-01, 3.356443718e-02, 4.476875439e-02, 9.669974446e-02, -5.944161490e-02, 2.110895142e-02, 8.358903229e-02, -9.285078198e-02, -1.165928617e-01, 8.926355094e-02, 4.882180691e-02, 6.925640255e-02, 9.053172916e-02, -3.060906567e-02, -5.260869861e-02, -1.014811546e-01, -1.347779483e-02, -1.396170855e-01, -2.952022105e-02, 9.431255609e-02, -6.941480935e-02, -1.078218967e-01, -2.885761559e-01, -8.780091070e-03, 4.190475494e-02, 9.310207330e-03, 8.923715353e-02, 9.959506243e-02, -4.754489660e-02, -6.117198151e-03, -1.211710274e-01, 4.086096212e-02, -6.180115789e-02, -1.860089600e-01, 8.259703219e-02, -1.593308710e-02, 5.903076380e-02, 3.174659908e-01, -8.666957729e-03, 3.273828700e-02, -6.428196281e-02, -8.666124195e-03, 1.528832247e-03, -3.121503629e-02, -3.197713494e-01, 2.340218127e-01, -1.425762773e-01, 8.164482564e-02, -4.086327553e-01, 2.795404568e-02, 7.296951860e-02, -5.896081030e-02, 9.182941169e-02, 7.288669795e-02, 1.414051801e-01, 2.790232934e-02, -7.834073156e-02, 8.599960804e-02, 6.461193413e-02, 8.452113718e-02, 5.955870822e-02, -1.440532058e-01, -3.745040670e-02, 9.653624892e-02, 3.524300084e-02, 2.132729255e-02, 7.800812274e-02, -1.097080857e-02, 1.047642380e-01, 1.046801284e-01, -1.024406776e-01, -3.219483048e-02, 7.033968717e-02, -7.500344515e-02, -7.709494326e-03, 1.093746647e-01, -3.973459303e-01, 6.291889399e-02, 1.468784828e-02, -4.472420737e-02, 7.261480391e-02, 2.127110772e-02, -1.650176244e-03, 4.033848643e-02}, {-2.538653463e-02, -1.600904614e-01, -9.300941974e-02, -5.009287037e-03, 1.713953167e-02, -3.606048971e-02, -5.829526484e-02, 1.988683343e-01, 4.553777725e-02, -8.624865115e-02, 9.399429709e-02, -1.036330163e-01, -1.070449036e-02, -5.855507031e-02, 1.355035417e-02, 1.126324087e-01, 4.287113249e-02, 2.017583512e-02, 3.156773001e-02, -2.198908105e-02, -3.669385985e-02, -2.793905139e-02, -1.041419618e-02, 7.077991962e-02, 1.575812101e-01, -9.090113640e-02, 4.294736683e-02, 5.141880829e-03, -2.098411322e-02, 7.858308405e-02, 5.705777183e-02, 1.839323193e-01, 7.624016702e-02, -1.882432848e-01, -6.224982208e-04, -1.332259476e-01, -2.721473947e-02, 1.302952915e-01, 6.277235597e-02, -6.294567883e-02, -7.597119361e-02, 3.973684832e-02, 7.714150473e-03, -9.437766857e-03, -5.632432550e-02, -9.665486217e-02, -1.389133465e-02, 1.031362638e-01, 1.200716197e-01, -6.113350019e-02, -3.768338263e-02, 2.216899768e-02, 7.018240541e-02, 6.971979141e-02, -6.200804561e-02, 1.391953602e-02, 4.958379269e-02, -2.555796504e-02, 1.520445198e-01, 1.400548667e-01, 9.249623865e-02, 4.287852906e-03, 5.995766446e-02, 1.874881536e-01, -3.284376115e-02, 1.890375651e-02, -7.925018668e-03, -3.246098757e-02, -1.013240032e-02, 4.637872800e-02, -6.022409536e-03, 1.113862991e-01, 8.879876696e-03, 7.655475289e-02, -9.503258392e-03, -6.446541101e-02, 9.243514389e-02, -7.024297956e-03, 9.495308995e-02, 5.498178676e-02, 9.023585916e-02, 1.850550435e-02, 1.276221313e-02, -8.523198962e-02, 5.745254084e-02, 5.501891021e-03, -7.980008610e-03, -4.709221050e-02, -9.908878803e-02, -1.587639377e-02, 1.200315282e-01, 8.294715732e-02, -1.477701515e-01, 8.021347225e-02, 2.444781922e-02, 8.786584437e-02, 2.725091949e-02, 2.506968975e-01, -3.077309579e-02, 4.696324840e-02, 9.853006899e-02, 4.176082462e-02, 1.123691276e-01, -8.747949451e-02, 4.349859059e-02, 1.069088746e-02, -3.117860109e-02, 1.020638496e-01, -2.852694131e-02, -2.470633090e-01, -3.905903921e-02, -5.073927715e-02, -1.240093261e-01, 6.082239747e-02, 6.117862463e-02, 8.031249046e-02, 3.086850792e-02, 3.946789727e-02, 8.116199076e-02, 1.652871072e-02}, {-1.993112639e-02, -5.783546716e-02, 7.212733477e-02, -2.941191010e-02, -1.298255622e-01, -1.332171168e-02, 1.131218020e-02, 5.307378620e-02, -7.687970530e-03, 8.044810593e-02, 6.750614196e-02, 3.223165404e-03, -1.126360614e-02, 5.309574306e-02, -4.356104508e-02, 8.658266068e-02, 2.331860131e-03, 2.510354854e-02, -2.090806328e-02, -9.538088925e-03, -7.831399888e-02, 1.010074019e-01, -8.819974959e-02, -1.499790139e-02, -1.707931049e-02, -1.317645758e-01, 8.643699437e-02, 5.421972275e-02, -9.837615304e-03, 2.648559771e-02, -8.885684609e-02, 4.954300821e-02, -1.323630661e-01, 1.976763457e-01, -4.921505228e-02, -1.204544455e-01, 1.137526408e-01, 6.668669730e-02, 4.647896811e-02, 1.035634205e-01, -6.928750873e-02, 1.437091827e-02, -8.437150717e-02, -1.062971577e-01, -1.548147053e-01, 4.136002809e-02, -8.774606884e-02, 1.115456298e-01, 1.906608194e-01, -4.593222216e-02, 8.331256360e-02, 1.264772727e-04, -1.173979696e-02, 4.248419032e-02, 7.598349452e-02, -6.506983936e-02, -3.869174793e-02, -8.312351257e-02, 2.121361047e-01, 3.712220117e-02, 1.825025678e-01, 5.411123112e-02, 1.285121888e-01, 8.514904231e-02, 6.702879816e-02, 5.311833695e-02, 7.997260988e-02, -8.182268590e-02, 1.082382910e-02, 1.082489267e-01, -1.069645286e-01, 9.173867106e-02, -3.392347693e-02, 1.079498976e-01, 7.360537350e-02, 4.149232805e-02, 3.754057735e-02, 1.425862014e-01, 1.510986388e-01, -8.639549464e-02, 6.723829359e-02, 8.597449958e-02, 4.177180305e-02, 1.358713396e-02, 1.643908024e-01, 1.177965328e-01, -5.717997625e-02, -1.345537156e-01, 1.449868083e-01, -2.193997428e-02, 4.081511870e-03, 4.783284292e-02, -1.165852137e-02, 7.156106830e-02, -4.452107847e-02, 1.338582933e-01, 8.680279553e-02, -2.118257582e-01, -8.804380894e-02, 1.014642939e-01, 7.439899445e-02, -1.075069532e-01, 2.306166664e-02, -4.961506650e-02, -4.833589867e-02, -6.176797301e-02, 5.155048147e-02, -2.348934114e-02, -1.543653477e-02, -6.126466021e-02, 7.252776623e-02, -1.692890935e-02, -9.608764946e-02, 1.840859652e-03, 1.371526569e-01, -8.254379779e-02, 9.518647194e-02, 2.205981500e-02, 1.083782390e-01, 1.334080193e-02}, {3.753712028e-02, -9.030754864e-02, 3.766484559e-02, -6.492946297e-02, -1.035196185e-01, 8.630436845e-03, -3.761912230e-03, -1.352214366e-01, 1.048294269e-02, -1.513963044e-01, 4.422925040e-02, -1.349560320e-01, -4.623603821e-02, 8.943345398e-02, -1.527415588e-03, 4.308536183e-03, -5.116414651e-02, 1.086061262e-02, 1.101389676e-01, -3.989085928e-02, -8.281244338e-02, 5.642855540e-02, 3.048207238e-02, 6.764910370e-02, -1.127911806e-01, 4.962569848e-02, 7.491578907e-02, -2.641681023e-02, 6.981915981e-02, -3.901389241e-02, -1.133025885e-01, 7.213050872e-02, -2.120194882e-01, 1.838705242e-01, -5.967340618e-02, 4.071552679e-02, -3.368111700e-02, -5.397073925e-02, 6.668244302e-02, 1.267012767e-02, 5.578435585e-02, -1.172529757e-01, -9.237002581e-02, -1.451136321e-01, 1.530693173e-01, -4.214236885e-02, -9.347075224e-02, -1.419269145e-01, 4.525446147e-02, 9.300037473e-02, -7.667254657e-02, 1.023582146e-01, 4.638397321e-02, -9.179941565e-02, 2.624593303e-02, 4.394003376e-02, -3.757748753e-02, 9.276545048e-02, -6.252465397e-02, -5.283365026e-02, 7.574561983e-02, -7.818399370e-02, -3.768348601e-03, 8.221222460e-02, -9.108341485e-02, 6.096113473e-02, -2.648256347e-02, -5.418772995e-02, -2.047430873e-01, 7.348981500e-02, -3.150017187e-02, 8.284813911e-02, 5.250957981e-02, 7.968859375e-02, 1.634937525e-01, 1.413184404e-01, -5.197643302e-03, -4.649016634e-02, 4.120429978e-02, -9.716109931e-02, -8.947329223e-02, -7.064740360e-02, 6.523120403e-02, -3.716233745e-02, -2.873183228e-02, -3.028288856e-02, 2.122371830e-02, -5.910748988e-02, 5.696912855e-02, 1.249215677e-01, -2.288313117e-03, -3.908551112e-02, -9.401703626e-02, -2.836169675e-02, 6.164507940e-03, -3.584670648e-02, 7.228060067e-02, 5.218176171e-02, 1.198261157e-01, 3.050866723e-02, -3.371281549e-02, -9.228129871e-03, 6.238925830e-02, -1.144883335e-01, 6.967318803e-02, -1.004146971e-02, 9.401207790e-03, 4.070321470e-02, -8.462502807e-02, 6.407911330e-02, -9.666202962e-02, 8.841155469e-02, -7.067704201e-02, 4.111945163e-03, -4.186945036e-02, 7.226906717e-02, -1.008803211e-02, 2.136041038e-02, 4.770571738e-02, -9.653393179e-03}, {9.315515310e-02, 2.902643941e-02, -7.030940801e-02, 1.076538563e-01, -1.162112877e-01, 2.580263093e-02, -2.647313289e-02, -1.616573632e-01, 4.861034080e-02, -6.802678853e-02, -4.338645190e-02, -1.091126427e-01, 8.753413334e-03, 2.621116489e-02, 2.658259310e-02, -1.099072471e-01, -1.727441140e-02, 1.698031090e-02, -1.895836443e-01, 8.952803165e-02, 5.237726495e-02, -3.736677766e-02, -9.162157774e-02, -2.090363204e-02, 1.885452121e-02, 5.098944996e-03, 2.321233600e-02, 2.199965529e-02, 7.447792590e-02, 3.118477762e-01, -3.857791051e-02, 7.973955944e-03, -6.862124801e-02, 3.173688650e-01, 1.122128963e-02, 3.524577618e-02, 6.862810254e-02, -1.737833722e-03, -1.152698398e-01, 1.895948127e-02, 1.781483144e-01, -2.048636787e-02, 7.604233176e-02, -8.992717415e-02, 7.858894020e-02, 3.514108434e-02, 2.681065910e-02, 1.198075333e-04, -1.837934181e-02, -8.663570136e-02, 4.805198684e-02, -4.604220763e-02, 2.231870033e-02, -1.075233370e-01, -2.290020697e-02, 8.721170574e-02, -3.083634749e-02, -3.662055731e-02, -1.085992903e-01, 5.321481731e-03, 8.239395916e-03, 8.314150572e-02, -3.226751834e-02, 3.846984357e-02, 9.987932630e-03, -5.847627670e-02, -2.716197260e-02, -5.774475262e-02, -1.590363309e-02, 1.798848063e-01, 8.449244313e-03, -6.167792249e-03, -7.095453888e-02, 6.911151856e-02, -7.254534960e-02, 9.203170985e-02, 1.068565995e-01, -8.702363074e-02, 3.284650669e-02, 1.396814734e-01, -2.406575829e-01, 1.053432352e-03, -6.518702954e-02, 8.745129220e-03, -1.926728338e-01, -6.706812419e-03, -3.188214451e-02, 5.795718357e-02, 2.312338538e-02, 5.133434013e-02, -2.928092703e-02, -3.051982448e-02, -4.202520251e-01, -3.192632645e-02, 4.544434696e-02, 1.897836663e-02, 2.477171645e-02, -1.073302627e-01, 8.619470894e-02, -2.625295520e-02, -4.129330814e-02, 3.473541234e-03, -3.521575779e-02, -1.610868424e-02, -1.622546464e-02, 3.078662604e-02, 4.687033221e-02, 1.170392409e-01, 4.773565754e-02, -6.172240898e-02, 8.328080177e-02, 6.096938625e-03, -1.858288944e-01, 2.423591539e-02, -6.250451505e-02, 4.102848470e-02, 1.804142632e-02, 9.053017944e-02, 1.815353334e-02, -3.707212582e-02}, {1.925441809e-02, -6.252714992e-02, -1.331738681e-01, -4.468818754e-02, 9.923002124e-02, -2.059686370e-02, 3.090964444e-02, 7.637128979e-02, -5.861624959e-04, 7.954481058e-03, -8.058572561e-02, 3.510336578e-02, 2.548284084e-02, 9.697601199e-03, 4.008936137e-02, 3.154924512e-02, 5.358605832e-02, 1.225191653e-01, -2.329740375e-01, -3.503090236e-03, -2.885744534e-02, 6.963012367e-02, 2.251057513e-02, 2.341198921e-01, -1.051913202e-02, 2.059901506e-02, 1.355584264e-01, -8.388490975e-02, -2.344340645e-02, 2.392257191e-02, 2.081002668e-02, 8.631544560e-02, 2.307996526e-02, -1.215331629e-01, -2.955661342e-02, -3.774758056e-02, 7.478605956e-02, -5.401594564e-02, -3.441142850e-03, 2.154636979e-01, 2.389956266e-01, -1.639617532e-01, 1.579228602e-02, -2.940639853e-02, -3.740758076e-02, -1.331988126e-01, -6.796313822e-02, -9.643424302e-02, -3.719806299e-02, -3.760318039e-03, 9.605760127e-02, 1.076295227e-02, 6.722443551e-02, -2.150119543e-01, 8.693270385e-02, -4.218165576e-02, -1.315668076e-01, 3.331860527e-02, 7.783365995e-02, 8.663113415e-02, 1.479256898e-04, 5.165610462e-02, 4.686566535e-03, 1.347703487e-01, 3.474065661e-02, -1.030784752e-02, 1.238115877e-01, -5.710344296e-03, 3.748089820e-02, 1.292259246e-02, -2.451435663e-02, 5.329591036e-02, -5.582191423e-02, 1.141358390e-01, -9.770673513e-02, 8.366176486e-02, 6.330733001e-02, 1.160936579e-01, -3.186834976e-02, -3.597046435e-02, 1.945900172e-02, 2.104907483e-02, 1.024182662e-01, 8.690456301e-02, 1.558803320e-01, 5.824679881e-02, -8.762630075e-02, -1.957775466e-02, 6.046126783e-02, 1.009502113e-01, -3.635246307e-02, -3.022135235e-03, -4.814249929e-03, -1.266168710e-02, 9.116256237e-02, -7.036007009e-03, -1.279283408e-02, 1.449987739e-01, -9.377570450e-02, 5.207294971e-02, -5.537835509e-02, -1.800448075e-02, 6.167931482e-02, -5.185448751e-02, 7.735168189e-02, 4.190809093e-03, -3.035521694e-02, -8.915044367e-02, 1.937400177e-02, -7.568667829e-02, 4.404675588e-02, 8.542775363e-02, -9.217301011e-02, -4.614653438e-02, 7.592807058e-03, 1.132291742e-02, 4.463388026e-02, -2.053395100e-02, 1.539628357e-01, 4.715616629e-02}, {3.566681594e-02, -3.240236267e-02, 2.704639547e-02, -1.902601309e-02, -9.491247684e-02, 1.713307053e-01, 5.356330052e-02, 3.189182654e-02, 6.249215454e-03, -4.787524417e-02, 4.819329455e-02, -1.609690338e-01, -5.205583572e-02, 5.984562635e-02, -1.532362401e-01, 1.566854417e-01, 1.659439877e-02, -8.678246289e-02, 9.573031217e-02, 3.659437643e-03, -1.827312857e-01, 2.963174880e-01, -5.733938888e-02, 3.217885643e-02, 1.210050657e-01, 7.442050613e-03, -5.299644079e-03, 9.426143952e-03, 2.486150712e-02, 6.582164019e-02, -1.184122562e-01, 9.184882790e-02, -3.800951317e-02, -1.740072072e-01, 4.686893523e-02, 9.443019331e-02, -3.521984443e-02, -5.714513827e-03, 1.040961742e-01, 2.177804522e-02, -1.551491674e-02, 1.558056623e-01, -1.387027651e-01, -8.243250847e-02, -7.219171524e-02, 4.830116779e-02, -2.190436423e-02, -5.884246901e-02, 5.114625022e-02, 2.070219815e-02, 8.374077082e-02, 2.779904380e-02, 4.229898751e-02, -7.520070672e-02, -1.176194008e-02, -1.079476438e-03, -7.698509097e-02, -1.819974370e-02, 1.569672301e-02, -1.127615869e-01, 1.414311677e-01, 1.976556629e-01, 2.129627764e-02, -4.870196804e-02, 3.473752365e-02, 9.349981323e-03, 3.185535967e-02, -8.061422035e-03, -5.147271231e-02, -3.321714699e-02, 2.160154842e-02, 8.188432455e-02, -7.464475185e-02, 1.114233509e-01, 9.745035321e-02, -1.342770085e-02, -5.650904961e-03, -3.305585310e-02, 1.709353738e-02, -3.265846521e-02, 1.081761420e-01, -6.146778353e-03, 9.923535585e-02, 5.711184070e-02, 9.946308285e-02, 4.191797227e-02, 1.148800775e-01, 1.053629676e-03, 6.368039548e-02, -5.918432493e-03, 5.282866955e-02, 3.549554199e-02, 8.001139760e-02, 1.154577583e-01, 1.577050239e-01, 2.439815998e-01, 2.327650785e-02, -2.464884371e-01, -1.607436538e-01, 1.193403974e-01, -1.137096900e-02, -9.340390563e-02, 3.493407741e-03, 7.035952806e-02, -5.201004073e-02, -5.669909716e-02, -3.769739345e-02, -9.687987715e-02, -6.838152651e-03, 6.560966372e-02, -6.998375803e-02, -1.390117258e-01, -4.127496108e-02, -4.199694376e-03, 1.072914451e-01, -4.839133844e-02, -1.233359892e-02, -8.778958023e-02, -1.466436405e-02, 6.314828526e-03}, {-6.280229241e-02, -1.944595426e-01, 6.563717127e-02, -2.299841493e-02, 1.290531605e-01, -1.755435765e-01, 1.614201069e-01, -5.720800720e-03, -3.120740876e-03, -8.358752131e-01, 1.617607623e-01, -1.325753182e-01, 1.848054118e-02, 9.478577226e-02, 2.623606473e-02, -1.743791699e-01, -8.682420850e-02, -9.648355842e-02, 6.150409579e-02, 1.428713500e-01, -2.937663198e-01, -1.945410669e-02, -2.012597863e-03, -2.288176417e-01, -7.884630561e-02, -3.395417333e-02, -1.857008934e-01, -2.016804926e-02, -1.601608992e-01, -3.201431828e-03, -1.245939508e-01, 9.489264339e-02, 9.343329072e-02, 4.493727162e-02, -3.551787138e-01, 6.524762511e-02, 1.957712881e-02, 1.074796636e-02, 6.141317636e-02, 3.082340024e-02, 1.046361104e-01, -3.337916434e-01, 1.264965534e-01, -9.340273589e-02, 5.664157867e-02, -6.780474186e-01, -2.567420006e-01, 2.362792846e-03, -1.316122115e-01, -7.598786801e-02, -8.412183821e-02, 5.131091923e-02, 2.460143156e-02, -4.815115407e-02, -7.771494240e-02, 8.536567912e-03, -6.061059237e-01, 7.466806471e-02, 1.801446453e-02, 2.512320876e-02, -4.947238415e-02, -7.206819952e-02, 9.891521931e-02, 5.299146846e-02, -1.417066064e-02, -9.742743522e-02, -1.628170162e-02, -8.281530440e-02, -6.247567385e-02, -1.526562124e-01, -3.447480872e-02, 7.098123431e-02, 1.060303152e-01, -2.942126943e-03, 1.977248304e-02, 5.848621577e-02, 4.010596871e-02, 8.272637427e-02, 3.937488422e-02, 2.469990961e-02, 9.813607484e-02, -2.283579856e-02, 4.024405777e-02, 1.864797175e-01, 3.152292594e-02, 9.120468050e-02, 7.386726886e-02, -2.083502524e-02, -5.928841233e-02, 1.467073262e-01, 8.616940677e-02, -1.053024679e-01, 6.419362035e-04, 7.408398669e-03, -2.614554018e-03, -1.063129902e-01, 8.650972508e-03, 7.569781691e-02, -2.862853743e-02, 1.116044745e-01, 6.451763213e-02, -2.993263006e-01, 8.308264427e-03, -4.917773232e-02, -1.111712009e-01, -1.002827734e-01, -5.845004320e-02, 2.179693729e-01, -1.891410351e-01, -7.561630011e-02, 1.637623832e-02, 1.387328058e-01, 1.632193662e-02, -1.809136569e-02, 7.667478919e-02, 6.259230524e-02, 5.661203060e-03, -1.541905198e-02, 5.149835721e-02, -1.987839937e-01}, {3.056232035e-01, -4.240805656e-02, 8.285415918e-02, -5.274485424e-02, 1.374554783e-01, -5.832260102e-02, -2.788537182e-02, -9.880962782e-03, -5.059818178e-02, -2.331380397e-01, -8.083835244e-02, -1.261069775e-01, -9.690782428e-02, 5.863703415e-02, -6.765659153e-02, 1.746518165e-02, 2.083465084e-02, -2.336422205e-01, 9.840542823e-02, 3.551674634e-02, 4.479414970e-02, 1.090101451e-01, -1.054238230e-01, 1.060450897e-01, -3.669641912e-02, 1.206445172e-01, -2.117166370e-01, -1.999408603e-01, 2.348962985e-02, 6.296012551e-02, 1.333335936e-01, 1.304829717e-01, 1.114306673e-01, 1.077299118e-01, -2.153170295e-02, -8.798017353e-02, 1.835578005e-03, -6.107472256e-02, -1.027268544e-01, -9.958986193e-02, 4.789463058e-02, -1.271758974e-01, 1.086428389e-01, -2.221983224e-01, -8.677356690e-02, 1.181968600e-01, -1.123226508e-01, 5.862892047e-02, 1.190788522e-01, -1.511489507e-02, 1.679848321e-02, 1.788709313e-01, 6.038922444e-02, 2.756237388e-01, -1.355274171e-01, 6.696935743e-02, 1.155771092e-01, 8.580217510e-02, 4.927881062e-02, 5.938871950e-02, 8.631218225e-02, 3.743570298e-02, -5.149788782e-02, -6.367726624e-02, 2.267905511e-03, 1.156938970e-01, -1.495236307e-01, -5.438164249e-02, -6.554450840e-02, 1.239449531e-01, 4.374334961e-02, 1.032612249e-01, 1.746917516e-01, 8.575371653e-02, -1.169587113e-02, -3.287290782e-02, 8.299904875e-03, -1.233934537e-01, 5.454500020e-02, -1.341018975e-01, -6.156717241e-02, -5.006650463e-02, 2.854716592e-02, 5.172100663e-02, 8.583072573e-02, -5.608203262e-02, -1.735444739e-02, 7.030002773e-02, -1.023534015e-01, -3.587394208e-02, -8.289413154e-02, -2.032449655e-02, 5.433163792e-02, 2.944303676e-02, 1.069135219e-01, -7.553876191e-02, 1.281550825e-01, -1.769782454e-01, -5.473155528e-02, 1.711997390e-02, -5.886117741e-02, -2.765502036e-01, 1.232108325e-01, 7.715048641e-02, 6.680011004e-02, 1.663074195e-01, 1.157069765e-02, 1.033833846e-01, -1.424954385e-01, -7.017722726e-02, 5.992000178e-02, 7.358102128e-03, 5.558818579e-02, 9.331330657e-02, 9.238670464e-04, 1.737671159e-02, -6.029679999e-02, 1.510562599e-01, -2.078202218e-01, -2.277925052e-02}, {-8.747595362e-03, -1.926718354e-01, 3.871467337e-02, -1.208677366e-01, -1.035785675e-01, -9.164828807e-03, -7.608168572e-02, 1.451883349e-03, 7.712385803e-02, 1.300337072e-02, -1.849373430e-02, 9.300439805e-02, 5.679965392e-02, 8.669104427e-02, 9.496056288e-02, -3.883602470e-02, -3.201640025e-02, -8.439912647e-02, 1.246277913e-01, 7.453648373e-03, -8.139268309e-02, 4.946932197e-02, 9.502357244e-02, -1.381475925e-01, -1.994338445e-02, 2.120669484e-01, 3.440470621e-02, 1.271037757e-01, -8.137603849e-02, 6.571842730e-02, 1.890349686e-01, -1.644017361e-02, 1.099200249e-01, -4.459147155e-02, -7.403322309e-02, -2.679234371e-03, 6.206501741e-03, 4.014902562e-02, 2.598550357e-02, 3.456818312e-02, 8.469505608e-02, 4.480561242e-02, 3.958850354e-02, -1.423331946e-01, 1.543823779e-01, 3.496395797e-02, -1.284220139e-03, -3.112931550e-02, 2.865071408e-02, -2.106000111e-02, -6.889517885e-03, 3.445454687e-02, 2.988628857e-02, 2.400719794e-03, -8.593035489e-02, 2.919880673e-02, 3.916555643e-02, 6.099901348e-02, 3.884043312e-03, 6.208680570e-03, 6.523049623e-02, -2.517542336e-03, 1.227751300e-01, 6.193591654e-02, 9.155116975e-03, -4.590377584e-02, -1.556736138e-02, -2.073021233e-02, -1.586609781e-01, 1.320977062e-01, -7.127519697e-02, 5.188582838e-02, -2.985159867e-02, 1.144377142e-01, 6.755810231e-02, 1.996318344e-03, -1.355578005e-01, 7.817747071e-03, 1.034041792e-01, -6.541191041e-02, -5.046865344e-02, 7.995106280e-02, 4.205425829e-02, -1.101616248e-01, 1.589863189e-02, 9.117189050e-02, 2.844192274e-02, 9.804210067e-02, 6.485377252e-02, 1.104007438e-01, -9.371250123e-02, 5.110315233e-02, -7.981832325e-02, 4.665137082e-02, -1.168590263e-01, 5.801922083e-02, 6.249372661e-02, -7.723888010e-02, -1.448112912e-02, 3.442521766e-02, -9.558020532e-02, -1.634583622e-01, 8.054700494e-02, 1.044591069e-01, -7.032742724e-03, -3.524330631e-02, 1.801805198e-01, 2.037561685e-01, 1.212517638e-02, -3.672771528e-02, 1.886708289e-02, 2.338974364e-02, 1.714114472e-02, -1.979296282e-02, 4.775849730e-02, -5.429411680e-02, 2.828006819e-02, -1.020201594e-01, -1.097770035e-01, 8.521248586e-03}, {1.023087092e-02, -1.630305499e-01, -9.757464379e-02, 1.424558461e-01, 1.298430860e-01, -7.143574208e-02, 3.487409279e-02, 1.049338430e-01, 8.382175118e-02, -4.387332126e-02, -7.866404019e-03, -2.402490936e-02, 7.595444471e-02, 3.538233414e-02, 4.087805375e-02, 1.483286149e-03, 1.151244435e-02, -1.158038899e-02, -5.149052665e-02, 4.824537039e-02, 2.846381254e-02, -9.680166841e-02, 3.727953136e-02, 1.229834035e-01, -2.975988574e-02, 1.850420684e-01, -5.389998853e-02, -6.696882099e-02, -9.781063348e-02, -6.729541719e-02, 5.071226880e-02, 9.376397356e-03, 4.157129303e-02, 2.036245912e-01, 8.143769950e-02, -3.434634954e-02, 8.133779466e-02, -4.885246232e-02, 6.865823269e-02, 2.959793992e-02, 9.910269082e-02, 8.273679763e-02, 7.987379096e-03, 6.533381343e-02, 1.778089553e-01, 4.822281748e-02, 4.747209325e-02, -7.002804428e-02, -4.723290727e-02, -1.155739278e-02, 6.651863456e-02, 3.345947713e-02, 8.657247573e-02, -3.667692468e-02, -7.989354432e-02, -5.229935050e-03, 2.751304954e-02, -8.073468506e-02, -1.031011492e-01, 2.304816060e-02, 4.114018753e-02, 1.426061150e-02, 4.930413142e-02, -1.901732385e-02, -8.658898622e-02, 2.408980206e-02, -6.075224280e-02, 1.028521545e-02, 1.152767763e-01, 4.475050420e-02, -4.385809228e-02, -1.034461055e-02, -3.832412884e-02, 1.845706254e-02, 4.498435557e-02, 4.095354304e-02, -8.858311176e-02, -1.200494729e-02, -9.485766292e-02, 3.553942963e-02, -2.579655945e-01, 1.063400134e-01, -6.615277380e-03, 2.224539779e-02, -2.445080876e-02, -8.033268154e-03, -1.179257557e-01, -6.616779417e-02, 9.253178537e-02, 5.570612848e-02, -6.154658645e-02, 9.569160640e-02, 7.843121141e-02, -4.789441079e-02, -1.063033473e-02, -3.419152647e-02, -3.286669403e-02, -3.377408162e-02, 4.265757650e-02, -2.509104833e-02, -6.942884065e-03, -3.932791296e-03, -4.187107459e-02, 2.486511134e-02, 4.568628222e-02, 2.133118361e-02, -1.032763422e-01, 3.198006004e-02, -1.126057953e-01, 6.637115031e-02, -3.489917889e-02, -5.336928368e-02, 8.034149557e-02, -1.322415918e-01, 5.297536496e-03, 1.759521514e-01, 5.527925119e-02, 9.393495321e-02, -5.131177604e-02, 4.821594805e-02}, {1.270045759e-03, -1.190087199e-02, 1.074130982e-01, 5.390995368e-02, 4.480465129e-02, -3.697004169e-03, 1.827692538e-01, -4.150580242e-02, -5.148072541e-02, 6.780380756e-02, -3.792145103e-02, -4.908744246e-02, -8.405473083e-02, -8.275722712e-02, 9.931867570e-02, 1.144748926e-01, 8.904502727e-03, -9.042309225e-02, 9.154637903e-02, 5.108835921e-02, -2.501259558e-02, 5.565898120e-02, -5.013705790e-02, -9.174673259e-02, 1.605080813e-02, 1.467179060e-01, 6.568624079e-02, 8.419411629e-02, -9.032201022e-02, -1.137562469e-02, -8.778154850e-02, 4.017390311e-02, 2.399386019e-01, -8.654678613e-02, 3.288846090e-02, 2.848439850e-02, 6.837254763e-02, -7.931564748e-02, 1.042257296e-03, 8.420283906e-03, 3.430255875e-02, -1.534211822e-02, 2.833346091e-02, -1.552203894e-01, 1.748147905e-01, -3.579552844e-02, -6.912471354e-02, 2.622514591e-02, -7.294696290e-03, -3.092380427e-02, 3.153615817e-02, 7.160999626e-02, 1.971416175e-02, 2.735175751e-02, 3.617313504e-02, -1.474705338e-01, -8.230373263e-02, 6.082987785e-02, 4.302563518e-02, 1.089769900e-01, 1.448541135e-01, 5.202567950e-02, -4.541692510e-02, -1.011955291e-01, 1.643200405e-02, -7.845566422e-02, 8.044701815e-02, 6.740505248e-02, -6.626885384e-02, -4.412991181e-02, 4.841639847e-02, -6.146004796e-02, -9.464287013e-02, -2.691427805e-02, -2.720988588e-03, 2.498241141e-02, 7.235257421e-03, -1.346819103e-01, -8.676843718e-03, -1.710682958e-01, 2.074124105e-02, -3.977457527e-03, 5.714038759e-02, 4.882658832e-03, 9.451632947e-02, -1.108914018e-01, -2.800693549e-02, 2.138309181e-01, -5.000618100e-02, 3.041578457e-02, -1.319985092e-01, -6.317047775e-02, 3.043308258e-01, -8.838259429e-02, 6.197873154e-04, -3.019189462e-02, -1.310834102e-02, 9.954050928e-02, 1.835423857e-01, 4.079722241e-02, -8.279974014e-02, -1.210362092e-01, -1.208988111e-02, 5.512658134e-02, 9.498276561e-02, 7.527702302e-02, 4.776380956e-02, 5.387011543e-02, -6.694489717e-02, 7.179347426e-02, 2.963685617e-02, -7.722873241e-02, 6.200668588e-02, -1.638847589e-01, 6.299609691e-02, 3.479119390e-02, -4.034666717e-02, 1.024747547e-02, 1.760569960e-02, -5.582189187e-02}, {-5.823366717e-02, 5.952114984e-02, -1.706542820e-01, -4.501276463e-02, -9.398043156e-02, 4.106876254e-02, -2.525799908e-02, -5.908615142e-02, 1.223426238e-01, -7.946466096e-03, 2.704069205e-02, 2.939384058e-02, 9.805269539e-02, 9.420595318e-02, 2.292385139e-02, 1.035305634e-01, 2.958087437e-02, 5.909840018e-02, -5.140449479e-02, -5.213928409e-03, -3.509078175e-02, -3.320717067e-02, -3.121512569e-02, 1.832828373e-01, 5.169662833e-02, -1.195728406e-01, 1.560150683e-01, -1.382397674e-02, 6.754604727e-02, 9.572134167e-02, -5.088980496e-02, -2.086935490e-01, -4.589013383e-02, -3.920032457e-02, 3.160792962e-02, -1.892431872e-03, 4.584790394e-02, -4.246577248e-02, 1.020088866e-01, -3.513582051e-02, 8.612287790e-02, 4.545565322e-02, 4.165664688e-02, 3.951320890e-03, -8.157653734e-03, 3.762900084e-02, 5.874679238e-02, -1.420313213e-02, 7.239332050e-02, 1.897851354e-03, -1.709581725e-02, 1.148402095e-01, -4.747449979e-02, -3.252793476e-02, 2.624476328e-02, 3.822470084e-02, -3.623148426e-03, 4.722349811e-03, -8.990230970e-03, -1.656318642e-02, 9.172167629e-02, 8.338431828e-03, 1.668263823e-01, -1.130316779e-01, 4.580140859e-02, 3.474805132e-02, 3.881717101e-02, 1.749982126e-02, -5.142764375e-02, 8.881791681e-02, 5.730694160e-03, -4.216350615e-03, -1.312893629e-01, 2.002595924e-02, 1.247720718e-01, 2.631697953e-01, -1.736000739e-02, 7.078173012e-02, 1.765493304e-01, 4.570312425e-02, -1.388915479e-01, 1.656503789e-02, 5.936506018e-02, -9.365615249e-02, -8.590605855e-02, 7.976093143e-02, 5.103208125e-02, 3.171978518e-02, -5.807161331e-02, -2.865304798e-02, 1.047302969e-02, 5.547195673e-03, -1.582650095e-01, 3.380785137e-02, -8.394152671e-02, 5.724145472e-02, 3.389488906e-02, 4.642417282e-02, 2.483324148e-02, 9.298296273e-02, 8.160806261e-03, 6.828635233e-04, 1.019988731e-01, 5.411840975e-02, -2.553950995e-02, -2.373565361e-02, -1.241414808e-02, -1.118548512e-01, 4.606718197e-02, -2.978846803e-02, 1.014009565e-01, -1.761591062e-02, 4.135289043e-02, 1.042805612e-01, -1.998765580e-02, 5.649532750e-02, 9.467725456e-02, 6.036334857e-02, -4.204026982e-02, 1.110882834e-01}, {1.191456616e-01, -1.017234921e-01, -1.214477117e-03, -6.849772483e-02, 6.393743306e-02, 4.012452066e-02, 4.271570221e-02, -2.256785147e-02, 1.567985862e-01, -2.623840421e-02, -7.414699532e-03, -2.415930331e-01, 8.831504732e-02, 5.760865286e-02, -2.099661157e-02, -6.432775408e-02, 7.048369199e-02, -1.685961150e-02, 1.226873696e-02, -4.360202234e-03, -5.678628758e-02, 1.678256504e-02, 4.382570460e-02, -7.055406272e-02, -2.781472728e-02, 1.898189075e-02, -1.769001782e-01, 6.212417409e-02, 4.955063760e-02, 3.461083397e-03, -3.771759942e-02, -5.961686745e-02, -4.529833421e-02, 5.003351346e-02, 9.032029659e-02, -2.345218323e-02, 9.764616936e-02, -8.870994300e-02, 2.407655492e-02, -5.968599021e-02, 1.136411503e-01, -2.403966635e-01, 9.424433857e-02, -2.331272408e-04, 1.169757321e-01, 3.644456342e-02, 3.370048106e-02, 1.231799200e-01, -4.996017367e-02, -1.002720594e-01, 2.967666276e-02, 2.998051234e-02, 6.447587907e-02, -5.432919040e-02, -5.736248940e-02, 8.795416355e-02, -4.784957692e-02, -1.249342561e-01, 2.827286720e-02, -2.290949076e-01, -2.711112797e-02, -2.170059457e-02, 4.503713921e-02, -3.391226754e-02, -7.308883220e-02, -8.200988173e-02, 1.539704762e-02, -7.600321434e-03, -4.445876926e-02, -3.404762968e-02, -1.957312040e-02, 1.946378127e-02, -4.752627388e-02, 1.320290864e-01, -1.356933545e-02, 9.471184015e-02, -2.571584191e-03, -3.246121109e-02, 6.376868486e-02, 5.736750364e-02, -2.331628948e-01, 1.795439422e-01, -1.218761653e-01, 3.225842118e-02, 2.243184298e-02, 3.069785051e-02, 1.625492051e-02, -2.396301366e-03, 3.047970496e-02, 1.605197191e-01, 6.473065913e-02, -2.678572945e-02, 8.779224008e-02, 3.691911697e-02, -3.500894085e-02, 7.827336341e-02, -6.103103980e-02, -8.849840611e-02, 1.543784738e-01, -9.529376775e-02, 9.939492494e-02, 4.330420867e-02, -3.190123010e-03, -6.209365278e-02, -1.955264807e-02, -4.704196937e-03, -9.608596563e-02, -1.133739110e-02, -6.230811030e-02, -4.055885971e-02, 9.917888045e-02, -6.969563547e-04, -5.147840828e-02, 6.103367731e-02, 1.038773954e-01, -8.581344038e-03, 1.329424083e-01, 2.849881910e-02, -8.136322349e-02, 4.321220145e-02}, {-4.583737999e-02, -4.029429704e-02, 7.532256842e-02, -9.264232963e-02, -7.664345205e-02, -2.012746036e-01, 7.782066613e-02, -1.357867122e-01, 8.046708256e-02, -1.643433571e-01, 1.433350146e-01, -4.234573990e-02, 8.864425868e-02, 1.118165180e-01, 5.220272020e-02, 3.843222186e-02, 1.180685610e-01, 6.173735112e-02, 6.106076017e-02, -3.226533160e-02, 3.724784404e-02, 8.435009047e-03, 2.557810955e-02, -2.418526858e-01, -3.805799410e-02, 3.452971205e-02, -1.181597933e-01, -1.912058741e-01, 2.204405703e-02, 9.317157418e-02, -1.051544305e-02, -5.650270730e-03, -8.794027567e-02, 1.506612599e-01, -8.282693475e-02, -1.164468601e-01, 1.748539805e-01, -5.017581210e-02, -2.866274305e-02, -6.507501751e-02, 3.037759662e-02, 8.439504355e-02, 8.985044062e-02, -3.948667347e-01, -7.250528038e-02, -4.346598312e-02, 7.991408557e-02, -9.561915696e-02, 7.762727141e-02, -9.921902418e-02, -5.328768119e-02, 2.774935775e-02, -3.509298200e-03, 3.317014128e-02, 3.947662935e-02, -8.306204528e-02, -2.525243163e-01, -2.139449120e-02, 5.419263989e-02, -1.296783835e-01, -2.158365212e-02, -1.147847921e-01, -4.958308861e-02, 6.388237327e-02, -1.329415143e-01, -6.872531772e-02, -8.025129884e-02, -1.281093359e-01, 1.496884855e-03, 9.864879400e-02, -3.680969402e-02, -7.150597870e-02, 2.636549249e-02, 8.591373451e-03, 1.224727333e-01, 7.503347844e-02, -1.724134088e-01, -2.194401920e-01, 5.785732344e-02, -1.299598347e-02, -1.540318280e-01, 4.977108911e-02, -4.501655325e-02, 1.294478178e-01, -8.814658225e-02, -5.690910667e-02, -6.002636626e-03, 3.989611566e-02, -9.193098545e-02, 6.395097822e-02, 1.058318280e-02, 1.489190012e-01, 2.725741826e-03, 1.737042069e-01, -1.128304843e-02, 1.875212044e-02, 1.644532979e-01, 1.871207729e-02, -3.649558723e-01, 3.120744228e-02, 1.425267692e-04, 2.345513925e-02, 1.861901209e-02, -2.393252105e-01, -8.066082746e-02, -1.009458825e-01, -6.200748309e-02, 6.651925296e-02, -1.533773541e-02, -2.601993829e-02, -1.072421670e-01, 2.434920147e-02, 4.540060181e-03, 1.470383406e-01, -1.124663185e-02, 2.586649060e-01, 4.338617995e-02, 8.152536303e-02, -7.382873446e-02, -5.736519769e-02}, {1.467002779e-01, 3.416566178e-02, 6.604676694e-02, -7.429635618e-03, 3.960671648e-02, -4.699904844e-02, 1.701766551e-01, 1.656172238e-02, -1.768813655e-02, -2.347893417e-01, 1.769706793e-02, -1.506752670e-01, 2.417008951e-02, 1.478176117e-01, 7.870853879e-03, -4.668847099e-02, 4.082839563e-02, -1.358002611e-02, 8.173628151e-02, -5.822248384e-02, 4.507068545e-03, 1.952231489e-02, 1.153795868e-01, 2.071732432e-01, 1.865637896e-04, -9.937489033e-02, -2.270162404e-01, 5.237001926e-02, -1.641196311e-01, 3.027371690e-02, -8.868320286e-02, 1.706539653e-02, 9.947701544e-02, 3.477334976e-02, -9.257437661e-03, -2.752977312e-01, -2.450803295e-02, 1.347438339e-02, 1.364606321e-01, -3.135706857e-02, -8.302003145e-02, -3.756937385e-02, 3.918128833e-02, -1.524945498e-01, 2.145354822e-02, 4.323827103e-02, 1.248588935e-01, -8.882904798e-02, 2.116424739e-01, 6.284233928e-02, 2.657989040e-03, 1.090922505e-01, 7.534498721e-02, -1.697390899e-02, 1.946357824e-02, -5.231227353e-02, 1.380046904e-01, -6.256535184e-03, -2.520662267e-03, 5.518797413e-02, -8.671892434e-02, -6.976123899e-02, -2.259582654e-02, 1.141301617e-01, -5.632451773e-01, -2.624504268e-01, -1.464629620e-01, -5.353609324e-01, -8.352742344e-02, -4.770281538e-02, 1.061475798e-01, 2.349449694e-02, -6.188668683e-02, 2.306486247e-03, 4.260920733e-02, -7.483911235e-03, 1.161308885e-01, -1.258876473e-01, 1.811629161e-02, 8.942773193e-02, -1.117507070e-01, -9.891333990e-03, 6.434321404e-02, 1.151278540e-01, -1.495137997e-02, -3.834644333e-02, 8.527489752e-02, 4.159254581e-02, -7.294015586e-02, 1.303512007e-01, -1.252168119e-01, -1.923623681e-02, 1.045134142e-01, 6.713216752e-02, -2.485489473e-02, -8.590899408e-03, 9.680592269e-02, 5.013031140e-02, -2.913099825e-01, -4.429650493e-03, -6.844767183e-02, 6.781327724e-02, 1.138045266e-02, -1.170549691e-01, -9.281928092e-02, 3.824403137e-02, -1.243758351e-01, -5.558106303e-02, -9.957389534e-02, 6.945307367e-03, -1.855875105e-01, 1.208676100e-01, 8.977553993e-02, -2.998460270e-02, 2.223092318e-02, 3.453073092e-03, 4.349385947e-02, 2.595319413e-02, 7.587033510e-02, -1.560863405e-01}, {-1.915592467e-03, 5.898946524e-02, 5.966762453e-02, 5.279110372e-02, -2.100401558e-02, -4.986433312e-02, -1.794354171e-01, 1.022480205e-01, 2.001052909e-02, 1.583535597e-02, 1.198124886e-01, -2.043875158e-01, -7.369490713e-02, -1.368087437e-02, 1.031677499e-01, 3.175726533e-02, 1.301869601e-01, -1.470029075e-02, -4.624590278e-02, -6.413205713e-02, -1.304620504e-01, 1.080578044e-01, 1.133730114e-01, 6.222524866e-02, -3.402739018e-02, 8.831274509e-02, -1.476788819e-01, 6.067821756e-02, 4.448357970e-02, 1.112103313e-01, 3.158561885e-02, 1.287020626e-03, 6.008348987e-02, 9.700371884e-03, 3.607974201e-02, -3.686964512e-01, 5.132265761e-02, -1.185715348e-01, -9.549774230e-02, -9.334572405e-02, 7.893341780e-02, -2.351542562e-02, 4.939501174e-03, -1.406496912e-01, -6.354095787e-02, 1.064961404e-01, 1.786319017e-01, 1.731150225e-02, -6.389607489e-02, 9.333622456e-02, 8.637990803e-03, 7.256374508e-02, -6.100927293e-02, -8.407454006e-03, -1.391376555e-01, 3.193237633e-02, 6.175082177e-02, -6.032581255e-02, -2.416065894e-02, -3.485970199e-02, -1.512593962e-02, -6.602139026e-02, 6.246943772e-02, -4.898952320e-02, -4.563556984e-02, 8.411351591e-02, -2.625373565e-02, -3.335495889e-01, -1.464015990e-01, -1.213732641e-03, 2.038360946e-02, -3.103910713e-03, 1.046653911e-01, -6.508683413e-02, -7.199402899e-02, 3.449827805e-02, 1.151231676e-01, -8.502998948e-02, -1.451498270e-02, -6.917296350e-02, -2.161863744e-01, -9.530276060e-02, 5.647487193e-02, 9.123018943e-03, 2.655049413e-02, 1.499120239e-02, -1.225051433e-01, 6.146092713e-02, -1.439705640e-01, -1.052527949e-01, 7.129822671e-02, 2.171441726e-02, 4.382946715e-02, -3.753575729e-04, -5.481170863e-02, -6.600670516e-02, 6.386996061e-02, 1.464433372e-01, 8.695819229e-02, 7.465363294e-02, -2.849345095e-02, 8.371216059e-02, 1.951457374e-02, 3.863488883e-02, -3.245270252e-02, 3.107104450e-02, 2.097144257e-03, 1.616871208e-01, 7.242511213e-02, 5.741541460e-02, -5.519864336e-02, -1.509984490e-02, 6.865912583e-03, 4.769557714e-02, -2.298086137e-01, 9.172822349e-03, -5.803856626e-02, -1.179358512e-01, -1.191654429e-02, 4.290051386e-02}, {-4.485429265e-03, 1.670414209e-01, 1.053334028e-01, -1.209898889e-01, 2.758934535e-02, -5.939270183e-02, -5.929190665e-02, -1.076141000e-01, -1.397664398e-01, 8.570006490e-02, -1.785488278e-01, 3.021535091e-02, 1.083725020e-01, 9.483627230e-02, 9.837375581e-02, 1.694112085e-02, 6.451358646e-02, -2.230356075e-02, 1.238356680e-01, -1.205011457e-01, 5.762570351e-02, -6.708694994e-02, 2.753428183e-02, -1.076016203e-01, 7.599475235e-02, -8.704790473e-02, 9.239669144e-02, -8.605115116e-02, 2.576247044e-02, 2.624284290e-02, 3.490355238e-02, -1.265185699e-02, 5.216603354e-02, -8.988959342e-02, 1.661577821e-01, 1.700271107e-02, -5.517203361e-02, 1.645463556e-01, -7.958462089e-02, 3.892927989e-02, -1.896087825e-01, 2.042066604e-01, 2.209727466e-02, -1.057789326e-01, 4.871295765e-02, 4.952513054e-02, -1.277804524e-01, -3.600162640e-02, -7.102131844e-02, -4.309887812e-02, 1.385122687e-01, -1.316411328e-02, -1.071570069e-02, -2.693692595e-02, 6.101289764e-02, -3.867008165e-02, -1.023113821e-02, 6.743708998e-02, -1.306462884e-01, 8.406522870e-02, 3.332161903e-02, 1.412800997e-01, -4.105153959e-03, -2.570155822e-02, 5.880885571e-02, 6.464915350e-03, -1.227561906e-01, 6.832655519e-02, 1.631675363e-01, -1.143023297e-01, 1.107525751e-01, -8.425407857e-02, 1.101702526e-01, 5.406562611e-02, 6.050772592e-02, -7.108440995e-02, -4.937924445e-02, 1.822868884e-01, 4.837334156e-02, -8.743699640e-02, -2.568332013e-03, 6.154500693e-02, -5.161709711e-02, -8.674052544e-03, -2.265597507e-02, -6.221828610e-02, -1.141951680e-01, 5.458202213e-02, 3.867909312e-02, 4.224232212e-02, -1.847795211e-02, 6.880421937e-02, -1.111738682e-01, -1.381826103e-01, -3.827220947e-02, -4.530134797e-02, 7.162869722e-02, 5.270725861e-02, 1.283046752e-01, 3.302332386e-02, 5.774908885e-02, 5.264035985e-02, 1.081069931e-01, -3.065013327e-02, 4.127605632e-02, -3.452745825e-02, 1.447583437e-01, -7.221238315e-02, -2.549403906e-02, -1.226450652e-01, -1.883169636e-02, 9.361565113e-02, 5.626960099e-02, 8.012449741e-02, 9.250103496e-03, -2.137084957e-03, 1.663546711e-01, 1.611334085e-01, -4.088696837e-02, -5.915785208e-02}, {1.745217592e-01, -6.388599277e-01, -1.710643768e-01, -5.079130083e-02, 2.702473104e-01, -1.787976921e-02, 1.089877784e-01, -6.849389523e-02, 1.145415679e-01, -1.764420122e-01, -4.897354171e-02, -1.320096571e-02, 4.171150923e-02, 1.460511386e-01, 7.551544905e-02, -8.899625391e-02, -2.478624135e-02, 3.720736131e-02, -6.120136939e-03, 7.294643670e-02, 7.297832053e-03, 3.528001159e-02, 8.616326377e-03, 1.949467808e-01, -4.786873236e-02, -1.576371342e-01, 1.548615992e-01, 6.279121339e-02, 3.562320396e-02, 3.942770511e-02, 8.599433303e-02, 4.319513589e-02, -9.743107110e-02, 1.563965715e-02, 2.012173273e-02, -8.557832986e-02, 7.392904907e-02, 3.003825620e-02, -1.112014055e-01, 1.499627531e-01, -5.342400447e-02, -1.273408234e-01, 1.859869957e-01, -1.342375875e-01, 1.523348093e-01, 3.960578889e-02, -1.073810607e-01, 1.740762293e-01, 4.325375892e-03, -4.421178401e-01, -9.722391143e-03, 2.952413075e-02, 1.719997972e-01, -8.688151836e-02, 5.446864292e-02, 1.895693541e-01, -1.171773449e-01, 5.859035999e-02, 1.691023856e-01, 6.497279555e-02, -8.416604996e-02, -1.018554997e-02, 7.556900382e-02, 2.059131674e-02, -6.300928444e-02, -1.980718412e-02, -8.954383433e-02, -5.072347820e-02, -9.492778033e-02, -2.672588080e-02, -7.511907071e-02, 9.066790342e-02, -1.636548713e-02, 1.943482161e-01, 6.275663618e-03, 3.782305866e-02, 1.678865701e-01, -1.261444986e-01, -7.868536562e-02, 6.180237606e-02, -2.475125939e-01, 6.482444704e-02, 4.987157509e-02, -4.029120132e-02, -5.528165959e-03, -1.139179543e-01, -1.175468192e-01, -2.418950200e-02, 1.079337858e-02, -5.596369971e-03, -6.839214265e-02, 2.946264669e-02, -1.567551643e-01, 8.468275517e-02, 8.357387036e-02, -2.055585943e-02, -1.675058901e-02, -1.479198933e-01, -6.044055149e-02, -5.383597687e-02, 9.309554845e-02, -4.954047501e-02, -1.013832912e-02, -5.178559199e-02, 7.177320123e-02, -7.005247474e-02, 1.353148818e-01, -4.964502528e-03, 4.510592204e-03, -5.711964145e-02, 1.021141335e-01, 2.980360761e-02, -1.029085591e-01, 6.242683530e-02, -6.386282295e-02, 1.040773690e-01, 7.945073396e-02, -5.421056878e-03, 1.004763246e-01, -5.361856893e-02}, {9.380940348e-02, 