#include "nn_parameters.h"

// NN network parameters -- atribute values
const float weights_in[NUM_NODES][NUM_STATES] = {{-7.767439634e-02, 1.006139740e-01, 3.128364310e-02, 8.941059001e-03, -3.730607778e-02, 1.437730808e-02, -2.839308465e-03, 2.101581171e-02, 2.249625139e-02, 6.144554168e-02, -1.754741818e-01, -2.644716948e-02, -3.639510367e-03, 2.538392507e-02, 1.183688417e-01, 1.263025641e+00, -5.275614932e-02, -1.829661988e-02, -8.359595388e-02}, {2.618968785e-01, 4.066197872e-01, -2.880305424e-02, -1.184480637e-01, -3.139817417e-01, 5.345472693e-02, -1.804654151e-01, 6.402750313e-02, 9.632580727e-02, 2.619983554e-01, 1.292693615e-01, 2.260106057e-02, -7.565303147e-02, -1.250370443e-01, -2.242948674e-02, -3.159608692e-02, 5.169367418e-03, 5.173357949e-02, -2.529837936e-02}, {-9.660440683e-02, 1.538686007e-01, -1.341589093e-01, 7.275255024e-02, -1.883624643e-01, 3.749913275e-01, -5.100041628e-01, -9.341387451e-02, -2.281568497e-01, -1.101729795e-01, -4.707502201e-03, 5.428787321e-02, -5.141220093e-01, 1.823081225e-01, 7.220168412e-02, -2.045639753e-01, -1.504240930e-01, -6.246125326e-02, 2.460681833e-02}, {-1.467893124e-01, -2.213238925e-01, 3.138124943e-01, 2.503661215e-01, 2.977362573e-01, -4.288361669e-01, -6.329232454e-01, 3.371004164e-01, -1.703627557e-01, 5.387538671e-02, -4.747029766e-02, -2.706614032e-04, -6.567279249e-02, -3.568863869e-02, 8.705168962e-02, 5.342822149e-02, 2.012249082e-03, -1.783797517e-02, 5.977524444e-03}, {-9.241655935e-04, 1.854052842e-01, -4.249973595e-01, 6.194951013e-02, -2.405121028e-01, 3.592583537e-01, -1.899481714e-01, -9.187884629e-02, -1.925009303e-02, -4.301653057e-02, 2.666092478e-02, 9.036819451e-03, 2.421770245e-02, 1.302471198e-02, 3.158934414e-02, 5.290146172e-02, -3.847393021e-02, 8.471083129e-04, 4.613607749e-02}, {-3.841106966e-02, 1.256119758e-01, -5.010601878e-01, 3.084011078e-01, -2.089813501e-01, 4.070138037e-01, -4.061059281e-02, 5.041409284e-03, 3.174390271e-02, 9.081447124e-02, 2.624191344e-01, 1.143520400e-01, 7.779631764e-02, 2.558985651e-01, -2.308497876e-01, -1.626983657e-02, -1.864478178e-02, 1.542198062e-01, 3.307338431e-02}, {-2.407603115e-01, -9.909980744e-02, -1.873676181e-01, 3.294158578e-01, 1.314368695e-01, 1.846655011e-01, 8.147313446e-02, -1.820450872e-01, 5.788816810e-01, -1.402064413e-01, 1.389969587e-01, 1.739577204e-01, -1.445081532e-01, 3.088581264e-01, 2.883550525e-01, -1.905001104e-01, -1.101848111e-01, 3.444604203e-02, 9.152096510e-02}, {2.032697499e-01, 1.378870197e-02, 2.692931332e-02, 1.129716337e-01, -9.989536554e-02, 6.298378110e-02, -4.440325201e-01, -1.947941333e-01, -2.744292021e-01, -2.955757976e-01, -4.671081007e-01, -9.252736717e-02, -6.065159291e-02, 4.777690396e-02, 1.948461831e-01, -5.078725889e-02, -7.525907829e-03, -1.090980694e-02, 8.829292655e-02}, {2.881216705e-01, -1.856340915e-01, -8.215066046e-02, -3.790336251e-01, 1.096273735e-01, 1.222411692e-01, 5.408354849e-02, 1.886034012e-01, -3.828939795e-01, 1.448228955e-01, 3.261852264e-01, 2.486511320e-02, -1.820786595e-01, -1.975716799e-01, 3.948796168e-02, 8.089350164e-02, 7.514121383e-02, -4.022593424e-02, -3.641482070e-02}, {1.967339665e-01, 6.299357414e-01, 1.008665711e-01, 5.144919828e-02, -4.626850486e-01, 5.372126698e-01, 1.658664048e-01, 1.685268879e-01, 1.483982503e-01, 2.824635804e-01, 5.396543741e-01, -1.013631523e-01, 1.376181692e-01, -8.928145468e-02, 4.154988006e-02, 5.381787196e-02, -6.259171641e-04, -5.110311508e-02, -6.953266915e-03}, {-1.585510820e-01, -6.222062111e-01, 2.319735587e-01, 1.009076461e-02, 4.780498147e-01, -8.103504777e-02, -1.752764732e-01, -2.710933685e-01, 1.789660156e-01, -5.395209789e-02, -6.833396852e-02, -1.302597672e-01, -3.180943429e-02, 1.579195857e-01, -6.239667907e-02, -1.523145139e-01, 1.578642696e-04, 1.168735623e-01, 2.939347923e-02}, {-1.743701398e-01, -1.997406185e-01, -3.027761877e-01, 1.017779782e-01, 2.723373771e-01, 9.071018547e-02, -5.332804844e-02, -1.157183573e-01, -5.595453978e-01, -7.211019099e-02, -2.157130837e-01, 1.692869216e-01, -5.295486376e-02, 3.873327374e-02, 6.416472793e-02, -2.983510122e-02, -9.094095230e-02, -7.824604958e-02, -9.210847784e-04}, {1.797877103e-01, 3.270766735e-01, 1.137138084e-01, 1.632954180e-02, -1.051933989e-01, 6.274081022e-02, 7.914316840e-03, -3.857719153e-02, -8.676321805e-02, -5.622764677e-02, 1.420917362e-01, 2.021198347e-02, -1.249322388e-02, 6.065256149e-02, -2.556611001e-01, 1.395604853e-02, 5.615187809e-02, 4.372234270e-02, -6.020298228e-02}, {2.547583878e-01, 1.131031513e-01, -2.880033553e-01, -8.782440424e-02, 1.760498434e-01, 4.927993715e-01, -1.561811119e-01, 2.042052150e-01, -1.125392318e-01, -2.234529555e-01, 2.955663204e-01, -1.512006670e-01, 5.386793055e-03, 6.139314771e-01, 2.171970531e-02, -2.770873904e-01, -2.968407869e-01, 2.542953789e-01, -8.511854708e-02}, {1.425067335e-01, -4.315400124e-01, -5.123426020e-02, -1.927042603e-01, 2.242140770e-01, -1.656318158e-01, -3.478256464e-01, 2.137992084e-01, 1.614031941e-01, -2.294885516e-01, -1.391876303e-02, 7.590412349e-02, -7.111534476e-02, 1.423282176e-01, 7.408248633e-02, -1.898389757e-01, -1.497441530e-01, -6.840121001e-02, 1.591485739e-01}, {2.933876514e-01, -9.918031842e-02, 1.363180429e-01, -1.750234067e-01, 1.028506160e-01, -1.297843084e-02, 2.695430070e-02, -2.496040426e-02, -5.507902801e-02, 5.761444569e-03, 1.178233996e-01, -2.887841128e-02, 9.806696326e-02, -1.645963639e-01, -3.136263192e-01, -2.670395672e-01, 2.935364470e-02, 7.911907136e-02, -6.713165343e-02}, {2.109042406e-01, 5.581350625e-02, 2.969466150e-01, -1.489319056e-01, -1.590296626e-01, -1.771355420e-01, -3.167695701e-01, -6.960317492e-01, 4.836351573e-01, -7.274318486e-02, -1.112427115e-01, 2.267899457e-03, -9.687716514e-02, -8.052930981e-02, 8.351037651e-02, -1.227266788e-01, -1.110687200e-02, -7.189991325e-02, 1.770390570e-02}, {-3.551100492e-01, 2.034485489e-01, 6.519143581e-01, 2.285347879e-02, -8.455591649e-02, -3.417332768e-01, -2.062293738e-01, 2.350721955e-01, -6.011148915e-02, -4.030513018e-02, -1.235590205e-01, -9.272369556e-03, -6.680053473e-02, 6.637449563e-02, -4.848887026e-02, -1.193639636e-01, -7.392644882e-03, -2.690403257e-03, -3.967853636e-02}, {1.543877274e-01, -4.147690833e-01, -1.199981198e-01, -1.385323554e-01, 2.902967036e-01, -2.418685518e-02, -5.566484332e-01, -3.841359913e-01, -9.385618567e-02, 1.003371179e-01, 1.138687208e-01, -1.571855694e-02, 3.812844306e-02, -3.175601736e-02, -1.558567733e-01, -2.318784036e-02, 4.668199643e-02, 1.328258067e-01, -4.298629984e-02}, {-3.978157640e-01, -8.585952222e-02, 1.053282432e-02, 6.139719486e-02, -3.133178055e-01, 9.400067478e-02, -7.799691707e-02, -2.196888812e-02, -3.300156211e-03, 5.120679140e-01, -7.137286663e-02, 1.217694487e-02, 4.011045769e-02, 2.731409073e-01, 1.195481941e-01, -2.148731351e-01, -1.047646850e-01, 1.011918932e-01, -4.716138821e-03}, {1.599284261e-02, 5.266040936e-02, -6.263101846e-02, -1.941398904e-02, -3.750067651e-01, -1.236124709e-01, -1.124718785e-01, 1.762923300e-01, 7.293286324e-01, -1.050573811e-01, 2.528890967e-01, 6.815359741e-02, -4.318847135e-02, -3.812484071e-02, 1.005942151e-01, 9.806004167e-02, -4.156539589e-02, 2.799695544e-02, -3.043871559e-02}, {-3.824006319e-01, -1.940331981e-02, 7.983519882e-02, 2.226950377e-01, 1.229459196e-01, -9.387441911e-03, -6.059284136e-02, -2.071944252e-02, 1.720669866e-01, -1.008360833e-01, 3.214618564e-02, 3.596489504e-02, -2.105249166e-01, 1.527432054e-01, -2.731546760e-01, 7.820895314e-02, -1.559356600e-01, -9.620016441e-03, -1.745222509e-01}, {5.586570874e-02, 2.299271673e-01, 4.621286690e-01, 9.186009318e-02, -2.652589679e-01, -3.183103204e-01, 3.270129561e-01, 2.464794740e-02, -1.559016258e-01, -1.447366476e-01, -7.105997205e-02, -5.700353906e-02, -2.696195543e-01, 3.605173528e-02, -3.548833355e-02, 4.691181332e-02, -4.268623143e-02, -2.253286541e-02, -6.379656494e-02}, {6.108868122e-02, 1.425713599e-01, 3.579751253e-01, -3.044715226e-01, -3.401364088e-01, -1.212614551e-01, 6.382709742e-02, 1.695163846e-01, 8.564243093e-03, -1.108115017e-01, -2.993385307e-02, -3.293522075e-02, -1.322914660e-01, -1.647120714e-01, -4.495690390e-02, 9.179631621e-02, 1.518851053e-02, -1.073095482e-02, 7.762305439e-02}, {-2.343507856e-01, -1.360093504e-01, -2.572326958e-01, 8.274397999e-02, 2.600118518e-01, 9.279616922e-02, -1.769118458e-01, -3.844137117e-02, -3.573823348e-02, 8.244936913e-02, -2.107860297e-01, 1.263592243e-01, 1.955173165e-01, -5.640173554e-01, 9.045735933e-03, -2.356360666e-02, -7.764835656e-02, 8.555981517e-02, -1.935594343e-02}, {2.301861644e-01, 1.205658093e-01, -7.846936584e-02, -1.033679992e-01, -1.791966558e-01, 2.205179632e-01, -3.803351894e-02, 1.668182909e-01, -1.598241180e-02, 4.489116743e-02, 1.359485686e-01, 7.308185846e-02, 3.329100907e-01, 2.116387710e-02, 3.484807909e-01, -1.414535195e-01, -3.498553298e-03, 7.627286017e-02, 1.719188690e-01}, {-1.107719820e-02, -1.392890420e-02, -2.612749338e-01, -1.637135893e-01, -3.847675398e-03, 1.083748117e-01, -1.210912839e-01, -1.990154982e-01, 8.810698241e-02, -2.574124336e-01, -4.184866250e-01, 2.057197690e-01, 1.074424833e-01, 9.324879199e-02, -5.986038595e-02, 1.253383905e-01, -3.240186870e-01, -2.992612422e-01, 7.334008813e-02}, {1.119469255e-01, -1.489277035e-01, -1.476889253e-01, -9.287118912e-02, 3.570307046e-02, 2.960650623e-02, 1.448854990e-02, 6.985845417e-02, 5.483577400e-02, 1.061097905e-01, 6.268179417e-02, -5.987294763e-02, -4.834805727e-01, 3.245674670e-01, -2.007878572e-01, 2.452651113e-01, -3.014158085e-02, 1.107295137e-02, 8.595259860e-03}, {-3.190149665e-01, -4.237479568e-01, -1.349563003e-01, 1.928170174e-01, -1.175645068e-01, 1.719298959e-01, -1.952976882e-01, -6.635496020e-02, -1.351443231e-01, -1.005366966e-01, -5.767801404e-01, -3.063458204e-02, -1.882783920e-01, 3.307659924e-02, -4.452094808e-02, 1.264204085e-01, -1.405256451e-03, 5.452661589e-02, 1.533123292e-02}, {-2.276962399e-01, -6.612092257e-04, -1.749027818e-01, 1.565965861e-01, 2.932518162e-02, 1.922024786e-01, -2.530135028e-02, -4.526246712e-02, 1.747240871e-01, 4.848351702e-02, 1.461274624e-01, 8.699863404e-02, 1.049672127e+00, 1.525541842e-01, 2.893183753e-02, 3.878111253e-03, -6.529352069e-02, -3.955173492e-02, 1.696416363e-02}, {-1.007167064e-02, 8.452126384e-02, 1.765049398e-01, 2.571086884e-01, -3.895578384e-01, -2.457412332e-01, -1.494666338e-01, 1.880970225e-02, -1.085462123e-01, -3.505345285e-01, -1.722836345e-01, 5.354820937e-02, 3.249458671e-01, 4.248612225e-01, -1.370420009e-01, -2.786573954e-02, -6.606240571e-02, 8.145576715e-02, -2.094238810e-02}, {-3.354139924e-01, -1.871179342e-01, -1.992779523e-01, 1.074648276e-02, 5.100886896e-02, 5.294323564e-01, -6.445613503e-01, 1.181760281e-01, 4.018256664e-01, 2.135961205e-01, 1.138651147e-01, 1.257824898e-01, 5.311895162e-02, 5.178828165e-02, -1.066607833e-01, -5.913040787e-02, -9.791369550e-03, -2.249075565e-03, 7.639477402e-02}, {-3.354162574e-01, -2.028594762e-01, 3.993272781e-01, 2.121731639e-01, 1.481240094e-01, -1.572053581e-01, 1.166905910e-01, -4.898483749e-04, 1.979797184e-01, -9.841018915e-02, -3.073674068e-02, 9.549938142e-02, 1.856390969e-03, -2.341207117e-01, 1.387405545e-01, -2.298091054e-01, -3.454259411e-02, -2.303030109e-03, 4.640764382e-04}, {-1.602555960e-01, -1.071772799e-01, -7.037629485e-01, 1.423571259e-01, 1.194401458e-01, 2.390323281e-01, -1.135737002e-01, -2.019654661e-01, -1.697664410e-01, 3.488668501e-01, -1.821956933e-01, -1.628062874e-01, 1.176965535e-01, -3.579430580e-01, -1.234425828e-01, 3.911764920e-01, 1.749829203e-01, -1.415596306e-01, -4.823110998e-02}, {-2.566355467e-02, 2.551242150e-02, 5.966565013e-02, -5.635153502e-02, 9.291946143e-02, 1.086755693e-01, -1.686322503e-02, 5.695661902e-02, -4.425710812e-02, -3.290491104e-01, -3.109425902e-01, -1.791405380e-01, 3.115233481e-01, -8.631104231e-02, -2.352730632e-01, 2.707915902e-01, -1.553663425e-02, -7.634076476e-02, -8.572871797e-03}, {1.261934638e-01, -2.727524936e-01, 2.383454144e-01, 4.428387061e-02, 2.819781899e-01, -3.636396825e-01, 4.002773762e-01, -1.638760716e-01, 1.622072607e-01, -8.099009097e-02, 2.737963200e-01, 1.076501086e-01, -1.532020718e-01, -1.155622751e-01, 3.748169914e-02, 7.264744490e-02, 1.110009402e-01, -1.198595017e-01, 6.553052366e-02}, {4.943471253e-01, 3.399390280e-01, 1.819709241e-01, -3.191686273e-01, -6.756660342e-02, -9.413527697e-02, 8.518880010e-01, -4.008618295e-01, 3.528531268e-02, -2.759981342e-02, -6.981838495e-03, 2.836138755e-02, 4.777222127e-02, 1.104589552e-02, -8.732955903e-02, 1.034439728e-02, -3.530509025e-02, 4.667202756e-02, -7.414935529e-02}, {5.487076193e-02, 4.404154420e-02, 5.450332761e-01, 1.506761461e-01, 4.186902642e-01, -3.881451488e-01, 3.247985542e-01, -2.509218454e-01, 2.047735155e-01, 1.520339847e-01, -1.839268059e-01, -5.842587352e-02, 6.746271998e-02, 7.151131332e-02, 8.809588617e-04, 2.512322366e-02, -9.383118898e-02, -3.479341790e-02, 2.110897331e-03}, {1.277845651e-01, -1.720754355e-01, -1.301940344e-02, -3.626498580e-02, 4.272724986e-01, 1.468264610e-01, 3.008851409e-01, -3.129125535e-01, 3.976037800e-01, 2.342209518e-01, 2.793038450e-02, 2.194929570e-01, -3.929082751e-01, 8.186475933e-02, 4.897657335e-01, -1.730490327e-01, -2.289969772e-01, -1.143317148e-01, 4.090909287e-02}, {-2.411783487e-01, 1.710657962e-02, -1.303086430e-01, 1.611143202e-01, -1.366605908e-01, 3.481216431e-01, -1.442277282e-01, -2.743040025e-01, -8.741266280e-02, 5.628582239e-01, 8.741663396e-02, 5.718233436e-02, 1.991288215e-01, 5.511924624e-01, -1.690285653e-01, 2.548434138e-01, 1.714957952e-01, -1.758879796e-02, -5.745685101e-02}, {-4.304714203e-01, 3.508334458e-01, 1.917876154e-01, 1.773118228e-01, -3.402864635e-01, -1.204507425e-01, -1.768540591e-01, -2.174042314e-01, -8.581969887e-02, 7.651531696e-02, -2.211433090e-02, 4.700846970e-02, 1.125143692e-01, 9.239280969e-02, -2.431004196e-01, 2.147085220e-02, -2.562924474e-02, -7.364220917e-03, 6.064768508e-02}, {2.534414828e-01, -2.599874884e-02, 1.453984976e-01, -3.085601926e-01, -1.654311121e-01, -6.430831552e-02, -3.281290531e-01, 5.646814406e-02, -3.939954638e-01, -1.859111041e-01, 2.599098682e-01, -1.195423082e-01, 1.653436422e-01, -1.303476691e-01, 2.139677256e-01, -6.084100530e-02, 3.491367400e-02, -5.115095992e-03, 1.696677059e-01}, {4.618924856e-01, -7.307709455e-01, 1.431952566e-01, -3.632838279e-02, 5.502018332e-01, 4.278488085e-02, 2.546387613e-01, -3.244039714e-01, -5.299817026e-02, -1.327034552e-02, -8.247105032e-02, 7.073193043e-02, 6.992643327e-02, -6.724500656e-02, -1.709935628e-02, 9.253782034e-02, 2.076878212e-02, 7.483998314e-03, -3.829061240e-02}, {-4.229327664e-02, -1.954226643e-01, 1.363951266e-01, -7.788997144e-02, 1.389406770e-01, 5.259787198e-03, 4.105368853e-01, -9.938985109e-03, 1.922280341e-02, -5.459055305e-03, 1.137652472e-01, -7.506601978e-03, 3.466075957e-01, -2.703208625e-01, -4.425392449e-01, 4.789481759e-01, 1.763304472e-01, 7.885804772e-02, 5.735793337e-02}, {3.342429996e-01, -2.695312202e-01, 4.489126801e-01, 3.368531540e-02, 2.647373676e-01, -3.088137209e-01, 1.475538909e-01, -5.650961399e-01, -2.306700349e-01, -8.542107046e-02, -4.556012526e-02, 1.244718060e-01, -7.828395814e-02, 1.333121061e-01, -2.649444714e-02, -1.504360326e-02, -1.159225553e-01, 1.187665854e-02, -5.793613568e-02}, {-6.973693967e-01, -1.009036228e-01, 1.237619147e-01, 2.681664228e-01, -3.446812034e-01, -1.018762775e-02, -4.698637873e-02, -2.427843586e-02, -1.324862540e-01, -1.282549798e-01, 7.109398954e-03, -3.247356275e-03, 2.965162881e-02, 1.014826447e-02, -9.778371081e-03, -1.067351028e-01, 8.241491392e-03, -9.411781095e-03, -5.337662622e-02}, {-3.492764831e-01, -1.668839455e-01, -3.077897727e-01, 3.349260092e-01, 1.769296229e-01, 5.801611021e-02, -1.308647841e-01, -1.616864204e-01, 1.476990283e-01, -3.180624545e-02, -2.966327667e-01, -3.713479638e-02, -1.220167503e-01, 2.855059206e-01, 1.685295254e-01, -4.134618491e-02, -7.368247211e-02, -1.146174669e-01, 7.080177218e-02}, {2.812705636e-01, -1.347702593e-01, -1.778768748e-01, -2.573393583e-01, -4.894228652e-02, 1.846600920e-01, -3.688053489e-01, 4.340374470e-01, -4.249798954e-01, -6.969099492e-02, 3.711161762e-02, 3.030276299e-01, 2.417164743e-01, 5.254049320e-03, -1.353650391e-01, -1.340505183e-01, -2.616312820e-03, 1.240316853e-01, -2.938153967e-02}, {-1.188436225e-01, -4.219487906e-01, -5.157239437e-01, 2.841227353e-01, 1.352057047e-02, 2.053378224e-01, -1.183963791e-01, -2.174135000e-01, -3.039221466e-01, 6.880711764e-02, -4.063261207e-03, 1.103059724e-01, -2.839522995e-02, -2.771171629e-01, 1.735914946e-01, -5.259257555e-02, -9.798663855e-02, -5.880524591e-02, 2.363534831e-02}, {1.588917077e-01, -1.020084694e-01, -6.166302785e-02, -1.339781880e-01, 1.050777733e-01, 8.218295127e-02, -1.117864624e-01, 6.611691415e-02, -2.344291210e-01, 2.079500556e-01, -2.233443782e-02, -4.111995548e-02, -7.907507569e-02, 1.303931177e-01, 2.506958544e-01, -4.015509784e-01, -3.666460514e-02, -1.097306758e-01, -4.835129529e-02}, {-1.396260262e-01, 2.609201074e-01, -2.088767886e-01, -4.082371294e-02, -1.162008792e-01, 3.659876585e-01, 9.615103155e-02, 1.211744919e-01, -9.985447675e-02, 5.036595464e-01, 5.965144932e-02, -2.073047496e-02, 1.810415387e-01, 1.498944461e-01, -1.470837295e-01, 2.503947914e-01, -1.018597372e-02, 1.132265478e-01, 1.061876211e-02}, {4.169478118e-01, 1.972725689e-01, 7.413454354e-02, -4.865067899e-01, -2.197615653e-01, 2.704588324e-02, -4.286447167e-01, 1.986299008e-01, 2.037858814e-01, -2.592621148e-01, -6.818398088e-02, -1.858160049e-01, -4.971691221e-02, 2.985304594e-01, -1.528751664e-02, -1.753806472e-01, -7.665590197e-02, 7.546377182e-02, 1.725772768e-02}, {-7.993946224e-02, 1.245829910e-01, -3.264788687e-01, 2.922652960e-01, -1.651523709e-01, -2.782275528e-02, -7.575134188e-02, -2.376183718e-01, -1.180506423e-01, 1.022396386e-01, -7.253871560e-01, 9.409501404e-02, -1.064696014e-01, 1.346550286e-01, 2.015808523e-01, 3.106553340e-03, -3.031583503e-02, -4.698612913e-02, 1.481423806e-02}, {-6.648734957e-02, -2.399896830e-02, 2.181957215e-01, -3.888297081e-02, -5.371487513e-02, 3.094893098e-01, 2.663004100e-01, 6.435719132e-02, -3.461578488e-01, 2.246139571e-02, 7.994053513e-02, 1.498999298e-01, -8.771168068e-03, 2.491950095e-01, 1.292808205e-01, 6.305344403e-02, -1.020185128e-01, -1.748707891e-01, 6.120305881e-02}, {8.011454344e-02, 1.372592151e-01, -1.151091829e-01, -4.826440811e-01, -1.432248354e-01, 1.699056327e-01, -2.632124424e-01, 2.604177920e-03, -8.728219569e-02, 2.065720111e-01, -2.737475336e-01, -2.815485746e-02, -1.012654752e-01, -8.628456295e-02, 1.041810066e-01, 2.411056459e-01, 1.724763364e-01, -3.893040419e-01, -6.121711805e-02}, {-2.049002498e-01, -1.641110927e-01, 3.485228419e-01, 1.416655928e-01, 1.475494802e-01, -3.516175449e-01, 2.668137848e-02, 5.577821657e-02, 2.444467507e-02, 1.404958665e-01, -5.289850757e-02, 4.433822259e-02, -6.518354174e-03, -1.362662166e-01, -2.467666715e-01, 1.410920918e-01, 2.905094624e-02, -5.501781590e-03, 3.975603729e-02}, {1.027244776e-01, -2.673160732e-01, -5.024412274e-01, 2.815772593e-02, 2.146306336e-01, 2.243638635e-01, 4.271187484e-01, -1.691057235e-01, 1.034087241e-01, 2.718693316e-01, 4.854016602e-01, -3.093758225e-01, 7.437577844e-02, -3.157490864e-03, 1.966822445e-01, -7.061313838e-02, -1.528759487e-02, 6.093050539e-02, -3.086544387e-02}, {-1.363393068e-01, -3.968281448e-01, -1.704375446e-01, -1.788447239e-02, 5.351527333e-01, 2.617498636e-01, 4.098935425e-01, -2.502357215e-02, -7.461587340e-02, -9.710990638e-02, -1.846955121e-01, 1.022324637e-01, 6.458435208e-02, 1.684389561e-01, -1.726996340e-02, -1.189852059e-01, 7.236102223e-02, -2.577246353e-02, -1.123795435e-01}, {2.062115818e-01, -3.022080958e-01, 4.267110527e-01, 3.532088920e-02, -1.623724699e-01, -4.020844400e-01, 2.657939792e-01, -6.031158939e-02, 1.568537438e-03, 3.586836755e-01, 3.266470730e-01, 1.052504927e-01, 5.816342682e-02, -6.450764835e-03, -1.086242720e-01, 4.759931471e-03, 8.482169360e-03, 5.831600353e-02, 2.455009334e-02}, {-1.633556336e-01, 1.618488878e-01, 3.511391580e-02, 2.768482864e-01, -2.255533487e-01, -1.460145265e-01, 1.246821061e-01, -6.318734959e-03, 1.753406972e-01, 1.010914564e+00, 3.795496225e-01, -6.311461329e-03, -1.522374451e-01, 6.934105605e-02, 1.502728462e-01, -1.644003787e-03, -9.002078325e-02, -4.061215371e-02, -4.947119579e-02}, {4.525178075e-01, 1.569680870e-01, 4.747809726e-05, -2.556467652e-01, -8.322089165e-02, -1.780973561e-02, 1.667512357e-01, -1.141558737e-01, -2.865526676e-01, 3.652434051e-01, -1.192105412e-01, 9.347274154e-02, 6.953536533e-03, -1.762868911e-01, -1.520291120e-01, -2.069400251e-01, 1.344467849e-01, -9.105902165e-03, 1.067543998e-01}, {3.990704417e-01, 4.109043181e-01, -5.306942761e-02, -3.256337345e-01, -1.827259064e-01, -1.336011440e-01, -2.958083451e-01, 2.837315202e-01, -1.056375261e-02, -3.260927200e-01, 4.320665896e-01, -2.398433862e-03, -1.146871746e-01, 3.097402751e-01, -5.249802023e-02, -3.321538866e-01, -1.488873959e-01, 1.282852292e-01, 1.327211317e-02}, {2.399533801e-02, 1.724444628e-01, -1.450077742e-01, 1.707905978e-01, -2.595676482e-01, 3.025582060e-02, 1.165111456e-02, -9.522777982e-03, 1.978734434e-01, 2.523271143e-01, 1.711672097e-01, 4.648005962e-02, 6.406229734e-01, -1.828527600e-01, 2.265115455e-02, 2.054493725e-01, 2.748494148e-01, 2.086842656e-01, 2.971419506e-02}, {-8.798612952e-01, -1.104629934e-01, 2.879053354e-02, 3.966374099e-01, 1.045055464e-01, 8.265393972e-02, 2.995415777e-02, 2.239193320e-01, -1.957904547e-01, 1.051629111e-01, -1.090089232e-01, 1.707790792e-01, -2.571943216e-02, -6.861821562e-02, -5.566623807e-02, -5.978446454e-02, -3.263317794e-02, 1.655250974e-02, 5.086749047e-02}, {4.669007286e-02, -1.582839787e-01, -2.240093797e-01, 4.503879324e-02, 1.995045096e-01, 1.667298079e-01, -6.292784214e-02, 1.095351204e-02, -9.651919454e-02, -3.202700019e-01, -2.324014604e-01, -4.056963325e-02, -1.272423863e-01, 4.897228479e-01, 1.403034478e-01, 5.326414108e-01, -1.149566472e-01, 4.255676270e-02, -6.258662790e-02}, {6.843806803e-02, 1.148411036e-01, -7.317429036e-02, -7.790299132e-03, -6.537456810e-02, 3.169899061e-02, 2.774748206e-02, -1.473851595e-02, 1.631403416e-01, 4.743625410e-03, -5.442070961e-02, 1.460637152e-01, -4.665213227e-01, 1.054441258e-01, 2.153713703e-01, -1.669465303e-01, 1.265337616e-01, -2.062469488e-03, 1.900231652e-02}, {-5.889547467e-01, 2.282677889e-01, -8.985808492e-02, -2.581216022e-02, 2.187309116e-01, -1.763072610e-01, 2.195339650e-01, 1.446902156e-01, 3.145977855e-01, -1.710404456e-01, -2.601301372e-01, 2.396995947e-02, 2.307988331e-02, 2.391446978e-01, -9.998130053e-02, 1.607165858e-02, -4.257668555e-02, 8.566261083e-02, 2.153485268e-02}, {2.405467927e-01, 1.908015162e-01, 3.396482468e-01, -1.624397486e-01, -3.594565988e-01, -2.638110518e-01, 6.673842072e-01, -5.331180096e-01, 2.975699008e-01, 6.136189774e-02, 5.050778389e-03, 3.105436917e-05, -8.590433002e-02, -4.660733417e-02, 3.573787212e-02, 5.748144910e-02, -1.001460105e-02, -2.911856025e-02, 7.191274781e-03}, {2.491914928e-01, -3.483113050e-01, -6.226306409e-02, -1.988406777e-01, 3.206462860e-01, 2.208911926e-01, 3.047465086e-01, 5.630714819e-02, 4.332348332e-02, -2.592191696e-01, -4.999977052e-01, 4.275902361e-02, 1.571986973e-01, 2.007498890e-01, 9.923380613e-02, 3.376654536e-02, -2.596483380e-02, -4.338468984e-02, -3.141555563e-02}, {-5.469319820e-01, 3.576605022e-01, 2.811860740e-01, 3.193441778e-02, 6.646770239e-02, -2.111358196e-01, 3.503449634e-02, -6.412377954e-02, 4.258463383e-01, -1.420858800e-01, 3.761979518e-03, 7.427629828e-02, -3.604755402e-01, 4.591637105e-02, 9.886971116e-02, 2.671874166e-01, -1.300060563e-02, -1.104420051e-01, 8.942425251e-02}, {-2.577678859e-01, -6.766032428e-02, -1.910744160e-01, 1.450116485e-01, 1.985867321e-02, -1.352828443e-01, -4.894938320e-03, -3.456282243e-02, -1.569201946e-01, -1.184485257e-01, 5.929327011e-01, -2.176320404e-01, 2.105099261e-01, 5.354799628e-01, 8.572667092e-02, 1.894557625e-01, 1.219373289e-02, 8.971794695e-02, -7.987213135e-02}, {2.175011784e-01, -1.403273083e-02, -5.026820898e-01, -1.529685408e-01, -8.737173676e-02, 5.895442963e-01, 2.440468371e-01, 4.948501289e-02, 2.021505684e-01, 4.718086123e-01, -4.965857267e-01, 2.878903411e-02, -4.102181271e-02, -1.599901766e-01, -6.941344589e-02, 1.247869283e-01, 4.109131545e-02, -7.033450156e-02, 1.151065109e-03}, {-2.930519283e-01, 1.601601094e-01, 4.389338791e-01, 3.701330423e-01, -9.103520960e-02, -6.945909858e-01, -4.576265812e-01, -2.986441851e-01, -1.807421744e-01, -1.090145409e-01, 6.624137610e-02, -1.314237714e-01, 4.288956150e-02, 8.281733096e-02, 5.262069032e-02, 1.964151487e-02, 5.277844146e-02, 8.241931908e-03, -4.585147649e-02}, {-8.872636408e-02, 5.013433695e-01, -4.522944242e-02, -3.430963680e-02, -4.173152149e-01, -1.707834378e-02, -2.772687972e-01, -1.396475136e-01, 8.687005378e-03, -1.837823540e-01, -9.619364887e-02, 1.573509276e-01, -1.190434396e-01, 2.382790856e-02, 7.377335429e-02, 6.051118672e-02, -3.756754100e-02, -3.741143644e-02, -5.833310634e-02}, {-1.187730730e-01, -2.976651192e-01, 1.390944272e-01, 8.729413897e-02, 2.027065456e-01, -2.237340622e-02, 6.052871421e-02, 1.330892742e-02, -1.577683836e-01, -3.081027865e-01, 1.385802269e+00, 7.366051525e-02, -8.615216613e-02, -7.341567427e-03, 3.841573372e-02, 2.937455848e-02, -3.407071903e-02, -2.085351571e-02, 1.277425513e-02}, {-9.655173123e-02, 3.159936070e-01, 1.088013425e-01, 3.269306719e-01, -5.081757903e-01, -1.233574897e-01, -4.305707812e-01, -3.697265089e-01, -2.642372847e-01, -7.776063681e-02, -2.700625956e-01, -7.202228904e-02, -1.834200621e-01, -7.343158126e-02, -6.836208701e-02, -1.390026212e-01, -1.007973999e-01, -1.178340763e-01, 1.586959325e-02}, {3.303940594e-01, -3.990260661e-01, 8.207820654e-01, 5.912140757e-02, 1.072289571e-01, -1.681261510e-01, 9.309455752e-02, -5.329522491e-02, -1.866681725e-01, 1.026568562e-02, 2.646836080e-02, -2.023461275e-02, 6.980275735e-03, 6.918105483e-02, -9.806461632e-03, -2.083707787e-02, 4.060390219e-02, 2.930269390e-02, 2.927517518e-03}, {-7.738952339e-02, -2.374119014e-01, -3.083123639e-02, -1.823312417e-02, 1.373355538e-01, -4.357426241e-02, 9.229688346e-02, 2.485970408e-02, -1.530609429e-01, 1.071531475e-01, -1.563828140e-01, 7.584296167e-03, 1.320488602e-01, 7.864808664e-03, -3.095400631e-01, -2.727331221e-01, 1.892199181e-02, -1.778191626e-01, 3.009049967e-02}, {1.936459541e-01, -1.137040481e-01, -1.059573740e-01, -1.206299961e-01, -6.510113925e-02, 6.856617332e-02, -4.621155262e-01, 1.817683429e-01, -6.435962915e-01, -1.309068054e-01, 9.919751436e-02, -2.022870034e-01, -7.302684337e-02, -1.298576407e-02, 1.150677949e-01, -1.623076200e-01, -9.260178357e-02, 4.848059639e-02, -2.979775965e-01}, {4.284982383e-01, -3.318106830e-01, 7.641104609e-02, -2.332640737e-01, 5.942709446e-01, 3.361931304e-03, 3.887889683e-01, 1.741535030e-02, -1.331551820e-01, 6.661393493e-02, -1.208696980e-03, -3.416017815e-02, -5.635062605e-02, 1.043584943e-01, -1.274919696e-02, -5.834405869e-02, -7.309443783e-03, 4.265919328e-02, 2.035041898e-02}, {2.394593954e-01, 5.447852612e-01, 6.340836287e-01, -9.122460335e-02, -5.575994253e-01, -3.231156766e-01, -3.108427227e-01, 1.206194237e-01, -1.289768983e-02, 4.786683992e-02, 1.008594856e-01, 2.139901742e-02, 1.193716004e-01, 4.799159989e-02, -6.225552410e-02, -2.020841837e-02, 1.108906139e-02, 6.262214482e-02, 4.018665478e-02}, {1.538444161e-01, 1.414410919e-01, 4.326601326e-01, -7.912379503e-02, -4.038015604e-01, -2.484266758e-01, -6.946046352e-01, -2.489164025e-01, -3.010033965e-01, -2.668066621e-01, -5.406041630e-03, -4.892660677e-02, -6.024761871e-02, -4.011828080e-02, -8.460438997e-02, 2.697069943e-02, -3.267621249e-02, 1.253044512e-02, -6.693726778e-02}, {4.772524815e-03, 7.684833556e-02, 8.151766658e-02, 1.418720484e-01, -1.386562735e-01, -2.036963850e-01, -6.417489052e-02, -4.674142692e-03, -2.343229949e-01, -1.073980853e-01, -1.227842867e-01, 7.634130120e-02, 4.182258546e-01, -4.023334980e-01, 3.161203861e-01, 4.906864092e-02, 8.213091642e-02, -2.822620980e-02, -1.955701113e-01}, {-6.277009845e-02, 1.790853566e-04, 9.827782214e-02, 5.253935978e-02, 4.921049345e-03, -1.285431236e-01, 1.092696786e-01, -4.079049081e-02, 1.205877885e-01, 8.609199896e-03, -4.810484871e-02, -5.232761055e-02, -6.524977088e-01, 4.598600790e-02, -1.933120191e-01, 9.126922488e-02, 1.119025797e-01, 9.660960734e-02, -1.527693029e-02}, {-5.435832143e-01, 1.619556099e-01, 2.045633942e-01, -2.398413047e-02, 4.066716135e-01, -2.815063298e-01, -1.528493017e-01, 1.086503416e-01, 4.077280164e-01, 3.500761464e-02, 3.336583450e-02, 9.716819227e-02, 9.785176814e-02, -1.562319994e-01, 1.171842366e-01, 4.156985506e-02, 9.298771620e-03, -2.093409933e-02, -1.080822200e-01}, {6.278556585e-02, 1.354145408e-01, -2.549049258e-02, -8.411303908e-02, -8.138430305e-03, 4.064728692e-02, -9.503474832e-02, 1.033403873e-01, 4.874042422e-02, -7.245024294e-02, 9.556166083e-02, 3.021796234e-02, 4.569285512e-01, 2.197697163e-01, -5.309875682e-02, -2.317287475e-01, -1.126565039e-02, 1.123269647e-01, -4.805943370e-02}, {2.699671686e-01, -1.729146540e-01, -7.053396106e-01, -1.020827293e-01, 1.331458539e-01, 4.361398518e-01, -7.310527563e-02, 2.231071740e-01, -1.421182156e-01, -3.365367651e-01, 3.249590471e-02, -7.344115525e-02, -2.732927352e-02, -8.650005609e-02, -1.815287620e-01, -8.895649575e-03, 3.254982829e-02, -7.871033996e-02, 4.686048254e-02}, {4.653351605e-01, 4.262404144e-01, 2.221832573e-01, -3.779081702e-01, -3.555018604e-01, -1.605626196e-02, -1.681953669e-01, -1.023498550e-01, -2.285026312e-01, -5.592111498e-02, 1.513633281e-01, 5.685243290e-03, -1.023276225e-01, 2.509505302e-02, 7.842526771e-03, -4.765518010e-02, -4.603972659e-02, -1.376983430e-02, 4.966557026e-02}, {-4.693625867e-01, 2.836844325e-01, 8.795411140e-02, 2.017448694e-01, -1.399836969e-02, 1.932102442e-02, -1.911319047e-01, -1.665790081e-01, 2.053920329e-01, -2.482612580e-01, 3.764045835e-01, 8.701509982e-02, 3.819612041e-02, -6.718441844e-02, -1.414792687e-01, -2.193296403e-01, 6.289521605e-02, 3.346989304e-02, 8.972377330e-02}, {4.560999945e-02, 1.559943855e-01, 6.144998968e-02, 5.023973808e-02, -2.396513522e-02, -8.292566240e-02, 8.714311756e-03, 2.659563534e-02, 1.651126444e-01, -1.949806064e-01, 2.164238840e-01, -1.203987282e-02, -1.000646129e-01, -5.540466309e-01, 7.542090118e-02, 1.884854734e-01, -8.827961981e-02, 3.577392921e-02, 2.380420640e-02}, {2.418460548e-01, 1.448992342e-01, 1.408347208e-02, -3.369230032e-01, -1.655401289e-01, 7.473781705e-03, -1.765798032e-02, 3.084633946e-01, -8.102231473e-02, -6.276880205e-02, -1.239045784e-01, -4.245002195e-02, 1.391679347e-01, 5.939095616e-01, -1.985393316e-01, -1.384906843e-02, 1.653919369e-01, -5.513061956e-02, -7.389219105e-02}, {-6.977279484e-02, -4.354385436e-01, 1.812848747e-01, -6.667863578e-02, 3.251841962e-01, 8.455465734e-02, 5.704079755e-03, -1.871023625e-01, 1.084587798e-01, 2.708199024e-01, 8.580835909e-02, 4.404943809e-02, 2.324171066e-01, -3.918689787e-01, 6.648693979e-02, 1.905006617e-01, 7.823483646e-02, -1.063889042e-01, -7.902635634e-02}, {2.244032621e-01, -2.489985079e-01, 3.366913497e-01, -1.163158193e-01, 2.159419507e-01, -4.405398369e-01, 3.191427886e-01, -1.108491048e-01, 3.525324464e-01, 1.682820618e-01, -1.576701999e-01, 3.104152679e-01, 1.465447992e-01, -1.441214383e-01, -3.760266304e-02, 1.161740255e-02, 7.791668177e-02, -6.477410439e-03, 1.291535944e-01}, {-8.369715512e-02, 7.641610689e-03, -3.517091274e-01, 2.368130237e-01, 2.492488176e-01, 1.861941367e-01, 6.500002742e-02, -4.993761703e-02, 7.418693602e-02, -4.358521998e-01, 2.098825872e-01, -1.293052137e-01, 2.245490812e-02, -1.398588568e-01, 8.304944634e-02, 2.440625243e-02, -2.314126939e-01, 2.611525059e-01, -7.092212886e-02}, {3.550224006e-01, 2.880736887e-01, 2.133414894e-01, -2.683596015e-01, 1.268245429e-01, -2.391284555e-01, 3.898531795e-01, 4.126577079e-01, -1.703140438e-01, 1.064639613e-01, -1.761057377e-01, 7.436408103e-02, 4.801746458e-02, -4.082330689e-02, -2.589011751e-02, -8.459433913e-03, -1.910005324e-02, 1.111508533e-01, 1.738018170e-02}, {-5.222890154e-02, 2.818430364e-01, -7.356275618e-02, 5.843754485e-02, -1.722242087e-01, 8.921252191e-02, 6.381921768e-01, 4.332566857e-01, 2.045127377e-02, -8.075383306e-02, -3.902114555e-02, -8.564461023e-02, 6.246453524e-02, -8.642362058e-02, -2.715289965e-02, 3.359698877e-02, 2.480414137e-02, -2.317831479e-02, 9.196692146e-03}, {-3.289931417e-01, -1.985891312e-01, -3.597680032e-01, 1.685499996e-01, 2.648215890e-01, 3.920450062e-02, -2.282277942e-01, -2.720865905e-01, 8.853010088e-02, 3.500108793e-02, -1.322974712e-01, -1.065747812e-02, -4.546625316e-01, -3.598661721e-01, 2.913869023e-01, -8.825853467e-02, -1.084109545e-01, -8.172558993e-02, -1.676787622e-03}, {-1.786508262e-01, -5.562037230e-02, -3.085077703e-01, -6.184288487e-02, -2.481820434e-02, 3.205351532e-01, -1.695602899e-03, -1.064651534e-01, -2.585555986e-02, 1.548543870e-01, -4.577910006e-01, -1.005506814e-01, 3.491913378e-01, 4.810749087e-03, 3.507983685e-01, 1.260408163e-01, 1.452543736e-01, -1.108512431e-01, -4.215462506e-02}, {-1.939535737e-01, -1.516016424e-01, -3.899074793e-01, 5.145753920e-02, 1.041608676e-01, -7.103968412e-02, -3.710111380e-01, 1.944554746e-01, -3.183045387e-01, -4.332715273e-02, 4.243762195e-01, 2.009944245e-02, 1.839011163e-01, -2.067327797e-01, -1.063487530e-01, 4.618596137e-01, 4.683389142e-02, 1.695973799e-02, -9.357476234e-02}, {-4.668578207e-01, 1.702260040e-02, -4.177849293e-01, 2.243645638e-01, -1.419381648e-01, 3.023360074e-01, -7.667871565e-02, -2.273348421e-01, -4.953165650e-01, -1.248617917e-01, -5.820412934e-02, 4.428849556e-03, 1.971132457e-01, 1.110882685e-01, 8.000437915e-02, -1.014067680e-01, -1.002942175e-01, -1.976983063e-02, -9.709125757e-02}, {2.464209124e-02, 7.255904377e-02, -2.003814429e-01, -1.675465107e-01, 5.337711051e-02, 2.039491236e-01, -7.339435071e-02, 1.119690165e-01, 9.104384482e-02, 2.051545493e-02, 1.728532165e-01, -2.073717862e-02, -4.465096593e-01, 2.008067071e-01, 6.151622534e-01, 2.378784716e-01, -1.064086035e-01, -1.100745052e-01, 6.446558237e-02}, {1.083241552e-01, -1.684743911e-02, 1.106712893e-01, -7.577306032e-02, 1.119311675e-01, -5.729553103e-02, 3.674989194e-02, 1.675885469e-01, 1.936037987e-01, -2.240653634e-01, 9.135837853e-02, 1.585591435e-01, 2.031701654e-01, 2.400925457e-01, 2.732336223e-01, -1.286132783e-01, -9.911034256e-02, 1.440322250e-01, -1.782572716e-01}, {-2.122393548e-01, -8.834490925e-02, -4.992839396e-01, 3.010546267e-01, -2.026903033e-01, 2.221167088e-01, -1.560027897e-01, 3.238162026e-02, -1.783398688e-01, 3.255967498e-01, 2.666490376e-01, -2.404866181e-02, -4.166880157e-03, 9.457151406e-03, -6.513319165e-02, 1.047048811e-02, 3.163610101e-01, 2.208705544e-01, 4.523746297e-02}, {1.399658173e-01, -1.339375973e-02, -5.664220452e-01, -1.229617596e-01, -7.903850637e-03, 5.161331296e-01, -2.434116304e-01, 1.037268639e-01, 7.408419997e-02, -8.977489173e-02, -2.211444229e-01, 7.591816783e-02, 3.371348977e-01, -7.033067942e-02, 3.048609197e-01, 1.246968657e-01, 1.889490150e-02, 2.488844655e-02, 6.884016097e-02}, {1.586451530e-01, 1.007725000e-01, -2.157577425e-01, -2.144061774e-01, -2.433668822e-01, 9.639803320e-02, -2.052974552e-01, 2.958329916e-01, 4.673165083e-01, -5.804748088e-02, -9.251943976e-02, 8.226260543e-02, -1.451409012e-01, -1.451347768e-01, 2.346966416e-03, -8.866371959e-02, 1.374628991e-01, -7.252580673e-02, -2.720296197e-02}, {-1.340279728e-01, 3.980931640e-01, -3.927671313e-01, 1.152257025e-01, -3.302072585e-01, 4.653829038e-01, -4.063172042e-01, -1.200486571e-01, 4.531113058e-02, -1.694749445e-01, -1.407991052e-01, -2.006426901e-01, -2.011510283e-01, 2.059407160e-02, 1.316393912e-01, 1.501002908e-01, -1.272746269e-02, -1.022673249e-01, 1.234383415e-02}, {-5.148602128e-01, -1.407468170e-01, -2.572511435e-01, 4.268929958e-01, 6.547908764e-03, 2.345778607e-02, 1.386472732e-01, -9.241824597e-02, 1.044599041e-01, -1.885298938e-01, 5.419203267e-02, 1.162660420e-01, 7.506391406e-02, -5.418566987e-03, 6.370785832e-02, 2.042623907e-01, 9.063168429e-03, -2.539732959e-03, 1.853089221e-02}, {-2.432001680e-01, 8.036357164e-02, 2.836180627e-01, 2.429896891e-01, 1.762776822e-02, -1.398266107e-01, -4.472221136e-01, 3.343519866e-01, 1.923125386e-01, 4.153656662e-01, 4.355971143e-02, -1.137181818e-01, 1.462432146e-01, -7.804598659e-02, 3.979552165e-02, 9.649644047e-02, 1.844929345e-02, -1.180224121e-03, -3.900088742e-02}, {-3.618077040e-01, 6.540805697e-01, 5.132269859e-01, 2.927351892e-01, -3.378944397e-01, -2.158771455e-01, 1.319640577e-01, -2.374356985e-01, 1.698237807e-01, -5.770213902e-02, -9.045665711e-02, 6.294208020e-02, -9.875511378e-02, -1.239354387e-01, 4.450879246e-02, 3.476142138e-02, 5.686813500e-03, -2.681517415e-02, -1.970506506e-03}, {1.549868286e-01, -1.587714702e-01, -1.676167399e-01, -1.286577135e-01, 2.261124179e-02, -5.858738348e-02, 1.886495650e-01, 8.563201874e-02, -1.753144711e-01, 2.965008020e-01, -8.141025156e-02, 4.100442398e-03, 1.287960410e-01, 3.998123407e-01, 8.410234004e-02, 2.971619070e-01, 2.379624918e-02, -4.536712915e-02, -1.595504582e-02}, {4.123663902e-01, -1.657370925e-01, 4.544786736e-02, -2.076923698e-01, 3.543824852e-01, -1.343139857e-01, 2.403390259e-01, -1.148630455e-01, -2.236015797e-01, 1.793233156e-01, 1.371351331e-01, 4.600515962e-02, 2.519749999e-01, 3.163915873e-02, 6.832797080e-02, 6.013771892e-02, 8.225453645e-02, 5.336277187e-02, 2.321970649e-02}, {-2.074383013e-02, 3.557853401e-01, 8.873403072e-02, 2.640743852e-01, -4.332376719e-01, -1.644786745e-01, 3.025692701e-01, 1.512648165e-01, -1.614519209e-01, -1.648352742e-01, 4.307029769e-02, 7.710991800e-02, 8.121421933e-02, -1.992756128e-01, 2.018866129e-02, -2.211338282e-01, -4.239841178e-02, 1.156235784e-01, 4.295877740e-02}, {-2.824974954e-01, -5.370458588e-02, 4.507907629e-01, 2.775187790e-01, 1.445890367e-01, 1.274734437e-01, 1.029014960e-01, 1.094944030e-01, 3.623827919e-02, 3.549659550e-01, 3.739135861e-01, -3.709453344e-01, 3.039343655e-01, 2.676370740e-01, -9.566225857e-02, -1.487482935e-01, 2.530869283e-02, 1.684339792e-01, -4.710654542e-02}, {7.878500968e-02, 4.414758086e-01, -6.565319896e-01, 7.198804524e-04, -2.821217179e-01, 7.023442984e-01, -7.698938251e-02, -1.698558405e-02, -5.023897067e-02, -6.387653947e-02, 3.445195407e-02, 3.078030795e-02, -8.999332041e-02, 2.825916745e-02, 4.909360036e-02, -2.421743721e-01, -7.654085755e-02, 4.874647036e-02, -1.280449564e-03}, {-2.015734911e-01, -4.935344458e-01, -1.212544739e-01, 3.677317798e-01, 5.002589524e-02, -4.828353226e-02, -5.655716062e-01, -4.875133038e-01, -1.864137799e-01, 1.435686797e-01, -9.471368045e-02, 5.130329356e-02, -1.037940159e-01, 5.658980832e-02, 5.784498155e-02, 1.076354682e-01, -1.532944012e-02, -3.788685054e-02, -5.362194031e-02}, {2.096923292e-01, 1.301617548e-02, -4.382606149e-01, -1.589668542e-02, -1.771643013e-01, 1.226686388e-01, -1.586117409e-02, -2.442764491e-02, 1.526202857e-01, -2.496411949e-01, -2.539522946e-01, 2.192285806e-01, 3.802061975e-01, -2.800414860e-01, -2.877943814e-01, 2.209964991e-01, 1.607741266e-01, 2.863317169e-02, -5.604781676e-03}, {1.297964603e-01, 3.241324127e-01, 7.896821946e-02, 1.967507601e-01, -1.784677953e-01, 2.144528180e-02, 7.132568955e-01, 1.062719598e-01, -2.710504234e-01, 7.440117747e-02, 8.286697417e-02, -1.796879172e-01, -2.920003533e-01, 2.626244351e-02, -9.901761077e-04, 4.990982264e-02, -3.783407388e-03, -5.480951443e-02, 2.399643138e-02}, {-1.153132617e-01, 4.106102586e-01, -2.221240997e-01, 2.068930119e-02, -4.134377539e-01, -6.939760409e-03, -1.511224508e-01, -6.492348760e-02, 5.005913600e-02, 4.108320773e-01, -2.947198413e-02, 2.510381117e-02, 5.098320842e-01, 1.065779403e-01, 9.183829278e-02, -2.083627731e-01, 2.633390762e-02, 5.022606254e-02, -2.071041241e-02}, {3.363405168e-01, 2.718637586e-01, -4.842250422e-02, -1.546908021e-01, -1.502644420e-01, 4.204891995e-02, -3.944570720e-01, 1.643417925e-01, -2.969623208e-01, 3.466172516e-01, -1.219589561e-01, -3.530481085e-02, 1.864925772e-01, 1.907809824e-01, 1.943217590e-02, 1.233223677e-01, -1.462818403e-02, 1.022793874e-01, 8.675272577e-03}, {-2.456435561e-01, -2.605730593e-01, 7.010200024e-01, 1.602033079e-01, -3.919168934e-02, -2.386099100e-01, -1.754220426e-01, -4.005956277e-02, 6.369291339e-03, -7.021123171e-02, -5.628798157e-02, -1.174745616e-02, -1.338577867e-01, 7.713856176e-04, 6.754997373e-02, -4.357232153e-02, 1.577478647e-02, -6.743988395e-02, -3.975216299e-03}};

const float bias_in[NUM_NODES] = {-7.649151683e-01, 3.056646585e-01, -3.092559278e-01, -5.648466572e-02, 6.790010929e-01, 4.007513821e-01, -3.440253437e-01, -3.729754686e-01, 8.953219652e-02, 1.811576821e-02, 1.983640790e-01, 5.919719115e-02, 1.025822759e-01, -4.733722210e-01, -9.961830974e-01, -1.494549066e-01, -6.049523950e-01, -5.513693392e-02, -4.660939872e-01, -1.456252486e-01, -1.606041938e-01, -8.429705352e-02, 1.790440530e-01, -2.514539063e-01, -4.877264500e-01, 5.925465822e-01, -1.598399878e-01, 8.384118676e-01, -1.285532266e-01, -9.875406623e-01, 1.541277617e-01, -6.298720837e-01, -1.603586227e-01, 1.747423410e-02, 9.928143770e-02, -5.815205723e-02, -2.824353278e-01, -4.613256082e-02, -1.416313350e-01, -3.321284652e-01, 2.498136014e-01, -1.276196390e-01, 4.941945374e-01, 2.682387643e-02, -4.460306168e-01, 1.392545104e-01, 5.573174357e-01, -3.112724423e-01, 4.693666101e-01, 1.855424345e-01, -2.069640011e-01, -5.744132400e-01, -5.098799616e-02, -1.783444583e-01, -7.056877017e-01, 1.755412072e-01, -1.179025769e-01, -3.696486726e-02, -7.869612426e-02, 3.723596334e-01, -7.742720842e-01, 9.271173179e-02, -1.007811204e-01, -3.415115476e-01, -7.231639624e-01, 5.413016677e-01, -6.038684845e-01, 1.669843644e-01, -5.105602741e-01, -4.462871850e-01, -6.217094064e-01, 7.581906021e-02, 1.008352414e-01, 6.127787232e-01, -1.486072838e-01, 1.094492674e-01, 3.397856057e-01, 8.765363693e-01, 3.216619417e-02, -4.237472638e-02, 1.529956758e-01, -5.340369940e-01, 2.430052459e-01, -7.391664386e-01, -8.008202314e-01, 8.987675905e-01, -3.323821723e-02, 1.187906489e-01, -5.007522702e-01, 6.265135407e-01, -1.264124066e-01, 2.989375032e-03, -6.451163441e-02, -3.279445171e-01, -7.198851705e-01, -4.847906232e-01, 4.101660568e-03, -2.554724216e-01, -4.931423962e-01, -3.712908924e-02, 2.187392861e-01, 6.656664610e-02, 4.495649338e-01, 6.402709335e-02, -5.382269621e-01, -1.987468451e-02, 4.045057595e-01, -4.536362588e-01, 1.741902381e-01, 2.454330921e-01, 3.816953301e-01, 9.892988019e-03, -4.064368308e-01, 1.278876513e-02, -3.644979894e-01, 3.135159016e-01, -3.771619201e-01, -2.776295543e-01, -5.156105161e-01, 2.906199396e-01};

const float weights_out[NUM_CONTROLS][NUM_NODES] = {{1.937086731e-01, -3.680520505e-02, -9.012846649e-02, -3.521038592e-02, -4.626557603e-02, -5.790765211e-02, 3.540925682e-02, -7.336951792e-02, -1.252948586e-02, 1.351228207e-01, 5.493662879e-02, -1.113022566e+00, 3.982748836e-02, 4.768335493e-04, 4.415464029e-02, -1.384060644e-02, 1.582016647e-01, 8.728212863e-02, 6.284553558e-02, -1.182103530e-02, -6.157980114e-02, 6.238524988e-02, -1.906632259e-02, 2.117861807e-02, 5.046600848e-02, 2.205996402e-02, 4.528514296e-02, -2.088609152e-02, -2.885752171e-02, -3.702626750e-02, -1.910798699e-01, -2.328311093e-02, -1.600772142e-02, 8.840594441e-02, 1.810304262e-02, -1.397418231e-02, -5.768275354e-03, -2.605179884e-02, -7.481908798e-02, 7.209701836e-02, 1.637070626e-02, 3.658409044e-02, -1.793322712e-02, 2.303345688e-02, 8.182784170e-02, -4.457820207e-02, 2.032109722e-02, -3.297306132e-03, 8.270934820e-01, -2.827262133e-02, 1.735039949e-01, -3.628763184e-02, 1.296319533e-02, -2.478200756e-02, -1.184464693e-01, -1.508425642e-02, -1.507685985e-02, 7.588033378e-02, 4.329652060e-03, -1.338786632e-01, -5.234846845e-02, 4.884327948e-02, -2.009623349e-01, -4.488276318e-02, -2.405697666e-02, 3.201797232e-02, -4.360728711e-02, 2.753469720e-02, 1.590504684e-02, -1.781774610e-01, 1.309827995e-02, 2.689866349e-02, 1.347298771e-01, -2.112003416e-01, 2.466262132e-02, -2.484915778e-02, -2.523437738e-01, -3.810712323e-02, 8.213448338e-03, 3.172712028e-02, -4.297623038e-02, -2.688538842e-02, -1.008940265e-01, -2.436985634e-02, 1.619160920e-01, 6.302323937e-02, 9.559811093e-03, 1.535826549e-02, -3.340241313e-02, -3.442252427e-02, 4.973651096e-02, -1.368229836e-01, 3.389133140e-02, 7.849844545e-02, -9.353862703e-02, 9.997572005e-02, 8.607064933e-02, -6.041288003e-02, -4.165962338e-02, 1.659831963e-02, 7.553091645e-02, -1.373540610e-01, 7.956403494e-02, -8.691876382e-02, -3.455292434e-02, 9.187798947e-03, 3.242310509e-02, 1.455329359e-02, -6.174429134e-02, 9.861236811e-02, -2.991519496e-02, 2.130396431e-03, 2.140195668e-02, 1.127040759e-01, 2.391474843e-01, 8.834827691e-03, 4.055469111e-02, -9.926431626e-02, 2.647468355e-03, 5.987396836e-02}, {-8.313301019e-03, -7.355791330e-02, 2.434602566e-02, 1.873032562e-02, 2.202937007e-02, -1.042570248e-01, 7.557301968e-02, -8.843469620e-02, 1.051090360e-01, 1.239343584e-01, -1.493432280e-02, 9.690322913e-03, -2.537436597e-02, -1.098105833e-01, -1.239363104e-01, 7.998629659e-02, -5.718015879e-02, -7.626201212e-02, 1.027510837e-01, 8.087238669e-02, 4.196861088e-01, 1.029522270e-01, -9.776740335e-03, 6.258832663e-02, -2.648402378e-02, -7.481278479e-02, -5.685957149e-02, -4.998869076e-02, 1.689302549e-02, -2.526948974e-02, 4.907867685e-02, -7.578506321e-02, -3.814970329e-02, -3.754709661e-02, -2.014545351e-01, 1.720883697e-02, 1.271334849e-02, 1.266475469e-01, 6.886086194e-04, -1.326006465e-02, 4.094644636e-02, 6.115061697e-04, -3.999404237e-02, 5.348710343e-02, -4.538327456e-02, -1.270322055e-01, 9.715707600e-02, -5.566676147e-03, -6.413431838e-03, -1.054875087e-02, 9.456713498e-02, 9.489615262e-02, 1.355249714e-02, -7.054273039e-02, 1.837531291e-02, 1.004810259e-02, 2.132127620e-02, -1.608980447e-02, -1.400817931e-01, 2.602986246e-02, 1.284718215e-01, 5.650127679e-02, 1.200363971e-02, -7.870159298e-02, -2.153726481e-02, 5.836327560e-03, 9.402565658e-03, -4.937281832e-02, 8.745790720e-01, 1.346288249e-02, 4.278712571e-01, -5.289426073e-02, 1.015414149e-01, -2.071255296e-01, 6.887265295e-02, 7.984124124e-03, -7.863284089e-03, 1.740137301e-02, 5.741490051e-02, -1.914216578e-02, 7.602629811e-02, -7.193610072e-03, -1.616449095e-02, 1.072754562e-01, 2.778254449e-03, -8.362074196e-02, 1.155464910e-02, -9.199400665e-04, 7.368534803e-02, 1.326103508e-01, 2.051807642e-01, 1.750607789e-02, -3.653705120e-02, -1.093623787e-01, -4.446530342e-02, 6.965260953e-02, 1.149651408e-01, -5.418130010e-02, 5.548857152e-02, -1.024797440e+00, 1.476196293e-02, 5.036202669e-01, -7.514746860e-03, 9.085906669e-03, -2.073029242e-02, -1.756687090e-02, 2.549397945e-02, -4.423304647e-02, -6.465344876e-02, 5.127020925e-02, -8.675261401e-03, -1.847360097e-02, -3.467581049e-02, 7.875417918e-02, 7.208439708e-02, 1.840274967e-02, 1.027514134e-02, 5.364277400e-03, 1.109795086e-02, 2.422753535e-02}, {-5.548588932e-02, 6.425653398e-02, 1.176879108e-01, -3.095439635e-02, -3.253300488e-02, -1.067553740e-02, -7.111330982e-03, -5.342884734e-02, 1.430777553e-02, 1.355905533e-01, -3.588220477e-02, 9.126428515e-02, 1.956553943e-02, -1.712951064e-02, -6.903649867e-02, 7.372429222e-02, -9.317407012e-02, 3.246500390e-03, -7.842628658e-02, 9.310745448e-02, -2.489403188e-01, 1.347160805e-02, -6.574655324e-02, 6.820536405e-02, 5.002670223e-04, -5.077430978e-02, -3.498064354e-02, 4.007174820e-02, -1.249544416e-02, 4.820537195e-02, -7.135212421e-02, 4.113274440e-02, -6.057504565e-02, -4.943029583e-02, 9.398959810e-04, 1.218950033e+00, 8.819476366e-01, -6.063123047e-02, 2.883490641e-03, 2.552013099e-02, -3.210065514e-02, 2.446709014e-02, -1.168000605e-02, 3.863774985e-02, -4.178781062e-03, 3.960370645e-02, -4.642801359e-02, 2.424104838e-03, -8.456027508e-02, 2.486529574e-02, 7.075741887e-02, -3.861685842e-02, 6.250093132e-02, -3.321993724e-02, 9.141191095e-02, -7.178306580e-03, -8.023879491e-03, 1.432396472e-01, -3.811615705e-02, -1.694685519e-01, 4.350189865e-02, -7.810283452e-02, -7.785357535e-02, 2.245791256e-02, 2.765538916e-02, 1.422126293e-01, 3.656141832e-02, -2.226616815e-02, 2.668547095e-04, 8.924176544e-02, -8.608260192e-03, 1.762228645e-02, -1.674183831e-02, -4.873573184e-01, 1.816063374e-02, 3.090542369e-02, 1.540015191e-01, 4.646054655e-02, 6.249330938e-02, 2.298996784e-02, -4.034489766e-02, 2.809398472e-01, -8.442942053e-02, -4.048871994e-02, 1.384452432e-01, 2.693731524e-02, -1.561211608e-02, 5.425774306e-02, -7.519637793e-02, 3.570353240e-02, 1.193023250e-01, -1.322588176e-01, -6.389164366e-03, -1.718229055e-02, 4.026425183e-01, -8.198636584e-03, 9.641792625e-02, -6.074563414e-02, 1.021269592e-03, -5.056391656e-02, 1.401104778e-01, -4.616138712e-02, -6.316866279e-01, -1.969608478e-02, 5.475946143e-02, 3.056828491e-02, 1.193926260e-01, -2.038242668e-02, 2.958144434e-02, 7.952746004e-02, 3.321846202e-02, -9.757482447e-03, -2.537702397e-02, 7.108808309e-02, 6.426984072e-02, 5.875583366e-02, -1.093121469e-01, 2.702050656e-02, -2.257839311e-03, -1.915418729e-02}, {-2.367785759e-02, 6.183575094e-02, 7.355489582e-02, 2.614611574e-02, -2.441280521e-02, 2.446186543e-02, 1.239337698e-01, 1.174440160e-01, -5.179990456e-02, 8.062003553e-02, 4.197657853e-02, -2.754292451e-02, 7.003623247e-02, 1.446934342e-01, 4.128891602e-02, -4.988706857e-02, -1.019890085e-01, -2.781516500e-02, 1.058450118e-01, 1.069549657e-02, -9.646977186e-01, -1.727754436e-02, 2.175666951e-02, 1.823374629e-01, -1.786829717e-02, 8.054317832e-01, 5.246554315e-02, 3.600075543e-01, 8.456342854e-03, -1.913868263e-02, -4.417273030e-02, -1.080648080e-01, 6.439512223e-02, -1.057303790e-02, -1.132756621e-01, 9.094176814e-03, 3.557117889e-03, 1.219174359e-02, 4.272296652e-02, -3.484111279e-02, -7.104093209e-03, 3.814658616e-03, 5.158375576e-02, -3.740857914e-02, -2.707088925e-02, -1.101108193e-01, 1.564371437e-01, 4.640683997e-03, 9.323135950e-03, -5.541491881e-02, 6.393755227e-02, 1.084494218e-01, -3.078825539e-03, -2.750092186e-03, 3.626629710e-02, 1.729003340e-02, -3.372825310e-02, 5.751656741e-02, -2.619437575e-01, 2.375029027e-02, -4.565002397e-02, -3.346457705e-02, 4.982386529e-02, -6.742284447e-02, 5.961639062e-02, 2.789434232e-02, -2.098689973e-02, -2.104675397e-03, -2.451947704e-02, -3.136792034e-02, -3.863628581e-02, 6.370138377e-02, 1.220639646e-01, -5.148901343e-01, -3.506379575e-02, -7.960638963e-03, -4.347905144e-02, -1.178587973e-02, 2.246475592e-02, 4.864592850e-02, -4.553400725e-02, -3.833370283e-02, -5.510139838e-02, 4.318108037e-02, -1.722860266e-03, -3.963045403e-02, -1.039840560e-02, -3.424203023e-02, 1.072248095e-03, -5.501458421e-02, 5.674607679e-02, -3.768905625e-02, -6.084183976e-02, -4.946402833e-02, -4.557024688e-02, 4.294559825e-03, 1.297681779e-01, 6.790293753e-02, -1.499688029e-01, 8.149315417e-02, 5.000716774e-04, -2.399553955e-01, 9.458557516e-02, -3.512810916e-02, 4.960455000e-02, 6.666970253e-02, -4.734255746e-02, 8.400736004e-02, 1.761422679e-02, -8.354030252e-01, 3.021660447e-01, 1.080650449e+00, -6.514864415e-02, 2.001500502e-02, 2.109661996e-01, 8.141209185e-02, -1.200115457e-01, 2.961770399e-03, 2.431872189e-01, -3.617264703e-02}};

const float bias_out[NUM_CONTROLS] = {-8.593076840e-03, 1.213578414e-02, 2.879905999e-01, 2.540084422e-01};

const float in_norm_mean[NUM_STATES] = {1.349932671e+00, -8.546733111e-02, -7.611674070e-01, 2.953598261e+00, -7.956304550e-01, -4.907034636e-01, 2.137714475e-01, -1.776700914e-01, 2.931205630e-01, 1.049667478e+00, 4.512556493e-01, 3.204911649e-01, 7.684360840e+03, 8.160762207e+03, 8.915993164e+03, 9.036251953e+03, 7.456569001e-04, 4.903926165e-04, 2.177796341e-05};

const float in_norm_std[NUM_STATES] = {9.059508443e-01, 1.054533601e+00, 1.089498997e+00, 1.581920743e+00, 1.950580120e+00, 1.530352592e+00, 5.881931782e-01, 4.026399851e-01, 5.865101814e-01, 2.768838406e+00, 2.749351978e+00, 9.222953916e-01, 2.178255615e+03, 2.034838257e+03, 1.624778198e+03, 1.674086548e+03, 2.297551557e-02, 2.318990789e-02, 5.857999902e-03};

const float out_scale_min = 3.000000000e+03;

const float out_scale_max = 1.100000000e+04;

const float weights_hid[NUM_HIDDEN_LAYERS-1][NUM_NODES][NUM_NODES] = {{{4.511035979e-01, 1.163836494e-01, 1.753303111e-01, 4.802560061e-02, 1.277467459e-01, -3.391384482e-01, -3.098894097e-02, -7.928547263e-02, -1.344070733e-01, -9.392272681e-02, -2.511996627e-01, 1.934817284e-01, -2.612753073e-03, -4.988658428e-02, -2.671369351e-02, 2.166595683e-02, 9.287694097e-02, 9.343206137e-02, 1.309611201e-01, 9.792659432e-02, 7.583758235e-02, -2.581951916e-01, 3.275778890e-02, -1.829202920e-01, -1.351648942e-02, 1.422084868e-01, -7.700160146e-02, 1.805404425e-01, -1.054869741e-01, -2.824856043e-01, 3.913436830e-01, -2.729647756e-01, 1.069525257e-01, 6.906951964e-02, -1.553205848e-01, 1.559995562e-01, -4.017095640e-02, -1.485225856e-01, 2.749830112e-02, 1.300924718e-01, -2.271283418e-01, 1.006518975e-01, -1.128128543e-01, 6.808117498e-03, 1.478929818e-01, -5.488878116e-03, -1.483222991e-01, 1.300260723e-01, -7.241915911e-02, 1.058760360e-01, 9.687370062e-02, -5.087233335e-02, 1.253645420e-01, 1.000326052e-01, -8.422128856e-02, 2.175156921e-01, -1.253599375e-01, -2.932172827e-02, 1.214207485e-01, -1.314294785e-01, -1.427503526e-01, -1.946069151e-01, -3.168324009e-02, -1.367219090e-01, 5.120731592e-01, -2.186224163e-01, 1.659026444e-01, -2.596222758e-01, -6.086668745e-02, 8.406504989e-02, 2.363246381e-01, 8.878338151e-03, -4.064118117e-02, 1.523330510e-01, 3.219654411e-02, -7.553825527e-02, -1.942585222e-02, -3.607285395e-02, 1.609774381e-01, -4.772153199e-01, 3.924710751e-01, 2.345451564e-01, -4.801610485e-02, 6.142102927e-02, -9.985445067e-03, -4.808012024e-02, -3.149583936e-01, 1.226903647e-01, -1.229998767e-01, -1.111240387e-01, 7.545129210e-02, -1.786947250e-01, -6.868334115e-02, 9.030769020e-02, -1.717159450e-01, 2.532830834e-02, -6.423743814e-02, 1.534318775e-01, 1.619807184e-01, -3.177344427e-02, -2.884545028e-01, -1.564281285e-01, -2.032619342e-02, 3.840526566e-02, 1.166371107e-01, 2.382677421e-02, 9.043496102e-02, -6.663203705e-03, -2.068288773e-01, 1.151918769e-01, -7.836594433e-02, 3.720507920e-01, -5.537863374e-01, 1.144640669e-01, 4.759882577e-03, 4.568449780e-02, 3.902399540e-02, 7.344451267e-03, 2.348695695e-02, -1.308837980e-01}, {-7.035130262e-02, -9.444847703e-02, -2.107809763e-03, -1.979174279e-02, -8.435478806e-02, 5.267364904e-02, -1.220497862e-02, -3.525206074e-02, -3.514008224e-02, -6.900012493e-02, -8.881003410e-02, 5.983121693e-02, -1.227021217e-01, 4.042051360e-02, -7.813076675e-02, 1.945492439e-02, 3.970448393e-03, -1.037711799e-01, 2.947881445e-02, -9.079441428e-02, -1.299205516e-02, -2.501023188e-02, 2.002086258e-03, -1.012073904e-01, -1.028283983e-01, -4.082508758e-02, -8.267389238e-02, 4.046968743e-02, -1.618265919e-02, -7.310055196e-02, -4.854220152e-02, 8.007912338e-02, -3.707293794e-02, -7.145186514e-02, -6.734644622e-02, 5.881801620e-02, 4.839940369e-02, -1.069338545e-01, 4.625461251e-02, 3.404742479e-02, -5.023082718e-02, -4.980333894e-02, -1.171950251e-01, 2.271825820e-02, 3.280048817e-02, 3.773346543e-02, -5.629597977e-02, -1.116094664e-01, -2.098388039e-02, 2.952300198e-02, -4.661513492e-02, -1.187943816e-01, -8.017752320e-02, -2.128992230e-02, 6.256816536e-02, 1.851147041e-02, -4.836741369e-03, -2.794375271e-02, -2.764992416e-02, -2.187977778e-03, 3.073417954e-02, 3.987986967e-02, -1.010473892e-01, -9.326234460e-03, 5.531160906e-02, -9.771983325e-02, 6.055420265e-02, -1.053437367e-01, -6.324733794e-02, -7.469005138e-02, 6.187935174e-02, -4.024548456e-03, -9.379994124e-02, -1.604465209e-02, -5.046043918e-02, 5.428971350e-02, 5.240164697e-02, -2.923485823e-02, 1.292489190e-02, 2.049589902e-02, 3.937256522e-03, 4.194972664e-02, 3.882606328e-02, -4.413911700e-02, 6.157703698e-02, -6.991056353e-02, -6.855396926e-02, -4.204780608e-02, 3.353045508e-02, -1.062046811e-01, 2.478306182e-02, -3.136676550e-02, -9.900509566e-02, 3.827982396e-02, 4.166811705e-02, -6.477297097e-02, -9.359142184e-02, -5.604574457e-02, -4.406896234e-02, -6.727270037e-02, -6.815915555e-02, 7.714061532e-03, -3.081768006e-02, -8.809474111e-02, -3.002685495e-02, -9.678906947e-02, 6.439971179e-02, -4.440182075e-02, -4.255889729e-02, -4.472361133e-02, -4.574860632e-02, 4.535166174e-02, -2.045347821e-03, 1.225816784e-03, -1.989697851e-02, -4.902658612e-02, -9.007373452e-02, -3.243778273e-02, 5.328193679e-02, -5.361286178e-02}, {1.845678091e-01, -1.457521170e-01, -1.562047154e-01, -4.723149166e-02, 1.896914840e-01, -3.943511471e-02, 3.815987334e-02, 7.468579710e-02, -4.887565039e-03, 1.227797717e-01, -1.047192439e-01, -2.576370724e-03, 1.104189977e-01, -2.427165508e-01, 1.338929832e-01, 3.032979183e-02, 7.292419672e-02, -1.212741658e-01, 2.077139355e-02, 1.728603691e-01, 1.359526217e-01, -8.949963748e-02, -1.844762266e-02, 3.218009323e-02, 9.516298771e-02, 1.679632068e-02, 1.492657214e-01, 1.627621800e-01, -1.386564225e-01, 5.397135019e-02, 1.218750924e-01, 1.336015165e-01, -2.790308297e-01, -6.987632066e-02, 2.988605499e-01, -1.009980738e-01, 4.901662469e-03, 1.857752725e-02, 3.801253811e-02, -8.108168840e-02, 3.281624913e-01, 9.214095771e-02, -1.857729703e-01, 1.497410089e-01, -1.566526294e-01, 5.646116659e-02, 9.443859011e-02, -8.257747442e-02, 5.575159565e-02, -2.481473424e-02, -6.947055459e-02, 4.560429975e-02, 1.037563458e-01, 1.398326755e-01, 1.042375490e-01, 2.568175793e-01, -4.586467147e-02, -1.204770897e-02, 3.259863006e-03, -3.694900870e-02, 2.014925145e-02, 1.341416687e-01, -8.432531357e-02, 7.861879468e-02, 2.239364684e-01, -1.494690478e-01, 2.935585380e-01, -9.573386051e-03, -2.209629565e-01, -3.991274908e-02, 1.362829208e-01, -1.689239740e-01, 2.618910512e-04, 1.514001042e-01, 5.023153033e-03, 9.704808146e-02, -8.774021268e-02, 1.284625530e-01, 1.244321167e-01, -2.582609355e-01, 4.655195773e-02, 2.471400946e-01, -3.618713235e-03, 2.537022159e-02, 5.375071988e-02, 2.841334343e-01, 4.040313512e-02, 1.547060460e-01, -3.235843033e-02, 1.028438732e-01, 1.134070456e-01, -8.770856261e-02, 1.406528950e-01, -6.659674644e-02, 3.663637862e-02, 7.185185701e-02, -2.325735241e-01, -1.011096612e-01, 1.491936743e-01, 7.300979644e-02, 4.119461402e-02, -1.134994477e-01, -3.137597740e-01, -1.182083115e-01, -5.965577811e-02, 4.688822851e-02, 1.013602540e-01, -7.075177878e-02, 1.100616455e-01, -7.695284486e-02, -1.279876381e-01, 5.787150562e-02, 4.104378074e-02, 5.641628429e-02, -2.665490285e-02, 4.141125455e-02, 3.337598220e-02, 7.667960227e-02, -6.559352577e-02, -1.240496188e-01}, {1.699019074e-01, 2.501456738e-01, -1.581412368e-02, -1.547051370e-01, 5.805033259e-03, 8.145944215e-03, 4.541649222e-01, -1.466818303e-01, 1.612803340e-01, -8.716022968e-02, -7.419517636e-02, 2.305052429e-01, -1.221073046e-01, 2.662352100e-02, 3.215283155e-02, 1.638502479e-01, -2.429276109e-01, -1.550916731e-01, -5.234767795e-01, 3.365534940e-04, -8.476699889e-02, -3.830147386e-01, -1.931280643e-01, 3.481214643e-01, -9.066817351e-03, -2.618273199e-01, 5.046063066e-01, -1.107101366e-01, -2.371546775e-01, 8.514544964e-01, 8.610147238e-02, -2.548383176e-02, 1.128645539e-01, 7.599994540e-02, 1.154137030e-01, 9.040804952e-02, -3.983650506e-01, -4.077559114e-01, 2.238339931e-01, 8.474007249e-02, 1.999883056e-01, 1.197634451e-02, -1.292938143e-01, -2.352950126e-01, -2.742998302e-01, -3.665736616e-01, 3.437200487e-01, -1.510488242e-01, 3.130257428e-01, 8.049266413e-03, 1.250675768e-01, 2.705723047e-01, -7.979485393e-02, -2.119979113e-01, 1.375359744e-01, -4.594936967e-02, -1.604372263e-01, 2.099186629e-01, 2.849273942e-02, -1.949528456e-01, -5.576950964e-03, 2.175150216e-01, -9.277288318e-01, -1.737611592e-01, -2.249922901e-01, -2.983899042e-02, -2.843253911e-01, -4.865237176e-01, 3.585536182e-01, -5.237985402e-02, -2.226891816e-01, 1.848742664e-01, -2.111575902e-01, -1.127688587e-01, -6.438465416e-02, -2.078768164e-01, -6.189502403e-02, -1.774380803e-01, 1.392670125e-01, 1.863181591e-01, 3.470908999e-01, -1.051012203e-01, 7.246217132e-02, 3.392467797e-01, -3.617331982e-01, -2.359769940e-01, 2.236167192e-01, 6.634546071e-02, 4.719097018e-01, 6.464181934e-03, 1.316400021e-01, 6.531985104e-02, 2.788945436e-01, 1.376002580e-01, 2.533548176e-01, -1.328277588e-01, 1.798512787e-01, 1.491569877e-01, -4.254624546e-01, 1.932841241e-01, 8.211917430e-02, 2.772080153e-02, -6.315795779e-01, 1.951813102e-01, 1.805518866e-01, 1.705544293e-01, 4.497706592e-01, -4.307344090e-03, -2.650465667e-01, -1.757892519e-01, -9.677895159e-02, -4.246545732e-01, 2.856138945e-01, 1.385740489e-01, -2.896127701e-01, -1.541251093e-01, -2.615147643e-02, 2.086172551e-01, 1.082880571e-01, -3.034335077e-01}, {-5.632483959e-02, 1.874756366e-01, -8.516737074e-02, -1.537630409e-01, 5.950777605e-02, -3.112832904e-01, -3.087286949e-01, -1.150418818e-01, 1.826904342e-02, 3.324168921e-01, -1.329515129e-01, -4.108260572e-02, -8.934209123e-03, -1.025110483e+00, -1.345525533e-01, 9.222444892e-02, -4.683018327e-01, -2.808942199e-01, -2.113285810e-01, 1.052191183e-01, -2.503763139e-01, 9.133281559e-02, -3.548851609e-02, 8.561724424e-02, 2.728486806e-02, -3.423406482e-01, -8.318574727e-02, 3.850707412e-02, -3.689677119e-01, 2.166381925e-01, -1.748232841e-01, -8.085075021e-02, -5.771180987e-01, 3.766612113e-01, 2.073343098e-02, 2.727651298e-01, -2.071126997e-01, -5.767912418e-02, 9.962389618e-02, 5.040713549e-01, 1.713057607e-01, -2.920630574e-01, -4.244811088e-02, -4.004485160e-02, -2.487901449e-01, 9.978936613e-02, 2.431716323e-01, -1.596511006e-01, 6.748868525e-02, 3.082383573e-01, 1.561331842e-02, 4.428011477e-01, 9.760367870e-02, -2.209062576e-01, 4.112047255e-01, -2.360791862e-01, -1.073946133e-01, 5.590626597e-01, -1.134884357e-01, -2.536799908e-01, 1.489682496e-01, -5.683705807e-01, 1.103829816e-01, 1.369841546e-01, -9.106030315e-02, 6.203715503e-02, -3.042075634e-01, -2.419869155e-01, 3.722070754e-01, -4.128257036e-01, -1.594810188e-01, 2.689788640e-01, 2.637405694e-01, -1.756204665e-01, -1.261847764e-01, 1.650353521e-01, -1.350660026e-01, 5.239069089e-02, 1.078248322e-01, 1.445586979e-01, -4.230496008e-03, 2.134509534e-01, 1.609070450e-01, 1.709612757e-01, -5.701584220e-01, -2.147971094e-01, 1.850803494e-01, -1.203783508e-02, 4.444144368e-01, 8.588466048e-02, 3.925583363e-01, -2.855185568e-01, -1.782617718e-01, -2.249952406e-01, 2.569062077e-02, -3.990243077e-01, 3.937754333e-01, 1.510678679e-01, -1.411726475e-01, 1.351036578e-01, 2.119115442e-01, -6.607823819e-02, 1.085491106e-01, 1.463743597e-01, 9.461345524e-02, 1.862006783e-01, 2.997764647e-01, 1.765005104e-02, 2.416896373e-01, -8.555970341e-02, -2.576225698e-01, -1.325561702e-01, -4.583744332e-02, 1.185856462e-01, -2.322618812e-01, 1.530582905e-01, -2.050524652e-01, 8.657756448e-02, 1.345887929e-01, -5.515326858e-01}, {2.159966677e-01, -7.875522375e-01, 3.561557457e-02, -1.019389927e-01, -7.455512881e-02, 1.469036043e-01, -7.453809679e-02, -2.132942230e-01, 1.355983168e-01, -1.586165130e-01, 1.151494384e-01, 2.266585231e-01, -5.350568891e-01, -8.265657350e-03, -4.156126976e-01, 1.201527417e-01, -3.235585243e-02, -6.753864884e-02, -3.006211519e-01, 1.936239451e-01, -4.201887175e-02, 2.363452315e-01, -1.328017414e-01, -3.736926019e-01, -2.218574136e-01, 1.385542471e-02, -2.216410041e-01, 3.298213184e-01, -2.979697287e-01, 3.874385357e-01, 1.046082079e-01, -6.544752419e-02, 3.682054579e-02, -9.321784377e-01, -1.561841667e-01, 2.600691319e-01, -1.790536046e-01, -1.374535412e-01, -1.225403175e-01, 4.176436961e-01, 7.253700495e-02, -1.375669241e-01, 4.795747250e-02, -3.254204392e-01, 3.842755035e-02, 9.004895389e-02, 3.044005930e-01, -3.517341614e-01, -3.448362648e-01, 2.760947943e-01, 6.758408993e-02, -5.074619651e-01, -3.180644512e-01, 1.006692089e-02, -2.323743142e-02, -1.057277694e-01, -3.101625852e-02, 1.042286009e-01, 2.578545213e-01, -2.107882649e-01, -2.393749952e-01, 7.582265139e-02, 1.221867651e-01, 1.214513406e-01, -1.603462994e-01, 2.718401328e-02, -2.933527343e-02, 6.152307987e-02, -4.957050458e-02, 1.934857108e-02, 1.017970592e-01, 2.401200980e-01, -3.452652320e-02, -1.871047318e-01, -1.061495617e-01, -2.410031669e-02, -1.865304261e-01, 1.310973018e-01, -8.305345476e-02, 2.963271141e-01, -4.377503991e-01, 8.683573455e-02, -2.835270762e-01, 2.883844674e-01, -3.569516242e-01, 2.871293388e-02, 5.137138069e-02, -4.185178280e-01, -1.606357843e-01, -2.292735130e-01, 1.363631785e-01, -1.525434107e-01, 1.343146712e-01, 1.710067689e-01, -2.014341801e-01, -1.512398869e-01, 4.081419706e-01, 4.351676255e-02, 1.690642089e-01, -1.653537452e-01, 1.060663909e-01, 1.800390929e-01, -6.535317749e-03, 1.929933131e-01, 2.407307178e-01, -1.894374639e-01, 1.324272528e-02, -9.524006397e-02, -1.604932845e-01, 9.457784891e-02, 3.006082177e-01, 1.471146643e-01, 1.409310102e-01, -1.091984868e+00, 1.367190629e-01, -1.842748374e-01, -3.358970582e-01, -1.154840663e-01, 9.300955385e-02, 2.140368149e-02}, {3.218452446e-03, -3.396733999e-01, -2.977474630e-01, -5.265815929e-02, -4.662875533e-01, -1.859977841e-01, 1.603005826e-01, -1.606876999e-01, 1.094078794e-01, -3.220205903e-01, 1.419827044e-01, -8.813986927e-02, 2.979083061e-01, 2.699818909e-01, -1.927010864e-01, -1.443692446e-01, 1.707468331e-01, 3.456235826e-01, 8.821189404e-02, -4.139966145e-02, 1.619284153e-01, -3.264635503e-01, 3.455668986e-01, -5.629109591e-02, -4.436044395e-02, 1.483037323e-01, -4.585370887e-03, -1.554031018e-02, 1.007781774e-01, -1.480086446e-01, 4.180241667e-04, -1.649479866e-01, -1.890539825e-01, -3.219306096e-02, -7.823141664e-02, 7.620484382e-02, -2.542607486e-02, -5.882627890e-02, 2.099285275e-02, -3.650769964e-02, -2.904070318e-01, 2.893524058e-02, 5.533879250e-02, 6.457096338e-02, 4.635331035e-02, -3.494978547e-01, 2.475435659e-02, -7.480125874e-03, -3.042532802e-01, 2.867177725e-01, 1.665629148e-01, -3.813123405e-01, -2.808898687e-01, 3.883097768e-01, -1.126810834e-01, -1.643991563e-03, -7.238617539e-02, -2.642917633e-01, 3.036091290e-02, -2.257327437e-01, -6.737249494e-01, 2.434860766e-01, -5.856140330e-02, -1.088458300e-01, 1.639339700e-02, -2.049225718e-01, -5.673014000e-02, 1.571578532e-02, -2.289023548e-01, 2.285903096e-01, 1.390008479e-01, -1.962425709e-01, -2.527973950e-01, 9.714263491e-03, -1.295333952e-01, -7.651561499e-02, 2.043021917e-01, 1.244872287e-01, 1.287083179e-01, -3.812907636e-02, -5.272416025e-02, -4.500461742e-03, 2.630970180e-01, -6.619765610e-02, 1.265740395e-01, 2.250517011e-01, -6.453728676e-01, 2.687904835e-01, 5.316796899e-02, 4.312312230e-02, 9.776551276e-02, 3.776027858e-01, -8.313733153e-03, 1.048134938e-01, -3.137018159e-02, -1.927168965e-01, -1.624963135e-01, -5.694421381e-02, -3.808560669e-01, -5.394570231e-01, 2.749173045e-01, 1.894644499e-01, -2.588886023e-01, 1.251206994e-01, -2.101494223e-01, 5.520505086e-02, -4.841245413e-01, -1.316762120e-01, 1.940924525e-01, 4.879636690e-02, 2.779887058e-02, -1.222355012e-02, -3.149749041e-01, -1.677507535e-02, -2.155458778e-01, 3.785021976e-02, 1.111506019e-02, -7.530226111e-01, -1.242144927e-01, 3.135709167e-01}, {2.942540944e-01, 8.980618417e-02, -1.054131016e-01, -8.663628995e-02, 5.371697620e-02, -3.517756760e-01, -2.139407955e-02, -5.961133540e-02, -1.384074539e-01, 2.035661340e-01, -1.019227803e-01, 3.085828125e-01, -3.758511841e-01, -1.762991250e-01, 8.577314019e-02, -8.302251250e-02, 5.662671104e-02, 8.300778270e-02, -2.017138302e-01, 1.780100167e-01, 5.933879688e-02, 1.350702345e-01, 8.583211340e-03, -6.310891360e-02, -3.463967890e-02, -3.052392043e-02, 1.408043802e-01, 1.622624993e-01, -2.946583033e-01, -3.865169287e-01, -1.975733973e-02, 1.803716063e-03, -6.321212742e-03, 1.384309381e-01, 2.003297955e-01, -1.751778275e-01, -2.495747507e-01, -2.019808143e-01, 2.309181243e-01, -8.336136490e-02, -8.879912645e-02, 1.943455040e-01, -9.661403298e-02, 2.025391161e-01, -1.770159751e-01, -1.369105130e-01, 1.176206470e-01, -9.418194741e-02, -1.573249549e-01, -3.818829358e-01, -3.674226105e-01, -6.041414291e-02, 9.744675457e-02, -5.510304496e-02, 1.206088513e-01, -2.995923907e-02, -2.859889064e-03, 3.152814135e-02, -5.917822123e-01, -1.645152271e-02, -4.477068037e-02, -1.862913817e-01, -3.987779841e-02, 5.408154801e-02, 2.851270139e-01, 5.879497528e-02, -1.176933199e-01, 2.220272720e-01, -2.078562081e-01, -6.857484579e-02, -1.324535608e-01, 1.195436493e-01, -1.918058842e-01, 3.432812542e-02, 1.720919907e-01, 3.373449296e-02, -1.996863335e-01, -3.200626746e-02, -7.066178322e-02, 2.537896037e-01, -5.578158498e-01, 4.198986664e-02, -8.702647686e-02, -7.684084028e-02, -3.832701445e-01, 1.203374565e-01, -2.448658273e-02, -6.858738065e-01, -8.543631434e-02, 9.560237080e-02, 3.972929344e-02, 1.468657553e-01, 8.476447314e-02, 3.055137023e-02, 1.960830688e-01, -4.316793755e-02, -1.223562062e-01, -5.198978633e-02, 2.700294852e-01, -3.927552998e-01, 9.164089710e-02, 7.196691353e-03, 1.658626646e-01, 2.635238133e-02, -3.564586341e-01, -1.387153268e-01, 1.260120869e-01, 3.834743053e-02, 8.756252378e-02, -1.016407609e-01, -1.262551080e-02, -2.653006315e-01, 8.408054709e-02, -3.377329707e-01, -2.648341060e-01, 2.775664628e-01, -1.345905811e-01, -1.889935732e-01, 1.291433871e-01, 1.380013078e-01}, {2.973275185e-01, 2.140266299e-01, 7.525706291e-02, 5.131462216e-02, -9.674482048e-02, -8.760439232e-04, 1.964796036e-01, -1.929499656e-01, 8.753561974e-02, -8.046694100e-02, -1.415483952e-01, -1.157469377e-01, -8.212047070e-02, -2.247167751e-02, -1.249703765e-01, 3.526714444e-01, -4.245442152e-01, 1.994352192e-01, 3.870666623e-01, 1.352141500e-01, -2.347113788e-01, 8.559942991e-02, 1.540958881e-01, 2.275958061e-01, 8.941552788e-02, -1.008924246e-01, 1.225487664e-01, -3.293514252e-01, 3.685987890e-01, 1.324981898e-01, -5.134869739e-02, -1.079708636e-01, 3.220272809e-02, 3.038487434e-01, 4.316366091e-02, -5.911669135e-02, -1.114630606e-02, -1.532304883e-01, -8.372836560e-02, 1.610544026e-01, 3.138419008e-03, -1.294135153e-01, -2.499275506e-01, 1.632223725e-01, 1.950068399e-02, 3.721061349e-02, 1.188960224e-01, 6.943627447e-02, -1.630437523e-01, 1.041244045e-01, 8.022026718e-02, 1.076177694e-02, -6.011210382e-03, -2.928094752e-02, -3.369681165e-02, 2.193099409e-01, -1.026094425e-03, 2.851858549e-02, 4.483124614e-01, -3.771514595e-01, 1.724704653e-01, -2.059639543e-01, 2.316313088e-01, 1.108966023e-01, -1.075446233e-02, 4.248004034e-02, 2.882760167e-01, -2.800528109e-01, 3.444858193e-01, 2.017514110e-01, 2.541620433e-01, 2.552449703e-02, -3.392858505e-01, -2.784712315e-01, 1.715587080e-01, -1.378575712e-01, -6.176161766e-02, -1.074055061e-01, 9.872759879e-02, -3.127003908e-01, 1.119754687e-01, -2.467154264e-01, -5.911596585e-03, 1.568635851e-01, 4.040984809e-01, -3.308362067e-01, -1.396183968e-01, -7.300820202e-02, 1.112389714e-01, 7.589934021e-02, 1.015152559e-01, 2.461324483e-01, -1.190153323e-02, -1.128547713e-01, 9.097504616e-02, -1.615545526e-02, 1.223195493e-01, 9.936822951e-02, 1.747483164e-01, 1.186598688e-01, 1.142452210e-01, -2.807823718e-01, -1.694043130e-01, 1.300853193e-01, -1.363659203e-01, -2.810964361e-02, 1.067055836e-01, -9.093895555e-02, 7.100825757e-02, -2.712398469e-01, -2.549037039e-01, -5.103226379e-02, 1.675867438e-01, 4.361144900e-01, -1.851645485e-02, -3.218194842e-01, 1.361495107e-01, -7.502956782e-03, -9.920954704e-02, 2.302124500e-01}, {2.596227825e-01, 2.072833031e-01, -2.241620980e-02, 1.117774323e-01, -1.665166318e-01, 2.813082933e-02, 1.840491891e-01, -1.241940930e-01, -3.090040982e-01, 3.184552491e-02, -3.954080939e-01, 6.385192871e-01, -3.149903938e-02, 1.396038383e-01, 5.901229009e-02, 2.275690883e-01, 7.884404808e-02, 1.733510345e-01, 3.179681301e-02, -5.376047492e-01, 2.892102115e-03, -2.031967416e-02, -5.467563495e-02, 1.753732115e-01, -2.783296108e-01, 9.708701819e-02, 1.164751053e-01, -1.796091795e-01, -6.334439665e-02, 6.237802505e-01, 2.923189700e-01, -2.546343207e-01, -2.820172310e-01, 2.393357605e-01, -2.064709663e-01, 7.771530002e-02, -1.335160434e-01, 1.019424200e-01, -3.196092248e-01, 1.524796337e-01, 1.660868227e-01, 1.328771114e-01, -4.980674684e-01, 2.076489031e-01, -9.627307951e-02, -9.675158560e-02, -3.638960719e-01, 8.111575246e-02, -3.566406667e-01, 4.726155102e-02, -1.240202039e-01, 5.659770966e-01, -5.112763047e-01, -2.448390275e-01, -1.791015714e-01, 1.883495599e-01, -1.063712537e-01, -3.286193311e-01, 4.964945912e-01, -1.391491741e-01, -4.493451715e-01, 7.526619732e-02, 5.778620765e-02, 7.797579467e-02, 2.117452472e-01, 1.164476294e-02, 5.462126061e-02, 4.055725634e-01, -2.173661720e-03, 8.584885001e-01, -3.339787200e-02, 2.367441207e-01, 2.004062533e-01, -1.564939916e-01, -1.992036849e-01, 5.049004033e-02, 1.908670217e-01, -2.934159338e-01, -9.755069762e-02, -2.562432885e-01, 1.670239270e-01, -2.713813782e-01, -1.294432580e-01, 3.801222742e-01, 1.924491972e-01, -2.370540751e-03, -8.730185628e-01, -2.557969093e-01, 2.414375485e-04, 1.316756606e-01, -8.934496902e-03, 2.878018618e-01, -9.419484437e-02, -1.306850463e-01, -5.423997641e-01, -6.462206244e-01, -4.229415208e-02, 3.444338441e-01, 1.795034856e-02, 1.926006824e-01, -2.389423251e-01, -4.139624164e-02, -2.427281737e-01, -1.037038043e-01, 2.915292978e-01, 3.265749216e-01, 9.819546342e-02, 1.883582622e-01, -1.031922027e-01, 1.158255935e-01, -1.360000521e-01, 2.882505059e-01, 1.191695109e-01, 3.803530708e-02, 1.686204970e-02, 2.875419259e-01, -1.796330698e-02, 9.566374868e-02, -2.513420284e-01, -1.407079250e-01}, {4.097323418e-01, -1.301247776e-01, -2.353078723e-01, -6.554362923e-02, -1.049927548e-01, -1.478025168e-01, -5.307793245e-02, 7.960065454e-02, 6.944871694e-02, -6.192963123e-01, 2.770634592e-01, -1.099042296e-01, -5.788579211e-02, 2.651592195e-01, 1.623848826e-02, 6.207058579e-02, -4.042268847e-05, -9.400910139e-02, 2.185121924e-01, -1.678418368e-01, 2.392701246e-02, -6.076121703e-02, 3.814550815e-03, 9.296705015e-03, 6.034298334e-03, -2.913799584e-01, -3.277034685e-02, 6.108030304e-02, -2.285015732e-01, -2.374189645e-01, -1.339742392e-01, -2.377299070e-01, -5.825566873e-02, -4.939373210e-02, -8.546654880e-02, 9.981861711e-02, 4.031585753e-01, 1.597568989e-01, -3.467940390e-01, -1.932183951e-01, 6.027649343e-02, -1.263771653e-01, 2.821806967e-01, 2.256713212e-01, -7.992808521e-02, 4.839657545e-01, 1.126026586e-01, -1.504503638e-01, 1.017137151e-02, 5.747091491e-04, 1.878013760e-01, -1.710011959e-01, -7.573838532e-02, -4.125133157e-01, 1.601151377e-01, 4.054092616e-02, -5.491335690e-02, 6.960741431e-02, 2.771386504e-01, -6.136399508e-01, -2.627258897e-01, -6.071497127e-02, -2.182531804e-01, 4.761305451e-02, 2.240384221e-01, -4.527384937e-01, 1.332772225e-01, 1.319831610e-01, -8.089891076e-01, -1.329636574e-01, 7.887665927e-02, -8.156670928e-01, 6.564626098e-02, 8.898308873e-02, -2.455307841e-01, 3.064621240e-02, 2.512114048e-01, -1.336759627e-01, 1.905166954e-01, 3.807757795e-02, 1.932924539e-01, -5.952435732e-02, 1.901900917e-01, -6.593922973e-01, -8.252633736e-03, 1.253493577e-01, -4.839615524e-01, -1.150588393e-01, -5.477388576e-02, 4.144689068e-02, 8.672729135e-02, 2.103770971e-01, -1.119379327e-01, -3.480645716e-01, 1.820520610e-01, 1.063615158e-01, -6.966594607e-02, -2.033124417e-01, -2.610245049e-01, -4.313263297e-02, -8.418443054e-02, -1.074881181e-01, 1.147407368e-01, 1.898666322e-01, 9.476377454e-05, 1.998527199e-01, -9.045429528e-02, 4.304859936e-01, 2.041612379e-02, -1.538335383e-01, 1.456613243e-01, 2.289172858e-01, 4.959304035e-01, -1.251615882e-01, 5.579465628e-02, -1.995912194e-01, 1.980315000e-01, 6.336387247e-02, 1.311739534e-01, -5.456002895e-03}, {3.847580776e-02, 3.811334725e-03, -7.546360046e-02, -1.095851660e-01, -1.155866981e-01, -6.811245680e-01, -3.146546334e-02, 2.444655150e-01, -8.207670599e-02, 2.958376110e-01, -6.198265031e-02, -1.217763796e-01, -1.096296161e-01, 1.475244667e-02, 6.577023864e-02, -2.178769261e-01, -4.422857985e-02, 1.881529838e-01, -2.972485423e-01, -9.026431292e-02, 3.471607342e-02, 1.900845580e-02, -3.276511729e-01, -2.409846932e-01, 2.313125506e-02, 1.010410208e-02, 5.658376217e-01, -9.156981707e-01, -1.766961664e-01, 1.440883517e+00, 2.909168303e-01, 7.105992734e-02, 1.801806390e-01, -4.196421430e-02, 2.371001542e-01, -4.956226051e-02, -1.258082036e-02, -9.228838235e-02, 1.193942502e-01, 6.007031072e-03, 1.584589183e-01, 3.523904085e-01, -1.891627312e-01, -1.799199358e-02, -3.219392383e-03, -9.906513989e-02, -2.324907333e-01, -2.954767048e-01, 5.050666630e-02, -1.356069744e-01, 3.727587685e-02, -3.208075091e-02, 2.005712837e-01, 2.469194084e-01, 4.424203560e-02, -2.366460711e-01, 1.556110382e-01, -1.004532650e-01, -6.138066649e-01, -2.027749419e-01, 1.336410046e-01, -6.166614592e-03, 3.122906387e-01, -1.844635308e-01, 1.083537564e-01, -3.514499664e-01, -6.302934885e-02, 6.354604661e-02, 3.981027007e-01, -9.750115275e-01, -2.414615266e-02, -4.274801165e-02, 3.176021874e-01, -4.031686485e-01, -1.271047294e-01, -1.431748122e-01, -6.531074643e-02, 2.570085786e-02, 1.571069658e-02, -2.711161375e-01, -1.439987868e-01, -1.605375558e-01, 7.081719488e-02, -4.926715493e-01, 2.214780636e-02, -6.309443712e-02, 1.176944599e-01, -4.344033599e-01, 2.581846416e-01, -1.989264041e-01, -6.834102422e-02, -2.954077423e-01, 4.689136520e-02, 8.533440530e-02, 1.573668271e-01, -3.299182951e-01, -2.824709713e-01, 2.902117074e-01, 1.131331846e-01, 2.306477875e-01, -2.005027235e-01, 2.438030988e-01, -3.150518239e-01, 3.916102052e-01, 6.169796735e-02, 2.584084868e-02, -5.574981496e-02, 1.201378703e-01, -2.167636901e-01, -8.005958050e-02, -9.782309085e-02, 1.831942797e-01, -1.635394432e-02, -2.502730787e-01, -5.739692599e-02, 1.356923878e-01, 2.022948116e-02, 3.066732287e-01, 3.782113194e-01, -5.442321897e-01}, {-1.713159233e-01, 1.452602074e-02, 1.845414340e-01, 4.459120333e-02, 6.114815921e-02, 1.997619681e-02, -1.200230420e-01, -1.015396938e-01, -2.323329300e-01, 3.786489367e-02, -6.348594427e-01, 4.015586674e-01, -3.096276894e-03, 1.419998109e-01, 3.515538871e-01, -2.702023461e-02, 3.714385331e-01, 4.180713743e-02, -2.232162952e-01, -2.758620083e-01, 1.380825937e-01, -2.286783159e-01, -8.805783838e-02, -2.213730961e-01, 2.566331998e-03, 2.481976002e-01, -1.350348741e-01, 1.590288579e-01, -3.704475462e-01, -3.101139367e-01, 1.180408821e-01, -1.996743083e-01, -1.095508784e-01, -1.161860526e-01, -1.068329215e-01, -2.438404411e-01, -5.054277778e-01, 1.561670937e-02, 3.209333122e-01, -2.935974002e-01, 1.491372883e-01, 1.566794217e-01, -7.723939419e-01, 2.462755591e-01, -1.685606539e-01, -3.838057518e-01, -2.733088434e-01, -1.717039943e-01, -4.299729466e-01, 1.637284905e-01, -3.915638030e-01, 1.672580391e-01, 1.512528807e-01, -5.733480211e-03, -2.795587480e-02, -2.423112653e-02, -1.758577228e-01, -1.836308539e-01, 1.577796787e-01, -5.770567656e-01, -4.049593508e-01, 3.061672747e-01, -1.974037848e-02, -2.927630246e-01, -2.705579400e-01, 2.338686138e-01, -8.484978676e-01, 2.301851511e-01, 2.467902936e-02, -3.570050597e-01, -5.377668142e-01, -2.341346741e-01, 1.222342178e-01, 3.393667638e-01, -4.463681579e-01, 2.648290694e-01, -1.344490796e-01, -8.444783092e-02, 7.651285082e-02, -5.633828044e-01, 4.063231349e-01, 1.576480418e-01, 2.216222584e-01, 1.233458403e-03, -1.592562795e-01, 1.777526438e-01, -7.401572913e-02, 2.944070101e-01, -1.766283512e-01, 7.185084373e-02, 1.716672182e-01, 2.630343437e-01, -8.471991867e-03, -1.903285235e-01, -5.524382591e-01, 1.929416358e-01, -1.576050557e-02, -2.356376648e-01, -2.291745245e-01, 2.903373837e-01, 4.052588642e-01, -2.353979833e-02, -2.336108238e-01, -4.712359235e-02, 1.155911610e-01, 3.995067477e-01, -4.927808046e-01, 1.593976170e-01, 3.523508906e-01, 2.778279781e-01, -2.962730825e-01, 7.180558983e-03, 1.655067354e-01, 2.763470113e-01, 1.821873486e-01, -1.995303184e-01, -1.398966312e-01, -6.471322179e-01, -2.221110165e-01, -2.127097547e-01}, {1.203467131e+00, -1.291635484e-01, 2.604927421e-01, -4.609361887e-01, 4.583619535e-01, 2.797077596e-01, -1.461301595e-01, -9.800109267e-02, -1.376619190e-01, -5.642572418e-02, -1.613887399e-01, -2.330256812e-02, -1.141819358e-01, 2.325274795e-02, -1.632153392e-01, 1.437418535e-02, -8.046979904e-01, -3.626093268e-01, -9.465355426e-02, -3.224679232e-01, 1.028085053e-01, -7.774664462e-02, -2.607535720e-01, -4.812032878e-01, -3.820428625e-02, -1.965256184e-01, -1.143636256e-01, 1.649629921e-01, -1.400419772e-01, 2.719079331e-02, -1.249787137e-01, -5.012381822e-02, -2.408253402e-01, -5.110071301e-01, 1.003185939e-02, 1.695419848e-01, -3.083138466e-01, -1.961871982e-02, -5.510796979e-02, -1.169790849e-01, 4.530452788e-01, 1.650852524e-02, 8.435256034e-02, 1.513352059e-02, -5.329605341e-01, -1.308219582e-01, -5.742344260e-02, 1.686702669e-01, 1.317992508e-01, 1.580634266e-01, 3.307344913e-01, -6.717495620e-02, -4.376713336e-01, -2.877919376e-01, -8.705356121e-01, 2.108165994e-02, -8.434548229e-02, -1.117085367e-01, -3.483144343e-01, -2.004880905e-01, -4.100169539e-01, 3.483697772e-01, 2.836241722e-01, -3.345386386e-01, 5.276794434e-01, 1.675359309e-01, -1.383902729e-01, -1.758566648e-01, 1.509493589e-01, 1.246592999e-01, -5.917659774e-02, -2.584096789e-01, -1.403263770e-02, 7.028720528e-02, -1.253451109e-01, 1.981028169e-01, -4.845725894e-01, 3.271462619e-01, 2.833763063e-01, -3.715723380e-02, -2.643069327e-01, -2.866654284e-02, -8.873935789e-02, 2.486297674e-02, -3.344867378e-02, 1.684188396e-01, 3.660262376e-02, -1.209019870e-01, 3.009612560e-01, 2.826182544e-01, -3.921510279e-01, -6.563445181e-02, -3.153784871e-01, -3.862626851e-02, 9.761529416e-02, -1.614941470e-02, -4.775069281e-02, -6.751944870e-02, -8.149656653e-02, 3.540338948e-02, 2.028074414e-01, 1.051324159e-01, 1.475743949e-01, 1.106217206e-01, -1.646724194e-01, 1.481483281e-01, 3.642968461e-02, -2.738630585e-02, -4.219939709e-01, -2.248555869e-01, -8.380437642e-02, -4.231715202e-01, 9.616884589e-02, 2.138622105e-01, -2.568837404e-01, -7.440800220e-02, -1.247503459e-01, -7.386744022e-02, -2.496074885e-02, -3.160591722e-01}, {1.484438181e-01, -2.341277748e-01, 1.796432436e-01, 1.372924596e-01, 1.505261809e-01, 1.969408244e-02, 4.869333282e-02, -9.603974968e-02, -8.888081461e-02, 1.975739561e-02, 1.578035019e-02, 5.569826066e-02, -6.306159496e-02, -8.930987865e-02, -7.412756234e-02, -8.170177229e-03, 6.377858669e-02, 1.391707063e-01, -2.247084118e-02, 4.256934673e-02, 1.061370671e-01, 1.202612594e-01, 2.125405520e-01, -1.912298799e-01, 1.610993221e-02, -4.232949018e-02, 2.288779989e-02, -2.998244166e-01, 2.665729225e-01, 4.718285799e-01, 2.677139938e-01, 6.763368845e-02, 7.676064968e-02, -2.770929411e-02, 2.237970084e-01, -2.391423658e-02, 7.801219821e-02, 4.131981730e-02, -1.422450989e-01, -3.920577466e-02, -5.747666210e-02, -1.023203209e-01, 4.868078104e-04, 8.674079925e-02, 6.539433450e-02, 6.089369208e-02, 1.695229858e-01, -2.872980237e-01, 1.023920625e-01, 6.610254198e-02, 2.383917719e-01, -1.437427700e-01, -1.659329422e-02, 1.690742224e-01, -2.009264566e-02, 1.313464791e-01, -9.387017041e-02, -4.586249962e-02, -1.482476890e-01, 1.445939839e-01, 2.457829416e-01, -6.314288825e-02, 1.930633187e-01, -8.680200577e-02, 1.614783257e-01, -1.294320375e-01, 1.000934094e-02, 1.166638210e-01, -5.767339468e-02, 1.142970379e-02, 4.973207600e-03, -1.235902980e-01, 1.381618679e-01, -8.508810401e-02, 6.379444152e-02, -1.108920723e-01, 1.503185090e-02, -5.711418018e-02, -8.275935799e-02, -1.344506443e-01, -1.424871832e-01, -1.091628149e-01, 2.011639476e-01, 1.672406942e-01, 1.127944216e-01, 2.924252152e-01, -2.062440515e-01, -2.046464235e-01, -6.574219465e-02, 3.217982128e-02, -6.734477729e-02, 8.914789557e-02, 5.801149830e-02, -5.750883743e-02, 1.544739865e-02, 1.907540858e-02, 7.184357196e-02, 1.630413830e-01, 8.718106896e-03, 7.144118100e-02, 1.497415304e-01, 9.808693081e-02, -1.116637960e-01, 1.384266466e-01, -1.047691926e-01, -9.602376260e-03, 1.350665689e-01, -2.342363894e-01, -1.604912728e-01, 3.309462070e-01, 2.024225444e-01, -9.197977488e-05, -7.778989524e-02, -3.088276982e-01, 7.489927858e-02, -6.578308344e-02, 1.127041504e-01, 1.247771382e-01, -1.839432269e-01, 1.053397655e-01}, {-3.839865327e-01, -2.996429503e-01, 1.319708228e-01, -2.394280732e-01, -1.411833465e-01, 1.075650379e-01, 5.170342326e-01, 3.402684331e-01, -4.664127529e-02, 7.006004453e-02, -1.312229782e-02, 3.337728232e-02, -1.960097700e-01, -1.935491860e-01, -2.762104571e-01, -1.497991979e-01, -1.681803018e-01, -6.407503039e-02, 6.353899837e-03, 1.654646397e-01, -8.456947654e-02, 2.668859065e-01, -3.108831123e-02, 1.689435989e-01, 1.335816830e-01, -4.448462650e-02, -2.888884582e-02, 1.262927800e-01, -1.498253495e-01, 2.894195542e-02, 3.464114964e-01, 1.961616799e-02, -1.865049750e-01, -1.217368692e-01, -6.905815005e-02, -5.433411896e-02, -6.970842835e-03, 1.139231846e-01, -7.046990842e-02, 4.275666177e-01, -1.252907664e-01, -4.943745211e-02, -8.598792553e-02, -2.415662259e-01, 6.752622873e-02, 5.007795244e-02, 5.148894191e-01, -2.178112604e-02, -1.867203861e-01, -1.248351950e-02, -4.006637260e-02, -7.167889923e-02, 8.047976345e-02, -1.344397105e-02, 1.328566521e-01, -4.454265237e-01, 1.024513617e-01, 6.021204963e-02, -4.209386110e-01, -9.775789082e-02, -3.200865164e-02, -2.948408574e-02, -5.143045634e-02, -3.662591875e-01, 1.798311919e-01, 5.391696095e-02, 3.227058053e-02, -9.054885060e-02, 1.669999212e-01, -1.396871954e-01, 4.467360675e-01, 1.736439019e-01, 1.157190129e-01, 2.294541150e-02, -3.215464763e-03, -1.182941645e-01, 6.520301569e-03, -6.866853684e-02, 4.123524576e-02, 5.357960239e-02, -4.109554291e-01, 4.654271156e-02, -3.404367566e-01, 2.696486115e-01, -2.468242198e-01, -8.035759442e-03, 5.992373452e-02, 1.757479087e-02, 3.201094866e-01, -7.453548312e-01, 5.519589782e-01, -1.663628817e-01, 1.567502171e-01, -3.301832676e-01, 1.207199991e-01, 1.020406857e-01, -3.271987736e-01, -2.086926252e-01, -2.109415084e-01, 2.210784554e-01, 9.773493558e-02, 1.686892472e-02, -1.354959011e-01, 2.020361423e-01, -7.380960882e-02, -5.032876134e-02, 1.644667983e-02, 1.265634745e-01, -7.698787749e-02, 2.359865308e-01, -1.247720444e-03, -1.444026977e-01, -8.978464454e-02, -2.909014821e-01, 2.948680818e-01, -2.590730190e-01, 8.717284538e-03, -3.809783459e-01, 5.269952863e-02, -1.310752183e-01}, {-2.544452250e-02, 5.968894437e-02, -1.604573131e-01, 3.145549893e-01, 1.489402056e-01, -1.736067683e-01, -1.982747763e-01, 7.004910707e-02, -1.578896493e-01, 2.296361327e-02, -4.751634300e-01, 5.424795300e-02, 3.960499540e-02, 1.107584164e-01, -9.024161100e-02, -1.690171063e-01, 3.085655570e-01, 1.616744846e-01, -2.609682083e-02, 5.000922829e-02, 8.719246089e-02, -6.603739411e-02, -1.239722967e-02, -1.452470105e-02, 1.848681718e-01, 2.423480004e-01, -7.379470766e-02, -6.157711148e-02, -4.719465505e-03, 1.256670207e-01, -2.004619502e-02, 2.737466693e-01, -2.971735299e-01, 7.341623306e-02, 1.362788528e-01, 2.378786355e-01, 1.443184167e-01, 2.517955303e-01, 2.566775680e-02, 7.747672498e-02, 1.240886748e-01, 1.020661369e-01, -2.590968013e-01, -1.199542210e-01, -1.268890798e-01, -6.644412875e-02, -1.289308220e-01, -1.321201921e-01, -1.649711430e-01, -4.969054833e-02, -1.669593155e-01, 1.669663489e-01, 1.190499961e-01, 7.984440029e-02, -1.541525424e-01, -6.735251099e-02, 1.941538006e-01, 2.302007675e-01, -2.065627873e-01, -4.683759995e-03, -2.951702476e-02, -3.359221816e-01, -1.528221816e-01, 1.765842736e-01, -2.215642333e-01, 1.961037219e-01, 7.348748296e-02, 2.387662679e-01, -8.911375701e-02, 9.611508995e-02, -4.127163067e-02, -4.594664648e-02, 1.986837834e-01, 1.629122198e-01, 1.347058266e-01, 3.560846746e-01, -2.863844335e-01, 1.540193111e-01, -8.665630966e-02, -6.064973027e-02, 2.599599361e-01, 3.387927711e-01, -1.685724407e-01, -4.700490087e-02, 4.310750365e-01, 2.206450403e-01, -4.499228001e-01, -1.570623666e-01, 2.292689681e-01, -2.099893987e-01, 3.037445247e-01, -1.264567226e-01, 2.194509804e-01, 2.080206275e-01, -3.233375251e-01, 2.109208107e-01, -8.609158546e-02, 2.510647178e-01, 1.920575649e-01, -1.230717599e-01, 7.211302221e-02, -2.423730791e-01, 1.129776388e-01, 2.134835720e-01, 3.777252436e-01, 4.650531709e-02, 4.490032420e-02, 7.357145846e-02, 3.457104564e-01, 9.650090337e-02, -2.026065141e-01, 1.466500759e-02, -2.985134721e-01, -1.710405201e-02, 1.219124440e-02, -1.562204957e-01, 1.547062695e-01, 1.788121462e-01, 2.886741757e-01, -1.140974239e-01}, {1.261536181e-01, 1.093513817e-01, 1.192107573e-01, 7.010328025e-02, 7.221968472e-02, 1.667731702e-01, -1.332631558e-01, 2.478714436e-01, -2.380041331e-01, -3.626279160e-02, -3.856073618e-01, 1.533834785e-01, 1.550064888e-02, 2.619587481e-01, -1.208084464e+00, -2.920810878e-01, -8.466666192e-02, 2.203457505e-01, -1.575693041e-01, -6.443006396e-01, 3.883511573e-02, 1.488615721e-01, 4.860482737e-02, -6.353849173e-02, 3.968039751e-01, 6.868090481e-02, -5.933932662e-01, 7.927297056e-02, -8.536918163e-01, -3.651289940e-01, 2.911590636e-01, -1.153822303e+00, -1.602791250e-01, 2.590509355e-01, -2.380310185e-02, -2.678200603e-01, -4.554066062e-01, 3.414933085e-01, 1.028740183e-01, 1.576262712e-01, 3.007169813e-02, -9.725275636e-02, -1.340622306e+00, 3.351461515e-02, 3.949619234e-01, -1.089873612e-01, -2.749307454e-01, -4.961339533e-01, -2.175481617e-01, 1.727404594e-01, -9.594131261e-03, 1.978505105e-01, -1.163376048e-01, -3.245878592e-02, -1.393893659e-01, -4.170358181e-02, -6.275373101e-01, 2.161879390e-01, -4.519276321e-01, -4.738558233e-01, -4.336168468e-01, 3.860117868e-03, 7.630960899e-04, 1.440397352e-01, 4.543959722e-02, 5.842830054e-03, 1.070086062e-01, 2.733133435e-01, 5.594927818e-02, 1.233577356e-01, -2.850672305e-01, 1.615520120e-01, 1.404455304e-01, 1.546417326e-01, -3.641934395e-01, 3.735803068e-01, -3.386442065e-01, -3.275406361e-02, -7.327892631e-02, -2.853736281e-01, 2.391639054e-01, 3.589176834e-01, 1.296150386e-01, -9.914902598e-02, 5.472372174e-01, 2.096744068e-02, -3.995867074e-01, -6.983365864e-02, -9.076526016e-02, 3.855457157e-02, -1.519151032e-01, -2.092745751e-01, -7.257686555e-02, -8.939773776e-03, -6.233136058e-01, 3.760825098e-01, 3.192543285e-03, -1.367720366e-01, -5.333025455e-01, 4.527969956e-01, 3.742364049e-01, -8.027806878e-02, 4.410136044e-01, -8.453990519e-02, 3.515134156e-01, 3.288908303e-01, -1.914746016e-01, -1.137263477e-01, 1.736310571e-01, -2.715782523e-01, -2.558828294e-01, 2.315934151e-01, -2.398353368e-01, 2.332866192e-02, -3.180657625e-01, 9.716397524e-02, 8.421879262e-02, 2.347183228e-02, -4.155023694e-01, -9.985798597e-02}, {-4.397259057e-01, 2.136826068e-01, -4.110634327e-02, -4.675197881e-03, -2.802512646e-01, 1.642486453e-02, -1.064570323e-01, -2.903513424e-02, -2.324543595e-01, 8.937262930e-03, -4.105027020e-02, 1.427951753e-01, -5.401583761e-02, 7.427372038e-02, -1.452100128e-01, 1.084540561e-01, 1.759869307e-01, 1.600953043e-01, -3.485046327e-03, -1.490462124e-01, -6.106498092e-02, 1.419730633e-01, 5.448338389e-02, 8.297860622e-02, 1.042803153e-01, 2.182068229e-01, 1.479971036e-02, 1.372018754e-01, 6.021237001e-02, 5.037013888e-01, -1.316715181e-01, -4.875699878e-01, 3.899994195e-01, -6.704045087e-02, -3.037173748e-01, -4.090744257e-02, 6.791600585e-02, 4.213182628e-02, -2.514814027e-02, 2.072039843e-01, -2.700903416e-01, 9.480830282e-02, 8.009564877e-02, 4.512526467e-02, -7.360931486e-02, -1.579522528e-02, -1.585940123e-01, -7.538578659e-02, -6.968715042e-02, -1.083473489e-01, 6.122365594e-02, -2.117240727e-01, -9.245319664e-02, -1.191277802e-01, -2.286989987e-01, 1.355635077e-01, 1.502835378e-02, 4.801071063e-02, -9.266506135e-02, -2.301831692e-01, 1.773287058e-01, 6.316362321e-02, 7.030580938e-02, -1.445931345e-01, 8.168500066e-01, 3.785452992e-02, -1.148993447e-01, 9.670966864e-02, 9.419474751e-03, -1.853996515e-01, 2.030197158e-02, -3.964042664e-02, -2.671943232e-02, -6.132829934e-02, -2.175443470e-01, -9.514576197e-02, 1.570120007e-01, 5.282234028e-02, -4.610147178e-01, -1.432587802e-01, 3.269800842e-01, -4.796181247e-02, -1.333026867e-02, 1.314222515e-01, -1.962062120e-01, 1.272627264e-01, -2.582001090e-01, -3.616294265e-02, -2.538728118e-01, 1.867418140e-01, -6.528437883e-02, 5.820444226e-02, 1.437468231e-01, -2.536867559e-01, -2.405656427e-01, -8.092299849e-02, 1.359344572e-01, -1.879930310e-02, -1.600963622e-01, 5.256838202e-01, -1.620666496e-02, 8.981599659e-02, -2.485436350e-01, 1.603141427e-01, -2.952604368e-02, -2.159272693e-02, -3.550436795e-01, 8.676402271e-02, -2.892576717e-02, -1.099867672e-01, -3.778721020e-02, 2.257075161e-01, -3.505470231e-02, -1.103995293e-01, 5.747306161e-03, 3.064774908e-02, 5.211578682e-02, 1.602725089e-01, -2.797572911e-01, 3.156292737e-01}, {1.979891956e-01, 1.154693142e-01, 8.065617830e-02, -8.943367749e-03, -1.481809467e-01, -1.855444759e-01, -4.631893337e-02, -1.540746074e-02, 1.358429343e-01, 5.009150505e-02, 2.309041619e-01, -1.342051625e-01, -1.318717003e-02, -1.593651250e-02, -1.710574888e-02, 2.993890345e-01, 1.186528057e-01, 1.425207853e-01, 2.231928706e-01, 3.425024077e-02, -4.032200947e-02, 3.126804018e-03, -4.552495480e-02, 3.314847499e-02, -8.653319627e-02, 5.184028670e-02, -3.621970490e-02, -2.516528070e-01, -1.820798516e-01, 8.490015566e-02, -3.783255070e-02, 9.910614789e-02, 2.082517594e-01, -2.447444499e-01, -1.457570493e-01, 2.991365828e-02, 2.353989631e-01, -9.221408516e-02, -1.504111439e-01, 6.355918478e-03, 1.739412732e-02, 3.855493292e-02, 2.658836357e-02, -3.573970171e-03, -2.266150340e-02, 9.431111626e-03, -2.534247003e-02, -6.810534000e-02, 1.148573756e-01, 2.143490911e-01, 1.161228772e-02, -6.315321475e-02, -8.082294464e-02, -5.130871385e-02, -2.298105806e-01, 1.092939600e-01, 5.692229420e-02, -5.477442220e-02, 9.034226835e-02, -2.951699123e-02, 3.707733005e-02, 1.301096752e-02, 4.429431166e-03, 2.160271816e-02, 9.124247730e-02, 1.790850461e-01, -1.015187241e-02, 1.419607103e-01, -1.351079941e-01, -1.517262682e-02, -4.926960915e-02, -6.760321558e-02, -8.798901737e-02, -4.698435590e-02, -8.039650507e-03, 5.411936715e-02, 6.117481366e-02, 3.500777185e-01, -1.717694104e-01, 1.490935236e-01, 2.583685815e-01, -3.816498443e-02, 8.610625565e-02, 3.652304783e-02, 2.271189122e-03, 1.419956535e-01, -6.293978542e-02, 2.510773838e-01, -1.065198705e-02, 2.317625470e-02, 7.654288411e-02, -1.007591039e-01, 1.681661606e-01, -3.169884682e-01, 8.992584795e-02, 4.678306356e-02, 1.110718250e-01, -3.608921170e-02, -8.410945535e-02, -5.932189990e-03, -1.609019488e-01, 7.731633633e-02, 7.076875772e-03, -4.127803817e-02, 1.374059170e-01, 1.463275254e-01, -1.346402913e-01, 7.802044600e-02, 2.948453464e-02, -6.681551039e-02, -4.737653583e-02, 1.755241007e-01, 8.692801744e-02, -9.381755255e-03, 5.581020191e-02, -2.313536219e-02, 1.080517843e-01, 4.368932918e-03, 1.772611961e-02, 1.460149735e-01}, {3.800849617e-01, -3.082090616e-01, 2.614234388e-01, -9.168737382e-02, -1.433727294e-01, -1.225453690e-01, 2.542675734e-01, -6.470090151e-02, -8.989995718e-02, -4.672521725e-03, 2.210830525e-02, 6.295105070e-02, 1.855469495e-01, -2.703802884e-01, -2.737216651e-01, -9.864993393e-02, 2.966381013e-01, -2.030605078e-01, -1.579922065e-02, 3.924542293e-02, 1.179735884e-01, 5.615295470e-02, -3.562492132e-02, -3.055344820e-01, -3.955416977e-01, 1.667104848e-02, 8.356692642e-02, -1.926505566e-01, 4.282359406e-02, -4.357423782e-01, 7.994845510e-02, 2.451300919e-01, 2.129284292e-01, 1.803827882e-01, 1.499648206e-02, 1.566154957e-01, -4.873738810e-02, -2.621698380e-01, -3.126127720e-01, 6.317434460e-02, 1.860324480e-02, 1.784813590e-02, 5.852714553e-02, 2.864745446e-02, 2.889842093e-01, 1.735893488e-01, 1.282238811e-01, -1.970679909e-01, -1.329105198e-01, 3.935057819e-01, 6.671524048e-02, -4.573830366e-01, 2.650097311e-01, 1.328743547e-01, 2.731493413e-01, -9.391686879e-03, -8.864098042e-02, -9.533759207e-02, -7.694763131e-03, -1.542053819e-01, 3.174944222e-01, -3.059277833e-01, -4.366273060e-02, -1.907960474e-01, -3.391256556e-02, 1.713248193e-01, 3.973320872e-02, -5.825685337e-02, -1.307597905e-01, 1.128205284e-02, -2.103953809e-01, 3.867920488e-02, 4.316399246e-02, -3.477157652e-01, -7.096682675e-03, -2.372738160e-02, 2.603692114e-01, 4.206199050e-01, -1.367363036e-01, -3.581430614e-01, 9.555752389e-03, -6.144625545e-01, 2.134152204e-01, -1.858436912e-01, 1.950153112e-01, 8.907230943e-02, 9.792137891e-02, -2.524747550e-01, 1.467251033e-01, -8.430738933e-03, 3.781830668e-01, -2.501272969e-02, 1.685462445e-01, 1.077544689e-01, 1.017390937e-01, 1.078016758e-01, -1.672009230e-01, 3.255184591e-01, -3.272451162e-01, -1.174164843e-02, 1.918211281e-01, -2.174334973e-01, 1.756922528e-02, 1.139011607e-01, -5.148236454e-02, 2.682588398e-01, -3.782161474e-01, -3.541524336e-02, -3.032064140e-01, 1.978525668e-01, -1.342596859e-01, 3.045008332e-02, -1.217978373e-01, -3.350691795e-01, -3.138637170e-02, -7.920467108e-02, 6.022463739e-02, 3.248644248e-02, 1.431935877e-01, -1.401450951e-02}, {2.001227625e-02, -2.640571296e-01, 3.405089676e-02, -6.098867580e-02, 3.052163124e-01, 2.250086330e-02, 3.821395040e-01, -2.471233457e-01, 3.381238878e-01, -4.556073248e-01, 1.663912535e-01, -2.217559144e-02, 2.111154497e-01, -5.934129655e-02, -2.901593149e-01, -2.047668099e-01, -7.491642982e-02, -3.554899991e-01, -3.392132223e-01, 7.562140375e-02, 1.650269777e-01, 8.683945984e-02, -3.302645981e-01, -1.966705620e-01, 1.560731530e-01, -2.849887609e-01, 4.211494327e-02, -1.518568676e-02, 9.939637035e-03, -1.200293064e+00, 1.770267487e-01, -4.008686170e-03, 7.541722804e-02, 3.016170859e-01, -2.346448898e-01, -6.835028529e-02, -4.213086665e-01, -6.610701680e-01, 3.640493453e-01, -4.061885178e-01, 4.520516396e-01, -9.354487062e-02, -1.442343742e-01, 2.046964467e-01, -4.970444441e-01, 3.325932026e-01, 2.310004234e-01, -1.256252676e-01, 4.450669885e-01, -3.189798072e-02, 1.664385349e-01, -1.010731235e-01, 2.078416348e-01, -2.301381379e-01, 2.676584423e-01, 1.347490400e-01, -5.336844921e-01, -1.087369248e-01, 3.226051927e-01, -8.190542459e-01, 5.711226165e-02, -1.179009676e-02, -1.624436863e-02, -7.996311784e-01, -1.206337214e-01, 2.471157461e-01, -8.032966256e-01, -4.221703112e-01, -3.202505112e-01, 1.690955907e-01, 1.954799742e-01, -1.334036887e-01, 1.940922439e-01, 2.501728833e-01, -6.791242957e-01, 1.031198502e-01, -3.134757578e-01, 9.597592056e-02, -1.208110526e-01, -1.040327325e-01, -3.648712933e-01, -5.718559027e-01, 5.245241523e-02, 2.016322315e-01, -7.038139105e-01, 4.000905529e-02, 2.770472169e-01, -2.727111876e-01, -2.165011875e-02, 2.238115370e-01, -2.432458997e-01, 5.603110045e-02, -5.361099243e-01, -3.567636013e-01, 2.391902916e-02, -6.496031284e-01, 4.999518096e-01, -3.686568514e-02, -3.243440986e-01, 5.625034869e-02, 1.032806858e-01, -1.359757036e-01, -2.249780297e-02, -1.134224162e-01, -2.798179984e-01, 3.912742734e-01, -1.126826555e-01, -9.002707601e-01, -5.586327910e-01, -2.563703358e-01, -1.806400269e-01, -3.108986095e-02, 5.775461197e-01, 2.903430164e-01, -1.906401813e-01, -2.074653096e-02, -2.642126381e-01, -5.482523441e-01, -6.207525358e-02, -1.828504205e-01}, {2.001765221e-01, 2.675426938e-02, -1.665429175e-01, -2.523261011e-01, 1.258744597e-01, -4.050497338e-02, 6.070321053e-02, -1.539230645e-01, 1.514968574e-01, 1.590530276e-01, 1.371193528e-01, 3.833005577e-02, -1.058869250e-02, -2.594237626e-01, -2.942907512e-01, 2.259272784e-01, -2.299802154e-01, 1.388304830e-01, 9.726727754e-02, -5.509744883e-01, -1.333969086e-01, 3.102231324e-01, 7.958687842e-02, 9.397829324e-02, -3.718214631e-01, -2.047602683e-01, -5.344152823e-02, 4.625307396e-02, -3.601818159e-02, -2.079355270e-01, 2.563114762e-01, -6.979548931e-01, 4.017009139e-01, -1.559128165e-01, -1.055191755e-01, -1.943350285e-01, -1.042831913e-01, -1.210019831e-02, 3.163128793e-01, -1.572500356e-02, -5.468116701e-02, -2.197992504e-01, 2.943453789e-01, -1.485427618e-01, 2.007719129e-02, -1.424115151e-01, 2.385130078e-01, 1.470524371e-01, 2.881666422e-01, 2.821870446e-01, -1.343178600e-01, -2.226884216e-01, 3.369592428e-01, -1.200543195e-01, 3.236919940e-01, -5.746996403e-02, -5.686148070e-03, 1.206126660e-01, -8.029412478e-02, -1.045860648e-01, -2.728096396e-02, 3.719316423e-02, -3.389298022e-01, -1.137981415e-01, -1.340772808e-01, 3.903378174e-02, -1.099900231e-01, -2.660112083e-01, -2.049939930e-01, -5.618246198e-01, 1.779333949e-01, 3.919717371e-01, 1.417388767e-01, -8.996700495e-02, -2.532166839e-01, -1.755533963e-01, 1.400522143e-01, 3.167594224e-02, -5.817006156e-02, 1.620336324e-01, -2.456569821e-01, -8.396825939e-02, 4.496884346e-02, -1.662467569e-01, 5.225117803e-01, -1.492706388e-01, -2.058854699e-01, -6.366847456e-02, 1.390034705e-02, 5.693192035e-02, -7.727992535e-02, 4.703105241e-02, -1.845934093e-01, 1.162671223e-01, 1.182381213e-01, -1.303810328e-01, 1.209990606e-01, 7.661884278e-02, -7.694457173e-01, -1.787439920e-02, -9.466469288e-02, 2.870160341e-01, -1.042969525e-01, 1.212604418e-01, -2.361141378e-03, 