#include "nn_parameters.h"

// NN network parameters -- atribute values
const float weights_in[NUM_NODES][NUM_STATES] = {{2.675874233e-01, 1.411087662e-01, -2.814071774e-01, -2.413161844e-01, -3.981522620e-01, 1.754029840e-01, -3.878329694e-01, 2.172005326e-01, -4.194831550e-01, 2.550092340e-01, -7.946804166e-02, 2.268148512e-01, -3.500370076e-04, 1.090298034e-02, -9.185809642e-02, -2.734534070e-02}, {-2.343011089e-02, 2.273336947e-01, -5.209211633e-02, 7.739078254e-02, -9.813408554e-02, 8.649501950e-02, -3.213199675e-01, 3.140939027e-02, -1.336027682e-01, -2.020005435e-01, -8.744397759e-02, 3.072346561e-02, 1.737625599e-01, 1.971118152e-01, 2.618168592e-01, -2.364487797e-01}, {2.678180039e-01, -6.445615739e-02, -3.306651115e-01, -8.847773075e-02, 4.177520424e-02, 4.845177382e-02, -2.763909101e-01, -2.421119958e-01, -1.537462622e-01, 1.554780751e-01, 1.930123121e-01, -1.291727722e-01, 1.759902090e-01, -5.898568407e-02, -1.738666296e-01, -5.716226995e-02}, {1.960917711e-01, 2.982673943e-01, -1.666564345e-01, 5.413201079e-02, -1.599224359e-01, 1.620058566e-01, -1.030352265e-01, 8.920330554e-03, 6.649032235e-02, 2.153547555e-01, 2.374738604e-01, -1.053848192e-01, -1.596153378e-01, -6.754689664e-02, 1.243721321e-01, -6.784717739e-02}, {2.297513932e-01, 2.541160770e-02, 3.753494844e-02, -3.777939975e-01, 1.636258960e-01, -8.267438412e-02, -1.400878876e-01, 3.509759903e-01, -2.226850018e-02, 1.032164786e-02, 6.536638248e-04, 8.598233014e-02, -8.987193555e-02, -2.437098920e-01, 1.659301817e-01, 2.623000182e-02}, {-1.369803958e-02, -4.039256601e-05, -6.644582842e-03, 1.896885037e-01, -3.088917024e-02, -8.006437682e-03, 1.538929492e-01, -2.155960798e-01, 1.778544486e-01, 4.355850518e-01, -4.026439488e-01, -3.020604514e-02, 9.405279905e-02, 1.941532791e-01, -2.064674348e-02, -2.418781072e-01}, {-4.136081785e-02, -3.510146439e-01, 2.449218184e-01, 1.384273767e-01, -6.323915720e-02, -2.556376159e-01, -6.476117373e-01, -4.592668712e-01, -5.132106543e-01, -1.426883340e-01, -1.998669356e-01, -6.444728374e-02, -1.591413319e-01, 1.122501306e-02, 1.495977342e-01, 1.633341308e-03}, {1.212450340e-01, 1.799713969e-01, -3.348296285e-01, -9.091363102e-02, -1.049053892e-01, 1.854077131e-01, -1.696363240e-01, 2.680454217e-02, 4.138805866e-01, -8.164422959e-02, -2.552699447e-01, 1.266035810e-02, -1.592038274e-01, -4.166991857e-04, 1.033733934e-01, 8.279167116e-02}, {-9.522625059e-02, -6.284114439e-03, -2.218779176e-01, 5.704573914e-02, -6.686027348e-02, 9.279214591e-02, -1.671554334e-02, -1.282859500e-02, -2.941750735e-02, -4.049791098e-01, -1.178465784e-01, -2.443578281e-02, 2.447863072e-01, -1.561828256e-01, -1.796880960e-01, 2.215606421e-01}, {1.335729212e-01, 1.053827852e-01, 9.005814791e-01, 1.673931926e-01, -1.452205330e-01, -2.490111440e-01, -1.071488410e-01, -1.009629369e-01, -1.333572567e-01, -6.278213114e-02, -2.856183425e-02, 3.135765716e-02, -7.672078907e-02, 6.762252189e-03, 4.589127004e-02, -3.332765028e-02}, {2.153436542e-01, 5.120646954e-01, 5.651500225e-01, 2.165602893e-01, -6.096715927e-01, -1.493540108e-01, -2.409437150e-01, -4.140441418e-01, -2.610077262e-01, -2.923736162e-02, -4.766202345e-02, 1.099078804e-01, 2.625333145e-02, 2.204855159e-02, 5.943571776e-02, 1.914480701e-02}, {-9.406358004e-01, -4.180513695e-02, 2.151927799e-01, 3.938378692e-01, 1.764130779e-02, -5.034759268e-02, 3.164856927e-03, -3.407754600e-01, -6.468708068e-02, 2.716458775e-02, -1.819027364e-01, 1.696486399e-02, -1.425233185e-01, 1.176593900e-01, -2.228501886e-01, 6.234367564e-02}, {-4.885051548e-01, 3.497427702e-01, -6.669580936e-02, 3.796962202e-01, -4.823433161e-01, -1.748491973e-01, -3.175854683e-01, -2.836662233e-01, -2.438270003e-01, -1.817970574e-01, -1.038040519e-01, 1.135336086e-01, -6.843644660e-04, -1.451518107e-02, 1.136550978e-01, -9.725936502e-02}, {-5.562519282e-02, -1.454082578e-01, 1.191446334e-01, -1.540267915e-01, 7.677522302e-02, 1.956291310e-02, -1.635597199e-01, 1.771553159e-01, 1.613895744e-01, 1.618688256e-01, -9.501923621e-02, 3.255071938e-01, 1.503622681e-01, -2.281655967e-01, -5.844281241e-02, 4.682342336e-02}, {4.103152752e-01, -4.043807685e-01, 8.936686814e-02, -4.219009280e-01, 1.604882926e-01, 1.660686359e-02, -3.350164369e-02, -1.510443389e-01, 1.550091207e-01, -1.297316253e-01, -6.235986948e-02, -1.170987263e-02, -1.389025748e-01, 6.475528330e-02, 4.532577097e-02, -1.475184560e-01}, {-6.941260695e-01, -5.487923026e-01, 2.845663726e-01, 3.209357858e-01, 8.493611962e-02, -4.137532040e-02, -2.978343666e-01, -5.494957045e-02, 8.918926120e-02, -1.852347329e-02, -1.017008647e-01, -5.629379302e-03, -5.404978991e-02, 2.523240820e-02, 6.494270265e-02, -1.202295348e-02}, {-3.730127811e-01, 1.619017720e-01, 2.559436858e-01, 9.665416181e-02, -1.552183777e-01, 7.091465592e-02, 1.519963518e-02, 3.469091952e-01, -2.000657916e-01, -5.355816707e-02, 4.930792376e-02, 9.854792058e-02, 5.971524864e-03, 1.662871242e-01, -9.151790291e-02, -1.835634261e-01}, {-2.461857945e-01, -4.822436571e-01, 5.809268951e-01, 2.097681165e-01, 2.236789316e-01, -3.018045425e-01, 3.431469947e-02, -1.501446515e-01, -3.284038603e-01, -1.679700315e-01, 2.995809540e-02, -6.711827964e-02, -1.121669337e-01, -9.603933990e-02, -9.545780718e-02, -1.483176798e-01}, {-1.978496313e-01, 1.018761024e-01, -1.154824644e-01, 2.655811608e-01, -8.594001085e-02, -8.395998925e-02, -7.385617495e-02, -5.068915337e-02, 2.024116218e-01, -7.960857451e-02, 5.472579598e-01, 1.526740342e-01, -6.263656169e-02, -3.109871745e-01, -3.032353893e-02, 4.547407478e-02}, {-3.779542148e-01, 2.742246091e-01, -1.391630769e-01, 1.003935263e-01, -8.912318200e-02, 1.244446635e-01, 1.979085207e-01, -1.064777449e-01, 2.766703367e-01, 2.514486015e-01, 4.915840030e-01, -4.587559029e-02, 3.685769811e-02, 8.372277021e-03, 6.232815236e-02, 1.886299551e-01}, {-2.975381017e-01, 3.299624026e-01, 6.886716485e-01, 2.409975380e-01, -3.844170272e-01, -3.924975693e-01, -5.198945403e-01, -1.767872572e-01, 3.292115927e-01, -3.209361434e-02, -7.990746200e-02, 4.061580449e-02, -3.438195586e-02, -9.914413095e-03, 2.819222398e-02, 8.653856069e-02}, {1.318431944e-01, -4.245901406e-01, 3.589483202e-01, -4.138147458e-02, 3.683158159e-01, -2.834633887e-01, 4.770724475e-01, -1.788172722e-01, -1.494991779e-01, 1.388950944e-01, -5.982166156e-02, -1.225849986e-01, 4.057735577e-02, -9.274668247e-02, -7.733392715e-02, 1.976865344e-02}, {-4.958458543e-01, -1.151996478e-01, 1.813211888e-01, 5.965452194e-01, 2.569431961e-01, -7.806938887e-02, 3.670164943e-01, -2.498213947e-02, -4.388703406e-01, 4.309191182e-02, 1.353360806e-02, 1.181606948e-02, 6.110024452e-02, 5.727627873e-02, 1.585602015e-02, -9.361953475e-03}, {6.557998657e-01, 2.052164525e-01, -4.064126406e-03, -4.225184917e-01, -2.758670449e-01, -4.992324486e-02, -4.902805686e-01, 4.492370188e-01, -1.864557713e-01, -3.636690974e-01, 1.997795105e-01, -1.829100400e-01, -3.901497275e-02, 9.760140628e-02, -2.571669035e-02, -2.488423735e-01}, {1.781554073e-01, 2.463766038e-01, -1.472986042e-01, 1.054441780e-01, 1.447557807e-01, -1.160078570e-01, -3.885422274e-02, -2.041296512e-01, 2.595137358e-01, -1.575046591e-02, -3.032370843e-02, 1.975793689e-01, 4.091179371e-02, 8.157760836e-03, -5.608376116e-02, 2.023703046e-02}, {-1.012728214e-01, -9.321642667e-02, 6.295608729e-02, 1.282752156e-01, 1.035673618e-01, -2.501614951e-02, 1.166649442e-02, -1.326181740e-01, -9.368534386e-02, -6.346660107e-02, -1.239447147e-01, -1.336683780e-01, -1.897210181e-01, 2.395018339e-01, 1.258087065e-02, 2.294404209e-01}, {1.311815530e-01, 2.181429267e-01, -6.732170004e-04, -3.069808520e-02, -4.082033336e-01, -3.597293422e-02, -6.324483752e-01, -2.379679233e-01, -3.810692430e-01, -3.753573895e-01, -2.996984124e-01, -2.043254524e-01, -2.855346501e-01, 8.300314099e-02, 2.567638755e-01, -9.173034877e-02}, {1.405999810e-01, -3.554285169e-01, -4.068162143e-01, 4.252643138e-02, 9.623820335e-02, -1.072352529e-01, -3.771115243e-01, -3.324152529e-01, -8.651003242e-02, 3.925267980e-02, -1.424541920e-01, 8.426834643e-02, -9.897112846e-02, -7.550320029e-02, 4.326484725e-02, 1.204262003e-01}, {-1.146187782e-01, 9.307074547e-01, 4.981598258e-01, 1.122358162e-02, -5.477823019e-01, -1.249698922e-01, 8.638650179e-02, -3.172995150e-02, 5.267882254e-03, -6.870181859e-02, -3.013776615e-03, -1.360162394e-03, 9.383724071e-03, -3.632108122e-02, -3.660455719e-02, 5.534788966e-02}, {8.113068938e-01, -4.341790378e-01, 1.197673380e-01, -3.708365858e-01, 1.541291326e-01, -8.913145214e-02, 6.145909801e-02, 3.007465303e-01, -4.301149547e-01, 1.601882279e-01, 3.143701851e-01, -1.886300892e-01, 1.632235795e-01, 6.470073014e-02, -1.110807434e-01, 1.500674640e-03}, {-5.357384682e-01, -5.690560937e-01, -4.160559773e-01, -1.794740558e-02, 4.598735571e-01, 2.125491500e-01, 1.825532019e-01, 2.577863932e-01, -7.990983129e-02, -2.034090608e-01, 8.786369115e-02, 9.012547880e-02, 1.347361207e-01, -3.209913895e-02, -1.016024947e-01, -4.403591622e-03}, {6.450140476e-02, 3.202663660e-01, -1.736896187e-01, -1.393969804e-01, -2.737777233e-01, 2.776621282e-01, 1.993128061e-01, -2.744978666e-01, -4.406807944e-03, -1.942899078e-01, 1.517548412e-01, 6.395196170e-02, -1.984202713e-01, 9.738158435e-02, 5.236840248e-02, -2.610385120e-01}, {-2.890175283e-01, 3.102558553e-01, 1.612019837e-01, -1.622847170e-01, 2.167014778e-01, -2.599397600e-01, -3.022660501e-03, 2.397228032e-01, 7.700206339e-02, -8.213348687e-02, 4.156946391e-02, -1.224806011e-01, -1.751674563e-01, 1.680829562e-02, 7.636986673e-02, -3.933298215e-02}, {-2.568400502e-01, -2.132190317e-01, 1.160192862e-01, 3.936780393e-01, -1.662957519e-01, -1.624847949e-01, -1.443358809e-01, 2.091703117e-01, -2.840689421e-01, -8.208424598e-02, 2.271814831e-02, 2.639557123e-01, -6.586115062e-02, 1.011746973e-01, 4.094166681e-02, -2.447842062e-02}, {-3.554795384e-01, 3.819952533e-02, -2.771602571e-01, 1.795607060e-01, 1.432665884e-01, 2.161780894e-01, -7.036297768e-02, -4.733998701e-02, 3.604392707e-01, 1.897413135e-01, 9.622981399e-02, 1.965514123e-01, 1.112243161e-01, 2.014963329e-01, 4.978568852e-02, 1.763742417e-01}, {1.271669418e-01, 2.344902903e-01, 1.401837356e-02, -2.273720801e-01, -2.844749093e-01, 1.144268885e-01, 8.696597815e-02, -1.294074506e-01, -8.268847130e-03, -2.513533831e-01, -2.484761924e-01, -1.411650926e-01, 1.339441631e-02, -1.312508732e-01, 3.046075404e-01, 1.699334681e-01}, {1.353423297e-01, 7.113932967e-01, 7.562749833e-02, 1.771753281e-01, -8.065202087e-02, 1.807335764e-02, -1.606683284e-01, 8.044262230e-02, 7.240858078e-01, 1.809778064e-02, -1.257339418e-01, 7.534711063e-02, -5.985347927e-02, -1.094164327e-01, 2.157330513e-02, 5.236250907e-02}, {-7.090309262e-01, 1.627607346e-01, 3.987886906e-01, 2.810197473e-01, 2.963128686e-01, -3.764101863e-01, 1.922246069e-01, 1.673171222e-01, 2.386375964e-01, 4.976540059e-02, 2.117765248e-01, 9.163854271e-02, 2.350729257e-01, 6.439438462e-02, -1.388702989e-01, -1.161743999e-01}, {2.382911593e-01, -1.366235763e-01, -3.619903028e-01, 3.469217941e-02, 7.874399424e-02, 2.360956222e-01, 1.788361743e-02, -1.182939857e-01, -1.557927877e-01, 3.600639999e-01, -3.256915808e-01, -6.318934262e-02, 1.880521514e-02, -1.965653151e-01, -1.584441215e-02, 3.586658835e-01}, {-8.658970594e-01, -1.444424391e-01, -1.149830297e-01, 1.842102855e-01, 2.132242173e-01, 2.019574344e-01, -2.880764077e-04, 3.288991749e-02, 8.276735246e-02, 1.564949751e-01, 5.229417980e-02, 3.375711739e-01, -1.999287009e-01, -5.331201106e-02, -5.936851725e-02, 1.293525994e-01}, {-2.977579832e-01, 5.538123846e-01, -1.679137349e-01, -7.313341368e-03, -2.836589217e-01, 3.207891807e-02, -4.778717086e-02, 3.397351205e-01, 5.001599714e-02, 3.362725377e-01, 1.415044256e-02, 1.240122244e-01, -8.348436654e-02, 1.617674828e-01, -5.502531305e-03, 3.739727428e-03}, {4.757010937e-01, 2.220685035e-01, 2.582028210e-01, -9.945699573e-02, -1.597302705e-01, -5.425488576e-02, 5.663003922e-01, 1.671669632e-01, -5.117518902e-01, 1.393983960e-01, -1.401108056e-01, -4.970614100e-04, 7.076589018e-02, -1.435161084e-01, 2.122019045e-02, 6.067517027e-02}, {4.573104084e-01, 4.466947019e-01, -2.990991808e-03, -3.685107827e-02, -6.308863163e-01, -1.507719979e-02, -1.350843012e-01, 2.421207726e-01, 8.752379417e-01, -3.538756818e-02, 5.937647820e-02, 6.083061546e-02, -7.232011855e-02, 1.014998704e-01, 1.337166294e-03, -7.371064276e-02}, {-4.016519189e-01, 1.648705453e-01, 2.375135757e-02, 3.181235492e-01, -3.336004913e-01, -7.294300199e-02, 1.372005939e-01, 3.901525736e-01, -1.876898259e-01, -1.519379765e-01, -1.691776365e-01, 1.386538986e-02, -1.091833189e-01, 1.627173834e-02, 1.456911713e-01, 5.800765008e-02}, {3.107284307e-01, -1.929977089e-01, 7.717435807e-02, -3.256720901e-01, 7.561247051e-02, 1.663328707e-02, 2.374691069e-01, 1.365597844e-01, 1.728756726e-01, 7.549275458e-02, -9.206693619e-02, 4.173011482e-01, 9.107878804e-02, 8.738980442e-02, -3.951073438e-02, 1.135659665e-01}, {1.288547218e-01, 8.652187139e-02, -2.526878938e-02, -7.409575582e-02, 1.400681734e-01, 1.161243184e-03, -3.191309571e-01, 1.560625881e-01, -2.291597426e-01, -5.121039227e-02, 1.386605352e-01, 1.150650606e-01, 1.055392548e-01, 7.019261271e-02, -3.081158362e-02, -3.732411936e-02}, {-4.061039090e-01, 4.012421966e-01, 5.810307860e-01, 2.661984861e-01, -1.782675683e-01, -3.511256874e-01, 1.965777725e-01, -3.362880275e-02, -4.112841189e-02, -5.595474318e-02, -1.210753098e-01, -1.353328675e-01, -1.408934295e-01, -5.355527624e-02, 1.363146454e-01, -1.698267646e-02}, {5.638838932e-02, -3.260641098e-01, 2.836694419e-01, 3.209550977e-01, 5.448788404e-01, -3.623802364e-01, 6.158158779e-01, -1.482743919e-01, 2.637864649e-01, 4.704765230e-02, 1.980196834e-01, -1.503394991e-01, 9.084996767e-03, 1.219492257e-01, 1.826742478e-02, -4.989059642e-02}, {8.292218298e-02, -3.043806553e-01, 8.932756633e-02, 2.916784585e-01, -1.665793061e-01, -7.019715011e-02, -2.078430802e-01, -4.243949652e-01, 1.572337300e-01, -2.236681581e-01, -3.270375729e-01, 1.117268130e-01, -6.814210862e-02, 1.141471602e-02, 1.326316148e-01, 5.024055392e-02}, {3.432754800e-02, -1.107711494e-01, -1.450753361e-01, -5.964900553e-02, 7.416827977e-02, 9.009426832e-02, 4.928350449e-02, 1.595501602e-01, -3.440416977e-02, 9.266700596e-02, -3.443361223e-01, 5.263301358e-02, 2.137939632e-01, 3.999043703e-01, 1.251959950e-01, 1.548268646e-01}, {2.044663727e-01, -2.446039915e-01, -2.302992791e-01, 5.140197929e-03, -1.744703799e-01, 8.259234577e-02, -4.788945913e-01, 1.942613162e-02, -3.765167296e-01, -1.385002583e-01, 2.218262851e-01, 2.102428526e-01, 4.335443676e-02, 2.472651154e-01, 3.139904584e-04, -1.457790881e-01}, {6.761431098e-01, 6.451632380e-01, -5.262316763e-02, -4.481177926e-01, -3.240858912e-01, -1.150565296e-01, 2.588765025e-01, 4.615712911e-02, -4.191795588e-01, 1.411905885e-02, 7.011324167e-02, -3.646083176e-02, 6.289980561e-02, 3.381258249e-02, -3.474044800e-02, 1.902139932e-02}, {3.723327816e-01, -9.815715253e-02, 1.133033857e-01, -2.355450839e-01, 1.061861068e-01, -2.349929139e-02, -3.713541627e-01, 4.144076407e-01, -2.793117464e-01, 9.053692967e-02, 4.108360037e-02, -2.409937531e-01, 1.321080029e-01, 3.012522459e-01, -3.428716585e-02, -1.367435753e-01}, {2.811606526e-01, 5.905046687e-02, 3.272426128e-01, -2.479382604e-01, -2.936277986e-01, -3.580298424e-01, -5.176200867e-01, 2.795484066e-01, -4.430221319e-01, -1.936972886e-01, 7.894948870e-02, -8.354717493e-02, 5.597408395e-03, 2.022883892e-01, 5.465555936e-02, -6.639078259e-02}, {1.235511005e-01, -4.501554668e-01, 3.790231347e-01, 8.820305020e-02, 5.924018621e-01, -2.117339224e-01, -1.749077812e-02, 2.092034817e-01, 1.629072428e-01, 1.907290220e-01, 1.494873222e-02, -8.931314200e-02, 6.455074251e-02, -3.940384462e-02, -2.127096988e-02, 9.781382233e-02}, {-2.662189305e-01, 5.742402077e-01, 3.245919049e-01, 8.783234656e-02, -5.388299227e-01, -3.376829326e-01, 2.301932313e-02, 4.126538336e-01, 2.252227366e-01, -1.186965127e-02, 1.477072686e-01, 9.295062721e-02, 1.726454943e-01, 1.269802004e-01, -1.171923876e-01, -1.015824527e-01}, {7.486220598e-01, -3.558947146e-01, 4.114757851e-02, -2.147839665e-01, 2.938064933e-01, -4.960109293e-02, 8.519547433e-02, -3.521017730e-01, -2.897059619e-01, 1.571573019e-01, -1.509595960e-01, 1.198667437e-01, -2.081409097e-03, -1.437948048e-01, 6.406575441e-02, 1.026776507e-01}, {-2.694742680e-01, 1.070210412e-01, 2.334756553e-01, 4.638323188e-01, -1.461027116e-01, 3.096875548e-01, -3.049035668e-01, -2.083293200e-01, 2.472780794e-01, 7.349944115e-02, 5.744672194e-02, -1.021597832e-01, -8.759321272e-02, 8.939658850e-02, -9.429038502e-03, 6.366508547e-03}, {6.240922958e-02, -5.795472264e-01, -1.899487805e-03, -6.876812130e-02, 5.113116503e-01, -1.206850111e-01, -4.155620337e-01, 1.326557696e-01, 5.134426802e-02, 8.603004366e-02, 2.187751047e-02, 1.351494342e-01, 3.330756351e-02, -9.518203884e-02, -1.411723793e-01, -6.967289373e-03}, {-6.310824156e-01, -1.679149568e-01, -2.709811330e-01, 1.927234232e-01, 2.577325106e-01, 1.221962869e-01, -4.120016992e-01, 3.801473379e-01, 2.337979078e-01, 5.868923292e-02, -4.032188281e-02, -8.930034190e-02, -5.510408059e-02, -3.093064576e-02, -1.978053153e-02, -7.997222245e-02}, {5.919081569e-01, -1.374080926e-01, 1.304016113e-01, -3.048254251e-01, 2.119038552e-01, -7.901030779e-02, -4.255079031e-01, -2.827807069e-01, -8.046115935e-02, -2.137699127e-01, -5.914873630e-02, -8.759710193e-02, -1.349105239e-01, 1.421549767e-01, 2.357123012e-04, -3.517395630e-02}, {5.106288791e-01, 4.699021280e-01, 4.309357107e-01, -2.104634047e-01, -3.714807034e-01, -2.352081537e-01, 2.235220224e-01, -4.781318307e-01, 4.056624472e-01, -4.378394783e-02, 4.040768370e-02, 3.813302517e-02, 4.747977480e-02, -8.346368559e-03, -8.990701288e-03, -2.919801697e-02}, {-1.576342247e-02, -2.410967201e-01, -6.917184591e-02, -6.857762486e-02, -1.070635319e-01, -5.492665246e-02, -6.519141793e-02, 3.064498901e-01, 3.579397202e-01, -1.423843950e-01, 2.172141522e-01, -4.389506578e-02, 8.763748407e-02, -5.212017894e-02, 2.188797854e-02, -4.904586077e-02}, {4.841504619e-02, 4.390537441e-01, 7.592837512e-02, -9.093014151e-02, -3.768491745e-01, 6.025701761e-02, -4.867116213e-01, 1.997355968e-01, -1.135567948e-01, -4.074972570e-01, 2.424600720e-01, 4.509455338e-02, -4.219570011e-02, 3.208909631e-01, 6.907878071e-02, -1.144159958e-01}, {4.576047063e-01, 3.599064350e-01, -1.330101937e-01, -1.238333341e-02, -2.422052920e-01, 6.242866069e-02, -5.116764084e-02, 4.129219055e-01, 1.829204708e-01, -8.768860251e-02, 9.903228283e-02, -1.685076803e-01, 7.517800480e-02, 7.140245289e-03, -9.431114048e-02, 9.178385139e-02}, {-1.667099893e-01, -4.747564197e-01, -3.710249364e-01, 1.105546877e-01, 2.944971919e-01, 2.705549896e-01, 1.954421997e-01, -2.600454725e-03, -1.778783947e-01, -3.434263170e-02, 2.710154466e-02, 9.295612574e-02, -1.144094467e-01, 4.141993225e-01, 1.105189249e-01, -3.884874284e-01}, {-8.277180195e-01, -1.390841603e-01, -2.328920215e-01, 5.560294986e-01, -4.002815858e-02, -2.481186688e-01, -5.315131322e-02, -1.631091535e-01, 2.284327149e-01, -1.815396845e-01, -1.143320724e-01, 4.439068958e-02, -1.545186937e-01, 1.387272030e-01, 1.063974574e-01, -1.679894701e-02}, {-9.165101498e-02, -3.803673983e-01, 2.488628402e-02, 3.025631309e-01, 1.074862927e-01, -1.217600256e-01, 2.305790931e-01, 9.232667275e-03, -2.275807410e-01, 2.434334755e-01, 1.497257650e-01, -8.437244594e-02, 4.167715013e-01, -1.412564609e-02, -2.538289726e-01, -1.338642687e-01}, {5.018137768e-02, 2.510524988e-01, -2.119686455e-01, -6.191907451e-02, -3.942184150e-01, 3.164049983e-02, -5.696597099e-01, -2.846232802e-02, -5.661053061e-01, 1.467545033e-01, -4.507928342e-02, 1.588981003e-01, 3.676623479e-02, -2.791422419e-03, -4.486989230e-02, 8.512869477e-02}, {-1.086242944e-01, 3.065224290e-01, -1.907160506e-02, 1.668230593e-01, -2.395672649e-01, 1.252855062e-01, 1.053393539e-02, -1.028384492e-01, -3.516022265e-01, -1.572860032e-02, -2.274173200e-01, -2.662454545e-01, -1.391165107e-01, 2.944598198e-01, 1.555503346e-02, 1.303447336e-01}, {-4.857641831e-02, -1.367672384e-01, -6.277296543e-01, 8.973132074e-02, -1.061258912e-01, 3.099656105e-01, -1.264180094e-01, -1.338609029e-03, 2.731001377e-02, 2.322734594e-01, 2.483911812e-02, -2.153856680e-03, 1.515599787e-01, -2.846031487e-01, -2.347630858e-01, 3.173176646e-01}, {-2.743662102e-03, -1.256968230e-01, 3.798541129e-01, -7.504680008e-02, 2.807269618e-02, -1.557930410e-01, 1.531940103e-01, -1.337610930e-01, 1.425242871e-01, 2.764944136e-01, -1.282208133e-02, 1.512161195e-01, -3.294173777e-01, 3.754571080e-02, 1.398557276e-01, 3.084869683e-02}, {8.994853497e-02, 5.041564703e-01, -1.666628420e-01, -8.726184070e-02, -2.496651262e-01, 1.109021828e-01, -8.540102094e-02, -9.023291059e-04, 4.518155158e-01, 5.309992470e-03, -5.686553568e-02, 1.044173315e-01, -4.511946440e-02, 1.716055274e-01, 9.519828111e-02, 1.151247174e-01}, {3.216578066e-01, -6.867011189e-01, 3.795900643e-01, -1.914285421e-01, 4.938298166e-01, -1.647317708e-01, 4.520484507e-01, 2.372363806e-01, -2.554112673e-01, -8.965627849e-02, -2.236713171e-01, 5.722292885e-02, -3.620279580e-02, 1.827748679e-02, 4.891203344e-02, 4.154406860e-02}, {-3.765275180e-01, 8.261045218e-01, -4.532550573e-01, 2.274660617e-01, -5.406537652e-01, 1.559048146e-01, -1.308491975e-01, -8.748930693e-02, -1.819278598e-01, -3.229309991e-02, 1.165308245e-02, -6.667356938e-02, 1.786551811e-02, -4.300756846e-04, 1.892953925e-02, -6.839078665e-02}, {-1.193605438e-01, -1.776783727e-02, -4.694269300e-01, -4.483873770e-02, -1.017633453e-02, 2.044626623e-01, -1.869878322e-01, -2.700619102e-01, 2.883344591e-01, -1.386626661e-01, -1.909283847e-01, 2.147124261e-01, 5.004258826e-02, -2.133257240e-01, 2.356309593e-01, -1.122103557e-01}, {4.438544214e-01, 3.170942664e-01, 1.684534103e-01, -4.204545543e-02, -4.291145802e-01, -2.038376927e-01, 7.055743933e-01, -5.560932159e-01, -1.260569096e-01, -4.065680876e-02, -6.205667183e-02, 7.800623029e-02, -8.833315223e-02, 8.923000656e-03, 6.411249284e-03, -7.604283281e-03}, {8.436846137e-01, -4.338680208e-02, -1.267377436e-01, -5.818836093e-01, -8.857560903e-02, 3.382695913e-01, -2.441209108e-01, 2.999662161e-01, -4.276264608e-01, -3.460519388e-02, 2.865903378e-01, -5.507656559e-02, 8.569543809e-02, 1.144219413e-01, -3.857770562e-02, -1.890679300e-01}, {1.109045148e-01, -2.090010643e-01, -6.552281976e-02, 3.388480842e-02, 1.393017620e-01, 7.150901482e-03, 2.217752039e-01, 4.837260768e-02, -4.085613415e-03, 1.920930594e-01, 1.192465648e-01, -1.180516407e-01, -3.700154722e-01, -1.019097939e-01, -1.769333482e-01, 1.480960995e-01}, {5.982682705e-01, -7.461087108e-01, 3.433190286e-01, -2.359368950e-01, 4.483646154e-01, -5.480185524e-02, 3.557381928e-01, -5.028111860e-02, -1.445076894e-02, 8.238314837e-02, 1.241664123e-02, 3.188169375e-02, 4.835867882e-02, 9.438470006e-03, -4.795273393e-02, 5.318361893e-02}, {1.871135384e-01, 2.764605284e-01, -2.225003093e-01, -1.192581132e-01, -2.679486275e-01, 2.226908207e-01, -4.854701161e-01, -1.662251204e-01, -2.801126540e-01, -1.336618215e-01, -2.672666013e-01, -2.856400013e-01, -1.430349350e-01, -1.523623765e-01, 1.750936732e-02, 5.292920023e-02}, {1.800457388e-01, 4.182272851e-01, -3.293052316e-01, 2.865652367e-02, -2.419946045e-01, -1.181164682e-01, 5.140070915e-01, 1.513478905e-01, 2.507755458e-01, -4.019822553e-02, -4.179492593e-02, -2.664431036e-01, -8.526750654e-02, 1.137024388e-01, 1.988180876e-01, -5.500873923e-02}, {-9.613450170e-01, -2.447785586e-01, 4.943648577e-01, 3.292127550e-01, 2.021271735e-01, -1.172676906e-01, -2.068927977e-03, -1.228206232e-01, 1.254165173e-01, -1.199926436e-01, 1.424238086e-01, -4.858013242e-02, -7.801783085e-02, 1.770487726e-01, 1.145874187e-01, -1.345787346e-01}, {-5.133115649e-01, 1.310664564e-01, -1.979237422e-02, 2.990380824e-01, -1.534298509e-01, -3.640882969e-01, 4.483222365e-01, -2.343500704e-01, 1.169392318e-01, 1.187159047e-01, -3.263202012e-01, -1.123365089e-01, -1.935330220e-02, -1.828886867e-01, -3.190093115e-02, 3.453323543e-01}, {-2.226933986e-01, 4.509996250e-02, 6.983166933e-02, -1.147977859e-01, -1.287391186e-01, -9.744747728e-02, -1.470245719e-01, -6.482955813e-02, 3.801050410e-02, -4.862356186e-02, 3.701324016e-02, 8.689416200e-02, -1.389475167e-01, -6.744492333e-03, -5.995852873e-02, -2.936595380e-01}, {-4.388516545e-01, -4.752998650e-01, 1.879597157e-01, 3.604257852e-02, 2.752411664e-01, 6.604128331e-02, 3.511714935e-02, -1.060976926e-02, -1.536832452e-01, 1.596325338e-01, -5.762999132e-02, -1.083303913e-01, 1.893856227e-01, -2.100272179e-01, -1.619339585e-01, 2.852527499e-01}, {-1.654444337e-01, -4.289114177e-01, 7.095598578e-01, 1.532713510e-02, -2.006895393e-01, -1.011951342e-01, 3.804600611e-02, 3.737460449e-02, -2.973175645e-01, 3.144537285e-02, 2.922797389e-02, -4.980174825e-02, 1.417740732e-01, 1.235072911e-01, -5.814975873e-02, -1.051058471e-01}, {2.236654311e-01, -1.598741561e-01, -1.034253929e-02, 9.733357280e-02, 2.741281390e-01, 1.210312247e-01, 2.431170940e-01, -8.233468235e-02, -1.757875532e-01, -2.429562062e-01, 2.391824573e-01, -2.339601666e-01, 7.806291431e-02, -5.011740699e-02, 1.451549977e-01, -5.306954309e-02}, {1.082079113e-02, -1.750762388e-02, -1.284066737e-01, 6.613620371e-02, 9.752746671e-02, 1.490843445e-01, 9.426005185e-02, 7.729300112e-02, 2.120784670e-02, -6.837389618e-02, -7.676917315e-02, 7.308076136e-03, 2.097839415e-01, -9.594910592e-02, -2.394553870e-01, -2.497827709e-01}, {-1.295276880e-01, 7.885182649e-02, 2.095362693e-01, 5.082235858e-02, -1.894905716e-01, -9.960686415e-02, 1.774485558e-01, 3.968597651e-01, -2.793161869e-01, -7.441128045e-02, -3.544835001e-02, -2.208939195e-02, -7.062242180e-02, 6.755843014e-02, -1.226573996e-02, -6.175198406e-02}, {2.299852967e-01, 4.147349596e-01, 6.919834018e-01, 3.551720083e-02, -5.116785876e-03, -2.431733161e-01, 5.731577277e-01, -2.034455389e-01, 9.988207370e-02, -2.446514182e-02, -5.758471042e-02, 1.125665382e-01, -1.829327457e-02, 2.281839261e-03, 4.387092777e-03, 8.185105771e-02}, {7.604171336e-02, -4.384649396e-01, -6.465486288e-01, 6.388069596e-03, 2.972960770e-01, 1.459744275e-01, -6.394734234e-02, 4.546467215e-02, -3.858904168e-02, -8.030074090e-02, -1.512593925e-01, -1.734831370e-02, -2.039185315e-01, -1.101214886e-01, 1.435923874e-01, 1.180835515e-01}, {-2.670218050e-01, -9.288390167e-03, 1.691282541e-01, 8.893017471e-02, -9.886959568e-03, -1.411362141e-01, 8.798792958e-02, -1.754262894e-01, -1.575701497e-02, 1.205905247e-02, -2.733470500e-01, 6.114038453e-02, 1.376815438e-01, 1.632421911e-01, -2.516630888e-01, -1.682131439e-01}, {-1.996266991e-01, -3.764346540e-01, 3.405281305e-01, 1.021596417e-01, -5.572941620e-03, -1.573673338e-01, 3.426821828e-01, -2.815770209e-01, 2.289540768e-01, 2.254172694e-03, -1.285325438e-01, 3.246317208e-01, -9.478715807e-02, -4.054113030e-01, 2.442353666e-01, 1.906620115e-01}, {-9.212701023e-02, -2.403544784e-01, -2.119673789e-02, -1.166225895e-01, 1.695850194e-01, 3.808980435e-02, 1.754027009e-01, -2.000114322e-01, -2.907128334e-01, 1.784722358e-01, -6.895207167e-01, -5.685295537e-02, -1.508824974e-01, -1.605879962e-01, 1.528972834e-01, 1.929495931e-01}, {-1.304194033e-01, 6.378939748e-02, -1.153841019e-01, -3.125247061e-01, 3.431763947e-01, -7.525968552e-02, -1.510065198e-01, -1.764918864e-01, -1.517927796e-01, -7.995224558e-03, -4.800435156e-02, -1.350316405e-01, -3.713607043e-02, -6.157880649e-02, 5.611696839e-02, -9.014075994e-02}, {-7.630000114e-01, -3.565008342e-01, -2.225656807e-01, 4.108284116e-01, -2.423446923e-01, 5.400072411e-02, -1.754876226e-02, -1.044817567e-01, -6.898853183e-02, 9.582214803e-02, 4.258971661e-03, 1.675694436e-01, 2.453654818e-02, 6.125544384e-02, 3.476070240e-02, -5.290379375e-02}, {3.370626271e-02, -2.840923667e-01, 3.697273433e-01, -1.054870263e-01, 2.132615745e-01, -6.775531918e-02, -4.841193259e-01, -3.830941916e-01, 3.318250477e-01, 9.119701385e-02, 3.429773450e-02, 5.662683025e-02, 3.344500065e-02, 7.265923545e-03, -3.653362393e-02, -1.691140234e-03}, {-5.972419381e-01, 2.671093345e-01, -2.452521473e-01, 9.329167753e-02, 8.720132522e-03, 1.147433743e-01, -4.451928660e-02, -1.683772057e-01, -4.569878057e-02, -9.449094534e-02, -1.864002496e-01, -3.671438247e-02, -2.132644057e-01, 1.157037020e-01, -9.221399575e-02, 1.598735899e-01}, {6.925162673e-02, -8.300150931e-02, -1.533682644e-01, -7.022524625e-02, 1.061870903e-01, 9.784132987e-02, 2.512659431e-01, 7.645872235e-02, 4.035038874e-02, 2.182776332e-01, 2.896933351e-03, -1.183488127e-02, 3.037375212e-01, -2.932656929e-02, -6.851246580e-04, 1.574397534e-01}, {-3.045235574e-01, -3.451686725e-02, 3.774388507e-02, 3.233238757e-01, -1.155062094e-01, -4.160465300e-02, -1.966910809e-01, -2.033394426e-01, -3.803747892e-01, -1.045109704e-02, 7.310185581e-03, -2.266938090e-01, -1.191951707e-02, 1.275062263e-01, -5.496168975e-03, 7.241993397e-02}, {2.899665572e-02, 2.379542440e-01, -1.263839304e-01, -4.190586042e-03, -2.326913178e-01, 6.834919006e-02, -4.385374784e-01, -1.839804798e-01, -4.498538375e-02, 7.789698243e-02, 6.396546215e-02, -9.217000753e-02, -2.891551852e-01, -5.046622083e-02, 4.343044758e-01, -6.963104010e-02}, {-5.433492064e-01, -3.714584708e-01, -5.493128300e-01, 3.676404953e-01, 2.056762129e-01, 2.054358870e-01, -2.646293305e-02, -6.577473879e-02, 1.408568174e-01, 9.841619432e-02, -1.577757001e-01, -2.217607386e-02, 4.461571947e-02, -2.012876049e-02, 2.289450495e-03, 1.304624043e-02}, {1.705374867e-01, 9.955616295e-02, -4.200035334e-01, 6.294663064e-03, 1.221821457e-01, 2.325504422e-01, 2.296587378e-01, 2.060508281e-01, 2.122173309e-01, -1.660031974e-01, 2.261229157e-01, -1.806034595e-01, -2.086042427e-02, 3.687286079e-01, -6.070948020e-02, -6.957463175e-02}, {-5.852460861e-01, 8.123924136e-01, -4.106979370e-01, 1.693031192e-01, -3.020727634e-01, 7.035899907e-02, 5.761631727e-01, -8.546257019e-02, 7.183833122e-01, -2.628121711e-02, -4.555815831e-02, 1.635432541e-01, 3.214657679e-02, -7.223168015e-02, -3.314872831e-02, 3.877400607e-02}, {1.476633102e-01, -1.281588823e-01, -7.762973011e-02, 2.297715098e-01, 1.059594527e-01, -1.187895518e-02, -6.161682010e-01, 1.385316104e-01, -5.868768692e-01, -4.350621253e-02, 3.064392321e-02, -8.997229859e-03, -9.140145965e-03, 8.121082187e-02, 4.148306325e-02, -7.909847051e-02}, {2.066465467e-01, 2.974306345e-01, 3.074681759e-01, -2.059987038e-01, -4.941453934e-01, -1.996737421e-01, -4.946420789e-01, -1.413080245e-01, 5.051214248e-02, -2.126644850e-01, 8.126600087e-02, 5.964501947e-02, -1.172763184e-01, 3.353088796e-01, 7.494155318e-02, -1.690536141e-01}, {4.690654874e-01, -2.467813790e-01, 1.876907200e-01, -4.960157722e-02, 1.360117793e-01, -1.032193229e-01, 2.548121512e-01, 1.954449862e-01, 2.749507725e-01, 1.894470751e-01, 1.981695741e-01, 1.803732514e-01, 3.127942383e-01, -2.165938467e-01, 6.934698671e-02, -2.180419564e-01}, {1.956037432e-01, -2.058070712e-02, 2.205003239e-02, -2.937258780e-01, 3.240875900e-02, 1.611382887e-02, 2.025294863e-02, 1.786119044e-01, -4.602226615e-02, -9.630769491e-02, 1.370247155e-01, -5.912376940e-02, -3.371172547e-01, 4.759770352e-03, 1.862183809e-01, 6.007644162e-02}, {-8.276917338e-01, 7.036678791e-01, 1.892816573e-01, 4.578897953e-01, -3.938302100e-01, 1.270117331e-02, -1.313921213e-01, -2.814783752e-01, 2.307406515e-01, -1.007510126e-01, -1.341982484e-01, -1.526629459e-02, -7.954984903e-02, -3.492197767e-02, 7.997401804e-02, 9.988375008e-03}, {-3.627302647e-01, 8.729954809e-02, -4.493349791e-01, 1.069715992e-01, 2.734563649e-01, 7.674565911e-02, -8.233897388e-02, -1.141271815e-01, 9.086158127e-02, 3.019807339e-01, -3.589377403e-01, -2.131198943e-01, 2.673501074e-01, -4.533170164e-02, -8.364504576e-02, -7.903379947e-02}, {-5.951902363e-03, 1.046372503e-01, -7.236181498e-01, 1.418195069e-01, -7.839748263e-02, 4.413791299e-01, -3.326033056e-02, 1.121150553e-01, 1.887470037e-01, 1.049891580e-02, 3.819816709e-01, 9.148593247e-02, 8.443871886e-02, 9.144735336e-02, -2.912507020e-02, -7.730549574e-02}, {2.861017883e-01, 7.017667592e-02, -1.456838995e-01, -1.266835928e-01, 1.497823149e-01, 2.322276384e-01, -1.519464254e-01, 4.020902887e-02, -7.045632601e-02, 3.956198320e-02, 2.157265842e-01, -1.249849349e-01, -1.859119236e-01, 3.057190776e-01, -1.630646735e-01, -9.810636193e-02}, {1.367928088e-01, -4.909780994e-02, -8.105100393e-01, -1.156707779e-01, -1.025862396e-01, 3.612934351e-01, -6.927400827e-02, 9.943982214e-02, -2.884249091e-01, -1.650701649e-02, -2.032350982e-03, -5.294377357e-02, -1.906715892e-02, 7.300014794e-02, -3.442891315e-02, -2.665789239e-02}, {3.408195078e-01, -1.459323615e-01, -3.214897513e-01, -2.692336738e-01, 1.434204578e-01, 1.056941450e-01, 8.255130053e-01, -3.429339528e-01, 3.400637507e-01, 1.232533678e-01, 7.960875332e-02, -3.801948205e-02, 1.750135720e-01, -8.373190463e-02, -9.944695979e-02, 6.371901929e-02}, {-8.115345836e-01, -4.582883418e-01, -4.707473516e-02, 1.769862771e-01, 3.533564210e-01, 1.058180407e-01, 5.693097785e-02, -1.049005315e-01, -5.515422225e-01, -1.486147288e-02, -2.334009670e-02, -9.383885562e-02, 1.194792893e-02, 6.659549475e-02, 4.458582029e-02, -8.803219534e-03}, {4.897238612e-01, 1.799506843e-01, 1.828928292e-01, -1.922930181e-01, 2.046022862e-01, -8.366258815e-03, 2.257088721e-01, -4.612955730e-03, -6.348672509e-01, 2.085729688e-02, 7.627696544e-02, -4.614372924e-02, 3.745404631e-02, 1.383420173e-02, -2.165766619e-02, -2.652299218e-02}, {2.656781971e-01, -4.202981591e-01, -4.847553074e-01, -7.510322332e-02, 2.648606598e-01, 4.265505672e-01, -4.566130415e-02, -4.309244920e-03, -1.735373437e-01, -3.218645453e-01, -1.961846948e-01, 1.852147728e-01, -8.500761539e-02, 1.069234610e-01, 4.346918315e-02, -1.288463175e-01}, {-2.280078456e-02, -8.346611857e-01, 1.253813058e-01, 1.740115434e-01, 4.989189506e-01, 8.259379119e-02, 4.562068358e-02, -3.069056273e-01, 4.786377400e-02, 7.055051625e-02, -2.627977543e-02, -1.050411388e-01, 5.122302100e-03, 6.304976996e-03, 1.882486977e-04, 3.671282530e-02}, {2.984533608e-01, 3.212586343e-01, 2.571909428e-01, -3.376711607e-01, -3.300077617e-01, -1.874707043e-01, -3.631870151e-01, 1.686601937e-01, 8.953320980e-02, 1.577704549e-01, -4.414936900e-02, -4.457522929e-01, 5.079325289e-02, -7.481909543e-02, -9.918097407e-02, 3.529752791e-02}};

const float bias_in[NUM_NODES] = {1.909137368e-01, 4.002066851e-01, -1.067093730e+00, 5.493457913e-01, -2.528105974e-01, -6.795157492e-02, -1.814600378e-01, 1.326892339e-02, -5.141163245e-02, 4.886338115e-01, 2.579474449e-02, -6.767975092e-01, -2.643015981e-01, -9.463091195e-02, -7.807542682e-01, 1.381738186e-01, -4.052748084e-01, -8.805921674e-01, -1.640644073e-01, 7.279513776e-02, -7.637800183e-03, 7.591744065e-01, -3.467411399e-01, 2.859143913e-01, 2.415544093e-01, 2.409088314e-01, -9.006083757e-02, -4.123333991e-01, 1.821722090e-02, 4.706203640e-01, -6.656384468e-01, -1.675105989e-01, -4.647018611e-01, -1.863311380e-01, -2.963255346e-01, -5.653403401e-01, 1.715177111e-02, -7.073455453e-01, -4.205842316e-02, -3.210141361e-01, -3.796398044e-01, -7.274864912e-01, -9.016045928e-02, -2.093146443e-01, 2.939180732e-01, 3.659563065e-01, -2.889681607e-02, -6.444957256e-01, 2.339245230e-01, -1.076131105e+00, -1.732607186e-01, -9.139958620e-01, -7.101936340e-01, -3.731090128e-01, -2.050810605e-01, -4.659022093e-01, -2.047641426e-01, -1.308762878e-01, -7.126778960e-01, -5.200096369e-01, -7.127345204e-01, 2.342009395e-01, -4.856206775e-01, 2.564429939e-01, -2.261681408e-01, -1.413684189e-01, 1.485046446e-01, -3.149022162e-01, -1.028892279e+00, -6.140496731e-01, -1.089306101e-01, 2.339122593e-01, 7.605388165e-01, -7.598173618e-01, 4.896169007e-01, 6.540253162e-01, -3.685939014e-01, -6.487008929e-02, -3.003653586e-01, 6.686714888e-01, -4.535374939e-01, -8.519526571e-02, -4.422670603e-01, -3.436121941e-01, 1.545419265e-02, -1.335077435e-01, -3.377896845e-01, -6.516750455e-01, -3.030274808e-01, 4.309128523e-01, -3.198521733e-01, 4.479697049e-01, 6.974215806e-02, -1.110970676e-01, 4.437975287e-01, -4.795636237e-01, 4.582153559e-01, 9.790656716e-02, 2.188142091e-01, 7.810977697e-01, 6.065012217e-01, -3.065405190e-01, 7.612845898e-01, -3.236244619e-01, 3.657663986e-02, -7.525694966e-01, -2.233207077e-01, 2.975162268e-01, 1.048471220e-02, 3.077870011e-01, -2.326633781e-01, 4.814439118e-01, 3.527932167e-01, 7.449442744e-01, -7.366898656e-01, -4.281670749e-01, -1.127951741e+00, 5.528926849e-01, 6.417720318e-01, -8.655167222e-01};

const float weights_out[NUM_CONTROLS][NUM_NODES] = {{-4.466178641e-02, 2.183566988e-02, -3.182717785e-02, -7.677131891e-01, 1.162103377e-02, -5.599377677e-03, 2.219601069e-03, 3.239763156e-02, 1.177035198e-01, -1.825934798e-01, -4.076091200e-02, 3.505107388e-02, -2.623431385e-02, 1.694127545e-02, -5.197026767e-04, -3.980590776e-02, 6.697209086e-03, -3.416287526e-02, 3.143130243e-02, 5.283081159e-02, 7.026504725e-02, -4.529546574e-02, -7.182078809e-02, 6.590701640e-03, 3.061749972e-02, 5.092507228e-02, -1.653302759e-01, 1.741723157e-02, -2.946862392e-02, 3.052975796e-02, 4.821722955e-02, -7.086642832e-02, 5.866782367e-02, 2.283417992e-02, -3.693579510e-02, 3.416778445e-01, -9.881293029e-02, -1.117003262e-01, 2.966579422e-02, 2.494907938e-02, -4.057373106e-02, -2.932802029e-02, -6.289777905e-02, -5.923456047e-03, -2.338325605e-02, 1.710470207e-02, -5.509361252e-02, -5.080490559e-02, 2.917143144e-02, 4.471217468e-02, 1.217154320e-02, 4.266612977e-02, -3.259150311e-02, -3.084775805e-02, 3.568467125e-02, -2.580394596e-02, -3.501418605e-02, 2.943679877e-02, -3.120824881e-02, 3.298155963e-02, -3.712761775e-02, -3.005350381e-02, 9.130107611e-02, -1.651477367e-01, 5.701576546e-02, -8.763437159e-03, -3.595617041e-02, 3.961674124e-02, -4.598594457e-02, 4.369613901e-02, -5.291989446e-02, -7.703622337e-03, 1.908058301e-02, -1.199202333e-02, -3.484845627e-03, 1.924828440e-02, -3.945859522e-02, 7.108491659e-02, 7.898998447e-03, 2.209333144e-02, 2.890919894e-02, 2.441695631e-01, 1.057491917e-02, -6.475385278e-02, -3.061719984e-02, -1.268527238e-03, 9.242297709e-02, 8.101138286e-03, -3.891436458e-01, 1.802000776e-02, -1.701599546e-02, 5.623478442e-03, 2.392101288e-02, -2.726748958e-02, 7.737661246e-03, 5.136782676e-02, 4.985158518e-02, 3.850647062e-02, 1.706758142e-02, 2.494988590e-02, -3.351508826e-02, -3.026863374e-02, -5.563403666e-02, 2.055862173e-02, 3.045627847e-02, 1.736215502e-02, -5.288947001e-02, 4.815000296e-02, -1.955057122e-02, -7.529864553e-03, 8.220826834e-02, -4.035023972e-02, 5.098672211e-02, 1.010569707e-01, 2.807801962e-02, 3.253904637e-03, 1.975792460e-02, -2.996415831e-03, -3.440379351e-02, -1.839964651e-02}, {-4.866760597e-02, -4.447479174e-02, 3.940223902e-02, 5.377510563e-03, -2.484945953e-01, 5.635781959e-02, 3.884022683e-02, 1.381858718e-02, -7.422176003e-02, -8.978604339e-03, -2.625321411e-02, -2.309560589e-02, -6.446479261e-02, 4.403307661e-02, -1.399422181e-03, -3.917602077e-02, -1.307356656e-01, 1.460826769e-02, 3.249936504e-03, 5.191825703e-02, 3.791542351e-02, 1.815430447e-02, -8.843518794e-03, -4.291361198e-02, 2.915520687e-03, -2.462863922e-02, -1.913758516e-01, 1.058055132e-04, 6.903779693e-03, -1.686311141e-02, -1.506137662e-02, 7.214242965e-02, 4.427810013e-02, -2.920492552e-04, -5.957703292e-02, -2.793619409e-03, 3.187423944e-02, -1.301652938e-02, 2.678929828e-03, -2.605637722e-02, -5.436203256e-02, -1.422580704e-02, -7.439289987e-02, -1.166219562e-01, -6.629996933e-04, -2.227875218e-02, 5.005405843e-02, -7.967475057e-02, 6.616519392e-02, 3.236034140e-02, -7.635787725e-01, 5.202064663e-02, 4.480406269e-02, 1.930636913e-02, 4.233570024e-02, -2.772373334e-02, 6.347293966e-03, -3.954724967e-02, -5.601160601e-02, -3.225302324e-02, 6.214159355e-02, -1.524557769e-01, 1.031235680e-01, -1.324228942e-02, -3.039842285e-02, 1.280147303e-02, -3.914863337e-03, -2.907699905e-02, -4.439579789e-03, 2.317829430e-02, -2.853449620e-02, 8.478551172e-03, -4.294880852e-02, 2.060351707e-02, 1.954485662e-02, -2.174965478e-02, 5.872440338e-02, -2.273058146e-01, 1.342806071e-01, -8.689554525e-04, 4.720993340e-02, -2.955224598e-03, -1.920257509e-02, 7.681026310e-02, 7.561492734e-03, 5.661050603e-02, 7.781842351e-02, 1.225451007e-02, -3.384980857e-01, 2.969627455e-02, -4.319074750e-02, 6.232448816e-01, 2.330890857e-02, -4.316278175e-02, -1.160099581e-01, 5.199699104e-02, 3.656959534e-02, 2.041372657e-02, -7.438810915e-02, 1.707739197e-02, -2.749418467e-02, 3.347855434e-02, -1.669662632e-02, 5.767929927e-02, 4.650385585e-03, 1.372453421e-01, 7.207191736e-02, -5.209911987e-02, -2.055724850e-03, 1.504028291e-01, 9.583126754e-02, -9.939869493e-02, 3.647550568e-02, -1.207309961e-02, 2.618249692e-02, -3.129338846e-02, -2.068118379e-02, -1.160199288e-02, -5.617391691e-02, -1.071766834e-03}, {-2.388361469e-02, 5.463496223e-02, -3.511663899e-02, 2.193780802e-02, -4.119036719e-03, 3.637427092e-02, -3.401721269e-02, 6.575043313e-03, -1.206185520e-01, 3.452582983e-03, -1.456233859e-02, 2.300516516e-02, -2.038334683e-02, 3.534211218e-02, 4.899780825e-02, 2.612748556e-02, 5.177627318e-03, -2.487374842e-02, 7.821761072e-02, -3.710681200e-02, 1.958553679e-02, -2.819305286e-02, 8.160395175e-02, 3.511932492e-02, -4.382247105e-02, 5.502745882e-02, -1.284648627e-01, 6.879301276e-03, -4.179412872e-02, -6.920310203e-03, 1.685211807e-02, 8.221423626e-02, -4.025656730e-02, -3.650806248e-01, -2.446343005e-02, -5.335526075e-03, 9.597794712e-02, 4.122934304e-03, 7.070802618e-03, 2.623009263e-03, -4.127307609e-02, -3.919564188e-02, -4.379082844e-02, -4.820920527e-02, 4.580637440e-02, -1.327541918e-01, -8.433734626e-02, -1.523275394e-02, -6.814659387e-02, 2.036041021e-02, -4.807839170e-03, 3.107749112e-02, -1.365029067e-02, 2.109459229e-02, 2.241401561e-02, -4.840771481e-02, -2.125887200e-02, -2.165777609e-02, -2.947946452e-02, -1.629059203e-02, -3.298264369e-02, -8.899286389e-03, 8.499404788e-02, 1.983672846e-03, 2.648863941e-02, -1.230509602e-03, 6.986774039e-03, 2.012103051e-02, 2.732754126e-02, 3.561228514e-02, -7.109358441e-03, -6.439492851e-02, 1.182252634e-02, 3.949051350e-02, 1.292578038e-02, -1.095392331e-01, -4.060762748e-02, -2.278225683e-02, -5.804416724e-03, 9.818806499e-02, 2.868046053e-02, -3.660037741e-02, 2.200704068e-02, -2.128807269e-02, 8.543734998e-02, 1.589766331e-02, 5.487094447e-02, -4.301167652e-02, -2.451967448e-01, 5.183907971e-02, -4.451001436e-02, 2.087801695e-03, -3.523235396e-02, -2.421513386e-02, -1.541511994e-02, -2.030402422e-02, -8.140486479e-02, -5.211078748e-02, 5.417372286e-02, 6.821899861e-02, 6.170441210e-02, -4.068373144e-02, 1.966879517e-02, -1.793968678e-02, -8.747521788e-02, -3.130451590e-02, -6.274632365e-02, 3.241710737e-02, 1.021157801e-01, -1.440002001e-03, -2.120619267e-02, 2.547026798e-02, 2.140403725e-02, 3.404880175e-03, 3.132314980e-02, -3.271509195e-03, -4.053186625e-02, 6.125611719e-03, -7.850524038e-02, 5.330568552e-01}, {-3.314021602e-02, -2.596704848e-02, -6.681736093e-03, -1.638164744e-02, -2.732498106e-03, 2.266825363e-02, 2.294781059e-02, -6.512603909e-02, 7.284724712e-02, -7.770644501e-03, 1.200275961e-03, -6.531205872e-05, 6.630407181e-03, -2.297333814e-02, -1.268637367e-03, 2.051024325e-02, 1.635568291e-01, -4.570919275e-02, 1.556137926e-03, -1.263347454e-02, 1.183312610e-01, -5.672487896e-03, 4.632857442e-02, -7.993693464e-03, 3.143041581e-02, -6.328687817e-02, -1.672016382e-01, 6.719332188e-02, 2.784114704e-02, -3.123597056e-02, 2.722607926e-02, -6.763878465e-02, -2.185872383e-02, -1.866575330e-02, 6.418300420e-02, -5.085004494e-03, -5.444947258e-02, -8.257987350e-02, 4.720501974e-02, 3.498350084e-02, -4.204579815e-02, -2.932413481e-02, 3.276228532e-02, 7.191534340e-02, -6.163092703e-02, -1.305400766e-02, -2.265320392e-03, -1.279155072e-02, -7.746446133e-02, -7.665820420e-02, 3.878275305e-02, 2.161178179e-02, 4.119774327e-02, 2.175796777e-02, 1.638630219e-02, -1.390640810e-02, 1.103213523e-02, 3.773586452e-02, -8.509315550e-02, 1.676301286e-02, 2.880689222e-03, 9.385746904e-03, 4.516535997e-02, -1.518688444e-02, -7.370324433e-02, 1.924680769e-01, 4.542687535e-02, -1.443274319e-02, -1.193135884e-02, 5.245753005e-02, -4.667255282e-02, 7.068649679e-02, -4.307027161e-02, 1.566621650e-04, 7.524278760e-02, -1.384643763e-01, 5.582977086e-02, -9.223489761e-01, -1.001613438e-01, 6.352154072e-03, 4.291791469e-02, -2.799529582e-03, 4.076781869e-02, -5.778371822e-03, 1.791527867e-02, -1.036339905e-02, 7.436217368e-02, 3.058098629e-02, -1.370308250e-01, -4.441053607e-03, -2.310473844e-02, -1.823612861e-02, -4.862156510e-02, 1.415291894e-02, 2.643787675e-02, 3.459027782e-02, -2.331795357e-02, 3.242949396e-02, 1.446498372e-02, 5.129721016e-02, -1.074245851e-02, 3.458077088e-02, -1.201578826e-01, -4.260404035e-02, -3.731446713e-02, -1.949393749e-01, 5.143125355e-02, -1.561184600e-02, 4.295146093e-03, 9.557018988e-03, 3.751860932e-02, 1.391576827e-01, 1.993230544e-02, -1.866068691e-02, 5.281588435e-02, 7.489452958e-01, -3.536875173e-02, 5.720629171e-02, 9.958256036e-02, -3.626855556e-03}};

const float bias_out[NUM_CONTROLS] = {-1.501168162e-01, -1.625236571e-01, 7.591078430e-02, 6.720490009e-02};

const float in_norm_mean[NUM_STATES] = {1.412160516e+00, -2.709778845e-01, -4.953850806e-01, 2.474894047e+00, -1.043017626e+00, -1.139445454e-01, 1.632464528e-01, -1.052082777e-01, 4.088773131e-01, 6.482305527e-01, 2.345429063e-01, 5.169611573e-01, 7.162777832e+03, 7.568619629e+03, 8.247535156e+03, 8.251458984e+03};

const float in_norm_std[NUM_STATES] = {9.843551517e-01, 1.020957589e+00, 8.560999036e-01, 1.247195005e+00, 1.484261751e+00, 9.101965427e-01, 4.339194596e-01, 2.935958803e-01, 4.806590080e-01, 1.992438197e+00, 1.747077823e+00, 7.422558665e-01, 1.254965454e+03, 1.263823853e+03, 9.884519653e+02, 1.108422485e+03};

const float out_scale_min = 3.000000000e+03;

const float out_scale_max = 1.200000000e+04;

const float weights_hid[NUM_HIDDEN_LAYERS-1][NUM_NODES][NUM_NODES] = {{{-8.040554076e-02, 6.808979064e-02, 1.415465176e-01, -3.810319901e-01, -4.559062719e-01, 3.927859068e-01, 3.800575137e-01, -5.382556319e-01, 8.355157822e-02, 1.106865257e-01, 3.822395504e-01, 4.720649123e-01, -4.342104793e-01, 1.295383833e-02, -1.867298037e-01, 2.017274052e-01, 5.362060070e-01, 8.280628920e-02, -1.256179661e-01, 4.573981464e-02, 2.531400621e-01, -8.156370372e-02, 3.215745836e-02, 5.973843485e-02, 1.562480628e-01, 3.563872874e-01, -3.141663671e-01, 1.898459047e-01, -2.727920711e-01, -1.542323679e-01, 1.046959400e+00, 6.393355727e-01, -4.872907326e-02, 4.227725267e-01, 4.549559653e-01, -1.418213919e-02, -7.767043263e-02, 6.816206872e-02, 1.306520551e-01, 4.449752867e-01, -1.654039472e-01, -8.783481121e-01, 3.421480954e-01, 1.586009413e-01, 4.144330695e-02, -8.312425017e-02, 1.280013174e-01, 2.837446146e-02, 4.549692944e-02, 8.442848921e-02, 2.287400961e-01, -1.221820712e+00, -2.247763872e-01, 3.608044982e-01, 5.285642743e-01, 3.289456964e-01, -1.680791751e-02, 2.661082745e-01, -5.623014271e-02, 3.163776994e-01, 1.691986322e-01, 1.778314263e-01, 3.333740681e-02, 7.779183239e-02, 9.456289560e-02, -1.835491806e-01, -8.235535026e-01, -1.423503906e-01, -4.167911112e-01, -1.628065556e-01, -2.800985575e-01, -1.205445156e-01, -1.112061217e-01, -8.181909323e-01, -7.351497412e-01, 1.193087846e-01, -2.442430109e-01, -3.911050856e-01, 2.141297758e-01, -2.758684158e-01, -6.098339707e-02, -2.490604818e-01, 1.548721790e-01, 2.467976511e-01, -1.666361690e-01, 7.706552744e-02, 2.496418506e-01, -5.981848240e-01, 6.149962917e-02, -1.371380091e-01, -9.061519988e-03, -2.551206350e-01, 1.223895773e-01, 2.859494388e-01, 2.421517223e-01, 3.630536795e-01, -5.319872499e-01, 2.104147673e-01, -3.666278720e-02, -7.145889103e-02, -1.969155967e-01, 4.862667918e-01, -5.733210444e-01, -3.656290174e-01, 2.316363305e-01, 1.480016708e-01, 5.301943421e-01, 5.830054283e-01, 2.775561064e-02, -3.300734982e-02, 3.144339025e-01, -3.635028303e-01, -3.637885153e-01, -1.469804168e+00, -2.840945497e-02, 6.875554919e-01, -2.946481109e-01, -8.064695001e-01, 9.457382374e-03, -2.418553382e-01}, {-8.712822199e-02, -1.610210985e-01, -2.405275851e-01, -2.420534790e-01, 5.577277541e-01, -3.289074004e-01, 6.529427171e-01, -7.760338187e-01, 3.417464495e-01, -7.768190503e-01, -5.624772906e-01, -3.658054397e-02, 6.027657986e-01, 6.675581932e-01, 1.604412124e-02, 1.873327047e-02, 8.908815682e-02, 2.045346797e-01, -2.297024131e-01, -4.166787565e-01, -1.718546897e-01, -2.432244122e-01, -2.727387547e-01, 2.336138338e-01, 1.699705720e-01, 7.068955898e-01, -1.879416704e-01, -4.136644900e-01, -2.592455447e-01, 2.718521953e-01, 5.863907933e-01, 6.919279099e-01, 2.323404849e-01, 1.523544788e-01, 5.080233216e-01, -7.126487494e-01, 1.543850303e-01, 3.760273755e-01, 1.584856212e-01, 2.573891282e-01, -1.962430328e-01, 3.956599236e-01, -1.386769652e+00, -5.984451622e-02, 4.662451334e-03, -5.591051579e-01, -1.921587735e-01, -3.134851754e-01, 3.336106837e-01, 1.727489829e-01, -1.558622569e-01, 3.838858306e-01, -7.529609203e-01, -4.582535326e-01, 2.580970824e-01, 7.629404962e-02, -2.719684243e-01, 2.053438872e-01, -5.647023320e-01, 5.074925423e-01, 3.335713446e-01, 9.885921329e-02, -2.302066535e-01, 4.156498313e-01, 1.397211552e-01, -6.275656819e-01, 1.023162305e-01, -7.081239223e-01, -5.524452329e-01, -4.758246541e-01, -8.576936126e-01, -3.809053004e-01, 2.124151681e-03, -2.884959877e-01, -3.805060983e-01, 3.182833791e-01, -1.136128232e-01, 5.499748588e-01, -9.504995495e-02, -1.164185554e-01, -6.635047793e-01, -9.101960659e-01, -1.405639350e-01, -1.877355278e-01, 2.061942816e-01, 4.433006644e-01, -1.331476450e+00, -2.930086255e-01, 4.562032521e-01, -1.164458916e-01, -3.263509274e-01, -3.694208562e-01, 1.276212744e-02, 3.268592060e-01, 2.622763515e-01, 1.798363589e-02, -4.424969479e-02, -3.394372463e-01, 1.694935113e-01, 4.520529136e-02, -7.937053442e-01, -4.834418595e-01, 8.106272668e-02, 5.124003887e-01, 8.748850226e-02, -6.664900184e-01, 5.110668018e-02, 2.776668780e-02, -1.582632512e-01, 3.515651077e-02, 3.415331244e-01, -7.653895020e-02, -7.596790791e-01, -7.903865576e-01, 1.576998271e-02, 1.701397076e-02, -2.908140719e-01, -1.380218267e+00, 1.235578489e-02, -5.531952381e-01}, {1.828301102e-01, -1.319122761e-01, 3.846631348e-01, 3.081338406e-01, 2.753143907e-01, 4.759015441e-01, 1.221575812e-01, -6.630129064e-04, -4.076900482e-01, 2.417363040e-02, -1.153963581e-01, -7.924850099e-03, 3.652242720e-01, 1.529372782e-01, 2.745335102e-01, -1.362704486e-01, 1.080118716e-01, 5.413643271e-02, 7.950615138e-02, 4.261305332e-01, -1.267607808e-01, -1.910167187e-01, 1.869961023e-01, -4.409435391e-02, -1.011776477e-01, 3.804680705e-01, -2.669984102e-01, 6.189559102e-01, -5.229959264e-02, 7.010687888e-02, -2.732048035e-01, -1.363878250e-01, 6.345333159e-02, -1.432740688e-01, -4.162797034e-01, -8.565731347e-02, -7.473984361e-02, -5.272017717e-01, -9.979850613e-03, 3.200793862e-01, 2.084955871e-01, 1.471403539e-01, 5.117880553e-02, -7.572800666e-02, 1.421613395e-01, -2.489379197e-01, 1.198355481e-01, 1.569209695e-01, 3.501062393e-01, 2.851014435e-01, -1.553114802e-01, -3.403335437e-02, 1.206142455e-01, -1.951511204e-01, 1.031645834e-01, -3.228857815e-01, -1.076625511e-01, 1.151032001e-01, 3.107137978e-02, -3.008625284e-02, -3.613396883e-01, -9.484509379e-02, 1.988424510e-01, -2.292925864e-01, 2.291558683e-01, 5.243004113e-02, 2.715230882e-01, -9.260669351e-02, 3.553642705e-02, 3.470714390e-02, -3.919767439e-01, 3.387466669e-01, -4.628148973e-01, 1.915394515e-01, 1.340336800e-01, 1.002884060e-01, 5.725258496e-03, 4.967662971e-03, 5.264146924e-01, 1.820135117e-01, -3.257625103e-01, 4.947878048e-02, -2.218140811e-01, -3.078892827e-01, 1.957721710e-01, -3.720773458e-01, 2.422880754e-02, -6.632016301e-01, 1.748659611e-01, -6.855981797e-02, -6.194284558e-02, -4.235236049e-01, -1.309562922e-01, -1.502477936e-02, 3.270162940e-01, 1.889536798e-04, -2.146341354e-01, -5.384765565e-03, -2.535738647e-01, 6.553035229e-02, 5.243449658e-02, 2.912892401e-02, -5.606159568e-02, -5.209139735e-02, 2.091234475e-01, 2.012053430e-01, 9.891475737e-02, 1.458461136e-01, -3.126199841e-01, 1.126468331e-01, 3.036584333e-02, -2.188106328e-01, 4.335829020e-01, -4.265990853e-02, 1.847544611e-01, 2.229548544e-01, 3.096571751e-02, -9.310224652e-02, -3.769159317e-02, -7.301034778e-02}, {3.370115161e-01, -9.662771970e-02, 5.085102916e-01, 3.378497958e-01, 2.456374764e-01, 3.412811551e-03, 1.309433728e-01, -1.747594774e-01, -5.616289377e-02, -8.278504759e-02, -1.889115870e-01, -1.785433590e-01, 3.604354262e-01, 1.637511849e-01, -4.664549530e-01, -5.340490863e-02, -1.796687394e-02, 1.992104650e-01, 2.935985923e-01, 4.495496452e-01, 7.064345479e-02, -6.312751025e-02, -1.404531151e-01, -2.212661356e-01, -2.222226858e-01, 2.080930769e-01, -6.558235735e-02, 1.056263447e-01, -1.354960799e-01, 2.253814042e-01, -2.001468092e-01, -3.073966205e-01, 2.897576988e-01, 3.251028433e-02, 1.910127103e-01, -3.706762493e-01, 7.233778387e-02, 1.739216619e-03, -8.887277544e-02, -1.690403372e-01, 1.678904891e-01, 4.999613389e-02, 1.728918403e-01, 1.030209512e-01, 1.201705858e-01, -1.571083814e-01, 6.973100454e-02, -4.997495189e-02, -1.667790674e-02, 1.577415019e-01, 2.012983412e-01, -5.524778366e-02, 1.919160634e-01, -1.833683103e-01, 2.218576521e-01, 2.077902853e-01, 1.273653209e-01, -1.656431109e-01, -7.100909203e-02, 4.466089010e-01, -1.472648829e-01, -1.295228004e-01, -2.564199269e-01, 1.669054776e-01, 2.147392035e-01, -4.396617711e-01, 2.881127596e-01, -1.723270714e-01, 8.049052358e-01, -7.586570084e-02, -1.601433754e-02, 9.226278216e-02, 1.051177736e-02, 2.107674032e-01, -2.864601016e-01, -2.152281702e-01, 1.022613570e-01, 3.487911522e-01, 3.929107189e-01, -6.982166320e-02, -3.538486660e-01, 2.172150612e-01, 1.149796769e-01, 1.388231218e-01, -6.096544862e-02, 4.392594844e-02, 2.438353002e-01, -4.618231058e-01, -4.843919724e-02, 6.671670824e-02, 2.931872010e-01, 8.572251350e-02, -8.230908215e-02, 3.814757764e-01, 1.196089536e-01, 1.104484424e-01, -3.533326983e-01, 9.959861636e-02, -2.655281313e-02, -1.476424038e-01, -1.047892720e-01, 1.133069247e-01, -2.907448709e-01, 3.537654132e-02, 1.417192966e-01, 1.430444699e-02, -1.324841529e-01, 3.024013480e-03, 2.669948339e-01, 1.662125140e-01, -1.526311338e-01, -1.581124514e-01, -2.284205854e-01, -2.606868148e-01, -2.307691276e-01, -7.650016248e-02, 6.320825219e-02, -1.663371548e-02, -1.060814597e-02, -7.307559997e-02}, {-3.178463280e-01, -2.287636250e-01, 2.412438393e-01, -2.146596462e-01, 2.125804080e-03, 5.494964495e-02, 2.094226778e-01, 1.314917505e-01, 2.750037052e-02, -3.048115075e-01, -3.929949999e-01, 3.323395848e-01, 1.256029457e-01, 4.956519008e-01, -1.740571111e-01, 1.847745031e-01, 4.027723670e-01, 1.904689670e-01, 1.217534542e-01, -3.813721538e-01, 6.784752756e-02, 2.995362580e-01, 1.586947888e-01, -2.922761440e-01, -2.223319858e-01, 2.191409618e-01, -1.395429075e-01, 2.239262462e-01, -2.412959337e-01, -2.081983536e-01, 3.323194981e-01, 5.103486776e-01, -2.125388980e-01, 4.204897881e-01, 2.706718445e-01, 1.561838984e-01, -4.021854699e-01, -6.622450426e-03, -4.230765104e-01, -3.374498785e-01, 3.537052274e-01, 7.844445854e-02, 2.657249272e-01, 1.133630648e-01, -1.980796456e-01, -2.948939987e-02, -5.405502766e-02, -7.022540569e-01, 1.148556322e-01, -4.008414745e-01, -1.121571139e-01, -1.467322946e+00, 7.284443080e-02, -4.088280350e-02, 1.761878133e-01, -3.359492719e-01, -5.833150148e-01, -5.974176154e-02, -5.887013301e-02, -1.438895613e-01, -4.596317410e-01, 3.144582212e-01, 1.517778039e-01, 9.229796380e-02, 4.433605373e-01, 3.593289256e-01, -2.837553620e-01, -1.011717096e-01, -2.169573754e-01, -1.653949022e-01, 2.287004441e-01, 7.103234529e-02, -1.206041649e-01, -2.560980022e-01, 1.485439539e-01, 5.572119951e-01, 1.196164042e-01, 2.352162302e-01, 2.579491436e-01, -7.873671055e-01, 2.041407377e-01, -2.554728091e-01, -8.755289763e-02, 4.194306731e-01, 3.437072337e-01, 2.898800373e-01, 7.248924673e-02, 6.532525420e-01, -1.693844050e-01, 2.376233786e-01, 1.140179634e-01, 5.700204521e-02, 3.501711488e-01, -1.308127046e-01, -2.898178995e-02, 2.342422605e-01, 7.377362344e-03, -4.393609464e-01, 1.801288724e-01, 1.037354767e-01, 2.995075285e-01, 2.642673254e-01, 1.032942533e-01, -3.951973915e-01, 2.536116242e-01, 1.698195934e-01, 2.250912338e-01, -1.686764061e-01, 1.611097008e-01, 8.526420593e-02, 1.481163651e-01, -4.077341408e-02, 1.362713128e-01, -5.917223692e-01, 3.444137424e-02, 3.985090852e-01, 2.839776687e-02, -5.156831145e-01, -2.210296839e-01, -2.830136120e-01}, {-4.278421104e-01, 9.005665779e-02, 4.636862576e-01, -1.484731138e-01, -7.434193790e-02, 1.184434369e-01, 1.905752420e-01, 3.286665678e-02, 1.654826701e-01, 4.015064240e-02, -2.887496054e-01, -3.343201280e-01, -4.089829624e-01, 5.615137890e-02, -3.057543039e-01, 1.917513460e-02, 1.875078976e-01, -2.834872156e-02, -3.021714687e-01, -1.741482019e-01, 6.541778147e-02, 3.042741418e-01, 6.669458747e-02, -5.357800126e-01, -3.004259169e-01, 3.244422972e-01, -2.896019518e-01, 5.506148338e-01, -2.793505490e-01, -6.479155272e-02, -1.107745394e-01, -5.354733393e-02, 3.245405555e-01, -3.094708622e-01, 3.422816396e-01, -2.558719814e-01, -7.813503593e-02, 2.337525487e-01, 1.847832836e-02, -1.591033340e-01, -3.385311961e-01, -2.795954645e-01, -1.953407228e-01, 1.424324512e-01, 1.504082233e-01, 4.039050341e-01, 1.073429435e-01, 2.821094394e-01, 3.363597691e-01, 1.117616221e-01, -2.739204466e-01, -3.954159021e-01, -1.878560707e-02, 9.823705256e-02, -1.332726702e-02, 2.469109595e-01, -2.341192774e-02, 3.603864908e-01, 1.238821223e-01, 1.723819673e-01, 5.789755285e-02, 1.775804609e-01, -1.446154118e-01, 6.158006191e-01, 6.628741324e-02, -2.377684861e-01, 2.203426659e-01, -6.850314094e-04, -6.300572753e-01, -3.347838819e-01, 2.372792363e-01, 3.662065864e-01, 4.689952359e-02, -7.505969703e-02, -1.326002717e+00, -1.212799847e-01, 3.175228536e-01, -2.003232241e-01, 1.603881717e-01, 2.596769929e-01, -2.493508309e-01, -1.663422883e-01, 1.811137646e-01, 2.568126917e-01, 1.547667533e-01, -3.686642647e-01, -1.860652417e-01, 2.112817764e-01, 2.057653666e-01, 3.293744028e-01, -1.884723604e-01, -8.595083654e-02, 1.364631057e-01, 2.973028421e-01, 2.579255402e-01, 2.802637517e-01, -9.431932122e-02, -2.486937642e-01, -4.257042706e-01, -4.992789775e-02, -1.987084150e-01, 1.108269766e-01, 5.433780327e-02, 1.414433569e-01, -2.356778681e-01, 2.592121363e-01, 1.754209846e-01, 2.630127966e-01, 6.615706533e-02, 2.269070596e-02, -2.223968804e-01, -3.113448024e-01, 1.979964375e-01, -6.131876707e-01, 8.549734950e-02, 1.667187512e-01, 2.095944732e-01, -1.883734912e-01, -3.996835649e-02, -4.372959137e-01}, {-2.990915775e-01, 2.658100426e-01, -3.252871037e-01, 7.802842557e-02, -4.054231942e-02, -6.865382940e-02, 1.336515695e-01, 1.001162753e-01, -3.746754490e-03, 4.261489511e-01, 7.134877145e-02, -2.121482491e-01, 1.555221826e-01, 1.638094783e-01, -5.549696088e-01, 5.961567163e-01, -1.646313816e-02, 7.781817019e-02, -1.568319649e-02, 3.534017131e-02, -2.369855065e-03, 7.556626946e-02, 2.057791799e-01, -7.153839618e-02, -2.607147992e-01, -2.011849545e-02, -1.601986885e-01, -2.859212458e-01, 1.073416844e-01, -1.011378616e-01, 2.846583724e-02, -1.492673457e-01, 5.978140980e-02, 1.045834124e-01, 6.472785771e-02, -3.767363429e-01, -2.723774910e-01, 1.931036413e-01, -1.476460844e-01, 8.882259950e-03, 8.255400509e-02, 6.509566307e-02, 6.547950208e-02, 1.181780919e-01, -1.866843700e-01, 1.486164331e-01, 3.819894791e-01, 2.208614163e-02, -1.448836774e-01, -2.755076587e-01, 1.469380409e-02, -1.050465852e-01, -2.962639630e-01, 7.131016999e-02, 2.490340918e-01, -6.429376453e-02, -1.332865059e-01, -9.594387561e-02, 1.927812845e-01, 2.000137866e-01, -2.683779784e-02, -3.456985056e-01, -2.547286451e-01, 1.959421337e-01, 2.765012160e-02, -2.216423154e-01, -1.483929902e-01, 3.385743499e-01, -2.601932883e-01, 7.163984329e-02, 3.610270023e-01, -7.352240384e-02, -1.938764602e-01, -4.800231159e-01, -5.037506819e-01, -1.937853247e-01, 9.582673758e-02, -5.093868971e-01, 3.763343021e-02, -3.173634708e-01, -4.250036776e-01, 3.281995356e-01, -2.108474970e-01, 1.329086423e-01, -3.189316019e-02, -5.572938174e-02, -1.792816967e-01, -1.154519096e-01, 7.580743730e-02, 1.186132059e-01, 3.182203770e-01, -1.929986924e-01, 1.026309133e-01, -1.122289300e-01, 3.296005428e-01, 1.354197157e-03, -7.619718462e-02, 3.456434608e-01, 1.110533997e-01, 9.344729036e-02, 4.054662287e-01, 9.203507751e-02, -1.490826309e-01, -1.094213966e-02, -1.560041755e-01, -3.471715450e-01, 7.152755558e-02, 6.939709932e-02, -8.162754774e-02, -1.363361627e-01, 5.817832425e-02, -1.688537002e-01, 3.628884852e-01, -3.910717368e-01, 2.400874048e-01, 3.842874169e-01, -2.094204724e-01, 1.946913749e-01, -3.388101235e-02, -2.298803926e-01}, {2.797600925e-01, 3.105864674e-02, 2.268984020e-01, 2.965810597e-01, -2.753035910e-02, 2.819598615e-01, 2.105260044e-01, 1.426138449e-02, 7.431963831e-02, -1.872981638e-01, -2.156309634e-01, 2.636281252e-01, -2.018595487e-01, -1.250505447e-01, 3.618875146e-01, -1.209321246e-01, -4.146369919e-02, 8.305496722e-02, -2.826943398e-01, 9.727790207e-02, -7.463686913e-02, 2.725366652e-01, -2.698040009e-01, -1.075577587e-01, -1.351313144e-01, -1.708689183e-01, -1.795897931e-01, -3.656403348e-02, 7.098466158e-02, -6.670078635e-02, -1.535782069e-01, 2.597253919e-01, -3.287871778e-01, -1.741904169e-01, 2.573244274e-01, 9.181398898e-02, 1.516072899e-01, -3.074336946e-01, 8.538105339e-02, -8.834004402e-02, 4.728815556e-01, 1.613665521e-01, -5.572145060e-02, -1.510752831e-02, -1.661902219e-01, -4.314223677e-02, 1.596658826e-01, 1.166462302e-01, -8.440629393e-02, 1.286409199e-01, -1.578188986e-01, 3.180017173e-01, 1.681853086e-01, -2.365589738e-01, -2.263908535e-01, 2.054089457e-01, 2.124188840e-01, -3.389909863e-02, 1.681476384e-01, 1.108553186e-01, -1.344261318e-01, -1.367409974e-01, 6.182947755e-02, 9.363756329e-02, -3.944976926e-01, -1.081165597e-01, 1.664768755e-01, 3.616946340e-01, 1.875554472e-01, -2.099853456e-01, 3.597560823e-01, 2.986519337e-01, -2.904454172e-01, -9.257761389e-02, -1.654776186e-01, -3.365871012e-01, 7.073207200e-02, -1.053709760e-01, -2.322658598e-01, -5.142151564e-02, 2.131143957e-01, 3.201025426e-01, -1.337388530e-02, -9.146945551e-03, 2.507907450e-01, -2.245404273e-01, 1.616360098e-01, 1.843503118e-02, -6.455253810e-02, -5.264109001e-02, 2.376231849e-01, -4.442575201e-02, -6.995281577e-02, 1.066424921e-01, -2.630818449e-02, 1.629461646e-01, 4.004987478e-01, 1.115234792e-01, -9.751144052e-02, 5.024314672e-02, 6.668290496e-02, 2.422182262e-01, 3.269686699e-01, -1.748285443e-01, -2.282990366e-01, -5.299220234e-02, 6.580138206e-02, 4.398086071e-01, -1.328438222e-01, -1.431770921e-01, 1.186152995e-01, -3.178634122e-02, 5.419289693e-02, -7.137487829e-02, -2.681335509e-01, -1.740069091e-01, -4.070031643e-02, -1.417163759e-02, 1.630161852e-01, 1.706799269e-01}, {-6.698939949e-02, 1.406965405e-01, -9.501014650e-02, -7.778402418e-02, -1.492214352e-01, 2.509545088e-01, 3.612013161e-02, 1.123283729e-01, -2.943978906e-01, 8.858254552e-02, 9.983729571e-02, -3.551088870e-01, -1.463534683e-02, -1.526708007e-01, -3.707078397e-01, -5.176858902e-01, -2.010217458e-01, 2.564399540e-01, -2.116227150e-01, -2.920583189e-01, 1.225625053e-01, -4.297553897e-01, -4.066585898e-01, 2.074647993e-01, -4.507054985e-01, -1.768807769e-01, 1.758346856e-01, -1.259040534e-01, -9.087761492e-02, -2.778888643e-01, 6.318094581e-02, 2.620469332e-01, 8.932550997e-02, -3.987670317e-02, -1.157728210e-01, 3.492480516e-02, 6.954735518e-02, 5.194334388e-01, -1.047752947e-01, -1.480724476e-02, 5.248830840e-02, 8.281602710e-02, 3.038459122e-01, 1.753888577e-01, 2.304855436e-01, 2.643982172e-01, 1.094221845e-01, 7.378184795e-02, -5.243310705e-02, 3.571776673e-02, -1.512934566e-01, -3.706738055e-01, 2.596746981e-01, -3.018859029e-02, -3.489661515e-01, 3.449241519e-01, -1.154667586e-01, -1.921606362e-01, -8.830612153e-02, -8.251317777e-03, -7.635784149e-02, 5.181115866e-02, 3.187336624e-01, 1.477292329e-01, 6.284735352e-02, -3.238740563e-02, -1.151084155e-01, 4.121378437e-02, 4.935550690e-02, -6.284425617e-04, 7.870190591e-02, 2.542366385e-01, 5.044718385e-01, -8.324831724e-01, -2.189120948e-01, -7.724651694e-02, -9.617983364e-03, -2.156328969e-02, 9.762591869e-02, -1.964111775e-01, -1.379050612e-01, -4.713934287e-02, -5.602846146e-01, -9.752286226e-02, 6.112568825e-02, -2.134141028e-01, -6.338363141e-02, 5.524265021e-02, -3.427601159e-01, -1.238631904e-01, -1.326164156e-01, 4.253064469e-02, 2.598149478e-01, 1.529591680e-01, 4.657225013e-01, 6.008072942e-02, -1.342113912e-01, -2.354918420e-01, 3.388373926e-02, 7.389520109e-02, -3.898198530e-02, -3.496772051e-02, 2.077280283e-01, 1.452683955e-01, -1.947859675e-02, 2.174804658e-01, -2.072819322e-02, -1.821493357e-01, -1.656242311e-01, -7.324845344e-02, -2.606776655e-01, 3.526237234e-02, 1.696777344e-01, 3.324704468e-01, -2.098215073e-01, -2.771165967e-01, 2.274463028e-01, 7.663314044e-02, -3.030918241e-01, 1.627319008e-01}, {1.345711946e-01, 3.464303911e-01, -5.553068519e-01, 3.212749064e-01, 3.102192655e-02, -6.625692546e-02, -5.478289723e-01, -1.028198600e-01, -1.242263094e-01, -1.458300501e-01, -3.614102602e-01, 3.654228449e-01, 1.771110147e-01, -1.560534835e-01, 3.751373887e-01, -3.709553182e-01, -1.005747840e-01, -6.568254530e-02, 1.028802916e-01, -1.317763031e-01, 3.986579776e-01, -1.379792690e-01, -2.956693172e-01, 2.407583594e-01, 1.481793821e-02, 7.641868293e-02, -3.542105108e-02, -5.132882670e-02, 2.331462055e-01, -3.318476379e-01, -1.034046412e-01, -1.736534834e-01, 6.432686001e-02, -2.176943421e-01, -3.676256835e-01, 3.092333972e-01, 3.002163470e-01, -3.928145468e-01, -5.647952110e-02, -3.141100705e-01, 1.538681984e-01, -5.034909248e-01, 5.248169899e-01, -4.833071232e-01, 3.621382415e-01, 1.821444929e-01, -4.143740982e-02, -8.166819066e-02, -7.210342586e-02, 3.240382671e-01, 1.168942079e-01, -1.969741285e-01, 2.980902791e-01, 2.200078219e-02, -4.298411012e-01, 1.972182095e-01, -2.703895271e-01, 4.964269698e-01, 9.692210704e-02, 1.387779713e-01, -4.012515545e-01, -9.176241234e-03, 8.128664643e-02, 3.934950233e-01, 1.545838080e-03, 1.475716941e-02, -8.482573926e-02, 4.373508096e-01, -1.822388917e-01, -1.492988467e-01, -2.201799303e-01, 6.088291109e-02, 8.458521962e-02, -2.103009224e-01, 4.108690470e-02, 6.333626807e-02, -6.894209981e-01, 2.092248388e-02, 9.834154509e-03, -1.888383627e-01, 7.229395956e-02, -3.281636909e-02, -4.311957657e-01, -6.142649651e-01, -7.526796311e-02, -1.049066186e+00, 1.874903291e-01, 4.448576644e-02, -9.273013473e-02, -3.040975928e-01, -4.648678899e-01, 4.671507478e-01, -2.710756361e-01, 1.557513922e-01, -1.814369112e-01, 1.453462839e-01, -1.021774486e-01, -1.351560205e-01, 3.617403209e-01, -6.160476804e-01, 4.407501966e-02, 1.232693121e-01, -1.684234440e-01, 1.350664198e-01, -2.955502570e-01, -2.219382823e-01, -4.990072921e-02, -1.064109579e-01, -5.570256710e-02, -4.009255767e-02, -2.936068177e-01, 2.425407916e-01, 2.990110517e-01, 2.392003983e-01, -3.824630678e-01, 1.002778709e-01, 1.968323439e-01, 4.355074167e-01, -1.855602711e-01, 2.884403467e-01}, {-2.028747648e-01, 2.315494120e-01, 6.984333694e-02, 2.209792845e-02, 7.258864492e-02, 8.199034631e-02, 1.890464723e-01, -1.039162800e-01, -8.898179978e-02, 1.485126000e-02, -2.185590267e-01, 4.967180789e-01, 1.506015807e-01, -4.466066062e-01, -1.864447445e-01, 3.118762970e-01, -1.475763172e-01, 4.574730694e-01, 1.492792461e-02, -2.081949860e-01, -1.793074906e-01, -1.079253256e-01, -9.594430327e-01, 2.821342945e-01, -2.084434479e-01, -1.970802695e-01, 1.419053525e-01, 1.619866937e-01, 2.171618342e-01, 1.231438220e-01, -2.417537868e-01, -6.922331452e-02, 4.059756640e-03, 6.216415204e-03, 2.840038240e-01, -2.944093943e-01, -2.680635154e-01, -7.353945374e-01, -2.160173357e-01, -1.329335213e+00, 2.408941686e-01, 2.574416995e-01, -4.270611405e-01, 2.852935791e-01, -1.600998342e-01, -2.623808943e-02, 3.239397332e-02, 1.858480088e-02, 1.908351332e-01, 2.897625864e-01, -3.594344109e-02, 5.745733157e-02, 1.254655123e-01, 1.891100854e-01, 1.389129013e-01, -3.486466408e-02, 2.208846807e-01, -7.413623482e-02, 3.355550468e-01, 8.820617944e-02, -1.318816096e-01, -4.178823233e-01, 8.531234413e-02, 1.818474978e-01, 2.306329906e-01, 4.614563882e-01, 3.012154698e-01, 3.817529380e-01, 1.105375290e-01, 2.151956558e-01, 2.117159516e-01, 1.928569190e-02, -3.127426505e-01, 8.129537851e-02, -3.007452786e-01, 1.512808055e-01, -3.858613372e-01, 1.460137367e-01, 1.383895427e-01, 3.035963885e-02, 1.682724059e-01, 1.216189414e-01, 3.619123697e-01, 7.849784940e-02, 9.854243696e-02, 9.685134143e-02, 4.390236735e-01, 6.793998927e-02, -1.042594910e-01, 1.381012648e-01, -4.204695672e-02, 1.395815909e-01, 2.399449237e-02, 2.169619203e-01, -4.730630200e-03, -9.144347161e-02, 2.898246944e-01, 4.817697778e-02, -1.416209638e-01, 1.781014949e-01, -1.436918881e-02, 2.572524548e-01, -2.182426117e-02, -6.485935301e-02, -6.120520830e-01, 6.149324775e-02, 3.698581159e-01, 1.189527381e-02, 3.671059310e-01, -5.496624112e-01, -2.676414251e-01, 2.125939727e-02, 1.217915416e-01, -5.357328057e-02, -3.613437712e-01, -1.213912964e+00, 4.670080170e-02, 6.583249569e-02, -1.162214875e-01, 7.144204527e-02}, {3.680106997e-01, 1.597569585e-01, -1.467748284e-01, -2.015490681e-01, 2.439394593e-01, -6.388116628e-02, -1.603622804e-03, 2.195841260e-02, -1.747782975e-01, -2.697860897e-01, 1.034123525e-01, 3.413975239e-02, -1.878908426e-01, -2.650792710e-02, -1.781010479e-01, -1.575485766e-01, -2.002691031e-01, -2.774205804e-02, -2.183715552e-01, 9.804428369e-02, -1.992699318e-02, -1.026434526e-01, -1.276960671e-01, 2.183783948e-01, -3.660134077e-01, -1.950227655e-02, 5.890092254e-02, 8.143891580e-03, -2.849840559e-02, 1.421532482e-01, -1.816292852e-01, 1.579192728e-01, -2.548078895e-01, 9.295822680e-02, 1.071945578e-01, 7.670767605e-02, 4.631493986e-01, -1.428024322e-01, -1.995564401e-01, -3.071188629e-01, -4.948307201e-02, -4.366726577e-01, -3.545001149e-01, 2.946208417e-01, -6.714647263e-02, 2.664829493e-01, -3.253367543e-01, 2.363983840e-01, -7.116917986e-03, 1.626941115e-01, -4.212947935e-02, -3.818682432e-01, -3.010590374e-01, -2.771028280e-01, -5.697085261e-01, -5.624836683e-02, -3.786586523e-01, -3.231387958e-02, 1.637780517e-01, -2.601913810e-01, -2.195986658e-01, -9.925831109e-03, -3.272401392e-01, 3.170375228e-01, -1.403552443e-01, 2.064248314e-03, -1.604720652e-01, 3.185621202e-01, 1.944847256e-01, 4.209483042e-02, 1.231731698e-01, 1.670413613e-01, 2.043132931e-01, 2.291260362e-01, 1.245050579e-01, 1.649176478e-01, 1.734265685e-01, -3.529140726e-02, 1.459652185e-02, -2.731096447e-01, -1.514221262e-02, -4.565745592e-01, 9.861139953e-02, 1.861168742e-01, 4.454956651e-01, 2.571660280e-01, -8.583019376e-01, -2.294680327e-01, -1.590082645e-01, 8.188838512e-02, -1.056639329e-01, -2.868715823e-01, 3.247689828e-02, -2.625917196e-01, 4.865787923e-02, -8.928728849e-02, -1.890164614e-01, 1.932362653e-02, 1.840359718e-02, 1.801995039e-01, 3.300772607e-01, 1.293161362e-01, 6.415699422e-02, -6.757854018e-03, 7.536459714e-02, -2.243876010e-01, 5.865037441e-02, -1.506004632e-01, -1.400506794e-01, 1.352360249e-01, -1.643942595e-01, 2.358973026e-01, 1.402666271e-01, 9.314923733e-02, -4.117892981e-01, 2.271412313e-02, 1.012987271e-01, -2.309598178e-01, -1.159651354e-01, -1.890009791e-01}, {-5.018927529e-02, -9.763386846e-02, -5.592001975e-02, 8.160872757e-02, -3.082320690e-01, -7.512888312e-02, -7.983946125e-04, 3.057042658e-01, 3.208176792e-01, 1.274426728e-01, -1.394884586e-01, 1.155068353e-01, 2.913501859e-01, -1.720117480e-01, -3.504903018e-01, -2.076940686e-01, 1.126599759e-01, 2.034192830e-01, 1.486643851e-01, 9.373791516e-02, 3.169363439e-01, 1.438335627e-01, -1.516858488e-01, -1.062860936e-01, -6.558961421e-02, -3.306333125e-01, 6.500201672e-02, 2.702516913e-01, 2.296763211e-01, -1.530743837e-01, 3.834278882e-01, -1.700111032e-01, 3.075316250e-01, -3.864385188e-01, -1.862767711e-02, 2.165955603e-01, 1.672417372e-01, 1.701917313e-02, -8.331133425e-02, -2.197258025e-01, -6.474763155e-01, 1.561781615e-01, 4.288427904e-02, -1.416600496e-01, 1.290737242e-01, 2.824846283e-02, -1.046181843e-01, -2.356856465e-01, 7.142376900e-02, 1.765644252e-01, -1.751418710e-01, -7.614570111e-02, 2.109362632e-01, -9.693018161e-03, -1.873807907e-01, 1.422007680e-01, -2.760354578e-01, -2.939011157e-01, 2.697784007e-01, 4.703229666e-02, -1.236087233e-01, -1.890594959e-01, 2.263002992e-01, -1.506695058e-03, -1.019888148e-01, -5.539774895e-02, 2.722317278e-01, 2.327626944e-02, -4.371758550e-02, -3.036151528e-01, -2.901903093e-01, -1.898210943e-01, -9.246348590e-02, -3.718198836e-01, -1.062377840e-01, -5.262810737e-02, -4.935278371e-02, -1.168503165e-01, 3.165818155e-01, 1.032907665e-01, 5.717452168e-01, 1.342611611e-01, -3.396149278e-01, -3.749533892e-01, 1.626830176e-02, -4.677220881e-01, 1.391313225e-01, 1.111640711e-03, 4.572956860e-01, 2.522831857e-01, -6.419149041e-02, -4.390045255e-02, 1.876198649e-01, 1.494199783e-01, 4.124325514e-01, -5.410088599e-02, -1.130346861e-02, -2.453940362e-01, 5.915143341e-02, -2.613835931e-01, 7.784936577e-02, -1.264698356e-01, 8.797065169e-02, 5.129395053e-02, 1.200099438e-01, -5.318052694e-02, 1.952838302e-01, -2.117062062e-01, -2.898929715e-01, -1.455419809e-01, -8.093936741e-02, 4.125494882e-02, 7.039939612e-02, 1.899934858e-01, -2.041880190e-01, 3.000727482e-02, 2.599734664e-01, 8.503193408e-02, -7.821379602e-02, 6.726343185e-02}, {4.364631139e-03, 9.079103172e-02, 1.174607575e-01, 2.149881423e-01, 1.247611716e-01, 1.116431803e-01, 8.994963020e-02, 1.656979918e-01, -3.485082835e-02, 2.617621422e-01, 1.666040570e-01, -2.212192863e-01, 2.415156811e-01, 2.100791931e-01, -7.781452686e-02, -7.378625870e-02, 4.782368615e-02, -1.706995815e-01, 2.079998329e-02, -7.465400267e-03, 1.541772299e-02, 4.578176141e-02, 3.319143057e-01, 2.174850404e-01, -6.982115097e-03, -8.848354965e-02, 5.767998472e-02, 3.762220591e-02, 1.262147725e-02, 2.515451014e-01, -1.152177155e-01, 1.384451985e-01, 1.090818737e-02, -2.183995098e-01, -9.620752186e-02, -3.081901371e-01, -5.613338202e-02, -5.091252327e-01, 1.110594813e-02, 2.876782119e-01, -1.184794009e-01, 1.896457165e-03, 1.005049795e-01, 9.065027535e-02, 2.646940574e-02, 6.032600626e-02, -2.603217065e-01, -9.884690493e-02, 1.232754588e-01, 2.576979101e-01, -3.235227168e-01, 5.645640567e-02, -2.157118767e-01, 1.354296058e-01, -4.018335640e-01, -2.154107392e-01, -1.935359091e-01, 1.374629438e-01, -2.114960998e-01, -5.220561028e-01, 9.273367375e-02, -1.963227428e-02, -1.300074309e-01, 2.655746341e-01, 2.101729624e-02, 2.622187138e-01, -3.499047458e-01, 1.230180860e-01, 1.733288914e-01, -3.727722168e-01, 8.270709217e-02, 4.177068174e-02, -3.041068092e-02, -1.449745148e-01, 1.327695101e-01, 4.153685272e-02, 2.637064755e-01, -2.467984110e-01, 7.057774812e-03, 1.521294750e-02, -7.844363153e-02, -3.300105631e-01, -2.460784018e-01, -4.862733185e-01, -2.477435321e-01, 9.963063151e-02, -1.983104646e-01, 2.726847827e-01, 7.374731451e-02, 1.056164429e-01, -5.783143640e-01, -3.132368922e-01, -2.582849264e-01, 1.047345549e-01, -1.798372865e-01, 3.563547134e-02, -2.140429057e-02, 1.631831080e-01, -2.925627232e-01, -7.493267208e-02, 2.184146941e-01, -8.678348362e-02, -2.165056169e-01, 4.546650499e-02, -7.097869366e-02, -1.899581105e-01, 2.353635877e-01, -1.428214908e-01, 1.976472288e-01, 8.957925439e-02, 1.605682820e-01, -1.924394816e-01, 3.568746150e-01, -9.634903818e-02, 2.553572878e-02, -5.562994629e-02, 1.757773459e-01, 5.105428770e-02, 7.917278260e-02, -2.052745819e-01}, {-1.597463489e-01, 3.666478992e-01, -1.351165324e-01, -2.234005556e-02, -1.838263273e-01, 6.937186420e-02, 1.310017109e-01, 1.150496826e-01, 3.642442822e-01, -2.147347927e-01, -1.937560290e-01, 1.245025098e-01, 2.571763992e-01, -3.995465115e-03, -1.191852540e-01, 2.434952930e-02, 2.299454063e-01, 1.713945866e-01, 1.658711731e-01, 1.690873802e-01, -5.982481688e-02, -1.476632198e-03, 4.150487483e-02, -1.011673212e-01, -5.884267855e-03, 3.721637279e-02, 1.809623390e-01, -2.064409703e-01, 1.068051681e-01, -5.771352444e-03, -2.453689575e-01, -6.382020656e-03, -1.845830828e-01, -3.411408886e-02, 2.909139097e-01, -1.359206736e-01, -5.792450532e-02, -2.318816036e-01, -2.636514902e-01, -5.233109742e-02, -1.976034343e-01, -5.854724441e-03, 4.796150699e-02, 8.066042513e-02, -3.824215755e-02, 6.823600829e-02, -7.046988606e-02, -2.311449051e-01, 1.212558374e-01, 1.754562110e-01, 5.384074897e-02, -2.499403954e-01, 1.330220252e-01, -1.567933708e-01, -4.239729047e-01, -2.678894699e-01, 1.017843708e-01, -3.000110760e-02, 1.786385775e-01, -7.963421941e-02, 1.088505331e-02, -2.133727670e-01, 1.259145886e-01, 5.359832570e-02, 1.208512336e-01, 2.560064495e-01, -1.301393211e-01, 2.990820706e-01, -4.271145537e-02, -1.522051841e-01, -2.576869354e-02, -2.259763926e-01, 2.031434327e-01, -1.828629375e-01, 3.189456761e-01, 1.660341471e-01, 7.530518621e-02, -3.788733780e-01, 2.058703750e-01, -1.874241084e-01, 1.399339549e-02, 9.980247915e-02, 1.070086509e-01, -1.747009456e-01, -6.585836876e-03, 9.843653440e-02, 1.462152451e-01, 2.272711694e-01, 8.252547123e-03, -1.861826703e-02, -7.622776087e-03, -2.291879430e-02, 1.035140827e-01, 8.042969555e-02, -6.643494219e-02, -1.118018199e-02, 1.080491021e-01, -5.021565035e-02, -2.883911692e-02, 3.796653450e-01, 2.722420692e-01, 1.358457059e-01, 1.254143268e-01, -1.210496798e-01, -7.876883447e-02, 3.413761556e-01, 9.292466193e-02, 9.987359494e-02, 2.093143761e-01, 8.522868901e-02, 2.550680339e-01, 1.992683709e-01, -1.064429581e-01, 8.901651949e-02, -1.909531653e-02, 3.185543716e-01, 3.285876592e-04, -9.212475270e-02, -6.344427913e-02, -1.979720145e-01}, {-2.691303790e-01, -2.078093961e-02, -3.155802190e-01, -1.120220199e-01, 2.237360179e-01, -1.139397845e-01, -1.282382458e-01, -1.490389109e-01, 2.771921158e-01, -2.968308628e-01, -2.558551431e-01, 7.843206078e-02, -3.657310605e-01, -4.301379994e-02, -2.940940559e-01, -3.057557344e-02, 6.473122537e-02, -5.989939347e-02, -4.732039869e-01, -2.678776085e-01, -2.161140740e-01, 1.062104702e-01, -2.395409793e-01, 1.142082270e-02, -1.267349347e-02, 1.869805008e-01, -3.054171205e-01, -1.908419132e-01, 9.919008613e-02, 3.556974232e-01, 7.881699502e-02, -1.855060011e-01, 2.284717411e-01, 1.096049137e-02, 9.373327345e-02, 1.480370164e-01, 2.913497984e-01, -1.028702930e-01, -1.023828462e-01, -4.364772737e-01, -1.477227509e-01, -1.024235860e-01, -4.048964381e-01, 1.349780858e-01, -2.014446557e-01, 1.201348826e-01, 8.710377850e-03, 3.369054794e-01, -4.080897868e-01, -9.610833600e-03, -7.305298001e-02, -1.704562157e-01, -1.473243684e-01, 2.070556432e-01, 1.285486966e-01, -9.731309861e-02, -1.960446239e-01, 2.644125819e-01, -1.373364627e-01, 7.796897739e-02, -5.443997681e-02, -8.421774954e-02, 1.142398193e-01, 2.530876100e-01, 1.196808368e-01, -4.826093838e-02, -2.885427177e-01, -8.742726594e-02, -4.816154838e-01, -1.527873427e-01, -2.586351335e-01, -3.360773325e-01, -6.899732351e-02, -1.717787981e-02, 8.777571470e-02, 5.261208490e-02, 1.361244544e-02, -1.169427205e-02, -3.724813163e-01, 3.983249515e-02, 5.337440223e-02, 5.673307925e-02, 1.752731502e-01, -5.782469511e-01, 3.541415557e-02, -2.440071553e-01, 1.498603225e-01, 4.231187329e-02, 1.520991325e-01, 3.342754841e-01, -4.577105641e-01, -2.125474364e-01, 2.504512966e-01, -6.091435626e-02, 3.516147286e-02, 8.284837753e-02, 7.451663166e-02, -6.894098967e-02, -1.432304084e-01, 8.034614474e-02, -1.327591483e-02, -1.697018296e-01, 1.029651016e-01, -1.210745946e-01, -2.505558729e-01, -9.597016871e-02, -1.240455359e-01, 3.833774850e-02, 1.118860468e-01, -4.861411080e-02, 2.042040229e-01, 1.699830294e-01, 3.888825178e-01, 1.732783765e-01, -2.712426335e-02, 3.776513934e-01, -1.593332440e-01, -4.425492138e-02, 1.458234489e-01, -1.480901688e-01}, {-3.751612902e-01, -7.457007188e-03, 1.090334058e-01, -3.672063758e-04, -3.086575568e-01, -2.896255627e-02, -6.243615597e-02, -2.863045931e-01, -5.459765345e-02, 6.302317977e-02, 9.335981309e-02, 8.140271902e-02, -2.134354860e-01, -1.488311142e-01, 9.936311096e-02, 7.246384025e-02, 2.476706356e-01, 1.884877086e-01, -1.182896122e-01, -5.332890898e-02, -1.193458661e-01, 3.505705893e-01, 2.445238680e-01, -4.083607197e-01, -4.227576312e-03, 6.134069338e-02, 1.393247047e-03, 2.772473395e-01, 6.488814950e-02, 1.999412328e-01, 1.694054455e-01, -2.359557599e-01, 2.006788105e-01, -1.418469250e-01, 9.732094407e-02, -1.391255260e-01, 2.147111595e-01, -4.419127479e-02, 2.660231888e-01, -9.024445713e-02, 8.766989922e-04, 2.480756193e-01, -1.322086602e-01, 3.008330166e-01, 9.472036362e-02, -9.147492796e-02, 3.451946080e-01, -7.261167169e-01, 1.979003102e-01, 6.783365097e-05, -1.474101096e-03, -2.254650742e-02, -2.767545581e-01, -3.115240932e-01, 9.137216955e-02, -3.220055997e-02, 5.308371782e-01, -1.058256477e-01, 2.734501064e-01, 3.708177432e-02, 2.708348334e-01, -1.226042435e-01, 9.805728495e-02, -4.446556047e-02, 5.529408529e-02, -1.803293265e-02, 1.694652885e-01, 2.603002489e-01, -2.126075774e-01, -4.967749119e-03, 6.601926684e-02, -2.175463140e-01, -8.573226631e-02, -1.851755530e-01, -1.592537574e-02, 5.830961093e-02, 1.547643393e-01, -3.963860571e-01, -6.011480093e-02, 2.278243899e-01, 1.816517562e-01, -1.558497995e-01, -9.946511686e-02, 1.123362556e-01, -1.298937052e-01, -7.802841254e-03, 1.471665502e-01, -1.433981359e-01, -3.805477917e-01, 1.134697944e-01, 9.901646525e-02, 2.165007442e-01, 1.010085121e-01, 2.866523564e-01, 2.642204463e-01, 1.553205252e-01, -3.747200668e-01, 1.525328606e-01, 8.184155822e-02, 2.205593735e-01, -1.186595485e-01, 1.277884096e-01, -5.003520846e-01, 3.196152151e-01, 1.585006267e-01, 3.340196982e-02, 3.127919510e-02, -1.923223287e-01, 4.071551561e-02, 8.544490486e-02, 1.263737530e-01, -6.728620268e-03, -2.759029344e-02, -4.682629555e-02, 8.332755417e-02, 3.961249590e-01, 1.306705773e-01, -1.442285031e-01, -4.989990592e-02, -4.263938665e-01}, {1.202880368e-01, -1.663420163e-02, -3.291426301e-01, 9.962194413e-02, -7.786709070e-02, -2.995932996e-01, -5.825239420e-02, 7.281889766e-02, -3.122851253e-01, 1.138948575e-01, -5.966054201e-01, 3.081692941e-02, -8.597279787e-01, 2.024787664e-01, -3.416690230e-01, 3.569982946e-01, 1.936549544e-01, 2.706096172e-01, 2.005953640e-01, -5.320727453e-02, -3.434726894e-01, 1.953218430e-01, -6.323693693e-02, 3.410569951e-02, -3.188168705e-01, -8.348783851e-02, 1.212566942e-01, 6.073845178e-02, -4.165136516e-01, -2.911759317e-01, -1.485508680e-01, -2.358319610e-01, 1.008830313e-02, 2.666381896e-01, -1.906273514e-01, 2.880102396e-01, -7.496289164e-02, 4.333958924e-01, -3.137635812e-02, -2.445197403e-01, 1.249648631e-01, 5.612040684e-02, 1.677044667e-02, -2.944839597e-01, -4.334568605e-02, 4.961486440e-03, 2.375409156e-01, 1.684220284e-01, 5.512799621e-01, 3.310751617e-01, 5.606668070e-02, 3.365683556e-01, 1.569371321e-03, -3.292944729e-01, 1.164656831e-03, 3.065797091e-01, -9.624312073e-02, 3.667063266e-02, -3.514396027e-02, 2.961541712e-01, 1.636279523e-01, -2.687597089e-02, -8.616680652e-02, 6.247451529e-02, 2.580664158e-01, -1.866850853e-01, -1.267967373e-01, -2.141493559e-01, 2.343639880e-01, -4.449638352e-02, -1.437305510e-01, -2.140899152e-01, -3.266652673e-02, -5.848818272e-02, -3.389261365e-01, 5.677617192e-01, 6.455131620e-02, 1.181486547e-01, -2.767975628e-01, -1.551831216e-01, 7.409717888e-02, 1.460484713e-01, 2.701352537e-01, -2.398096025e-01, -1.293093115e-01, -2.977810502e-01, 7.994818734e-04, -9.244553745e-02, -7.426110655e-02, 1.434775419e-03, 5.004775524e-02, -1.829464138e-01, -1.791266352e-01, -1.295898259e-01, -1.710435301e-01, -1.074450538e-01, -7.443746924e-02, 1.068235636e-01, -3.513248563e-01, 3.433066607e-01, -4.746255651e-02, -1.916078851e-02, 8.637655526e-02, 2.000095509e-02, 2.607330084e-01, -2.077861428e-01, 7.200323790e-02, 1.154580563e-01, -2.437599562e-02, -1.698442400e-01, -2.501778603e-01, -2.006638199e-01, 5.236708522e-01, 3.536617383e-02, -1.323816925e-01, 4.162235260e-01, -2.478872389e-01, 9.477261454e-02, 4.558761790e-02, -4.295087159e-01}, {-2.399863862e-02, 1.065266281e-01, -1.319423318e-02, 2.945207655e-01, 2.729650736e-01, -1.903083622e-01, -7.708846033e-02, 3.180980086e-01, 2.119266391e-01, 4.113265872e-01, 1.259842515e-01, 3.618608117e-01, 3.702406958e-02, 3.370038867e-01, 3.283056319e-01, -1.172416210e-01, -9.268745035e-02, -5.923367664e-02, 8.445762843e-02, 2.002622485e-01, 4.172860980e-01, 4.586089030e-02, -1.866112202e-01, 1.809874475e-01, 3.628424108e-01, -2.749842107e-01, -1.079311073e-01, -4.637741745e-01, 3.514066339e-03, -1.189953685e-01, -4.040188342e-02, 6.786101311e-02, -1.359315813e-01, -7.589920610e-02, 4.061764479e-01, -7.294601202e-02, 4.538176060e-01, 4.427176416e-01, -2.396459281e-01, -1.752665453e-02, 3.890964985e-01, -2.853836715e-01, -3.456468508e-02, -7.852771133e-02, -8.346673846e-02, 1.003730968e-01, -1.135645881e-01, -3.033165932e-01, 1.032451615e-01, -1.514677238e-02, -1.065815836e-01, -4.429639578e-01, -4.110884666e-01, -2.870191932e-01, -1.575934887e-01, 4.128443897e-01, 1.061207149e-02, 1.996155679e-01, 1.843055338e-01, -2.449966520e-01, -4.653084576e-01, 5.671802536e-02, -1.240355521e-01, -3.420729935e-02, 4.742600024e-01, -3.490805030e-01, -2.809286490e-02, 2.242714614e-01, -4.664992094e-01, -7.647863626e-01, 1.864095218e-03, -1.307070702e-01, -4.821419343e-02, -2.803879082e-01, 8.549647033e-02, 6.987798214e-02, 4.120551646e-01, 2.701777220e-01, 1.125653088e-01, -2.368818372e-01, 2.750794776e-02, -2.010777593e-02, -7.468360662e-01, 2.970523899e-03, -2.426963001e-01, 5.873545259e-02, 4.636701941e-02, -5.408310145e-02, -4.257835448e-03, -1.303058416e-01, -1.839870512e-01, -1.604533046e-01, -7.140193135e-02, -1.519959867e-01, -3.096416779e-02, 2.167836130e-01, -4.759372771e-01, -6.141983718e-02, 1.831511110e-01, -1.589401066e-01, -8.144949563e-03, 2.796712518e-01, -5.471706390e-01, 2.045845240e-01, -1.683600694e-01, 1.220105216e-01, 3.376679122e-02, -2.195882052e-02, -1.217372492e-01, 2.878023088e-01, -9.025972337e-02, -2.269256562e-01, 2.805181034e-02, -1.042445973e-01, 5.683222786e-03, 5.208336115e-01, -1.657922566e-01, -1.592075229e-01, -1.979633719e-01, -8.021316677e-02}, {4.653852433e-02, -3.908308148e-01, 1.115348265e-01, -2.399080098e-01, 7.122559100e-02, 6.457027048e-02, 6.626942009e-02, -6.972280680e-04, 9.623230249e-02, -1.749051660e-01, 2.227584124e-01, -1.237170920e-01, -1.219761968e-01, -1.268123239e-01, 6.772353500e-02, 4.046364501e-02, 1.178655326e-01, 1.464290172e-01, -3.390884399e-01, 7.085176557e-02, -4.444619641e-02, 1.419826895e-01, -1.505822241e-01, -2.771814913e-02, -1.307286620e-01, 7.491433620e-01, 5.119312182e-02, 1.431717873e-01, -2.433173591e-03, 1.309670601e-02, -2.171709016e-02, 5.775462836e-02, -2.608116157e-02, 1.658198982e-01, 1.457947940e-01, 1.384359896e-01, 1.550379558e-03, -4.307069480e-01, 3.642421216e-02, 2.914391458e-01, 4.505256191e-02, -4.644148983e-03, -4.684833437e-02, 4.309738055e-02, -4.540883377e-02, -9.466376156e-02, 1.658403575e-01, 2.637425251e-02, -1.874898672e-01, 1.708727181e-01, 6.130798254e-03, 1.330520809e-01, -2.978836885e-03, -2.959331498e-03, -6.518162787e-02, -1.756829470e-01, -4.874957725e-02, 1.365978271e-01, 4.114454787e-04, -4.262819886e-02, 1.625533551e-01, -3.573083878e-02, -1.423123628e-01, 3.563743532e-01, 1.823234111e-01, -7.337747514e-02, 5.222844705e-02, -1.961234063e-01, 2.858404629e-02, -3.929145262e-02, 5.395849794e-02, 2.332467027e-02, -1.439310759e-01, -1.503870077e-02, -1.020191535e-01, 2.175177485e-01, -9.442827106e-02, -1.290180534e-01, 1.192952394e-01, -3.374267220e-01, 1.788213998e-01, -1.133425161e-01, -3.243643343e-01, 2.822013199e-01, -5.238464102e-02, -1.505481824e-02, 2.689458430e-01, -1.179378182e-01, 9.025813639e-02, 5.749145895e-02, -4.644950107e-02, -9.071049839e-02, 7.808040362e-03, -1.571232267e-02, -2.520034276e-02, -1.745135188e-01, -2.786569670e-02, -1.323320568e-01, 7.341420650e-01, -1.021707430e-01, 1.160770059e-01, -8.590269834e-02, -1.120754704e-01, -1.591292620e-01, 5.351810530e-02, -1.011258587e-01, 1.638276130e-01, 3.046985567e-01, 1.692780703e-01, -2.315568030e-01, 3.219361650e-03, 1.033190116e-01, 3.709309101e-01, 3.826010600e-02, -7.291696221e-02, -1.461419761e-01, -2.956343442e-02, 8.618708700e-02, -7.078667730e-02, 2.135848403e-01}, {-1.617541462e-01, 1.205294058e-01, 4.904036224e-01, 2.135336995e-01, 1.832582206e-01, 5.903615803e-02, -2.126911581e-01, -1.274623126e-01, -1.346530914e-01, 6.253612787e-02, -2.746224105e-01, -2.361582667e-01, 6.289808750e-01, 2.272946090e-01, 3.890955122e-03, -9.291501343e-02, -1.533747166e-01, 9.850330651e-02, -7.172184438e-02, 1.948314160e-01, 3.211834729e-01, -6.212528422e-02, -7.393496484e-02, 1.605818272e-01, 1.586961150e-01, 3.162223399e-01, -2.378491610e-01, 2.863669097e-01, -2.717343271e-01, -7.482399046e-02, -6.202288270e-01, -2.228628658e-02, 2.823198400e-02, -1.499910057e-01, 1.308618188e-01, 3.084726334e-01, 4.973199069e-01, 4.361388087e-01, 2.377680242e-01, 3.844901621e-01, -3.376519084e-01, -5.130974650e-01, 1.055295244e-01, 8.684507012e-02, -3.349957755e-03, -6.128543243e-02, 1.871020496e-01, -2.073643208e-01, 9.339400567e-03, -1.120052263e-01, 3.356832862e-01, -1.065338552e-01, -3.178278506e-01, 3.974501416e-02, 3.244165778e-01, -1.283601671e-01, -4.732585251e-01, 3.501867652e-01, 2.314685434e-01, 1.904091686e-01, 1.781548113e-01, 3.765000403e-01, -2.749501765e-01, -1.930968463e-01, 4.478217661e-01, -1.545446664e-01, -3.017179370e-01, 1.472697854e-01, -7.446193695e-01, 4.771706462e-01, 3.660744429e-02, 1.926479489e-01, 2.181881964e-01, -6.706140935e-02, -2.815935314e-01, -1.934826374e-01, -4.813751206e-02, -1.710804850e-01, 1.610350609e-01, -5.126216449e-03, 8.456975222e-01, 1.705544293e-01, 2.230358571e-01, 8.263602108e-02, -1.799525619e-01, 1.120989472e-01, 2.614915967e-01, 8.655485511e-02, -5.849573389e-02, -1.569135338e-01, -1.173603758e-01, -3.018552251e-02, -1.299177110e-01, -1.431459747e-02, -2.257856429e-01, -9.202982485e-02, -3.005268574e-01, -1.256122589e-01, -1.159745976e-01, 1.212277710e-01, -1.413793266e-01, 2.424560487e-02, -1.867736876e-01, -2.058961391e-01, -1.381771117e-01, -6.028339267e-01, 5.705376863e-01, 5.754660368e-01, -2.285318077e-01, -1.205678843e-02, 2.234186977e-01, -2.998450398e-01, -2.821831405e-01, -5.898574591e-01, 1.742844880e-01, 4.855781496e-01, -2.934887707e-01, 7.330618799e-02, -3.588615954e-01, 3.048437238e-01}, {1.804123819e-01, 6.780560315e-02, 1.524285972e-01, 1.647411846e-02, 2.184992135e-01, -1.857089400e-01, 1.384698153e-01, 1.366201341e-01, 4.960821941e-02, -2.440242916e-01, 1.682694256e-01, 7.167797536e-02, 2.998270988e-01, -9.212721139e-02, 5.773461238e-02, 1.665806398e-02, 1.362724155e-01, 1.903811842e-01, 1.601975560e-01, -2.913208120e-02, 7.090765238e-02, 6.119751558e-02, 7.744918019e-02, 5.575034767e-02, -3.494897485e-02, -4.299090430e-02, -1.302436888e-01, -1.177844182e-01, -3.863368034e-01, -2.586811483e-01, -2.184043676e-01, 1.113204509e-01, 4.328071773e-01, -5.966784433e-02, -8.334488422e-02, -2.572055161e-01, -5.822449327e-01, -2.008406371e-01, -1.889416277e-01, -1.669204533e-01, -1.640521288e-01, 9.531833231e-02, -2.646119334e-02, 9.747616202e-02, 1.207798198e-01, 1.462613344e-01, -1.373483837e-01, 2.423064969e-02, -1.615460515e-01, 3.492593169e-01, -2.476383746e-01, -5.909685418e-02, -1.266890168e-01, -3.325398564e-01, -3.864154592e-02, -1.878546327e-01, 2.038504034e-01, 1.674913466e-01, -6.519868970e-02, -2.420854382e-02, -5.519840494e-02, -2.025145143e-01, -2.122966200e-02, 9.091832489e-02, 9.409270436e-02, -7.548201829e-02, 3.869658113e-01, 3.516803086e-01, -4.927046131e-03, 2.193098702e-02, 1.640742570e-01, -7.955780625e-02, -1.268911809e-01, 1.658444554e-01, -4.739962220e-01, 8.805058151e-02, -1.732489169e-01, 2.250490636e-01, 1.329463571e-01, -1.172109097e-01, -1.235560179e-01, -7.710553706e-02, 1.138580292e-01, -1.374824196e-01, 1.321617067e-01, -2.221843451e-01, 1.215235665e-01, -1.773038805e-01, -9.341053665e-02, 4.591529816e-02, 2.978742123e-01, -1.138644516e-01, 2.346975058e-01, 6.252226979e-02, 5.384389684e-02, -2.977229357e-01, 1.313776821e-01, -4.522134364e-02, 3.198848963e-01, -1.437250823e-01, 3.525734246e-01, 7.858327031e-02, 3.702888787e-01, -9.936821461e-02, -3.115451708e-02, -7.923688740e-02, -3.337911963e-01, -2.368561029e-01, -2.576902807e-01, 6.809564773e-03, -4.361337423e-02, -1.849547178e-01, 1.405576617e-01, 2.686791420e-01, 2.084574848e-01, 3.708417416e-01, 6.675744057e-01, -1.409761012e-01, 3.302152157e-01, 1.668861210e-01}, {-5.584886074e-01, 3.230207860e-01, -1.362816244e-01, -1.029405817e-01, -5.820527077e-01, 1.003537700e-01, 8.334977031e-01, -1.694119871e-01, 1.199493743e-02, -6.415060163e-02, -1.033726856e-01, 2.378757149e-01, 5.161315203e-02, -1.369094551e-01, -3.261379004e-01, 3.002223074e-01, 3.300621808e-01, 3.658260703e-01, -3.701490462e-01, -3.129366636e-01, -3.113862276e-01, -8.418046869e-03, 3.638548255e-01, 3.184270859e-02, 1.929570287e-01, 1.559001803e-01, 2.690147981e-02, 2.499705553e-01, -1.220036969e-01, -2.170020901e-02, -2.046940923e-01, -8.498720080e-02, -1.455468126e-02, 2.901200056e-01, 3.652011156e-01, -1.211621165e+00, -2.504891753e-01, -2.691630721e-01, 1.728012115e-01, 5.250033457e-03, 2.998322248e-01, 3.356981277e-01, 1.116225645e-01, 3.101297468e-02, -8.171281815e-01, 4.708109796e-02, 1.900259107e-01, -4.299111664e-01, -3.086413443e-01, 1.479950547e-01, 1.798022687e-01, 1.430306584e-01, -3.527056277e-01, 1.432857066e-01, 2.211413383e-01, 2.477525771e-01, 3.362506628e-01, 7.898008823e-02, -3.171075135e-02, 3.043162823e-01, 6.587529778e-01, 2.683706582e-01, 4.474869072e-01, -4.306732118e-02, 2.714614868e-01, -8.523401618e-02, 2.929363772e-02, 8.814658225e-02, -3.198271692e-01, 1.475085020e-01, 3.540975973e-02, -3.701659739e-01, -6.994435191e-01, 6.384701282e-02, -1.246125549e-01, -2.270540446e-01, 2.958860993e-01, -6.622630954e-01, -1.732487604e-02, -3.204072714e-01, 9.056667238e-02, 6.044294238e-01, -7.096908689e-01, 2.152895778e-01, 1.985709518e-01, -1.233606599e-03, -4.433685914e-02, -2.081300914e-01, -1.833165139e-01, 2.592813075e-01, 2.899800539e-01, -3.883647919e-01, 1.580501795e-01, 1.149112135e-01, 9.735813737e-02, 1.239505112e-01, -2.198584974e-01, 1.594302505e-01, -2.097779810e-01, 1.665643901e-01, 4.003825784e-01, 1.287155151e-01, 1.517131776e-01, 1.831059158e-01, 1.210673526e-01, 3.202546835e-01, -1.037367731e-01, 3.124086857e-01, -3.091602027e-01, 1.719775423e-02, 2.754390985e-02, 2.075644583e-01, -2.584220171e-01, -5.781772137e-01, -2.309252471e-01, 1.047308296e-01, -1.974969804e-01, -2.904136181e-01, 7.373360544e-02, -3.545995057e-01}, {-1.408727616e-01, 9.844929911e-03, -9.746789932e-02, 4.389067292e-01, 3.795343041e-01, 1.259516478e-01, -6.125115156e-01, 2.338328362e-01, -2.937306464e-02, -8.668346405e-01, 3.915712833e-01, -2.306124717e-01, -1.922277547e-02, 2.556962669e-01, -5.782481283e-02, -2.407570481e-01, -1.982906461e-01, 1.492136568e-01, 1.833676547e-01, 3.264979720e-01, 4.114619270e-02, -3.928277791e-01, 1.015543938e-01, -4.146368802e-01, -4.705908149e-02, -1.578073055e-01, 3.788290173e-02, -8.244581223e-01, -2.791640162e-01, -2.456949204e-01, 2.574796081e-01, -3.951590061e-01, -4.559909999e-01, -3.405676186e-01, 2.717745304e-01, 2.235354669e-02, 1.390883178e-01, 3.960904181e-01, 3.937037662e-02, -1.087408327e-02, 1.459927112e-01, 1.819867492e-01, -5.128955245e-01, -5.633360520e-02, 6.340438128e-02, -1.974311173e-01, 2.606968880e-01, -1.896751225e-01, 2.513463981e-02, 4.249786958e-02, 9.955362976e-02, -1.225657582e+00, 5.653352737e-01, 2.513676882e-01, -3.267249465e-01, -6.087797508e-02, -1.687289476e-01, 1.108725369e-01, -2.599249780e-01, 5.133296251e-01, 2.360033095e-01, 1.349924356e-01, 2.084600739e-03, -3.492646292e-02, -2.113688290e-01, 2.753191292e-01, -6.560567021e-02, -1.813182235e-01, 6.736025214e-02, 1.215143315e-02, 5.924897194e-01, -2.537901103e-01, 1.038260534e-01, -1.068414226e-01, 1.795522273e-01, 2.206233591e-01, 3.246825635e-01, -2.646631598e-01, -7.268323749e-02, -3.508358300e-01, 3.363276422e-01, 3.351576924e-01, 3.739089370e-01, -2.158334255e-01, 1.082359925e-01, 1.284628659e-01, -5.151431561e-01, 2.105325013e-01, 4.638077319e-02, -3.985024989e-01, -3.992950320e-01, -1.034098268e+00, 5.300632119e-01, -1.156984493e-01, -1.478532553e-01, 1.479950100e-01, -2.796188742e-02, -1.121088490e-01, 1.771765947e-01, -2.372442931e-02, -2.078125626e-01, 5.181261301e-01, 1.263915449e-01, 1.288470179e-01, 1.779785603e-01, 7.469736934e-01, -2.896370925e-02, -2.311880887e-01, -4.087921083e-01, 3.356366158e-01, 1.196337938e-01, 5.314815044e-01, -2.421403229e-01, -6.029007435e-01, 3.196575940e-01, 2.227867395e-01, -2.902239859e-01, -1.553420424e-01, -2.311936319e-01, 3.818208575e-01}, {7.103677094e-02, -2.540538087e-02, -9.505178779e-02, -3.444807371e-03, 1.090457663e-01, 3.541158885e-02, -1.406276133e-02, -1.042257771e-01, 8.713573217e-02, -3.528466448e-02, -2.111553252e-01, 2.125516236e-01, 4.230522364e-02, -6.186388060e-02, 7.142315805e-02, 1.268850714e-01, -5.939530209e-02, -2.426273376e-01, -9.339505434e-02, -9.951592237e-02, 5.615883693e-02, 2.911045551e-01, -1.490534004e-02, -2.758907527e-02, -2.945768237e-01, 1.584394574e-01, -7.404790074e-02, 3.465830535e-02, 4.662893340e-02, 1.270526201e-01, 3.377742134e-03, 4.836168289e-01, 2.250266820e-01, -1.101753190e-01, 1.700656116e-01, -2.656154931e-01, -3.659621254e-02, 4.398504496e-01, 7.721110433e-02, -2.796157598e-01, -1.159798354e-01, 1.749709100e-01, 1.906116754e-01, -4.745670781e-02, 8.425088227e-02, -1.525982469e-01, 2.016154081e-01, -3.189281225e-01, 3.042179160e-02, -5.300002918e-02, -8.678960800e-02, 1.852222681e-01, -2.748960257e-01, -1.492971778e-01, 7.651386410e-02, 2.309379280e-01, -7.383600622e-02, -4.334726185e-02, -1.247873381e-01, -3.508718610e-01, -3.300938308e-01, 1.164357290e-01, -5.546351522e-02, 2.193107158e-01, -2.375542652e-03, 2.405081987e-01, -3.184217513e-01, 1.284333318e-01, -1.206050962e-01, 7.148740347e-03, 6.698976457e-02, 1.418252885e-01, -1.067107841e-01, -6.981547922e-02, 7.375086844e-02, 4.633566737e-01, 1.648194790e-01, -1.858197004e-01, 9.786713123e-02, 1.393176317e-01, 1.210443303e-01, -2.010212988e-01, 1.078708768e-01, 2.611944079e-01, 3.295289576e-01, 1.224552654e-02, -7.846493274e-02, -3.864493594e-02, 2.110720575e-01, 1.300092973e-02, 1.593166739e-01, -1.581310644e-03, -2.859897353e-02, 4.075577557e-01, 1.782924831e-01, -3.374803662e-01, 7.157039642e-02, 2.709740996e-01, -1.017365977e-01, -8.891665936e-02, -1.236555576e-01, 9.373461455e-02, -1.132182702e-01, -7.134061307e-02, -3.267488629e-02, -1.152809486e-01, 1.203576382e-02, 4.920840561e-01, -1.163712889e-01, -4.751427472e-02, -1.204858944e-01, -9.568982571e-02, 1.583458036e-01, 5.767367408e-02, 2.058135569e-01, -4.384239018e-01, -4.741985351e-02, -3.995404392e-02, -7.552133501e-02, 1.183777824e-01}, {1.226725355e-01, -8.087435737e-03, -2.688887119e-01, -2.716795541e-02, 8.952013403e-02, -1.293915957e-01, -7.534972578e-02, 1.374159902e-01, -3.135927916e-01, 4.976477474e-02, -1.710586399e-01, -1.258922555e-02, 7.918962091e-02, 1.677679718e-01, -3.779848218e-01, -6.811826024e-03, -3.104889989e-01, -2.718770206e-01, -9.440949559e-02, -3.893754780e-01, -4.849196076e-01, -1.644762307e-01, -3.485857546e-01, 2.306489944e-01, -1.457351744e-01, 1.377660185e-01, -3.552496731e-01, 1.016272604e-01, 2.503609657e-01, 5.042305589e-01, -1.159489453e-01, -1.309615225e-01, 1.368127912e-01, -2.743341029e-01, -2.050270438e-01, -5.876350030e-02, -1.263773739e-01, -7.183001041e-01, -2.414339595e-02, -5.713466406e-01, 1.871918328e-02, 1.400298439e-03, -4.579827189e-02, -2.094849758e-02, 3.498136401e-01, 1.532344371e-01, -1.514744610e-01, -1.895702630e-01, -2.363499403e-01, -2.920293212e-01, -1.116854101e-01, -1.332845092e-01, 9.301967919e-02, 5.289158225e-02, 2.732623816e-01, -4.802831411e-01, -2.559803128e-01, -1.466455609e-01, 4.486517236e-02, -2.281777710e-01, -3.417448401e-01, 9.144206345e-02, 5.956726521e-02, 3.174455762e-01, -1.145589873e-01, 3.947649598e-01, 6.422583014e-02, 1.688139886e-01, -2.962942049e-02, -1.418627650e-01, -3.895839909e-03, 1.927969754e-01, 1.754704714e-01, -8.746766299e-02, -5.292992666e-02, 8.157880604e-02, -2.023765892e-01, 1.571388841e-01, 1.348392572e-02, 3.183040023e-02, -3.863732144e-02, -1.526460648e-01, 1.630380899e-01, 3.359890357e-02, 4.919405282e-02, 3.641779721e-01, 2.731472626e-02, -4.764886107e-03, -5.489261448e-02, 1.905310154e-01, -3.416006267e-02, 4.175284877e-02, 9.432969987e-02, -3.213621094e-04, 1.255768389e-01, 1.091545373e-01, -9.853240848e-02, -1.288628429e-01, -6.580633670e-02, 1.070371717e-01, -2.526266873e-01, -1.012618020e-01, -6.852703094e-01, 8.407644182e-02, -2.520176172e-01, -1.320457160e-01, -1.890892535e-01, 1.664070636e-01, 4.466834366e-01, -6.644806862e-01, 5.754754320e-02, 