#include "nn_parameters.h"

// NN network parameters -- atribute values
const float weights_in[NUM_NODES][NUM_STATES] = {{-3.364464045e-01, 1.260533035e-01, 1.069298983e-01, 8.198952675e-02, 5.326079205e-02, -7.282781880e-03, -2.188183554e-02, -1.720634848e-01, -1.078068018e-01, -1.822894514e-01, -5.450611711e-01, -1.841351390e-01, -4.917561412e-01, 9.919906855e-01, -8.196833730e-01, 2.487564534e-01, -1.211359128e-01, -3.443248272e-01, -2.917479873e-01, 2.009881847e-02}, {5.737266541e-01, -5.926696062e-01, 6.134577096e-02, 1.547925919e-01, 5.310776234e-01, -5.526761711e-02, 5.771427155e-01, -6.686377525e-02, -8.202099800e-01, -2.578226924e-01, -5.337775946e-01, 1.668744534e-01, 1.310184300e-01, 7.556909323e-02, 2.354961075e-02, -2.405580878e-02, 5.592829362e-02, 2.337682247e-01, 9.564330801e-03, -1.723232418e-01}, {9.285871983e-01, -6.651537418e-01, 1.710515916e-01, -3.920155466e-01, 3.032334149e-01, -1.416210085e-01, 7.353843451e-01, 3.957707584e-01, -2.276186466e+00, 1.473122090e-01, 1.308881938e-01, -2.855312228e-01, 3.100986183e-01, 3.124333546e-02, -8.576598018e-02, -2.667749114e-02, -6.246089935e-02, 7.909472287e-02, -4.938077927e-02, -2.959413640e-02}, {-9.314716794e-03, 9.334700555e-02, -6.330791116e-02, -2.117096633e-01, -9.744035453e-02, 3.439168632e-02, -1.357715577e-01, 2.481353842e-02, 2.076624483e-01, -5.610606074e-01, 4.322957397e-01, -2.325308323e-02, -2.718719542e-01, -7.063763142e-01, 2.714715898e-01, 5.423731208e-01, 8.671849221e-02, -3.321738243e-01, -5.550341308e-02, 8.314147592e-03}, {4.896844923e-01, -1.728894264e-01, 1.016199812e-01, -2.069051266e-01, 8.937742710e-01, -1.046140864e-01, 7.078280449e-01, 1.453738958e-01, 5.622773170e-01, -4.060605541e-02, 2.366794348e-01, 1.827228069e-01, -5.681779981e-02, -9.030241519e-02, 1.087779775e-01, -2.508724034e-01, 7.680248469e-02, 1.506651193e-01, -3.650561869e-01, -1.036326885e-01}, {9.098367766e-03, 1.775037289e+00, -3.147016168e-01, 2.083493322e-01, -6.938729286e-01, 2.219180763e-01, -9.297689199e-01, 5.681433082e-01, 1.966384411e+00, -1.051634699e-01, 1.292699575e-01, -2.035392448e-02, -4.748003185e-02, 3.445643187e-02, 5.352185294e-02, 2.719642594e-02, -7.038577646e-02, -1.806480996e-02, -2.787046134e-02, 3.317137361e-01}, {8.859460354e-01, -9.228815325e-03, 3.440198600e-01, -1.303433925e-01, 9.631238878e-02, -2.528925836e-01, 7.959901690e-01, -3.482956886e-01, -5.729156733e-01, 5.149203911e-02, -4.923397675e-02, 6.351697445e-01, -2.810242772e-02, -1.057468206e-01, -1.393340528e-01, 1.236020997e-01, 1.194927543e-01, -6.099403277e-02, 3.657144606e-01, 2.188718617e-01}, {-1.026950359e+00, 7.601757646e-01, -7.797726393e-01, 6.044874787e-01, -1.681382395e-02, 3.945115507e-01, 4.765374959e-01, -6.604263186e-01, 4.668403268e-01, -4.133202881e-02, -3.008170612e-02, 7.879944518e-03, -1.537181996e-02, -3.935532644e-02, 2.050173283e-02, -3.633737192e-02, 4.891201854e-03, 3.439392149e-02, -2.053045668e-02, 9.106999636e-01}, {1.256664693e-01, 2.512488514e-02, -3.662413061e-01, -6.032485887e-02, -4.108264744e-01, -3.814880252e-01, 1.509982347e-01, 2.801164985e-01, 5.038800240e-01, 3.196910024e-01, 1.771446466e-01, 2.520076334e-01, -2.736500092e-02, 1.974912286e-01, -8.295439482e-01, 4.178085029e-01, 1.998270452e-01, 3.387696445e-01, 6.013700962e-01, 3.127870336e-02}, {1.078367352e+00, -1.534141302e+00, -2.607274055e-02, -1.433518678e-01, 3.994745612e-01, 2.312844694e-01, 7.360999286e-02, -2.039912939e-01, -2.219617605e+00, 4.393173009e-02, -9.942591935e-02, 1.280194074e-01, 3.004591854e-04, -5.850500613e-02, -3.903985396e-02, 5.903344601e-02, -9.416145831e-02, -2.532781847e-02, -1.201251987e-02, -6.262354255e-01}, {3.893137574e-01, -1.214466840e-01, 1.923206635e-02, -1.683303267e-01, -9.085346013e-03, -1.066940576e-01, -7.366508842e-01, 5.164217949e-01, -2.384314775e+00, -6.329299510e-02, -1.966056414e-02, -9.461396188e-02, -1.289555430e-02, 2.908826768e-01, 3.206721693e-02, -1.519018114e-01, -4.539945349e-02, 7.720547169e-02, 5.001557246e-02, -2.992374003e-01}, {7.683434337e-02, -2.405409217e-01, 1.150818840e-01, -2.508949339e-01, 1.675208211e-01, -9.861645103e-02, 4.229054451e-01, -2.205401100e-02, -1.056924686e-01, 7.366868258e-01, -9.896711111e-01, -1.663129404e-02, 1.173694655e-01, 7.116396427e-01, 3.352713883e-01, -8.585972190e-01, 4.263813794e-01, -4.584367871e-01, -5.221280828e-02, -2.710109949e-02}, {-5.302424431e-01, -1.058443189e-01, 4.185318351e-01, 6.270849705e-01, 3.554491401e-01, -6.614331603e-01, -3.179912269e-02, -4.817131162e-01, 1.658742726e-01, -2.859402215e-03, -1.411847919e-01, 8.228039742e-02, 7.515591383e-02, -2.681191638e-02, 6.434972584e-02, 1.406217963e-01, 5.125598237e-02, -7.707293611e-03, -2.905802801e-02, 1.065064147e-01}, {3.155219257e-01, -1.086161807e-01, -1.273825407e+00, 1.017217487e-01, 3.112398274e-02, 4.878595471e-01, -1.122946858e+00, 1.164784312e+00, 3.872355521e-01, -1.081230268e-01, -7.851552218e-02, 1.225094125e-02, -6.425178051e-02, 1.475450932e-03, 3.901429940e-03, -5.191703886e-02, -5.105902255e-02, 1.783417538e-02, -5.272945855e-03, -1.382817179e-01}, {-1.159034595e-01, 3.360567614e-02, 4.610504210e-02, 2.521861196e-01, 8.264872432e-02, 1.563715786e-01, -2.297751009e-01, -2.227373421e-02, 1.287064850e-01, -2.254692614e-01, 3.012333512e-01, -7.205051929e-02, -8.086746186e-02, 7.826216221e-01, 5.011865869e-02, -8.612618446e-01, -2.858349383e-01, 3.187125325e-01, -8.898948133e-02, -2.769479901e-02}, {-7.013391703e-02, 1.409391779e-02, -5.707542598e-02, 3.404844180e-02, -1.584598050e-02, 1.514632907e-02, -3.505539522e-02, 6.547041982e-02, 1.744623035e-01, 5.604859591e-01, -1.201311231e+00, 4.107925296e-02, 6.009374931e-02, 6.181844324e-02, -6.381207705e-02, -5.777535215e-02, 1.704839757e-03, 1.081582904e-01, 2.003706526e-03, 2.860698383e-03}, {7.567000389e-01, -3.507594168e-01, -1.324096024e-01, -6.815621853e-01, 3.345938325e-01, 2.461541146e-01, 6.422630697e-02, -6.575766951e-02, -1.814313531e+00, -3.227605671e-02, -2.753627896e-01, 1.819840819e-02, -4.370978847e-02, 4.648201168e-02, 6.004507467e-02, 6.434667110e-02, 2.999272896e-03, -9.884564579e-02, 2.427126281e-02, -7.886525244e-02}, {-1.436825991e+00, 1.210530043e+00, 7.388891578e-01, 7.847164869e-01, -3.692535758e-01, -8.561011404e-02, 1.630105525e-01, -2.851516902e-01, 3.266389072e-01, -4.317213967e-02, -6.025779620e-02, 6.585393101e-02, -2.316661412e-03, 8.214250952e-02, 8.901285380e-02, 2.075692266e-02, -3.307887539e-02, 2.129133558e-03, -8.726187050e-03, 9.448937178e-01}, {3.535884619e-01, 2.101479024e-01, -1.402741075e-01, 3.686233163e-01, 2.577719092e-01, -3.868040442e-01, 9.824092388e-01, -7.420273870e-02, 3.566136360e-01, 1.962182522e-01, -9.570534527e-02, 5.843101740e-01, 5.068138707e-03, -6.587497145e-02, -1.062130183e-01, 4.027658701e-01, 1.291671693e-01, -2.506420761e-02, 1.170707792e-01, 4.189417697e-03}, {2.519558370e-02, -3.897330910e-02, -5.440418026e-04, -2.019594796e-02, 2.410826972e-03, -1.256956439e-02, -1.271881908e-01, -4.470640048e-02, -1.252642125e-01, -3.585151955e-02, -7.335361559e-03, 5.562951323e-03, 2.546405554e+00, 5.344526097e-02, -7.804749999e-03, 7.717697322e-02, 1.547171548e-02, -1.420447323e-02, 3.347930312e-02, -4.129366018e-03}, {-2.417155206e-01, 1.807705611e-01, -4.682663977e-01, -1.912599951e-01, -5.006699562e-01, -5.446203798e-02, -6.700012088e-01, 3.520172834e-01, 6.254099607e-01, -3.752563596e-01, 4.366755784e-01, 2.316569835e-01, 2.748534083e-01, 3.126135767e-01, 1.407964900e-02, 5.058155861e-03, 5.816001445e-02, 7.028056681e-02, 4.595339671e-02, -4.151327908e-02}, {7.756674290e-02, -1.884262264e-02, -1.630783796e+00, -4.138640761e-01, 3.745560646e-01, 7.944531441e-01, -1.404370546e+00, 4.247898757e-01, -3.796347380e-01, 1.349077076e-01, 1.801826507e-01, 4.370040819e-02, 1.087799203e-02, -3.106823191e-02, -4.514677823e-02, -6.365303695e-02, 1.732328348e-02, 3.946511820e-02, -4.045782611e-02, -1.218305826e-01}, {-3.730399609e-01, 3.309247782e-03, -1.324845701e-01, -1.166696995e-01, 7.660002261e-02, 3.925270587e-02, -2.694059908e-01, 6.057213992e-03, 3.238694966e-01, 6.730842590e-01, 7.498351336e-01, -1.927096993e-01, -7.185249925e-01, 5.637612939e-01, 8.472955227e-01, -2.133331895e-01, -4.615757763e-01, -1.776421815e-01, -2.821270749e-02, -3.932396695e-02}, {-8.374497294e-02, 4.358985424e-01, 3.232910931e-01, -2.942593098e-01, -9.001271725e-01, -4.013887048e-02, -6.565112621e-02, -4.227569327e-03, 4.161260724e-01, 9.394973516e-02, -5.937913805e-02, 3.150469959e-01, -1.802348718e-02, 2.137449086e-01, -1.738167256e-01, -1.262418032e-01, -6.135849282e-02, 1.739517003e-01, 2.261447906e-02, 9.293507040e-02}, {7.424736768e-02, -1.833144575e-01, 2.763333023e-01, -2.754697204e-01, 1.429392993e-01, 1.950275153e-02, 8.459761143e-01, 3.724682033e-01, 1.160526425e-01, 7.771713734e-01, 1.339588165e+00, 1.760984808e-01, 1.460087895e-01, -2.495704032e-02, -3.389559984e-01, -7.470959425e-02, 1.024912000e-01, 1.046738252e-01, 7.298518717e-02, -8.605685830e-02}, {3.580220044e-01, -1.448266655e-01, -1.215062067e-01, -7.930828631e-02, -3.509956971e-02, 1.405627560e-02, 1.441367529e-02, 1.753714085e-01, 1.128710508e-01, 2.052081525e-01, 5.815599561e-01, 2.054449916e-01, 5.364423394e-01, -1.041313767e+00, 8.771629333e-01, -2.868415117e-01, 1.223953888e-01, 3.716782331e-01, 3.034513891e-01, -2.306624129e-02}, {-2.411580831e-01, 1.252665222e-01, -6.642382741e-01, 3.961734772e-01, 2.556261420e-01, 3.107995093e-01, 2.093802840e-01, -9.011336565e-01, -1.615483081e-03, 5.276970267e-01, -3.873060644e-01, -1.083508730e-01, 8.676791564e-03, -3.166288733e-01, 7.950791717e-02, 3.753097355e-01, 2.847355045e-02, -1.296464056e-01, -3.186941147e-02, 1.335240602e-01}, {1.538099647e+00, 5.168063641e-01, 6.404443830e-02, -3.366657197e-01, -3.550818861e-01, 6.413399428e-02, -1.220561266e+00, 4.071890116e-01, 1.753627807e-01, -1.433095783e-01, 9.804257005e-02, -6.547592580e-02, -7.995752245e-02, 2.068137378e-01, 3.327517956e-02, -1.640429795e-01, -1.303347498e-01, 1.062290892e-01, 2.125610597e-02, 6.154961586e-01}, {6.998628974e-01, 4.966295660e-01, -1.759163886e-01, -6.064621806e-01, -3.656879365e-01, 1.048091948e-01, -7.658760548e-01, 4.683602154e-01, -2.486295938e+00, -3.311308324e-01, 4.022787511e-01, -1.970368028e-01, -2.851971053e-02, 3.368337750e-01, -5.690182094e-03, -3.453980088e-01, -2.597948350e-02, 7.851494104e-02, 1.002280340e-01, 4.272260368e-01}, {-1.564490348e-01, -1.014240980e-01, 9.913022816e-02, 3.091119230e-01, -6.494677812e-02, 1.728735119e-02, 1.022586524e-01, -2.107899338e-01, 2.973600663e-02, -9.062214196e-02, -5.683494359e-02, -9.775017947e-02, -1.100227118e+00, 2.593358457e-01, -1.604174972e-01, 2.350213565e-02, 2.680660188e-01, 1.478517056e-01, -1.694124788e-01, -5.426381901e-02}, {1.141531229e+00, 8.900670409e-01, 1.624857932e-01, -3.510204852e-01, -3.426911235e-01, -3.742753342e-02, -1.435375571e+00, 7.118637562e-01, 2.819623470e+00, -3.667424992e-02, 6.173944473e-02, -2.385111153e-02, -1.257599145e-01, 7.272252440e-02, 3.489531204e-02, -1.462750435e-01, -1.654254459e-02, 7.028359920e-02, -3.376205266e-02, 8.632037044e-01}, {1.475190371e-01, -9.088467062e-02, -7.431374490e-02, 1.849067211e-01, -1.856239438e-01, 1.756099463e-01, 4.801032320e-02, 8.519938588e-02, -5.157684684e-01, 4.055347443e-01, 3.272438645e-01, -2.456969582e-02, 1.012478590e+00, -1.760028601e-01, -7.140703201e-01, 1.278508008e-01, 3.515569866e-01, 3.156182468e-01, -9.345266968e-02, -2.618939988e-02}, {-7.974548340e-01, -1.063181162e+00, -1.564563990e+00, 4.915819764e-01, 5.355314016e-01, 2.696895301e-01, 1.586594135e-01, 2.775775492e-01, 6.809434295e-02, 1.580668986e-01, -8.207902312e-03, 2.887035906e-01, 1.585558653e-01, -4.527501762e-02, -2.601649165e-01, 1.416430343e-02, 8.253647387e-02, 6.645229459e-02, 4.571611062e-03, 4.771130383e-01}, {9.432438016e-02, -6.517018080e-01, -1.499127597e-01, 1.075074151e-01, 2.556895316e-01, 1.674628258e-01, -5.284438841e-03, -2.715046331e-02, -9.020820260e-01, 2.794423401e-01, 1.679400802e-01, -1.223021969e-01, -4.261550307e-01, 3.672873378e-01, 2.037283480e-01, 1.497656852e-01, 3.490005434e-01, 3.120617382e-02, -8.670718968e-02, -1.975793242e-01}, {-5.148417130e-02, 1.764897108e+00, -1.683477163e+00, 1.214292645e-01, -4.706027210e-01, 3.614761233e-01, -9.762399793e-01, 5.360680446e-02, 5.109650493e-01, -1.463511586e-01, 3.163128719e-02, -1.976037957e-02, -1.182289049e-01, 1.166033931e-02, 2.517477795e-02, -1.499706209e-01, 1.258789282e-02, -3.639941290e-02, -3.192681447e-02, 9.738059640e-01}, {-3.629409969e-01, -5.841673017e-01, 1.323820651e-01, 4.446468949e-01, 5.528563857e-01, -1.747540981e-01, 8.708311319e-01, -3.733095527e-01, 1.682873249e+00, 2.387955189e-01, 2.813422084e-01, 2.475902671e-03, 4.655281007e-01, 2.623946071e-01, -3.988042176e-01, -3.561968729e-02, 8.049630374e-02, 2.177734524e-01, 3.737561777e-02, -1.224743351e-01}, {-5.127145052e-01, -4.087526351e-02, 1.352251619e-01, 3.240196407e-01, -3.762215376e-02, 6.566471606e-02, -1.889428794e-01, -2.270776033e-01, 2.190844566e-01, 3.684392869e-01, 5.986811519e-01, -3.506681621e-01, 4.809508920e-01, 2.464928180e-01, -1.678605825e-01, 1.197768152e-01, 1.228202730e-01, 1.090673283e-01, -1.287434846e-01, -7.731604856e-03}, {3.416645229e-01, 5.336806774e-01, -8.100514859e-02, -4.534386098e-01, -3.716216683e-01, 9.826570004e-02, -8.956007659e-02, 3.997276723e-01, -7.966858149e-01, -1.083987281e-01, -3.675059378e-01, -6.263850331e-01, 5.770175159e-02, -4.598663375e-02, -1.231035367e-01, 7.298620790e-02, 2.566316165e-02, 5.635389686e-02, -8.279229701e-02, 2.102390230e-01}, {6.532295942e-01, 8.417142928e-02, -6.971071707e-04, -3.092096448e-01, -2.456868254e-02, -5.245076492e-02, -1.908299476e-01, 1.616337597e-01, -1.786221862e+00, -1.911964118e-01, 1.000622883e-01, 2.503823116e-02, -2.967164852e-02, -3.165611327e-01, 2.680881917e-01, -3.829962313e-01, -1.724429131e-01, -1.907519624e-02, -4.074435830e-01, 7.710668445e-02}, {-1.314747483e-01, 1.002192125e-02, -6.413191557e-02, 9.013099223e-02, -9.800679237e-02, -6.215064228e-02, -3.845952079e-02, 6.266238540e-02, 2.866908312e-01, 1.125948548e+00, 9.895150661e-01, 7.474130392e-02, 2.481999397e-01, -5.465475842e-02, -1.395190507e-01, 9.486359358e-02, 1.533618011e-02, 9.012543410e-02, 1.312645804e-02, -5.933235213e-02}, {3.035684228e-01, -1.288724303e+00, -6.372748613e-01, -2.107005566e-01, 7.884997129e-01, 2.386771888e-01, -2.926497161e-01, 7.731069326e-01, 4.897229001e-02, -3.122371435e-01, 3.995035887e-01, -7.781957835e-02, 8.428826183e-02, 2.229149342e-01, -1.380214393e-01, -4.283581376e-01, -1.112358458e-02, 9.737516940e-02, 2.071973495e-02, -1.742829382e-01}, {-1.027450617e-02, 3.677363694e-01, 6.810925007e-01, -1.053536981e-01, -5.167372823e-01, -4.091629088e-01, -5.383033156e-01, 3.468129039e-01, -6.941461563e-01, 2.704687603e-02, -2.955970913e-02, 8.313568681e-02, 6.135841087e-02, -1.129570678e-01, 5.972725525e-02, 1.360306293e-01, 1.011169925e-01, -1.436167657e-01, -6.493008882e-02, 3.424278647e-02}, {-2.307398170e-01, -1.672645062e-01, -6.883642171e-03, 7.619460672e-02, 4.548322782e-02, 1.675887108e-01, 2.923431098e-01, -1.023985222e-01, 3.948258758e-01, -4.395153224e-01, 2.774679661e-01, 6.357084960e-02, 5.577468276e-01, 1.498095840e-01, 2.588723600e-01, 9.520380199e-02, -1.076506600e-01, 5.221263319e-02, 9.413366206e-03, -1.150072142e-01}, {1.725845188e-01, 1.524486691e-01, 5.157567859e-01, -9.030425549e-02, -7.867743820e-02, -2.638609707e-01, 2.655211091e-01, 1.164118946e-01, -4.901387170e-02, 1.668632776e-01, 2.654995918e-01, -2.487225831e-02, -1.245928645e+00, -8.672390580e-01, -1.969967037e-01, -4.092682302e-01, 1.126232594e-01, 1.017655507e-01, -8.692394197e-02, 1.959954388e-02}, {9.113057256e-01, -3.288773894e-01, 5.159687400e-01, -2.239136100e-01, 2.222530395e-01, -7.455155253e-02, 1.079748511e+00, 7.288350463e-01, -2.375491381e+00, 2.014452815e-01, 1.216170117e-01, 3.742131218e-02, 1.508376002e-01, -3.266877681e-02, -6.061874330e-03, 2.107466161e-01, 7.359835505e-02, -2.076003002e-03, -1.283247024e-01, -1.898091733e-01}, {-2.012721747e-01, -1.386510581e-01, -1.416503042e-01, 2.074715048e-01, 1.822085083e-01, -1.455803812e-01, 5.587618947e-01, -3.762807250e-01, 3.416422904e-01, 1.635053605e-01, -1.993060261e-01, -8.073064685e-02, 3.160611093e-01, -1.111060619e+00, -1.371613890e-01, 1.204087138e+00, 4.359353781e-01, -3.012730181e-01, 9.542599320e-03, 1.328689512e-02}, {-1.118382215e-01, -1.969767511e-01, 4.443199933e-02, -3.157805651e-02, 2.894025743e-01, -1.784726530e-01, 3.868122101e-01, -2.546964288e-01, 1.122683764e+00, -5.540929437e-01, 1.069109514e-01, 2.070169747e-01, -4.097420573e-01, 4.929565191e-01, 4.982101917e-01, 2.551170588e-01, -2.000000924e-01, -1.550309509e-01, 6.826421618e-02, 9.977500886e-03}, {-1.407874376e-02, -5.130625144e-02, -3.524086252e-02, 1.203888282e-01, 2.598723769e-01, -1.179038137e-01, 2.241070420e-01, 2.451482695e-03, 3.102905750e-01, -4.196691513e-01, 1.148912430e+00, -4.139339626e-01, -2.698158026e-01, 1.316695660e-01, 1.435394585e-01, -1.361125112e-01, -7.051954418e-02, -8.144401759e-02, 5.324981734e-02, 8.732100949e-03}, {-1.283882022e+00, 5.033351481e-02, -4.454730824e-02, 2.477225214e-01, -8.465477824e-02, 1.134219989e-01, 6.569601893e-01, -2.226459086e-01, -1.663780451e+00, 1.639541239e-02, 3.583374992e-02, -4.651552998e-03, 2.413109876e-02, -9.018632025e-02, 1.784152538e-02, 3.772005439e-02, 5.974105443e-04, 3.386614844e-02, 1.577024115e-03, 7.248231769e-02}, {4.303873777e-01, -9.071983695e-01, 7.379645016e-03, -8.726097643e-02, 5.239548683e-01, -1.399995387e-01, 2.931286693e-01, -1.339001536e+00, 3.285969496e-01, 2.899983227e-01, 9.710168093e-02, -1.897685528e-01, 1.335066408e-01, 8.555909991e-02, -8.610915393e-02, -2.736457624e-02, 5.804082751e-02, 8.035753667e-02, -6.793366373e-02, -7.183837146e-02}, {-3.517675400e-02, -5.307219923e-02, -1.676372625e-02, -1.621282995e-01, 1.129030138e-01, -1.085317656e-01, -1.587547064e-01, -1.591245681e-01, -4.220965132e-02, -5.021608472e-01, -4.142492115e-01, -7.848599926e-03, -8.749144673e-01, 1.963878721e-01, 6.481159925e-01, -5.241753906e-02, -3.257263303e-01, -3.895431161e-01, 7.886511832e-02, 1.298455428e-02}, {-8.228956908e-02, -1.451720893e-01, -5.948006362e-02, -1.586702317e-01, 6.562162191e-02, -7.421971112e-02, 2.836382985e-01, -5.620843917e-02, 3.125138879e-01, 4.139526188e-01, -5.814342499e-01, -1.644824818e-02, 3.518152237e-02, -6.823409200e-01, -1.155400202e-01, 8.966533542e-01, 2.362228185e-01, -2.577594221e-01, 5.492396280e-02, -1.654298045e-03}, {-9.394434690e-01, -8.483940959e-01, 1.699453890e-01, 3.427358270e-01, 1.320397139e+00, -7.496290803e-01, 2.125201076e-01, -8.142065257e-02, 1.068176031e+00, -8.859844506e-02, -1.039899662e-01, -2.114972025e-01, 2.831746638e-01, -3.287892789e-02, -1.569716185e-01, -1.388195008e-01, 4.552505910e-02, 1.289660931e-01, -2.792221494e-02, 2.037016302e-02}, {-7.173670828e-02, 2.183813900e-01, -1.072638556e-01, 2.287518382e-01, -1.443852335e-01, 7.684048265e-02, -3.802001774e-01, 1.806721091e-02, 8.424121141e-02, -6.615504026e-01, 9.088631868e-01, 1.010513026e-02, -1.097169667e-01, -6.811253428e-01, -2.938063741e-01, 7.951279879e-01, -3.762241006e-01, 4.044305384e-01, 4.263167828e-02, 2.460518666e-02}, {-5.246429890e-02, -4.758677632e-02, -1.620792300e-01, 2.366247326e-01, -1.688713133e-01, 6.157669052e-02, -1.521524638e-01, 5.854705349e-02, -7.758800872e-03, 2.906672657e-02, 2.961507738e-01, 8.489738102e-04, 6.093332171e-01, -7.227805257e-02, 6.315288544e-01, 3.516488895e-02, 2.571013272e-01, 2.744230032e-01, -5.804763176e-03, -8.262466639e-03}, {-1.868831068e-01, -1.569713056e-01, -5.381785035e-01, 1.075683162e-01, 8.148740977e-02, 2.743048370e-01, -2.745564580e-01, -1.179520190e-01, 6.158657372e-02, -1.661417633e-01, -2.863928378e-01, 2.874093316e-02, 1.252740502e+00, 8.817580342e-01, 2.115866095e-01, 4.117173254e-01, -1.261305362e-01, -9.834484756e-02, 9.091568738e-02, -2.255741507e-02}, {9.634401202e-01, -1.439425051e-01, 9.448152184e-01, -4.302237630e-01, -9.088905901e-02, -2.934329808e-01, -6.560515761e-01, -1.222427487e+00, 2.591034651e+00, -7.054464519e-02, 8.958723396e-02, -4.873567261e-03, -1.167500764e-02, 1.657853872e-01, 3.296704590e-02, -5.741844326e-02, -6.926459074e-02, 4.516675137e-03, 8.047049865e-03, 2.770976424e-01}, {9.969243407e-01, 1.464378953e+00, -1.950397044e-01, -3.584726155e-01, -6.521004438e-01, -7.912568748e-02, 1.534581780e+00, -6.735486984e-01, 1.009692669e+00, -1.794109195e-01, 7.577244192e-02, -5.726378411e-02, -3.759330511e-02, 9.356368333e-02, 8.219326288e-02, -7.406153530e-02, -5.739249662e-02, -2.226653695e-02, -7.316012867e-03, 2.310367376e-01}, {1.130872250e+00, 1.211178422e+00, -1.535135061e-01, -5.536712408e-01, -6.213697791e-01, 9.106026031e-03, -7.057248354e-01, 2.796607018e-01, -1.832238078e+00, -8.590763062e-02, -5.064016208e-02, 6.483491510e-02, -3.265241906e-02, 1.103523746e-01, 6.478233729e-03, -5.471251532e-02, -7.238766551e-02, 4.525242839e-03, -1.526747830e-02, 4.584819078e-01}, {-1.097195372e-01, -7.011293620e-02, -4.255733266e-02, 1.424465445e-03, 4.052837193e-02, -1.908016391e-02, -2.353857458e-01, 5.339825526e-02, 3.949172422e-02, 2.851100639e-02, -1.455244981e-02, 3.464277461e-02, -1.761492901e-02, -9.520555288e-02, 7.660439610e-02, 3.298996210e+00, -1.844350062e-02, -4.061073437e-02, -1.245690603e-02, -2.326888219e-02}, {-2.888081968e-01, -4.805363715e-01, 2.926588655e-01, 1.104488149e-01, 3.079775572e-01, 4.301497713e-02, -5.848950744e-01, 4.390387535e-01, 1.545850188e-01, -2.962896600e-03, 1.587394029e-01, 2.657226324e-01, -2.030120492e-01, 1.414953470e-01, -4.629812390e-02, -1.198234633e-01, -1.358539425e-02, -7.466938347e-02, 6.920810789e-02, -1.369189471e-01}, {-9.544506669e-01, 4.411810040e-01, 4.793859720e-01, 5.597280860e-01, 1.181540638e-01, -1.395175606e-01, 3.528444171e-01, 8.035970926e-01, -3.982141614e-02, 3.777395468e-03, -6.939153373e-02, 6.280417740e-02, -9.890773892e-02, -1.478187740e-01, 5.973670632e-03, 1.821080968e-02, -1.689504460e-02, -6.756740063e-02, 4.647947848e-02, 3.156202734e-01}, {1.502313614e+00, -5.438180566e-01, -9.808720946e-01, -5.818904638e-01, -1.423369497e-01, 1.021848246e-01, 5.469695330e-01, 8.416328430e-01, 6.167250872e-01, 1.309787761e-02, 5.928849429e-02, -2.012994140e-02, -6.557869911e-02, 1.574689746e-01, -3.359491006e-03, -1.085625440e-01, -5.650108680e-02, -1.814032719e-02, 4.991292581e-02, 7.357381582e-01}, {-1.120390594e-01, -2.252056263e-03, -2.263620123e-02, -7.285976410e-02, 6.643734127e-02, 8.590946672e-04, -3.443396464e-02, 8.901459724e-02, 2.883197367e-01, -9.383428097e-01, 4.668270350e-01, 2.548336685e-01, 4.126145691e-02, 2.765323967e-02, -1.499316543e-01, 3.468286619e-02, 1.024021115e-02, 8.739391714e-02, -6.505987793e-02, -7.003819197e-02}, {-2.506074607e-01, -2.378303558e-02, 1.729480922e-01, 1.794700027e-01, -1.336908340e-01, -1.783742011e-01, -1.111010835e-01, -2.406975776e-01, 2.454541475e-01, -2.950581312e-01, -3.819991052e-01, 6.366899610e-02, -1.094267070e-01, 3.091079183e-02, -5.434128642e-01, -1.064598337e-01, -2.891192138e-01, -2.548210919e-01, -6.568077952e-02, 5.236866325e-02}, {1.172346950e+00, -3.825645745e-01, 1.722180545e-01, -2.053065151e-01, 5.889766812e-01, -5.941105485e-01, 4.588633478e-01, -3.601889014e-01, -1.158153176e+00, 3.312757984e-02, 1.995701641e-01, -1.801743954e-01, 2.046747208e-01, 3.548305854e-02, -1.219164208e-02, 4.956836626e-02, 9.716606140e-02, 1.519343257e-01, -2.718252540e-01, 9.288553149e-02}, {-6.817527860e-02, 1.350989789e-01, 4.655416682e-02, -9.844079614e-02, -2.592504956e-02, -1.406398267e-01, 1.538783032e-02, -9.589166939e-02, 2.928337753e-01, 4.014366269e-01, 8.805328608e-02, 1.376558542e-01, -9.753546715e-01, 1.850860417e-01, 7.380120158e-01, -1.515245885e-01, -4.082723260e-01, -3.171792924e-01, 4.530385882e-02, 3.912742808e-02}, {-5.207652226e-02, 3.419975936e-01, -7.736375928e-01, 1.558874361e-02, -1.981569678e-01, 3.786911964e-01, -1.129668117e+00, -5.366616249e-01, 4.239408970e-01, -2.673936822e-02, -5.104026198e-01, -3.299568221e-02, -1.245180517e-01, -1.760319024e-01, 1.226070374e-01, 1.483587176e-01, 5.556497723e-02, -9.373133630e-02, 6.874916703e-02, 8.273428306e-03}, {-3.914414644e-01, -3.075157292e-02, 5.379250646e-01, 1.089564115e-01, 9.353125468e-03, -6.304710358e-02, 3.884085715e-01, -1.700827777e-01, 1.398029923e+00, -4.435823262e-01, 1.121586841e-02, 9.198722243e-02, -1.630197167e-01, 3.341103792e-01, 1.620642245e-01, -2.386171073e-01, -1.229176223e-01, 1.633908600e-02, 9.654248133e-03, -2.254807055e-01}, {-1.367192250e-02, -1.151093245e+00, 5.230509639e-01, 3.114058375e-01, 7.382030487e-01, 6.209044531e-02, 2.669027567e+00, -8.710561991e-01, -1.304248333e+00, 3.168964088e-01, -6.188837811e-02, 1.290630698e-01, 1.378001925e-02, -6.486827135e-02, -3.558407724e-02, 2.698550820e-01, 1.145409346e-01, -1.024107039e-01, 1.786033809e-01, -2.809797823e-01}, {-5.537680984e-01, 4.187172949e-01, -1.235655785e+00, 3.680254519e-01, -2.221500725e-01, 9.758037329e-02, -1.779427528e+00, 5.454108715e-01, 7.303150296e-01, -1.339919418e-01, -1.161626726e-01, -5.679121707e-03, -7.802568376e-02, 7.089054585e-02, 5.162538961e-02, -4.717292637e-02, -2.167687379e-02, -3.596328944e-02, 5.962375551e-02, 1.002880856e-01}, {3.367511630e-01, 1.036446542e-01, 5.243343115e-02, -8.100687712e-02, -4.569470882e-02, -6.134427711e-02, -8.088859916e-01, 5.744703412e-01, 1.438144326e+00, 6.746558473e-03, 9.129225276e-03, 2.092246339e-02, 1.099417638e-02, 5.745141767e-03, 1.290211175e-02, -9.844021872e-03, 1.931330375e-02, -2.030989900e-02, 4.920664243e-03, -2.206462622e+00}, {-2.324608266e-01, -1.513056159e-01, 8.144005388e-02, 2.612294257e-01, 3.736614436e-02, -1.196414605e-01, -8.104589581e-02, -2.313951552e-01, -1.803891063e-01, 4.109750390e-01, -2.392937243e-01, -1.753791273e-01, 2.442952245e-01, 3.950840533e-01, 5.483433232e-02, 6.821911931e-01, 5.884729326e-03, -1.677764207e-02, -1.117833257e-01, -1.680179499e-02}, {-2.774287164e-01, -2.537755854e-02, 1.950969100e-01, 3.480254114e-01, 1.456164122e-01, -6.751170009e-02, -1.460438967e-01, -1.802567989e-01, 5.688049830e-03, -1.706771553e-01, -1.523991078e-01, 1.900973171e-02, 2.366582155e-01, -3.190266490e-01, 1.628270894e-01, -3.008118868e-01, -2.847765684e-01, 1.341607869e-01, -2.117378265e-01, -9.897479415e-02}, {-5.510929823e-01, 6.439896673e-02, 2.011198737e-02, 3.057506382e-01, -1.430447549e-01, -2.614212036e-02, 2.975968644e-02, -2.760926783e-01, 9.917183518e-01, -5.144557953e-01, -9.410783648e-01, -4.761847854e-02, -1.216689229e+00, 3.875142708e-02, -1.839070916e-01, 2.930763923e-02, 9.229197353e-02, 1.218887568e-01, 1.943995990e-02, -7.688296027e-03}, {5.921308994e-01, -4.964607656e-01, 5.775613710e-02, -5.224418044e-01, 7.978753448e-01, 3.324531913e-01, 2.490506917e-01, 9.721876681e-02, 3.718070090e-01, -2.114156634e-01, -7.449815422e-02, -7.267274708e-02, -5.317500830e-01, -1.202662438e-01, 1.295824498e-01, -1.913630664e-01, -2.037995160e-01, -1.180440784e-01, 2.065354735e-01, 4.876874387e-02}, {-1.972513646e-01, 2.221070766e+00, 7.990358472e-01, 8.220312744e-02, -7.511877418e-01, -3.556328267e-02, -7.731407136e-02, -4.121752977e-01, 8.138311505e-01, -4.236350581e-02, 5.031253397e-02, 9.879121184e-02, 3.937489353e-03, 9.387559444e-02, -1.684918255e-02, -7.496266067e-02, -1.499105897e-02, -1.280269958e-02, 6.916833669e-02, 9.479074478e-01}, {1.346386552e+00, 2.086843997e-01, 6.612184644e-01, -9.137082100e-01, 5.075692534e-01, -6.677646190e-02, 9.407544136e-01, 3.207636178e-01, -1.527195811e+00, 3.846362829e-01, 4.975546300e-01, 1.121173725e-01, 7.123742253e-02, 3.428947926e-01, -2.257023603e-01, -1.113360599e-01, 1.267860681e-01, 1.679522991e-01, 1.240194216e-01, 1.829236448e-01}, {2.931743488e-02, -1.984180659e-01, -3.071632385e-01, -1.779285222e-01, 2.066069990e-01, 2.607069910e-01, 1.598132402e-01, 3.342315927e-02, 8.744561672e-02, 5.583168268e-01, 1.451451629e-01, 8.762670308e-02, 7.200103402e-01, -4.740487039e-02, 1.461858600e-01, 1.537550390e-01, -1.747076586e-02, -1.418585479e-01, -8.168114349e-03, -3.453608975e-02}, {8.045145869e-02, -3.539330661e-01, -2.438069880e-01, 8.481624722e-02, 5.843177438e-01, 3.503580689e-01, -1.625542492e-01, -7.858349383e-02, -5.096717477e-01, -5.872263908e-01, 3.199247420e-01, -3.146470785e-01, -2.062260658e-01, 6.807881594e-01, 3.627679348e-01, 3.791827261e-01, -4.865871072e-01, 3.668837845e-01, -2.451784015e-01, -8.661121875e-02}, {1.112901330e+00, 6.803765893e-01, -7.692894936e-01, -8.021891117e-02, -2.891486585e-01, 3.465051055e-01, -5.787317157e-01, -3.295619786e-01, -2.831354380e+00, 1.168197617e-01, 5.310495570e-02, -2.114237100e-02, -1.741608232e-02, -3.557341173e-02, 1.383308787e-02, -1.701244153e-02, 2.243059874e-02, -2.358152531e-02, -2.141354838e-03, 4.567850530e-01}, {-7.310903668e-01, 1.695894897e-01, -3.941006660e-01, 4.690677300e-02, 2.932896316e-01, -3.148398101e-01, -1.292019844e+00, 6.026178598e-01, 1.147371411e+00, 2.526214421e-01, -2.771214843e-01, 1.149282575e+00, -8.775773644e-02, 2.515953779e-01, -1.676270217e-01, 2.058708072e-01, 3.912804276e-02, 4.724420980e-02, 1.224444360e-01, -2.077877820e-01}, {-1.408436149e-01, -6.551549584e-02, -6.226325780e-02, 2.137154788e-01, -1.044680700e-01, -4.377062991e-02, -2.957038581e-01, -2.641859464e-02, -1.567032747e-02, -8.518950939e-01, -5.384248495e-01, -1.873515248e-01, 3.341750801e-01, -5.561474338e-02, -1.917211115e-01, 1.823176146e-01, 1.847619712e-01, 1.201974880e-02, -2.572957426e-03, -2.175925300e-02}, {-7.603327185e-02, -9.549261630e-02, -6.052525342e-02, 3.976942040e-03, 1.033286825e-01, 8.067189716e-03, 9.882477112e-03, 7.137632929e-04, 1.632157564e-01, -2.234833129e-02, -7.410544902e-02, 1.004902646e-01, -2.202914506e-01, 5.564872175e-02, 2.518653393e+00, 9.112349153e-02, -2.330073901e-02, -8.991631120e-02, -5.205911584e-03, -3.834478557e-02}, {5.800158381e-01, 9.163437486e-01, 1.210741997e+00, 1.091798171e-01, -6.927211881e-01, -3.817329109e-01, 7.655626535e-01, -6.752839684e-01, 9.803711176e-01, -2.173497230e-01, -2.088635601e-02, 1.325705349e-01, -8.239501715e-02, 6.203878671e-02, 1.136468351e-01, -5.353140458e-02, -5.225139111e-02, -3.325830400e-02, -3.417607769e-02, 3.112508655e-01}, {-3.930892348e-01, -5.474642292e-02, -1.630892754e+00, 2.861556709e-01, -7.659326494e-02, 3.976861238e-01, -1.704975247e+00, -8.000394702e-01, -1.289853215e+00, -3.216353804e-02, -1.094493344e-01, 1.409713626e-01, -2.504023165e-02, -1.915906966e-01, 3.893943131e-02, 3.678831458e-02, -4.027857259e-02, -8.570937067e-02, 2.075531706e-02, -7.071853429e-02}, {2.835874557e-01, 2.338974178e-01, -1.982885301e-01, -3.718726337e-01, 1.570236683e-01, -2.120434493e-01, 1.343871057e-01, -7.028987408e-01, -2.276668698e-01, 5.399437994e-02, 4.678119905e-03, -4.862889647e-02, 7.335538394e-04, -2.541674972e-01, 1.006339211e-02, 4.181680456e-02, 4.905642942e-02, -1.225868165e-01, 6.673414726e-03, -5.849769339e-02}, {-8.225084543e-01, 1.165755033e+00, -7.808063626e-01, 4.143605232e-01, -3.586156666e-01, 1.372191459e-01, 1.068010211e+00, 8.407960534e-01, 7.637561560e-01, -7.780115306e-02, -8.558756113e-02, -3.212543949e-02, -6.774421781e-02, 3.550753370e-02, 3.367475793e-02, -3.938186914e-02, 2.145462669e-03, 3.869764879e-02, 7.995341904e-03, 7.381962612e-03}, {-6.456502080e-01, -5.454027653e-01, -5.816273093e-01, 3.063930571e-01, -7.084852457e-02, 5.500482023e-02, -1.379307628e+00, -7.563019544e-02, 1.312290430e+00, -2.319946289e-01, -1.262479722e-01, 2.786966041e-02, -2.611413598e-01, 1.249786168e-01, 1.707686633e-01, -9.451461583e-02, -6.052137539e-02, -4.820899293e-02, 1.338769495e-02, -8.297522366e-02}, {1.154722646e-01, -2.141298354e-02, 8.251369931e-03, -3.509533107e-01, 9.399294108e-02, 3.231732175e-02, 3.654236197e-01, 6.637855899e-03, 1.409462243e-01, 4.655246735e-01, -2.760675550e-01, -2.166843601e-02, -1.784445792e-01, -6.500129104e-01, 1.385294944e-01, 6.291226745e-01, 1.812777072e-01, -3.279443979e-01, -6.672490854e-03, 1.239184383e-02}, {3.609428406e-01, 1.062674880e+00, 1.410360336e+00, 5.597723648e-02, -4.241620302e-01, -4.268037975e-01, 2.004750967e+00, -3.604083061e-01, 2.235684395e-01, -5.953295529e-02, 3.386741504e-02, -6.273663603e-03, -9.524101391e-03, 8.653796464e-02, 7.245875150e-02, -3.861876903e-03, -2.160210349e-02, 2.024302259e-02, -3.111002967e-02, 3.677295148e-01}, {-1.499748230e-02, 5.397764444e-01, -1.563973874e-01, 8.706328273e-02, -1.508935243e-01, 1.505946368e-01, -1.117685199e+00, -4.492906630e-01, -1.943166733e+00, -3.793103620e-02, -4.328754731e-03, -2.767251804e-03, -3.282083571e-02, 3.525125235e-02, 4.327275977e-02, -4.501762614e-02, -3.030541912e-02, -2.507129498e-02, -4.517094232e-03, -3.890077770e-01}, {4.454747736e-01, -4.435997307e-01, 1.421591997e+00, -2.396263629e-01, 1.805851310e-01, -4.989484847e-01, -8.305416107e-01, -6.784641743e-01, 2.070034295e-01, 2.255646884e-02, 9.017955512e-02, -7.281728834e-02, 8.840817213e-02, 1.102256998e-01, 4.713170230e-02, 2.903935686e-02, -8.923792280e-03, -2.181058750e-02, 4.494338110e-02, 3.735524714e-01}, {3.481457829e-01, 3.970771730e-01, -9.998709708e-02, -2.161876857e-01, -1.243050843e-01, 1.934828162e-01, 6.539736986e-01, -9.927951097e-01, 1.906963944e+00, -9.274750948e-02, -3.569304571e-02, -6.705197692e-02, -4.547838867e-02, 3.336163005e-03, -2.143633738e-02, -6.357796490e-02, -4.273254797e-02, 2.487125620e-02, 3.167884797e-02, -8.581106067e-01}, {1.632127911e-01, 3.735863864e-01, -2.203014940e-01, -9.950693697e-02, -1.437279433e-01, 9.687479585e-02, -1.144529462e+00, -3.226042390e-01, -2.309188843e+00, -2.286137454e-02, 9.392697364e-03, -2.257166989e-02, -2.364612743e-02, 4.316212237e-02, 3.086911980e-03, -7.088229060e-02, -2.127762884e-02, -1.521804184e-02, 1.877615042e-02, -2.688289881e-01}, {1.092771143e-01, -1.256876886e-01, 2.662850022e-01, -4.178957343e-01, -4.364804327e-01, -1.139074638e-01, 3.630667031e-01, 2.024372816e-01, -6.195582151e-01, -1.380055696e-01, -5.513324402e-03, 2.425481975e-01, 2.707190812e-01, -5.550986528e-02, -5.213077739e-02, -9.575878084e-02, -1.205981430e-02, 4.421543330e-02, -2.092882097e-01, -8.382008970e-02}, {-6.282776594e-01, -6.215893030e-01, -6.783441901e-01, 3.351546228e-01, 5.733501911e-01, 3.466881514e-01, 3.488833606e-01, -9.833751321e-01, 1.007673264e+00, 3.203841448e-01, -7.466565371e-01, 3.735336661e-01, -8.890607953e-01, 1.786820143e-01, 1.606634706e-01, 3.860990703e-01, -1.409487799e-02, -2.256398499e-01, 4.319612086e-01, 2.190705389e-01}, {-3.309759200e-01, 2.746807933e-01, -8.196682930e-01, 2.747833431e-01, -2.744453251e-01, 7.106492519e-01, 9.808169603e-01, 5.694738403e-02, -6.798961014e-02, -9.579765052e-02, -1.715515256e-01, 7.730767131e-02, -2.497884184e-01, -3.764737770e-02, -1.830358291e-03, -1.049972847e-01, -1.356054842e-01, -6.058581173e-02, 2.836115472e-02, -1.080361232e-01}, {-6.049819589e-01, 6.567218304e-01, 3.754898012e-01, 3.651690185e-01, -9.945814013e-01, -2.862378657e-01, -6.951092482e-01, -2.306598574e-01, 4.699066877e-01, -1.546377242e-01, -5.024083331e-02, -4.451254010e-01, -2.075291127e-01, 6.003186107e-02, 1.611348540e-01, -1.862234622e-02, -7.525137812e-02, -7.431755960e-02, 6.347686052e-02, 1.761813015e-01}, {-5.506388098e-02, 1.194267631e+00, 9.155954123e-01, 2.941160500e-01, -3.250010908e-01, -1.633848697e-01, 9.627128839e-01, 9.080725312e-01, -1.561721206e+00, -1.006716937e-01, 7.241833955e-02, 8.907459676e-02, -2.035065787e-03, 1.086356714e-01, 7.568761706e-02, 8.109190501e-03, -2.199474722e-02, 3.350739181e-02, 5.131118745e-02, 5.378614664e-01}, {-1.756988615e-01, 3.365427256e-01, 9.653685242e-02, 4.445517659e-01, -5.031275153e-01, -8.228003979e-01, -1.585918069e-01, -1.502093822e-01, -1.853905804e-02, 2.656205930e-02, -2.675712705e-01, 1.525179595e-01, -3.607332334e-02, 8.158813417e-02, 2.809827328e-01, 1.411600709e-01, 1.328564622e-02, 3.121812129e-03, 2.623110265e-02, 1.436797082e-01}, {2.982128784e-02, 1.134962320e+00, -4.223080277e-01, -2.982579637e-03, -2.952832878e-01, 1.259073801e-02, 1.271731138e+00, -4.796960652e-01, 3.392125845e+00, 2.980459668e-02, 5.949205905e-02, 1.545176096e-02, -2.948868275e-02, -2.711265162e-02, 1.190993842e-02, 4.933113232e-02, 6.188490987e-02, -5.127041135e-03, -3.519219905e-02, 3.172582090e-01}, {4.906186759e-01, -3.542688489e-01, -1.604609638e-01, -4.212790355e-02, -4.279831424e-02, -7.526614517e-02, -9.649103880e-01, -5.084117055e-01, -2.428737640e+00, -1.623006016e-01, -1.512899101e-01, -6.330544502e-02, -1.104479209e-01, 3.355863271e-03, 6.647237390e-02, 1.631203108e-02, -2.840464748e-02, 6.149016321e-03, -1.740298569e-01, 9.387759864e-02}, {1.198802888e-01, -4.260195494e-01, -3.161804006e-02, 1.697433591e-01, 6.040077209e-01, -1.126229763e-01, 1.115927935e+00, 6.232544407e-02, 4.772953317e-02, 9.497246146e-01, -4.772049189e-01, 7.738926914e-03, 6.763791442e-01, 7.970962673e-02, -4.713582098e-01, -3.680443764e-02, 1.693587750e-01, 2.798373103e-01, 9.920271114e-03, -4.610839114e-02}, {3.765300512e-01, -7.444885373e-01, -6.151151061e-01, -6.533400416e-01, -1.234996039e-02, -9.491105564e-03, -9.296295047e-01, -5.998715162e-01, -1.054030284e-01, -3.674539924e-02, 6.318508089e-02, -1.662061065e-01, 3.718604892e-02, 1.806693673e-01, 3.841694072e-02, -1.547847539e-01, -6.676452607e-02, 8.543965966e-02, -4.561811313e-02, -2.650277615e-01}, {-1.938035041e-01, -2.001447380e-01, -2.537722886e-01, 1.111420020e-01, -4.355518892e-02, -2.052456439e-01, -5.006183982e-01, -1.105448537e-04, -5.111587644e-01, -1.231687739e-01, 4.251837730e-01, -9.686552733e-02, 2.497585267e-01, 1.061234951e+00, 1.510141324e-02, 2.127394080e-01, 3.071370069e-03, 4.746028781e-02, -8.178153634e-02, 1.295603160e-02}, {-1.304512739e+00, -3.442194760e-01, -9.250445366e-01, 5.972043276e-01, 4.670080170e-02, 3.060881495e-01, -2.598054707e-01, -1.406914711e+00, -5.264227390e-01, -8.627349138e-02, -1.777302027e-01, 8.791229874e-02, -3.093479574e-02, -1.117358133e-01, 2.401509695e-02, 2.279150486e-02, 2.400233597e-02, -1.224907581e-02, 1.708622649e-02, 1.736499816e-01}, {-8.887810111e-01, -3.642535210e-01, 8.547586203e-01, 3.465158939e-01, 3.104641140e-01, -3.234696090e-01, -7.639145255e-01, 6.485610604e-01, -4.660056159e-02, 5.490421504e-02, -5.774530023e-02, 5.038901418e-02, 7.195326686e-02, -6.409648061e-02, -2.412088402e-02, 1.047031954e-01, 1.813846268e-02, -1.396612823e-02, 2.248581685e-02, 4.615178406e-01}, {2.997205779e-02, -4.795676470e-01, 1.523979157e-01, -5.236979201e-02, 1.634026766e-01, -9.480527043e-02, 1.587914824e-01, -2.249329090e-01, -1.391597688e-01, 1.035135612e-01, -2.675963342e-01, 9.619736113e-03, 1.710643172e-01, -2.266435176e-01, -4.019855857e-01, -4.157492518e-01, 1.526870877e-01, -4.046362936e-01, 2.759383917e-01, -5.168903247e-02}, {-8.412445784e-01, 1.708159447e+00, 1.144176841e+00, 4.246327579e-01, -7.963585854e-01, -1.205032915e-01, -2.317816764e-01, -6.600983143e-01, 7.958199978e-01, 5.801258609e-03, 4.921992868e-02, -6.753499806e-02, -6.472163647e-02, -3.863769025e-02, 6.836685538e-02, -8.189673536e-03, -2.706643194e-03, -3.944929689e-02, 4.164626449e-02, 8.678545952e-01}, {-4.334289432e-01, 1.213794231e+00, 2.791333795e-01, 5.071290135e-01, -9.358292818e-02, -6.382787973e-02, 2.042932063e-01, -2.554786392e-02, 1.363563933e-03, -4.345683381e-02, -1.443711221e-01, -4.050258994e-01, 2.717131749e-02, -1.891338825e-01, -1.503738482e-02, 9.808851033e-02, 7.025354356e-02, -4.474981129e-02, -8.425919712e-02, 4.551131129e-01}, {-1.455657482e-01, -6.745670736e-02, 4.472897947e-02, 1.359172463e-01, -7.829723507e-02, -1.592581570e-01, -1.162004545e-01, -2.467937954e-02, 3.171329200e-01, 2.634872682e-02, -1.341250539e-01, 1.075997800e-01, -3.361355066e-01, 6.812553406e-01, -8.322763443e-02, 5.721820891e-02, -1.586942375e-01, 2.826945782e-01, 1.908738315e-01, -6.583793461e-02}, {-8.007862419e-02, 1.984075606e-01, -1.317166239e-01, 5.412659794e-02, -1.032531634e-01, 2.301619621e-03, 4.759123325e-01, 4.459705651e-01, -1.508134604e+00, -1.420741342e-02, 3.897927701e-02, -2.376677468e-03, 4.791995976e-03, -9.416126646e-03, 1.048428006e-02, 3.567949869e-03, -1.009672042e-02, -9.960193187e-03, 1.724272594e-02, -2.245925426e+00}, {-1.571727276e+00, -9.146019220e-01, 5.855767727e-01, 4.446432889e-01, 4.782999754e-01, 1.266635954e-01, -2.891913950e-01, 5.998078734e-02, -1.358844787e-01, 7.803849876e-02, 9.533035569e-03, 1.188860014e-01, -2.433153614e-02, -1.630384773e-01, -2.231837995e-02, 7.624235749e-02, -1.908418164e-02, -2.942574583e-02, 4.622300714e-02, 5.275392532e-01}, {5.344688296e-01, 2.834514380e-01, -1.153430104e+00, -3.978115022e-01, 2.116256803e-01, 1.585646868e-01, -3.593644500e-01, -2.350167334e-01, -1.292767167e+00, 3.044641018e-01, 1.571961194e-01, -5.986434221e-02, 3.222247958e-01, -3.901701048e-02, -1.914979070e-01, 1.739488542e-01, 1.286907643e-01, 7.047358155e-02, -7.430948317e-02, -2.172102332e-01}, {-6.385403275e-01, 8.026758432e-01, 1.011568829e-01, 3.465416608e-03, -3.567514569e-02, 6.316783279e-02, -6.470246315e-01, 1.473655403e-01, 9.152171612e-01, -1.831932366e-01, -1.450914331e-02, -9.588710964e-03, -1.838326603e-01, -2.106947126e-03, 4.491305351e-01, -5.550710484e-02, -1.073506176e-01, -1.166495159e-01, -5.799288303e-02, 1.891058683e-01}, {-4.185921848e-01, 3.525721133e-01, -5.272724032e-01, -1.334635615e-01, -1.041195765e-01, -8.142405003e-02, 1.319486380e+00, 8.086127043e-01, 6.992824078e-01, -3.785469010e-02, -1.282710582e-01, -3.083214760e-01, 5.532975495e-02, -3.259710670e-01, -8.745653927e-02, 2.658578157e-01, 1.747733504e-01, -5.893458053e-02, -5.528049171e-02, -8.683577925e-02}, {-6.392924190e-01, -7.949876785e-02, 4.427675903e-01, 9.088856727e-02, -1.211754382e-01, -2.558657899e-02, -2.807884812e-01, -3.236307502e-01, 4.640324712e-01, -6.946440041e-02, -4.191479683e-01, 9.530632943e-02, -1.204724982e-01, -6.117842793e-01, -5.501894280e-02, 2.220443487e-01, 6.016740948e-02, -2.597689629e-02, 3.336310014e-02, -6.357298046e-02}, {4.015403688e-01, 1.625127643e-01, -3.557936475e-02, 7.262075543e-01, -5.284969807e-01, 4.823890328e-01, 6.272988319e-01, -1.018754765e-01, 7.460057139e-01, 7.641226649e-01, 1.899542570e+00, -7.614067942e-02, -8.144843392e-03, 1.983808324e-04, -3.377962485e-02, -2.753308415e-01, -2.592033520e-02, 9.021852911e-02, -5.510931090e-02, 1.546460092e-01}, {-2.092633098e-01, -1.429809779e-01, -2.481403761e-02, 1.345818937e-01, 1.761151254e-01, 1.413631439e-01, 5.390707254e-01, -1.862747073e-01, 6.233052015e-01, 1.908471435e-01, -3.153814077e-01, 3.712030873e-02, 5.693871528e-02, 1.499768496e+00, 1.709627658e-01, 1.860343665e-01, -1.820949838e-02, -1.573742032e-01, -9.721871465e-02, -4.775216058e-02}};

const float bias_in[NUM_NODES] = {-7.037758231e-01, 1.693845987e-01, -4.675441384e-01, -2.780766785e-01, -1.150193587e-01, -2.102421373e-01, -1.152562350e-02, 3.784589767e-01, -1.155666828e+00, 7.200435996e-01, -3.575407982e+00, -5.966917276e-01, -5.869942307e-01, -1.105329990e+00, -2.651175857e-01, -5.816371441e-01, -3.400203228e+00, -2.347260475e+00, 4.670902342e-02, -5.267608166e+00, -4.944465458e-01, 6.843720078e-01, -9.472375512e-01, -6.851652265e-01, -8.448848724e-01, 7.526972294e-01, 4.892146289e-01, -2.729357004e+00, -3.527755499e+00, -1.176301956e+00, -3.461687565e+00, -6.561959535e-02, -1.206167459e+00, 3.078878403e+00, -7.464040518e-01, 3.257424831e-01, -6.704053879e-01, -3.324308157e+00, -2.988247633e+00, 1.400382757e+00, -2.027335405e+00, -1.804989219e+00, 1.355555207e-01, -2.034343481e+00, -1.377779007e+00, -3.017311692e-01, -5.401036143e-01, -5.613480806e-01, -3.622058630e+00, -2.477548122e-01, -3.649791777e-01, 1.135706186e+00, -2.768911123e+00, 5.370813012e-01, -2.017398477e-01, 2.058514118e+00, -1.495019197e+00, 5.662977099e-01, -3.186563969e+00, -4.221302509e+00, -1.050590515e+00, -1.972236753e+00, -1.169865370e+00, -3.558088839e-01, -9.201962948e-01, -1.291481972e+00, 6.322738528e-01, -3.054773211e-01, 3.780048490e-01, -1.714430690e+00, -2.244918644e-01, -2.046038151e+00, -5.918096304e-01, 2.116286039e+00, -2.657125235e+00, -2.229766846e+00, -6.361895204e-01, 5.355560184e-01, 5.812872201e-03, -2.833019257e+00, -1.936384797e+00, -1.534561276e+00, -7.013172507e-01, -2.745524406e+00, 1.072132230e+00, -2.257950306e+00, -2.392344922e-01, 3.586640954e-02, 1.328132987e+00, 5.213603377e-02, 1.959604383e+00, -4.872258663e+00, -2.340383053e+00, -7.413321733e-02, -3.827129602e+00, 9.971644282e-01, -4.554537535e-01, -7.970119826e-03, 1.133252308e-01, -2.879448652e+00, -3.581664264e-01, 1.826876640e+00, -3.661608696e+00, -5.957069993e-01, -2.118577957e+00, -1.981633067e+00, -1.832969069e+00, -1.747788072e+00, 2.850533962e+00, -2.104174376e+00, -1.865939736e+00, 1.362908602e+00, -3.225684166e+00, -2.873005867e+00, -2.909449577e+00, -9.222672582e-01, -1.518840075e+00, -1.314404011e+00, 1.957380585e-02, -8.754425645e-01};

const float weights_out[NUM_CONTROLS][NUM_NODES] = {{-5.834889412e-01, -2.403110266e-02, 5.575025454e-03, 5.428956077e-02, -4.049945250e-02, -1.668701507e-02, 3.267961554e-03, -3.173948824e-02, 2.133610658e-03, 1.740001899e-04, 4.155791830e-03, 1.746406779e-02, 1.471580118e-01, 1.051297039e-02, 6.500009913e-03, 6.239594892e-03, 6.814552937e-03, 5.970371421e-03, 2.693288028e-02, 2.658407018e-02, -1.252392977e-01, -5.516641773e-03, 1.859417558e-02, -1.029271260e-01, 1.887273416e-02, 4.768152907e-02, -1.881691255e-02, -2.212633379e-02, -6.472009420e-02, -2.191288210e-02, 6.499190815e-03, 3.503697924e-03, -1.329760998e-03, 3.653612733e-02, 1.417781168e-04, 8.330123499e-03, 7.190483622e-03, 4.842331633e-02, -8.441480249e-02, -9.108486027e-02, -6.715080142e-02, -4.112715833e-03, -1.913786633e-03, -4.869160708e-03, -2.533975989e-03, -1.550035179e-01, -8.760417998e-02, -5.796346813e-04, 5.726602301e-02, 9.385594726e-02, -2.498462796e-02, 1.306929290e-01, 2.358399704e-02, 2.898788080e-02, 7.045275997e-03, -1.580552012e-02, 1.069245022e-02, -1.096473821e-02, 7.037498057e-02, -1.775693335e-02, -4.346857965e-02, -2.421510220e-02, -4.985809699e-02, 6.173799559e-02, 4.126986861e-02, -3.330432177e-01, -1.441848464e-02, -5.658476613e-03, 4.105747212e-03, 1.524247415e-02, -2.244159207e-02, 1.507774368e-02, -7.759349421e-03, -2.391373925e-02, 3.310747445e-03, -3.106370382e-02, -2.355075069e-02, 7.109413147e-01, 1.973288059e-01, -2.531790175e-02, 6.944640074e-03, 4.107281566e-02, 1.187302731e-02, 6.339386106e-02, -6.147561595e-02, 4.936169460e-02, -1.653514430e-02, -2.583898231e-02, -1.286770421e-04, -8.963043365e-05, 8.965589106e-02, -1.738148555e-02, 6.572365295e-03, -5.236142874e-02, 1.837254316e-02, 1.540283486e-02, 1.236298401e-02, 5.850710347e-02, 3.814529628e-02, -3.303834051e-02, 9.969502687e-02, 8.858406916e-03, 8.348176256e-03, 1.004155912e-02, -1.549101900e-02, -2.257576911e-03, -2.196315303e-02, -1.136668376e-03, 9.409495443e-02, 1.346249133e-01, 1.910697855e-02, -1.573684812e-02, 2.245013602e-03, -1.150271762e-02, 1.607974805e-02, -1.279650256e-02, -2.142392099e-03, 1.012694556e-02, 2.782426588e-02, 3.812971758e-03}, {-1.660409942e-02, 2.285004221e-02, 3.396060318e-02, -1.140623540e-02, 2.112919465e-04, 6.435474381e-03, -5.326386690e-01, 5.403966829e-02, -1.049005776e-03, -2.932839794e-03, 8.841671944e-01, 4.312072322e-02, 1.559820026e-02, 1.172639080e-03, 1.521217637e-02, 3.810565174e-02, -3.186271293e-03, 3.556704894e-02, -6.215736642e-02, 1.448798552e-02, -3.834355623e-03, 1.312357485e-01, 1.033178438e-02, 2.237746725e-03, -7.629426662e-03, -2.278209105e-02, 2.165036835e-02, 3.138061846e-03, 3.168905899e-02, 5.647848919e-02, -4.799120128e-02, -1.002064254e-02, 5.613890942e-03, -3.225953085e-03, -2.330410853e-02, -5.901156459e-03, 1.169155911e-02, -7.445950061e-02, 1.398230530e-02, -2.453222405e-04, -1.775429025e-02, 5.636923481e-03, -8.816998452e-02, 7.187693845e-03, -1.730208099e-02, 1.169376168e-02, -6.200238131e-03, 1.390192658e-03, 7.347099483e-02, 2.000612952e-02, -1.005198732e-01, -1.303846668e-02, -5.978358909e-03, 2.451202460e-02, -1.465878636e-02, -6.830309331e-02, -6.103554275e-03, -9.743189812e-02, -8.515278809e-03, 4.026039690e-02, 6.714304443e-03, 2.518933825e-02, 2.514424967e-03, -3.718654625e-03, 2.051463164e-02, -8.543762378e-03, -1.575380862e-01, -3.490540385e-02, 8.751971275e-02, -4.626747966e-02, 1.926447079e-02, -7.003903738e-04, -5.644478276e-02, -3.621854587e-03, -2.675338984e-01, -1.869388819e-01, 1.071702391e-01, 2.779083094e-03, 8.796056500e-04, -2.325245924e-02, -1.213593502e-02, 4.514183849e-02, 3.717059642e-02, -2.679239213e-01, -8.307569660e-04, 7.439833134e-04, -1.420901436e-02, 9.818624239e-04, 4.958833009e-02, -1.884742640e-03, 2.985499054e-02, 1.352627482e-02, -3.916331753e-02, -2.711724117e-02, -5.218042433e-02, -3.156978637e-02, -2.975616790e-02, -2.183486708e-03, 2.885123715e-02, -3.972366452e-02, 6.595249753e-03, -3.944431990e-02, 2.059980184e-01, 1.624035649e-03, -4.033657722e-03, 1.633811444e-01, -4.543664306e-02, -1.366292592e-03, 3.924334049e-02, -2.908774419e-03, -1.500830427e-02, -1.987713156e-03, -4.014048725e-03, 1.721372157e-01, -7.398936898e-02, -5.095598474e-02, 1.651739329e-02, -2.107646689e-02, 1.058172211e-01, 7.966268640e-07}, {1.950919814e-02, 2.660300396e-02, -1.527491864e-02, 1.135279983e-01, 2.417692728e-02, 7.359355688e-01, -3.827431938e-04, -8.345406502e-02, 7.597894967e-02, 1.232380397e-03, 2.458717907e-03, 1.137994882e-02, -8.239189535e-02, 8.573563397e-02, -3.562780470e-02, -2.145602182e-02, 8.407593518e-02, 1.711733080e-02, -3.046556003e-02, -1.892522350e-02, -4.774345085e-02, -1.061810553e-02, -2.941887826e-02, -5.766719114e-03, -2.496510446e-01, -4.055267200e-02, -3.030691855e-02, -2.261702903e-02, 4.597189650e-02, -2.576700039e-02, -4.832058679e-03, 3.227382898e-02, -2.022443572e-03, -6.728190184e-02, -1.780660450e-02, -1.463356544e-03, 5.122159794e-02, 1.611519791e-02, -7.799013052e-03, 1.081214100e-02, 6.368587166e-02, 2.382277278e-03, 4.126323620e-04, 2.256414155e-05, -4.772182554e-03, 1.319096982e-02, -1.126977615e-02, -2.989109838e-03, -7.982300967e-02, -3.397762403e-02, -2.101809368e-04, -6.798283011e-02, 5.084289238e-02, 3.214443848e-02, 2.529218607e-02, -2.801535465e-02, -6.349326670e-02, 1.870779553e-03, -1.842445694e-03, 1.845212391e-04, 6.205751374e-02, 4.116477817e-02, 3.819622844e-02, 2.167795412e-02, -5.455729738e-02, 4.211354628e-02, -1.489777025e-02, 4.249048885e-03, 3.074518172e-03, -9.019773453e-03, -4.473930225e-02, 1.698097140e-01, 1.520419493e-02, 3.439479321e-02, -7.172490470e-03, -2.123491606e-03, 5.044271052e-02, -1.220924431e-03, -2.939262614e-02, -2.590817772e-02, -3.948406316e-03, 3.631579131e-02, 5.012223497e-03, -4.781312123e-02, 2.761000767e-03, -4.630627483e-02, -6.052765064e-03, -2.143643238e-02, -4.640253261e-03, -2.767520724e-03, -1.212712750e-01, 3.919654526e-03, -5.617467687e-03, 4.367131740e-02, -4.380022641e-03, -2.929701097e-02, -6.371689960e-03, 7.740304340e-03, 2.070215717e-02, 2.656965051e-03, 2.091048658e-02, 6.320176180e-04, -2.774796914e-03, -4.728713632e-02, 2.816308141e-01, 2.449483844e-03, 1.310446952e-02, 1.690970957e-01, -8.521313965e-02, -2.644451335e-03, -1.967519894e-02, -4.065101594e-02, -5.941888783e-03, 1.418170286e-03, -4.610243440e-02, -1.956260530e-03, 2.855696715e-03, -6.517518312e-02, 8.622821420e-03, -4.530769959e-02}, {-1.618100679e-03, -3.831292316e-02, -5.734555423e-02, 1.238558535e-02, -3.940580413e-03, -2.881960245e-03, 1.252669608e-03, -5.825567245e-02, -3.452536650e-03, 1.900357753e-01, -1.134497300e-02, 3.579458594e-02, -4.007472098e-02, 1.757814665e-03, 6.013473123e-02, -3.934863582e-02, 2.602629364e-02, -1.122622006e-02, 5.746163055e-02, 3.450743854e-02, 1.403072942e-02, 2.103560418e-02, -7.100701914e-04, 7.688180078e-03, -3.389551537e-03, 4.656053707e-02, -1.495959144e-02, 5.705152079e-02, -2.153163590e-02, 3.980311379e-02, 2.597168386e-01, -6.397501100e-03, 9.060478956e-02, 1.914821449e-03, -1.567914896e-02, 5.145790800e-02, -5.316891475e-04, -5.380968750e-02, -6.294906605e-03, -1.988382638e-02, -8.207363635e-02, 8.647596836e-02, 7.039724849e-03, 7.223677635e-02, 3.785655499e-01, 6.995707285e-03, -8.763431013e-02, -4.437066615e-02, -2.584127709e-02, -5.260002217e-04, 2.279882319e-03, 2.053017262e-03, 1.908597304e-03, 1.510248799e-02, 9.199023247e-02, -2.366517112e-02, 6.125887390e-03, 1.180623006e-02, 2.657510107e-03, -1.217939984e-02, -1.488990057e-02, -6.767698377e-02, -1.389638428e-02, 4.495896283e-04, -9.281330276e-04, -1.374299452e-02, 4.122975469e-02, 1.591207547e-04, 1.359718591e-01, 8.063426614e-02, 7.167942356e-03, -3.793055192e-03, -2.499094047e-02, 1.487294957e-02, 2.430234104e-02, 9.656570852e-02, 3.140528500e-02, -2.089106245e-03, 6.714839954e-03, 3.865264356e-02, -3.231179342e-02, 2.826328017e-02, 2.957613440e-03, 7.492791116e-02, -7.942617871e-03, -1.088819373e-02, -3.593979403e-02, 1.290064305e-03, 1.786884107e-02, -1.347409934e-01, -1.802876359e-03, -8.861410618e-02, -4.461253062e-02, -6.974264234e-02, -6.958813220e-02, 8.215926588e-02, 4.440173507e-02, -5.592941307e-04, 5.598082673e-03, 8.352247067e-03, 8.332462609e-02, 4.706709832e-02, -4.890548438e-02, 1.911723084e-04, -1.600898453e-03, -5.630934611e-03, 6.562051363e-03, -2.141534118e-03, 1.165726129e-02, -3.986977972e-03, -5.651581287e-02, -8.294112049e-03, 1.285509825e+00, -1.424065828e-01, 5.907789618e-02, -5.955605954e-02, -1.909158528e-01, -7.683852687e-03, -3.327044472e-02, 8.920785785e-02}};

const float bias_out[NUM_CONTROLS] = {-2.757770568e-02, 3.778495640e-02, 6.676307917e-01, 1.245423675e+00};

const float in_norm_mean[NUM_STATES] = {1.836516142e+00, 1.115567923e+00, -1.137545228e+00, 3.530876637e+00, -1.008265853e+00, -5.338037014e-01, 4.550295770e-01, -2.544099092e-01, 1.004462719e+00, 8.132742643e-01, 7.647684216e-01, 8.346295357e-01, 7.528123047e+03, 7.977231934e+03, 8.906138672e+03, 9.010183594e+03, -4.643878128e-05, -1.210010087e-04, -1.550259003e-05, -3.497032166e+00};

const float in_norm_std[NUM_STATES] = {1.155861020e+00, 1.342151403e+00, 1.250668883e+00, 1.292400837e+00, 1.340662241e+00, 9.648476243e-01, 4.512126446e-01, 2.765767276e-01, 8.392157555e-01, 2.024538994e+00, 1.972019911e+00, 8.267979026e-01, 1.710201050e+03, 1.734843384e+03, 1.320593628e+03, 1.410415283e+03, 2.317571826e-02, 2.309163474e-02, 5.771244410e-03, 5.000177026e-01};

const float out_scale_min = 3.000000000e+03;

const float out_scale_max = 1.130000000e+04;

const float weights_hid[NUM_HIDDEN_LAYERS-1][NUM_NODES][NUM_NODES] = {{{6.112816185e-02, -1.606376469e-01, -2.658371627e-01, -2.889512181e-01, -7.510740161e-01, 7.477550209e-02, -6.245504022e-01, 7.480859756e-01, 9.366114140e-01, 7.664600015e-02, 5.761759281e-01, 2.174454033e-01, 8.171733022e-01, -1.045893908e+00, -2.310297340e-01, -7.390411496e-01, 2.064871043e-01, 6.392942667e-01, -1.587835908e+00, -4.491619587e+00, -2.428626418e-01, 1.704591559e-04, -7.894052267e-01, -1.105312109e-01, -3.144899011e-01, -1.736239195e-01, -5.507501960e-01, 9.888465405e-01, -3.530817032e-01, -5.863087177e-01, 1.374805212e+00, 1.229296446e+00, 8.072893620e-01, -1.041444421e+00, 6.564179659e-01, -6.495168209e-01, 1.808710396e-02, -1.051920772e+00, 5.976615939e-03, -5.834869742e-01, 1.543136090e-01, 8.655484915e-01, -7.850274444e-01, 4.100224972e-01, -7.679419518e-01, 3.733504117e-01, 4.250911474e-01, -6.808426380e-01, 1.900491476e+00, -1.416524649e+00, -2.800123580e-02, 8.166194707e-02, 1.303686738e+00, -4.629915059e-01, -4.895820916e-01, -6.346173286e-01, 3.700504005e-01, 3.636868596e-01, 9.158454537e-01, -3.536595702e-01, 5.263967067e-02, 1.854008883e-01, 5.214682817e-01, -9.865980744e-01, -9.825862646e-01, -7.328208685e-01, -3.937940001e-01, -3.279050291e-01, -3.723060608e+00, -9.770900011e-01, -4.201152623e-01, 5.522837639e-01, -9.002941847e-01, -1.337675571e+00, 3.191723526e-01, 1.130792126e-01, 6.093815565e-01, -3.460827284e-03, -8.490185142e-01, -3.973744512e-01, 2.006961584e+00, -3.934499621e-01, -8.322375417e-01, 8.984917998e-01, -4.176338017e-01, -2.050312608e-01, 6.449366212e-01, 5.419321060e-01, -1.400180817e+00, 1.095256686e+00, -3.300300241e-01, 1.485483170e+00, 1.517165899e-01, 4.669491947e-01, 9.817932248e-01, -4.004391730e-01, 1.310806155e+00, 7.396789789e-01, 2.368245274e-01, 1.376648713e-02, -1.283087432e-01, 3.917486072e-01, -1.225210875e-01, -4.041694701e-01, 4.967407882e-01, -7.537897825e-01, -2.645356655e-01, -4.577503800e-01, -9.106249809e-01, 3.698888719e-01, 4.122433066e-01, -5.630534515e-02, 1.550390869e-01, 3.357504308e-01, -4.875830710e-01, -6.758846045e-01, 4.084890783e-01, 4.633795619e-01, -5.860578418e-01, -2.079696417e+00}, {-4.947771728e-01, -2.951327264e-01, -3.580435812e-01, 2.074227035e-01, 2.576485574e-01, -6.562677026e-01, -6.952987313e-01, 4.714378417e-01, -2.887354493e-01, -6.737991702e-03, -9.922057986e-01, 4.918668866e-01, 4.937473536e-01, -4.933214784e-01, 6.622487307e-01, 6.027477235e-02, -1.722061157e+00, 1.274025917e+00, 6.653331965e-02, 1.516711473e+00, 9.788786173e-01, -2.128448337e-01, -3.754501641e-01, -2.054086477e-01, -1.271730512e-01, 5.446184278e-01, -2.780640423e-01, 2.103569508e-01, -1.356238365e+00, -1.472287923e-01, 1.160482541e-01, 9.147140384e-02, 2.594125271e-01, -2.236258090e-01, 3.556758463e-01, -2.131185830e-01, 1.884258091e-01, 1.036150232e-01, -3.559392989e-01, 2.937313318e-01, -4.129061401e-01, -1.031872869e+00, -4.347511232e-01, -3.513733149e-01, -3.397623897e-01, 5.248475075e-01, 3.783398569e-01, 5.519425869e-01, -6.853544712e-01, -1.095881537e-01, -3.175637126e-01, -7.314043045e-01, 2.074846923e-01, -3.328107297e-01, -3.614779711e-01, 3.304007053e-01, -3.667043746e-01, 8.638713956e-01, 1.166988835e-01, -2.175899297e-01, 1.188361570e-01, -9.907163680e-02, 1.667957753e-01, 1.630331129e-01, -3.412036896e-01, 1.826647297e-02, 1.903663576e-01, -2.303243577e-01, -2.406082489e-02, 3.344692886e-01, 7.851126194e-01, 1.887993962e-01, -2.765553631e-02, 4.975912869e-01, 1.265968569e-02, 1.723357104e-02, 1.890880316e-01, 5.825919509e-01, 2.144629955e-01, 1.002043784e-01, -8.924418688e-01, -2.198910862e-01, -2.246641368e-01, -2.468598187e-01, -2.451539338e-01, -1.319980472e-01, -1.076261774e-01, 3.236435950e-01, -2.797265723e-02, 6.010906696e-01, -3.023405671e-01, -1.800852418e-01, 1.674906313e-01, 2.694703937e-01, -6.868743300e-01, -3.448251486e-01, 2.249377072e-01, 6.173681095e-02, 1.226813346e-01, 6.255617738e-02, -6.884173751e-01, 2.003662586e-01, -1.446071148e+00, -2.338468097e-03, -1.810132712e-01, 7.056979537e-01, 3.414315283e-01, -3.553935289e-01, -3.100770712e-01, -7.637823001e-03, -2.331850827e-01, -3.335756063e-02, -2.073831707e-01, 3.533596098e-01, -2.395114750e-01, 5.039563179e-01, -2.714717388e-01, 1.013198733e+00, 2.560846508e-01, -1.381212026e-01}, {-1.324215680e-01, 5.367451310e-01, -1.067609042e-01, -1.402908862e-01, -5.383433104e-01, 7.278442979e-01, -4.321088493e-01, 5.788917542e-01, -2.242655903e-01, -9.283100963e-01, -2.612767518e-01, -6.505834460e-01, 1.151606679e+00, -3.214183450e-01, -9.333471954e-02, 4.356606603e-01, 1.152114756e-02, 3.100990057e-01, -8.287460208e-01, -4.376759827e-01, -2.649346590e-01, 1.312729955e+00, 2.502073050e-01, -4.870085716e-01, 9.360778332e-01, 1.531650722e-01, 1.502748579e-01, -1.188170165e-01, -4.585982263e-01, 2.983464301e-01, -1.470782161e-01, 2.326609492e-01, -3.575434685e-01, 4.420710802e-01, -3.327966928e-01, -1.924818277e+00, -7.355011255e-02, 1.557517890e-02, -4.204727411e-01, 6.880120933e-02, -4.985235929e-01, 4.186496437e-01, -3.778289258e-01, -8.209253848e-02, -6.576482058e-01, -1.933936775e-01, 1.755411178e-01, -5.189589858e-01, -7.636891007e-01, -9.260578752e-01, 2.113711685e-01, -1.628855467e-01, -7.661184669e-01, 4.056988060e-01, 1.335779577e-01, 2.000940293e-01, -1.183481455e+00, -7.182952017e-02, -1.281085163e-01, -3.016880155e-01, -6.107543409e-02, 4.377651960e-02, 9.828513861e-02, 6.031342968e-02, -1.370850503e-01, -5.590856671e-01, 1.037845835e-01, -1.349059045e-01, -3.660340607e-01, -4.121536016e-01, 9.604222178e-01, 1.231287479e+00, 3.889833689e-01, 2.259189039e-01, -3.936453760e-01, 3.404249549e-01, 1.338323019e-02, -6.404380798e-01, -5.555850267e-01, 1.056435853e-01, -3.202804327e-01, 5.077928901e-01, -4.420391619e-01, 8.880162984e-02, -9.360747933e-01, -3.284507990e-01, 1.044214610e-02, 8.028578758e-02, 9.122428298e-01, 1.177960858e-01, -1.251898766e+00, 3.399464786e-01, -1.373333931e-01, -4.072752297e-01, -3.259548172e-02, 1.579187214e-01, 3.849453330e-01, -3.928010762e-01, 1.842163205e-01, -1.444026828e+00, 8.850236535e-01, -4.915277958e-01, -3.339098394e-01, 4.074902833e-01, -5.800873786e-02, -6.011619568e-01, -8.660869002e-01, -1.107454896e+00, 4.073645771e-01, -2.641729414e-01, 5.927014351e-01, 1.178702265e-01, -1.345073223e+00, -6.926977634e-02, -1.284155808e-02, -6.202407181e-02, -2.203125507e-02, -2.934062183e-01, -4.040241539e-01, 1.051673412e+00}, {-1.898266226e-01, -3.235381246e-01, 1.125390455e-01, -3.094881475e-01, -4.261360168e-01, 1.867895007e+00, -5.139650702e-01, -7.629301399e-02, 9.336634278e-01, -4.586368501e-01, -2.005320787e-01, 1.284775045e-02, 2.746999264e+00, 1.065929770e+00, 8.711662292e-01, -5.199056864e-02, -8.869835138e-01, -2.280171067e-01, -5.189310908e-01, -5.363209248e+00, -3.087917268e-01, 5.348570943e-01, -3.814084232e-01, 8.608085662e-02, 2.304064482e-02, 1.438193172e-01, 2.298330218e-01, 7.281445712e-02, -1.768774033e+00, 1.398727149e-01, -6.342627108e-02, 4.396648407e-01, 2.691890001e-01, -1.666093059e-02, 1.309008479e+00, -4.441964030e-01, 3.178480268e-01, -2.887630463e-01, -3.272735178e-01, -2.539408207e-01, -4.670317173e-01, 3.867201209e-01, 3.438304067e-01, -3.668545932e-02, 3.478570580e-01, 2.455389649e-01, 9.196897745e-01, 1.527620703e-01, -3.673355579e-01, -2.068229467e-01, 5.649371743e-01, -5.178482533e-01, 8.458883166e-01, -6.902556121e-02, -3.251797557e-01, 2.898827940e-02, -7.600963116e-01, 8.258768320e-01, -2.800945938e-01, 5.594544858e-02, 9.291710705e-02, -5.333341286e-02, 1.577881932e+00, -2.783226371e-01, 6.884681433e-02, -4.865692854e-01, -2.712836862e-01, -5.672623515e-01, 1.607329696e-01, -5.614259467e-02, -8.829215914e-02, 7.272229195e-01, -1.398148388e-01, -4.025749266e-01, 4.940092564e-02, 1.425019652e-01, 2.566083670e-01, -4.960682690e-01, 1.264625490e-01, 2.074762434e-01, -1.109473467e+00, -7.666660547e-01, 3.752973080e-01, 1.921373159e-01, -3.693594933e-01, 4.379539192e-01, 1.283186767e-02, 2.987661362e-01, -5.534907579e-01, 5.528219342e-01, -6.718682647e-01, -1.127048731e+00, -1.375565648e+00, 1.236886159e-01, -5.069845915e-01, 4.845430553e-01, -4.987132251e-01, -8.200436085e-02, 2.667111158e-01, -2.908561528e-01, 2.931918502e-01, -3.619768322e-01, -1.571251154e+00, 4.802699983e-01, -5.106434226e-01, 3.505912423e-01, -6.267622709e-01, -5.868901610e-01, -7.752545923e-02, 6.197358370e-01, -4.077913761e-01, 4.411343634e-01, -7.259230614e-01, 1.419043899e+00, -4.980406165e-01, -1.630779952e-01, -6.665199995e-01, -4.952744842e-01, 1.182351559e-01, -7.990475893e-01}, {1.678475022e+00, 2.087390125e-01, 1.776590347e-01, -1.224064007e-01, -1.809898578e-02, -2.810152806e-02, 1.009023562e-01, -8.809085935e-02, 2.946558297e-01, 6.546346098e-02, -3.992703855e-01, -4.189780056e-01, 1.364473403e-01, 7.401314098e-03, -2.377519459e-01, -7.319436967e-02, -1.753701568e-01, 5.212577432e-02, -1.323792338e-01, -1.315530390e-01, 2.511732876e-01, -5.673137307e-02, -2.806215882e-01, 1.232149526e-01, 1.972131282e-01, -1.047748208e+00, -4.960048478e-03, 3.738970309e-02, -1.953368634e-01, 1.222970605e+00, -1.549294591e-01, -6.687691808e-02, -3.280725703e-02, -4.546310604e-01, -1.973729581e-01, 4.933269694e-02, 6.652188301e-02, 2.928102389e-02, 9.200048447e-02, 2.175896317e-01, -2.028968036e-01, -1.013556961e-02, 2.686265409e-01, 2.797949910e-01, 1.402416378e-01, 1.462225914e-01, -2.901280820e-01, -2.816360891e-01, -1.201469973e-01, -6.306466460e-02, -5.025244951e-01, 3.811719120e-01, 2.555146813e-01, 5.064345002e-01, 2.989662290e-01, -3.690682352e-01, 1.381643414e-01, 1.090633571e-01, 4.113759100e-02, 4.312119782e-01, 7.715154439e-02, 3.879997432e-01, 3.165854514e-02, 2.338466197e-01, 9.081360102e-01, 1.284902096e-01, 9.691436589e-02, 1.075810269e-01, -2.939040661e-01, -2.496096538e-03, -1.216435730e-01, -2.179352939e-01, 1.742528677e-01, 3.719842434e-01, -3.299908340e-01, -3.324139714e-01, -9.029217064e-02, 2.584125102e-01, 5.591470748e-03, 4.056362808e-02, -1.065758541e-01, -3.701939434e-02, 7.305428386e-01, 2.341485471e-01, -5.745122582e-02, 6.563860923e-02, 1.026884541e-01, 9.305768460e-02, 8.870453387e-02, -3.952037990e-01, 1.376765370e-01, -3.769698143e-01, 1.552543789e-01, 3.319512680e-02, -3.218555748e-01, 1.612813473e-01, -6.643645465e-02, 1.702452265e-02, 7.179485261e-02, 1.601607651e-01, 7.963916659e-02, -2.706117034e-01, -1.935464591e-01, -2.311350964e-02, 2.851125300e-01, -4.237983003e-02, -5.965200439e-02, 1.699445248e-01, 1.061705709e+00, -9.029107541e-02, -2.321485989e-02, 2.958630025e-01, 5.430385470e-02, 3.696523979e-02, 2.172284871e-01, -3.055436909e-01, 4.623554647e-01, -1.445855796e-01, 1.711681299e-02, -6.671175361e-02}, {-2.683588304e-02, 1.198143244e+00, 1.620935351e-01, 9.971996546e-01, 2.912054360e-01, 7.100792527e-01, 2.757498026e-01, -1.282181740e-01, -5.500212312e-01, -8.545750976e-01, 1.690297276e-01, 2.392144501e-02, -2.127157748e-01, 3.450510502e-01, 5.841646791e-01, -3.101942688e-02, 6.702270508e-01, -1.293886453e-01, -2.584238648e-01, 4.924853325e+00, 1.630049758e-02, -4.573555589e-01, -1.029270411e+00, -5.092977285e-01, 7.842191458e-01, 2.294026464e-01, 7.337272167e-01, -3.294816613e-01, 3.209124804e-01, -3.417894840e-01, -4.142315686e-02, 6.282886863e-01, -3.761298656e-01, 7.336110622e-02, 1.428874880e-01, -1.171306491e+00, -5.693946034e-02, -4.337919503e-02, -2.168917805e-01, -2.790213823e-01, -3.260056376e-01, -9.762283415e-02, 4.742049426e-02, -2.019415051e-01, -9.285622239e-01, -9.697095156e-01, 7.345670462e-01, 5.167721510e-01, 1.288382262e-01, -4.933316112e-01, -2.010382652e+00, 4.544173777e-01, -1.276089668e+00, -3.689398468e-01, -2.608217895e-01, 1.544877589e-01, -9.416339546e-02, 3.892197907e-01, -6.183220148e-01, 8.230891824e-01, 3.078673482e-01, 9.595568180e-01, 4.407035112e-01, -1.112166122e-01, 9.472022057e-01, -4.258929193e-01, 3.616303504e-01, 6.816955209e-01, -1.249733344e-01, -1.021700740e+00, -9.415512532e-02, 3.195706010e-01, -1.253828704e-01, -1.241849153e-03, -4.391784221e-02, -1.806275964e+00, 1.516167521e-01, -1.348327398e-01, -1.272285432e-01, 9.013966918e-01, -8.215677142e-01, -3.195503354e-01, 8.789334297e-01, -2.531721890e-01, -2.865444310e-02, -6.567301750e-01, -4.459816590e-02, 3.736042082e-01, -1.084733289e-02, 5.798930526e-01, 1.927020103e-01, 6.122715026e-02, -2.205280215e-01, 4.849335253e-01, -5.179613829e-01, -4.387839735e-01, -1.137232035e-01, 5.532691479e-01, 3.628004789e-01, -1.088838577e+00, 6.042113304e-01, 6.919499040e-01, 1.064082384e+00, -1.668292522e+00, 6.640134454e-01, 1.978675127e-01, 5.047842264e-01, 2.138051689e-01, -4.703148007e-01, -1.599173397e-01, -3.614698723e-02, -1.008189082e+00, -2.209810764e-01, -1.934883147e-01, 2.224260867e-01, 1.118057609e+00, 9.085150361e-01, -2.514863610e-01, -2.271281183e-02, -8.148873448e-01}, {5.417233109e-01, -1.051033139e-01, -3.655937612e-01, 5.684671998e-01, 6.966304183e-01, 4.968345165e-01, -3.896808028e-01, 4.414478540e-01, 4.949922860e-01, -1.347929388e-01, 1.772398353e-01, 1.005778193e+00, -5.223248005e-01, 4.824818075e-01, -1.498193383e+00, -3.607001305e-01, 1.210429519e-01, 7.786358148e-02, -5.530165434e-01, 4.451452196e-01, -3.378164470e-01, 9.258958101e-01, -1.115202382e-01, -2.984697223e-01, 2.075752616e-01, -4.063237607e-01, 4.889687151e-02, 6.012049317e-01, 6.103348732e-01, -4.377955794e-01, -3.036344349e-01, 5.976604819e-01, -1.470928937e-01, 6.730634570e-01, 2.251256704e-01, -2.160045803e-01, 1.191254139e+00, 1.358397398e-02, 9.908925891e-01, 8.492080122e-02, -1.168365255e-01, -3.546211421e-01, -9.272197634e-02, -6.221985817e-02, -1.520830542e-01, 2.558951378e-01, -2.413882762e-01, 5.517098904e-01, 4.566428065e-01, -1.771911532e-01, -9.954790585e-03, 1.456737876e+00, -2.462438047e-01, -1.239983439e+00, -2.995055318e-01, 2.908764482e-01, -7.942112684e-01, -5.047766566e-01, 7.628223896e-01, -2.861727476e-01, -1.193927899e-01, -7.201307416e-01, -1.209485345e-02, -1.430191845e-01, -8.514010906e-02, -1.784713268e-01, -1.354703009e-01, 1.003978997e-01, -1.196540117e+00, 3.474510312e-01, 4.331454933e-01, 3.318638802e-01, 1.896924525e-01, -1.026624322e+00, 1.716181636e-01, 1.250064224e-01, 2.649854869e-02, -1.015252590e+00, -2.676548660e-01, -1.237179756e+00, -6.357341409e-01, -1.124941930e-01, 1.186346337e-01, 6.767754257e-02, -1.150726199e+00, -1.534669548e-01, -3.299621120e-02, -4.818777144e-01, -8.621673584e-01, 3.206083477e-01, -6.154080033e-01, 8.333482146e-01, -5.189068317e-01, -3.436201215e-01, 1.215535879e+00, 5.718955398e-01, 6.334236264e-01, -2.219046652e-01, -2.428775281e-02, -9.162684679e-01, -3.720952570e-01, 4.017821848e-01, 7.011504769e-01, 3.604312986e-02, -5.380029678e-01, 5.515633523e-02, -5.209108591e-01, -7.456896305e-01, -5.732682347e-01, 3.266560137e-01, -2.114822902e-02, -1.463068604e+00, -6.561426520e-01, 2.390740961e-01, -5.045908689e-01, 8.089139313e-02, -7.343822718e-01, -5.837762952e-01, 3.956115991e-02, 5.736167431e-01}, {-9.714255482e-02, 7.925064419e-04, -4.435891807e-01, -2.295391411e-01, -3.088639975e-01, -3.225972950e-01, 7.267344594e-01, -3.008960783e-01, -2.620602250e-01, 1.572415978e-02, 1.005569816e+00, 3.494932055e-01, 4.312292635e-01, 7.145292163e-01, -1.994323879e-01, -3.690435886e-01, -6.278566122e-01, -5.419198275e-01, 3.175703585e-01, 1.641365170e+00, -1.416370720e-01, 4.569614530e-01, 1.704601496e-01, -1.178317815e-01, 4.570675269e-02, 2.246473134e-01, 3.271637857e-01, 4.712424800e-02, 1.079486251e+00, 4.665336311e-01, -2.147460580e-01, -6.208980083e-02, -3.068661392e-01, -6.542215943e-01, 3.775110245e-01, -4.652405977e-01, 9.935140610e-01, 1.498037428e-01, 6.514771581e-01, -2.769473195e-01, 9.118413925e-01, -3.193686903e-01, -1.952912509e-01, -1.735529900e-01, 1.171544313e+00, 4.349263310e-01, 6.216744184e-01, -2.224179804e-01, 5.093004107e-01, 7.680845261e-01, 5.626693964e-01, 8.966962993e-02, -7.231459022e-01, -2.767363787e-01, 2.622313499e-01, 1.612447351e-01, -7.639332861e-02, 5.465561748e-01, 5.689911246e-01, 3.920309246e-02, 7.209661603e-01, 1.389022171e-01, 2.530587316e-01, 1.055009961e-01, -2.585697472e-01, -4.741171375e-02, -5.931105018e-01, -5.319588780e-01, -1.286946177e+00, -8.088322878e-01, 8.571810722e-01, -1.060634375e+00, 2.371171489e-02, -4.465180933e-01, -1.391131878e-01, -3.538759351e-01, 3.510230184e-01, -1.044078827e+00, -8.348260075e-02, -4.089786708e-01, -7.106001973e-01, -2.368397862e-01, -2.199508697e-01, 1.072366759e-01, 1.968203038e-01, -2.914680839e-01, -7.834433317e-01, -4.449889958e-01, -2.331853628e+00, 6.098975539e-01, -3.931503296e-01, 4.051755369e-01, -2.512167692e-01, 1.467373520e-01, 2.964815795e-01, -1.121837739e-02, 3.534074500e-02, -3.847965300e-01, -3.854881525e-01, 9.235493541e-01, -1.286618829e+00, 1.998030543e+00, 7.225021720e-01, 6.413025856e-01, -1.621603519e-01, 2.912406027e-01, -8.167437315e-01, -1.868227720e-01, -2.955440283e-01, -1.931253448e-02, -9.745282680e-02, -1.799495369e-01, 2.910052240e-01, 2.172801197e-01, -7.523185611e-01, -2.323178500e-01, -7.199881673e-01, 3.420023620e-01, 3.082616627e-01, -4.522464797e-02}, {-1.119538024e-01, 1.177704558e-01, 2.893586410e-03, 2.239445597e-01, -5.599305779e-02, -1.178685725e-01, 1.999642253e-01, 1.449958384e-01, -1.756743938e-01, 2.786296904e-01, -8.730419874e-01, 3.985649347e-01, -3.419161439e-01, 3.704574704e-01, -6.610667109e-01, -3.638736308e-01, -3.371156156e-01, 4.619432390e-01, 3.944741488e-01, -3.191640854e+00, -2.415198684e-01, -2.982892990e-01, -3.038407266e-01, 1.087203398e-01, 3.855166957e-02, 4.357723985e-03, 7.162182331e-01, 9.594318271e-02, 3.833797872e-01, -2.552618384e-01, -3.386208415e-01, -5.924816132e-01, 3.015049994e-01, -4.126373827e-01, -2.401850373e-01, 3.091213759e-03, 5.670738816e-01, -1.337158382e-01, 2.254950404e-01, -7.524192333e-01, -2.221607715e-01, -2.266311646e-01, -1.224723831e-01, 1.302727312e-01, -3.866128325e-01, 2.558269501e-01, 1.172974184e-01, -3.521769941e-01, 9.013071656e-01, -2.411008179e-01, 4.237558544e-01, 5.586193204e-01, -1.263499260e-01, -4.262916148e-01, 4.618408084e-01, 4.016648978e-02, -1.225190759e-01, -2.762042582e-01, -5.006717443e-01, 3.749029934e-01, -6.573073864e-01, -3.840990067e-01, -3.510833681e-01, -1.395171583e-01, 4.545197189e-01, 9.441126883e-02, 2.340696007e-01, 5.189176202e-01, 5.443655699e-02, 7.392933965e-01, 3.469642103e-01, 3.547858298e-01, 2.383999079e-01, 3.960351050e-01, 4.678388312e-02, -5.767592192e-01, -1.685290784e-02, -1.266906857e-01, 3.018179163e-02, 1.101140901e-01, 3.011679053e-01, 1.687556654e-01, 4.883359373e-01, -4.047063589e-01, -4.840058088e-01, 2.367848158e-01, 6.030738950e-01, -2.053478509e-01, 1.286730617e-01, -3.627313077e-01, -1.221882105e-01, 7.608360648e-01, 1.627778560e-01, -2.876063585e-01, 9.557524323e-01, -3.077589273e-01, 1.837761849e-01, -1.994467340e-03, 2.336646058e-02, -6.444726586e-01, 2.551454008e-01, -5.197739005e-01, -9.872534871e-01, 3.991570771e-01, -3.288636729e-02, 2.339393348e-01, -3.798599541e-01, -2.119212300e-01, 3.224664554e-02, -1.057925001e-01, 2.531366348e-01, 7.844188809e-01, -6.422021389e-01, -3.932561278e-01, 1.803885698e-01, -7.997098565e-01, -2.094025910e-02, -3.758697212e-01, 1.110842302e-01, 3.497776389e-02}, {3.094941378e-01, -1.783225179e+00, 2.150315940e-01, 2.060112953e-01, -2.614487112e-01, 3.387040496e-01, -5.210598707e-01, 5.243040323e-01, -3.664399311e-02, -1.149723887e+00, -3.257937133e-01, 2.803995907e-01, 3.815842867e-01, 1.610816479e+00, 5.369470716e-01, -8.397469521e-01, -1.238692999e+00, 4.680313766e-01, -6.202821136e-01, -9.978158474e-01, -6.848121881e-01, -7.169137597e-01, 1.405009627e-01, -8.883832097e-01, -7.927746773e-01, -1.329975426e-01, -1.709859371e-01, 7.766863108e-01, -1.743998230e-01, -6.185978651e-01, -1.937861323e+00, 3.830521405e-01, -2.556640804e-01, 1.916660182e-02, 5.394911766e-01, -1.708046198e-01, 4.736361802e-01, -5.856099129e-01, 6.838186383e-01, -1.212827444e+00, -1.450904459e-01, -1.787987202e-01, -2.877946794e-01, -5.538436174e-01, -5.483461022e-01, 6.435550451e-01, -4.140956700e-01, -6.284426451e-01, 9.753451943e-01, 1.176217347e-01, 1.462160051e-01, -1.471027285e-01, 1.422055006e+00, -1.502224207e-01, 7.376881242e-01, 5.074260235e-01, -1.207698822e+00, 4.152794778e-01, -7.103281617e-01, -7.270120382e-01, 6.834458113e-01, 6.619846225e-01, 2.603704929e-01, -6.038002968e-01, 2.219880372e-01, 2.447507232e-01, 4.551214874e-01, -5.304825306e-01, 1.097513735e-01, -1.440009952e+00, 1.812654734e-01, 7.567619681e-01, -3.176832795e-01, 2.359627336e-01, 1.269904673e-01, -3.525715470e-01, 1.701710373e-01, -1.051760077e+00, -4.237908404e-03, -1.417728543e+00, -1.752935052e-01, -5.841085911e-01, -5.941168070e-01, -1.320847273e-01, -1.802202463e+00, -9.870851040e-01, 8.022461534e-01, 2.985939980e-01, -8.020696044e-01, 4.969062507e-01, 1.115747571e+00, -5.844948888e-01, 1.200844407e+00, -3.508470953e-02, -7.258456945e-01, -9.976968169e-01, 6.424490809e-01, 5.822033286e-01, -8.408670425e-01, 4.307574928e-01, 8.366034627e-01, -3.298137188e-01, 8.308359981e-02, -1.242503449e-01, -3.756319582e-01, -1.756244540e+00, -6.269025803e-01, 3.234060109e-01, -1.439373344e-01, 1.610863328e+00, 2.055612057e-01, 7.846710682e-01, 1.929392517e-01, 1.724515200e+00, -4.982883930e-01, 1.776119173e-01, 6.350551248e-01, 7.222983241e-02, -2.406540155e+00, -1.571697742e-01}, {-7.810138464e-01, -7.842560410e-01, 1.563994288e+00, -2.049146295e-01, -1.266858697e+00, -9.308808446e-01, -2.323768139e-01, 2.462292761e-01, 9.931215644e-01, -4.709764421e-01, 1.920523196e-01, 2.050306201e-01, -6.112779975e-01, -6.134023890e-02, 4.813390672e-01, -2.892951071e-01, -8.431519866e-01, -1.489657313e-01, -1.169165850e+00, 4.807721376e-01, 4.525535405e-01, -7.982889414e-01, -7.316361368e-02, 6.846558452e-01, -2.798896134e-01, 4.844197333e-01, -4.574314132e-02, 6.815993786e-01, -7.139140368e-02, 5.959584117e-01, 8.110973835e-01, 1.169896945e-01, -3.708060980e-01, -9.332022071e-01, 4.323280156e-01, 4.464678466e-01, 3.934325278e-02, -1.008671045e+00, 9.661800228e-03, -1.098641515e+00, 5.674396753e-01, -3.541767001e-01, 1.352754980e-01, 7.319825888e-01, 9.880104065e-01, 4.132078290e-01, -8.328087330e-01, -2.340290397e-01, 1.392779499e-01, -6.432984471e-01, 7.732693553e-01, 1.730852872e-01, 8.647681773e-02, -9.029458463e-02, -8.072316647e-01, -8.202633858e-01, -3.262186050e-02, 2.580467761e-01, -4.062142670e-01, -2.243969887e-01, 5.824301839e-01, 3.882573247e-01, 3.144404292e-01, -6.602292061e-01, -3.034484088e-01, 1.333238780e-01, -4.977109432e-01, 1.413215399e-01, 4.469410777e-01, -1.724727511e+00, -2.142976820e-01, 3.904057741e-01, 7.664915919e-01, -5.589941740e-01, 3.719227612e-01, -7.874906659e-01, 7.955225110e-01, 6.594942212e-01, 4.240027964e-01, -6.288506389e-01, -3.707591891e-01, 3.063065112e-01, 4.410509169e-01, 8.553989232e-02, -7.833584398e-02, -2.353716850e+00, 5.937597156e-01, 4.884737730e-01, 5.626458526e-01, -5.257167220e-01, 8.516014814e-01, 5.835000277e-01, 2.671508193e-01, 7.065107822e-01, -2.918865383e-01, -3.394097388e-01, 1.084672451e+00, -3.150393963e-01, -7.083122134e-01, 1.265356660e+00, 8.206088543e-01, 3.405143023e-01, 5.850890279e-01, 4.589907229e-01, 6.245947480e-01, -1.255568981e+00, 9.634199142e-01, 6.667751074e-01, -1.434838414e+00, -8.326245546e-01, 4.710158333e-02, -1.806843877e-01, 9.499109983e-01, 5.762926936e-01, 7.159438133e-01, -4.806415364e-02, 3.442527652e-01, 3.984007537e-01, -7.068811655e-01, -7.087727189e-01}, {1.504193544e-01, 1.371045709e-01, 2.356424630e-01, 1.412304491e-01, 1.986860931e-01, 1.853758097e-01, -1.080642268e-01, -8.695154637e-02, 4.806822836e-01, 1.189047750e-02, -3.612529039e-01, 3.771128058e-01, -1.418047845e-01, -1.467664838e-01, -4.596599936e-02, -1.515487880e-01, -6.625688672e-01, -2.046195567e-01, -3.418043852e-01, -8.278694004e-02, -1.922637969e-02, 9.809286892e-02, 2.959940732e-01, 2.174627967e-02, 8.943325281e-02, 4.875778258e-01, -2.235291302e-01, 2.162485383e-02, -9.071623534e-02, 1.529710054e+00, 1.038210932e-02, 3.837166131e-01, -2.264561206e-01, 1.507797956e+00, -1.460355800e-02, 2.061473131e-01, 7.176679373e-02, -3.117875457e-01, 4.800198376e-01, -1.798688173e-01, -3.815212548e-01, 2.403240800e-01, 2.326922566e-01, 2.408391684e-01, 1.886000037e-01, 2.565859556e-01, 1.872419566e-02, 2.005338669e-02, -6.810139120e-02, 3.327976912e-02, -1.413459778e-01, -1.703144051e-02, -7.011632621e-02, -3.345312178e-01, 1.244894862e+00, -4.210105538e-01, 7.014918327e-02, -9.145884216e-02, 1.287324578e-01, 3.635464907e-01, 7.543538511e-02, 1.396383196e-01, 1.411303133e-01, -1.060124263e-01, 1.006652832e+00, 6.251500547e-02, 5.556945801e-01, -1.370900422e-01, -8.423379064e-02, -2.230871767e-01, -1.536837071e-01, -3.519400358e-01, 4.293973446e-01, -5.254348516e-01, -2.369281501e-01, 9.841957688e-02, 2.766683139e-02, 4.544989467e-01, 1.795709878e-01, -9.769776464e-02, 1.817075163e-01, -2.834779769e-02, 7.517741919e-01, 1.084753275e+00, -9.435687959e-02, 8.174461871e-02, 1.003303453e-01, 3.214648366e-02, 1.517344564e-01, 1.190317720e-01, 8.895076066e-02, -2.268703096e-02, -8.534700423e-02, -1.051956136e-02, -4.942533560e-03, 4.830416664e-02, 9.434163570e-03, -3.138650060e-01, -1.135458052e-01, 8.692959696e-02, 6.861343980e-02, 7.065355778e-02, -4.298822582e-01, 1.911577433e-01, 1.495289803e-01, -5.858220160e-02, -2.023025602e-01, 1.017791033e-01, -6.152892709e-01, -1.914542019e-01, -1.847513169e-01, 4.609234035e-01, 3.648235500e-01, -1.258423477e-01, 1.275558174e-01, 3.874987364e-02, 1.259121001e-01, 5.355239380e-03, 8.150567859e-02, -3.029618040e-02}, {1.884008944e-02, -1.667502761e+00, -5.907958150e-01, -2.946883142e-01, -2.427660704e+00, 2.309982777e-01, -9.383925200e-01, 4.688686132e-01, 7.557436228e-01, -1.096492529e+00, 4.365589023e-01, -1.843658239e-01, 3.955421150e-01, 4.834302142e-02, 4.382282794e-01, -1.950297356e-01, -1.062238738e-01, 9.247165918e-01, 5.482426882e-01, 8.742823601e-01, 1.255053043e+00, -4.907629490e-01, -2.126996517e-01, -4.970287085e-01, -4.898797274e-01, 2.909496427e-01, -1.254416909e-02, 1.097320691e-01, 3.832459450e-01, -8.206705451e-01, 1.382414341e+00, 1.216496706e+00, 3.983758762e-02, -7.253963500e-02, 3.320000470e-01, 5.661718249e-01, -9.253957542e-04, -7.375328541e-01, -9.575792551e-01, -1.104336143e+00, -1.733274460e+00, 1.703361273e-01, -8.515999317e-01, 2.618182600e-01, -3.473331332e-01, 4.401772022e-01, -4.489552975e+00, -2.262192518e-01, 4.052569866e-01, -1.747363567e+00, 3.549332619e-01, -3.384618461e-01, 4.503283203e-01, 2.315033525e-01, -6.143175438e-02, 6.331218779e-02, 2.357584983e-01, 5.217087865e-01, 1.400674731e-01, -3.093485236e-01, 3.770920336e-01, -1.122134402e-01, 2.697065473e-01, -6.981135011e-01, 1.091156304e-01, -3.214387298e-01, -7.789420485e-01, 5.153298974e-01, -1.312046885e+00, 3.144437075e-02, 7.144910097e-01, 9.033151865e-01, -2.403090298e-01, -3.515152037e-01, -1.392415762e+00, -3.430145741e+00, 5.888332129e-01, -6.843132377e-01, -2.546101063e-02, -1.133386850e+00, -4.911258221e-01, -3.347619772e-01, -8.265860677e-01, 8.532682806e-02, 3.966814578e-01, 8.714424819e-02, 4.201224744e-01, 6.115886569e-01, -2.810290575e+00, 5.400285125e-01, 7.410598397e-01, 1.710031778e-01, 7.736327052e-01, 1.020519257e+00, -2.363741398e-01, -4.532765150e-01, 2.875716984e-01, 3.652006388e-01, 5.015596151e-01, -1.816889793e-01, 4.749712646e-01, 1.019042015e+00, 1.119493246e+00, 6.947559714e-01, 1.082781181e-01, -8.270252347e-01, 4.215524495e-01, 6.601809859e-01, 8.862512559e-02, 4.169452190e-01, 3.996008635e-01, -2.350926846e-01, -2.724725604e-01, 7.309381366e-01, -1.213489890e+00, -1.829976439e-01, 5.109670758e-01, -1.112372130e-01, -5.340549946e-01, -1.052561283e+00}, {1.190886572e-01, -1.759477705e-02, 6.240889430e-01, -2.365173995e-01, 5.327491164e-01, -1.532216817e-01, -4.001190960e-01, -4.296963215e-01, 8.577122092e-01, 1.599914908e+00, -1.130402684e+00, -1.814313084e-01, 1.108512357e-01, 7.004412413e-01, 1.323472977e+00, -9.933049083e-01, -9.058982134e-01, 8.909877539e-01, -2.031398773e+00, -4.531582355e+00, -1.504005492e-01, -1.664876640e-01, 1.562017798e-01, 4.009070992e-01, -1.255720496e+00, -1.869129017e-02, 1.847835444e-02, -2.560183108e-01, 4.813195467e-01, -2.324128449e-01, -1.462185502e+00, 4.415704608e-01, -1.474110126e+00, -1.289860457e-01, 3.826368749e-01, -1.472421765e+00, 3.399356501e-03, -9.879419804e-01, -1.919201165e-01, -1.024057865e+00, -1.187582090e-01, 7.229964733e-01, -1.238926530e+00, 3.655049801e-01, 2.002852857e-01, -1.410990804e-01, 2.226789594e-01, -5.856455564e-01, 1.724910438e-01, -4.269909263e-01, 6.815882325e-01, -6.915458441e-01, -1.635096669e+00, 9.139416367e-02, -5.361674428e-01, -6.128016710e-01, -3.285763860e-01, -1.060370207e+00, 3.046482801e-01, -7.780924439e-01, -4.062693715e-01, -1.004987121e+00, 1.134340838e-01, -7.464075685e-01, 1.652190238e-01, 4.207150936e-01, 1.047266349e-01, 3.196627498e-01, -5.715101957e-02, -3.047975540e+00, 9.984559380e-03, -4.513339102e-01, -2.725604475e-01, -2.987432480e-01, 4.867651165e-01, -4.269771278e-02, -1.216270804e+00, -2.393844426e-01, -6.541182399e-01, -5.088596940e-01, 5.446811914e-01, -1.836493492e+00, -6.825278401e-01, 5.845379233e-01, -3.575205207e-01, 9.321995378e-01, 4.780691862e-01, -1.399186492e+00, 1.253365397e+00, 8.082091808e-01, -7.683100700e-01, 8.625957966e-01, -7.966110110e-01, -1.555650592e+00, 1.189268231e+00, 1.087633073e-01, 6.482362151e-01, -4.767748117e-01, -1.008028165e-01, -2.867123187e-01, 2.263991833e-01, -3.712695599e+00, -7.034251690e-01, 6.518127918e-01, 1.561538428e-01, -4.676520824e-01, 5.665089190e-02, -4.876127839e-01, -5.254646763e-02, 1.275173664e+00, 6.216217279e-01, 7.154376805e-02, 1.627508104e-01, -7.107345462e-01, 8.469154835e-01, 5.433007330e-02, -3.365462720e-01, 2.276441641e-02, 9.804368019e-02, -1.607401013e+00}, {-3.810696006e-01, -3.951341808e-01, -1.595610976e-01, 1.546010077e-01, 3.411423266e-01, 3.546627462e-01, 8.580403030e-02, 4.217509031e-01, 1.050872654e-01, 5.979458094e-01, -2.194678783e-01, 4.103866518e-01, 5.078258514e-01, 1.556131095e-01, -4.351824224e-01, 2.304167300e-01, 3.482101858e-01, -1.271905005e-01, -9.956771880e-02, 7.221348882e-01, -2.979056239e-01, 1.025334001e+00, -2.733224630e-01, 2.714020610e-01, -3.522968292e-01, 4.248813391e-01, 3.142668605e-01, 1.624790877e-01, -1.658142954e-01, 6.860455871e-01, 6.364539266e-02, 9.138140678e-01, -2.207195200e-02, -7.155191898e-01, 2.506136298e-01, 8.855872154e-01, 1.152982712e-01, 4.422551394e-02, 1.663403511e-01, 4.527539611e-01, -2.688930631e-01, 6.687910557e-01, -1.792053580e-01, 5.771797150e-02, 5.260101557e-01, -9.346760511e-01, -1.391064882e+00, -6.047503948e-01, -3.899483979e-01, 3.241472244e-01, -8.605128527e-01, 1.013272047e+00, -4.126148701e+00, -5.042012930e-01, -6.257833242e-01, 9.208410233e-02, -1.764526814e-01, -2.669233382e-01, 3.353080899e-02, 5.010555983e-01, 5.240060687e-01, -8.022915721e-01, 3.993106782e-01, 7.051328421e-01, 4.020770192e-01, -5.284132957e-01, -6.169464067e-02, 8.439085633e-02, 9.441860765e-02, 6.978686452e-01, -3.533595428e-02, 1.123989820e-01, 1.399671286e-01, -8.204964995e-01, -6.109165549e-01, 3.985963166e-01, -1.496815123e-02, -1.776038259e-01, -4.473814666e-01, -5.211496353e-01, 7.484529614e-01, 2.110582404e-02, 3.083111644e-01, -1.159044430e-01, -3.483701348e-01, -1.250214428e-01, -5.305716395e-01, -2.437754124e-01, 1.579634100e-01, -6.993077993e-01, -6.752023101e-01, 4.581242800e-01, -3.700595498e-01, -3.485804200e-01, 6.249421835e-01, 3.024289012e-01, -5.585014224e-01, -7.129381299e-01, 3.140770271e-02, -1.605231017e-01, -2.593941288e-03, -1.661488414e-01, -7.131751180e-01, -5.910397768e-01, -7.200639844e-01, 1.246732548e-01, 2.144110203e-01, -2.067390531e-01, -2.587469220e-01, -4.614722729e-02, -2.533285618e-01, 2.767806351e-01, 4.516151249e-01, -6.115130782e-01, -6.081894785e-02, 4.927633703e-01, -4.579081535e-01, 1.654155850e-01, 1.809466630e-01, 7.656617463e-02}, {-5.378232002e-01, -1.105580106e-01, -1.539954729e-02, 4.045149311e-02, 3.038326502e-01, -7.033760846e-02, 2.883553803e-01, 3.614932671e-02, -3.781203628e-01, 3.479143977e-01, -9.370821714e-02, 9.121871591e-01, -4.167142212e-01, 2.368328273e-01, -6.551702321e-02, 1.677442491e-01, 2.796626091e-01, -4.184785113e-02, -3.365690708e-01, 2.677932262e+00, -2.248817682e-02, -3.416353464e-02, 3.720003664e-01, -9.647370875e-02, 6.231825948e-01, 7.672681808e-01, -1.553349942e-01, -1.423390955e-01, 1.711967438e-01, -2.150996685e+00, 2.265551388e-01, -6.994221210e-01, -1.218270883e-01, -1.556669831e+00, 7.037533913e-03, -9.645263553e-01, -4.570870996e-01, 2.724959850e-01, -4.019547403e-01, -3.536706269e-01, 1.172250733e-01, 3.411521763e-02, 8.459001184e-01, -1.367961287e+00, 2.747691274e-01, -2.781356871e-01, -6.425756812e-01, 9.382925630e-01, 2.884621322e-01, 9.364385158e-02, 6.667269021e-02, -4.486086965e-02, 3.910883963e-01, -1.044730186e+00, 4.217110947e-02, 1.643399477e+00, -4.141235724e-02, -1.072336584e-01, -2.375838161e-01, 4.754559696e-01, 5.495195836e-02, 7.247781754e-02, -1.233877391e-01, 4.713175893e-01, 7.019374371e-01, -5.734049901e-02, -3.583849967e-01, 1.145982966e-01, 2.631919459e-02, 1.348610371e-01, -8.196704090e-02, 4.115300626e-02, 3.378352225e-01, 6.139183640e-01, -5.000746846e-01, 2.742147446e-01, -1.942928135e-01, 5.230692029e-02, -6.212195754e-01, -1.556171775e-01, -2.557017840e-02, -6.676181406e-02, 1.306269765e+00, 5.671112612e-02, -4.875869676e-02, 4.793212190e-02, -6.142171472e-02, -1.482379586e-01, -4.661505297e-02, 3.650534451e-01, -8.154281974e-02, -4.984240979e-02, -1.603100449e-01, 1.534003671e-02, 1.096641272e-01, -4.114340842e-01, -7.710874081e-02, -2.032124549e-01, -4.103741050e-01, -1.623611897e-01, 6.106907502e-02, 4.759193584e-02, 2.216810733e-02, 5.024233088e-02, -4.139057398e-01, -6.646417379e-01, 4.514841363e-02, -8.653604984e-02, -7.804408669e-01, 9.580323100e-02, 1.080926061e-01, -7.151744366e-01, 1.023829076e-02, -1.027104035e-01, -7.176750153e-02, 3.268172145e-01, -7.138579339e-02, 2.705924213e-01, 9.827582538e-02, 6.561933756e-01}, {-2.964065969e-02, -5.101855397e-01, 5.033921599e-01, -1.775598079e-01, -3.191810250e-01, 3.854521737e-02, -1.549443752e-01, -1.984855384e-01, 7.027505636e-01, 2.402955890e-01, 2.972725928e-01, -1.027951166e-01, -9.168879688e-02, -3.533796668e-01, -2.033677548e-01, -7.554123402e-01, -7.939159274e-01, 3.838813677e-02, -1.948288977e-01, -9.506049752e-01, -4.098303616e-02, -4.494855404e-01, -1.875094920e-01, -8.996747732e-01, 2.510691881e-01, 4.748020787e-03, -3.359554410e-01, 2.452893257e-01, -5.464498997e-01, -3.878931403e-01, -2.620914578e-01, 3.063305616e-01, -1.475916386e+00, -5.050428510e-01, 2.084866017e-01, 1.091423392e+00, -1.791099757e-01, -9.548364878e-01, 3.282687366e-01, -1.171584845e+00, 1.909209788e-02, 7.734503746e-01, 5.166149139e-01, -1.484132558e-01, 7.350151539e-01, 4.951689243e-01, 3.580350280e-01, 1.567505002e-01, -7.356587797e-02, -1.262295604e+00, 8.176336288e-01, 4.430052936e-01, 1.802469492e+00, -4.484759569e-01, -7.028557360e-02, -8.315243758e-03, -1.335034490e+00, 7.378276587e-01, -7.373560965e-02, 4.992209971e-01, -2.108672867e-03, 4.372482598e-01, 8.160942793e-01, 2.023126930e-01, -1.873829775e-02, -3.775515854e-01, -6.074113846e-01, -3.699272573e-01, 9.988365322e-02, -8.758192658e-01, -1.747745723e-01, -3.795975745e-01, -2.638058364e-01, -4.913022816e-01, -4.741391242e-01, -1.029383063e+00, -1.656394899e-01, 1.697894096e+00, 2.559568547e-02, 3.652539849e-02, 2.170696259e-01, -8.116482943e-02, 2.195990533e-01, -5.498166382e-02, -4.376563728e-01, -4.414058328e-01, 6.664614677e-01, 4.599077106e-01, 4.605095387e-01, 4.189332016e-03, 1.045890003e-01, -2.170944214e-01, 3.354558349e-01, 3.760624677e-03, 1.540981084e-01, -4.623260200e-01, 8.340145946e-01, -3.746998012e-01, -3.827727437e-01, 1.358455122e-01, 6.000270247e-01, -2.931359410e-01, -4.488280714e-01, -1.615464240e-01, 6.239326000e-01, -1.322204113e+00, -2.250756502e+00, -2.588244677e-01, -7.087559104e-01, 2.818210125e-01, 3.498643041e-01, -3.973679543e-01, 6.676672101e-01, 1.003088236e+00, -4.011361897e-01, 3.759227991e-01, -1.017985418e-01, -3.845494390e-01, -7.787426114e-01, 1.252066344e-01}, {8.466017991e-02, -1.076761842e+00, 1.419665813e+00, 6.835258603e-01, -4.036813378e-01, -2.010019869e-01, -7.472584844e-01, -6.017134786e-01, 9.126021862e-01, 9.123629928e-01, 4.068890214e-01, 1.940590739e-01, 3.207020164e-01, -6.041851640e-01, 8.630746007e-01, -1.934047788e-01, -1.701374650e+00, -4.198470712e-01, -1.181703806e+00, -1.005232692e+00, -2.560542822e-01, -3.506619716e-03, 7.427029014e-01, -6.460807323e-01, -8.157237172e-01, -3.853877261e-02, -6.362184882e-01, 2.625749111e-01, 1.112254977e+00, 1.387853622e-01, -1.770036817e-01, 8.747578263e-01, -2.071136236e+00, -7.460032105e-01, 2.607294023e-01, -2.329020977e+00, -1.917363524e+00, -9.013761878e-01, 2.197149545e-01, -2.343581200e+00, -1.685739458e-01, 7.691410184e-01, -5.833156109e-01, -3.543191552e-01, 3.312557936e-01, 6.136623025e-01, 1.447063684e-01, -8.781601489e-02, -1.289428174e-01, 5.027986169e-01, 6.156615019e-01, -1.035177037e-01, 7.017133236e-01, -2.405443937e-01, -8.065506816e-02, 4.096924961e-01, 6.137291193e-01, 6.146585941e-02, -6.120262742e-01, -3.308128417e-01, -1.485069692e-01, 4.865159094e-02, 2.125426680e-01, -4.356615841e-01, -5.123962760e-01, 4.210005105e-01, -7.604179978e-01, -5.374799967e-01, -4.870027304e-01, -1.398585081e+00, -5.478600860e-01, -9.158908129e-01, -1.244040132e+00, 1.090739742e-01, 6.866656542e-01, -3.707613051e-01, -3.459993377e-02, 8.465738893e-01, 3.047685921e-01, -8.925207704e-02, 5.358542800e-01, -7.039129734e-01, -6.071947217e-01, 9.004588127e-01, 1.217252687e-01, 2.439680547e-01, 1.412331760e-01, -4.164408445e-01, -4.145129621e-01, -8.947264552e-01, -1.373594999e-01, -4.576359689e-01, -4.595831335e-01, 7.659509778e-02, 1.450423449e-01, 2.914638817e-01, -2.224325389e-01, 2.522951663e-01, -2.953498065e-01, 1.299686730e-01, 2.444383651e-01, -9.340005517e-01, -1.364986062e+00, -1.432307720e+00, 1.289072335e-01, 7.587892413e-01, -4.219886959e-01, -3.059446216e-01, -5.230548978e-01, -9.429582357e-01, 6.361088157e-01, 9.539097548e-02, 8.184460998e-01, -5.081851482e-01, 3.961027786e-02, 6.565651298e-01, 3.307523727e-01, 7.107049227e-01, 4.346459359e-02, -1.056253910e+00}, {-1.235509515e-01, -2.424574941e-01, -7.871056795e-01, 2.522417009e-01, 5.845037699e-01, 2.387858778e-01, -2.768421173e-01, 3.652655482e-01, 6.458246708e-01, 5.964640379e-01, 3.545159400e-01, -2.310616709e-02, -6.410610676e-01, -1.314610541e-01, 6.760009527e-01, -5.788934231e-01, -3.696802855e-01, 1.175208688e+00, -6.506832242e-01, -2.447758675e+00, 5.605404377e-01, -1.822156310e-01, -6.781898141e-01, 1.093706012e+00, 3.775263429e-01, 1.437282413e-01, -5.698139071e-01, 1.819781028e-02, 1.683582366e-01, -7.232748270e-01, 5.479173064e-01, -2.157074958e-01, 2.435638160e-01, -8.673973083e-01, 7.890189439e-02, 3.691940010e-02, 1.785240322e-01, -4.871586561e-01, -2.641171813e-01, -7.382592559e-01, -1.273388416e-02, 4.006334245e-01, 2.230652869e-01, -3.231156468e-01, -7.997932434e-01, 4.379950464e-01, 1.138217211e+00, -3.467529714e-01, 4.904980958e-01, -3.720019758e-01, 8.091393709e-01, -8.093135357e-01, -1.476348519e+00, 1.217278540e-01, 2.589069605e-01, -8.777108043e-03, -4.056510627e-01, -1.570895463e-01, 3.540150821e-01, -6.909827590e-01, 4.197654724e-01, -1.734808683e-01, -1.700398028e-01, -9.079583883e-01, -4.660473466e-01, -5.669694021e-02, 1.344168037e-01, -2.388333976e-01, 2.822183967e-01, -2.544044733e+00, 5.320417881e-01, 1.204590425e-01, 2.047334611e-01, -4.993793368e-01, 1.884410158e-02, 4.584219754e-01, -1.742294431e-01, 7.342575192e-01, 1.214967668e-01, -8.512331247e-01, -4.550571740e-02, -1.631263644e-01, 2.956163883e-01, -4.654143471e-03, -6.631379128e-01, 4.540866315e-01, -3.678101897e-01, -9.482017159e-01, 3.572508991e-01, 1.674723148e+00, -5.336472392e-01, 1.044097766e-01, -1.322100461e-01, -3.424980640e-01, 2.820150256e-01, -9.061316252e-01, -4.950894788e-02, 3.308769464e-01, 9.446765482e-02, -6.559865177e-02, -2.165144980e-01, 2.746783495e-01, 3.063170314e-01, -9.679791331e-01, -7.469288073e-03, -2.146882564e-01, 2.003077716e-01, -2.201236486e-01, 6.301831007e-01, 8.978326917e-01, -6.712931395e-01, 9.841159582e-01, -4.295327142e-02, -2.120242566e-01, 5.679888278e-02, -2.366112918e-01, 1.490881801e+00, -1.228573546e-01, 3.084959171e-04, -1.831735373e-01}, {-2.999800257e-02, -2.095663175e-02, 2.048514551e-03, -7.521686703e-02, 1.623851247e-02, 5.294496566e-02, -7.486193627e-02, -5.963363126e-02, 5.853765085e-02, -4.499964416e-03, 8.350500837e-03, -3.009861708e-02, 4.625660926e-02, -8.373358101e-02, -4.148449004e-02, 3.279719129e-02, -2.060660534e-02, -1.087436546e-02, 2.516044676e-02, -3.015791252e-02, -8.129779994e-02, 6.088833511e-02, -7.506603748e-02, -7.360452414e-02, -1.086370498e-01, 1.968668588e-02, -5.888114125e-02, -2.053165436e-02, -9.375763685e-02, 6.470093969e-03, -6.296351552e-02, -5.045395717e-02, -2.023761161e-02, -6.687422097e-02, 3.397448361e-02, -3.398880363e-02, -1.267056260e-02, -2.593999542e-02, -8.255605400e-02, -1.326763816e-02, -6.394471973e-02, -4.049684107e-02, -5.746730790e-02, -9.435645491e-02, 4.250938073e-02, 4.076901078e-02, 3.872447088e-02, -1.372303627e-02, -1.103195548e-01, -6.144291908e-02, 2.056514286e-02, -7.731806021e-03, -7.686119527e-02, -1.053520441e-01, 4.568584636e-02, -2.237418853e-02, -3.162474558e-02, -1.643406413e-02, 5.705684051e-02, -9.511675686e-02, 1.871432178e-02, 1.462344080e-02, 4.847270623e-02, 1.958045550e-02, -9.098326415e-02, -5.035608541e-03, -9.323398769e-02, -7.299565710e-03, 7.522832602e-02, 6.097871810e-02, -6.460253149e-02, 7.455497980e-03, -1.064794287e-01, -8.576934785e-02, 4.649614170e-02, -5.153188109e-02, 3.685348108e-02, -7.467541844e-02, 1.864064671e-02, -2.327844873e-02, -6.198604032e-02, -1.227486357e-01, -4.929618910e-02, -2.935893647e-02, 3.939828649e-02, -6.282559037e-02, 5.607464537e-02, -2.506009489e-02, 3.097548336e-02, 3.099893965e-02, -6.445322186e-02, -4.905146547e-03, 4.779076204e-02, -5.954258516e-02, -2.474996820e-02, -1.066859812e-01, -2.892251499e-02, 8.527745493e-03, -3.694703057e-02, -4.195633531e-02, 5.563165247e-02, -1.495647058e-02, -6.272818148e-02, -2.040479518e-02, 3.752990440e-02, 2.392788231e-02, 2.352190576e-02, -1.399775967e-02, -9.057444334e-02, 2.269005030e-02, -7.436373085e-02, 5.952824280e-02, 9.749199264e-03, -2.671323158e-02, 5.266270041e-02, -7.580911368e-02, 3.355141357e-02, -2.061129734e-02, -5.759167299e-02, -3.259122744e-02}, {2.241458744e-01, 1.635390520e-01, -3.812558353e-01, 2.022947185e-02, -1.137224883e-01, -2.054574937e-01, -1.609154940e-01, -1.462051719e-01, -4.520707130e-01, 5.359841511e-03, 6.066867709e-02, 2.122129798e-01, 2.758277357e-01, -1.161271930e-01, -7.894395590e-01, -2.989218235e-01, -4.154272377e-01, -1.257717460e-01, 1.510484796e-02, -1.454968333e+00, -2.430276871e-01, -2.331155390e-01, 2.892780304e-01, 1.170378029e-01, 1.596001089e-01, -1.995897889e-01, -5.232836679e-02, 5.599445105e-02, -1.080932543e-01, -2.697292268e-01, 2.191822380e-01, -2.775368690e+00, -1.467635506e-03, 3.334977105e-02, -7.235904038e-02, -1.234241724e+00, -3.320046067e-01, -1.443300117e-02, 2.692468464e-01, -8.264005780e-01, -2.543263882e-02, -1.540783793e-01, -3.225320578e-01, -4.890781343e-01, -2.377191633e-01, -5.388458371e-01, 4.995567203e-01, 1.371939778e-01, -5.352748185e-02, 1.126030087e-01, 3.360802233e-01, -5.378143787e-01, 1.736046746e-02, -1.921715736e-01, 7.153602242e-01, 3.398543000e-01, -9.872089326e-02, 9.948616475e-02, -5.641126633e-01, -3.057055473e-01, -2.459373772e-01, 1.898324639e-01, -8.434597403e-04, -6.497247815e-01, 4.187979698e-01, -2.162362188e-01, 5.484756827e-01, -2.085542381e-01, -2.603536099e-02, 1.716147363e-01, 4.322127700e-01, 2.620562911e-01, 2.141350061e-01, 1.131419420e+00, 2.206795961e-01, -1.127723008e-01, 1.333594471e-01, 2.228892595e-01, -7.492333651e-01, 9.819799662e-02, 3.458257318e-01, 6.503166258e-02, -3.732257755e-03, 5.327537060e-01, 2.185053080e-01, -2.304316014e-01, 1.947182417e-01, 1.618797332e-01, 9.114324301e-02, -3.908894062e-01, 1.943871975e-01, -3.414078057e-01, 2.744274437e-01, 6.849623471e-02, -4.482080936e-01, 2.174305767e-01, -1.507137902e-02, 1.567260325e-01, 1.865213364e-01, 2.158984244e-01, 2.409721762e-01, -2.031798661e-01, 9.790207446e-02, -6.261834502e-01, 2.140641809e-01, 2.230737954e-01, 1.800882220e-01, 1.600847244e-01, -4.124279022e-01, -2.088033408e-01, -8.254409432e-01, 2.184115350e-01, -2.220178209e-02, 1.471805423e-01, 2.750546336e-01, 3.843335807e-01, 1.860768348e-01, -7.026170492e-01, -3.503985703e-02, 1.288976073e-01}, {1.494474560e-01, -4.486513883e-02, 1.895300001e-01, 1.419921875e+00, -3.056654893e-02, -4.296249747e-01, 1.056468263e-01, -4.354959354e-02, -1.394476742e-01, 1.041331291e+00, -1.160847783e+00, 1.512751430e-01, 7.285252810e-01, 3.190685809e-01, -4.699933231e-01, -1.670098543e+00, 2.851363271e-02, -2.786140144e-01, -3.631013259e-02, -1.621666789e+00, -2.278171033e-01, 1.133100130e-02, 1.132355571e+00, 1.660971791e-01, 1.907272488e-01, 1.009305865e-01, 1.021380067e+00, -5.755807161e-01, -1.163196921e+00, -3.482127935e-02, -1.142895103e+00, 5.136014223e-01, 1.694067270e-01, 4.271371365e-01, -5.638894439e-01, -7.517764568e-01, 3.108786643e-01, 1.242770776e-01, -3.849272728e-01, -1.463516951e+00, -2.331354022e-01, -4.030574262e-01, -4.101411998e-01, 1.534630507e-01, 5.010911822e-01, 1.266031027e+00, 8.640455604e-01, -7.333414555e-01, -3.569571078e-01, 1.122260094e-02, -5.903249979e-02, 1.137523413e+00, -1.452718854e+00, 2.065614462e-01, -2.640913725e-01, -1.271325946e-01, -2.469168007e-01, -4.861726463e-01, -8.289210796e-01, 1.988659859e+00, -8.782376647e-01, -8.999063373e-01, -1.710836738e-01, -1.531048894e+00, -3.307390511e-01, 5.475872159e-01, 2.165491320e-02, 8.178238869e-01, 9.003688395e-02, -3.357511759e-01, 3.165482283e-01, -4.447540045e-01, -8.030419946e-01, -2.084495425e-01, -1.651285291e+00, -2.293188125e-01, -9.376595020e-01, -7.876347750e-02, 7.272816300e-01, -3.659935892e-01, 6.166103110e-02, -1.373194337e+00, -7.598202825e-01, 3.950377107e-01, -2.033871710e-01, 4.682546556e-01, 2.088687867e-01, -8.097054958e-01, 9.369331002e-01, 1.811613888e-01, -6.294937730e-01, 2.770676911e-01, -6.938621998e-01, -9.143731594e-01, 4.225043952e-02, -2.029842883e-01, -8.198998123e-02, -4.639746249e-01, -1.221808270e-01, 8.735913783e-02, 