#include "neural_network.h"
#include <stdio.h>
#include <math.h>

const float weights_fc1[] = {
0.3835729658603668, -0.430492103099823, 3.00040340423584, -0.20584256947040558, -0.20012521743774414, 0.5626088976860046, 1.1723254919052124, -0.3774668574333191, 0.4192894399166107, -0.0217916127294302, 0.024850137531757355, 0.05951368063688278, 1.3673683404922485, -0.29470735788345337, -0.3725733757019043, 0.01709643565118313, 0.028334256261587143, 0.002022994915023446, -0.07334092259407043, 0.08406128734350204, 0.9617802500724792, 0.8780573010444641, 0.496609628200531, -0.2167043536901474,
-0.5775241255760193, 1.1189181804656982, 0.9093324542045593, -0.22747179865837097, 0.09613242745399475, 0.6210324764251709, -1.28129243850708, -2.2240042686462402, 0.09799426048994064, 0.6647921800613403, -0.3954496383666992, 0.5069750547409058, -0.22678780555725098, 0.4141102135181427, 0.8612574934959412, -0.3111291825771332, -0.18575504422187805, 0.11299211531877518, -0.11031408607959747, -0.16608285903930664, -0.07560013979673386, -0.30752068758010864, 0.9521752595901489, 0.4704537093639374,
0.25323331356048584, 0.02131243608891964, -0.8787246346473694, -0.09445656090974808, 0.09387101233005524, -0.9281454086303711, 0.4197394847869873, -0.15267696976661682, -0.8014671802520752, 0.6190094947814941, -0.05711832270026207, 0.5516119003295898, 0.6796634197235107, -0.9400767683982849, -0.5402743816375732, 0.8781144618988037, -0.10435786098241806, -0.19277429580688477, -0.10861501842737198, 0.06892724335193634, 1.2579739093780518, -0.8428141474723816, 0.7613035440444946, 0.284933477640152,
-0.22977831959724426, 0.986238420009613, -0.22245606780052185, -0.07298877835273743, 0.21864740550518036, 0.062196146696805954, 0.19228601455688477, -1.5393645763397217, 0.47634992003440857, 0.23521849513053894, 0.20037584006786346, 0.38082951307296753, -0.12254029512405396, -0.1673593670129776, 0.8122397661209106, -0.3930334150791168, 0.0009555224096402526, 0.0849141851067543, -0.25664767622947693, -0.022679302841424942, 0.9960104823112488, 0.19828861951828003, 0.7057754397392273, 0.1915312260389328,
0.4896104335784912, 0.3975920081138611, -0.0035660837311297655, -0.17097970843315125, 0.1759556382894516, 0.3032970130443573, 0.35051411390304565, -0.13644546270370483, 0.4108845889568329, 0.7130393385887146, 0.6962464451789856, 0.00043911777902394533, -0.7848029732704163, -0.3852849006652832, -0.1777445524930954, -0.1109481230378151, -0.030902156606316566, 0.13400797545909882, -0.09766014665365219, 0.2368939369916916, -1.62470543384552, 1.2276235818862915, -0.6450194716453552, 0.5752386450767517,
-0.6458176374435425, 0.08954311907291412, 1.19072425365448, -0.4389455318450928, -0.29071423411369324, 0.21205201745033264, -1.6760987043380737, -0.46815165877342224, -1.1527314186096191, -0.20304326713085175, 0.08886716514825821, 0.05618337541818619, -0.3598620891571045, 0.6083127856254578, 0.5367576479911804, -0.2960008680820465, -0.14885708689689636, -0.19479070603847504, -0.05786200240254402, 0.11193972080945969, 0.14900533854961395, 0.15660184621810913, -0.23222370445728302, 0.06982951611280441,
-0.5813047289848328, -0.03283514454960823, 2.08609676361084, -0.34382811188697815, 0.2170514017343521, 0.29754725098609924, -0.41368964314460754, 0.6959493160247803, 1.1393940448760986, 0.07354148477315903, 0.4220173954963684, 0.679516613483429, 0.2755037248134613, 0.20879265666007996, -0.1498110443353653, -0.15311861038208008, 0.09851698577404022, -0.01829429902136326, 0.22407308220863342, 0.14395837485790253, 0.22461089491844177, 0.13801565766334534, 0.316762238740921, -0.11555201560258865,
0.48376309871673584, 0.23259013891220093, -0.4072508215904236, 0.06893538683652878, 0.39339038729667664, -0.38318756222724915, 0.4094938337802887, -1.492332935333252, 0.17059184610843658, -0.7356986403465271, 0.5648072957992554, -0.014322670176625252, 1.0191377401351929, -1.135048508644104, 0.22752678394317627, 0.42160066962242126, -0.04925733059644699, -0.15040744841098785, 0.06671913713216782, 0.1681731790304184, 0.8487614989280701, 1.0556026697158813, 0.7956417202949524, 0.5707010626792908,
-0.7066759467124939, 0.7251547574996948, -0.015004346147179604, -0.36422470211982727, 0.2156541794538498, 0.7333298921585083, -2.1965227127075195, -1.2801079750061035, 1.8665188550949097, -0.009251079522073269, -0.20455361902713776, -0.3596509099006653, -0.6043990850448608, -0.15418517589569092, 0.334859162569046, 1.4047703742980957, 0.4081803560256958, 0.19949616491794586, 0.16885876655578613, 0.03224197030067444, -0.0928259864449501, -0.7453741431236267, -0.07259204983711243, 0.16457876563072205,
0.21833500266075134, -0.049268219619989395, 0.7409149408340454, -0.10540294647216797, -0.2191966027021408, 0.08919650316238403, 0.8028715252876282, 0.5682113170623779, -1.1198406219482422, -0.2648826241493225, -0.44215628504753113, 0.1725272536277771, -0.17906145751476288, -0.4645618498325348, -0.5015361905097961, 0.31841841340065, -0.5790339112281799, -0.2533455789089203, -0.157407745718956, 0.04635240137577057, 0.2920319437980652, -0.02683160826563835, -0.1359352320432663, 0.08721687644720078,
0.7139783501625061, -0.1960369497537613, 0.9263788461685181, 0.2024489790201187, -0.18076534569263458, 0.6403642892837524, 0.49121737480163574, -1.8317326307296753, -0.9996446371078491, -0.07992172241210938, -0.45977649092674255, 0.19215823709964752, -0.2940131723880768, -0.07619185745716095, -0.006485671736299992, 0.6492511630058289, -0.070468470454216, 0.012065790593624115, -0.1861119419336319, 0.0695386677980423, -0.35593244433403015, 0.19364188611507416, 0.753548800945282, -0.09207642078399658,
-0.09411261975765228, 0.35634130239486694, 0.6853975653648376, -0.06917944550514221, -0.019718587398529053, 0.4749375879764557, 1.1418044567108154, 1.5168687105178833, 0.7652263045310974, 0.23846320807933807, -0.053142014890909195, -0.07967832684516907, 1.3196746110916138, 0.103912353515625, -0.8209200501441956, 0.21604841947555542, 0.1431770771741867, 0.05679602548480034, 0.16591860353946686, -0.0076261600479483604, 0.22512559592723846, 0.41828882694244385, 0.04819535091519356, 0.43667545914649963,
0.15260931849479675, -0.8919543623924255, -3.1649088859558105, -0.05686657875776291, -0.40762796998023987, -1.2096583843231201, -0.8484774827957153, 0.2806943953037262, 0.29522934556007385, 0.04659893736243248, -0.10480581223964691, 0.3873445987701416, 0.8077401518821716, 0.27955567836761475, 0.38167592883110046, -0.6609336137771606, 0.14210277795791626, 0.2625389099121094, 0.1793483942747116, -0.19271332025527954, -0.02574590966105461, -0.37799951434135437, -0.09977234899997711, 0.2635798156261444,
-0.1923947036266327, 0.29230809211730957, -0.837037980556488, -0.2691190242767334, 0.281779408454895, -0.03405812755227089, 0.9467158317565918, -0.7815961241722107, -0.5422521233558655, 0.08199407160282135, -0.38796019554138184, -0.7613562941551208, 1.5128438472747803, 0.6268048882484436, -0.8987077474594116, 0.027088327333331108, 0.5204607248306274, 0.25807633996009827, -0.06900541484355927, 0.4771054983139038, -0.25089794397354126, 0.37706053256988525, 0.039528071880340576, 0.467401385307312,
-0.43433916568756104, 0.44927939772605896, 0.7537428140640259, 0.025667039677500725, -0.37198734283447266, -0.02990672178566456, -0.6923797130584717, 0.6322517395019531, -0.1983204334974289, -0.2725425958633423, -1.5962762832641602, 0.4117054045200348, 0.6246582865715027, -0.17343690991401672, 0.11134995520114899, -1.3271443843841553, -0.048844192177057266, 0.04708774760365486, 0.09429845213890076, 0.4041255712509155, 0.4348706305027008, 0.5470496416091919, 0.6278946399688721, 0.25342002511024475,
0.273031622171402, -0.5564309358596802, -0.2839066982269287, -0.04920092225074768, -0.4992438852787018, -0.3165028691291809, 0.21356047689914703, 0.7090083360671997, 0.3693307340145111, -0.29967811703681946, -0.8886091113090515, -0.16589225828647614, -0.5631596446037292, 0.0053875381126999855, -1.1687705516815186, -0.09671947360038757, 0.1667470932006836, 0.006340734660625458, -0.35741880536079407, 0.2350885570049286, 0.6875708103179932, -1.7137113809585571, -0.7487929463386536, -0.34926220774650574,
0.04957364499568939, -0.5291028618812561, 1.5638155937194824, -0.08606059104204178, 0.007323806174099445, 0.8593553304672241, 1.310922384262085, 0.25000429153442383, -0.2508043944835663, 0.6500867605209351, -0.2658502161502838, 0.4824348986148834, 0.11739756911993027, -0.9289537072181702, -1.0723578929901123, 0.7229604721069336, 0.35326826572418213, -0.1252124160528183, -0.0508682020008564, -0.0685761347413063, -0.05085286125540733, -0.14446307718753815, 0.08748967200517654, -0.20243778824806213,
0.25051337480545044, -0.9425653219223022, 2.223508834838867, 0.06117483973503113, -0.36914879083633423, 0.8702521920204163, -1.271628975868225, -1.053259015083313, 0.13514716923236847, 0.24311859905719757, 0.14342540502548218, -0.3027927577495575, 0.9919065237045288, -0.6158866286277771, -0.15099167823791504, 0.6195741295814514, -0.059945229440927505, -0.23010388016700745, 0.06751007586717606, 0.2918519675731659, -0.08072730153799057, 0.7177602052688599, 0.5349277257919312, 0.13965769112110138,
0.29304227232933044, 0.5636013746261597, 0.9358869194984436, 0.2277202010154724, -0.03797464817762375, 0.9519705772399902, 0.4816059470176697, -2.082284927368164, -0.7345154881477356, 0.467448890209198, 0.3552172780036926, 0.3496116101741791, -0.9960625767707825, -0.8920701146125793, 0.07758364826440811, -0.27199000120162964, -0.1396440863609314, -0.38690119981765747, -0.1086956039071083, -0.22567060589790344, -0.00451754592359066, 0.2856040298938751, -0.3897590935230255, -0.18095055222511292,
0.6040104031562805, 0.16817916929721832, 1.5031121969223022, 0.11304319649934769, -0.3370973765850067, -0.19376811385154724, -0.2796401381492615, -0.4274906516075134, -0.03410723805427551, -0.14022980630397797, 0.8228272795677185, 0.5707119107246399, -0.9114596843719482, -1.9932763576507568, -0.2969611585140228, -0.05663362890481949, -0.2688334286212921, -0.22739800810813904, 0.1292913556098938, 0.08333493024110794, 0.8019382953643799, 0.30642613768577576, 0.5775790810585022, 0.7301695942878723,
-0.1596021056175232, 0.5929030179977417, -2.488513946533203, 0.35907626152038574, 0.06427261233329773, -0.8454107642173767, -1.8399232625961304, 0.3604359030723572, -1.009319543838501, -0.04538796842098236, -0.17725807428359985, 0.047828610986471176, 0.29568907618522644, 0.1816997081041336, -0.198152557015419, 0.1988568902015686, -0.020531555637717247, 0.11084586381912231, 0.09840654581785202, 0.033527471125125885, -0.004824264906346798, 0.03859834745526314, -0.1261480450630188, 0.10691358149051666,
-0.17378851771354675, 0.2915313243865967, -0.6250364184379578, 0.15615129470825195, -0.0022898600436747074, 0.17001460492610931, -0.7164254188537598, 1.778176188468933, 0.2078706920146942, 0.16753756999969482, 0.13676157593727112, -0.14616858959197998, -0.7749552726745605, 1.6248804330825806, 0.5234902501106262, -0.9876015782356262, 0.3338905870914459, 0.047086283564567566, -0.061883289366960526, -0.09563924372196198, -0.6705051064491272, 0.7255993485450745, 0.1174536868929863, -0.22041404247283936,
0.02992388606071472, 0.13198889791965485, 0.7515278458595276, -0.6861727237701416, -0.486052542924881, 0.0020900312811136246, 0.8017606139183044, 2.128570318222046, 0.3311944901943207, 0.06503889709711075, 0.6791682243347168, -0.2924068868160248, -0.2946735620498657, -0.7351765632629395, 0.14071208238601685, -0.029133141040802002, -0.03479493409395218, -0.05645163357257843, -0.04273594915866852, -0.21862459182739258, -0.6897932887077332, -0.45353561639785767, -0.7049494981765747, -0.16589142382144928,
0.1039343997836113, -1.4041861295700073, 0.47255295515060425, 0.15949825942516327, -0.40558257699012756, 0.057617515325546265, -0.16678273677825928, -1.092806100845337, -0.9137691259384155, 0.014435267075896263, -0.21058204770088196, -0.14827919006347656, 0.21967509388923645, -0.47198596596717834, 0.1167067140340805, 0.36283212900161743, 0.10406516492366791, 0.009703798219561577, -0.01774260774254799, -0.08431672304868698, -0.15803749859333038, -0.11026713997125626, -0.5328980088233948, 0.41003140807151794,
-0.2594870626926422, -0.3043280243873596, 0.4912974536418915, -0.2963675558567047, 0.21443629264831543, 0.36539584398269653, 0.5244959592819214, -2.0119080543518066, -0.32841214537620544, 0.21199984848499298, -0.8759803771972656, -0.14582547545433044, -0.4116032123565674, 0.20261341333389282, -0.14420408010482788, 0.9239910840988159, 0.1331384927034378, 0.14522990584373474, 0.049736395478248596, 0.14255419373512268, 0.5441734790802002, -1.7327282428741455, -1.0361698865890503, 0.03612058609724045,
0.15421849489212036, -0.04366099461913109, -0.5575825572013855, 0.2821885347366333, -0.07552430778741837, -0.2623288035392761, 0.9057700037956238, 0.6353352069854736, -1.0657984018325806, -0.010075497440993786, -0.07155036926269531, -0.6905494332313538, -0.19911690056324005, -0.25497230887413025, -0.2832340598106384, 0.24530786275863647, -0.04058109223842621, -0.19072766602039337, 0.2623714804649353, 0.027899734675884247, -1.1290699243545532, -0.37448230385780334, -1.9847835302352905, 0.16387297213077545,
-0.3146192133426666, 0.36938709020614624, -0.017974982038140297, -0.01252646092325449, 0.3630119264125824, 0.16653507947921753, -0.44905000925064087, 0.4826244115829468, 2.113701820373535, -0.6431565880775452, 0.017538441345095634, 1.0449352264404297, 0.4770719110965729, -0.004042858257889748, 0.9043699502944946, -0.4528869092464447, -0.1327192485332489, -0.13372758030891418, -0.1468547135591507, 0.006515813991427422, -0.910088300704956, -0.08395572751760483, 1.3824344873428345, -0.15017355978488922,
1.6008386611938477, -0.4288550913333893, 1.2442734241485596, 0.7172560095787048, 1.0856761932373047, 0.6104180812835693, 0.36894288659095764, -0.4863077700138092, -0.914035439491272, 0.03424973413348198, 0.3315967321395874, 0.10801158845424652, 0.3795478045940399, -0.0043363976292312145, 0.7477151155471802, 0.3611002266407013, -0.13837352395057678, -0.33498814702033997, -0.07112636417150497, -0.2231791913509369, -0.13522446155548096, -0.016521137207746506, -0.11903739720582962, -0.44580981135368347,
-0.5112856030464172, -0.31943631172180176, 0.6827590465545654, -0.11183217912912369, 0.14806818962097168, 0.43441328406333923, 0.061464112251996994, -0.14615243673324585, 0.445748895406723, 0.9222444891929626, -0.932198703289032, 0.09380654990673065, -1.20243501663208, -0.4649991989135742, -0.652777373790741, 1.0489143133163452, 0.3764910101890564, 0.19958966970443726, -0.010162033140659332, -0.1267949640750885, 0.9934732913970947, 0.3496127724647522, -1.0922470092773438, 0.31467539072036743,
-0.24572192132472992, -0.5836737155914307, 2.534667491912842, 0.04638161510229111, -0.20633123815059662, 1.5425950288772583, -0.49414557218551636, 2.624666452407837, 0.37359505891799927, 0.07190299034118652, 0.07895716279745102, 0.2502061724662781, 0.6977300643920898, 1.0546895265579224, -0.3770219385623932, -0.8244749903678894, 0.26499560475349426, -0.08921105414628983, -0.06576351821422577, 0.08192073553800583, 0.22102709114551544, 0.5063635110855103, 0.023901475593447685, 0.2620348632335663,
0.07821092009544373, -1.0497560501098633, -0.14948146045207977, 0.005588814150542021, 0.23039837181568146, -0.8940029740333557, -0.6252314448356628, -0.17286519706249237, -0.09851182997226715, 0.3109361231327057, 0.9197354912757874, -0.07445219904184341, 0.7647104263305664, -0.07316198945045471, 0.34991371631622314, -0.3432680070400238, 0.10185647755861282, -0.1943991333246231, 0.10012894123792648, 0.21903623640537262, -1.916734218597412, -0.537837564945221, 0.268833726644516, -0.4609827399253845,
-0.034658193588256836, -1.2852081060409546, -0.5128947496414185, -0.07329971343278885, -0.6753644943237305, -0.2096225470304489, -1.0829460620880127, -0.20307759940624237, -0.22410355508327484, -0.10807312279939651, -0.19560976326465607, 0.200499027967453, -0.44475772976875305, 0.6368087530136108, 0.27374404668807983, -0.44692185521125793, -0.054582297801971436, 0.03533652052283287, -0.09145549684762955, -0.022705042734742165, -0.2142464965581894, 0.28879374265670776, 0.053514763712882996, -0.2681041657924652,
0.05994785949587822, -0.06648005545139313, 0.16567127406597137, 0.49203217029571533, -0.2998824715614319, -0.425055593252182, -1.0000135898590088, -0.5904664397239685, -0.3710857331752777, -0.4527590572834015, -0.3678587079048157, -0.019868062809109688, -0.1908280998468399, -0.45623844861984253, 0.732806921005249, -0.9201813340187073, -0.03974664956331253, -0.13274221122264862, -0.30735382437705994, -0.31665918231010437, -0.2985912263393402, 0.41944196820259094, 0.0843413770198822, -0.07043613493442535,
0.5056256651878357, -1.64354407787323, 0.7268211245536804, 0.38335293531417847, -0.07134543359279633, -0.37494292855262756, 0.2866614758968353, -1.0670336484909058, -0.5046934485435486, -0.27240538597106934, -0.3139728903770447, -0.08577592670917511, 0.3836633563041687, 0.08504170924425125, -0.0908382460474968, -0.46287766098976135, 0.014068600721657276, 0.07788160443305969, -0.18355025351047516, 0.5689467191696167, 0.5243744254112244, -0.9433913826942444, 0.44861093163490295, -0.013899094425141811,
-0.24572959542274475, 0.5383617877960205, 0.4950574040412903, -0.13289543986320496, -0.17488577961921692, 0.08823785185813904, -1.148205280303955, -0.2929789125919342, -0.15526440739631653, -0.8710212707519531, -0.13275156915187836, 0.6110849380493164, -0.011338331736624241, 0.5452132821083069, 0.5732362270355225, -0.7184410095214844, -0.12633100152015686, -0.08552659302949905, -0.111056849360466, 0.002644557738676667, -0.6815507411956787, -1.408457636833191, 0.7350453734397888, -0.20174609124660492,
0.7106305360794067, -1.1085935831069946, -0.44621071219444275, 0.03339222073554993, 0.0011832177406176925, -0.5260975956916809, 0.43995699286460876, 2.0706117153167725, 0.6181592345237732, 0.02641412615776062, 1.1753051280975342, 0.16014640033245087, 0.1139945387840271, -0.2477336972951889, 0.05990670993924141, 0.065421462059021, -0.2174718677997589, 0.06801453232765198, 0.18345768749713898, 0.21601982414722443, 0.14514395594596863, 1.2958159446716309, 0.13909082114696503, 0.3566359281539917,
-0.17352916300296783, -0.36597734689712524, 1.143917441368103, -0.3050662875175476, -0.2687932252883911, 0.7742238640785217, -0.7467672824859619, 0.569960355758667, -0.2912388741970062, -0.6556509137153625, 0.45115232467651367, -0.07536237686872482, -1.313488245010376, -0.07913268357515335, 0.12947037816047668, 0.2330312728881836, 0.04920941963791847, -0.007618776522576809, 0.08880244195461273, 0.3386145532131195, -2.1562910079956055, 0.6708338856697083, -1.1983869075775146, 0.5849893093109131,
0.7934110164642334, 0.5570006370544434, -1.5511878728866577, 0.3747730553150177, 0.6541419625282288, -1.2211873531341553, 0.061200641095638275, -0.8198698163032532, 1.628226399421692, 0.09329256415367126, -0.24792756140232086, -0.3581381142139435, -0.41238829493522644, 0.5588338375091553, 0.6027892827987671, 0.6363739967346191, 0.03503497689962387, -0.12256848067045212, 0.16188883781433105, 0.40584951639175415, -0.825080394744873, 0.7508471012115479, -0.11694581061601639, -0.8287291526794434,
0.49044370651245117, 0.2962391972541809, 1.4796192646026611, 0.16931714117527008, 0.06582573801279068, 0.7061587572097778, 0.7996273636817932, -1.2420904636383057, -0.8658795952796936, 0.23226070404052734, -0.2730502188205719, -0.07177343964576721, -0.6695851683616638, -1.100352168083191, 0.33060145378112793, 0.8096826672554016, -0.09206127375364304, -0.31599074602127075, -0.07793869078159332, -0.05929464474320412, 0.3081326186656952, -0.15992599725723267, -0.6136589050292969, 0.1079915389418602,
-0.2894912660121918, -0.6593107581138611, 1.2316004037857056, 0.20809327065944672, -0.618399441242218, 0.2935801148414612, 0.037601176649332047, -2.3517398834228516, -0.3682597577571869, 0.1143576130270958, -0.2368626743555069, -0.13602720201015472, 0.4583262801170349, -0.45253491401672363, -0.3875814974308014, -0.3560697138309479, -0.16605207324028015, -0.38072359561920166, 0.03298277035355568, -0.16851113736629486, 6.59798679407686e-05, 0.4085116982460022, 0.0716167762875557, 0.041940998286008835,
-0.16963370144367218, -0.008602036163210869, 1.2876139879226685, -0.1356198787689209, -0.016923457384109497, 0.1231638640165329, 0.48719942569732666, -1.1531076431274414, 0.28371313214302063, 1.2944753170013428, -0.359518826007843, 0.7031591534614563, -0.26796600222587585, 0.32296022772789, -0.021984856575727463, -0.23850712180137634, -0.18536284565925598, -0.2330632209777832, -0.08808048814535141, 0.26069384813308716, 1.2005085945129395, -0.9868667721748352, 1.1070915460586548, -0.07491074502468109,
-0.5513404011726379, -0.050801653414964676, 0.3074302077293396, -0.6148408651351929, -0.2835691571235657, 0.5279676914215088, -0.8004285097122192, -1.2387490272521973, -1.2767715454101562, 0.22354795038700104, -0.20317931473255157, -0.4635281264781952, -0.13702145218849182, 0.18697549402713776, 0.0743778869509697, -0.08708704262971878, -0.308876633644104, -0.14781782031059265, 0.22851499915122986, -0.14936834573745728, 0.10000497847795486, -0.13536502420902252, -0.1126076728105545, -0.37359145283699036,
-0.26844653487205505, 0.7205434441566467, -1.1477943658828735, 0.0073852832429111, 0.06290128827095032, -1.4489872455596924, 0.056208305060863495, -0.9795618057250977, 0.3179076611995697, 0.24813216924667358, 0.015471954829990864, 0.029308177530765533, -1.12682044506073, -2.1731972694396973, 0.6917657256126404, -0.1419299840927124, 0.13413093984127045, -0.13870219886302948, 0.0010537976631894708, 0.1469794362783432, -0.1488875150680542, -0.5535246133804321, 0.6852027773857117, -0.32245537638664246,
0.0022502047941088676, -0.3240022659301758, -1.5715254545211792, -0.016017884016036987, 0.30575019121170044, -0.6764612197875977, -0.8339349031448364, -0.46710455417633057, 0.06308821588754654, 0.06096907705068588, 0.33341076970100403, 0.9841288328170776, -1.3641870021820068, 0.20524285733699799, 0.5032220482826233, -0.3937093913555145, 0.17965304851531982, 0.18392738699913025, 0.11404722929000854, 0.05220312252640724, 0.44423842430114746, 0.30512139201164246, 0.23270194232463837, 0.07501403987407684,
0.44101569056510925, -1.318804144859314, 0.3240800201892853, 0.0696839913725853, -0.07396872341632843, 0.2488037794828415, 0.21676577627658844, 2.0876402854919434, 1.6588258743286133, 0.0448262020945549, 0.8091621994972229, 0.2081083208322525, -0.09644246101379395, 0.10778030753135681, 0.4027516841888428, -0.17352177202701569, -0.05219404771924019, 0.1645985245704651, -0.06214948743581772, -0.5580919981002808, -0.09952015429735184, 0.20779649913311005, 0.3611771762371063, 0.38434070348739624,
0.26023975014686584, -0.9008467197418213, -0.3361939787864685, 0.04625294730067253, -0.10789578408002853, -0.004185303580015898, 0.3681398034095764, -1.6082580089569092, -1.771077036857605, -0.01775008998811245, -0.037106309086084366, 0.10327376425266266, -0.35168737173080444, -0.10328153520822525, 0.17932355403900146, 0.11653478443622589, -0.042917780578136444, -0.13390584290027618, 0.07457146048545837, 0.06395195424556732, -0.0035537914372980595, -0.12888513505458832, 0.025895701721310616, -0.03344220295548439,
2.1795012950897217, -0.3950352072715759, 1.0274908542633057, 0.2525506615638733, 1.7064012289047241, 0.29528746008872986, 0.1381247639656067, -0.22008585929870605, 0.46927064657211304, -0.17517219483852386, -0.28701359033584595, -0.24094362556934357, 0.5161019563674927, 0.554539144039154, 0.032555241137742996, -0.5499870181083679, 0.4132639169692993, 0.38640958070755005, 0.023785265162587166, -0.08356264978647232, -0.03907573223114014, 1.0170940160751343, -0.9724248647689819, 0.9588726162910461,
-0.05366753414273262, 0.6477384567260742, 0.9884396195411682, 0.2615949809551239, 0.7605266571044922, -1.1739529371261597, -0.6648008823394775, -1.4822105169296265, 1.9622383117675781, 0.47281989455223083, 0.18358127772808075, 0.289255827665329, 0.7235873937606812, 0.13453397154808044, 0.33548128604888916, 0.587110161781311, -0.3249455690383911, 0.11850807815790176, -0.28109607100486755, 0.2919268012046814, 0.2776090204715729, 0.8326155543327332, 1.0351026058197021, 0.1266922652721405,
0.14347144961357117, -0.7019851803779602, -0.9663466215133667, -0.47880786657333374, -0.5782586336135864, -0.4039551019668579, 0.5195803642272949, -0.08115529268980026, -1.0655853748321533, 0.21774700284004211, -0.14599761366844177, 0.07168320566415787, 0.151412695646286, -0.34831857681274414, 0.11522172391414642, 0.12297938019037247, -0.21853786706924438, -0.08300923556089401, -0.017139779403805733, 0.0935765728354454, 0.014799914322793484, -0.0768822655081749, -0.013958276249468327, 0.04596148803830147,
0.9359012842178345, -1.3062396049499512, -0.6229327917098999, 0.07190284132957458, 0.9728155136108398, 0.14904698729515076, 0.23560376465320587, 0.09409505873918533, -1.591949701309204, -1.218401312828064, 0.13207857310771942, -0.2691407799720764, 1.0652917623519897, -1.0603439807891846, 0.23914681375026703, 0.23295088112354279, 0.2320084124803543, 0.4489395320415497, -0.22477935254573822, 0.34847691655158997, 0.12930402159690857, 0.43563055992126465, 0.05349372327327728, 0.27585986256599426,
-0.20841896533966064, 0.4405820667743683, -0.11405839771032333, -0.3395164906978607, -0.1248958557844162, 0.10896040499210358, 0.6846039891242981, -2.1074066162109375, 1.012097954750061, -0.07794427871704102, -0.38678601384162903, -1.3049086332321167, -0.8759072422981262, 0.8311163187026978, -0.013705444522202015, 0.4641333222389221, -0.10738011449575424, -0.04330458119511604, 0.06754102557897568, 0.21422769129276276, 0.7300215363502502, -0.8916196823120117, -1.021934151649475, -0.022151129320263863,
-0.6100956201553345, -0.896348237991333, 1.1087881326675415, -0.22336119413375854, -0.5200732946395874, 0.5303478837013245, -0.6260038018226624, -0.32228946685791016, 0.44367310404777527, 0.23603644967079163, 0.2664647400379181, 0.2218763828277588, -2.26243257522583, -0.4764656722545624, 0.09153616428375244, -0.22310024499893188, 0.198368638753891, 0.07971356064081192, -0.006224361713975668, -0.08678369969129562, 0.3675718605518341, 0.14606113731861115, 0.30286675691604614, -0.4062909483909607,
0.2576335668563843, -0.2387417107820511, -2.778740406036377, 0.34358251094818115, -0.043127141892910004, -0.26228365302085876, -0.6457229256629944, -0.852397084236145, -0.5888657569885254, 0.20821352303028107, 0.2471335530281067, -0.08647386729717255, 1.863678216934204, 1.1840386390686035, 0.020125968381762505, 0.08612652868032455, -0.0860757976770401, -0.34898045659065247, 0.1344425231218338, 0.1608801633119583, 0.3295404016971588, -0.09195537865161896, -0.7552030682563782, -0.00726347416639328,
-0.002585885114967823, -0.2231263816356659, 0.4435301423072815, 0.3833332657814026, 0.05718254670500755, -0.866296112537384, -0.19433116912841797, 1.3346140384674072, -0.6420596241950989, -0.4635964035987854, -0.243072971701622, 0.6553007960319519, -0.7538496851921082, -0.44410133361816406, -0.7649130821228027, -0.005990227218717337, 0.0696677640080452, -0.019283557310700417, 0.0133903156965971, -0.2872333526611328, 0.5153158903121948, -0.18941017985343933, -0.10400759428739548, 1.1433244943618774,
-0.3032523989677429, 0.595519483089447, -0.05414323881268501, -0.005494436714798212, 0.08337265253067017, -0.4854797124862671, -1.702165126800537, -0.16522081196308136, -0.19392581284046173, -0.16337591409683228, 0.10057863593101501, -0.11752083897590637, -0.6222752928733826, 0.13437411189079285, 0.2448318749666214, -0.21382765471935272, 0.15359599888324738, 0.379155695438385, -0.16019120812416077, 0.4418014883995056, -0.24316361546516418, -0.5066327452659607, -0.21360565721988678, -0.2926836907863617,
-0.0907827615737915, 0.11677892506122589, 0.2997925281524658, -0.0773770809173584, -0.19287143647670746, -0.10327978432178497, -0.34575971961021423, 0.19942565262317657, -0.1322735846042633, 0.20470310747623444, 0.24516433477401733, -0.10369772464036942, 0.027216799557209015, -3.35909104347229, 0.44979727268218994, -0.6955448985099792, 0.11586622148752213, 0.19924163818359375, -0.2086356282234192, 0.06000532582402229, 1.423288106918335, 0.8313621878623962, 1.7950948476791382, 0.6912857294082642,
-0.339995801448822, -0.10725926607847214, 0.16088731586933136, 0.17646943032741547, 0.2726946771144867, -0.048994045704603195, -0.14630408585071564, 0.24419230222702026, -0.9931033849716187, -0.11619599908590317, 0.038777124136686325, -1.3801747560501099, -0.4801918566226959, -0.26116666197776794, -0.2823997139930725, -0.5678039193153381, 0.3248755633831024, 0.6281201243400574, -0.04183609038591385, -0.3144665062427521, 0.4611043334007263, 0.8824626207351685, 0.3927001953125, 0.10147903114557266,
-0.09909483045339584, 0.24363964796066284, -1.825520396232605, 0.011475969105958939, 0.028653573244810104, -1.4444973468780518, -0.6091175675392151, 0.34731706976890564, 0.29673483967781067, -0.6497780680656433, 0.6735996603965759, 0.7092599272727966, -0.6222017407417297, -1.4163905382156372, 0.37239333987236023, -0.6388409733772278, 0.08717440813779831, -0.048082202672958374, -0.0022739227861166, -0.04830837622284889, 0.669983983039856, -0.8988795876502991, 1.409376859664917, -0.5917000770568848,
-0.09375578910112381, 0.8391770720481873, -1.1841037273406982, 0.1614985466003418, 0.05129966139793396, -0.27388104796409607, 0.8146089911460876, -1.1631102561950684, 1.0182600021362305, 0.1856842041015625, -0.07492652535438538, 0.3992924988269806, 0.46688005328178406, -0.8269898891448975, 0.2750127911567688, 0.2177749127149582, -0.29183605313301086, -0.10159473866224289, 0.07843224704265594, 0.0007019995828159153, 0.88507080078125, 0.3317934274673462, 1.139807939529419, 0.0013552411692216992,
0.2053690254688263, -0.39447107911109924, -2.553581476211548, 0.20046037435531616, -0.3801475465297699, -0.8886717557907104, 0.3009558618068695, 1.6226427555084229, -0.4481312036514282, 1.0792158842086792, -0.17664508521556854, 0.06885048747062683, -0.9639588594436646, 0.7235355973243713, 0.10027921199798584, 0.160090371966362, -0.2501124143600464, -0.43359026312828064, -0.05120418593287468, -0.02024114318192005, 0.6307311654090881, 0.7461233139038086, 0.1782802790403366, -0.6228349208831787,
0.5228763222694397, 0.7151945233345032, 0.006515610497444868, -0.1597628891468048, 0.10966052860021591, 0.7373623847961426, 0.48494628071784973, -0.00979254674166441, -0.31691068410873413, -0.4408596456050873, -0.5003822445869446, 0.8013010025024414, -0.38179805874824524, -0.2029949426651001, -0.1086425632238388, 0.1644746959209442, 0.01998390629887581, -0.11890186369419098, -0.10444638878107071, 0.29352790117263794, -0.5971208214759827, 1.4711735248565674, -0.34786921739578247, -1.118781328201294,
-0.1319141834974289, 0.0651254653930664, -2.407165765762329, 0.2431648224592209, 0.2435973882675171, -1.4239486455917358, 0.04092170670628548, -1.1010351181030273, -1.7330416440963745, -0.03705589845776558, -0.30969783663749695, -0.22409242391586304, -0.2359028309583664, -0.07376770675182343, 0.44455909729003906, 0.2565251290798187, -0.07676662504673004, -0.3659549355506897, -0.12818540632724762, -0.19464191794395447, 0.257568359375, -0.47632163763046265, 0.193203404545784, -0.30826622247695923,
-0.38683024048805237, -0.561643123626709, 0.11786086857318878, -0.32192832231521606, -0.49697068333625793, 0.23009143769741058, 0.14383286237716675, 1.353773593902588, -0.1969165802001953, 0.3558191657066345, 0.1775815337896347, 0.05485648289322853, 0.6010248064994812, -0.7344122529029846, 0.16017024219036102, -0.28548628091812134, -0.3235538601875305, -0.3583431541919708, 0.0051588271744549274, 0.23666253685951233, 1.0726479291915894, 0.8160629868507385, 0.609279453754425, -0.2638348639011383,
0.4380708634853363, -0.6244907379150391, 1.096476435661316, 0.4586213231086731, 0.34097301959991455, -1.7156686782836914, -0.27515262365341187, 0.4447934925556183, 0.1343647837638855, -0.5411784648895264, -0.5325435400009155, 0.7071359753608704, -0.6643980145454407, -0.23935236036777496, -0.7160469889640808, 0.36422812938690186, -0.18442031741142273, -0.2146919220685959, -0.12446055561304092, 0.44832518696784973, 0.5341851115226746, -0.6213952898979187, -0.7367412447929382, 0.6330816149711609,
-0.06937479227781296, 0.29541876912117004, -0.5483177304267883, -0.45248326659202576, 0.1855895221233368, -0.4501405656337738, 1.0953435897827148, -0.7868163585662842, 1.2456865310668945, 0.21184922754764557, 0.20476704835891724, 0.48569270968437195, 0.14004193246364594, -0.40387412905693054, 0.1188785582780838, 0.33421701192855835, 0.3389267027378082, 0.2518283426761627, 0.08908060938119888, 0.146190345287323, 0.5113749504089355, 0.01960901729762554, 0.14734281599521637, -0.1770877242088318,
1.224902868270874, 1.008591651916504, 0.45875436067581177, 0.567724347114563, 0.35621029138565063, 0.38239744305610657, -0.6925739645957947, -0.1791861355304718, 0.5008399486541748, -0.009053271263837814, -0.11031746119260788, 0.1363612860441208, -0.678056538105011, 0.38586655259132385, 0.22922715544700623, -0.34509414434432983, -0.3112984299659729, -0.028733886778354645, 0.08263784646987915, 0.34368109703063965, -0.2617475390434265, 0.11343421041965485, -0.1895577609539032, -0.037979114800691605,
-0.33106571435928345, 0.29850906133651733, -2.1502387523651123, -0.06417568773031235, 0.08936486393213272, -0.5035294890403748, -0.7448318600654602, 1.2426217794418335, 0.48869067430496216, -0.10108142346143723, 0.2760833501815796, -0.059679340571165085, -0.21316975355148315, 1.162278652191162, 0.30124545097351074, -0.8376026749610901, 0.05384735390543938, 0.48092398047447205, 0.057747893035411835, 0.05753367766737938, -0.21788804233074188, 0.3146000802516937, -0.04153813049197197, 0.058002542704343796,
-0.053798284381628036, 0.09605886042118073, -0.4152005910873413, -0.10855673998594284, -0.017381858080625534, 0.022300392389297485, 0.8883659243583679, -0.26209449768066406, 0.786706268787384, 0.2621130645275116, -0.15665049850940704, -0.3652694821357727, 1.1207221746444702, -1.0886553525924683, -0.008309251628816128, 0.008059047162532806, 0.2800324559211731, 0.09145831316709518, -0.0950869768857956, 0.2212548553943634, 0.40961766242980957, -0.8566141724586487, 0.612535297870636, -0.06320638954639435,
-0.15365450084209442, -0.0013125098776072264, 0.3154274821281433, -0.14901411533355713, 0.5834139585494995, 0.6492538452148438, -0.3101760149002075, -1.1266613006591797, -0.26642608642578125, -1.4677340984344482, -0.47924935817718506, -0.1238553375005722, 0.013879174366593361, 0.4017496109008789, 0.013479070737957954, -0.10087139159440994, 0.27702605724334717, 0.2634575366973877, 0.032560572028160095, 0.350924015045166, -0.9352349638938904, 1.0666927099227905, -0.3037981688976288, 0.7228822112083435,
0.004560344386845827, 0.22652363777160645, -0.33005404472351074, 0.14742283523082733, -0.0771934762597084, -0.07389427721500397, -0.0579615943133831, -0.22134099900722504, -0.05570003017783165, -1.0702062845230103, -0.2781257629394531, -0.05213335528969765, 0.8781936168670654, 1.2313441038131714, 0.8552837371826172, -0.21939556300640106, -0.5163807272911072, -0.23311066627502441, 0.13692253828048706, 0.3514917492866516, -0.10419327020645142, -1.1115796566009521, -0.6642157435417175, 0.1001054123044014,
-0.2701902687549591, 0.38131198287010193, 1.0378234386444092, -1.1227412223815918, -0.3278014361858368, 0.5890843868255615, 0.45738235116004944, -1.1476657390594482, -1.0273951292037964, -0.3013186454772949, -0.30815544724464417, 0.6930961608886719, -0.835554301738739, -0.20913031697273254, 0.30972373485565186, 0.25919437408447266, -0.1919807344675064, -0.07895340025424957, 0.1792561262845993, -0.025231052190065384, 0.1486574113368988, 0.0463050939142704, 0.28086477518081665, 0.2462940514087677,
0.4460441768169403, -0.7824873924255371, 0.5262446999549866, 0.2442825734615326, 0.00186498265247792, -0.27890515327453613, -0.4973256587982178, 1.4197778701782227, 0.3774123787879944, -0.484824538230896, -0.15062224864959717, 0.431000679731369, -0.11550041288137436, 1.8648897409439087, 0.47746899724006653, 0.2524103820323944, 0.1341109573841095, -0.21096818149089813, -0.037815261632204056, 0.22966189682483673, -0.27998441457748413, 0.1562352180480957, -0.4052703082561493, -0.5116645097732544,
0.7349547743797302, -2.1750407218933105, 0.6866295337677002, 0.22447356581687927, -0.04422272369265556, -0.6446998119354248, -0.08023092150688171, 0.17005346715450287, 1.1268960237503052, 0.292530357837677, -0.21508195996284485, -0.36939170956611633, 1.2967827320098877, -0.7470911145210266, 0.023938441649079323, 0.09052079916000366, -0.04968634620308876, 0.20958518981933594, -0.04691439867019653, 0.3619287312030792, 0.027121657505631447, -1.3142657279968262, 0.8232685327529907, 0.8462536931037903,
0.5678389668464661, -0.8168125748634338, -0.006243281532078981, 0.24657884240150452, -0.5363048911094666, 0.06481681019067764, 0.6494515538215637, 1.3394633531570435, -0.6906446814537048, 0.6993345618247986, -0.21537575125694275, 0.3039778769016266, 0.032750505954027176, 0.8154213428497314, -0.6612818241119385, -0.4263893961906433, -0.3446066081523895, -0.11572861671447754, 0.042033880949020386, -0.02702242322266102, 0.2668241858482361, -0.06458806991577148, 0.43612217903137207, -0.24797874689102173,
-0.04869126155972481, 0.973345935344696, -1.4333730936050415, 0.28693294525146484, 0.03304437920451164, -0.23063316941261292, 1.1255110502243042, -0.8972596526145935, 0.4602214992046356, 0.1108754426240921, -0.1378903090953827, 0.13051460683345795, 0.2945389747619629, -1.4003556966781616, -0.847263753414154, 0.09772766381502151, -0.2717544734477997, 0.058989569544792175, -0.0777529925107956, -0.02309211902320385, -0.09834673255681992, -0.3736322522163391, 0.06651370227336884, -0.10687658190727234,
0.11085107177495956, 0.5168216228485107, -0.06716370582580566, -0.437661737203598, -0.3971327245235443, 0.8451952338218689, -0.37789827585220337, 2.2435977458953857, -0.3562372028827667, -0.576816976070404, -0.16180966794490814, -0.8313241004943848, -0.0971914529800415, 0.3129938542842865, -0.7331885099411011, -0.4944470524787903, -0.09078295528888702, -0.06236504763364792, 0.11929983645677567, 0.13445185124874115, -0.624769389629364, 0.0029114368371665478, 0.18842792510986328, 0.0448080450296402,
0.4368806779384613, -0.5140063166618347, 0.01940998248755932, 0.10430442541837692, -0.17421624064445496, 0.009675601497292519, 1.0708160400390625, -0.41617825627326965, -1.3757966756820679, -0.01586017571389675, -0.0009021909791044891, 0.0022240285761654377, -0.019459275528788567, -0.32479655742645264, -0.2604418694972992, 0.3467879295349121, -0.18685677647590637, -0.28789645433425903, -0.0418325699865818, -0.028910281136631966, -0.06817935407161713, -0.09997334331274033, 0.14310243725776672, -0.13726669549942017,
-0.06464650481939316, -0.1886471062898636, 2.4053354263305664, -0.09844622015953064, -0.06474480777978897, 0.9633587002754211, 1.4715018272399902, -0.5938583612442017, 0.6525686383247375, 0.0013406653888523579, -0.10533271729946136, 0.05960211530327797, 0.7497715353965759, -1.0845195055007935, -0.1157132089138031, 0.6072356700897217, -0.042830683290958405, 0.023383554071187973, 0.049551673233509064, -0.06499410420656204, 0.3297393321990967, -0.23703612387180328, 0.12034223973751068, -0.13300196826457977,
-0.0800732746720314, 0.5202915072441101, 0.05734466388821602, -0.23544178903102875, -0.06258149445056915, -0.28796499967575073, 1.290110468864441, -1.497623085975647, 0.6489983201026917, 0.5197940468788147, -0.24705427885055542, -0.5227752923965454, 0.17986169457435608, -0.37021493911743164, -0.6160334348678589, 1.030715823173523, 0.11592476069927216, 0.1369742900133133, -0.059139709919691086, -0.08400999754667282, 0.8176978230476379, 0.035485073924064636, -0.08741278946399689, -0.10900528728961945,
0.6146359443664551, -0.33803847432136536, 1.3069759607315063, -0.2831357419490814, -0.3509465157985687, 0.25146856904029846, 0.8740427494049072, 1.5141311883926392, 0.8375642895698547, -0.1624060869216919, 0.3855118155479431, 0.6600775122642517, -0.368978351354599, 0.17102816700935364, -0.06231745332479477, 0.25936493277549744, -0.177470400929451, -0.06628137081861496, -0.0878382995724678, 0.1623796820640564, 0.2503069043159485, 0.9559164047241211, 1.2439485788345337, 0.4313294589519501,
0.07071363925933838, -1.6986159086227417, -0.07969199866056442, -0.19171325862407684, -0.42024528980255127, 0.915149986743927, -0.47252875566482544, -0.8701099753379822, -0.6781965494155884, 0.08353319764137268, -0.11758175492286682, 0.1640971451997757, 0.3635700047016144, 0.43741533160209656, -0.0331803597509861, 0.48481327295303345, 0.25274956226348877, 0.08506719022989273, 0.1341908723115921, -0.0647723600268364, 0.35404714941978455, 0.10128754377365112, 0.19017884135246277, 0.014090823009610176,
0.33469852805137634, -0.73171067237854, -1.7561805248260498, 0.28607451915740967, 0.1869221180677414, -0.63151615858078, -0.8343865275382996, -0.14227980375289917, -1.0790759325027466, -0.17980007827281952, -0.505803108215332, 0.08486026525497437, -1.0714243650436401, 0.725087583065033, 0.4209143817424774, -0.43572843074798584, 0.21358415484428406, 0.1503237783908844, -0.09442804008722305, -0.06847544014453888, -0.2639096677303314, -0.07755336910486221, 0.1549336463212967, -0.10311552882194519,
0.20592810213565826, -0.14847491681575775, 0.3529871702194214, -0.21630683541297913, -0.6413908004760742, 0.12171993404626846, -1.9597285985946655, -1.3772755861282349, 1.3227030038833618, -0.3036578595638275, -1.2168619632720947, -0.4200682044029236, -0.5248605012893677, 0.7355545163154602, 0.04628155753016472, 1.2840876579284668, -0.30848464369773865, -0.06879701465368271, 0.055596716701984406, 0.03290450945496559, 0.14914272725582123, -0.820345401763916, -0.6946253776550293, 0.24706615507602692,
0.438377320766449, -1.3780038356781006, -0.3980751037597656, 0.020271511748433113, -0.3666505515575409, -0.33296725153923035, 0.029897037893533707, -0.5823783874511719, -1.487563133239746, -0.01143700908869505, -0.20553545653820038, -0.06310424208641052, -0.05351387709379196, -0.43265271186828613, 0.43820202350616455, -0.06363184750080109, 0.006961537059396505, 0.04540293291211128, 0.026018474251031876, 0.03819231688976288, 0.30280452966690063, -0.3234730064868927, -0.06953591853380203, 0.03276698291301727,
0.06961876153945923, -0.7536234855651855, -1.8406639099121094, -0.016486696898937225, -0.24356690049171448, -0.23159603774547577, -0.5098798274993896, 0.2107008546590805, 0.15556059777736664, -0.46902212500572205, -0.013739044778048992, -0.5587460994720459, -1.6454353332519531, -0.2981216311454773, 0.9669973850250244, -0.7464441061019897, 0.4574270248413086, 0.4002614915370941, 0.042064275592565536, -0.01076759584248066, -0.209271639585495, -0.15461330115795135, 0.3841497004032135, -0.08878147602081299,
-0.13813252747058868, -0.4861582815647125, 0.7738963961601257, -0.23904918134212494, 0.12295372039079666, 0.6110868453979492, 1.5958495140075684, 1.795760154724121, -0.2890034019947052, 0.2605440318584442, 0.40084394812583923, -0.2877611815929413, 0.29918283224105835, 0.17718617618083954, -0.8553495407104492, 0.7322474718093872, -0.09399101138114929, -0.017270546406507492, 0.06927192956209183, 0.06840108335018158, 0.7076698541641235, -0.3381851017475128, -0.5179338455200195, -0.009740998037159443,
0.09026888757944107, 0.12931635975837708, -0.25150126218795776, 0.12743796408176422, 6.435463728848845e-05, 0.6536848545074463, -1.6932557821273804, -1.689340591430664, 0.5582103133201599, -0.22677472233772278, 0.14846940338611603, -0.42214417457580566, -0.843185544013977, 0.027676904574036598, 0.5746882557868958, 0.6238366961479187, 0.31832924485206604, 0.18660587072372437, 0.08389367163181305, -0.24450895190238953, -0.9455828070640564, -0.528926432132721, 0.16755738854408264, -0.3041035234928131,
0.25835660099983215, -0.12281051278114319, 0.4267406761646271, -0.2419242411851883, -0.17060081660747528, -0.717837929725647, 0.533981204032898, 2.0874040126800537, -0.12365175783634186, -0.001019628020003438, 0.08809778839349747, 0.4250379502773285, -0.18890699744224548, -0.042482566088438034, -0.37997081875801086, 0.052774589508771896, -0.0401642806828022, -0.09853113442659378, -0.025099918246269226, 0.19581238925457, -0.6645672917366028, -1.0177836418151855, 0.18575993180274963, 0.38888537883758545,
0.8479228615760803, -1.4648127555847168, 0.4440096318721771, 0.1094295009970665, -0.08119365572929382, 0.40699219703674316, -0.03208856284618378, 0.13409429788589478, -0.39887967705726624, 0.7487260103225708, -0.03813990578055382, 0.4650927782058716, -1.009613037109375, 1.025119423866272, -0.3320409953594208, 0.005113293882459402, 0.026250554248690605, 0.11300182342529297, 0.13602440059185028, 0.5177098512649536, 0.06763621419668198, 0.6180089712142944, -0.2700819969177246, -0.8835322260856628,
0.4362031817436218, -0.19368937611579895, -3.4710333347320557, 0.15497349202632904, -0.056212570518255234, -1.4887217283248901, 0.3405991792678833, 1.2033735513687134, -1.7347618341445923, -0.23030614852905273, -0.08324865251779556, -0.012148699723184109, -0.13699878752231598, -0.3125097155570984, 0.08485940098762512, 0.19510164856910706, -0.14312507212162018, -0.10581031441688538, -0.2612147629261017, 0.049869291484355927, -0.23095916211605072, -0.19610463082790375, 0.026682361960411072, -0.07776479423046112,
-0.14219500124454498, -0.4547485411167145, 0.5503241419792175, -0.2505086064338684, -0.39654943346977234, 0.24717600643634796, -0.6002867221832275, -1.4409043788909912, -0.9489575624465942, -0.2964590787887573, -0.1826115846633911, -0.05683860927820206, 0.2349582463502884, -0.2646751403808594, 0.39351657032966614, 0.031026571989059448, -0.19233229756355286, -0.03534473851323128, 0.024597132578492165, 0.09333503246307373, -0.40380606055259705, 0.14610321819782257, -0.4427003860473633, 0.2658112347126007,
-0.3343292474746704, 0.09740173071622849, 1.3896125555038452, -0.02160600572824478, -0.2734524607658386, 0.49662113189697266, -0.8060154318809509, 2.677443742752075, 0.631507933139801, -0.1728312224149704, 0.053837850689888, 0.2269630879163742, -2.2228851318359375, -0.5503511428833008, 1.1134305000305176, 0.2593081593513489, 0.08011243492364883, 0.017762430012226105, 0.03119475580751896, 0.06124827638268471, -0.33365362882614136, -0.21630240976810455, -0.33163154125213623, -0.345747172832489,
-0.16591933369636536, 0.516578733921051, -0.6406970024108887, 0.0037116820458322763, 0.008676640689373016, -0.12970362603664398, 0.08126358687877655, 0.7061607241630554, -0.24957434833049774, -0.02771828882396221, -0.011732308194041252, -0.4327439069747925, -0.1668747365474701, 0.2067679464817047, 0.24080485105514526, 0.49232661724090576, 0.03649383783340454, 0.14495162665843964, 0.16781552135944366, -0.06470061093568802, -1.3034847974777222, -0.47658368945121765, -2.1819474697113037, -0.23600518703460693,
-0.1468796730041504, -0.40035155415534973, 0.2061043679714203, 0.061536870896816254, 0.09808287769556046, -0.4448249936103821, 0.09080812335014343, 1.8489010334014893, -0.34581902623176575, -0.39011767506599426, 0.09062976390123367, -0.1726897656917572, 0.30468273162841797, -0.4867229759693146, 0.9036568403244019, 0.3797540068626404, -0.12062954157590866, -0.2936246395111084, -0.040908921509981155, 0.46765410900115967, 0.23953256011009216, -1.0231285095214844, -0.060427431017160416, 0.7764654159545898,
0.3019215762615204, -1.7970820665359497, -0.26002100110054016, 0.2447657734155655, -0.6733535528182983, -0.06460900604724884, 0.21174012124538422, 1.5190385580062866, 1.8848592042922974, 0.3975920081138611, -0.025890853255987167, -0.16723781824111938, -0.7238162159919739, -0.24997645616531372, 0.06943078339099884, 0.0010234980145469308, -0.18973879516124725, -0.10038289427757263, 0.19266356527805328, 0.23116536438465118, -0.3930905759334564, 0.22963646054267883, -0.09175596386194229, 0.05175575613975525,
-0.29986968636512756, -0.11488460004329681, -0.16267354786396027, 0.2292850762605667, 0.13444040715694427, 0.0457853302359581, -0.4581429362297058, 1.008285641670227, 0.5653349757194519, -0.1437760889530182, -0.14893092215061188, 0.17978332936763763, -0.02095343917608261, -0.6398620009422302, -0.5209977030754089, -0.6406326293945312, 0.20636597275733948, 0.01510652806609869, 0.09050126373767853, 0.617648720741272, 0.21786372363567352, 0.2041299194097519, -0.7384052276611328, 0.7453271746635437,
0.3088989853858948, 0.19211553037166595, -1.6683567762374878, 0.1330043375492096, 0.21249903738498688, 0.26754966378211975, -0.10866320133209229, -0.4019576609134674, -1.5420379638671875, 0.6222022175788879, 0.2993696928024292, -0.47325971722602844, -1.628637671470642, -0.5953404307365417, 0.4422762393951416, -0.06254035234451294, -0.0950997918844223, 0.14827898144721985, -0.006759053096175194, 0.2093987613916397, 0.031537771224975586, -0.07641167938709259, -0.6661731600761414, 0.35020190477371216,
0.08846838772296906, 0.6314437985420227, -0.7281702160835266, 0.04858000949025154, 0.4784002900123596, -0.4898856282234192, -1.1222528219223022, -0.9801816344261169, -0.6402707695960999, -0.4922492802143097, -0.5982822179794312, 0.4358859956264496, -0.12627074122428894, 0.2788448929786682, 0.8606387972831726, -0.3667246699333191, 0.019411953166127205, 0.17832931876182556, 0.18172724545001984, 0.35645923018455505, -0.6644238233566284, -0.1501690000295639, 1.0018333196640015, -0.0021123739425092936,
0.30484065413475037, 0.9581389427185059, 2.266000747680664, 0.31725406646728516, 0.02936168760061264, 0.6556846499443054, 1.0828152894973755, 0.29863688349723816, -0.10173270851373672, 0.06718325614929199, -0.07564061880111694, -0.1523514837026596, 0.411292165517807, -0.9592742919921875, -0.8832624554634094, 0.5679770708084106, -0.17004647850990295, -0.13639958202838898, 0.20513580739498138, -0.02872275747358799, 0.06604773551225662, 0.15623748302459717, -0.01074813399463892, -0.06268310546875,
-0.3560071587562561, 0.7698400616645813, 0.297376424074173, -0.4445928931236267, 0.057502809911966324, 0.6695182919502258, 0.34929490089416504, 0.38426804542541504, 1.9586526155471802, 0.13736696541309357, -0.11385931074619293, -1.3787941932678223, -1.0362213850021362, -0.047429755330085754, -1.0049190521240234, -1.9610285758972168, 0.07226447016000748, -0.12641844153404236, 0.10048903524875641, -0.1318882554769516, 0.6314601302146912, -0.1625610738992691, -1.2796815633773804, -0.07710856199264526,
0.4364140033721924, 0.7471271753311157, -0.6072403788566589, -0.08838203549385071, 0.2369183748960495, 0.47957977652549744, 0.7153315544128418, 0.7421913146972656, -0.3101499378681183, 0.8784825205802917, 0.4196726679801941, 0.4015895426273346, 0.7320325374603271, 0.3973786234855652, -0.09935755282640457, 0.0924699604511261, -0.41493135690689087, -0.41681617498397827, -0.05131782218813896, -0.10046146810054779, 0.11510352790355682, 0.24258247017860413, 1.5239510536193848, -0.4288049638271332,
0.2075965255498886, -0.4665890336036682, 2.524181365966797, -0.04294682666659355, -0.052691709250211716, 1.3879542350769043, 0.2638327479362488, -1.5954986810684204, 0.12084349244832993, -0.4244186580181122, -0.2821423411369324, -0.17105403542518616, 1.374740719795227, 0.09982892125844955, -0.2643298804759979, 0.14736351370811462, 0.06482101231813431, 0.1897774487733841, -0.04841943085193634, 0.32281553745269775, 0.9326803088188171, -0.5654143691062927, -1.8636674880981445, 0.40570327639579773,
0.4536478817462921, 1.013743281364441, 0.19333024322986603, 0.5908793210983276, 0.4190937876701355, 0.1562061458826065, -1.056512713432312, 0.9726941585540771, 1.8175368309020996, 0.027966218069195747, -0.3704451322555542, 0.3015730082988739, -0.5197529792785645, 0.16902315616607666, 1.199769377708435, -0.10406216979026794, -0.307224303483963, -0.14193768799304962, 0.07476495951414108, -0.2845607101917267, -0.3523542284965515, -0.4702463150024414, -0.2311415672302246, 0.15394490957260132,
-0.4105222523212433, -0.06918993592262268, -1.102049708366394, -0.040096428245306015, -0.06392665207386017, -0.8400347232818604, -1.4801304340362549, -0.6855632662773132, 0.8933805227279663, -0.3178797960281372, -0.04623110592365265, 0.37232792377471924, -0.3701283037662506, 0.253206729888916, 0.6574867367744446, 0.1574162393808365, 0.3673197031021118, 0.1814187914133072, -0.252428263425827, -0.04035107046365738, -0.03208388760685921, -0.16776123642921448, 0.03528939560055733, -0.21267464756965637,
-0.1011604443192482, -0.10904885083436966, 2.6839637756347656, -0.10231857001781464, -0.09380524605512619, 0.9992744326591492, 1.8986611366271973, 0.27785906195640564, 0.47639909386634827, 0.17553630471229553, 0.10953259468078613, -0.07220053672790527, 0.2613050043582916, -0.378140389919281, -0.6521411538124084, 0.41152316331863403, -0.08310764282941818, -0.1182643249630928, -0.136319100856781, -0.03854469209909439, 0.20376934111118317, -0.039706483483314514, 0.15302050113677979, -0.009132755920290947,
0.22057943046092987, -0.350298136472702, -0.31649336218833923, -0.38233211636543274, -0.31371694803237915, 0.11544863879680634, 0.25683361291885376, -1.6147825717926025, 0.1442026048898697, -1.2104504108428955, -0.34863168001174927, 0.29537373781204224, -0.6323923468589783, -1.3623998165130615, -0.028269313275814056, 0.06043350696563721, 0.11784546077251434, 0.029325807467103004, 0.06995522230863571, -0.005385173950344324, -0.10048926621675491, 1.0048699378967285, -0.7141733169555664, -0.19603779911994934,
0.4615044593811035, -1.1242605447769165, -0.7358199954032898, -0.12032138556241989, -0.14336414635181427, 0.8265926837921143, 0.3444167673587799, -0.4548157751560211, 2.1476149559020996, 0.22588098049163818, 0.2998878061771393, 0.4543202519416809, 0.0856582298874855, -0.532959520816803, -0.7165102362632751, -0.10381680727005005, 0.15375939011573792, 0.14062140882015228, -0.22482076287269592, -0.22990967333316803, -0.7501657009124756, -0.36939069628715515, 0.4802083969116211, -0.9177907109260559,
0.794893205165863, -0.5457203388214111, -1.0625853538513184, 0.14274698495864868, -0.0993550643324852, -1.1991432905197144, -0.11374793946743011, -1.2609751224517822, -0.9267218112945557, -0.47500213980674744, -0.053636983036994934, 0.4396057426929474, -1.4836673736572266, 0.1574980914592743, 0.5854299068450928, -0.35717296600341797, 0.10888832807540894, 0.017630333080887794, -0.10507699847221375, 0.20236366987228394, 0.02898245118558407, 0.5142761468887329, 0.918886661529541, 0.13200493156909943,
-0.1423770934343338, -0.08880829066038132, -0.060724806040525436, -0.15961185097694397, -0.05105309933423996, -0.42313456535339355, 0.4006834030151367, 0.590770959854126, 1.2029695510864258, -0.31594234704971313, -0.0024106206838041544, 0.7432975769042969, 0.5654526948928833, -0.6649958491325378, -0.487347811460495, 0.5012616515159607, 0.30710530281066895, 0.23206758499145508, 0.2270686775445938, 0.15004472434520721, -0.2896619141101837, 0.1821495145559311, 0.49415823817253113, -0.7417358160018921,
-0.09648134559392929, -0.9164609909057617, 0.3508893549442291, -0.04053349792957306, -0.28314170241355896, 0.5912268161773682, -0.06678538769483566, -1.4152624607086182, 0.24032831192016602, 0.18713097274303436, 0.6487321257591248, -0.18579146265983582, -1.928593635559082, -0.8479052782058716, -0.18146568536758423, -0.3821333646774292, -0.08105538040399551, 0.061045993119478226, 0.11006920039653778, 0.24529889225959778, 0.1698664277791977, -0.19369834661483765, -0.2985679507255554, 0.897680401802063,
0.181447833776474, -1.0977214574813843, -1.7220817804336548, 0.4223261773586273, 0.18886412680149078, -0.3937235474586487, -0.4876704812049866, -0.36424577236175537, -0.7983943819999695, 0.29481804370880127, -0.5307722687721252, 0.12670966982841492, -0.2071000635623932, -0.16682252287864685, 1.0639660358428955, 0.18705713748931885, 0.09548645466566086, -0.12399646639823914, -0.05046366900205612, -0.18539296090602875, -0.5338150858879089, -0.6616336703300476, 0.15030305087566376, -0.023351194337010384,
0.3032377362251282, 0.8402924537658691, 0.7364253997802734, 0.3779485821723938, 0.056069083511829376, 0.3865693509578705, -0.38375961780548096, -1.7965753078460693, -0.7339215278625488, 0.13137604296207428, -0.23587249219417572, 0.5732896327972412, -0.9039509892463684, 0.9491352438926697, -1.2088812589645386, -0.05761898308992386, -0.056128229945898056, -0.02991635538637638, 0.060876596719026566, -0.18643701076507568, -0.7794951796531677, -0.025830760598182678, 0.1729954481124878, 0.03062780201435089,
-0.5932207703590393, 0.40519002079963684, 0.22122803330421448, -0.18668273091316223, 0.17910562455654144, 0.0015013562515377998, 0.38920244574546814, 2.0601699352264404, 1.286760687828064, 0.04894881322979927, 0.3380774259567261, -0.009909793734550476, 0.7788704037666321, 0.11340352892875671, -0.32888486981391907, -0.11850900202989578, 0.2390158772468567, 0.2979732155799866, -0.10967499017715454, 0.09567883610725403, 0.022250868380069733, 0.4848756492137909, -0.1105710119009018, -0.01569465734064579,
1.100764274597168, 0.442687451839447, -0.9504507780075073, 0.5513116717338562, 0.18419556319713593, 0.16630659997463226, 0.20538412034511566, 2.2487576007843018, -0.1901216059923172, 0.2835293114185333, -0.29385849833488464, -0.39143168926239014, 0.37891316413879395, -0.7716355323791504, 0.009778819046914577, -0.1440981775522232, -0.12814004719257355, -0.3153010606765747, -0.09221804141998291, 0.37680426239967346, 1.3601833581924438, -0.7422672510147095, -0.47309091687202454, 0.1123548075556755,
0.49560078978538513, -1.534040927886963, 1.0532326698303223, 0.2535185217857361, 0.15300820767879486, -0.45554041862487793, -0.30301740765571594, 1.1413499116897583, 1.4068866968154907, -1.9467358589172363, 0.7148396372795105, -0.4348084330558777, 0.32966238260269165, -0.9823722243309021, 0.31359198689460754, 0.38568127155303955, 0.04158628731966019, -0.29668140411376953, -0.09534133970737457, 0.19185365736484528, -0.055130623281002045, 0.2489083856344223, -0.4198629856109619, -0.6184678077697754,
0.07111482322216034, -1.648638129234314, 1.4204577207565308, 0.1273065209388733, -0.42450955510139465, -0.06410349905490875, -0.5740959644317627, 0.03557926043868065, -0.45146071910858154, -0.013142417185008526, -0.20832954347133636, -0.24283744394779205, 0.0999145358800888, 0.239836648106575, 0.7308717370033264, -0.3667657971382141, -0.09902270138263702, 0.08570411801338196, 0.17653490602970123, 0.09541764110326767, -0.14518852531909943, -0.04256289079785347, 0.753315806388855, -0.16170762479305267,
0.552560567855835, 0.04790631681680679, -1.7179919481277466, 0.16073215007781982, -0.24396319687366486, -1.3096673488616943, -1.1067326068878174, -0.28236129879951477, -0.2596287131309509, 0.06461428105831146, 0.4628171920776367, -0.6149460673332214, 1.6901531219482422, 0.1843080073595047, -0.30042150616645813, -0.10341556370258331, -0.024709660559892654, -0.059953078627586365, 0.20076251029968262, 0.29169923067092896, -0.2928014397621155, 1.1767995357513428, -0.8573680520057678, 0.16077613830566406,
-0.2333609163761139, 0.5656813383102417, 0.11530754715204239, -0.013688640668988228, 0.10799099504947662, -0.793899655342102, -0.1858273595571518, 2.302172899246216, -0.3957711458206177, -1.1531376838684082, 0.3494076132774353, -0.6239027976989746, 0.030429892241954803, 0.18001115322113037, -0.42285603284835815, -0.6041901111602783, 0.21695102751255035, -0.01346953772008419, 0.0054702903144061565, 0.00025539426133036613, -0.44906389713287354, -0.1786586493253708, -0.47905468940734863, -0.7947269082069397,
0.03551832213997841, 1.2948534488677979, -1.331002116203308, -0.03371014446020126, 0.2972266972064972, -0.587986409664154, 0.9279273152351379, -0.17538300156593323, 0.3031979203224182, 0.17672280967235565, -0.10674027353525162, -0.04784265160560608, 0.6967716813087463, -0.3593637943267822, -0.7385854721069336, 0.719609260559082, 0.2523125112056732, -0.05453817546367645, 0.23092223703861237, -0.09270108491182327, 0.29465246200561523, -0.15546657145023346, -0.11468181014060974, 0.13858337700366974,
-0.6434616446495056, 0.35586485266685486, -0.9141637682914734, -0.21602344512939453, 0.2537234425544739, -0.08387183398008347, 0.2383158802986145, 0.9583545327186584, 1.004563808441162, 0.03545688837766647, 0.1669175624847412, -0.4562798738479614, 0.42587873339653015, 0.3327263593673706, 0.2204761803150177, -0.10738901048898697, 0.15074484050273895, 0.4461151957511902, -0.07033932209014893, -0.07033325731754303, -0.5017330646514893, -0.1550537347793579, -0.4573453962802887, -0.3234364092350006
};

const float biases_fc1[] = {
-0.22208279371261597, -0.047192130237817764, -0.33955127000808716, 0.11028099805116653, -0.004973435774445534, -0.1737220287322998, 0.3899112641811371, -0.09982320666313171, 0.04637778177857399, -0.4382498562335968, -0.416489839553833, 0.19437478482723236, 0.22911663353443146, 0.2508384585380554, 0.18801727890968323, -0.13829800486564636, -0.10633526742458344, -0.1509099006652832, -0.3226998746395111, -0.17995110154151917, 0.16539277136325836, 0.3688088059425354, -0.10405943542718887, -0.21903948485851288, -0.19118347764015198, -0.21745847165584564, -0.18143364787101746, 0.04960761219263077, 0.10707990825176239, 0.1397453248500824, -0.05218858644366264, -0.12598489224910736, 0.018205784261226654, 0.0313250869512558, -0.0729932188987732, -0.02098821848630905, -0.00892341323196888, -0.0409499891102314, -0.424624502658844, -0.2808230221271515, -0.017558472231030464, -0.30100318789482117, -0.005096615292131901, 0.19304564595222473, 0.16958938539028168, -0.34106844663619995, 0.160606250166893, -0.07345227152109146, -0.36240336298942566, -0.07216323167085648, -0.17975133657455444, 0.1393623799085617, -0.0958608016371727, -0.018453393131494522, 0.3322215676307678, 0.16783250868320465, 0.42735934257507324, 0.07726597785949707, 0.040489450097084045, -0.2611832022666931, 0.05141088739037514, -0.3222121596336365, -0.12334755808115005, 0.1179409846663475, 0.3101763427257538, -0.2598455250263214, 0.41026392579078674, 0.048758614808321, 0.0756709948182106, -0.24293428659439087, -0.2510850131511688, -0.09350001066923141, 0.0871841087937355, -0.19595277309417725, -0.06248139590024948, -0.26434290409088135, -0.41221991181373596, -0.0848647952079773, 0.029263583943247795, -0.06675872951745987, -0.23096631467342377, -0.06437109410762787, -0.2926165461540222, -0.39679020643234253, 0.30779728293418884, -0.11719489097595215, 0.1471349000930786, -0.08176636695861816, -0.13850967586040497, -0.3008073568344116, -0.2952023148536682, 0.21824762225151062, -0.013267980888485909, -0.0068200211971998215, 0.2912343442440033, 0.3339826762676239, -0.12469513714313507, 0.2212698608636856, -0.17451223731040955, -0.1452820897102356, -0.34975460171699524, -0.20120729506015778, -0.23534828424453735, 0.47315698862075806, -0.024062126874923706, -0.17120908200740814, 0.0033575277775526047, -0.28181612491607666, 0.26601919531822205, 0.012051024474203587, -0.062311578541994095, 0.005400928668677807, 0.5609987378120422, -0.05204014852643013, 0.06149471923708916, 0.028893472626805305, -0.0855720117688179, 0.2373616248369217, 0.12911604344844818, 0.472502738237381
};

const float weights_fc2[] = {
-0.3610725998878479, 0.45184677839279175, 0.4538908898830414, -0.4010970890522003, -0.20335495471954346, 0.23526012897491455, 0.02187812700867653, -0.19159847497940063, -0.20406420528888702, 0.7700957655906677, 0.42709094285964966, -0.63494873046875, 0.06515224277973175, 0.007389189675450325, 0.5920165777206421, 0.7495235800743103, 0.7805416584014893, 0.01600477658212185, -0.21468211710453033, 0.23068124055862427, -0.37735748291015625, -0.3675764203071594, -0.13520802557468414, 0.598983645439148, 0.5365886092185974, 0.6186109781265259, -0.34719395637512207, 0.19471481442451477, -0.4503837525844574, 0.12065616995096207, 1.1541391611099243, 1.1148006916046143, 0.6665861010551453, -0.9013499617576599, 0.3876841962337494, -0.3204841613769531, 0.38942524790763855, -0.4388216435909271, -0.14222855865955353, 0.2254837602376938, -0.35461246967315674, 0.04076404869556427, 0.32337555289268494, 0.7931138277053833, -0.08928566426038742, 1.2209477424621582, -1.0404531955718994, -0.4064292013645172, 0.06486915796995163, -0.2580081820487976, 0.07416058331727982, 0.613814115524292, -0.5992928147315979, 0.18172261118888855, -0.07599098235368729, 0.6014804244041443, 0.15270516276359558, 0.3067654073238373, -0.6139856576919556, 0.027692770585417747, -0.1645103394985199, 0.044024426490068436, -0.4094543755054474, 0.24286991357803345, 0.2597854733467102, -0.6302757859230042, -0.19188642501831055, -0.1363411545753479, -1.196943998336792, -0.5723165273666382, 0.37756210565567017, -0.3548881411552429, -1.2389851808547974, -0.43636277318000793, -0.28177356719970703, -0.3442170023918152, 0.8520733118057251, -0.27183496952056885, 0.34326910972595215, 0.41136249899864197, 0.43845170736312866, -0.026089662685990334, 0.013883404433727264, 0.46143555641174316, 0.4919413924217224, -0.08903538435697556, 0.03173431381583214, -0.14469382166862488, 0.026538588106632233, 0.7492100596427917, 0.6688381433486938, 0.4703001379966736, 0.521465539932251, -0.6973764896392822, 0.7374703884124756, 0.19829919934272766, 0.2599673569202423, -0.33235639333724976, -0.6688554286956787, -0.2727104127407074, -0.6910594701766968, -0.15833380818367004, -0.274445116519928, 0.32381293177604675, -0.10760863125324249, 0.2826341688632965, -1.1653004884719849, 1.3505568504333496, 0.5457485318183899, 0.24067986011505127, -1.6791445016860962, 0.056113164871931076, -0.6565565466880798, -0.23340843617916107, 0.15773285925388336, 0.30635613203048706, 0.6074109077453613, 0.21923828125, -0.42474645376205444, -0.17453467845916748,
0.05424526333808899, 0.6202079057693481, -0.12975826859474182, 0.06005878746509552, -0.022933321073651314, -0.8352597951889038, -0.21374991536140442, 0.3350163400173187, -0.10306190699338913, 0.6013595461845398, 0.08251906931400299, 0.755297064781189, 0.24186167120933533, 0.4996740520000458, 0.7277401685714722, -0.21743008494377136, 0.37207236886024475, 0.12413950264453888, -0.35676902532577515, -0.6810482144355774, -0.6826756000518799, 0.18081238865852356, -0.5277312994003296, -0.0047845724038779736, -0.17047671973705292, -0.6232606768608093, -0.16023822128772736, 0.15759600698947906, -0.5256833434104919, 0.6914622187614441, -0.5629711151123047, 0.07750912755727768, 0.24231432378292084, -0.3218367397785187, -0.35956576466560364, -0.007874257862567902, 0.03525587171316147, -0.5868521928787231, -0.09645972400903702, 0.6275365352630615, 0.39367517828941345, 0.3305884599685669, -0.3490668833255768, 0.6148982048034668, -0.12687169015407562, -0.16389328241348267, 1.0173296928405762, -0.87054443359375, -0.021056875586509705, 0.6259894967079163, -0.12814010679721832, -0.38992181420326233, -0.8485131859779358, 0.24729691445827484, -1.1759575605392456, 0.6261593103408813, 0.6109672784805298, -1.1088310480117798, 0.6635364294052124, -0.337557852268219, 1.4193509817123413, 0.05707008019089699, -0.21909499168395996, -1.8059951066970825, 0.20804128050804138, -0.27469751238822937, 0.07097898423671722, 0.30567988753318787, 0.24596232175827026, 0.08171835541725159, -0.33949193358421326, 0.24716752767562866, 0.027835318818688393, 0.1033184751868248, 0.35642528533935547, 0.6154760122299194, -0.3934329152107239, 0.2433903068304062, -0.513378381729126, 0.5795766115188599, -0.26863765716552734, -0.20019732415676117, -0.4476768374443054, -0.6341355443000793, -0.4661529064178467, 0.20479606091976166, -0.009684846736490726, 0.0671183243393898, -0.33082646131515503, -0.15537816286087036, -0.4162161946296692, -0.35496580600738525, -0.6401833891868591, -0.4232237935066223, 0.33621320128440857, 0.215923011302948, -0.30011406540870667, 0.3525809347629547, -0.15283600986003876, 0.0280653964728117, -0.3827091455459595, -0.2239222228527069, -0.5845300555229187, -0.06785088032484055, 0.4467231035232544, -0.42103588581085205, -0.5121651887893677, 0.08302244544029236, 0.8965638875961304, -1.021511435508728, -0.0810515508055687, -0.1562870889902115, 0.09508206695318222, 0.1556738168001175, -0.6729668378829956, 0.5163284540176392, -0.6580942273139954, -0.6881969571113586, -0.2767438590526581, 0.14028653502464294,
0.016843687742948532, -0.8082733750343323, -0.183324933052063, -0.583155632019043, 0.5090356469154358, 0.27467256784439087, -0.928645670413971, -0.806735098361969, 0.5819495320320129, -0.2649855315685272, -0.5432554483413696, 0.184884712100029, -0.07094812393188477, 0.5665687918663025, -0.4948352575302124, -0.3535468280315399, 0.5563614368438721, -0.17409825325012207, -0.15016129612922668, 0.5835167169570923, -1.2573716640472412, 0.003149851458147168, 0.2870749533176422, 0.2701978087425232, 0.508647084236145, -0.1572660505771637, -0.32529860734939575, -0.2579708397388458, 0.4840509295463562, -0.4525202512741089, 0.2868286371231079, -0.814943790435791, -0.34836021065711975, -0.4606287181377411, -0.7676296830177307, 0.1120653823018074, 0.11605776101350784, 0.597981870174408, 0.38177290558815, 0.179771289229393, 0.25444579124450684, 0.8477708697319031, 0.335280179977417, 0.2128531038761139, 0.07360469549894333, -0.04410369321703911, 0.7860943675041199, -0.08000976592302322, -0.003856718074530363, 0.3722287714481354, 0.5703917741775513, -0.14998984336853027, -0.501742959022522, -0.1235022321343422, -0.9704537391662598, -1.2328215837478638, 0.33556193113327026, -0.5469075441360474, -0.5985551476478577, 0.6203076839447021, 0.5352378487586975, -0.06883357465267181, -1.0320965051651, -0.16053128242492676, 0.13191168010234833, 0.6335080862045288, -0.17925125360488892, -0.3829951286315918, 0.36616232991218567, -0.7220063805580139, 0.25650250911712646, 0.04049983620643616, 0.5298832058906555, 0.30544015765190125, -0.5083624720573425, -0.3748280704021454, 0.1708015352487564, -0.04685245081782341, 0.7268175482749939, 0.2527013123035431, -0.14620435237884521, -0.431950181722641, -0.5474684238433838, -0.17121215164661407, 0.3229120671749115, 0.6009454131126404, -0.006275142077356577, 0.15277180075645447, 0.5228191614151001, -0.02155335247516632, -0.08556385338306427, -0.2502155900001526, -0.03537183254957199, -0.285306453704834, 0.6848663091659546, 0.08513903617858887, 0.5749272108078003, -1.4277158975601196, 0.04244447126984596, -0.18527446687221527, -0.2214745730161667, 0.12597180902957916, -0.16291490197181702, -0.44497716426849365, 0.9128062725067139, 0.3226736783981323, 0.47223180532455444, 0.24462170898914337, -0.45104485750198364, 0.4178619682788849, -0.3419375419616699, 0.3738463222980499, -0.1366909295320511, 0.12857586145401, -0.3665570914745331, -0.4919453561306, -0.6382681131362915, -0.30899396538734436, 0.35733503103256226, 0.14648768305778503,
-0.17375589907169342, 0.8496153950691223, -0.04239911586046219, -0.10183458775281906, -0.1575467586517334, -0.9204334616661072, -0.6504305005073547, 0.7706475853919983, 0.8627520203590393, -0.3359457850456238, 0.1347091794013977, -0.5827341675758362, -0.7485142350196838, -0.04451315850019455, 0.4753853976726532, -0.028591612353920937, -0.5167586207389832, 0.14483004808425903, -0.591892421245575, 0.07218198478221893, -0.06936091929674149, 0.2825307250022888, -0.03190423548221588, 0.11404064297676086, 0.42944347858428955, 0.1830306202173233, -0.7327672839164734, 0.4430943429470062, -0.41416478157043457, -0.2652702033519745, 0.18063969910144806, -1.2451962232589722, 0.6164733171463013, 0.26336532831192017, -0.5978662967681885, -0.14245107769966125, 0.49731603264808655, 0.6449374556541443, -0.2950247824192047, -0.06328107416629791, 0.23715226352214813, -1.1347163915634155, 0.7744126915931702, 0.43245527148246765, -0.5374683141708374, -0.7306907176971436, -0.05668196082115173, -0.3511841595172882, -0.41269683837890625, 1.1408195495605469, 0.784701943397522, 0.43987545371055603, -0.972033679485321, -0.23684023320674896, 0.43364056944847107, 0.5178511738777161, 0.3892401456832886, 0.13037197291851044, 0.278690904378891, 0.18358413875102997, -0.4344693124294281, -0.12523414194583893, 0.12262028455734253, 0.3211664855480194, 0.1197088435292244, 1.0717403888702393, 0.0671902447938919, 0.6497668623924255, 0.5387094616889954, 0.11559540778398514, -1.2394778728485107, -0.6720950603485107, -0.4532907009124756, -0.24369153380393982, -0.0046697137877345085, 0.08915375173091888, -1.2735795974731445, 0.09489879012107849, 0.050971899181604385, -0.510427713394165, -0.32173362374305725, 0.28421875834465027, -0.19225913286209106, -0.18633462488651276, 0.5144898295402527, -1.1128243207931519, 0.9312393665313721, -0.02768504060804844, -0.79599529504776, 0.0980314239859581, -0.709571897983551, 0.8370653390884399, -0.2791033983230591, 0.8966861367225647, 0.06841877102851868, 0.7291298508644104, 0.12991023063659668, -0.6831338405609131, 0.2567165493965149, 0.12879391014575958, -1.4719085693359375, 0.5148447155952454, 0.8128570914268494, 0.17806673049926758, -0.7238034605979919, -0.0882287546992302, 0.044220175594091415, -0.5641716122627258, -0.5508527159690857, 0.6214417219161987, 0.062276020646095276, -0.5965973138809204, -0.19170378148555756, 0.8442654609680176, 0.9350396394729614, -0.09721166640520096, -0.24473963677883148, -0.01839904487133026, -0.07374922186136246, -0.09969379007816315,
0.5777941346168518, -0.14344953000545502, 0.32379916310310364, -0.893973171710968, -0.9612005352973938, 0.6932165026664734, -0.5080142021179199, -0.18661940097808838, 0.2030191272497177, 0.15055520832538605, -0.020182332023978233, 0.5688934922218323, 0.33128073811531067, 0.10081755369901657, -0.23771333694458008, 0.203344464302063, -0.11486060917377472, -0.03745342791080475, -1.083890438079834, -0.2815532088279724, 0.5942682027816772, 0.7460654377937317, 0.01942594163119793, 0.3967415690422058, 0.18276657164096832, 0.3841741383075714, -0.5614184141159058, -0.4450545608997345, 0.6750873327255249, 1.0431865453720093, -0.34951716661453247, 0.46731847524642944, -0.2565261721611023, 0.04424623027443886, -0.9640613198280334, 0.27694588899612427, -0.16120299696922302, -0.9673845171928406, -0.06168533116579056, -0.675831139087677, 0.1584782898426056, 0.3877027630805969, -0.5785186290740967, -0.35120636224746704, -0.1682157963514328, 0.8668910264968872, -0.7832425832748413, -0.6780446171760559, 0.29323434829711914, 0.2964124381542206, -0.3505606949329376, -0.6102496981620789, 0.1229291558265686, 0.3496635854244232, -0.11784295737743378, 0.7704504728317261, 0.45652130246162415, 0.3759405016899109, -0.579994797706604, 0.4498443603515625, 0.08647279441356659, 0.709056556224823, 0.85419100522995, -0.07749496400356293, -1.0281848907470703, -0.1289895921945572, 0.40702584385871887, -0.5581642985343933, -0.4186420440673828, -0.1858818382024765, 0.27874407172203064, 0.6809511780738831, -0.29761001467704773, 0.1783863604068756, -1.0566571950912476, 0.7759822607040405, 1.0389375686645508, -0.8087036609649658, -0.26373422145843506, 0.9696004390716553, 0.09003767371177673, -0.2938525080680847, -1.194462537765503, 0.857444703578949, -0.5159235000610352, 1.2997769117355347, -1.1703360080718994, -0.0061611454002559185, -1.0052275657653809, 0.8271222114562988, 0.15644240379333496, -0.45826253294944763, 0.029646629467606544, 0.13833296298980713, -0.332668274641037, 0.14316841959953308, 0.1331373155117035, -0.33933112025260925, 0.4429493546485901, -0.19179950654506683, -0.2791365683078766, 0.473929226398468, 0.39142438769340515, -0.8137949109077454, 0.5701024532318115, -0.7653634548187256, -0.6089208126068115, 0.13294126093387604, -0.2805217206478119, -0.25472503900527954, -0.2098868489265442, -0.4952249526977539, 0.3300739824771881, 0.22216887772083282, 0.48870161175727844, 0.5424575209617615, 0.31897324323654175, 0.6175621151924133, -0.5535602569580078, -0.21442565321922302,
-1.1255155801773071, -0.5400047302246094, -0.28114593029022217, -0.9616215825080872, -0.7129635810852051, 0.3796900808811188, -1.2006996870040894, 0.6182771921157837, 0.3546891212463379, -0.22446279227733612, -0.17668914794921875, 0.618336021900177, 0.07900842279195786, 0.8150629997253418, 0.6650965213775635, 0.18999458849430084, -1.143121600151062, -1.056827425956726, -0.1407458782196045, 0.300645649433136, 0.6792296767234802, 0.15427009761333466, 0.6398355960845947, 0.43280768394470215, -0.8231284618377686, 0.4730831980705261, -1.3044979572296143, -0.2273927628993988, -0.5455411076545715, -0.6877527832984924, 0.4380457103252411, 0.684821367263794, 0.5075793266296387, 0.2771672010421753, -0.6946457028388977, -0.14441107213497162, -0.17960427701473236, 0.05344194918870926, 0.16820760071277618, 0.15824152529239655, 0.15946660935878754, -0.17717455327510834, -0.7261193990707397, -0.4962947964668274, -0.43691831827163696, -0.04883178696036339, 0.5821682810783386, 0.46494072675704956, -0.25749194622039795, 0.7494422793388367, 1.1968886852264404, -0.8560205101966858, -0.3211531937122345, -0.0243611391633749, -0.13417868316173553, -0.043549805879592896, 0.9284077882766724, 0.09216539561748505, -0.8952533602714539, -0.20586258172988892, 0.31618112325668335, 0.6109060049057007, -0.8022439479827881, -0.5358356237411499, -0.8380551338195801, 0.21224316954612732, 0.5810692310333252, -0.4998609721660614, 0.46410539746284485, 0.03297312185168266, -0.5215680003166199, -0.19273428618907928, 0.25214114785194397, 0.13515770435333252, -0.2412707358598709, -0.27154120802879333, 0.23547561466693878, -1.4583361148834229, 0.340424507856369, 0.4599655568599701, -0.60166996717453, 0.7394006252288818, 0.39426854252815247, -0.2264988273382187, 0.07120693475008011, -0.33409562706947327, 0.023266971111297607, -0.23805880546569824, -0.6371815204620361, 1.0040476322174072, -0.6993010640144348, -0.12165471166372299, 0.046604786068201065, 0.6538738012313843, 0.35606205463409424, 0.10957202315330505, 0.3704283833503723, -0.5059634447097778, -0.42647674679756165, 1.0558583736419678, -0.9860532879829407, -0.9384576082229614, 0.43523675203323364, -0.23015668988227844, -0.6724296808242798, -0.08981874585151672, 0.18532812595367432, 0.2825200855731964, -0.3090874254703522, -0.594830334186554, -0.3865808844566345, 0.32468652725219727, 0.041827086359262466, -0.13764022290706635, 0.525144100189209, -0.2722730338573456, 0.3654678463935852, 0.29880568385124207, 0.09821873903274536, -0.030221860855817795,
0.335834264755249, 0.279421329498291, 0.5422108173370361, 0.447998046875, 0.1330438256263733, 0.0820964127779007, 0.3420287072658539, 0.3640691637992859, -0.6751848459243774, -0.8737383484840393, -0.03362254798412323, -0.10713192075490952, 0.10665594041347504, 0.7034395337104797, -1.3110285997390747, -0.8624060153961182, 0.5912666320800781, 0.3088085651397705, 0.24414311349391937, 0.3559589087963104, -2.1303768157958984, -0.966778576374054, -0.21556276082992554, 0.2098061740398407, 1.069547176361084, -0.1050519049167633, -1.8306349515914917, 0.5315618515014648, 0.5198291540145874, -0.7458345890045166, -0.4637211561203003, 0.44546473026275635, -0.6982627511024475, 0.2689686417579651, 0.03821875900030136, -0.5604713559150696, 0.3205644488334656, 0.10992326587438583, 0.6545690894126892, 0.31930696964263916, 0.2911418080329895, -0.905491828918457, 0.37366506457328796, 0.9084293246269226, 0.18806926906108856, 0.5200263261795044, 0.763606607913971, 0.17894704639911652, 0.20821882784366608, 0.46116745471954346, 0.33533042669296265, 0.906970739364624, -0.4267118275165558, -0.3613419830799103, -0.16537578403949738, -0.6363509893417358, 0.4123488962650299, 0.8545637726783752, 0.6063331365585327, 0.1898375153541565, -0.7994152903556824, -0.07220786064863205, 0.08902658522129059, -1.3101290464401245, 0.9595842361450195, -0.3781624138355255, -0.17233414947986603, 0.11164090782403946, 0.1855371743440628, -0.7237564325332642, 0.45944204926490784, -0.6496923565864563, 0.19703762233257294, 0.16454367339611053, 0.17931251227855682, -0.41942957043647766, 0.03522909805178642, 0.6672574281692505, 0.4589572846889496, -0.06588871031999588, 0.8939105272293091, -0.4744206666946411, -0.1396794468164444, 0.32206249237060547, 0.26081177592277527, 0.2557293176651001, 0.3453807532787323, 0.33659863471984863, 0.16462717950344086, -0.5632949471473694, -0.11505293846130371, -0.054562706500291824, -0.02086472697556019, -0.6660773158073425, -0.0206881295889616, -0.18913550674915314, -0.2524985671043396, 0.15860600769519806, -0.47618257999420166, -1.2001832723617554, 0.34999340772628784, 0.36214134097099304, -0.0033042861614376307, 0.30933770537376404, 1.0594487190246582, -0.21927067637443542, 0.3062686324119568, 0.0569012351334095, 0.06291130185127258, 0.9213842153549194, 0.3441634476184845, -0.5215414762496948, -0.06296935677528381, -0.16134341061115265, -0.39127230644226074, -0.2595900595188141, -1.4156577587127686, -0.6848465204238892, 0.11554671823978424, 0.5796235799789429,
0.6611101031303406, 0.021430211141705513, 0.39520642161369324, 0.20677241683006287, -0.03672083839774132, -0.42553097009658813, -0.34983211755752563, 0.29078546166419983, 0.18272855877876282, 1.0253881216049194, 0.27047795057296753, 0.36675840616226196, -0.15177126228809357, 0.17649921774864197, 0.2924554646015167, -0.619399905204773, 0.30646342039108276, 0.38955768942832947, 0.3908446133136749, 0.34184908866882324, -0.16669300198554993, -0.611325740814209, 0.22503110766410828, 0.49241843819618225, 0.08023662865161896, 0.4073341488838196, 0.2234109342098236, 0.49155938625335693, 0.15782473981380463, 0.402299702167511, -0.16603697836399078, -1.0424845218658447, 0.15077964961528778, 0.5010316967964172, 0.13129524886608124, 0.35506734251976013, 0.09402232617139816, -0.4675634503364563, 0.6403440833091736, 0.5966771245002747, -0.025859493762254715, 0.5984499454498291, -0.5309550762176514, -0.12172965705394745, 0.07509773224592209, 0.8358570337295532, -0.07843541353940964, 0.7298650741577148, 0.37883326411247253, 0.612390398979187, -0.08043833076953888, -0.26020556688308716, 0.627760648727417, 0.1274806261062622, -0.8795644640922546, -0.5869981646537781, 0.3216075599193573, -0.6193614602088928, 0.4453752636909485, 0.08302739262580872, -0.2997658848762512, 0.6359096765518188, 0.14080117642879486, 0.6360290050506592, -0.8054499626159668, 0.1364215463399887, -0.7186638712882996, -0.198855459690094, 0.004273795057088137, 0.1781865805387497, 0.21992209553718567, -0.14080888032913208, 0.3331076204776764, -0.20620284974575043, 0.6796436905860901, 0.517277717590332, 1.4148551225662231, 0.46639710664749146, 0.24992159008979797, -0.3152928948402405, 0.17708225548267365, -0.4506731629371643, -0.5524757504463196, 0.6028485298156738, -0.3939342200756073, 0.3784771263599396, -0.2631438970565796, -0.2855495512485504, -0.7157596349716187, 0.3159770965576172, 0.17586685717105865, -0.9061591029167175, 0.060412876307964325, 0.3676685094833374, 0.4165825843811035, 0.3705890476703644, 0.2822350859642029, -0.18298178911209106, 1.118932843208313, -0.1829299032688141, 0.34300845861434937, -0.14531691372394562, -0.4643336534500122, -1.0841339826583862, 0.8383527398109436, 0.27299872040748596, -0.2858474850654602, -0.1707760989665985, -0.17757058143615723, 0.36341166496276855, 0.6093041896820068, 0.4936526417732239, -0.30383196473121643, 0.3920767605304718, 0.3841233551502228, -0.03504679352045059, 0.6124852895736694, 0.31037700176239014, 0.13456512987613678, -0.4540702700614929,
-1.0956417322158813, 0.545741856098175, 0.17060145735740662, 0.25322991609573364, -0.25804704427719116, 0.665720522403717, -0.23141083121299744, -0.26851651072502136, -0.8963756561279297, -0.8256386518478394, -0.3821648359298706, -0.5625733733177185, 0.9789182543754578, -0.22755643725395203, -0.18060632050037384, 0.22401700913906097, -1.1184848546981812, -0.7853123545646667, 0.11263051629066467, -0.30825075507164, 0.954903244972229, 0.371120810508728, 0.1007864847779274, 0.197205051779747, 0.6569948196411133, -0.28994879126548767, -0.2970554530620575, 0.6369102597236633, 0.04018864408135414, -0.8184792995452881, -0.19597381353378296, 0.5015289783477783, 0.7310826182365417, -0.31657296419143677, 0.22571103274822235, -0.7167611122131348, -0.42133596539497375, -0.8000485301017761, -0.43556615710258484, 0.001987762050703168, 0.10451575368642807, 0.03825382888317108, 0.20066797733306885, 0.028899746015667915, 0.5572061538696289, -0.33102431893348694, -0.16899095475673676, -0.7085855007171631, -0.37102481722831726, -0.2950412333011627, -0.256661593914032, -0.2252149134874344, 0.42551687359809875, 0.07113379240036011, 0.4738239645957947, 0.15724501013755798, 0.6044973134994507, -0.4984288215637207, -0.6494702696800232, -0.1368422508239746, -0.08165150135755539, 0.34893539547920227, 0.20492279529571533, 0.5867542624473572, -0.4577472507953644, -0.18856237828731537, 0.7594490051269531, 0.08012671023607254, -0.3619813024997711, 0.5744110345840454, 0.21263810992240906, -0.03765150532126427, -1.1346726417541504, -0.32603922486305237, -0.04559828341007233, 0.08945245295763016, -1.29035222530365, -0.47231942415237427, -0.7099313139915466, -0.6010206341743469, -0.35243234038352966, 0.6779058575630188, 0.17395776510238647, -0.09824781119823456, 0.5108627080917358, -0.2959999144077301, 0.2127460241317749, -0.1772450953722, -0.7989457249641418, 0.16724523901939392, 0.35226669907569885, -0.09946059435606003, 0.18345747888088226, 0.1945725381374359, -0.13062246143817902, 0.24979467689990997, 0.09838954359292984, 0.5605716109275818, -1.1482688188552856, -0.9196845889091492, -0.6902701258659363, 0.16295786201953888, 0.6904165148735046, 0.906355082988739, -1.3697566986083984, -0.6458016037940979, -0.1468798965215683, -0.13291530311107635, 0.04595119506120682, 0.07638656347990036, 0.350103497505188, 0.3121103346347809, -0.08382025361061096, 0.013891504146158695, -0.5760685205459595, -0.18698015809059143, 0.045842867344617844, 0.38868507742881775, 0.16572818160057068, 0.5078746676445007,
0.17437277734279633, -0.4261244535446167, 0.2647806704044342, 0.2965485751628876, -1.1786880493164062, -0.4801178574562073, 0.051067598164081573, -0.460439532995224, -1.0342895984649658, -0.13920864462852478, 0.3518349826335907, 0.13261564075946808, 0.5777831673622131, 0.15836796164512634, -0.0866733118891716, 0.23237785696983337, -0.6521688103675842, -0.2787182033061981, 0.26695555448532104, -0.23921217024326324, 0.6214110851287842, 0.3786989748477936, -0.047725845128297806, -0.25425514578819275, -1.1905162334442139, -0.6269698143005371, -0.25984615087509155, -0.09697785973548889, -0.6634557247161865, -0.0032755250576883554, -0.3061763346195221, 0.09469001740217209, 0.40674152970314026, 0.2709691524505615, -0.23364832997322083, -0.8443939089775085, -0.4543418884277344, 0.38646283745765686, -0.7928740978240967, 0.3635159432888031, 0.1439429372549057, -0.43235474824905396, -0.13627304136753082, 0.2976471781730652, -0.5255340933799744, 0.31319713592529297, 0.6581016182899475, 1.0942292213439941, -0.17716269195079803, 0.4836352467536926, -0.7902439832687378, -0.9488744139671326, -0.03911137953400612, -0.26208609342575073, 0.4277993440628052, 0.5393710732460022, 0.04354047775268555, 0.4734293520450592, 0.22761207818984985, 0.012935933656990528, -0.20142006874084473, 0.8149048686027527, 0.28932899236679077, 0.38594791293144226, 0.333085834980011, 0.18531593680381775, 0.2596171796321869, -0.5775351524353027, 0.335069477558136, -1.373065710067749, 0.465125173330307, 0.7904202938079834, 0.2090066373348236, -0.21710610389709473, 0.03991404175758362, -0.14550571143627167, -0.2633083462715149, -0.773373007774353, -0.6175485253334045, 0.3524799942970276, 0.26747238636016846, 0.35328158736228943, -0.3152600824832916, 0.28488242626190186, 0.7599049210548401, -0.6946564316749573, 0.19503912329673767, -0.13978026807308197, -0.2306734025478363, 0.6197829246520996, -0.4753689169883728, -0.35759368538856506, -0.4223240315914154, -0.06666000932455063, -0.7579687237739563, -0.2452087104320526, -0.2645643353462219, 0.017551027238368988, -0.12458502501249313, -0.9273404479026794, 0.2676376700401306, 0.08234260976314545, -0.7227537631988525, 0.7157084941864014, -0.4265785813331604, 0.049106527119874954, -0.4628751575946808, 0.7557149529457092, 0.4778166115283966, -1.5914047956466675, 0.5016204118728638, 0.7715812921524048, 0.2722683846950531, -0.08474136888980865, 0.04016358032822609, 0.27137988805770874, -0.5342729687690735, 0.724644124507904, 0.2165369689464569, -0.10764419287443161,
0.08540448546409607, -0.3887026906013489, 0.23093225061893463, -0.11370459198951721, -0.2365497648715973, -0.5890052318572998, 0.30433303117752075, -0.6401962041854858, -1.0343002080917358, 0.5625102519989014, -0.5013371706008911, 0.30299293994903564, 0.4701221287250519, 0.08178145438432693, -0.7554379105567932, -0.15568915009498596, 0.7270537614822388, -0.13897442817687988, -0.09548931568861008, -0.04830697551369667, -0.5023978352546692, -0.2873087525367737, 0.5205225944519043, -0.18056561052799225, -0.03514060750603676, 0.47805970907211304, -0.1688465029001236, 0.4929148554801941, -0.0714486613869667, 0.07516583800315857, -0.4202616214752197, -0.0669618546962738, -1.062172770500183, -0.08743736892938614, 0.1412980705499649, 0.7198010683059692, 0.11197049170732498, 0.6910186409950256, -0.055104244500398636, 0.026353877037763596, -0.2687382698059082, -0.7027295827865601, 0.442153662443161, -0.25107935070991516, 0.4690384566783905, -0.201527401804924, 0.3783949911594391, 0.3420526683330536, 0.30041491985321045, -0.4610612988471985, -0.16810429096221924, 0.6041581034660339, 0.30964192748069763, 0.1512715220451355, -0.9150537252426147, 0.6199480295181274, -0.6690806746482849, 0.2458849549293518, -0.021991625428199768, 0.7003780007362366, 0.28520843386650085, -0.6087723970413208, 0.0038840395864099264, 0.54256272315979, 0.08015252649784088, -0.23834127187728882, -0.3078671991825104, 0.11515103280544281, -0.4606882333755493, 0.2997112274169922, -0.08116406947374344, 0.17919708788394928, 0.002012388315051794, 0.13713641464710236, 0.45195272564888, 0.7734361886978149, 0.13242444396018982, 0.6156370639801025, 0.21421845257282257, 0.30938583612442017, 0.4717187285423279, 0.006621893495321274, -0.7852506637573242, -0.24236440658569336, -0.9394850134849548, 0.6818195581436157, -0.38996177911758423, 0.40903031826019287, 0.12186316400766373, -0.022031374275684357, -0.29933100938796997, 0.27168792486190796, -0.05415349081158638, -0.8130126595497131, 0.18285535275936127, -0.3546234667301178, -0.3044966161251068, -0.6228439211845398, 0.20719550549983978, -1.054335355758667, -0.00024189728719647974, 0.22698445618152618, -0.2446541041135788, -0.09410757571458817, 0.9604021906852722, -0.1793457418680191, 0.24011583626270294, -0.5025932788848877, 0.30247339606285095, 0.18032097816467285, 0.22330845892429352, -0.3563959002494812, 0.6701507568359375, -0.4972619116306305, -0.4127386510372162, -0.2543770372867584, -0.17141656577587128, 0.46378278732299805, 0.38229870796203613, 0.295986533164978,
0.2135370671749115, 0.1251876950263977, 0.5393627882003784, 0.49665144085884094, -0.6455320715904236, -0.489559531211853, -0.2229607105255127, 0.6117862462997437, -0.1838887482881546, -0.04662669822573662, 0.5948144197463989, 0.10151774436235428, 0.10885695368051529, -0.7629973888397217, -0.4397125840187073, -0.8110776543617249, 0.5214180946350098, -0.05325055122375488, 0.778355598449707, 0.5813933610916138, 0.5385459661483765, -0.29730987548828125, -1.2415601015090942, 0.16773328185081482, -1.3778592348098755, -2.1712000370025635, 0.3380144238471985, 0.16189932823181152, -0.048346858471632004, -0.37548181414604187, 0.04160565882921219, -0.16502095758914948, 0.26395729184150696, -0.16637574136257172, 0.4256032109260559, -0.17741475999355316, -0.7234753966331482, 0.09700973331928253, 0.7002105712890625, 0.04802373796701431, 0.05301911011338234, -0.6806991696357727, 0.6606523394584656, 0.44645050168037415, -0.5224854946136475, 0.5920534729957581, -0.44594430923461914, 0.4210197329521179, 0.5575075745582581, -0.7154871225357056, -1.3277174234390259, -0.2736636698246002, 0.6233221888542175, 0.12811245024204254, -0.08299991488456726, -0.042421746999025345, -0.25380179286003113, 0.31002238392829895, 1.1213762760162354, 0.08322815597057343, -0.009369445033371449, 0.7175841331481934, 0.1948796957731247, -0.21067041158676147, 0.5168845653533936, 0.6154075264930725, -0.2961767911911011, 0.19361139833927155, -0.5205456614494324, -0.016408883035182953, 0.10653584450483322, -0.08159524202346802, -0.7505338788032532, 0.35843563079833984, 0.9444345831871033, -0.3506605327129364, 1.250592827796936, 0.45273691415786743, 0.2734692096710205, -0.007675619795918465, 0.2209046632051468, -0.2875853478908539, 0.2372378706932068, 0.3680013120174408, -0.7028757333755493, -0.31779834628105164, 0.05046801641583443, -0.21086956560611725, 0.46243730187416077, 0.724249541759491, 0.047310274094343185, -0.5909700989723206, -2.352630376815796, -0.012176541611552238, -0.25267645716667175, 0.5667009353637695, 0.019844893366098404, -0.08797203004360199, 0.7830460071563721, -0.7082372903823853, 0.6696341633796692, -0.44577598571777344, -0.7492417097091675, 0.5546939969062805, 0.1858220100402832, 0.4261649250984192, 0.11527884751558304, 0.49310532212257385, 0.3935256004333496, -0.24876540899276733, 0.5906518697738647, 0.5716468691825867, -0.2466311752796173, 0.22192257642745972, -1.1840317249298096, -0.243467777967453, -0.002277868799865246, -0.02351677417755127, 0.24359355866909027, -1.1707409620285034,
0.2796611487865448, -0.8692367672920227, -0.17354969680309296, -0.44672268629074097, 0.5438506603240967, 0.015618289820849895, 0.48819971084594727, -0.4006400406360626, -1.259017825126648, -0.06689821928739548, 0.04155673459172249, 0.23261988162994385, -0.17797203361988068, -0.045501574873924255, 0.04538526013493538, -0.32283151149749756, 0.6079487204551697, 0.07984064519405365, 0.0896499752998352, 0.3753051459789276, -1.4300082921981812, -0.033261384814977646, 0.370760440826416, 0.24540504813194275, -0.6688711643218994, 0.5047013759613037, -0.37107053399086, -1.1540288925170898, -0.6213482022285461, 0.14577335119247437, 0.2007921040058136, 0.5197573900222778, -0.8826075792312622, 0.04997687786817551, 0.17097021639347076, 0.5935036540031433, 0.3904950022697449, -0.4153108298778534, -0.05002082884311676, -0.4130015969276428, -0.3863436281681061, -0.26882731914520264, 0.05609464645385742, 0.13641338050365448, 0.9974529147148132, -1.028879165649414, -0.8793196082115173, -0.8362951874732971, 0.3052636384963989, 0.09375026822090149, 0.5112003087997437, 0.7848935127258301, 0.18344996869564056, -0.3439047336578369, -0.593386173248291, -0.40012121200561523, -0.3960171341896057, -0.13829906284809113, -0.059182725846767426, -0.30723562836647034, 0.3184635043144226, -0.9377598166465759, -0.3031166195869446, 0.0899561420083046, 0.7646420001983643, 0.29508063197135925, -0.2406763881444931, -0.39539849758148193, -0.3223244249820709, -0.4143180251121521, 0.6984850168228149, 0.38474422693252563, 0.0047563109546899796, 0.5328283309936523, -0.2800742983818054, -0.8704180121421814, -0.16702763736248016, 0.3390028178691864, 0.07227382063865662, 1.0743067264556885, 0.18565018475055695, -0.7429696321487427, -0.3209785521030426, -0.06549838930368423, -0.06038101390004158, 0.6005240678787231, 0.0769711434841156, 0.12491889297962189, 0.5535059571266174, -0.37406671047210693, -0.303144246339798, 0.30173826217651367, 0.43598756194114685, -0.20199796557426453, 1.3130669593811035, -0.3579062223434448, 0.028061140328645706, -0.9269976615905762, -0.01626680977642536, 0.2666817903518677, 0.47678735852241516, -0.19570642709732056, -0.7019981741905212, -0.22604863345623016, 1.609644889831543, 0.7385939359664917, 0.336151659488678, 0.009486043825745583, 0.8169344067573547, 0.30707791447639465, -0.3307251036167145, -0.3721095025539398, 0.6791859865188599, 0.21477803587913513, 0.29864344000816345, 0.2592175304889679, 0.5693802833557129, -0.044878169894218445, -0.6754706501960754, 0.2785353660583496,
0.1882142275571823, -0.17462444305419922, -0.2621883153915405, 0.21315805613994598, -1.2734962701797485, -1.0265225172042847, -0.34762006998062134, 0.4499451220035553, -1.2118338346481323, 0.34905490279197693, -0.003080583643168211, -0.05452451482415199, 0.21669811010360718, -0.15159912407398224, -0.38919904828071594, -0.22214411199092865, 0.28312361240386963, -0.5139430165290833, -0.44724947214126587, 0.25436946749687195, -0.49666640162467957, -1.083600640296936, 0.14171314239501953, 0.12349620461463928, 0.8844301700592041, 0.16607193648815155, -0.32582077383995056, -0.10909770429134369, 0.13995704054832458, -0.15894564986228943, -0.8313636779785156, -0.3023557662963867, 0.3015025556087494, 0.26788872480392456, 0.21277154982089996, 0.13976678252220154, -0.22348667681217194, -0.5071147084236145, -0.21506819128990173, 0.7678468227386475, 0.0016727698966860771, -0.7238053679466248, 0.40689200162887573, -0.4414251148700714, 0.27906736731529236, -0.36794745922088623, -0.3407333493232727, -0.04135797917842865, 0.1502673625946045, -0.004369894042611122, -0.05689114332199097, 0.20406432449817657, -0.7962050437927246, 0.12214238196611404, -0.5973904728889465, -0.5102987289428711, -0.0639762133359909, 0.4428083896636963, 0.7188739776611328, -0.26169702410697937, -0.24983929097652435, 0.4223107099533081, 0.3441353738307953, 0.7216479182243347, 0.10829990357160568, 0.11240176856517792, -0.6826701760292053, 0.36868834495544434, -0.27906012535095215, -0.7983435988426208, -0.966981053352356, -0.7421994209289551, -0.38236314058303833, 0.41002875566482544, 0.8843267560005188, -0.541949987411499, 0.3688589632511139, 0.7736060619354248, 0.23607420921325684, -0.0004654127114918083, 0.3776399791240692, -0.2669127583503723, -0.13216881453990936, 0.3867618143558502, 0.10215864330530167, -0.06965316087007523, -0.2347048670053482, 0.22675184905529022, -0.9126356244087219, -0.1503356695175171, -0.769744873046875, -0.35523515939712524, -0.2604783773422241, -0.05606602132320404, 0.28332510590553284, -0.1725827157497406, -0.7865133881568909, -0.14805541932582855, 0.2849739193916321, -0.94110107421875, -0.4178830683231354, -0.7608435153961182, -0.036997951567173004, -0.22939063608646393, 1.2156856060028076, 0.6239631175994873, -0.08094323426485062, 0.20121225714683533, 0.3589323163032532, -0.3397219181060791, -0.07610546797513962, -0.47434553503990173, -0.21751107275485992, 0.30516916513442993, 0.6150324940681458, 0.05808071047067642, -1.745015263557434, 0.14175675809383392, 0.44417500495910645, -0.2142496109008789,
