#include "nn_parameters.h"

// NN network parameters -- atribute values
const float weights_in[NUM_NODES][NUM_STATES] = {{-1.777161956e+00, 3.623810410e-01, 8.710845560e-02, -7.290166616e-02, 2.105166763e-01, -4.857149348e-02, 2.592822015e-01, 3.510999978e-01, 5.719661713e-01, 3.670887947e-01, 2.166717798e-01, 2.000440061e-01, 1.602987051e-01, -5.466214847e-03, -1.378619075e-01, 2.373445481e-01, 7.526793331e-02, 9.211885184e-02, 1.360666305e-01}, {8.232474923e-01, 5.510678887e-01, 1.747046858e-01, -9.704726934e-01, -7.976659536e-01, -4.178659916e-01, -8.533453345e-01, 9.856060743e-01, -2.376332879e-01, -2.312069237e-01, 8.018603921e-02, -1.895854473e-01, 6.851714849e-02, 1.708297729e-01, 6.041484699e-02, 2.373383790e-01, 6.426962465e-02, -5.844075233e-02, 2.606110461e-02}, {-6.317417622e-01, -1.389353752e+00, 1.202191949e+00, 2.836622000e-01, 5.582105517e-01, -1.307631284e-01, -1.005293103e-03, -1.038554162e-01, -7.269940525e-02, -1.553714927e-02, 3.625680879e-02, -2.004016191e-02, 2.393353358e-02, 2.368555171e-03, -3.353661299e-02, -8.886469901e-02, -7.359460462e-03, 2.859344147e-02, -1.491798647e-02}, {1.066305995e+00, 4.606240988e-01, -4.280742705e-01, -6.543095708e-01, -6.876201034e-01, 3.221184313e-01, -7.205189466e-01, 8.214302659e-01, -2.712690532e-01, -6.080152988e-01, 7.725510597e-01, -1.814991236e-01, 5.128759891e-02, 2.745887935e-01, -9.552992135e-02, -5.075700283e-01, -2.033901215e-01, 3.996227384e-01, -7.263591886e-02}, {1.827021360e+00, 7.303932905e-01, 5.981343389e-01, -8.231295943e-01, -9.347329140e-01, -1.480829716e-01, -5.121118426e-01, -5.584809557e-02, 1.028721482e-01, -2.193038017e-01, -7.946703117e-04, 1.232324317e-01, -1.437523812e-01, 3.487808257e-02, 1.077509820e-01, -9.382811189e-02, -9.217017144e-02, -3.143324330e-02, -1.671161875e-02}, {4.298950136e-01, 3.521368802e-01, -1.118572712e+00, 2.854098976e-01, 3.645351827e-01, 5.219956040e-01, 1.983680874e-01, -2.579248846e-01, -9.345429018e-03, -1.357437205e-02, 1.291211694e-01, -1.099803746e-01, 8.239834011e-02, 3.417655453e-02, -1.999355853e-01, -5.925664678e-03, 8.944722265e-02, 1.781740934e-01, 2.409897558e-02}, {6.096468568e-01, -1.315491796e-01, 3.131799400e-02, 8.037159592e-02, -1.556280255e-02, -4.878044128e-01, -3.472489417e-01, -1.040778041e+00, -2.929855585e-01, -1.886836290e-01, -2.547138929e-01, -1.538186222e-01, -1.166110560e-01, 1.340745296e-02, 1.559704840e-01, -1.856773510e-03, -5.346367508e-02, -7.088998705e-02, -6.772106141e-02}, {-2.093853056e-01, -2.332524061e-01, -6.201812029e-01, 2.290283442e-01, -4.947518185e-02, -1.664235070e-02, -3.866198063e-01, 6.835120916e-02, -5.770533085e-01, -4.594244063e-02, 2.825669050e-01, -3.628776073e-01, 5.687244534e-01, 3.429439068e-01, 4.302299395e-02, 2.137674093e-01, 1.538771391e-01, 1.877954900e-01, -1.936838329e-01}, {-4.363809247e-03, 1.307509392e-01, 2.138216496e-01, 2.903546393e-02, -6.264184415e-02, -2.381175160e-01, -9.655910730e-01, 8.912801743e-01, 1.919316202e-01, 1.185129806e-01, 1.380309016e-01, 2.019398957e-01, 1.799598522e-02, -3.208868951e-02, 6.384927034e-02, 4.563271254e-02, -1.550253597e-03, -3.670714423e-02, -9.559071623e-03}, {8.084835857e-02, -1.898940504e-01, -1.271180362e-01, -1.339912564e-01, 1.171558797e-01, 9.787476808e-02, 5.650623515e-02, 1.498151422e-01, -3.141316772e-01, -4.796516299e-01, 5.280559659e-01, -2.062044740e-01, -9.942772239e-02, 1.996081471e-01, 1.950680017e-01, 5.062834024e-01, -1.878617853e-01, 1.521165818e-01, -1.014656350e-01}, {1.377042383e-01, 1.611097157e-02, 8.800065517e-02, -1.223847196e-01, -1.687643528e-01, 1.085112710e-02, -1.085092351e-01, 4.866996780e-02, -1.767572463e-01, -3.867252767e-01, -1.200267673e-01, -5.614716560e-02, 3.796550632e-01, -4.009226859e-01, -9.562532306e-01, 8.269672096e-02, 2.079606354e-01, 1.438112557e-01, -3.422504989e-03}, {1.178392291e+00, -8.477864265e-01, 1.759414375e-02, -7.278669477e-01, 7.146474123e-01, 4.262443632e-02, 5.696779490e-01, 5.284126997e-01, -3.290247321e-01, 4.772846997e-01, 5.010194182e-01, 4.724397138e-02, 2.190312743e-01, 1.326691918e-02, -2.928829789e-01, -5.604957417e-02, 1.143594757e-01, 2.310133725e-01, 1.961341128e-02}, {-1.096980929e+00, 1.212065697e+00, 1.957604885e-01, 4.787090421e-01, -8.905047774e-01, 1.497700214e-01, -6.032044291e-01, -1.863695979e-01, 6.706539989e-01, 3.077867925e-01, -2.934689224e-01, 5.687693954e-01, -1.107875556e-01, 3.440645710e-02, -7.116979361e-02, -2.347142398e-01, -1.025501564e-01, 1.590676010e-01, -4.448960535e-03}, {2.573315799e-01, -3.222600818e-01, 1.628171839e-02, -2.817940414e-01, 4.460787475e-01, -1.076808572e-01, 3.616214693e-01, 1.988122910e-01, -1.303564478e-02, 1.684468687e-01, 7.000859082e-02, -7.447953522e-02, 1.201843977e+00, -1.751880199e-01, -5.611193776e-01, 5.143455416e-02, 4.047550559e-01, 3.637383580e-01, -2.919987030e-02}, {-1.682483107e-01, -2.738365531e-01, -6.887946744e-03, 8.842515945e-02, 1.444138139e-01, -6.767596304e-02, -6.844329834e-02, 5.672945082e-02, -1.615477353e-01, -2.002790123e-01, 1.249394193e-01, -1.776703000e-01, -2.414543927e-01, 6.273027062e-01, 7.149528712e-02, -6.513426304e-01, -3.556135893e-01, 3.458255231e-01, -4.297921434e-02}, {-1.567697167e+00, -4.323562235e-02, 1.674805522e+00, 8.801249266e-01, -1.405893415e-01, -8.246516585e-01, 9.120664001e-02, 1.706425399e-01, -8.606183529e-02, -1.172150485e-02, -2.070351094e-01, 4.743406922e-02, 7.656258345e-02, -1.672936976e-02, 6.205483526e-02, 7.491186261e-02, 1.776463538e-02, -3.610900044e-02, -1.616643555e-02}, {-2.899346948e-01, 1.473308444e+00, -9.554282427e-01, -1.269551873e+00, 4.614676535e-02, 4.209957719e-01, -1.345395446e-01, -2.637636662e-01, 3.261515796e-01, -7.595901191e-02, 1.193187684e-01, 8.170350641e-02, -1.934813336e-02, 7.488844544e-02, 6.103748828e-02, -3.361116722e-02, -3.083612584e-02, 2.927708812e-02, 2.369437832e-03}, {5.776840076e-02, -1.047520861e-01, -8.388333023e-02, -2.000470087e-02, -1.000620499e-01, 4.985576868e-02, 6.892931461e-02, 4.899467807e-03, -7.501980662e-02, 9.450735152e-02, -1.978601702e-02, -3.492617747e-03, 1.832382232e-01, 5.050221682e-01, 1.580663323e-01, 2.899831831e-01, 7.914990187e-02, 2.223698422e-02, 8.289209008e-02}, {8.798121810e-01, -4.390413165e-01, -3.717196286e-01, -3.767774105e-01, 5.158033371e-01, 3.005230129e-01, 6.489332318e-01, 1.436437517e-01, -6.104062200e-01, 4.010509849e-01, -1.357552260e-01, -1.006264463e-01, 3.675582111e-01, -4.622555673e-01, -2.264688313e-01, 2.924649715e-01, 1.402509063e-01, -6.527134031e-02, -2.144670300e-02}, {2.967467606e-01, -1.026821211e-01, 1.964862585e+00, -7.104229182e-02, -4.308048263e-02, -7.835294604e-01, 1.446027160e-01, -2.881011963e-01, -5.175543576e-02, 2.568301558e-02, 5.248908699e-02, -1.351416763e-02, 5.923423171e-02, 5.783364549e-02, 3.406810760e-02, 4.771873355e-03, -2.176176570e-02, 1.194720995e-02, -4.494648054e-02}, {1.818000525e-01, -4.442181811e-02, -7.392141223e-02, -1.533327699e-01, 1.812916100e-01, 1.014067456e-01, 1.331092268e-01, 8.952751756e-02, 3.380814195e-01, 2.964699268e-01, 1.014556140e-01, -8.831223845e-02, 1.420332789e-01, 2.537699342e-01, -4.702115357e-01, 4.999645054e-01, 1.300762743e-01, 4.528106749e-02, 2.123038769e-01}, {1.433458626e-01, 9.027074277e-02, 4.449281096e-01, 5.096789598e-01, 1.681308076e-02, -6.582561135e-01, 4.793085158e-03, 3.758569360e-01, 1.843768358e-01, -4.586414993e-01, 8.195928931e-01, 2.830047309e-01, -1.114647537e-01, -8.802440763e-02, -4.064757377e-03, 5.175394472e-03, 2.299303561e-02, -8.452967554e-02, -1.318552881e-03}, {9.264089465e-01, -4.942853451e-01, 2.479274273e-01, -5.154407620e-01, -2.435719036e-02, 4.008343071e-02, -1.020326138e+00, -1.987526864e-01, -6.422277093e-01, -1.041897982e-01, -1.773480140e-02, 7.173126936e-02, -3.555626273e-01, 7.608170807e-02, 1.218096912e-01, -1.832104176e-01, -1.273024231e-01, -1.475032326e-02, 7.982372493e-02}, {-1.893533230e+00, -1.028950453e+00, -2.569220960e-02, 6.240264177e-01, 5.321565270e-01, 2.665604949e-01, 3.052009940e-01, -4.108580574e-02, -3.998806477e-01, 1.842201501e-01, -2.950365245e-01, -4.036221206e-01, -2.326226607e-02, -6.316582114e-02, -1.508671939e-01, -4.706127942e-02, -1.190095907e-03, 1.424814574e-02, -1.596772298e-02}, {-1.337437749e+00, -2.292283535e+00, 3.709560633e-02, 6.814810634e-01, 7.317650318e-01, -5.591030791e-02, 1.024379283e-01, -2.158294767e-01, -8.738546818e-02, 1.176663302e-02, -2.072784007e-01, 5.210727081e-02, -6.155489758e-02, -9.440039098e-02, 3.903782740e-02, 9.376810864e-03, -2.758769551e-03, -5.932517350e-02, 4.126346111e-02}, {-1.509994030e+00, -5.875414014e-01, -1.635976911e+00, 7.244119048e-01, 9.168749675e-03, 5.948518515e-01, -3.381599188e-01, -7.677967846e-02, 3.671260085e-03, 1.201019622e-03, -1.948484778e-02, -4.279692471e-02, -4.604094476e-02, 2.581118792e-02, 7.454439253e-02, 3.621016804e-04, -6.122754514e-02, -1.388315111e-03, 3.078367189e-02}, {-6.463352442e-01, 4.679373801e-01, 2.990683913e-01, 3.282013834e-01, -4.315738678e-01, -1.506211013e-01, -1.738848835e-01, 7.274201512e-02, 1.685867645e-02, -2.725703120e-01, -2.540241778e-01, -1.380694192e-02, -5.044100285e-01, 2.817670442e-02, 3.355413675e-01, 5.462009087e-02, -1.124036387e-01, -1.792317182e-01, 7.768727839e-02}, {-2.110537738e-01, 6.831850857e-02, -3.605826199e-02, 8.097231388e-02, -1.201046333e-01, 2.840089239e-02, -1.349301189e-01, -6.245093886e-03, -3.669626266e-02, -5.033223890e-03, -5.269131064e-02, 3.571655229e-02, -5.271529779e-03, -8.566117287e-02, 5.522301421e-02, 2.951738834e+00, 2.710011229e-02, -6.796592474e-02, -4.065617919e-02}, {-6.432128139e-03, -3.200342357e-01, -3.535903096e-01, 9.560126811e-03, 2.143689245e-01, 5.107576028e-02, 9.436733276e-02, 2.221027017e-02, -1.925116777e-02, 2.419111133e-01, 3.035291135e-01, 4.012781009e-02, 1.864561081e+00, -1.709173806e-02, 2.588349283e-01, 1.058833897e-01, 6.972088665e-02, 6.921438128e-02, -8.809155785e-03}, {-8.998885155e-01, 1.363629550e-01, -9.720985889e-01, 1.093573928e+00, -2.366444170e-01, 1.231398940e+00, -3.252370283e-02, -7.203848958e-01, -4.078395665e-02, -1.971235871e-01, 4.137188196e-01, -1.056366190e-01, 1.418078840e-01, 1.789327562e-01, -1.707256883e-01, -2.288354635e-01, -5.293359235e-02, 3.145182133e-01, -7.167240977e-02}, {1.920991391e-01, -9.988661110e-02, 6.623200327e-02, -1.856343448e-01, 1.499512047e-01, 1.717195846e-02, 4.705008864e-02, 1.048550755e-01, -1.145070940e-01, 1.731933653e-01, -7.247133553e-02, -8.730035275e-02, 1.225212887e-01, 2.323685288e-01, 2.539849654e-02, -2.716583908e-01, 5.315614343e-01, -1.319510676e-02, -2.441160381e-02}, {-2.549839765e-02, -9.650921226e-01, -5.677233934e-01, 2.207276970e-01, 4.909833074e-01, 3.052223027e-01, 3.098937497e-02, -1.931302994e-01, -8.524171114e-01, 7.229077816e-02, -3.778573275e-01, -4.490563571e-01, -1.176940277e-01, -8.062104881e-02, 9.017521888e-02, 1.254221648e-01, -1.240280457e-03, -1.517532170e-01, -2.546859160e-02}, {9.054069519e-01, 5.086478591e-02, 1.613130927e+00, -4.014995396e-01, 5.327207223e-02, -8.934544921e-01, 1.692599952e-01, 1.448881626e-01, 2.467137426e-01, -3.352309763e-02, -4.306165874e-02, 9.028886259e-02, 3.653765097e-02, 1.508954018e-01, 4.169902951e-02, -7.368732989e-02, -1.588419639e-02, 6.731650233e-02, 8.216558397e-02}, {-1.904832870e-01, 8.208741248e-02, -3.916518018e-02, 1.512077153e-01, -1.177488118e-01, -2.984564379e-02, 2.040744200e-02, 7.606570423e-02, 7.196172327e-02, 8.286774755e-01, 1.946895599e+00, 1.596815139e-02, 1.107219383e-01, -2.400645241e-02, -8.323194832e-02, 5.926313996e-02, 2.822965011e-02, 2.789949998e-02, -1.304353587e-02}, {4.470548630e-01, -2.206151038e-01, 1.041168720e-01, -3.360534310e-01, 8.200442046e-02, -5.024888515e-01, -4.729276896e-02, 3.677780554e-02, -6.883195788e-02, 5.609256029e-01, -9.184280783e-02, 2.525682375e-02, -3.226490617e-01, -3.558602929e-01, -4.380115494e-02, -3.234054744e-01, 1.498458236e-01, -4.053876400e-01, 4.124311209e-01}, {-7.103537321e-01, 1.140990257e+00, -6.139169335e-01, 1.142952561e+00, -1.376669407e+00, -1.596417092e-02, -6.854823232e-01, -7.631363869e-01, 1.070223302e-01, -4.673964381e-01, -7.159674764e-01, -3.530592844e-02, -4.924626350e-01, -2.160445787e-02, 4.431120753e-01, 1.346538067e-01, -5.945261568e-02, -2.466529310e-01, 2.306122147e-02}, {5.245760083e-01, -1.068193242e-01, 5.085508898e-02, -5.406351686e-01, -4.370044172e-01, -2.171789110e-02, 1.034479514e-01, 1.919855326e-01, 1.509602189e+00, 5.474019423e-02, 2.020478398e-01, 2.951353788e-01, -1.063523814e-02, 2.362982333e-01, -5.634132028e-02, -1.025665551e-01, -1.065291017e-01, 8.960358053e-02, 3.771857545e-02}, {-4.234035909e-01, -2.349288315e-01, 1.157685742e-01, 2.909075022e-01, -1.328776032e-02, -2.200518250e-01, 1.269857734e-01, -1.883653700e-01, -2.724913955e-01, -1.548634470e-02, -2.041569799e-01, 1.816490442e-01, 3.949675858e-01, -1.754942089e-01, 1.721735001e-01, -1.391840428e-01, 6.804417074e-02, 1.510496289e-01, -4.219923019e-01}, {7.249870300e-01, -2.483915836e-01, -9.831539541e-02, -1.948465556e-01, 3.795957565e-02, 3.043259680e-01, -4.845078886e-01, 5.020877346e-02, -7.183676362e-01, -2.339826822e-01, 8.000995219e-02, -2.486656904e-01, 7.550199330e-02, -1.495700330e-01, 1.371533424e-01, -2.916338742e-01, -2.227232791e-02, 1.731872559e-02, -4.175708890e-01}, {-1.547609568e+00, 2.466435581e-01, -4.595571756e-01, 5.113490224e-01, -4.910697639e-01, -1.056706347e-02, -2.346093059e-01, -2.110145986e-01, -8.967846632e-01, 1.037312895e-01, -1.451665610e-01, 1.514187902e-01, 5.829368532e-02, -1.109274328e-01, -2.138098031e-01, 8.364661038e-02, 1.292721331e-01, 2.613040991e-02, -6.083965302e-02}, {6.301985383e-01, 4.772617519e-01, 4.390224516e-01, -2.373270243e-01, -2.655671239e-01, -2.725901008e-01, 8.759348392e-01, -5.418643355e-01, -1.593227834e-01, -7.239916921e-02, 4.444421455e-02, 5.540807266e-03, 4.094941169e-02, 1.172381826e-02, -5.821851641e-02, -1.403280348e-02, 1.834250614e-02, 2.714799717e-02, 2.370088175e-02}, {-1.019299507e+00, -7.644136548e-01, 1.237580627e-01, 2.057746649e-01, 6.200705767e-01, -3.958438039e-01, -6.993830800e-01, 2.551170588e-01, -2.749795616e-01, -4.061322659e-03, -2.777703106e-01, 9.159848094e-02, 1.266309619e-01, 6.130962819e-02, 1.001085863e-01, 4.019597545e-02, -1.467751712e-02, 1.846807264e-02, -1.159394979e-01}, {-1.978795052e+00, 3.363742530e-01, -2.110383362e-01, 1.845481992e-01, 9.919278026e-01, 1.675624400e-01, 2.043318748e-01, -1.984294206e-01, 1.214569926e+00, -6.995290518e-02, -4.490748048e-01, 5.825355053e-01, -3.617737815e-02, -1.210386753e-01, 1.255220026e-01, 5.469281226e-02, 9.256230667e-03, -1.319724172e-01, -1.442271471e-01}, {-1.620015860e+00, -1.160174847e+00, 1.750683486e-01, 7.846267819e-01, -3.589640856e-01, 1.779097170e-01, -4.208775163e-01, -4.823444784e-01, -4.193650782e-01, -1.040502638e-01, 7.292823493e-02, -5.181392282e-02, -3.683109209e-02, 6.298974156e-02, -7.170125376e-03, -5.783569440e-02, -1.422142237e-02, 1.343894377e-02, 1.138910558e-02}, {-1.401721090e-01, -2.813298814e-02, -2.813202143e-02, 6.758447737e-02, 3.802612796e-02, 1.324544847e-02, -4.576921836e-02, -2.892751805e-02, -4.194517434e-02, -1.752444029e+00, -2.187952548e-01, 5.371583104e-01, -1.557100378e-02, -2.331071999e-03, 4.273273423e-02, -1.957043540e-03, 5.089693237e-03, -1.087833289e-02, -1.157326624e-02}, {-1.970715046e+00, -2.772304714e-01, 8.216524720e-01, 5.176855922e-01, 1.416917592e-01, 1.795417815e-01, -7.128635049e-02, -4.743539095e-01, 2.231186926e-01, 4.699539021e-02, -1.517093182e-01, 1.708135754e-01, -1.618363410e-01, -1.437486261e-01, 1.035069749e-01, 2.541068792e-01, 2.667002752e-02, -1.323124468e-01, 8.536662161e-02}, {8.949577808e-01, 6.908339858e-01, 2.517640889e-01, 6.230021715e-01, -1.887509346e+00, -9.721088409e-01, 2.674448788e-01, 1.017392397e+00, 8.331212997e-01, 9.373298287e-02, 8.308835328e-02, -7.949503511e-02, 5.887593329e-02, 1.860664599e-02, -5.686318874e-02, -4.373704642e-02, -7.037833799e-03, 3.593145311e-02, -9.076172486e-03}, {1.096225739e+00, -7.142326832e-01, 1.800818145e-01, 5.981213413e-03, 8.649832606e-01, -2.262693793e-01, 6.117610931e-01, -5.233003497e-01, -3.454277813e-01, 1.208230630e-01, -2.231983393e-01, 2.261268944e-01, -6.028186530e-02, -2.018530816e-01, 1.471445989e-02, 1.695791483e-01, 1.217993200e-01, -5.476349592e-02, 4.632750154e-02}, {2.957274318e-01, -4.090460017e-02, 1.960385293e-01, -1.496972442e-01, 1.039162278e-01, -2.899118960e-01, 3.054524958e-01, -1.981661320e-01, 2.861244380e-01, 2.720409632e-01, -2.519895434e-01, 5.249494910e-01, -2.958250791e-02, 2.213933766e-01, 1.058616266e-01, 9.016402811e-02, -5.337883532e-02, 4.893795773e-02, 2.111436874e-01}, {1.905871511e+00, -8.567332625e-01, 7.281456590e-01, -1.070475221e+00, 5.749004483e-01, -4.383101165e-01, 3.259712458e-01, 7.841569185e-02, -4.220179319e-01, 6.319849938e-02, 1.477617770e-01, 7.652206812e-03, 1.280293912e-01, 4.093550891e-02, -8.139059693e-02, 1.264215447e-03, 4.410450906e-02, 7.174574584e-02, -1.559860259e-02}, {-6.125370786e-02, -5.395080447e-01, 1.753891855e-01, 2.352653146e-01, 6.151505113e-01, -3.496845663e-01, 3.906669617e-01, -1.681545675e-01, -1.870644744e-03, 2.574968934e-01, -1.275628656e-01, -1.722116470e-01, 3.183394670e-01, -6.641179919e-01, -1.649775803e-01, 7.072473168e-01, 3.256901801e-01, -2.727396190e-01, -8.127544075e-02}, {-4.799509645e-01, 6.979582310e-01, -2.594000697e-01, 7.706805468e-01, -7.790469527e-01, 3.505121171e-01, 2.417025119e-01, -1.245815158e-01, -6.536449790e-01, -2.916581556e-02, 1.283010095e-01, 9.569904953e-02, -1.679277718e-01, 6.191180274e-02, 1.555468738e-01, -6.854536384e-02, -4.140815511e-02, -4.383077472e-02, 4.346890841e-03}, {-1.252005458e+00, 1.905535698e+00, -7.648322582e-01, 5.887686610e-01, -5.066468120e-01, 4.105952680e-01, -3.242312372e-02, -1.003425941e-01, 6.025338173e-01, -6.470350176e-02, -1.642800421e-01, 3.191186115e-02, -1.466496438e-01, -6.823984534e-02, 2.603010461e-02, 1.860227901e-03, 9.763576090e-03, -3.444317728e-02, -1.700022817e-02}, {-6.583364606e-01, -8.658254147e-02, -2.272453606e-01, 4.583195746e-01, 2.595074102e-02, 2.655546963e-01, -6.994021684e-02, -3.178949058e-01, 1.988776773e-01, -1.729940474e-01, -4.907783568e-01, 1.988964230e-01, 1.883223534e+00, 1.373240799e-01, 1.319780108e-02, 4.096581414e-02, -3.574765474e-02, -1.250984818e-01, 2.113660425e-01}, {-1.363232017e+00, 2.929628491e-01, 5.064581037e-01, 4.108846784e-01, 2.389879674e-01, -9.306370467e-02, -3.308048844e-01, 1.680533737e-01, 1.106396392e-01, 7.251218706e-02, -4.616866633e-02, 1.531738322e-02, -1.043688431e-01, -4.380382970e-02, -2.897834219e-02, -8.786636591e-02, -2.210118249e-02, -6.312726997e-03, 2.954772301e-02}, {-2.162861109e+00, 4.297036529e-01, -4.026737809e-01, -2.043646015e-02, -6.224746704e-01, 3.858070076e-01, -2.920859754e-01, 2.981877029e-01, -1.784820259e-01, -7.202626020e-02, 1.899084747e-01, -8.225481957e-02, -1.403967943e-02, 9.837136418e-02, -6.089450419e-02, -1.644975990e-01, -1.252359245e-02, 9.485480189e-02, -2.005207352e-02}, {6.962708831e-01, 6.582939029e-01, -8.679283410e-02, -8.563169837e-01, -6.687982082e-01, 4.827409983e-01, -2.436088622e-01, 3.718679547e-01, -6.527922302e-02, 1.715335846e-01, -2.254037857e-01, -2.068141699e-01, 3.139052540e-02, -1.855409592e-01, -1.341807842e-01, 9.182265401e-02, 2.019096017e-01, -2.885167003e-01, -1.838307977e-01}, {5.160150528e-01, 1.709995031e+00, 1.016377568e+00, -2.065031081e-01, -7.485252023e-01, -4.260177016e-01, 2.297362685e-02, 8.504798263e-02, 1.173383966e-01, -1.721829176e-01, 1.475113779e-01, -9.215658158e-02, -1.933374628e-02, -2.331900597e-02, 7.982668281e-02, -3.577918513e-03, -8.801680990e-03, -3.426434100e-02, -8.297687396e-03}, {-3.703494072e-01, -2.945387363e-02, -1.007121205e-01, 3.205380142e-01, 1.183614060e-01, 2.129211649e-02, 9.224281460e-02, -2.397539467e-01, -1.067645252e-01, -9.342488833e-03, -5.170150399e-01, -2.762565389e-02, -3.244264424e-01, 8.625767827e-01, -8.333276510e-01, 1.147641987e-01, -1.349285692e-01, -3.857272863e-01, -9.322345257e-02}, {1.589521289e+00, -7.292811871e-01, 2.265295573e-02, -1.128893375e+00, 3.212034404e-01, 1.182397902e-01, 1.181088239e-01, 7.666791081e-01, 1.901641786e-01, -1.553471833e-01, -1.403197497e-01, -1.545530111e-01, -4.692340642e-02, 6.582359225e-02, -7.829727232e-02, -1.305092871e-01, -7.339418679e-02, 1.206340827e-02, 5.379080027e-02}, {-9.323512316e-01, 1.740583301e+00, 7.021967769e-01, 2.520217597e-01, -9.027524590e-01, -3.380985856e-01, 1.147902980e-01, 3.501347303e-01, 1.354440302e-01, -2.428739369e-01, -1.015971228e-01, 1.105879843e-01, 2.499376610e-02, 2.909345031e-01, -1.029026229e-02, -1.310179383e-01, -6.806462258e-02, 1.220865026e-01, 4.757634550e-02}, {3.565769494e-01, -2.657026649e-01, -1.210378669e-02, -2.367549986e-01, 1.928583533e-01, 8.875497431e-02, 9.075576812e-02, 1.096385415e-03, -2.081156373e-01, -4.183854163e-02, 1.890325397e-01, 1.634932682e-02, 4.856360704e-02, -1.401661895e-02, -1.215190068e-01, 6.904701591e-01, 5.485931784e-02, 2.548026852e-02, 4.987425357e-02}, {-3.052162528e-01, 6.504245996e-01, -7.087222934e-01, 4.542114437e-01, -1.013095498e+00, 4.939551651e-01, -5.629300475e-01, 1.479589790e-01, -2.686650157e-01, 2.984484434e-01, 2.810683548e-01, 9.208557010e-02, 2.116633505e-01, -1.285192966e-01, -1.467165649e-01, 2.656192183e-01, 1.094968840e-01, -2.921297960e-02, -7.869168371e-02}, {2.091975361e-01, -5.247710347e-01, -8.279447258e-02, -2.578598857e-01, 1.151625067e-01, -2.217590064e-01, 3.608413637e-01, -4.418028519e-02, -4.329655468e-01, 4.881701469e-01, 1.687326878e-01, -3.883963823e-01, 8.488215506e-02, 1.980231553e-01, -1.982788090e-03, -1.596728265e-01, -1.216938421e-01, 5.222395808e-02, -1.359937787e-01}, {2.035224140e-01, 2.508800924e-01, -7.276204824e-01, -2.473372221e-01, -1.444686055e-01, 6.976029277e-01, -2.815179229e-01, 1.679576635e-01, 4.788000584e-01, -2.946887910e-02, 1.733272970e-01, 2.619373202e-01, 2.126374096e-01, -6.009685807e-03, 1.874675229e-02, 3.233482316e-02, 7.211368531e-02, 1.836594194e-02, 1.816959679e-01}, {5.856816657e-03, -1.063721534e-02, -3.092286885e-01, -2.038269304e-02, 6.841384619e-02, 3.112102151e-01, 4.856803268e-02, 1.258684993e-01, -2.703086734e-01, 7.465342879e-01, -1.993915588e-01, -1.030230448e-01, 3.879990876e-01, 4.208111465e-01, -1.245609969e-01, 3.681770265e-01, 1.897807419e-01, -1.024362966e-01, -2.111414224e-01}, {1.290753007e+00, -7.720487118e-01, -7.331475616e-02, -6.219754815e-01, -1.614035517e-01, -2.289821953e-01, -6.170264482e-01, -2.609036863e-01, 1.159721054e-02, -4.321841523e-02, 1.260632873e-01, -2.085112482e-01, -1.262547523e-01, 1.580723226e-01, 1.931679845e-01, -9.524241835e-02, -1.234840900e-01, 1.293098647e-02, -8.066199720e-03}, {-5.533367991e-01, 7.530345321e-01, 1.005409718e+00, 4.236908257e-01, -6.264347434e-01, -5.452329516e-01, -4.464481473e-01, -2.123075873e-01, 1.767209023e-01, 2.232361399e-02, 2.880989909e-01, -3.391224742e-01, -1.861977391e-02, -1.210998278e-02, -2.177910209e-01, -2.940599993e-02, -4.060380161e-02, 1.689809002e-02, 1.130659655e-01}, {3.631693423e-01, 4.453045502e-02, -1.087179128e-02, -1.755535901e-01, -1.887165159e-01, 2.932209149e-02, -4.513559118e-02, 1.270797998e-01, -2.276321948e-01, -3.831153214e-01, -2.003604472e-01, -1.268151850e-01, 6.678358912e-01, 1.594642848e-01, 4.941496551e-01, -1.513061821e-01, -2.188865840e-01, -1.914396137e-01, -3.015348315e-02}, {9.873442352e-02, 1.131189391e-01, -2.369833738e-01, -1.565467268e-01, -1.120620593e-01, 1.055221185e-01, -6.915099453e-03, 2.922525704e-01, 3.781730682e-02, 3.897199631e-01, 7.771086097e-01, 1.127281319e-02, 7.440705895e-01, 2.032100409e-01, -6.077537537e-01, -1.367940605e-01, 1.591589600e-01, 3.621255159e-01, -1.523854118e-02}, {-1.068368077e+00, -2.012637854e+00, -5.350018144e-01, 2.046721242e-02, 6.917674541e-01, 5.126100779e-01, -2.042911202e-02, 4.436947405e-02, -3.431550562e-01, -2.074016780e-01, 4.204587936e-01, -7.438901067e-02, 3.624921292e-02, 1.324758381e-01, -6.155280769e-02, -2.227532417e-01, -3.177060187e-02, 7.460685074e-02, -5.869251117e-02}, {9.839010835e-01, 3.282985985e-01, -5.178079754e-02, -2.349507660e-01, -1.433740854e-01, -4.218874872e-02, -3.989036381e-02, 3.655427322e-02, 1.087669373e+00, -9.308795631e-02, 2.349567562e-01, -4.007321596e-01, -2.144556791e-01, 6.570416689e-02, -7.959502749e-03, -9.806362912e-03, -6.769489497e-02, 1.487816125e-02, 1.910497844e-01}, {4.802825153e-01, 1.229725242e+00, 1.254546881e+00, -3.838112950e-01, -6.294432282e-01, -5.192177892e-01, -4.006069601e-01, 3.456814289e-01, 4.320328832e-01, 3.394306079e-02, 4.669018090e-02, 1.662846804e-01, 2.777194977e-02, -3.013006970e-02, -4.765021056e-02, 6.565233320e-02, 2.435517125e-02, -9.670193307e-03, -1.503787655e-02}, {1.143711731e-01, -1.859434992e-01, -1.657695174e-01, -2.105934620e-01, 3.136960566e-01, 1.964834034e-01, -7.838526368e-01, -9.122641683e-01, 3.499884009e-01, 4.043414816e-02, 1.284313761e-02, -1.287163980e-02, 1.388468407e-02, -5.345134065e-02, -3.909729049e-02, -2.060205117e-02, -9.043900296e-03, -1.900559664e-02, 3.899014741e-02}, {-3.675694764e-01, 1.918064356e-01, -7.986530662e-02, 2.937184870e-01, -4.662087187e-02, 4.396302104e-01, 4.702358320e-02, -3.428066894e-02, 9.040962905e-02, -4.829526842e-01, 9.306352586e-02, -3.570061177e-02, 2.800373137e-01, 3.456138074e-01, 2.952675521e-02, 3.104951084e-01, -1.316522360e-01, 3.651726246e-01, -3.308149874e-01}, {8.682114482e-01, 6.923761964e-01, -1.245553255e+00, -9.380499721e-01, -3.228051066e-01, 3.960696757e-01, -9.680613130e-02, 8.239428997e-01, 1.271341145e-01, 1.711832583e-01, 5.485025048e-01, 1.568032652e-01, 2.087124139e-01, 3.273614049e-01, -2.746351361e-01, -2.253560275e-01, 4.601033870e-03, 2.692563236e-01, -3.365365416e-02}, {-2.558586597e-01, 2.834959328e-01, 5.756863579e-02, 7.197739184e-02, -1.842592061e-01, -2.633960545e-02, -2.475893870e-02, 3.706752881e-02, 2.426846176e-01, -6.396171451e-02, -1.778676920e-02, 1.448289901e-01, 2.048698999e-02, 1.921710745e-02, 4.725819081e-02, -1.042679906e+00, 5.157305300e-02, -2.322338521e-02, -3.566311672e-02}, {-6.706656516e-02, 1.081325769e+00, -3.575528264e-01, -4.180592597e-01, -8.695347309e-01, 5.908842012e-02, -4.818774462e-01, 6.128801703e-01, -1.194741130e+00, -6.913647056e-02, 4.177599549e-01, -2.549005747e-01, 5.459364504e-02, 1.609672308e-01, -4.157808796e-02, -1.779818386e-01, -8.959662169e-02, 1.586484760e-01, 8.218965679e-02}, {3.426932991e-01, 1.138524897e-02, 7.796875387e-02, -2.988308966e-01, -9.795217961e-02, -5.426293705e-03, -8.224640787e-02, 2.215540260e-01, 9.056946635e-02, 1.613567583e-02, 4.848403633e-01, 2.611137182e-02, 3.057552576e-01, -8.031648993e-01, 7.664299607e-01, -1.045678258e-01, 1.250814348e-01, 3.539865613e-01, 8.528100699e-02}, {1.894569695e-01, -4.218004644e-01, 1.324762702e-01, -1.715637743e-01, 2.755011022e-01, -1.583530605e-01, -1.271787524e+00, 5.584124327e-01, 2.909789383e-01, -8.697401732e-03, 1.158434805e-02, -5.718836933e-02, 7.722633891e-03, 1.537470669e-01, -6.346996874e-02, -8.874423057e-02, 2.294950420e-03, 5.793909356e-02, -4.146304354e-02}, {1.479531050e+00, -6.248090267e-01, -9.318875670e-01, -1.067358702e-01, 2.925026417e-01, 2.606528401e-01, -7.828987390e-02, -1.866668761e-01, 1.795458645e-01, -7.795790583e-02, -1.294425875e-01, 1.476927996e-01, -1.296470989e-03, -5.307107791e-02, 4.067582637e-02, 3.467520699e-02, 2.647704259e-02, -4.427261278e-02, 4.027305637e-03}, {2.396401167e-01, 1.624500513e+00, -1.156357303e-01, -5.260398388e-01, -4.181726277e-01, -3.022787571e-01, -1.979987472e-01, 1.749197990e-01, 3.633744121e-01, -1.963018179e-01, -1.653334200e-01, 4.087542593e-01, 9.696447104e-02, -8.087377995e-03, -5.749014020e-02, -2.660484612e-02, 5.291192234e-02, -1.060981527e-01, 8.739772439e-02}, {1.659494489e-01, -2.293792367e-01, -1.053817719e-01, -4.031797126e-02, 1.415396333e-01, 1.993669756e-02, 1.917181611e-01, 2.877433039e-02, -1.440232396e-01, -3.612786531e-01, -7.203438878e-01, 2.175659537e-01, 9.306706488e-02, 7.048789859e-01, 7.788722962e-02, 1.119149402e-01, -4.400606453e-02, 8.339080215e-02, -1.210959703e-01}, {-5.029018223e-02, 2.831890285e-01, 1.385933626e-02, -7.251942903e-02, -1.043698713e-01, -1.963891983e-01, 9.667781182e-03, 2.203423828e-01, 6.007554382e-02, -7.251381874e-02, -1.449073553e-01, 3.848544136e-02, 4.081770033e-02, -7.654862851e-02, 1.837347150e-01, -1.921544522e-01, -3.509664834e-01, -4.881794155e-01, -5.618607625e-02}, {5.160360932e-01, 2.301589012e+00, 2.524819076e-01, -1.900798529e-01, -1.041432381e+00, 6.023703143e-02, -2.575005591e-01, -2.382045686e-01, 6.443678588e-02, -2.632540651e-02, 2.103323489e-02, 3.104529716e-02, -8.595959097e-02, 5.663944408e-02, 2.844392555e-03, -8.890834451e-02, -4.329464212e-02, 4.835954309e-02, 6.921132444e-04}, {1.617373228e-01, 7.232742757e-02, 1.922514588e-01, 1.440319866e-01, -3.855195343e-01, -2.966746688e-01, 1.055772305e+00, 7.541977167e-01, -5.907339454e-01, -2.156279795e-02, 5.438442528e-02, -3.982321918e-02, 3.377593681e-02, 4.628019035e-02, -3.007369302e-02, 1.905382983e-02, 2.494651591e-03, 3.755494207e-02, 8.906166069e-03}, {6.808345765e-02, 4.942380264e-02, 1.591151476e+00, 2.068504989e-01, 4.034424722e-01, -3.683938384e-01, 8.740031719e-01, -1.951464564e-01, -3.274796307e-01, 7.833973318e-02, -1.847616881e-01, -2.174593695e-02, -5.422430485e-02, -5.082681775e-02, 4.912696034e-02, 4.607933015e-02, 7.800142281e-03, -5.259027705e-02, 2.389738336e-02}, {-1.198695600e-01, -6.843095273e-02, 4.002628848e-02, -1.622908376e-02, -8.007459342e-02, -2.902477607e-02, -7.585969567e-02, 6.243247539e-03, -6.934259087e-02, 8.248976469e-01, -1.314961553e+00, 2.191662490e-01, -1.760773733e-02, -1.184705868e-01, 6.376392394e-02, 7.847801596e-02, 6.235822104e-03, -7.594391704e-02, -6.089164689e-02}, {1.263033450e-01, 4.983014762e-01, -2.534901798e-01, -1.470832080e-01, -4.750544429e-01, 1.525154561e-01, -4.893220663e-01, 2.195903957e-01, 7.150788326e-03, -6.404963732e-01, 3.499047160e-01, 3.679236025e-02, -2.288483828e-01, 7.743252516e-01, 1.704114825e-01, -6.431043148e-01, -3.073555529e-01, 2.610083818e-01, 3.656822070e-02}, {-1.125668645e+00, -9.938418269e-01, 2.174164951e-01, 1.340455651e+00, 4.015876055e-01, -1.516369730e-01, 7.529391348e-02, -1.564731598e-01, -8.908605576e-01, -8.321268857e-02, 1.748428494e-01, -9.280266613e-02, 2.332726866e-02, 1.301692873e-01, -4.387524351e-02, -1.070107073e-01, -1.131499931e-02, 1.124473438e-01, -4.631083924e-03}, {9.224375337e-02, 1.666887999e+00, -1.255379915e+00, -1.283028722e-01, -8.011368513e-01, 3.748294711e-01, -3.568627238e-01, 7.773969322e-02, 1.735016331e-02, -8.557943627e-03, 5.948655307e-02, 4.768477380e-02, 1.727614552e-02, 1.502867322e-02, -1.772985421e-02, 1.474629715e-02, 6.262303941e-05, 4.110085778e-03, 1.305639371e-02}, {-1.088475227e+00, -2.393252254e-01, -5.238638520e-01, 4.576133192e-01, 1.160977334e-01, 3.811641634e-01, 4.220386147e-01, -3.114375472e-01, 1.351391077e-01, -4.095034897e-01, 2.456987975e-03, 3.669213504e-02, 2.026951313e-01, -7.116221189e-01, -3.126028776e-01, 7.173471451e-01, 3.954967260e-01, -2.132270783e-01, 1.207627580e-01}, {8.302367330e-01, -1.389791518e-01, 4.028578103e-01, -7.826179266e-01, 9.038303047e-02, -3.833539784e-01, 4.936181307e-01, 8.099259138e-01, -7.938079238e-01, 1.256562918e-01, 1.148430631e-01, 2.810165584e-01, 6.806270778e-02, -4.759085830e-03, -4.424184933e-02, 3.006928787e-02, 9.066109359e-02, 3.956755251e-02, -1.023099944e-01}, {3.764579818e-02, -1.156619266e-01, 4.107339382e-01, 2.195199579e-01, -3.596805036e-02, -5.384137630e-01, -9.160444736e-01, -4.859199226e-01, 1.003296971e-01, 5.863834545e-02, 9.571917355e-03, 2.060886025e-01, 7.078281045e-02, 1.324047893e-02, 1.338632964e-02, 5.740093440e-02, 2.495134994e-02, 2.445921674e-02, 4.280605540e-02}, {1.296837091e+00, -2.291303277e-01, -6.176618934e-01, -7.825102806e-01, 1.695365906e-01, 8.709608912e-01, -3.355703056e-01, 4.346740544e-01, -3.357599974e-01, 2.398703434e-02, 2.258820087e-02, 2.206440642e-02, -4.087729752e-02, -2.176417410e-02, -1.838735342e-01, -6.789830327e-02, 3.232170269e-02, 5.077354237e-02, 1.380300373e-01}, {-8.430213332e-01, 2.893847227e-02, -2.745092511e-01, 4.093416035e-01, 1.912201643e-01, 1.573896408e-01, -5.423447117e-02, -1.498234645e-02, 1.125256345e-01, -8.773300052e-01, 1.094785929e+00, -3.040350378e-01, 1.950933784e-02, -9.049516916e-02, -4.221565556e-03, -1.434478015e-01, 2.898889594e-03, -2.503635548e-02, -1.605578661e-01}, {-1.845364869e-01, -2.767390572e-02, -1.166470796e-01, 1.493036151e-01, 2.408396900e-01, -1.060463581e-02, 1.453829408e-01, -6.421683729e-02, 2.506003082e-01, 5.272441506e-01, 1.646076590e-01, 8.177439868e-02, -5.170212388e-01, 5.413898230e-01, 1.310561180e+00, -1.233324558e-01, -2.864828408e-01, -1.945787817e-01, -5.917585921e-03}, {7.902979255e-01, 7.046663761e-01, 1.075257063e-01, -3.490379751e-01, -2.610995173e-01, 1.585619897e-01, 1.794760078e-01, -8.331307769e-02, 4.858184159e-01, 6.394211948e-02, 5.190638080e-02, 4.572397470e-01, 5.253594369e-02, -6.672453284e-01, -2.312818021e-01, 9.038907290e-02, 2.145395800e-02, 1.137645692e-01, 1.865873337e-01}, {3.520098329e-01, -1.064837813e+00, 1.134410575e-01, -3.123425841e-01, 1.317179441e+00, 1.936076432e-01, 6.688736677e-01, 6.651102006e-02, -2.474263161e-01, -3.484086692e-02, -1.607285626e-02, -1.355800927e-01, 1.867753267e-02, -5.891519785e-02, -2.786275186e-02, -4.628818482e-02, 7.900549471e-02, -7.974342257e-02, -2.228829116e-01}, {2.846992910e-01, 8.874320984e-01, -2.334092259e-01, -2.724168003e-01, -1.136781573e+00, 1.094600037e-01, -6.869679689e-01, 4.575644433e-02, -1.746049374e-01, 2.643150091e-01, -2.687482536e-01, 1.393035501e-01, -3.015067894e-03, 4.374405742e-01, 8.115361631e-02, -3.133709431e-01, -4.109367356e-02, 1.064269394e-01, 7.156574866e-04}, {-1.852703989e-01, 5.357991159e-02, -2.193220556e-01, 1.903928220e-01, 2.238450386e-02, 2.016100436e-01, 1.859577745e-02, -1.748339832e-01, -7.056337595e-02, 3.570747972e-01, -6.746022701e-01, 8.615463972e-03, 7.182896882e-02, -5.053985119e-01, -2.630532347e-02, 3.744294047e-01, 7.164182663e-01, -9.989017248e-01, -3.617472947e-02}, {4.888135195e-02, 1.213601753e-01, -3.027133876e-03, -1.545516849e-01, -3.083252721e-02, 2.928119600e-01, 1.104980558e-01, -1.265115142e-01, 1.994910389e-01, 3.752476275e-01, -3.598706722e-01, 1.691256464e-01, -5.722966194e-01, -2.408453673e-01, 5.993605256e-01, 2.952724397e-01, -1.042222902e-01, -3.979527354e-01, -2.084766701e-02}, {2.187237442e-01, 2.812165953e-02, -6.139732003e-01, 1.337412149e-01, -1.728461981e-01, 3.692782521e-01, 1.335152239e-01, -2.773994505e-01, -1.208960116e-01, 5.673044920e-01, -6.000401974e-01, -8.394119143e-02, 1.245383248e-01, -1.186701804e-01, 2.756459638e-02, 3.033130467e-01, 1.027619988e-01, -8.473865688e-02, 1.836566068e-02}, {3.056029379e-01, 3.174837530e-01, -8.416940272e-02, -4.839127064e-01, -6.960867047e-01, -5.929784104e-02, 2.618689239e-01, -6.626520753e-01, -5.499624531e-04, -2.060264051e-01, 2.329686135e-01, 1.786493063e-01, -4.395624250e-02, 1.251141727e-01, -5.098181590e-02, -1.660086811e-01, -6.586022675e-02, 4.970808700e-02, -1.628217101e-02}, {-2.395198822e+00, 3.105733693e-01, -1.086562406e-02, 6.398676634e-01, -1.553548574e-01, -2.456475496e-01, 7.477544248e-02, 8.323407918e-02, 1.024684787e+00, -6.085483357e-02, 2.209166884e-01, -1.602731831e-02, -1.153893396e-01, 4.597583413e-02, 1.031524390e-01, -1.322034150e-01, -3.281464055e-02, -5.481735617e-02, -2.110742964e-02}, {-2.418591976e+00, -3.375154734e-01, 6.432094574e-01, 9.026640058e-01, 9.569185227e-02, -3.250948191e-01, 7.203709334e-02, -4.136416912e-01, -2.441746294e-01, 3.766821697e-02, -6.484364625e-03, -4.063689709e-02, 9.343945235e-02, 6.543860584e-02, -1.032946333e-01, -4.152361304e-02, 1.982901245e-02, 6.765107810e-02, -1.155666541e-02}, {4.248480201e-01, 7.868929952e-02, 1.481975317e-01, -2.980372310e-01, -2.701225504e-02, -1.664588451e-01, 3.545963019e-02, 2.076054662e-01, -1.135470048e-01, 1.226287708e-01, 3.245149553e-01, -1.120737791e-01, -1.152819872e+00, -8.519061655e-02, -1.201405004e-02, -3.185313195e-02, 2.059136331e-02, 9.308187664e-02, -1.457464993e-01}, {-8.297696710e-01, -2.224388272e-01, -7.411349099e-03, 5.046290755e-01, 3.515311480e-01, -2.295671962e-02, 9.339315444e-02, -4.112662375e-01, 1.485486925e-01, 9.799573570e-02, 1.335396469e-01, -5.894972011e-03, 5.781608447e-02, 5.961499810e-01, 1.366925798e-02, -2.006563246e-01, 8.596475422e-02, -1.343568861e-01, -8.174893260e-02}, {2.919737101e-01, 4.281578064e-01, -3.640589863e-02, -2.336659580e-01, 8.126027882e-02, -4.501293600e-01, 5.895995498e-01, 2.379009873e-01, 3.604602516e-01, -1.758380085e-01, -1.407631766e-02, -1.898929477e-01, -1.401855201e-01, 7.273089886e-02, 3.047882020e-01, 4.936837032e-02, -5.270032957e-02, -1.376649141e-01, -7.408228237e-03}, {-3.269262612e-01, -2.065772563e-01, -3.753192425e-01, 4.165611863e-01, 1.249209791e-01, 3.425461352e-01, -3.746265545e-02, -3.813338578e-01, -5.512768030e-02, -1.016000137e-01, -5.448975563e-01, 2.249797583e-01, -7.397881150e-01, -1.916877627e-01, 7.365823388e-01, -5.043650046e-02, -2.856281102e-01, -5.152041316e-01, -1.597860083e-02}, {-5.786803961e-01, 9.438256621e-01, -8.290294409e-01, 4.714247882e-01, -7.818664312e-01, 6.260355711e-01, -6.636127234e-01, -8.767617494e-02, -2.021596581e-01, 9.852810204e-02, -2.384124845e-01, -7.183586955e-01, -4.977058619e-02, -1.288643926e-01, 8.943989128e-02, 5.825691670e-02, 8.546010405e-02, -1.386775672e-01, -2.630892694e-01}, {-7.708520889e-01, 2.103707492e-01, -1.051552743e-01, 2.194648832e-01, 3.493463397e-01, 5.108334590e-03, 1.412683874e-01, -6.599678844e-02, 3.067124486e-01, -8.263313174e-01, -1.182210445e+00, -1.378307104e+00, -1.022873744e-01, -5.664522573e-02, 2.358897775e-01, 1.178491935e-01, 2.151274867e-02, -1.612532735e-01, -5.300927162e-02}, {6.059183180e-02, 3.544759452e-01, -6.025882959e-01, 1.345221996e-01, -2.421603352e-01, 5.179365277e-01, -5.958520174e-01, -2.884072065e-01, 1.288155466e-01, -4.383552074e-01, -8.464067578e-01, -1.314634830e-01, -5.191791430e-02, -8.116237074e-02, 4.459305108e-02, 2.178137153e-01, 5.092003569e-02, -1.236433014e-01, 1.305193640e-02}, {-1.248770475e+00, 1.267025590e+00, 5.254916549e-01, 7.551196218e-01, -3.635966182e-01, -4.673622549e-01, 5.178006887e-01, -6.119221449e-01, 7.148643732e-01, -1.718192827e-03, -2.743268311e-01, 4.606453702e-02, 1.715204678e-02, -1.644690335e-02, -2.334155887e-02, 2.386295237e-02, 9.535984695e-02, 5.528973043e-02, 2.140299380e-01}, {-6.747183204e-01, -4.646984637e-01, -1.313331127e-01, 7.872567177e-01, 6.203578115e-01, 2.851822078e-01, 6.667268276e-01, -7.500075698e-01, 1.329293996e-01, 1.616685092e-01, -7.615223527e-02, 1.357312053e-01, -4.879077896e-02, -1.404753923e-01, -4.345189407e-02, -1.958902627e-01, -3.819811717e-02, 4.069752619e-02, -3.128556535e-02}, {-1.167700365e-01, 7.922685891e-02, 7.598046795e-04, 2.879432403e-02, -3.297476098e-02, 6.280321628e-02, -3.234793991e-02, -5.446330458e-02, -7.089904696e-02, -8.776210248e-02, 1.095697731e-01, 1.490982436e-02, 8.530754596e-02, 3.130652428e+00, 9.622792900e-02, -8.861991763e-02, -4.390515387e-02, 4.286314920e-02, -6.922486424e-02}, {4.501812160e-01, -4.572157860e-01, -2.478852272e-01, -1.567608118e-01, 4.500321448e-01, 3.512322307e-01, -1.074987575e-01, 2.725748532e-02, -4.549883306e-02, -3.508574069e-01, 1.014916897e-01, -5.788438022e-02, -3.003881574e-01, 4.115728438e-01, 4.955451190e-01, -1.859816760e-01, -1.823368073e-01, -7.546509057e-02, -1.029538177e-02}, {-1.133065000e-01, -5.291089043e-02, 2.331386693e-02, 2.385164425e-02, 6.350225210e-02, -2.630312182e-02, 6.890333444e-02, 4.165158607e-04, -1.698167808e-02, -1.206793636e-01, -1.328461468e-01, 1.813345961e-02, 5.091628805e-02, 1.457415055e-02, 2.497156382e+00, 6.397805363e-02, 1.142414170e-03, -1.960137300e-02, -2.751619741e-02}, {-8.002416492e-01, 1.857360959e+00, 5.214315653e-02, 2.723107338e-01, -6.423411965e-01, 3.454332352e-01, -1.629049657e-03, -1.943054199e-01, 2.411401570e-01, 1.336968243e-01, 1.702136248e-01, -7.016917318e-02, 8.701620251e-02, -2.747265063e-02, -9.493781626e-02, 7.089712471e-02, 5.187904462e-02, 1.315387432e-02, -2.717504837e-02}, {-4.901671112e-01, 7.723535895e-01, 8.665026426e-01, 4.264180362e-01, -7.933156490e-01, -4.639189243e-01, -6.078688502e-01, -3.407957554e-01, -1.443752646e-01, -1.206679344e-01, -5.302113667e-02, -1.041277573e-01, -6.788169593e-02, 6.802845746e-02, 4.916881025e-02, -6.127901003e-02, -6.124166027e-02, 1.408119500e-02, 2.569261380e-02}};

const float bias_in[NUM_NODES] = {-1.166217923e+00, -5.483419895e-01, -7.342924923e-02, -3.290341198e-01, -1.046531871e-01, -1.226160154e-01, -9.353064895e-01, -5.766100883e-01, -6.199199557e-01, -7.883914709e-01, 2.513241395e-02, 9.914706945e-01, -8.007670045e-01, -7.807173729e-01, -8.252782822e-01, -8.906813860e-01, -2.886365056e-01, 1.280819416e+00, -7.617298961e-01, -2.048229799e-02, 1.893384308e-01, -2.099501789e-01, -1.398133993e+00, -1.543154240e+00, 6.264235973e-01, 8.817129135e-01, -1.227952614e-01, -2.720194817e+00, -1.146884441e+00, -9.764857292e-01, 2.141448021e+00, 4.810655117e-01, 1.188625693e+00, 1.659478694e-01, -1.208452344e+00, -5.413718820e-01, -4.815849066e-01, -1.424380243e-01, -1.127676369e-04, -9.761691689e-01, -1.247287840e-01, -1.438594341e+00, -2.527867794e+00, -4.706608355e-01, -1.400621235e-01, -8.688328862e-01, 5.203260779e-01, -2.553972900e-01, 5.319990516e-01, 6.283035278e-01, 1.323145628e-02, 5.230830908e-01, 4.408878982e-01, -8.756349087e-01, -8.710404634e-01, -1.220182300e+00, -2.046456575e+00, -1.807602942e-01, -5.213331580e-01, -1.117000699e+00, -9.345236421e-01, 2.149119616e+00, -2.612316310e-01, 3.798874840e-02, 1.833066493e-01, -7.272213101e-01, -3.583960831e-01, -1.311368704e+00, -3.782875240e-01, -2.199107558e-01, -1.906638265e+00, -6.740661711e-02, 2.775299847e-01, -1.221800685e+00, 1.083639860e+00, -9.925482273e-01, -2.826487780e+00, -2.001011610e+00, 4.895469844e-01, -1.950792193e+00, 2.028771877e+00, -1.208147645e+00, -6.752677560e-01, 1.908462763e+00, 5.159111023e-01, -9.813027978e-01, -1.417076111e+00, 1.586941034e-01, -2.432859689e-02, -1.023974419e+00, 1.137077332e+00, -1.102054834e+00, -1.196906924e+00, 9.258008748e-02, 6.407544613e-01, -1.432836056e+00, -2.758764662e-02, -1.069655299e+00, -1.815183997e+00, 3.142170608e-01, 2.611487508e-01, 3.629096746e-01, 1.065795422e+00, -2.910328209e-01, -1.783558011e+00, -6.714532375e-01, 5.353544950e-01, -7.512562871e-01, -4.328562617e-01, -5.469474196e-01, -8.320291042e-01, -1.661618710e+00, -1.397123188e-01, -1.258433819e+00, 4.150729477e-01, -2.483505726e+00, -3.437341005e-02, -2.566365480e+00, -8.659906983e-01, 8.328871727e-01};

const float weights_out[NUM_CONTROLS][NUM_NODES] = {{-2.912115864e-02, -2.273154445e-03, 5.865279958e-02, 2.083777450e-02, -1.618079469e-02, 7.850983739e-02, 1.179331075e-02, 6.943824701e-03, 4.359002411e-02, -3.154808283e-02, 4.565766547e-03, -6.860151887e-03, 1.382270176e-02, -1.367419725e-03, 5.743885785e-02, 1.125943032e-03, 7.419914752e-02, -1.092170775e-01, 2.574540558e-04, 1.287699342e-01, 3.332838183e-03, -2.330269851e-02, -4.589339718e-03, 1.889565960e-02, -8.111297153e-03, -3.617090872e-03, 6.730312854e-02, -1.306204824e-03, 3.853298724e-02, -4.194948077e-02, 6.556856632e-02, 2.925033569e-01, -8.634896949e-03, 5.175995827e-02, 9.050819208e-04, -6.768801063e-02, -3.632662818e-02, 3.577305749e-02, -1.180239860e-02, 5.395171419e-02, -7.311954629e-03, -2.747067250e-03, -1.689831167e-02, 3.687967081e-03, 3.355028108e-02, 4.890384618e-03, 2.021059096e-01, 1.694129780e-02, 3.592332359e-04, -3.079026565e-02, -3.529790044e-02, -5.048359931e-02, 3.345347941e-02, 1.236999175e-03, -6.706926227e-02, 8.180987835e-01, -1.007959619e-01, -2.807128057e-02, -2.179205269e-01, -6.059786305e-03, 1.261610389e-01, 1.566389110e-03, 2.205327712e-02, -2.875142694e-01, 3.716052696e-02, -2.918619104e-02, 3.674814850e-02, -3.356275149e-03, 1.043276712e-01, 5.420123925e-04, -1.132925786e-02, 1.775619574e-02, 1.450618654e-01, -7.161443681e-02, 3.627859429e-02, 7.397623360e-02, -1.144651789e-02, -6.747914106e-02, -5.997525528e-03, -7.523458451e-02, 2.271855623e-02, -4.870230332e-02, 4.585518502e-03, -5.287914537e-03, 2.563624876e-04, 1.896263659e-02, -5.097689852e-02, 3.330391347e-01, 1.769758910e-01, -1.759869605e-02, 4.911881313e-02, 1.015040558e-02, 1.570712961e-02, -8.874243498e-02, 9.016668051e-02, 1.432105713e-02, 1.674073376e-02, -1.659152098e-02, -6.558713503e-03, -1.865096986e-01, -3.637861460e-02, -3.989838064e-02, -1.237013862e-01, 3.322204575e-02, -2.524671517e-02, 4.096737597e-03, -3.524766362e-04, -7.037336379e-02, 2.491504885e-03, -4.926299676e-03, 1.613899693e-02, -1.038680784e-02, 9.793107957e-02, -4.045793685e-05, 1.420153230e-01, 1.316833310e-03, -1.401320845e-01, 1.220872067e-02, 1.155715319e-03, -5.835068598e-02}, {-1.533739083e-02, 3.739258740e-03, 1.164560020e-01, 3.546257503e-03, -6.918094307e-02, 6.245753169e-02, -8.383898996e-03, -3.055898705e-03, -3.910092264e-02, -8.885957301e-02, -7.885704190e-02, -1.494155638e-02, -7.492539287e-02, 1.981343180e-01, 1.099540293e-01, 1.471215189e-01, 7.552944589e-03, 3.553114459e-02, 6.223968230e-03, 1.184709952e-03, -5.964002758e-02, 7.632739097e-02, 8.374553919e-02, 3.272204474e-02, 6.306652911e-03, -2.998702042e-02, 7.895805873e-03, 3.744932115e-01, 2.099536359e-03, -1.637974940e-02, 1.173615176e-02, -8.900524117e-03, 3.496429324e-02, 3.302069008e-02, 9.618042037e-03, -2.350175940e-02, 2.765290439e-01, -2.068117820e-02, -2.019997537e-01, -4.888339341e-02, -9.259405546e-03, 1.229529735e-04, -7.091971114e-03, -3.045392595e-02, 1.094570011e-02, 5.231037363e-02, -5.291547626e-03, -1.847716398e-03, 8.887644112e-02, -5.202999339e-02, -1.226616837e-02, -1.195221767e-02, -3.313401714e-02, -4.142665770e-03, 5.351125728e-03, -3.205763176e-03, 5.825088918e-02, -4.485947639e-02, -2.782017924e-03, 4.543435201e-02, -2.534105629e-02, 3.945258632e-02, 6.153672934e-02, 4.076039884e-03, 1.479488681e-03, -4.602881148e-03, 1.246839412e-03, -1.230993221e-04, -5.545366090e-03, 6.194156781e-02, -8.343375474e-02, -5.206213333e-03, 3.187999129e-02, 1.227071509e-03, 8.257035911e-02, -5.704130977e-03, -1.189938094e-02, -1.916114427e-02, -6.485178322e-02, -2.758339606e-02, -4.827212077e-03, 3.567665583e-03, 3.161108121e-02, -6.012854725e-02, 5.959267914e-02, 1.774624735e-02, 3.899771953e-03, 9.457007982e-04, -9.766514413e-04, 3.807261819e-03, -7.573651150e-03, -3.573985100e-01, 6.581514329e-02, -5.419068038e-03, -4.301031306e-02, -7.349738479e-02, 2.807631530e-02, 1.836760044e-01, 5.633579195e-02, -3.368652659e-03, -2.197143249e-02, 3.538903780e-03, -7.636688184e-03, 2.591879852e-02, -4.631131515e-02, 9.558328241e-02, 3.156263232e-01, -5.295993760e-02, -2.640006505e-02, 8.697722554e-01, -1.109427065e-01, -8.398232982e-03, -1.461654782e+00, 1.220188010e-02, 1.682061106e-01, -6.316929124e-03, 1.995793282e-04, 9.936070442e-02, -8.750633895e-02, 3.359935805e-02}, {-3.917427734e-02, 3.156044986e-03, 8.815284818e-02, -3.144697845e-01, 2.723113447e-02, -9.363383986e-03, 4.439825937e-02, 1.158251539e-01, -9.572756290e-02, 1.556883752e-01, -5.212803371e-03, -4.635869991e-04, -1.691242605e-01, -2.126154024e-03, -1.325433701e-02, 4.761515185e-03, -1.952599138e-01, 4.323178157e-02, -5.493075028e-02, 7.914625853e-02, -2.495153807e-03, -4.410620313e-03, -2.584793139e-03, 1.684521511e-02, 3.433064520e-01, -3.802007437e-02, -2.502783202e-02, -1.581531717e-03, 3.324939311e-02, 1.772243902e-02, -1.199435629e-02, -6.342487931e-01, -9.444504394e-04, 1.210492924e-01, 2.415383700e-03, -2.733073570e-02, -1.949279010e-02, 4.109027795e-03, -2.127323486e-02, 4.192371853e-03, 9.003663063e-02, -2.782935044e-03, 4.572609905e-03, 1.808351721e-03, 4.768699035e-02, 8.842119016e-03, 4.235460237e-02, -8.293417841e-02, -2.721513389e-03, 5.326288752e-03, 1.301081032e-01, 4.843750596e-02, 1.115367189e-02, 5.579805002e-02, 7.131475955e-02, -1.989032887e-02, -3.509961069e-02, 5.812598974e-04, 1.656553522e-02, -1.028278191e-02, 3.666509176e-03, 2.915495541e-03, -1.104326025e-01, 3.328641132e-02, -6.521462649e-02, -3.845278546e-02, 6.987613440e-02, 3.610692322e-01, 4.386506602e-02, -2.749968553e-03, 1.016632072e-03, -9.188250452e-02, 2.895675600e-02, -7.548470516e-03, 1.547136623e-02, -2.525866032e-03, -2.447409555e-02, -3.602026775e-02, -8.583885618e-03, 1.620268226e-01, -3.163872287e-02, 6.283670664e-02, -2.143696765e-04, -9.666173719e-04, -2.505736891e-03, 3.647333756e-02, 3.090978041e-02, -1.460803207e-02, -1.000790391e-02, -4.543489963e-02, 3.123062104e-02, 4.413120914e-03, -4.768698476e-03, -9.098432213e-02, -3.215004504e-02, -1.360343490e-02, -6.969845295e-02, -1.545421965e-02, 4.873824771e-03, 2.569947839e-01, -1.121654920e-02, 5.017794669e-02, 8.077017963e-02, 2.975094365e-03, -5.928249657e-02, -3.097845055e-02, 6.067799870e-03, -5.146403238e-02, 7.147592306e-02, 9.218303487e-03, -8.119980991e-02, 1.594845057e-01, 1.250638813e-01, 1.308251405e-03, -1.128914803e-01, -1.136609353e-02, -7.430471480e-02, -1.841520704e-02, -1.597604342e-02, 1.028997526e-01}, {-1.454304717e-02, 1.479046643e-01, -5.468029529e-03, 1.632741280e-02, -1.580163836e-02, 7.421138138e-02, 1.179302763e-02, 1.839608769e-03, 6.303869188e-02, 5.506642461e-01, 1.491699964e-01, -4.342083260e-02, -8.737851679e-02, -6.675987970e-03, -8.947823942e-02, -5.832199752e-02, -1.723135822e-02, -1.180934440e-02, 3.325432539e-02, 5.343404599e-03, -6.423516572e-02, 9.228672832e-02, -3.511959920e-03, -3.822511733e-01, -7.602901198e-03, -6.235611066e-02, -2.116553113e-02, -1.017373241e-02, -8.245945908e-03, 1.265253127e-02, 2.106470289e-03, -8.758089505e-03, -2.070538253e-01, -2.195857652e-02, 7.006239891e-02, 1.416614396e-03, -3.356173635e-01, 1.397889946e-02, 1.337346286e-01, -3.995466605e-02, 3.653836902e-03, 6.663371921e-01, -1.619627774e-01, 3.201409876e-01, 1.309255045e-02, 2.612534538e-02, -1.820805599e-03, -9.672620334e-03, -5.388907343e-02, 3.020483814e-02, -4.416773468e-02, -5.325899110e-04, 5.339515954e-02, 1.152800396e-03, -4.665802233e-03, 5.765202921e-03, 1.211459842e-02, 2.708655782e-02, 8.497473784e-03, 2.193910629e-02, -4.124440998e-02, 5.382983759e-02, 4.023252428e-02, -2.245408297e-02, -8.772889152e-03, -1.170791592e-02, -4.828512203e-03, 3.264636267e-03, -1.525261533e-02, 6.255044043e-02, 3.595731780e-02, 5.056451075e-03, -1.024086028e-02, 4.910485353e-03, -4.502537102e-02, -5.305590574e-03, 7.431788743e-02, -2.690836042e-02, -5.432614684e-02, 1.420388669e-01, -1.194251049e-02, -2.950093010e-03, -5.969514698e-02, 3.414601553e-03, -3.249432519e-02, -2.502572350e-02, -7.546553761e-02, -3.029746236e-03, -4.312083125e-03, 4.888126161e-03, 4.208127968e-03, 3.640705347e-02, 4.846499860e-02, 3.889688104e-02, -5.475097895e-02, -1.283274889e-01, 8.643717505e-03, 1.393205486e-02, 3.247351199e-02, -1.342725456e-01, -8.892689645e-02, 3.943905234e-03, 4.326259717e-02, 4.516826198e-02, -3.476428986e-02, -6.692624092e-02, 1.087694778e-03, -8.825843036e-02, 6.319613010e-02, 6.400170736e-03, 1.191718206e-01, 2.249870449e-02, 7.529984415e-02, 1.314498484e-01, -1.314570755e-01, 1.543319374e-01, 1.098166127e-02, -1.508025266e-02, 6.647210568e-02, -5.291639268e-02}};

const float bias_out[NUM_CONTROLS] = {1.052764893e+00, 5.681704283e-01, 2.429926097e-01, 9.515550733e-01};

const float in_norm_mean[NUM_STATES] = {1.115592718e+00, -1.147136390e-01, -4.238243401e-01, 1.943289280e+00, -6.620915532e-01, -1.397781074e-01, 1.270239800e-01, -1.113508940e-01, 3.333508968e-01, 5.320925713e-01, 7.912342995e-02, 6.277205348e-01, 7.874258301e+03, 8.166326660e+03, 7.897200195e+03, 8.197777344e+03, -3.056650457e-04, 1.273272210e-05, 4.076438563e-05};

const float in_norm_std[NUM_STATES] = {9.800341129e-01, 9.363735914e-01, 7.598167658e-01, 1.250826478e+00, 1.387478948e+00, 9.589291811e-01, 4.013423324e-01, 3.335156739e-01, 5.418100357e-01, 2.163348198e+00, 1.994693160e+00, 8.883755803e-01, 1.389692749e+03, 1.303617065e+03, 1.295725342e+03, 1.226506958e+03, 2.303037234e-02, 2.315344848e-02, 5.830576178e-03};

const float out_scale_min = 3.000000000e+03;

const float out_scale_max = 9.800000000e+03;

const float weights_hid[NUM_HIDDEN_LAYERS-1][NUM_NODES][NUM_NODES] = {{{6.144196391e-01, 1.033403277e+00, 5.204117298e-01, 6.938058883e-02, 1.566092670e-02, 1.014961526e-01, 6.740905643e-01, -7.519043982e-02, -4.299080372e-01, 2.858688831e-01, -1.876491308e-02, -3.076806068e-01, 4.998753965e-02, 5.283070207e-01, 5.622140765e-01, 9.991222620e-01, 8.406145573e-01, -2.009613663e-01, 1.460797936e-01, -3.908969462e-02, -1.733577847e-01, -6.055789068e-02, -4.486288428e-01, 8.395517468e-01, 3.093236685e-01, 3.283755481e-01, -3.453042805e-01, -1.448718786e+00, -1.352629662e-01, 1.119262218e+00, 8.864270896e-02, 6.383354664e-01, -2.847427316e-02, -2.783683240e-01, 7.464270592e-01, -7.031901181e-02, -1.181755736e-01, -9.087521434e-01, -2.799372971e-01, 2.998366058e-01, -2.305245847e-01, -5.355874896e-01, -8.908191323e-01, -8.704373986e-02, -7.325722370e-03, -5.085083246e-01, -3.675004244e-01, 8.140062690e-01, -2.263348252e-01, 4.438803792e-01, 4.011937678e-01, -5.279996395e-01, -9.128164500e-02, -4.043588340e-01, 6.688219309e-01, 9.139294028e-01, -1.199090123e+00, 7.951042056e-01, 4.625357687e-01, -1.818781197e-01, 4.467221200e-01, -1.994090974e-01, 2.388723791e-01, -4.165721834e-01, 4.503555894e-01, -2.711973190e-01, -1.038347006e+00, -1.986251473e-01, 1.303707436e-02, 4.856663346e-01, 1.133777276e-01, 5.017883182e-01, -3.320305794e-02, -4.551821053e-01, -3.406767845e-01, -5.715101361e-01, 1.570428312e-01, -2.709736347e+00, -1.034358516e-01, -1.490346342e-01, 1.397742927e-01, -1.451554418e+00, -7.785586715e-01, -5.815253258e-01, -1.926918745e+00, -2.609356940e-01, 5.419152379e-01, -3.175494671e-01, 2.898535728e-01, 7.758381367e-01, 5.478139520e-01, -4.937129840e-02, -1.684777379e+00, -7.237488031e-01, -6.250433326e-01, 1.817411929e-01, -1.686706790e-03, -7.944386005e-01, 4.151116610e-01, -2.763783038e-01, 1.044325233e-01, 2.814527042e-02, -6.264500618e-01, -1.054803729e+00, -1.831774950e+00, 4.706984162e-01, -8.186680824e-02, -1.519282460e-01, 4.906249046e-01, 4.142050743e-01, -5.878760293e-02, -2.712297738e-01, -4.000974819e-02, 2.008039504e-02, -1.363064200e-01, -6.594364643e-01, 6.328173280e-01, -6.266099811e-01, 8.790913224e-01, -1.494493604e+00}, {-5.177175999e-02, 3.928274512e-01, -2.727155983e-01, 1.110481396e-01, -2.032672167e-01, 3.089078665e-01, -1.564540267e-01, 2.029808313e-01, 3.389936686e-02, 4.430986941e-02, 3.167231083e-01, -4.205909967e-01, 2.449666858e-01, 4.753622711e-01, -7.693205774e-02, 3.168911934e-01, -3.871798888e-02, -8.583547175e-02, 2.228566408e-01, 4.820018709e-01, 1.040188968e-01, -2.560109794e-01, 6.519068033e-02, 6.537874788e-02, -2.953733802e-01, -1.095378876e+00, -1.004174471e+00, 3.054490127e-02, 3.229341507e+00, 1.235074624e-01, -6.352312565e-01, -3.484487236e-01, -6.258820295e-01, 7.467381656e-02, 1.069936529e-01, -5.858222768e-02, 1.211426780e-01, 1.045483500e-01, 4.988659322e-01, 8.850932121e-02, -1.674829572e-01, 2.435264736e-02, -3.580792621e-02, -2.117197663e-01, -6.219391152e-02, -4.553301632e-01, 7.377774268e-02, 7.803284377e-02, -1.685893238e-01, 1.845240444e-01, 2.937714159e-01, -3.187340498e-01, -3.769317567e-01, 2.804546356e+00, 6.207098812e-02, -6.428223848e-02, 1.402547210e-01, 2.180721909e-01, 1.722693592e-01, -3.617944568e-02, 1.111536566e-02, -1.062945604e+00, -1.519148797e-01, 3.062157631e-01, 2.620904744e-01, 7.235167921e-02, -3.948978335e-02, 3.346658647e-01, 1.262401581e+00, 7.382892966e-01, 3.328623474e-01, -5.184542015e-02, 1.350885034e-01, -4.105097800e-02, 8.207707107e-02, 2.085804194e-01, 5.242828131e-01, 2.759571075e-01, -1.551135927e-01, 9.864939749e-02, -3.889450729e-01, 5.120365322e-02, 9.636145085e-02, -1.220443919e-01, -4.019333795e-02, -3.097685799e-02, 2.717677131e-02, -2.324212492e-01, -3.278124630e-01, -2.308185399e-02, -2.140416652e-01, 8.349975199e-02, 2.602529712e-02, 1.153349951e-01, 4.098891094e-02, 4.083119631e-01, -2.255272716e-01, -3.424383402e-01, -1.943906248e-01, -1.751440465e-01, -1.040224731e-02, -8.418223262e-02, -1.776806861e-01, 1.078469455e-01, -7.443957776e-02, 3.486568341e-03, -4.175833225e+00, -6.051774323e-02, 1.890550554e-01, 5.298932083e-03, 1.836200655e-01, 7.208656520e-02, 2.777874470e-01, -1.280550659e-01, -5.440209508e-01, 4.563323781e-02, -7.841452360e-01, -2.581162155e-01, -1.666059718e-02, -6.591709703e-02}, {-2.538119853e-01, -1.484093189e+00, -1.830018312e-01, -7.915075868e-02, 6.221466064e-01, -4.072680950e+00, 3.635333776e-01, 4.206289053e-01, 7.450225949e-02, 3.600977063e-01, 1.005081832e-01, 6.181608438e-01, 6.653105021e-01, -3.711377680e-01, -3.035327792e-01, -3.641927838e-01, -8.606562614e-01, 7.131636739e-01, 2.794321775e-01, 2.776312828e-01, -5.680724382e-01, 3.215706348e-01, -1.440877557e+00, -5.785530806e-01, 4.328656197e-01, 1.464127898e-01, 6.407046914e-01, 7.136750221e-02, -7.192664593e-02, -3.214961290e-01, 7.320964336e-02, -1.332601190e+00, -7.635257244e-01, 4.159204662e-02, -7.112685591e-02, 1.374048647e-02, -1.427975893e+00, 2.820107937e-01, 4.270856082e-01, 2.664046884e-01, 4.663501978e-01, 3.717145622e-01, 2.243390381e-01, -8.409177661e-01, -3.510044813e-01, 4.016961753e-01, -3.032959700e-01, -1.931976527e-02, 2.496405244e-01, 6.868451089e-02, -2.698478401e-01, -1.216767356e-01, 1.204864979e-01, 3.225730062e-01, -5.960882902e-01, -9.942246974e-02, 1.279199839e+00, -5.145810246e-01, -6.094437465e-02, -4.713127017e-01, -9.465285540e-01, 5.407326818e-01, -1.830847710e-01, 1.239513010e-01, 2.043718100e-02, 4.609360397e-01, 2.345206216e-02, -5.857487917e-01, 8.798115253e-01, 5.276165605e-01, -4.381988049e-01, -1.259350479e-01, -1.616076231e+00, 8.612286448e-01, -2.821951807e-01, -1.784791231e+00, -1.106736530e-02, 4.826751053e-01, -3.269321844e-02, -3.557298183e+00, -2.111246109e+00, 1.100241765e-01, 2.024858892e-01, 2.289128751e-01, -6.215003133e-01, 1.225452065e+00, -8.376297355e-01, 1.411313564e-02, -5.185130239e-01, 3.111667335e-01, -1.838137388e+00, 1.002559364e-01, 5.445122123e-01, -3.062883914e-01, -3.468040228e-01, -4.342826009e-01, -2.497009039e-01, 2.906444371e-01, 6.970570087e-01, -4.321112931e-01, 3.597711399e-02, -8.846766502e-02, 6.277066469e-01, 3.736830056e-01, -1.074432731e+00, 6.346233487e-01, -2.519387603e-01, -1.277186871e-01, -1.563100815e+00, -2.123661786e-01, 2.574796677e-01, 4.443717003e-01, -7.834194899e-01, 2.533793151e-01, 2.280550897e-01, -2.336951047e-01, 3.162741065e-01, 2.962531708e-02, -6.840123534e-01, 1.452801824e-01}, {-7.716794610e-01, -7.199060917e-01, -4.553051293e-01, -7.201887667e-02, -3.961320817e-01, -1.433480084e-01, -7.243449092e-01, -6.347563863e-02, 4.452322721e-01, 3.732994795e-01, -3.342511654e-01, -4.786660373e-01, -4.812500775e-01, 1.226814762e-01, 8.418866247e-02, -9.516294003e-01, 3.354842588e-02, -4.300517961e-02, -6.756637692e-01, 7.444964051e-01, -4.126371145e-01, 2.880095840e-01, -4.504289827e-04, 5.189724565e-01, 1.386389256e+00, 8.225055933e-01, -1.028878212e+00, -6.198135763e-02, -1.588966139e-02, -3.136459887e-01, -3.552670777e-01, 1.946273297e-01, -5.999376774e-01, 2.343624681e-01, 1.463215351e-01, -2.513468862e-01, -3.686119020e-01, 3.580226302e-01, 3.134565055e-01, 2.873605490e-01, -3.721289635e-01, 3.103570044e-01, -8.900435567e-01, 6.944634318e-01, -3.298058733e-02, 4.697917402e-01, -2.043719441e-01, 3.104298413e-01, 3.195687830e-01, -2.535888851e-01, -2.205732167e-01, -3.886127472e-01, -7.813490629e-01, -1.318745613e-01, -1.566301346e+00, -3.853679821e-02, 1.571719170e+00, -4.302984476e-01, 1.342898160e-01, -4.996913970e-01, 3.827969730e-01, 2.140134722e-01, -6.479375958e-01, 4.599793553e-01, 4.271457344e-02, -9.658565372e-02, -5.203757286e-01, -6.492000222e-01, -4.252668917e-01, -7.407227755e-01, -1.453263044e+00, -3.083549142e-01, -7.311412096e-01, -2.433588058e-01, -2.178633809e-01, -7.838197351e-01, 1.225038432e-02, 3.683423400e-01, -2.691743076e-01, -1.241872311e-01, 1.287128180e-01, 8.773864508e-01, -8.069421053e-01, -3.363144100e-01, -2.749277651e-01, -2.072449446e+00, 5.598233938e-01, 1.586551517e-01, -3.324704766e-01, -6.120523810e-01, 4.786908031e-01, 8.572327346e-02, -9.534381032e-01, 1.082791209e+00, 2.394324839e-01, -2.710795999e-01, 7.941958904e-01, -3.564746082e-01, 4.666729569e-01, 3.343372345e-01, 1.406009793e-01, -2.293842733e-01, -2.183881849e-01, -3.362725675e-01, -3.212361336e-01, 6.247269511e-01, 3.404033482e-01, 1.378341913e-01, -1.561176538e+00, 1.762180626e-01, 1.542276293e-01, 1.613243073e-01, 1.481819004e-01, -2.889072001e-01, 3.087585568e-01, -7.994394004e-02, 2.412998825e-01, -2.722122073e-01, 4.963926673e-01, 2.042223960e-01}, {5.553370714e-01, 7.292446494e-02, -3.556290865e-01, -1.275979996e+00, -6.546960473e-01, 5.118045807e-01, 3.488644660e-01, -2.720924914e-01, 4.052179754e-01, 6.134735942e-01, -1.192726493e-01, -1.159282699e-01, 6.458113194e-01, -6.105530262e-02, -7.118315250e-02, -3.061560988e-01, 4.014755040e-02, 2.592761219e-01, -3.738374263e-02, 1.893865764e-01, 3.184800223e-02, 2.118023783e-01, -2.872114182e-01, 7.215453982e-01, 7.321678400e-01, 7.431640476e-02, -3.663406968e-01, 1.153893590e+00, 1.778545380e-01, -9.590144269e-03, 7.884331346e-01, 1.180896282e+00, -4.228601754e-01, -3.526169658e-01, 1.645109355e-01, 1.501095742e-01, 9.415564686e-02, 3.446179330e-01, 9.295772910e-01, -9.082914889e-02, -3.158348501e-01, -8.774865270e-01, -6.587882340e-02, 2.329017073e-01, -2.654309571e-01, -3.694798946e-01, 1.457952894e-03, 7.446689159e-02, 2.898221314e-01, -7.260794640e-01, 5.899876356e-01, -1.900368333e-01, -2.120457590e-03, -2.582093887e-02, -7.582643032e-01, 8.428941965e-01, 9.569088370e-02, -7.289774418e-01, 5.427726507e-01, -3.706005812e-01, -1.113171652e-01, 3.729984909e-02, 2.651697993e-01, -8.687646389e-01, 1.430612206e-01, -2.073143423e-01, -5.616020560e-01, 2.889756560e-01, -2.367204428e-01, -2.162852883e-01, -6.934673190e-01, 5.111888051e-01, -1.055142522e+00, 6.957620382e-01, -5.481901020e-02, -7.006491721e-02, 1.990966648e-01, -3.997789323e-01, -5.795872808e-01, -2.475080788e-01, -1.795738488e-01, 4.815129042e-01, -2.612363994e-01, 9.479408711e-02, -8.801501393e-01, -1.191715673e-01, 3.702333272e-01, -4.072368741e-01, -6.393250823e-01, 1.945957690e-01, 2.399757206e-01, 5.623649359e-01, -6.277837753e-01, -1.482899785e-01, 6.972725987e-01, -5.613835454e-01, 9.493204951e-02, 3.179610968e-01, 5.178319812e-01, -3.898808956e-01, -1.564398780e-02, 3.623843938e-02, -1.506821513e-01, -7.887399197e-02, -8.942040801e-01, -2.860537767e-01, -1.585233808e-01, 3.519506454e-01, -3.194856644e-01, 2.162573189e-01, 1.007971540e-01, -1.021465361e-01, -4.381818473e-01, 9.422002435e-01, -1.198782548e-01, -2.527610958e-01, -3.490365744e-01, 9.918541461e-02, -2.922526598e-01, -6.233786345e-01}, {-1.805702783e-02, 1.033450484e+00, 1.432370842e-01, 5.872200727e-01, 2.014240474e-01, -3.523536026e-01, -3.185084760e-01, -3.629364669e-01, -1.270301342e-01, 3.114367723e-01, -3.280197978e-01, 4.969741567e-04, 2.695740163e-01, -1.323986501e-01, 4.552273452e-01, -1.293637604e-01, -2.970762551e-01, -2.567044199e-01, 2.758513391e-01, -4.551016390e-01, 2.758713663e-01, 6.576780230e-02, 1.671223044e-01, -9.144125879e-02, 8.377181888e-01, 3.669427335e-01, -8.165414333e-01, 2.716428936e-01, -5.053005815e-01, 3.637160063e-01, -9.435093999e-01, -1.331838965e-01, 6.162499189e-01, -4.026738703e-01, 3.280402720e-01, 1.170464158e+00, -5.563473701e-01, 5.564504266e-01, -1.737829298e-01, 3.432086110e-01, -4.816610739e-02, 1.798612438e-02, -2.854182124e-01, 4.797425568e-01, -2.605011873e-02, 6.382331252e-02, -9.670121223e-02, 5.629078150e-01, -6.218189597e-01, 5.814504027e-01, 5.059319735e-01, 2.125294954e-01, 1.650069356e-01, 1.521372050e-01, -5.929059982e-01, 6.704490781e-01, -3.072921336e-01, -4.516144395e-01, 2.232807130e-01, 1.780476421e-01, 2.092438042e-01, -4.292571545e-01, -5.819752812e-01, -4.166768193e-01, -8.336628973e-02, -1.697800756e-01, 3.570120037e-01, 7.848618180e-02, 1.392766535e-01, 2.855502665e-01, -7.699567080e-02, -2.926290333e-01, -6.249609590e-01, 3.682878017e-01, -6.259169579e-01, 6.480886936e-01, -3.989455476e-02, -1.185949445e+00, 2.245166153e-02, 6.287235767e-02, -2.815484107e-01, 4.654168189e-01, -5.796215846e-04, -5.743643641e-01, -2.630228400e-01, -5.808368921e-01, 6.452349424e-01, -7.502618432e-01, 6.639317870e-01, 2.206918411e-02, 2.330683470e-01, 7.695487142e-01, -4.115989506e-01, 8.419886231e-01, -2.143062949e-01, 1.571709067e-01, 9.385929704e-01, -8.408963680e-02, 3.461895585e-01, 8.855861425e-01, 4.095037878e-01, -7.954182476e-02, -2.696757019e-01, -6.560068727e-01, -3.498162925e-01, 1.332895279e+00, -1.558976769e-01, -8.876578808e-01, -4.349948466e-01, 2.183136940e-01, 7.323340178e-01, -1.533263773e-01, 3.631143868e-01, -1.401163638e-01, -1.154003620e+00, 2.969514132e-01, 2.588711679e-01, 1.180606522e-02, 7.807759047e-01, -2.830479741e-01}, {1.725543886e-01, 7.956047654e-01, 1.751765162e-01, 1.939793527e-01, 5.137493014e-01, 4.546857774e-01, 1.890531033e-01, -2.099940479e-01, 2.590266801e-02, 3.346967399e-01, 1.996720210e-02, -6.378838420e-01, -3.230546713e-01, -4.645512998e-01, 2.008326650e-01, 1.458701342e-01, 1.092905775e-01, 1.154099032e-01, -3.418007791e-01, 3.989915848e-01, -9.702473134e-02, -2.360720783e-01, -8.353120089e-02, -1.357139200e-01, -6.731413007e-01, 6.068358421e-01, 1.724108607e-01, 2.090283334e-01, 3.225184977e-02, 1.389145106e-01, -2.985718548e-01, -6.448082328e-01, -9.576588273e-01, 2.848889828e-01, 1.779813468e-01, 5.417940617e-01, 1.602569818e-01, -3.723405302e-01, 5.993561074e-02, 1.469589621e-01, 3.095879853e-01, -3.014102876e-01, 1.115952283e-01, -9.305933118e-01, 1.001678333e-01, 7.269296050e-01, 3.614150286e-01, 1.874754131e-01, 6.318710744e-02, 2.747734487e-01, 3.381742537e-02, 7.328336239e-01, -3.772538900e-01, 8.221273422e-01, -2.047773898e-01, -7.116404176e-01, 7.115699649e-01, 8.150178194e-02, 5.664535165e-01, 7.158482075e-01, -4.772986099e-02, -2.231679671e-02, 9.146690369e-02, -3.317676112e-02, -7.293320894e-01, -2.680635154e-01, 7.852018476e-01, 4.533762112e-02, 1.184499934e-01, 5.883133411e-01, -3.697933555e-01, 1.423802078e-01, 4.284924269e-01, -1.698502898e-01, 5.246387124e-01, -7.008234388e-04, -1.153997421e+00, -4.987821579e-01, -2.686455846e-01, 9.681081176e-01, -9.700920582e-01, 1.406477392e-01, -4.423983991e-01, -1.170768499e+00, 6.679414511e-01, -6.351522803e-01, 1.948221177e-01, 5.854856372e-01, 5.840077624e-02, 3.916130066e-01, -4.124428034e-01, -3.662495017e-01, 3.140497208e-01, 3.551228344e-01, -9.266496301e-01, 6.133562326e-01, 7.392258942e-02, 3.056807220e-01, -4.857172668e-01, -5.701298714e-01, -1.305822581e-01, 4.232760668e-01, 1.021344140e-01, -2.781680040e-02, -5.587800741e-01, 4.953555465e-01, -4.357147515e-01, 1.134028792e+00, -1.221215129e-01, -1.325833350e-01, 7.254508138e-01, 3.361046016e-01, -3.731297553e-01, -2.768070400e-01, 1.611545235e-01, 3.674499691e-01, 6.392586231e-02, -2.788211107e-01, -7.278921604e-01, 1.217672154e-01}, {6.324268132e-02, 5.990502238e-01, -1.555631459e-01, -1.255518757e-02, 2.056835406e-02, 3.322034776e-01, 5.354864523e-03, 9.590066969e-02, -3.822206333e-02, 2.466883659e-01, -6.238884926e-01, 3.412700295e-01, -7.063812017e-02, 2.055803537e-01, -5.654218793e-01, 1.321031898e-01, -1.286221445e-01, 5.870576501e-01, -1.224209666e-01, 1.146724373e-01, 1.227690503e-01, 7.958095521e-02, -1.679771245e-01, 5.511657149e-02, 2.505938523e-02, -1.969818473e-01, 1.257463098e-01, 2.341144532e-02, 7.985153794e-02, 2.200096101e-01, -4.274347723e-01, -1.763757914e-01, 7.442875952e-02, 3.308215179e-03, 6.209595203e-01, -7.141956687e-02, 7.652772218e-02, -2.543066740e-01, 4.674862698e-02, -6.753869355e-02, 1.411967129e-01, -6.920923293e-02, 3.621690348e-02, -1.955219954e-01, 8.167159557e-02, -2.063809037e-01, 2.941676788e-02, -9.799007326e-02, 2.594337463e-01, -1.262968034e-01, 1.516120732e-01, -1.530968249e-01, -5.967590958e-03, 4.287626594e-02, 2.668667436e-01, -1.197150499e-01, -5.003276467e-01, -1.246817932e-01, 1.026633978e+00, 2.558369748e-02, -1.206869110e-01, -7.187989950e-01, 3.687994182e-02, 1.869775057e-01, 1.772939414e-01, 9.041710198e-02, -1.407046467e-01, -1.496542543e-01, 4.965519905e-02, -5.275509953e-01, 1.249318868e-01, 1.700840145e-01, -1.654960066e-01, 4.232883826e-02, -5.300589204e-01, 2.824469209e-01, -4.801880717e-01, 3.214466572e-02, -1.050253630e+00, 1.716130599e-02, -1.237813607e-01, 1.068908423e-01, 1.486985683e-01, -1.180813432e+00, -1.071051136e-01, 1.918434799e-01, 7.378908247e-02, -3.883177042e-02, 6.024477631e-02, -2.074498534e-01, -3.955903053e-01, 2.329235896e-02, -1.968619078e-01, 6.250038743e-02, 5.413086712e-02, 1.352948844e-01, 4.152210057e-01, 2.506259084e-01, -4.565378651e-02, -1.256128699e-01, 1.281806678e-01, 8.864165097e-02, 1.327616721e-01, -9.549736232e-02, 1.407148093e-01, 2.684633061e-02, -9.779271483e-02, -1.794027537e-01, 1.521657407e-01, -2.982029617e-01, -6.713470072e-02, 1.464160830e-01, 7.764541358e-02, -8.728271350e-03, -9.159575105e-01, 5.437351704e+00, -1.928633898e-01, 3.217103332e-02, 3.403122723e-02, -1.663906127e-01}, {1.360811591e-01, 7.808844447e-01, 4.753494170e-03, 6.194794774e-01, 3.252627254e-01, -3.048678488e-02, 3.442972302e-01, -9.676644206e-02, 1.501512080e-01, -2.570488453e-01, -5.096000968e-04, -1.510338426e+00, -5.348231792e-01, 1.371998340e-01, 2.010871917e-01, 2.493103892e-01, 1.108614206e-01, 2.644586861e-01, -1.944787800e-01, 3.112599552e-01, 1.489646137e-01, -1.646660119e-01, 6.749462336e-02, -1.831385493e-01, -4.015759230e-01, -3.725695983e-02, 3.412422538e-01, -2.487208545e-01, 4.533819109e-02, -2.359851003e-01, -4.106102586e-01, 5.154880509e-02, 4.721293598e-02, -2.045544237e-01, 3.812932074e-01, 1.729039699e-01, 3.244009018e-01, 1.748530120e-01, 6.282450557e-01, -5.365579203e-02, -6.038427353e-01, 1.240395829e-01, -1.473649889e-01, 1.695933640e-01, 3.000280261e-02, -4.908820689e-01, -3.582004830e-02, -4.709178805e-01, 1.760506779e-01, 1.927232295e-01, -2.032963000e-02, 3.078130484e-01, -1.523853689e-01, -9.693709016e-02, -5.015239716e-01, -2.334416378e-03, -3.179754317e-02, 4.630984962e-01, 1.057010368e-01, -2.240811437e-01, -5.484605432e-01, -1.044327378e+00, -4.732237458e-01, 4.587261379e-02, -3.091276288e-01, 6.373104453e-01, 4.738954008e-01, -3.761162758e-01, 2.641599476e-01, 8.417282701e-01, 5.043638945e-01, 3.203944266e-01, 5.513502359e-01, -2.629385889e-01, -3.719305620e-02, -2.954593599e-01, 2.401533574e-01, 3.621045873e-02, -2.299475521e-01, 5.462761521e-01, 3.424476087e-01, -4.091607034e-01, 1.530844122e-01, -6.154681444e-01, 3.124517500e-01, 2.037113309e-01, -3.460916281e-01, -2.417852357e-02, 5.584301949e-01, 1.569888592e-01, 7.586390972e-01, -8.707909286e-02, -9.819192886e-01, 9.521415830e-01, -7.286899090e-01, -4.385049939e-01, 1.077528894e-01, -3.354967386e-02, 6.662933230e-01, -7.440903187e-01, 2.360656261e-01, 3.068908155e-01, 3.116459846e-01, 3.660623133e-01, -1.735643595e-01, 1.157256842e+00, 5.662733689e-02, 2.334830314e-01, -6.110512838e-02, 5.796791315e-01, -2.553114593e-01, -5.049899966e-02, -1.817410141e-01, -5.191304684e-01, -1.079980850e+00, 5.635458976e-02, 5.453348756e-01, 4.627730548e-01, 3.602468669e-01, 2.869974375e-01}, {-2.380605936e+00, 7.534573674e-01, 6.409563869e-02, -2.137776613e-01, -3.617168665e-01, 6.915664673e-01, -2.533949912e-01, 6.130665541e-01, -3.181242645e-01, -4.845821261e-01, 2.593863904e-01, -2.990797758e-01, -5.959790349e-01, -1.674471736e+00, -2.619048357e-01, -1.367002130e+00, 2.682466209e-01, 4.399245977e-02, 2.926954329e-01, -6.140648723e-01, 1.010977402e-01, -1.579339355e-01, 2.690079808e-01, -5.442858338e-01, -1.060194448e-01, -1.163082942e-01, 3.200541437e-01, -2.558069825e-01, 9.326391220e-01, -1.268625110e-01, -6.529456973e-01, 2.890905738e-01, -5.879724398e-02, 2.313636690e-01, 3.527162671e-01, -1.126473993e-01, 4.364733994e-01, 6.841016412e-01, -7.117923498e-01, -1.631888151e-01, -5.180441737e-01, 2.249001712e-01, -1.067195892e+00, -6.114923358e-01, 3.350809962e-02, -4.258582294e-01, -8.623470552e-03, -7.287777215e-02, 1.394796073e-01, 7.921586186e-02, 4.031436110e-04, -3.679661751e-01, -1.540178210e-01, 1.687559187e-01, -4.889052734e-02, -1.307567954e+00, 7.672575712e-01, -2.098956406e-01, 2.277466096e-02, 8.857989311e-01, 5.334181190e-01, -3.846791983e-01, 2.428043634e-01, -1.253070831e-01, -1.382643008e-03, 1.357617676e-01, -8.472573757e-01, 4.123365581e-01, 2.451112866e-01, -6.890288591e-01, 1.341064125e-01, 5.539946631e-02, 1.097474933e+00, -7.210971713e-01, 9.746497869e-02, -3.582907617e-01, 5.030270815e-01, -3.211706877e-02, 6.493361294e-02, -5.034993887e-01, -9.680063277e-02, -3.131931648e-02, 1.565427780e-01, 1.041640192e-01, -3.668431938e-01, -9.119774103e-01, 2.353464961e-01, 7.655939460e-02, 7.130204439e-01, -6.185682863e-02, -8.635907620e-02, -7.237371206e-01, 4.199012518e-01, -6.452063918e-01, 1.165599942e+00, 4.661953822e-02, -3.718082309e-01, -5.056654215e-01, 9.393374324e-01, 2.183979899e-01, -1.392971575e-01, 8.029167056e-01, -5.323413610e-01, -1.402058899e-01, 1.173864603e+00, 1.873183846e+00, -7.027978897e-01, 4.835394919e-01, 4.370577931e-01, 5.444079638e-02, 1.257466376e-01, 4.552219436e-02, -1.513669342e-01, -3.210980594e-01, 4.888524711e-01, 1.121876985e-01, 6.622545719e-01, -4.214278162e-01, -2.559386194e-02, -1.276511192e+00}, {-4.280496836e-01, -7.236366719e-02, -2.186100006e+00, 3.494890034e-01, -8.427846432e-01, 9.349410236e-02, -1.876477361e+00, -2.852043808e-01, -2.874293625e-01, -1.076710582e+00, 4.990207255e-01, -4.641662836e-01, 3.497212310e-04, -2.576881647e-01, 1.897607297e-01, -1.959859848e+00, -8.188155293e-02, -7.908262312e-02, -1.328465436e-02, -4.562018871e+00, 4.116491377e-01, 3.731909674e-04, -1.613553427e-02, -8.747888207e-01, 1.962401718e-01, 1.344075561e+00, 1.988746077e-01, 9.060475230e-02, -2.701883614e-01, -1.056247354e-01, 3.345165849e-01, -2.908341289e-01, -3.402644396e-01, -5.312711746e-02, 1.492156589e-04, 4.015722275e-01, 4.888826981e-02, -1.100906506e-01, -2.891270816e-01, 5.312328413e-02, 2.939665914e-01, 3.205225244e-02, -2.437534481e-01, -4.275478888e-03, 5.393839255e-02, -1.649682522e+00, -2.072993368e-01, -3.842417896e-01, -2.547955513e-01, -1.481473327e+00, -3.518806398e-01, -6.367132664e-01, 3.574763834e-01, -7.063530684e-01, -1.524914145e+00, -9.229037762e-01, -2.033928931e-01, -1.714691401e+00, -2.537801862e-01, -5.079209059e-02, -6.246272922e-01, 2.579408586e-01, 4.519768059e-01, -2.400677651e-01, -1.817667782e-01, -5.510578156e-01, -1.948018074e+00, -2.441365719e-01, -5.238817260e-02, -1.309234649e-01, -2.348331362e-01, -8.060564846e-02, 5.224729776e-01, -4.100676775e-01, 4.847817123e-01, -1.637498260e+00, 2.018026859e-01, -1.629906334e-02, 4.552393258e-01, -7.623677142e-03, -6.665037274e-01, -2.156349272e-01, 1.368805468e-01, 7.702206969e-01, -7.345208526e-01, 1.018390879e-01, -2.679298162e+00, -2.811429799e-01, 4.313931167e-01, -5.026769042e-01, 5.147163272e-01, -3.882498741e-01, -1.681070477e-01, -2.502869368e-01, -3.048518002e-01, -1.718957573e-01, -3.352658451e-01, 6.078571081e-01, 9.635903239e-01, 7.411128879e-01, 2.836151123e-01, 1.342155337e-01, -1.579447389e-01, 1.816882007e-02, 1.550098509e-01, -6.677479148e-01, 4.629119337e-01, 2.845428586e-01, 1.499220431e-01, 2.538669705e-01, -2.483155131e-01, -6.232340634e-02, 3.760499656e-01, -2.095236331e-01, 7.722038627e-01, -1.006201208e-01, 9.683617353e-01, -1.296692528e-02, -6.164532900e-01, 1.436730027e-01}, {-3.344044089e-01, 8.655981719e-02, 1.639706641e-01, -3.564421237e-01, 3.804094493e-01, -5.746132731e-01, -2.418156862e-01, -3.735033050e-02, -1.253180653e-01, 6.104812622e-01, -1.365335464e+00, -9.740501642e-02, -6.682469845e-01, 8.705962896e-01, 4.710508883e-01, 3.460267186e-01, 1.567872018e-01, 5.739020705e-01, -3.072075918e-02, -9.309361875e-02, 1.057291925e-01, -2.344240621e-02, 2.159071863e-01, -1.175878048e-01, -2.710235715e-01, -2.988695865e-03, -2.045489103e-01, -5.542445183e-01, -1.210551634e-01, 6.644776464e-02, 2.938643992e-01, 2.593418658e-01, 2.711290307e-02, -2.358113080e-01, -3.393571675e-01, 3.048846126e-01, 5.503049865e-02, -2.174653299e-02, -4.462962449e-01, 1.471523196e-01, -1.620877832e-01, 3.158390820e-01, -1.000968814e-01, 3.001320660e-01, -5.321456585e-03, -5.222958326e-01, -1.456223726e-01, -2.988141263e-03, 3.383838013e-02, 8.851352334e-02, 1.194673181e-01, 1.186433882e-01, 5.391175747e-01, -6.194555387e-02, 3.633193672e-01, 3.495278656e-01, 3.578625321e-01, 1.780616045e-01, 8.920165300e-01, 1.354914997e-02, 9.823687375e-02, -5.979824662e-01, 1.741981059e-01, 2.369447947e-01, -2.557935417e-01, -1.932431906e-01, 4.262127876e-01, 6.172029972e-01, 1.481083333e-01, -2.470498383e-01, -2.508997917e-01, -3.175300956e-01, 1.839128137e-01, -2.343553901e-01, 2.953288555e-01, 2.554107606e-01, 6.761209965e-01, -5.891376138e-01, -8.212301731e-01, 1.370382160e-01, 2.744376957e-01, -3.699195981e-01, -5.144843459e-01, -3.071964979e-01, 5.832590461e-01, -1.960536391e-01, -4.810868576e-02, 3.008204103e-01, -1.443555236e+00, -2.871133983e-01, 2.234088182e-01, -9.588255286e-01, 5.380919576e-02, -5.768049881e-02, -4.058192074e-01, -2.906615138e-01, 1.278999448e+00, -4.779165238e-02, -5.026620030e-01, 3.714127243e-01, -7.230683416e-02, -9.611910582e-01, 3.938642740e-01, -1.945297718e-01, 2.419839501e-01, 4.042398930e-01, -7.846764475e-02, 8.504658192e-02, -5.794342160e-01, 2.008614689e-01, -7.154030204e-01, 4.310619831e-02, 3.818248808e-01, 7.711458951e-02, 1.729460955e-01, -2.865454853e-01, 2.169629484e-01, -2.459756136e-01, -1.924508661e-01, -1.397407949e-01}, {-2.653859742e-02, -5.344045162e-01, 1.656617820e-01, -8.179276437e-02, -5.352401175e-03, 4.400445148e-02, 1.020642370e-01, 1.330706328e-01, 8.148642629e-02, -7.212996483e-02, 2.418164313e-01, 1.046384126e-01, -8.460127562e-02, -1.185336486e-01, 9.148427248e-01, 1.202120855e-01, 2.855558321e-02, 1.795629859e-01, -4.117159918e-02, 1.195374783e-02, -4.400582239e-02, -6.978613883e-02, 6.099561229e-02, -1.862365752e-01, 1.624495387e-01, 5.358415842e-02, 1.162244231e-01, -5.010858774e-01, -6.909430772e-02, -7.261862047e-03, 1.516009450e+00, -7.154661696e-03, 2.836707830e-01, 8.906483650e-02, 4.989997447e-01, -5.744479969e-02, -2.333546430e-02, -5.995808914e-02, -1.859341264e-01, 7.158362120e-02, 2.235294431e-01, 7.934128866e-03, 1.762609780e-01, 2.237730622e-01, 1.186203286e-01, -1.488487571e-01, -2.815716900e-02, 5.014477670e-02, -2.909989096e-02, 6.567526609e-02, -8.245924115e-02, -1.034908555e-02, -5.705880746e-02, 1.669000275e-02, 8.693020791e-02, 1.919164658e-01, -2.846093476e-01, -4.293730110e-02, -1.025326364e-02, -1.149368137e-01, -9.992719628e-03, -1.085612416e+00, -1.955028176e-01, 9.604197927e-03, 1.368805170e-01, 2.729164660e-01, 6.918664556e-03, 2.172750607e-02, 1.008449271e-01, -2.784082107e-02, -2.263737023e-01, -5.468781665e-02, -1.852505952e-01, 2.240539789e-01, -3.653571606e-01, -3.991840780e-02, 1.703917623e+00, 9.815320373e-02, 1.333264560e-01, 8.353279531e-02, 2.334579527e-01, 2.033090740e-01, -6.303973496e-03, 6.079128385e-01, -1.695671082e-01, 1.886739284e-01, 1.413981169e-01, 1.160078123e-01, -2.700973749e-01, 6.962455809e-02, -1.273513772e-02, -3.040252626e-01, 8.029031754e-02, 1.245171726e-01, 3.527914733e-02, 1.572816223e-01, -7.740721852e-02, 3.279028088e-02, -1.435695738e-01, 9.294906259e-02, -8.239134401e-02, -7.724048197e-02, 5.869827792e-02, 8.366009593e-02, 1.926955581e-01, -2.238045186e-01, 1.985874325e-01, 2.707023732e-02, 4.728922248e-02, -4.815618694e-02, -7.569139451e-02, -6.375007331e-02, -3.058250993e-02, -5.972824618e-02, 7.656190991e-01, 1.744461060e-01, -4.720852673e-01, 2.142209373e-02, -1.074468866e-01, 1.581603736e-01}, {3.979131281e-01, -2.649979591e-01, 2.303951234e-01, -1.997188479e-01, -1.991307378e+00, 3.042647839e-01, -8.301890492e-01, -2.770246863e-01, 4.363754392e-01, 3.739379942e-01, 2.519775331e-01, 8.471026272e-02, -1.555249840e-01, -5.872028470e-01, -7.892113179e-03, -8.927382529e-02, 4.937734604e-01, -4.994523525e-01, 3.521596789e-01, -2.522526681e-01, -3.780624270e-01, -9.979848266e-01, -3.519329429e-01, -1.573212594e-01, 2.549171746e-01, 7.817663550e-01, 8.282351494e-01, 9.599103928e-01, 3.881075680e-01, 5.912575126e-01, 8.602440357e-02, 7.572018355e-02, -3.696944714e-01, -4.639709890e-01, -5.202205777e-01, -3.252548277e-01, 6.692054272e-01, 1.469068378e-01, -2.837011218e-02, -6.367443800e-01, -9.388121963e-01, 4.209820628e-01, -7.494008541e-01, 4.739390314e-01, -8.644875884e-02, 5.943801403e-01, -2.578908503e-01, -5.242205039e-02, -3.353633881e-01, -7.897165418e-02, -5.107097030e-01, 3.509318829e-01, -2.139945030e-01, -3.963443637e-02, 3.229357004e-01, 5.656324625e-01, -7.010259628e-01, 1.447267979e-01, -1.255685836e-01, -8.544192910e-01, 6.860979199e-01, -6.289640665e-01, 7.359049320e-01, 3.191958368e-01, -4.971175790e-01, -2.031703442e-01, -9.632976651e-01, -3.268226087e-01, -4.737423956e-01, 7.229825258e-01, -1.309504151e+00, -2.253452688e-01, 4.846768081e-01, 1.921299696e-01, -3.563570380e-01, -1.273794532e+00, 1.090589389e-01, -9.751631618e-01, -2.233579196e-02, -1.113371737e-02, -8.424519300e-01, -7.522687912e-01, 7.529526949e-01, 1.002178788e-01, -3.885246813e-01, 3.571024835e-01, 1.732227504e-01, 1.799500198e-03, 5.331495032e-02, 4.892861843e-01, -8.357437700e-02, 9.849637747e-01, -5.741135478e-01, -3.201828599e-01, 2.018626928e-01, -6.989589930e-01, -1.411104649e-01, -4.234177470e-01, -6.140487194e-01, -3.104496002e-01, 5.096979067e-02, -1.593029052e-01, 2.033585310e-01, 6.077059358e-02, -4.113588929e-01, -2.635505497e-01, 1.191825420e-01, 3.124836981e-01, -7.736901045e-01, -2.630158663e-01, -4.370777309e-01, 1.661646217e-01, -2.247655392e-01, 5.166243762e-02, 1.327002347e-01, 3.409226537e-01, 8.415803313e-01, 1.228949279e-01, 2.128730416e-01, 2.929821424e-02}, {-1.481748968e-01, 2.221489698e-01, -4.210352898e-03, -2.575203031e-02, 1.621567458e-01, 7.490178943e-02, -1.194983423e-01, -4.734918103e-02, 1.850482970e-01, 1.527960449e-01, -1.471599936e+00, -1.681091934e-01, -3.810764849e-01, -5.035214499e-02, -1.037173644e-01, -1.416888237e-01, -1.533256769e-01, 4.018258154e-01, 1.475738138e-01, 7.217732072e-02, -4.392307717e-03, 1.233644132e-02, 9.983298928e-02, -1.786548346e-01, -2.569928467e-01, -5.081014633e-01, 4.614689052e-01, 1.214507893e-01, 4.283009097e-02, -5.998392031e-02, -4.161715806e-01, -1.071756408e-01, -6.157752275e-01, 1.227338389e-01, 3.875868618e-01, 9.143319726e-02, 7.440795749e-02, 3.853089362e-02, 7.008613646e-02, 1.492004395e-01, -1.468095183e-01, 1.093964428e-01, 8.375328034e-02, -7.810007781e-02, -4.778213799e-02, -1.911351532e-01, 5.740918219e-02, 8.413735032e-02, -4.218227789e-02, 1.501433849e-01, 1.251240969e-01, 3.771525249e-02, -1.296065450e-01, 2.287665755e-01, 3.087378740e-01, -9.653291106e-02, 3.377310559e-02, 6.063297018e-02, -8.016367555e-01, -8.290347457e-02, -2.816198766e-01, -8.004812598e-01, 2.452235669e-01, 1.907595098e-01, 5.850224197e-02, 7.980921119e-02, -2.364430111e-03, 7.018758357e-02, 3.901223242e-01, -5.509083271e-01, 4.013622403e-01, 5.718095228e-03, 2.134131789e-01, 7.597714663e-03, -4.682165682e-01, 6.069689393e-01, 6.684792638e-01, 1.424029917e-01, 8.214008808e-01, 1.528157666e-02, -1.517402381e-01, 8.587331325e-02, -2.364658564e-02, -1.214289188e+00, -5.501634628e-02, 1.649016589e-01, -4.832267761e-02, -1.049618423e-01, -1.525029540e-01, -6.772857904e-02, -7.567653805e-02, 2.847926915e-01, -1.862196177e-01, 9.841058403e-02, -1.595938653e-01, 1.616196632e-01, 1.463406563e+00, -1.945351958e-01, 8.348091505e-03, -1.938163787e-01, 2.837345935e-02, 8.992586285e-02, -1.461442262e-01, -1.910703816e-02, 1.186125427e-01, -1.610813737e-01, -3.486597240e-01, -1.299875826e-01, -6.786661688e-03, 7.235974818e-02, 3.067049384e-01, 8.647890389e-02, 6.139074266e-02, 2.394251078e-01, -2.867660224e-01, 1.320011765e-01, -4.208575934e-02, 5.716411591e+00, -1.911707520e-01, -7.312563062e-02}, {-2.150194645e-01, -1.932122856e-01, 9.472188354e-01, -2.423061728e-01, -1.364407241e-01, 1.844467670e-01, -5.533421636e-01, 1.534245163e-01, 6.878668070e-01, -3.237989843e-01, 1.273744404e-01, -1.149330378e+00, -1.086350441e+00, -2.868732251e-02, 3.790632188e-01, -4.589679241e-01, 1.167676970e-01, 4.994777218e-02, -1.692087352e-01, 9.411106706e-01, 4.238037467e-01, -5.018961430e-02, -7.863013148e-01, 7.770960778e-02, -7.480394840e-01, -1.232508183e+00, 7.395697758e-03, 6.599219888e-02, 4.201827571e-02, -3.446251154e-01, -1.169207692e-02, -1.905893087e-01, 3.571595997e-02, -2.215509266e-01, 2.779554203e-02, 2.559907138e-01, 2.566547990e-01, 3.409648836e-01, 8.431524970e-03, -7.673466951e-02, 5.362617373e-01, -1.887527466e+00, -1.426854849e+00, 3.115258217e-01, -4.926992357e-01, -3.713624179e-01, -2.500087321e-01, -3.810790777e-01, -2.683284879e-01, 3.556084260e-02, 3.763694465e-01, 5.736302212e-02, -1.181464717e-01, -3.341604173e-01, 2.244918048e-01, 5.512579679e-01, -5.344079733e-01, 8.022380620e-02, -2.852432430e-01, -8.261419535e-01, -4.206811190e-01, 5.412093177e-02, -5.680996776e-01, 3.379120231e-01, 1.453295499e-01, -9.612499177e-02, -6.906653643e-01, -4.274455309e-01, 3.541463614e-01, 4.572432935e-01, -4.776581228e-01, 4.494196549e-02, 7.673106790e-01, 2.018404603e-01, -9.537374228e-02, 3.868236244e-01, 1.129031479e-01, -4.264232814e-01, 2.885420918e-01, 5.167620182e-01, 1.107331961e-01, -3.687618375e-01, 3.008342385e-01, 2.119406462e-01, 2.965776622e-01, -5.517315865e-01, -4.309269488e-01, -2.659197152e-01, 5.329399109e-01, -1.566617787e-01, -3.875495167e-03, 3.851394057e-01, -7.188619971e-01, -8.631251752e-02, -5.101683140e-01, -9.525123239e-01, 4.589736760e-01, -5.237209797e-01, 1.871817410e-01, 1.750600636e-01, -1.169038042e-01, 3.330090344e-01, 3.255337179e-01, 1.921489686e-01, 4.274193197e-02, -8.678705096e-01, 2.627952397e-01, -1.183091030e-01, -2.551269829e-01, -1.351674646e-01, -4.392496347e-01, -1.671026945e-01, -1.836995929e-01, -1.137398601e+00, 1.115971804e-01, 3.056162596e-01, 1.905336976e-01, 6.676701456e-02, -5.750970915e-02, 1.210720301e+00}, {5.868146420e-01, -6.224712729e-01, 2.630671561e-01, 3.078895509e-01, -9.801963568e-01, -1.917467266e-01, 2.680104924e-03, -4.231914878e-01, 8.978753090e-01, 2.572304904e-01, 2.765651047e-01, -1.829085052e-01, -6.028110981e-01, 1.981475204e-02, -3.786011934e-01, 2.321764082e-02, 3.197877109e-01, -3.698435426e-01, -1.977776289e-01, 2.525514662e-01, -8.439047933e-01, -4.714255929e-01, -2.444574594e+00, 8.159123659e-01, 3.225715458e-01, 5.109453797e-01, -1.846932024e-01, -3.536854982e-01, 9.243472666e-02, -5.095602274e-01, 5.448792502e-02, -3.302199244e-01, 7.815408707e-02, -8.499823809e-01, -7.333008200e-02, -7.397162169e-02, -1.514060020e+00, 2.024167776e-02, -6.430060267e-01, -5.866341591e-01, 1.459336281e-01, -8.132689595e-01, -5.645141602e-01, -1.021733761e+00, -8.171388507e-01, -4.661656916e-01, -3.803334475e+00, 4.346823394e-01, -4.552152753e-01, 4.504240453e-01, 1.891377419e-01, 2.422913313e-01, -2.740484178e-01, 3.717859462e-02, -2.895570919e-02, 6.681246161e-01, -9.204601049e-01, 4.938771129e-01, -1.071804687e-01, -4.487349465e-02, 4.895185120e-03, 3.926105201e-01, -6.068730354e-01, 6.763346195e-01, -2.194201201e-02, -2.425479330e-02, -1.802757829e-01, -5.300676823e-01, -1.100996658e-01, 4.265162051e-01, -5.037792772e-02, 7.428525090e-01, -5.641176701e-01, 5.373553038e-01, 1.902635098e-01, -5.461387038e-01, 2.556014359e-01, -6.694222093e-01, 6.351436675e-02, -1.772749662e+00, -1.806546807e+00, -1.567788720e-01, -1.035154819e+00, 2.451602519e-01, -2.021631598e-01, 1.831774712e-01, 6.958925128e-01, -7.173951268e-01, -3.903549910e-01, 3.581077605e-02, -1.263975739e+00, 2.692137361e-01, -2.234542668e-01, 2.975043356e-01, -4.908887148e-01, 2.507489324e-01, -1.543329805e-01, -5.298118591e-01, 4.582097828e-01, 4.502966106e-01, -1.819029748e-01, 3.126864135e-01, -1.298743635e-01, -1.892590523e-01, -2.603393234e-02, 8.559262753e-01, -7.135485113e-02, 2.916842401e-01, 1.397703886e-01, -1.127771735e-01, -4.818845093e-01, 3.093204796e-01, -2.224505901e+00, 1.698728949e-01, 3.656349778e-01, 8.757928014e-02, -1.287462711e+00, -2.117536515e-01, 4.077071548e-01, -9.939237237e-01}, {2.448277324e-01, 7.403688133e-02, -3.164798021e-01, 7.634461857e-03, -2.250248790e-01, -1.865062416e-01, 8.541227877e-02, 7.339038253e-01, -5.971963517e-03, -4.509938136e-02, -1.401594281e+00, -2.528865933e-01, 2.170213498e-02, -7.093798369e-02, 9.533287883e-01, -5.627942085e-01, -3.316890076e-02, 7.843935490e-02, 4.295470119e-01, 3.076979220e-01, 1.235250980e-01, 3.312456608e-01, 5.484455451e-02, -7.990555763e-01, -1.420255098e-02, -1.731336415e-01, -4.170782864e-01, 4.662910700e-01, 1.937991679e-01, 3.839261532e-01, -6.092834845e-02, -2.792761922e-01, -4.912302494e-01, 2.553524971e-01, 5.404356122e-01, -5.198787451e-01, -9.118892252e-02, 4.401798248e-01, -3.127980530e-01, 5.690598488e-01, -2.476400137e-01, 2.216609567e-02, 4.759490490e-01, 3.387500346e-01, 4.859271348e-01, 6.175405979e-01, 2.027564496e-01, -4.852511361e-02, -9.434226155e-02, -9.712006897e-02, 1.042295471e-01, -1.347448528e-01, -1.356977075e-01, 5.468669534e-01, 4.609729722e-02, -4.076593220e-01, -1.097713709e-01, 2.010365427e-01, -9.647108912e-01, -2.238210887e-01, -3.424117714e-02, -2.023251355e-01, -1.582736373e-01, -3.729347587e-01, 8.100820780e-01, 5.711287633e-02, -2.173721232e-02, 6.532353163e-01, -4.769402444e-01, 2.566321790e-01, -2.820861936e-01, -1.724522412e-01, 3.915419281e-01, -6.973676085e-01, -2.707861066e-01, -1.774965972e-01, 3.071089387e-01, 8.283655345e-02, 1.227205276e+00, 7.572090253e-03, -1.791666895e-01, -1.027046368e-01, -1.714688689e-01, -1.494643092e+00, -3.885364905e-02, -4.594819993e-02, -3.452776670e-01, 8.320107311e-02, -3.064883351e-01, 1.464318335e-01, 3.237657845e-01, -2.685948014e-01, 7.508088946e-01, -4.296067059e-01, -2.382722050e-01, 4.809487164e-01, 1.759609461e+00, -4.921415821e-02, -2.676728070e-01, 3.083918691e-01, 1.407762021e-01, 3.405137062e-01, 3.719505072e-01, -2.152943015e-01, 1.484138668e-01, 1.243985146e-01, -7.827405334e-01, 5.737929940e-01, -3.458607495e-01, -4.833896458e-01, 3.438252211e-01, 2.985477075e-02, 1.134961724e+00, -1.581375748e-01, 4.543240368e-01, 1.324601322e-01, 4.639221430e-01, 3.343911767e-01, -8.243328333e-02, -2.438503653e-01}, {-1.267444849e+00, -7.671625614e-01, -4.685256630e-02, -1.601720601e-01, 3.871511221e-01, 8.841412067e-01, -3.645594120e-01, -3.310814202e-01, -1.721366309e-02, 8.139416575e-01, 5.973693132e-01, -1.804025285e-02, -4.688247144e-01, -4.990668967e-02, -5.876040459e-01, 4.409703016e-01, 2.431783229e-01, -1.060495824e-01, 9.469187856e-01, -1.410461068e-01, 3.772327304e-01, 3.236875236e-01, -3.807322308e-02, -1.072554812e-01, -1.666268110e-01, -1.948206127e-02, -2.893106043e-01, 1.269954085e+00, 6.293717027e-02, 1.108159661e+00, -4.606827199e-01, -1.180310175e-01, -5.358715057e-01, -1.471171737e+00, 3.348869085e-01, 5.584314466e-01, 2.618770897e-01, 6.478450298e-01, -3.171743751e-01, 3.909494877e-01, -1.336653531e-02, -3.931820393e-01, 1.553822637e+00, 5.421348810e-01, -1.438755989e+00, -3.793332875e-01, 1.383243054e-01, 2.242574096e-01, -2.208437026e-01, 2.875204682e-01, 5.869473219e-01, -3.948404789e-01, -2.502683699e-01, 8.331482112e-02, 3.732734323e-01, -1.083144173e-02, -2.200812995e-01, 3.683153689e-01, -6.422775388e-01, 8.974894881e-02, -6.300610304e-02, 8.678615689e-01, 9.467164278e-01, -3.502620459e-01, -1.277705580e-01, -2.907876968e-01, -2.148506977e-02, -4.659664631e-01, -1.423647553e-01, 4.699331522e-01, 1.139211804e-01, -8.008145094e-01, -6.321466714e-02, 3.153289855e-01, -5.452161431e-01, -1.702302694e-01, 3.520532131e+00, 1.296541989e-01, 3.432474434e-01, -1.844214648e-01, -5.584954470e-02, -2.917987406e-01, -4.533856511e-01, -2.827705741e-01, -3.886664510e-01, -4.849821627e-01, -2.500315905e-01, -1.482327223e+00, -4.629174471e-01, 3.245694637e-01, -1.848289520e-01, -3.373644948e-01, 6.373603940e-01, -2.735850215e-01, -3.899878561e-01, 7.473243773e-02, 1.289017648e-01, 1.360625587e-02, 2.294381708e-01, -5.380795002e-01, 9.937817454e-01, 9.467000961e-01, -1.997319609e-01, -1.974945366e-01, 5.981147662e-02, -4.678804278e-01, 2.672353946e-02, 7.415920496e-01, -2.370666265e-01, 9.991350025e-02, 3.015051782e-01, -7.751805186e-01, 4.791881144e-01, 5.145755410e-02, 1.598470062e-01, -4.197081089e+00, 2.494169772e-01, 2.943299413e-01, 6.294916272e-01, -6.609881520e-01}, {-4.463111758e-01, 2.927218676e-01, 4.200124741e-01, -5.287070572e-02, -5.226939917e-03, -2.478309572e-01, -1.406830251e-01, 8.351045251e-01, -1.907776296e-02, 1.689183116e-01, 1.440365985e-02, -5.907661747e-03, 1.953694820e-01, 3.266379833e-01, -3.932704628e-01, -1.136222959e+00, -1.743192971e-02, -2.834410071e-01, -5.149053335e-01, -1.374413669e-01, -3.445869386e-01, -1.026393548e-01, -1.494122446e-01, -3.035786748e-01, -1.461325288e-01, -5.457615480e-02, -5.142964721e-01, -3.444426134e-02, 6.756479740e-01, -3.151703253e-02, -2.321174890e-01, -4.622271359e-01, -5.199466348e-01, 2.801062465e-01, 4.819420576e-01, 1.157152653e-01, -1.391349137e-01, 7.883409858e-01, -3.036839366e-01, -9.709501266e-02, -6.199458241e-01, -9.102029204e-01, 1.010724902e-01, -3.188073337e-01, 8.389417082e-02, 4.441820085e-02, 1.168290675e-01, -6.059631705e-02, 2.419022769e-01, -1.981298178e-01, -9.641862661e-02, -1.090297699e-01, 1.762122810e-01, 1.029589415e+00, 1.446535885e-01, -5.765107274e-01, 5.013005733e-01, -4.528875947e-01, -9.584623575e-02, 2.711538374e-01, -2.426872849e-01, 4.072351009e-02, -1.534680743e-02, -1.617995948e-01, 3.331236243e-01, -1.538204495e-02, -4.027807415e-01, 1.822419912e-01, -2.722207606e-01, -2.952077985e-01, 3.166041896e-02, 1.911509037e-01, -7.820618339e-03, -2.981010377e-01, -1.814298518e-02, -2.936666906e-01, 2.175790817e-01, -1.743873954e-02, 3.386087120e-01, 9.510708600e-02, -4.546484351e-02, 9.114648402e-02, -3.344117105e-01, 7.227150351e-02, 4.009369612e-01, -3.542210758e-01, 3.514232580e-03, 7.416996956e-01, -1.086318493e-01, -2.804151475e-01, 1.143843234e-01, 2.336063236e-01, 9.267116189e-01, -4.458509386e-01, 1.519838810e+00, -6.604632735e-01, 2.256174535e-01, -2.464128435e-01, -3.157149553e-01, -2.712256834e-02, -1.005824730e-01, 2.529185116e-01, 2.234790772e-01, -9.618899226e-02, 1.218187436e-01, 6.004959345e-01, -8.050673604e-01, 7.277551889e-01, -5.190623999e-01, 2.565616667e-01, 3.055129349e-01, 2.436238714e-02, -4.285245836e-01, -2.171872705e-01, 3.498031944e-02, 3.782849312e-01, -2.490240484e-01, 1.099913195e-01, -5.936398506e-01, -4.960856587e-02}, {-3.172457516e-01, 2.823470831e-01, -1.593949199e-01, -1.467291713e-01, -1.010625720e+00, 3.868359625e-01, 4.205234647e-01, -8.896420598e-01, -4.873617738e-02, 6.613531709e-02, 1.735960245e-01, 1.517457366e-01, 3.230787348e-03, -2.136297338e-02, 5.695974827e-01, -6.483899355e-01, 4.113510251e-01, -1.793409139e-01, -7.000347972e-01, -3.350565434e-01, 5.725539848e-02, -3.620988727e-01, -9.290513992e-01, 8.528345823e-02, -3.863748908e-01, -1.559750289e-01, -1.349436641e-01, -2.329498529e-01, -7.540993392e-02, 6.355911493e-01, -5.983099341e-01, -4.900571108e-01, -1.619322896e-01, -4.033850506e-02, -6.966859102e-01, 8.308058381e-01, 3.158521354e-01, 2.024742067e-01, 9.803713560e-01, 1.164442599e-01, -2.228970081e-01, 2.593189776e-01, -3.188673496e+00, 4.755499065e-01, -2.298338413e-01, -3.819923997e-01, 4.784294404e-03, -4.785407335e-02, 2.681004107e-01, -1.399157047e-01, 1.143441051e-01, 1.947112381e-02, -1.209807634e+00, -2.030060142e-01, -1.251804084e-01, -1.315886855e+00, 2.260055065e+00, 2.261517048e-01, 2.832052112e-01, 8.603608012e-01, 3.206584752e-01, -3.991086185e-01, 7.777412534e-01, 8.809784055e-02, -8.401507735e-01, 8.496227264e-01, -3.830201551e-02, 6.436003447e-01, -2.546167970e-01, 3.598936498e-01, -5.656991005e-01, -2.238266170e-01, 5.755871907e-02, 1.012028456e+00, 8.487694263e-01, 4.399911165e-01, -5.698839426e-01, -1.070230305e-01, -2.021290809e-01, 5.826993287e-02, -1.965648681e-01, 2.486655861e-02, 2.427675575e-01, -1.429772526e-01, -1.988683939e-01, -3.342107236e-01, -1.978015304e-01, -4.746414423e-01, 4.828657210e-02, -2.491203099e-01, -4.242807925e-01, 3.585155606e-01, 7.701014280e-01, 9.240323901e-01, -3.979870081e-01, -1.762409806e-01, 4.160269797e-01, -7.866282463e-01, 1.787997723e+00, 3.870041072e-01, 1.519979596e+00, 4.495544732e-01, -1.010901093e+00, -2.328764051e-01, 1.159463406e+00, 4.919816256e-01, 5.441718102e-01, -1.278747320e+00, 5.109844208e-01, -1.639468223e-01, -2.564169466e-01, -5.026049614e-01, -2.196930349e-01, 2.193245739e-01, 8.136455417e-01, -9.012695402e-02, 2.515975833e-01, -4.559473693e-01, -1.645402908e-01, -2.109963596e-01}, {9.921976328e-01, 2.282480855e-04, -3.284773529e-01, 2.870379090e-01, -1.191987097e-01, 6.496479511e-01, 1.238235086e-01, 1.679007560e-01, 7.474640012e-01, -8.948921412e-02, -2.962199450e-01, 3.069925606e-01, -1.161883950e+00, 2.632053010e-02, -3.066536784e-01, 2.357576638e-01, 7.028769255e-01, -2.575946152e-01, -3.384083807e-01, -6.685360074e-01, -7.098210454e-01, 5.415585637e-01, 4.628386796e-01, 1.714825183e-01, -7.371027023e-02, 7.432559133e-02, 1.372497678e-01, 1.913859695e-01, 1.296894908e+00, -1.860733181e-01, -1.490169913e-01, -6.876578927e-01, 1.108957827e-01, -8.241481781e-01, -6.942962110e-02, -7.031407952e-01, 7.756373882e-01, -2.720806282e-03, -5.957438797e-02, -6.663193107e-01, 9.211084843e-01, -2.431710362e-01, -7.274968177e-02, -6.320752501e-01, -1.895901263e-01, -6.320372969e-02, -7.990195155e-01, -2.600447834e-01, -8.078874350e-01, 5.802205205e-01, 1.468548775e-01, -6.437532902e-01, -1.005426168e+00, -2.338297106e-02, 2.174969614e-01, -7.256913781e-01, -7.508099079e-01, 1.375918388e-01, 4.359395206e-01, 2.834021486e-02, 3.572036326e-01, -4.708134830e-01, 8.629307747e-01, -7.867044210e-01, -3.128422201e-01, 7.301887870e-02, 4.325978160e-01, -2.129680872e+00, -1.280323509e-02, 3.662194014e-01, 1.490952224e-01, -2.815264463e-01, 6.477193832e-01, -6.563463211e-01, 4.341539443e-01, 8.773626685e-01, -6.205713749e-01, 5.715382695e-01, -1.920392066e-01, -5.105808973e-01, -6.173654646e-02, -2.040114403e-01, -1.083860636e+00, -1.827492416e-01, -2.935313582e-01, 7.195014954e-01, 4.183028638e-02, 1.260854453e-01, -5.393412113e-01, 1.253119111e+00, -1.059740305e+00, -9.251935780e-02, 9.946641922e-01, -5.486172438e-01, -7.340800762e-01, -9.283577800e-01, 6.300466508e-02, -2.289171219e-01, 1.257851481e+00, 3.091993332e-01, 1.834112555e-01, 4.199895561e-01, -1.645788103e-01, 7.742488384e-02, 1.518141627e-01, 1.170559883e+00, -1.948949099e-01, -2.705822289e-01, 4.884650707e-01, 4.563775957e-01, 5.286113024e-01, 3.360394537e-01, 5.793751478e-01, 7.639760375e-01, -4.208905399e-01, -1.055169664e-02, -5.067136884e-01, 1.063769609e-01, 9.496628493e-02, -6.610112190e-01}, {-3.863548636e-01, -3.054644763e-01, -1.831328310e-02, -3.918715715e-01, -3.581613302e-01, 5.919951200e-01, -3.600246906e-01, -3.218876570e-02, 3.633598089e-01, -1.969550699e-01, 2.639573812e-01, 2.886422575e-01, -6.061213017e-01, 4.249776155e-02, 3.511950672e-01, -1.107849956e+00, 6.781072170e-02, 3.587897122e-02, 1.699856855e-02, -1.022461057e+00, -1.461759359e-01, 8.091663010e-03, -1.342829019e-01, 1.195149273e-01, 2.244478166e-01, -3.409488499e-01, 2.708778679e-01, -4.894968867e-01, -1.828603894e-01, -2.653232776e-02, 9.554759413e-02, 4.240242764e-02, -9.990766644e-02, -2.383662015e-01, -1.088441312e-01, -2.547930479e-01, 4.422372580e-01, -2.847457826e-01, 3.318003118e-01, 6.279742122e-01, -8.003621697e-01, 2.559144795e-01, -1.590778351e+00, -1.192002147e-01, -6.385442335e-03, -6.010478139e-01, 3.152414262e-01, -1.380129009e-01, 8.368896320e-03, -4.884272218e-01, -3.665148616e-01, -6.291111559e-02, -5.982735753e-01, -4.344903231e-01, -8.898475170e-01, 8.715672791e-02, 2.959323227e-01, -7.234397531e-01, -4.446412325e-01, 1.731388271e-01, -5.681366920e-01, 5.449073315e-01, -3.210105002e-01, -1.012324691e-01, 7.927157916e-03, -2.881091833e-01, -8.040695786e-01, -4.534459114e-01, 7.198165171e-03, 2.583672404e-01, -1.662040800e-01, 3.240686283e-02, 1.124242097e-01, -1.010695770e-01, -2.023266256e-01, -1.956009120e-01, 1.908594072e-01, 1.512037963e-01, 3.386855423e-01, 2.333324403e-03, 1.655873060e-01, 6.643883586e-01, -1.184513569e-01, 7.727001905e-01, -5.174887776e-01, -7.786092907e-02, -8.821315765e-01, 5.408543721e-02, 1.975200772e-01, -3.051740229e-01, 1.384228170e-01, 5.334100723e-01, -7.027493715e-01, 2.403036878e-02, 4.218823612e-01, -5.131906867e-01, -2.048155963e-01, -8.478224874e-01, 9.822006524e-02, -3.023859859e-01, -9.522739798e-02, 1.725713909e-01, 5.615590215e-01, -2.556302585e-02, 