#include "nn_parameters.h"

// NN network parameters -- atribute values
const float weights_in[NUM_NODES][NUM_STATES] = {{2.807697952e-01, -1.198765710e-01, 1.770569570e-02, -3.819866478e-01, -1.681930274e-01, 7.844737172e-02, -6.574737281e-02, 1.809329540e-01, -3.038834333e-01, 2.092693895e-01, -5.889170617e-02, 2.214874327e-01, 3.750529289e-01, -2.971140146e-01, 4.272847250e-02, 1.271814853e-01, 8.153961599e-02, -3.202725574e-02, -7.678452879e-02}, {-2.882608175e-01, -1.163038090e-01, 4.317391217e-01, 1.537463516e-01, 1.537424475e-01, -1.984881163e-01, -4.294067323e-01, 3.013238907e-01, 7.222684473e-02, 2.321731485e-02, -4.706599191e-02, 3.652464971e-02, -9.140844643e-02, -6.332942098e-02, 5.217523780e-03, 4.253343493e-02, 2.697510354e-04, -5.469630286e-02, 6.049799547e-02}, {-3.149629012e-02, 1.077662185e-01, -5.049636960e-01, -1.707150042e-01, -1.531322449e-01, 7.003421783e-01, 5.003378913e-02, -7.659341209e-03, 1.154000685e-01, 1.574739665e-01, -4.101748765e-01, 4.254997894e-02, 1.207903624e-01, -5.755567551e-02, -8.230259269e-02, 5.687767267e-02, 4.466040060e-02, 1.359796990e-02, 6.318016909e-03}, {6.910034572e-04, 3.461927408e-04, 4.570923150e-01, -4.243045673e-02, 3.804785199e-03, -1.913626343e-01, 1.164660603e-01, 5.550552905e-02, 4.384043813e-02, 2.188654616e-02, -2.395951562e-02, 7.809610665e-02, -3.112370893e-02, -1.732500643e-01, 1.336298138e-01, -1.453343779e-01, 4.726759344e-02, -8.849607408e-02, -2.545735054e-02}, {-3.989162147e-01, -1.989774965e-02, 1.551857591e-01, 2.342850566e-01, -4.939683713e-03, -1.515582949e-01, 1.440504044e-01, -3.022640049e-01, -4.837871343e-02, 2.733524144e-01, -1.211966202e-01, 1.340635419e-01, 2.576575279e-01, 1.594792753e-01, -7.427893579e-02, -4.309090227e-02, -5.402441695e-02, 2.744675428e-02, 5.438156798e-02}, {2.412553728e-01, -8.839529753e-02, 1.566628814e-01, -1.570303142e-01, 3.933321312e-02, -2.170363627e-02, 1.263362262e-02, 1.139804497e-01, -1.340898722e-01, 1.471637189e-01, 6.316417456e-02, -1.539203990e-02, 2.365568280e-01, -1.051154658e-01, 1.003729925e-01, 4.511884763e-04, 1.758492887e-01, 7.153959572e-02, -4.067617655e-02}, {2.796036303e-01, 3.729524016e-01, 8.382159472e-02, -1.122799143e-02, -4.567553103e-01, 5.585182831e-02, 6.044898033e-01, -2.157761455e-01, 6.163832918e-02, -4.550472274e-02, 4.281973466e-02, 1.267255284e-02, 4.756077752e-02, 1.214458724e-03, 1.922805421e-02, -2.581176721e-02, -5.317705870e-02, -4.600921646e-02, 2.675024560e-03}, {2.848531008e-01, -1.172141507e-01, -1.230959520e-01, -8.974461257e-02, 8.335428685e-02, 1.932134181e-01, 1.004097834e-01, -1.448131353e-01, -5.041335523e-02, 4.378538206e-02, -4.315752685e-01, 8.604550362e-02, -8.166155964e-02, -1.592878811e-02, 2.005876452e-01, 2.958952188e-01, -5.313873291e-02, -1.343672872e-01, 2.279931493e-02}, {8.291911334e-02, 1.690539569e-01, -1.908406913e-01, 6.247243658e-02, -2.540565729e-01, 1.300980002e-01, -4.105187953e-02, 1.045246348e-01, 2.814887278e-02, 1.613667160e-01, 1.207846850e-01, 5.073259026e-02, 3.576167822e-01, -5.155571923e-02, 5.264402032e-01, -2.144714445e-01, 1.692514718e-01, 1.981221586e-01, 7.514394075e-02}, {4.121928513e-01, -4.692041278e-01, 6.649078727e-01, -1.702992320e-01, 2.462117523e-01, -2.586409748e-01, 6.455747783e-02, -5.875907838e-02, -2.004918456e-01, 6.988141686e-02, 2.094307914e-02, -1.528808195e-02, 1.494865566e-01, 1.855998300e-02, -5.389749631e-02, 4.776179418e-02, 2.867476270e-02, 1.635407284e-02, -4.261887632e-03}, {-3.115449846e-01, 1.985797584e-01, -2.843849063e-01, 2.361092269e-01, -1.713155955e-01, 1.943862438e-01, -5.744164437e-02, -2.879067790e-03, 6.508214772e-02, 8.951878548e-02, 5.587462783e-01, 1.014177594e-02, 3.356024027e-01, 1.083269566e-01, -1.423647511e-03, -5.820000544e-02, 1.235027146e-02, 9.933599085e-02, -4.203984514e-02}, {-5.066848360e-03, 1.051378250e-01, 9.074730799e-03, -2.190384865e-01, -3.597029299e-02, 2.463965118e-02, 6.119645834e-01, -5.126491785e-01, 1.861550808e-01, -1.918652654e-01, 4.399191588e-02, 7.989201695e-02, 4.082873836e-02, 7.872359455e-02, -5.326403305e-02, -6.234977022e-02, -2.554790862e-02, 1.575756818e-02, -2.444712259e-02}, {8.641833812e-02, -3.438106775e-01, -6.103142723e-02, 2.955861203e-02, 1.524361819e-01, 8.395554870e-02, 3.224353194e-01, -1.801283211e-01, -9.975724667e-02, 1.653244048e-01, -9.422430396e-02, -4.512826353e-02, 2.672572732e-01, -5.412805080e-01, -2.594880462e-01, 5.173304081e-01, 2.793307006e-01, -8.868410438e-02, 1.005166676e-02}, {-2.872863039e-02, 9.363871068e-02, 8.802822232e-02, -6.861671060e-02, 8.473086357e-02, -2.054416835e-01, -5.472165346e-02, 1.344556063e-01, 1.462011412e-02, -5.980794132e-02, -1.601158292e-03, -8.727747947e-03, -4.897008538e-01, 3.150533140e-02, 6.440499425e-02, -9.148564190e-02, -6.239678245e-03, 1.263627410e-01, 2.004131489e-02}, {-4.203565791e-02, 2.412341908e-02, -3.157175481e-01, 3.780427575e-02, -5.169425905e-02, 2.368535846e-01, -4.085569084e-02, -9.798990935e-02, 1.702240109e-01, -1.276754886e-01, -3.506309390e-01, 1.132609695e-01, 6.940006614e-01, 1.752391309e-01, 9.443996847e-02, 6.401786953e-02, -4.425351974e-03, -7.682138681e-02, 1.549411565e-01}, {2.669528425e-01, -1.280988455e-01, 1.270635128e-01, -8.769341558e-02, 3.160606138e-03, -1.348267198e-01, -2.243021317e-02, 6.457421929e-02, -1.161387116e-01, 1.884706914e-01, 2.147338539e-01, 1.920847455e-03, -1.284563728e-02, -3.634681702e-01, -2.645767033e-01, -3.903439641e-01, 1.193173304e-01, 1.166040674e-01, -7.852423005e-03}, {1.200163439e-01, -1.921211928e-01, -1.227532327e-01, -4.728171602e-02, 2.310490608e-01, 7.363292575e-02, 2.981602848e-01, -2.019556426e-02, 6.317851692e-02, 1.324598044e-01, 2.215763181e-01, -1.990923733e-01, -3.758379444e-02, 1.436651796e-01, 6.447874010e-02, 2.095053792e-01, -8.528362028e-03, -1.324226707e-01, 9.969896078e-02}, {-2.021183819e-02, 5.994647741e-01, -3.404027596e-02, 6.119196117e-02, -4.651426971e-01, -9.031476080e-02, 4.537406564e-01, -2.999425828e-01, 4.762004614e-01, -1.691636443e-02, 5.597262084e-02, -1.785424771e-03, -2.539732307e-02, -9.404759854e-02, 4.229928553e-02, 1.032277048e-01, -9.342557751e-03, -3.593278350e-03, -3.492609411e-02}, {-5.124542117e-01, 8.084294945e-02, 2.230648100e-01, 4.310601205e-02, -9.495953470e-02, -1.889651269e-01, -4.769845307e-02, -4.463706538e-02, -5.489099305e-03, -3.935713321e-03, -5.656527728e-02, 7.411015779e-02, -4.169408605e-02, 9.831494838e-02, -1.408496499e-01, -9.849387407e-02, 2.703216160e-04, -1.739231646e-01, 6.845784932e-02}, {-4.713333547e-01, -3.483174741e-01, -5.086475611e-01, 5.127062201e-01, 2.730594873e-01, -6.192530319e-02, -2.298884988e-01, -3.385866880e-01, -7.969161123e-02, 9.903969616e-02, -2.366508096e-01, -5.637735501e-02, -2.982933633e-02, -9.931882471e-02, 7.068586349e-02, 1.733157635e-01, -8.001341484e-04, -5.670318753e-02, -4.953844473e-02}, {-3.812244162e-02, 2.251292579e-02, 1.353931576e-01, -5.146688223e-02, 7.129837759e-04, -1.726132184e-01, -1.685942709e-02, 3.817998990e-02, -6.221251190e-02, -2.005929798e-01, -1.685095280e-01, -8.708713204e-02, -2.600789070e-01, 2.197950631e-01, -6.083143950e-01, 1.661472917e-01, -1.682695150e-01, -1.349773705e-01, -5.986867845e-02}, {-5.597733259e-01, 2.576623559e-01, 4.729872197e-02, 2.323805094e-01, -1.887063384e-01, 1.032216027e-01, 1.770100929e-02, -1.249819435e-02, 1.724333763e-01, 1.108517572e-01, 1.989707053e-01, 4.311056808e-02, -1.920426935e-01, -1.579547860e-02, -7.114794105e-02, -1.186231598e-01, -7.408560067e-02, 3.200616688e-02, -2.797911689e-02}, {-2.508462965e-01, -4.193102941e-02, -1.191241294e-01, 1.535859257e-01, -1.238704324e-01, 4.117209837e-02, -3.400824219e-02, -5.093377829e-02, -2.107363790e-01, 1.098348796e-01, -3.851021826e-01, -8.587142825e-02, 1.409683526e-01, 4.775654674e-01, 2.820470929e-02, 3.312704563e-01, 5.692286417e-02, -7.988496125e-02, -1.488329619e-01}, {-2.385604382e-01, 1.591904908e-01, -1.227715313e-01, 8.912482858e-02, -2.416553721e-02, 1.092448905e-01, 5.069738626e-02, -5.713834241e-02, 2.401641905e-01, -2.129378021e-01, -2.335222512e-01, 4.480399564e-02, -1.902074181e-02, 4.264284372e-01, 1.861644983e-01, 3.908457756e-01, -1.178226098e-01, -8.257505298e-02, 6.280329823e-02}, {5.078007653e-02, -1.971526444e-01, -2.290238142e-01, -1.241606995e-01, -5.309445038e-02, 1.155984327e-01, 1.127496734e-01, -1.309720427e-01, -3.271371722e-01, 1.477877200e-01, 3.157868050e-03, -7.580327243e-02, 7.516974956e-02, 1.274938285e-01, -6.006014347e-02, -2.334935069e-01, 5.157079920e-02, -8.260768652e-02, -5.643313006e-02}, {3.102863431e-01, 4.471836984e-01, 2.312952131e-01, -3.809581101e-01, -4.766784608e-01, -2.132031769e-01, -3.640280068e-01, 2.802452743e-01, -7.289257646e-02, 8.293072879e-02, -9.424147010e-02, -7.323466241e-02, 3.689520434e-02, 8.062702417e-02, -4.573714454e-03, -7.192426920e-02, -5.988380406e-03, -5.362694338e-02, 5.680247769e-02}, {-1.161412075e-01, 2.217801660e-02, -3.818732500e-02, 1.884335419e-03, 1.805262864e-01, 4.233608022e-02, 2.602546941e-03, -7.291024923e-02, 1.852331012e-01, -1.489003599e-01, -6.181262434e-02, 5.432353541e-02, -6.189989448e-01, 3.394164443e-01, 4.283101261e-01, -2.322088629e-01, -2.397681475e-01, -8.724410087e-02, 7.511985302e-02}, {-3.077453375e-01, 2.868859470e-01, 6.082156301e-02, 1.408207268e-01, -2.709774673e-02, 6.391752511e-02, 1.383442134e-01, -1.533478871e-02, -1.708818227e-02, -2.009220235e-02, -9.841866791e-03, -9.349773079e-02, 3.981719725e-03, -2.293381542e-01, -2.714963853e-01, -1.762658209e-01, 2.594685648e-04, 4.634951428e-02, -8.128993958e-02}, {4.204866290e-01, -1.243308410e-01, 2.564246356e-01, -2.156185545e-02, 3.561494946e-01, -7.219176739e-02, 4.857101738e-01, -3.801046312e-02, -1.338841617e-01, 2.712263465e-01, -1.551190615e-01, 5.549892411e-02, 1.934657060e-02, 1.153734848e-01, 6.402216107e-02, -6.075618416e-02, -5.289469659e-02, 5.804646760e-03, 6.245094817e-03}, {1.973466426e-01, 3.929211795e-01, 1.859443486e-01, -3.077983856e-02, -5.566455722e-01, 7.610949106e-04, -3.384458125e-01, -1.506005228e-01, -1.766970456e-01, -1.005077511e-01, -1.541513056e-01, -1.051447242e-01, -1.369391084e-01, -1.618697941e-01, 9.090263629e-04, -1.698089764e-02, -6.770837307e-02, -2.239925228e-02, 3.113743477e-02}, {2.980148979e-02, 2.694953382e-01, -6.727935076e-01, 6.158039346e-02, -3.844005466e-01, 3.598640263e-01, -3.338809609e-01, -6.612023711e-02, -3.196094334e-01, -1.467307508e-01, -2.151722610e-01, -6.293893605e-02, -7.737098634e-02, 5.510206521e-02, 1.328977793e-01, -4.968688264e-02, -5.314050615e-02, -3.316861391e-02, -1.818398759e-02}, {5.143482089e-01, 8.797333390e-02, -5.164357275e-02, -4.415646791e-01, 3.550961381e-03, 3.778089210e-02, 5.715046450e-02, 4.459113777e-01, -3.666016459e-02, -1.329609472e-02, 3.548893034e-01, -1.973764412e-02, 8.162014931e-02, 1.152585000e-01, 9.480089648e-04, 8.975607157e-02, -7.279517502e-02, 1.524011791e-01, -3.008859418e-02}, {-7.607913762e-02, 3.334960341e-01, 5.275787786e-02, 1.105532795e-01, -2.263124138e-01, -5.050615594e-02, -7.785084099e-02, -5.915990472e-02, 2.576102316e-01, 2.176929563e-01, -5.561326146e-01, 1.985037923e-01, 6.442823261e-02, 1.466192007e-01, -6.047686189e-02, -5.615197495e-02, 7.099501044e-02, -1.442829799e-02, -1.104896292e-01}, {-5.928957462e-01, -2.326636761e-01, 2.756081522e-01, 2.825352550e-01, 1.781859696e-01, -2.634711862e-01, 2.697107010e-02, -2.502613068e-01, 2.643190697e-02, -2.667978108e-01, -1.305073798e-01, -1.244622171e-01, -1.824862957e-01, 2.252316624e-01, 1.557150483e-01, 3.559034318e-02, -2.851414494e-02, -2.030684799e-02, 3.809356689e-02}, {3.253901005e-01, 1.723829657e-02, -2.092036456e-01, -2.453748137e-01, 8.416207135e-02, 2.457282543e-01, -3.592275456e-02, 2.500315011e-01, -9.339477867e-02, 2.423708886e-01, 1.234848499e-01, -1.033486575e-01, 2.525549233e-01, 2.297800630e-01, -2.883221507e-01, -3.210300803e-01, 6.951582432e-02, 9.557519853e-02, -5.960009992e-03}, {4.905566946e-02, 3.107542694e-01, -2.741492167e-02, -3.127953783e-02, -3.390175998e-01, 9.343248606e-02, 3.355869651e-01, 4.655606151e-01, -2.035883069e-01, -2.778821290e-01, -1.211203486e-01, -6.201741844e-02, 6.325845420e-02, 6.971026957e-02, 2.287872136e-02, -2.711955085e-02, -8.120008558e-02, -9.106916934e-02, -1.034978852e-01}, {-4.206803441e-02, 3.001135886e-01, 3.546396494e-01, 2.499238253e-01, -2.275972813e-01, -1.249421164e-01, 4.185953140e-01, 2.705102041e-02, -1.404562891e-01, -1.025662571e-01, -1.649410874e-01, 9.076093137e-02, -1.766331941e-01, -4.570028931e-02, 6.623810530e-02, 9.395321459e-02, 2.864121087e-02, -6.073452905e-02, 3.452050313e-02}, {1.426870283e-02, -3.533328474e-01, 3.379460871e-01, -4.059140757e-02, 5.802289844e-01, -8.140758425e-02, 8.917567134e-02, -3.002368808e-01, 3.045996428e-01, 4.080780596e-02, 2.713762969e-02, -7.596857846e-02, 2.077622712e-02, 3.730820492e-02, 2.257839404e-02, -2.950318344e-02, 5.083564203e-03, 3.306494281e-02, 1.613702439e-02}, {3.593526483e-01, -2.478394806e-01, -4.595023580e-03, -3.690292835e-01, -8.952414989e-02, -7.076089084e-02, -3.866466284e-01, 3.343155086e-01, -3.285306990e-01, -3.017049432e-01, 1.913706809e-01, -3.767042980e-02, -9.067787975e-02, -2.482539602e-02, 4.875041172e-02, -7.173921168e-02, 1.158815576e-03, 7.307062298e-02, -2.679891326e-02}, {-4.027761221e-01, 1.587996483e-01, -2.812657058e-01, 3.397297263e-01, -2.025552690e-01, 1.507949531e-01, -8.919438720e-02, -2.495064586e-01, 2.287732661e-01, 1.138524711e-01, -1.161579490e-01, 1.494786739e-01, -2.654446661e-01, 1.785172373e-01, -1.387601644e-01, 5.480505824e-01, 3.109885380e-02, 3.515770659e-02, 1.074136198e-01}, {-1.029280663e+00, 2.986951359e-02, 5.424644798e-02, 3.702290952e-01, 1.636949480e-01, 5.075912178e-02, 2.477192879e-01, 8.353488147e-02, -2.498678118e-02, -1.362238377e-01, 3.242245293e-04, -3.630389273e-02, 1.159511879e-01, 1.299511269e-02, -5.401167087e-03, -5.536458921e-03, -6.065303925e-03, 3.060217481e-03, -5.296237767e-02}, {1.522056162e-01, 4.549101368e-02, 1.126052663e-01, -1.642827392e-01, 5.859943852e-02, -2.318126261e-01, 3.786991537e-02, 6.593683362e-02, -2.489948124e-01, -4.274563491e-02, 3.861561045e-02, -7.425769418e-02, 1.364166141e-01, -1.008703560e-01, 1.714961529e-01, -1.365036219e-01, -3.097362071e-02, -2.398818173e-02, -2.471421361e-01}, {1.284149010e-02, 1.527916640e-01, -6.672079861e-02, 1.149860397e-01, -2.913613319e-01, 1.837059557e-01, 7.374317944e-02, -1.966174990e-01, 1.328331381e-01, 1.188490316e-01, -1.288175434e-01, 5.913905799e-02, 3.450667560e-01, 1.090142727e-01, -5.531215295e-02, 1.733231395e-01, -1.053157449e-02, -1.786598563e-01, 4.857569560e-02}, {1.910945922e-01, -1.887680292e-01, 1.766442806e-01, -4.043987393e-02, 4.693330079e-02, -1.276578307e-01, 2.274474204e-01, -1.830038615e-02, -1.363682896e-01, 1.414816380e-01, -5.145871639e-01, 1.927979589e-01, -6.370538473e-02, 2.053742111e-01, 4.012618586e-02, -1.766488105e-01, -6.275312509e-03, 3.456364945e-02, 2.004637569e-02}, {-6.593314465e-03, -3.100598752e-01, 2.613874897e-02, -4.341646284e-02, 2.998329103e-01, -1.545298612e-03, 1.422136426e-01, 8.706152439e-02, -8.302155882e-03, 9.778051823e-02, -9.696549922e-02, 6.341427565e-02, 1.862995774e-01, 2.355691046e-01, 2.990424819e-02, -1.843576133e-01, 2.163642086e-02, -8.637665957e-02, -4.566678545e-04}, {-6.320018321e-02, 4.783021510e-01, -1.058893800e-01, -2.670351416e-02, -4.564308822e-01, 5.004448816e-02, 8.288960904e-02, 9.622911923e-03, 3.146274388e-01, 6.205902696e-01, 8.758863807e-01, -2.978433371e-01, -2.564730048e-01, 1.879525930e-02, 2.177523375e-01, 3.827694803e-02, -6.075769663e-02, -1.187299415e-01, -5.404073372e-02}, {3.134054840e-01, -1.742279083e-01, -2.123817243e-02, -1.454522908e-01, 4.719005153e-02, -2.115317434e-02, -5.076596737e-01, 2.861775458e-01, -5.297911167e-01, -5.102133378e-02, 3.558592126e-02, -4.119759798e-02, 8.296452463e-02, 1.692804694e-01, -3.112569265e-02, -1.284328699e-01, -4.178171605e-02, -3.571783006e-02, 1.430284828e-01}, {2.400728315e-01, -3.825499117e-01, 1.540844291e-01, -8.592003025e-03, 5.114860833e-02, -6.909580529e-02, -5.384810567e-01, -2.240531594e-01, -4.895512760e-01, -1.099161208e-01, -8.655169047e-03, -1.856495291e-01, 7.537320256e-02, -7.541139144e-03, 9.763844311e-02, -9.907843173e-02, -4.113107175e-02, 6.344664842e-02, -2.266631871e-01}, {-1.607225090e-01, -2.638881803e-01, 1.253632009e-01, 2.880376279e-01, 3.343780935e-01, -1.492369920e-01, 8.141849935e-02, -1.696893871e-01, 7.299195975e-02, 8.305372298e-02, -3.857103288e-01, -2.054348588e-03, 1.945634633e-01, 2.888009846e-01, 5.733298138e-02, -3.171221018e-01, 7.330770791e-02, 1.710933074e-02, -1.619220972e-01}, {-4.298844635e-01, -3.582965136e-01, -1.012635827e-01, 2.084813714e-01, 3.006056510e-02, 8.937016129e-02, 1.177610308e-01, -1.709781438e-01, -1.086449847e-01, -1.877287924e-01, 2.049815655e-01, 1.258555651e-01, 1.416972131e-01, 2.907704115e-01, 6.997081637e-02, 2.312598750e-02, 1.651721774e-03, -9.129993618e-03, -6.778173149e-02}, {-1.989275813e-01, 2.256433815e-01, -1.492148936e-01, 6.728042848e-03, -1.333121359e-01, 2.091697231e-02, 6.094396710e-01, 9.125169367e-02, 1.943270564e-01, -3.986755386e-02, -1.577212662e-01, -8.467500098e-03, 2.652586438e-02, -8.703890257e-03, 5.439871922e-03, 1.203305200e-01, 3.065058216e-02, 8.015592396e-02, -1.227809861e-02}, {2.457713187e-01, 6.204826385e-02, 7.918625325e-02, -9.571284056e-02, -2.670926787e-02, -2.240550220e-01, -2.971846163e-01, 4.019354880e-01, -1.881947666e-01, -1.400867850e-01, 2.915772796e-01, -1.715440899e-01, 1.070251837e-01, 2.762059867e-01, 6.898705615e-04, -2.112585604e-01, -1.465790421e-01, 2.401610315e-01, -5.481510982e-02}, {2.634411752e-01, -1.645674706e-01, -1.107447892e-01, -1.362705529e-01, 1.181073338e-01, 4.897302762e-02, -1.037337333e-01, -1.490665525e-01, -1.715784371e-01, -1.925636828e-01, -6.322469562e-02, 1.167302020e-02, -2.115781456e-01, 1.436967850e-01, -1.063285023e-01, -7.955223322e-02, -2.422542721e-01, -6.850790232e-02, -1.795783341e-01}, {3.498379290e-01, 6.792528182e-02, -2.065130472e-01, -1.213405728e-01, 1.110266447e-01, 2.746253610e-01, -7.793357968e-02, 1.981704980e-01, -1.217156127e-01, -1.206370536e-02, 1.687553078e-01, -1.213080361e-01, 4.497126210e-03, 9.684615582e-02, 3.003951013e-01, 5.198623240e-02, 4.074940085e-02, 6.372191012e-02, 1.685449183e-01}, {3.375816941e-01, -5.358171463e-01, -1.565518379e-01, 3.393237293e-02, 1.525970548e-01, 1.973569989e-01, 1.579306573e-01, -2.299687415e-01, -1.164658591e-01, 3.645165823e-03, 4.415997304e-03, -1.249552798e-02, 7.375238091e-02, -6.129747629e-02, 1.659982279e-02, 3.054672270e-04, 6.734557450e-02, 5.118645355e-02, 2.424941957e-02}, {-1.214063987e-01, -2.896371782e-01, -1.301818043e-01, 5.208883807e-02, -6.657644641e-03, -1.082051024e-01, -4.335069060e-01, -2.536814511e-01, 6.416711956e-02, -9.205757640e-03, -1.310824603e-01, 1.475618035e-01, -1.692596078e-01, -2.244105935e-01, 1.027291939e-01, -1.656751335e-01, -2.597727999e-02, -1.733645201e-01, 9.990426898e-02}, {-2.283759788e-02, 4.438655376e-01, 2.435244918e-01, -1.045331359e-01, -2.828426659e-01, -2.814663202e-02, -4.640863463e-02, -1.788765192e-02, 8.105391264e-02, 1.553870589e-01, 6.220322847e-02, -9.553071111e-02, 1.069882587e-01, -3.019980192e-01, -1.404964626e-01, 1.910456270e-01, 1.128998622e-01, -7.046724670e-03, -3.094441816e-02}, {1.100629121e-01, 3.736125678e-02, -2.637207210e-01, -4.736388847e-02, 1.407331824e-01, 1.851358712e-01, 2.189677060e-01, -3.327814490e-02, 1.903323084e-01, -3.472295403e-01, 6.720571220e-02, -5.920353811e-03, 2.660154104e-01, 2.128273100e-01, 4.385434091e-02, -2.026039362e-01, -1.343086362e-01, -1.025858372e-01, 1.187843010e-01}, {7.649629563e-02, -3.912518024e-01, 7.726561278e-02, -3.056243621e-02, 2.771757245e-01, 7.482139766e-02, 2.072770000e-01, -1.484212577e-01, -8.186339587e-02, 3.027661517e-02, 2.294634134e-01, 1.377019100e-02, -4.331587255e-01, -2.700936496e-01, 1.417157352e-01, 2.182827741e-01, -5.185140297e-02, -1.354634166e-01, 2.882551774e-02}, {2.577998936e-01, -2.829991095e-02, 1.557844281e-01, -3.079710603e-01, -1.638593227e-01, -1.696271151e-01, -3.828739822e-01, -2.268071771e-01, 4.621923566e-01, -1.126277968e-01, 7.714006305e-02, -2.188027836e-02, 7.870287634e-03, 3.545413539e-02, 8.100695908e-02, -1.742523164e-02, -3.905950859e-02, -5.164529383e-02, -6.825436652e-02}, {-2.057522088e-01, 2.116019279e-01, 3.157618642e-01, 1.391090751e-01, -1.409908235e-01, -2.136573344e-01, 3.021380901e-01, 1.826083511e-01, -2.109812945e-01, -6.249499694e-02, -3.851512820e-02, -1.120055020e-01, -1.489044726e-01, -1.508205086e-01, 9.524099529e-02, 1.731685363e-02, -2.329936624e-02, -4.742058739e-02, -5.903068930e-02}, {-1.304707676e-01, -3.835164756e-02, 4.905140027e-02, 3.165191412e-01, -1.023205146e-01, -1.380190849e-01, -3.712151349e-01, -3.003046513e-01, -2.780114114e-01, -4.666091502e-02, -2.997872531e-01, 2.953078412e-02, -1.131712124e-01, -4.500779882e-02, -4.244658723e-02, -7.738603652e-02, 8.184118569e-02, -7.040759921e-02, 1.158203580e-03}, {-1.326114032e-02, 5.100108981e-01, -9.136820585e-02, 6.984486431e-02, -4.500302970e-01, -4.397724196e-02, -4.118776619e-01, 5.737567320e-02, -3.169514611e-02, 1.170838475e-01, -1.407763958e-01, -1.989294589e-01, -1.976044616e-03, -6.287121028e-02, 5.615615845e-02, 1.761466265e-01, 3.037059866e-02, -7.091283053e-02, -1.320451777e-02}, {-1.148771867e-01, -6.770758331e-02, -2.034794986e-01, 1.205719560e-01, -1.603080332e-02, 2.034058720e-01, -1.398060471e-01, -1.046773791e-01, -3.989223763e-02, 3.741219044e-01, -3.240870535e-01, -1.904088855e-01, 8.438652754e-02, -1.391305625e-01, -1.288826857e-02, 2.574529499e-03, 7.312212139e-02, -7.617302239e-02, -4.357099067e-03}, {-4.883678630e-02, 2.588819861e-01, 5.910707712e-01, 1.560685784e-01, -4.159548879e-01, -4.932878911e-01, -2.387833744e-01, -2.978418171e-01, -6.014250591e-02, -2.763992921e-02, -7.634951919e-02, -8.398499340e-02, 9.272205830e-02, 2.958989702e-02, -5.826456845e-02, 1.142964810e-01, 4.182010889e-02, -9.622553736e-02, 1.077640988e-02}, {1.014202684e-01, -1.048304792e-02, -1.173987761e-01, -6.175025553e-02, -5.099313334e-02, 1.406652629e-01, -1.109099165e-01, -1.215284877e-02, -8.928143419e-03, -1.069269725e-03, -2.239257842e-02, 3.896625014e-03, 5.657221377e-02, 2.404143661e-01, 2.666589022e-01, 1.337715387e-01, 2.816009894e-02, 3.785917535e-02, 3.070057184e-02}, {-2.849600613e-01, 5.382454395e-01, 5.153374672e-01, 2.332202494e-01, -4.436329901e-01, -2.800414562e-01, -2.371841073e-01, -8.918309212e-02, 9.528343379e-02, 1.988234557e-02, -5.108739063e-02, 2.075674236e-01, -8.320503682e-02, -1.745145321e-01, -8.669198304e-02, 4.329293966e-02, 7.752378006e-03, 1.074638441e-01, -3.175335750e-02}, {5.258139372e-01, 2.068618238e-01, -1.525430530e-01, -2.358804792e-01, -2.840987742e-01, 1.495044529e-01, -2.031225562e-01, 2.721630335e-01, -1.186959818e-01, -1.952744871e-01, 4.070617259e-01, -1.351342201e-01, -2.334776334e-02, 3.409177065e-02, -7.134902477e-02, -1.805620342e-01, -7.576680183e-02, 1.836071312e-01, -4.810629785e-02}, {-2.510168552e-01, -4.184856713e-01, -4.358793497e-01, 1.057927683e-01, 1.667341031e-02, 1.653607786e-01, 3.539344668e-02, -2.116857171e-01, -8.640718460e-02, 1.351687312e-01, -1.361238658e-01, 1.881662011e-02, -2.607637458e-02, -1.215248927e-01, 9.981286526e-02, -3.764888272e-02, 9.749290347e-02, -9.937772900e-02, 6.237459928e-02}, {7.582924515e-02, 1.442777216e-01, -1.209171936e-01, 7.570962608e-02, -1.060554665e-02, 2.181934714e-01, 4.272797145e-03, 3.457887098e-02, -1.301566958e-01, -7.598648965e-02, -8.100762218e-02, -1.703886539e-01, 2.575401068e-01, 1.261180937e-01, -2.090307921e-01, 5.604538694e-02, 2.180228475e-03, 7.208269835e-02, -4.451134708e-03}, {-1.228247285e-01, -9.280245006e-02, 2.349234819e-01, 2.115889192e-01, 2.645089030e-01, -3.153961599e-01, -7.547133137e-04, -2.413979024e-01, -5.356259644e-02, -4.796643853e-01, 1.100596637e-01, 3.424909413e-01, 2.093717903e-01, -7.242018729e-02, -1.120440215e-01, 9.559015185e-02, 8.672746271e-02, 4.425297305e-02, -2.568108402e-02}, {1.102866381e-01, -3.645098209e-02, -1.857984662e-01, -8.083675802e-02, -1.600979716e-01, 3.983663395e-02, -4.117306173e-01, 3.302507699e-01, -4.829423726e-01, -1.930019259e-01, 1.514428258e-01, 1.818123311e-01, 5.588411912e-02, 6.873070449e-02, -7.289224118e-02, 4.544768110e-02, -2.568355575e-02, 3.529895842e-02, -4.522595555e-02}, {-3.371352553e-01, -3.901953623e-02, -4.505404085e-02, 1.127543002e-01, 7.516369224e-02, -2.272975817e-02, -6.146803126e-02, -1.704402454e-02, 3.686585128e-01, -1.126062497e-01, -2.245659679e-01, 1.003079712e-01, -4.731351435e-01, -2.311704606e-01, 2.031647116e-01, 2.207527459e-01, -1.386127155e-02, -1.046806425e-01, 6.990861893e-02}, {-2.079277188e-01, 5.955544859e-02, -3.601941466e-02, -3.321021795e-02, 4.962972701e-01, -3.939152658e-01, 8.716091514e-02, -3.513419926e-01, 3.551364839e-01, 5.587664619e-02, -1.361369640e-01, -2.627798021e-01, 8.445952833e-02, -1.371392142e-02, 3.718311200e-03, -3.350358689e-03, 6.557176262e-02, 1.795795374e-02, -2.478540689e-02}, {-1.552007049e-01, 1.735334843e-02, 6.245912984e-02, 6.625141948e-02, 1.435197741e-01, -1.068207398e-01, 1.036470607e-01, -9.839950502e-02, 1.652187407e-01, -2.449994683e-01, -9.355018288e-02, 9.695620835e-02, 4.290290177e-01, -5.535283089e-01, 1.288090348e-01, -2.284411490e-01, -3.092597425e-01, -1.438673120e-02, 1.158260629e-01}, {-1.618156433e-01, 1.097601056e-01, 5.450358242e-02, 3.129032850e-01, -4.319395497e-02, -1.906397492e-01, 1.737367064e-01, -1.589435637e-01, 4.248496592e-01, -1.265686303e-01, 1.170040011e+00, 1.313829271e-04, -1.711593270e-01, -1.625915319e-01, 9.515719861e-02, 5.178746209e-02, -2.581901615e-03, -8.670035750e-02, 9.223903529e-03}, {-1.795506477e-01, 5.770323798e-02, -7.600142062e-02, -1.262564957e-01, 8.404064924e-02, -1.802290827e-01, -3.442089073e-03, 1.834465414e-01, -1.213080958e-01, -1.429338753e-01, -1.196979638e-02, -1.178163812e-01, 3.413830400e-01, -1.854417324e-01, 2.995783463e-02, 6.464200467e-02, -4.277224839e-02, -1.173352748e-01, 5.067870766e-02}, {3.186660707e-01, 3.000541031e-01, 3.265603781e-01, 1.930530556e-02, -1.897793859e-01, -4.158734977e-01, 4.753517210e-01, -2.880952060e-01, 1.951612383e-01, 1.401751069e-03, -4.682051763e-02, -1.345572323e-01, -1.104267463e-01, -2.422561124e-02, -2.409779280e-02, 6.354693323e-03, 1.094782278e-01, 7.557390630e-02, 5.904505029e-03}, {-2.378890365e-01, -3.847914040e-01, -6.229860783e-01, 1.777061969e-01, 2.002795935e-01, 2.323980331e-01, -9.950968623e-02, 2.858047560e-02, -1.818777993e-02, -3.928629681e-02, -3.263057396e-02, -5.859407037e-02, 5.818523839e-02, 1.896309853e-02, 1.188071619e-04, 5.932341516e-02, -2.070714347e-02, 1.391340885e-02, -1.479865145e-02}, {5.521410331e-02, 2.552910745e-01, 4.959994853e-01, 6.544343382e-02, -4.774713814e-01, -3.056093752e-01, 2.937006950e-02, -2.056328207e-01, -2.252794951e-01, -6.529618055e-02, 3.038890101e-02, -3.352055326e-02, -1.703078002e-01, 6.332843006e-02, 2.618253231e-01, -7.879063487e-02, -1.094770283e-01, -9.964294732e-02, -5.998132750e-02}, {2.390417457e-01, -3.855447173e-01, -8.384295553e-02, -2.306053638e-01, 1.742833704e-01, 1.266155392e-01, 3.741365373e-01, -9.232827276e-02, -1.527985632e-01, 2.738668323e-01, -2.028646469e-01, 6.380706280e-02, 3.770563751e-02, -2.188570946e-01, -1.322558224e-01, 3.774735332e-02, 1.752041131e-01, -2.133934796e-01, 3.032371961e-02}, {-1.267020553e-01, -2.864867449e-02, -2.012304515e-01, -1.122518331e-01, 2.262990624e-01, 3.308319449e-01, -4.504182041e-01, 1.418948174e-01, -4.085912406e-01, -7.267504185e-02, 1.115093380e-01, -1.227029562e-01, 6.157530099e-02, 1.086794958e-01, 2.567519993e-02, -1.199702397e-01, 4.266328178e-03, -3.327218816e-03, -1.027564146e-02}, {4.637287557e-01, -5.976590142e-02, -7.582384348e-02, -3.961029649e-01, 1.644388027e-02, 2.489460558e-01, -7.356650382e-02, 1.322928369e-01, 2.373090573e-02, -2.452747822e-01, -1.233719066e-01, -2.849853933e-01, 3.033952601e-02, 1.977005452e-01, -1.085785124e-02, -1.157264337e-01, -6.878770888e-02, -2.271718532e-02, 3.955977783e-02}, {-4.853214025e-01, -4.831493273e-02, 1.605017781e-01, -1.018892676e-01, 3.614058793e-01, -4.811904207e-02, -9.850758314e-02, 1.928388774e-01, 2.381232679e-01, 3.042315543e-01, 5.418222547e-01, 9.144674242e-02, 1.059660465e-01, 1.015903130e-01, 1.928082854e-02, 7.869877666e-02, 5.663892254e-02, 5.454360321e-02, -5.619569495e-02}, {-1.371259242e-01, 3.100268915e-02, -7.789397240e-02, 8.100755513e-02, -2.060381770e-01, 6.648705900e-02, -4.362016618e-01, -1.787732244e-01, -2.422832251e-01, -4.365325868e-01, -4.829627275e-01, -3.660570085e-02, -5.559861287e-02, -2.623411268e-02, 1.121287420e-01, 4.187062755e-02, -1.161534339e-01, -1.667187661e-01, -1.352016814e-02}, {-2.192285210e-01, 5.548546910e-01, 4.656380415e-01, 1.374208182e-01, -2.906599045e-01, -1.053153723e-01, 3.421408683e-02, -4.653550386e-01, -8.068688214e-02, 4.104597867e-02, -8.169125021e-02, -1.102957428e-01, 9.142256342e-03, 2.862199582e-02, 1.083816588e-01, -1.594879664e-02, 1.323075593e-02, -2.336430922e-02, -4.014128447e-02}, {-8.381543308e-02, 3.708170056e-01, -1.376363188e-01, 8.278682828e-02, -4.203147888e-01, 1.157029793e-01, -2.207258642e-01, -1.107489597e-02, 4.717657715e-02, -2.474789917e-01, 1.393589824e-01, 1.006571501e-01, 4.693683982e-02, -1.352208108e-01, 3.949311003e-02, 1.145353839e-01, -5.190562457e-02, 2.433186863e-03, -4.349827021e-02}, {-2.417792678e-01, -3.846378922e-01, 1.628819108e-01, 1.495494246e-01, 3.559193313e-01, 7.914450765e-02, 9.680154175e-02, -1.092175543e-01, 1.125632599e-01, -3.201231360e-01, -2.800782025e-01, 3.360223398e-02, 7.775636762e-02, 4.362089559e-03, -2.854461372e-01, -1.471634139e-03, 3.279128298e-02, 1.735071093e-01, 5.242880806e-02}, {1.939106360e-02, -4.654861391e-01, 1.239305269e-02, 2.210643440e-01, 2.334867269e-01, 1.965631098e-01, -1.021943763e-01, -9.273113683e-03, 3.065796196e-01, -2.464545816e-01, 1.389881968e-01, 1.207237542e-01, -1.489812583e-01, 1.987542361e-01, 8.165778220e-02, -2.304916382e-01, -1.120648831e-01, -9.237033315e-03, 6.917347759e-02}, {-3.771434426e-01, -1.992392726e-02, -3.436741978e-02, 3.905857801e-01, -5.893985629e-01, -2.142041326e-01, -2.796479128e-02, 1.581094861e-01, -3.562296927e-01, 2.660023049e-02, 6.329999119e-02, 1.168026701e-01, -1.354027889e-03, 9.495110810e-02, -1.547118463e-02, -2.792702056e-02, 2.472471818e-02, 6.883876864e-03, 1.617581025e-02}, {4.176448286e-01, 4.572252631e-01, 1.107156500e-01, -1.768079400e-01, -3.078655601e-01, 2.424596846e-01, -2.782390416e-01, -3.478591740e-01, -1.223078370e-01, 1.846559346e-02, 6.419298798e-02, 7.106750458e-02, -5.593935028e-02, 7.089044433e-03, -4.150385037e-03, -5.223233998e-02, 2.514870279e-02, -1.596559212e-02, -1.076785941e-02}, {5.882912278e-01, -1.075461432e-01, 3.112324178e-01, -3.399904668e-01, 2.131633610e-01, -8.308185637e-02, 3.799406886e-01, 2.473434061e-02, -3.862911463e-01, -1.639865637e-01, 1.115984991e-01, 2.527028322e-02, 1.258972567e-02, -9.066463262e-02, -2.119414695e-02, 7.262828201e-02, 2.168383822e-02, 1.779030636e-02, -2.339646406e-02}, {4.316588640e-01, -1.260965914e-01, -3.651820719e-01, -1.593791991e-01, 3.592387214e-02, 2.912229896e-01, -1.317255348e-01, 1.545157284e-01, -1.807169765e-01, 1.531343907e-01, 1.367651820e-01, 1.416718066e-01, -1.954791695e-02, -1.775105596e-01, -5.381815135e-02, -6.278577447e-02, -1.091721207e-01, 9.336221218e-02, 8.288303018e-02}, {3.237084448e-01, 2.341171950e-01, 1.715783775e-01, 1.294192225e-01, -3.477948904e-01, 1.611729860e-01, 2.140817195e-01, 1.352798790e-01, 6.193679571e-01, 2.237478495e-01, 2.036255598e-01, 1.234614328e-01, 4.141168892e-01, 1.504909098e-01, -1.457059830e-01, 1.859390468e-04, 7.083938271e-02, 8.467453718e-02, 2.659474127e-02}, {-4.367823303e-01, 6.550672650e-01, 1.117762849e-01, 3.409471214e-01, -2.752449214e-01, 6.270302087e-02, 2.275998294e-01, -3.498885781e-02, -2.584288120e-01, 3.037748858e-03, 7.421118021e-02, -1.611480676e-02, -2.633190528e-02, 6.003095582e-02, -2.307251282e-02, -1.673005894e-02, -2.405067161e-02, 1.673519984e-02, 6.220119447e-02}, {-7.444361597e-02, 3.233853728e-02, 4.073331654e-01, 3.674930632e-01, -2.365430892e-01, -3.649665713e-01, -3.775230646e-01, -5.312779546e-01, -6.204691157e-02, -1.392302066e-01, -1.455964148e-01, -4.696847871e-02, -1.579393595e-01, 1.281697750e-01, 2.098947316e-01, -9.074975550e-02, -1.456666887e-01, -1.758037321e-02, -1.124984352e-03}, {-4.416634142e-01, -3.512150943e-01, 5.229034424e-01, 1.590052545e-01, -4.242165387e-02, -1.238124073e-01, -9.037322551e-02, 1.072227284e-01, -4.085958377e-02, -5.255887285e-02, 7.926906645e-02, -3.585439175e-02, 5.524622276e-02, 3.666420281e-02, -2.735991031e-02, -9.808687866e-02, 1.172357239e-02, 3.791776299e-02, -3.126931190e-02}, {5.179684758e-01, 4.999993742e-02, 4.285757244e-01, -4.374121726e-01, -1.739066690e-01, -2.895297408e-01, 4.431277141e-02, 2.830798924e-01, -2.632122338e-01, -2.944959328e-03, 3.668477386e-02, -4.407971352e-02, 3.386055306e-02, 3.037012555e-02, -4.407269508e-02, 6.586616486e-02, 1.770655508e-03, 5.573575944e-02, 3.969110548e-02}, {1.637181938e-01, -1.711057685e-02, -8.446514606e-02, -6.628811359e-02, -1.527044326e-01, 1.119334102e-01, -1.058750674e-01, 9.730450064e-02, -1.723766774e-01, 2.503994405e-01, 9.961729497e-02, -9.421001375e-02, -4.300402701e-01, 5.673956871e-01, -1.486152261e-01, 2.404626757e-01, 3.222831190e-01, 1.683025621e-02, -1.253371835e-01}, {1.565701212e-03, 8.591867983e-02, 7.919800878e-01, 2.708805911e-02, -1.249485742e-02, -4.822364450e-01, -6.523073465e-02, 5.178492516e-02, -8.644063957e-03, -5.644199625e-02, -1.385587733e-02, -5.346027762e-02, 3.014403163e-03, 3.112376668e-02, 1.889830455e-02, 6.180132553e-02, -7.898360491e-03, 2.158191986e-02, 2.001881599e-02}, {-1.464861482e-01, -1.838454306e-01, -8.060201257e-02, 4.590484798e-01, -1.009003371e-01, -2.558039501e-03, -8.315587044e-02, -1.914180517e-01, -1.408432126e-01, 1.623183638e-01, 1.050003543e-01, -2.740574814e-02, 4.307013005e-02, 1.011443660e-01, -2.427704819e-02, 9.112014621e-02, -1.457756199e-02, 2.421257645e-01, 1.900866441e-02}, {4.262468219e-01, 4.610553682e-01, -4.569561779e-01, -1.739626527e-01, -1.339721978e-01, 5.973308533e-02, 6.375265121e-02, 3.705707612e-03, -3.328443766e-01, 2.036483884e-01, -3.269417444e-03, 1.378847938e-02, 6.824113429e-02, -4.766261205e-02, -1.065180227e-01, 4.162179679e-02, 1.240526512e-01, -1.374481153e-02, 4.795662686e-02}, {1.254876554e-01, 7.947912812e-02, -7.918890333e-05, 1.897907350e-03, -2.760483921e-01, -4.077846929e-02, -1.079238057e-01, 2.419762462e-01, -2.083323002e-01, -1.549800485e-01, -1.367884129e-01, 5.234790221e-02, 3.442220986e-01, 2.899798453e-01, -1.840850711e-01, -2.149437964e-01, 1.290625613e-02, 1.647953689e-01, -3.359953989e-04}, {1.118770614e-01, 1.598262787e-01, 1.602175534e-01, 5.193598196e-02, -2.069321275e-01, 5.737786889e-01, 5.438813940e-02, 2.186562680e-02, -1.892899424e-01, -1.109898388e-01, 1.636677235e-01, -6.434228271e-02, 1.212828606e-01, 2.800260782e-01, -9.395691007e-02, -1.911595613e-01, -7.489261776e-02, 1.732369810e-01, 3.856361285e-02}, {3.826264739e-01, -1.786659658e-02, -1.747217625e-01, -2.031993568e-01, 2.499485202e-02, -6.472634524e-02, -5.541385412e-01, -2.808338702e-01, -1.812383235e-01, -3.427691385e-02, -9.534065425e-02, -5.903059244e-02, -1.178870425e-01, -3.897838667e-02, 1.100715026e-01, -1.513274107e-02, -1.083497657e-03, -3.244184330e-02, 4.034916405e-03}, {3.108155169e-02, -3.199751079e-01, 4.060018361e-01, 7.153673470e-02, 8.817686886e-02, -7.696609199e-02, -7.173116505e-02, -2.528629638e-02, -1.641420722e-01, 6.342860311e-02, 1.681349054e-02, 1.659864374e-02, -6.559959054e-02, 1.575403810e-01, -1.295580268e-01, -1.015203372e-01, -2.813148021e-04, 5.046194419e-02, 1.957769133e-02}, {-3.155306578e-01, 5.114606023e-01, -2.746990621e-01, 9.809494019e-02, -4.918328226e-01, 1.090902910e-01, -3.487184048e-01, 1.756484248e-02, -2.232306264e-02, 8.683628589e-02, 1.678039879e-01, 1.145179104e-02, 2.670539171e-02, 1.609168798e-01, -3.851273563e-03, -1.319808047e-02, -2.945800126e-02, 4.325127974e-02, 4.865615070e-02}, {4.329463467e-02, -4.315359294e-01, -1.414458752e-01, -4.485771805e-02, 2.678446770e-01, 1.281089634e-01, 6.999050081e-02, -8.095522225e-02, -3.201819062e-01, 1.360729635e-01, 4.607498646e-02, -1.394526362e-01, -1.746856272e-01, 5.213590711e-02, -9.722138941e-02, 1.488382667e-01, 4.795144312e-03, 6.168286502e-02, -1.354869306e-01}, {-1.835162640e-01, -1.161110401e-02, -8.345800638e-02, -1.332107037e-01, 2.483391911e-01, 3.065162301e-01, 7.058265805e-02, -9.600159526e-02, -1.943323389e-02, 6.078432202e-01, 3.623520583e-02, 1.592421532e-01, -2.821352184e-01, 1.379348803e-02, 2.043928206e-01, -4.836743325e-02, -1.308425367e-01, -8.076214045e-02, 3.742697462e-02}, {-1.264774650e-01, -4.010162055e-01, 1.615841687e-01, 1.366762351e-02, 2.551147155e-02, -1.952057630e-01, -4.580782652e-01, 5.590788648e-02, 2.429886460e-01, 5.379065871e-02, -4.856094345e-02, 3.872621432e-02, 6.681973487e-02, 3.689729795e-02, 2.258083411e-02, -1.241113022e-01, 1.170266420e-02, 1.479244512e-02, -2.732481249e-02}, {-1.563879400e-01, 4.312886596e-01, -2.059062272e-01, 1.689141616e-02, -3.628905714e-01, 1.840336323e-01, -1.803457737e-01, 3.406056389e-02, 2.835639417e-01, -1.774666309e-01, 3.192732343e-03, 1.149712354e-01, -3.400403857e-01, 2.362252921e-01, -6.665113568e-02, -2.511053979e-01, -8.304456621e-02, 3.375714272e-02, 3.944955394e-02}, {-3.997456655e-02, -1.967338622e-01, 4.349812865e-01, 9.402538836e-02, -1.290542036e-01, -1.367857605e-01, -2.359457463e-01, -5.165431499e-01, 4.617583454e-01, -4.511583596e-02, -1.146876737e-01, 1.056295335e-01, -3.129979596e-02, 9.635385126e-03, 3.756975755e-02, 1.117572933e-01, 9.331125766e-03, -5.419950560e-02, 2.253809944e-02}, {1.853349954e-01, -3.277683258e-02, -2.191712707e-01, 4.282725975e-02, -3.727287427e-02, 2.585625947e-01, 4.237296805e-02, 5.591901392e-02, -8.049197495e-02, -1.979157329e-01, 2.110544294e-01, -7.173962891e-02, 1.920311302e-01, -1.215022728e-01, -1.300302148e-02, 4.413817227e-01, -8.595490456e-02, 1.245369092e-01, -1.262075752e-01}, {-5.938231945e-01, 4.890400916e-02, 1.950058043e-01, 4.249364436e-01, 2.327019870e-01, -7.593690604e-02, -2.941665947e-01, 2.590959072e-01, -1.085574478e-01, -6.763681769e-02, 1.143521909e-02, -1.599097252e-01, 6.684765685e-03, 5.924380850e-03, -7.327092439e-02, 5.782892928e-03, -3.068380989e-02, 7.183775306e-02, -3.394348174e-02}, {-1.947156340e-01, -2.177030444e-01, -1.136556342e-01, -1.325890422e-01, 1.765187979e-01, -1.292911619e-01, -8.424776047e-02, 3.223332167e-01, 1.877100170e-01, 6.011782587e-02, 1.431553811e-01, 1.650825590e-01, -2.416433766e-02, -2.640125714e-02, 1.161047965e-01, -2.199093699e-01, -2.595837042e-02, -4.485153407e-02, 7.854606956e-02}, {3.737483323e-01, -1.491985768e-01, 1.735077649e-01, -1.949553937e-01, 1.341166347e-01, -1.592189372e-01, 3.057524860e-01, -5.009920597e-01, 1.403856874e-01, 8.235206455e-02, 1.160789058e-01, 6.921494007e-02, 1.011090539e-02, -1.656906754e-01, -1.477534920e-01, 2.591413818e-02, 2.771152370e-02, 6.824996322e-02, 2.917659469e-02}, {-2.118334025e-01, 1.485629082e-01, -3.142429888e-01, 1.319563389e-01, -1.559889223e-02, 1.614805013e-01, -1.433230340e-01, -4.831762612e-02, 2.850246429e-02, -1.061702520e-01, -1.263021082e-01, 2.769300342e-02, 1.784708798e-01, -2.936660051e-01, 2.591983974e-01, -1.272833645e-01, 3.710358962e-02, -6.435316056e-02, -1.912757307e-01}, {-6.798756719e-01, -1.851630062e-01, -2.007414401e-01, 8.810514957e-02, -1.336038020e-02, 4.011560082e-01, -1.911509484e-01, 1.818411238e-02, 1.607573032e-01, -5.011306703e-02, -4.682757705e-02, -9.578964859e-02, 7.440064102e-02, 1.702158898e-02, 9.291401505e-02, -2.125911601e-02, -6.534478068e-02, 3.107485734e-02, -7.716014981e-02}, {1.221069023e-01, -9.381976724e-02, -4.663129896e-02, -6.475821137e-02, 2.738071382e-01, 2.914693058e-01, 2.073644195e-03, -4.031884670e-02, -1.301329136e-01, -1.672564596e-01, -8.898535743e-03, -1.408330202e-01, 3.819978610e-02, 5.086780787e-01, 1.285854131e-01, -8.970995992e-02, -9.256918728e-02, 7.680630684e-02, -1.716486663e-01}, {1.418090891e-02, 1.519965082e-01, 2.282104790e-01, -6.824250333e-03, -2.773542702e-01, -1.300442070e-01, -6.638249159e-01, -1.265504509e-01, -9.688197076e-02, -2.370591909e-01, 1.129434705e-01, 7.826602459e-02, 1.610958017e-02, 1.732080132e-01, 4.201343283e-02, -5.839375779e-02, -7.034299523e-02, 4.597460106e-02, 1.307532340e-01}};

const float bias_in[NUM_NODES] = {-4.647158086e-01, 8.931571990e-02, -3.356461823e-01, 3.165766895e-01, 6.923878938e-02, 5.050763488e-01, 1.977418363e-01, -2.440327555e-01, 1.830505878e-01, 1.377244890e-01, 7.776598632e-02, -3.901346326e-01, -3.256234825e-01, -3.867551684e-03, -5.955483317e-01, -3.620682359e-01, 2.392532825e-01, -5.421049148e-02, 2.669468522e-01, -4.486078024e-01, 2.444124371e-01, -1.810961366e-01, -6.780048013e-01, 3.642687798e-01, 2.956750095e-01, 4.087723792e-01, 1.008367464e-01, -5.820168853e-01, -1.585142016e-01, -5.737022758e-01, 2.487880141e-01, 3.007030487e-01, 7.581282407e-02, -3.394792080e-01, -5.455099940e-01, -6.225989461e-01, 1.294198334e-01, 2.211000919e-01, -5.151458383e-01, -1.389101744e-01, -1.134126931e-01, -1.276466548e-01, 2.211061493e-02, -4.809605777e-01, 8.108082414e-01, 8.013619483e-02, -6.563599110e-01, -4.137953520e-01, 3.615274793e-03, 8.017151058e-02, -2.664082050e-01, -3.838258386e-01, -6.937260032e-01, -3.596372604e-01, 6.560840607e-01, -3.739074990e-02, 2.864747681e-02, 7.106229663e-02, -1.398641169e-01, -8.333768249e-01, -1.179627031e-01, 5.866971016e-01, -3.139066100e-01, 7.959066331e-02, -1.818003654e-01, 5.324637890e-01, -1.342819184e-01, 1.439621747e-01, 3.098068237e-01, 4.910865426e-01, -2.139806747e-01, -4.131563306e-01, 1.506049335e-01, -3.258488178e-01, -6.357365102e-02, -2.272757292e-01, -3.789414763e-01, 1.787818819e-01, 6.723943353e-01, 5.011565685e-01, 1.850446500e-02, 7.884405553e-02, -7.469493747e-01, -7.216292024e-01, 2.999890149e-01, -1.666199565e-01, 7.574730515e-01, -6.902660131e-01, -6.685798168e-01, 2.003368884e-01, 1.034380868e-01, -5.212190151e-01, 6.020450592e-01, -3.040020466e-01, -1.436094046e-01, -3.336785734e-02, 3.077664971e-01, -2.366846204e-01, 7.186498493e-02, 2.139456421e-01, 1.920132339e-01, -8.361050487e-01, 4.039823264e-02, -2.396177314e-02, -8.981612921e-01, 2.116711885e-01, 4.878367782e-01, 8.299039006e-01, -1.756295562e-01, -4.565450549e-01, 4.528408349e-01, 1.103598475e-01, -2.569801807e-01, -2.880176306e-01, -3.256532252e-01, 2.288516425e-02, 2.773962617e-01, -1.768041402e-02, -8.992842436e-01, 1.338870674e-01};

const float weights_out[NUM_CONTROLS][NUM_NODES] = {{-2.224100940e-02, -1.243140176e-02, 1.163227856e-02, -7.088502496e-02, -9.553760290e-02, -1.132640522e-02, 6.396659883e-04, 6.394921988e-02, -1.423364226e-02, -6.043841597e-03, 2.970978245e-02, 6.167206541e-02, -1.092894301e-01, 3.479962423e-02, -8.271402330e-04, -1.253543049e-02, 4.423144087e-02, 8.581637591e-02, 4.311845172e-03, 4.477762058e-02, 4.231032729e-02, -1.020660773e-01, -1.613063179e-02, 5.181430653e-02, -1.359888469e-03, 8.514919281e-01, -1.021987721e-01, -1.402814407e-02, -1.073621865e-02, -6.241222844e-02, -5.695030093e-02, -9.211381897e-03, 1.786872628e-03, 2.649242803e-02, 1.913242601e-02, -6.309761852e-02, -1.369083021e-02, 5.984973907e-02, -2.400959469e-02, -1.621487550e-02, 1.854943782e-01, -1.060079858e-01, 1.540298457e-03, -7.940072566e-03, -5.847896100e-04, 1.074208841e-01, -3.172437102e-02, 5.109511316e-02, -5.221197009e-02, 9.078958631e-02, 1.288497597e-01, -6.979313213e-03, 1.624294184e-02, -1.316415966e-01, -2.747065946e-02, -5.116846040e-02, -6.496507674e-03, -1.705437899e-02, 4.574993625e-02, 5.501142889e-02, -8.689262718e-02, 2.281260490e-02, 9.059318341e-03, -6.276839413e-04, -1.513958164e-02, -7.952818274e-01, -1.369433552e-01, -3.205430806e-01, 1.535083819e-02, -5.659315269e-03, 3.595316410e-02, -2.674442017e-03, 6.496606022e-02, -2.968026511e-02, -1.647092588e-02, -5.434149504e-02, -1.910233125e-02, -1.613433100e-02, -6.989011914e-02, 1.162418425e-01, -1.242072415e-02, -4.295761883e-02, -1.625966877e-01, 2.172841923e-03, 7.481780648e-02, 2.663767710e-02, -1.891610026e-02, 7.547339052e-02, -1.953812502e-02, 8.975422382e-02, -1.079965732e-03, 2.270716429e-01, 2.260821871e-02, 5.618230999e-02, -8.267414570e-02, 1.053444296e-02, 3.489808738e-02, 1.918930002e-02, -2.930327551e-03, -1.290041208e-02, -3.226589411e-02, 6.884674728e-02, -1.326966286e-01, -3.440562403e-03, 4.606730118e-02, -1.537932605e-01, -6.937536597e-02, 1.043370441e-01, -9.177234024e-03, 9.599409997e-03, -1.156678703e-02, -6.331178360e-03, 4.669146985e-02, -6.126307417e-03, -3.348324448e-02, 2.914577536e-02, -3.147440851e-01, -1.167624537e-02, -8.964003921e-01, -5.901158229e-02}, {5.795020238e-02, 2.889525378e-03, -7.527695596e-02, -1.676752977e-02, -4.430996999e-02, 1.081698388e-02, 1.763966233e-01, 9.551638365e-02, -1.127505861e-02, -3.540108353e-02, 2.908684872e-02, -2.892863937e-02, 9.348133951e-02, 1.870636456e-02, -1.412786194e-03, -1.388805658e-01, 4.016783088e-03, 3.706894517e-01, -2.817521691e-01, 4.394481331e-02, 5.178505927e-02, -3.129349090e-03, 2.785413526e-02, 1.955289021e-02, -3.105964884e-02, -3.590798937e-03, 3.002061509e-02, -1.495160535e-02, 3.500305861e-02, -9.829931706e-02, -6.295196712e-02, -5.539168604e-03, -1.929740421e-02, -7.247168571e-02, 8.213142306e-02, -8.291818947e-02, -1.269403938e-02, -3.435652936e-03, -7.204888016e-02, -1.571879722e-02, 4.264727235e-03, 2.773865126e-03, 1.736697078e+00, 7.296790183e-02, -1.100524440e-01, -4.360412434e-02, -1.180614308e-01, -5.695474334e-03, -9.894502163e-02, -1.104366034e-02, 1.117598712e-01, 7.917785645e-02, -5.810971558e-02, -1.473101787e-02, 1.006721929e-01, -2.721089423e-01, -1.217670832e-02, -5.114861205e-02, 5.129186809e-02, -1.009975001e-02, 6.779943407e-02, 3.867794201e-02, -4.780846834e-02, -1.019494653e+00, -5.440065637e-03, -2.961614635e-03, -1.186391190e-01, -2.046747319e-02, 6.417535990e-02, 4.425039515e-02, -1.694612950e-02, 2.094128914e-02, 2.256362885e-02, 4.404639080e-02, -1.757388934e-02, -3.580013523e-03, -3.572685644e-02, -7.243166212e-03, 2.436275035e-02, -1.367435753e-01, 8.885446005e-04, 2.929842286e-02, 1.215946209e-02, 3.306017071e-02, 7.552447729e-03, 3.465248644e-02, 4.221129790e-02, -2.282517776e-02, -1.663324982e-02, 5.837223679e-02, -2.845521830e-02, 1.161425095e-02, 1.744079776e-02, -1.740179211e-02, -9.296324849e-02, 7.226296067e-01, -1.435214728e-01, -3.239411488e-02, 5.744820088e-02, -6.058505923e-02, -1.775819995e-02, -2.943211235e-03, 4.442063626e-03, 3.132200614e-02, 2.660612762e-02, -1.016912516e-03, 2.121572569e-02, -3.351192549e-02, 4.100982472e-02, 5.880611483e-03, 3.660971522e-01, -1.702294126e-02, -3.607018292e-02, -2.280345187e-02, -5.501493067e-02, 4.416855425e-02, -4.681081474e-01, 3.935068380e-03, -6.040595938e-03, -5.585256964e-02}, {-1.164591238e-01, 1.197353601e+00, -3.252444416e-02, -5.263239890e-02, -2.526691533e-04, 6.266716123e-02, -2.594995312e-03, -9.703967720e-03, -6.118294597e-02, -5.855784193e-02, -2.043304034e-02, -5.127264187e-02, 4.106470644e-01, 3.219252080e-02, -1.498716511e-02, -2.512073331e-02, 2.907879651e-02, -6.442385167e-02, 7.001984632e-04, -4.682487925e-04, 4.048212245e-02, 9.316263348e-02, -6.183321774e-02, 4.705306515e-02, -3.619467141e-03, 4.645724403e-05, 3.888494894e-02, -2.051504143e-02, 2.223774977e-02, 9.303720295e-02, -3.757247701e-02, -2.753397217e-03, -8.823812939e-03, 6.598174572e-02, 3.303772211e-02, -7.092956803e-04, -8.170319721e-03, -2.066908218e-02, 9.895748459e-03, -4.495174810e-02, -3.126999363e-02, -6.433929503e-02, 1.182820275e-02, -9.942485951e-03, -3.623400349e-03, 7.215046883e-02, -2.005200833e-02, 2.207374275e-01, 5.065660924e-02, 6.219193712e-02, 8.396659791e-02, 1.073398907e-02, -5.560968071e-02, 1.322886255e-02, -6.759183947e-03, 3.284977749e-02, 1.812067330e-01, 1.931835152e-02, 3.376615047e-02, -4.488877952e-02, 1.304998100e-01, 1.727656275e-02, -8.073740453e-02, -2.371248975e-02, 2.909178659e-02, 1.575305499e-02, 9.728075564e-02, -5.304093473e-03, -6.087063998e-02, 2.397258952e-02, 8.578146808e-03, 5.542364344e-02, 6.969591975e-02, -1.752345450e-02, 5.839183554e-02, -6.136550382e-02, -1.144607924e-02, -3.532041609e-02, -4.247874767e-02, -2.289539874e-01, -8.715539426e-02, -1.804456301e-02, 1.095010281e+00, -9.834888624e-04, 1.872771233e-02, -2.576458268e-02, 6.416552234e-03, -8.536285758e-01, 7.365296036e-02, 1.290351432e-02, 7.611377630e-03, -2.419420145e-02, 2.821044065e-02, 3.999636322e-02, -9.159792215e-02, -1.324872077e-01, 8.149122819e-03, 4.238995723e-03, -1.691035926e-02, 6.171966903e-03, -4.046129063e-02, -3.111461923e-02, 1.773985848e-02, 1.045231372e-01, -8.819279820e-02, -1.607874483e-01, 8.487813920e-02, -1.581233442e-01, -6.132058054e-02, 4.961443599e-03, -1.885859529e-03, -7.728957105e-03, 1.577171125e-02, 5.100694299e-02, -3.099867515e-02, 1.468907762e-02, -2.820746899e-01, -1.242802739e-01, 5.928444490e-02, -8.741597645e-03}, {-5.109935999e-02, -1.523460168e-02, -5.713964254e-02, -1.416221540e-02, -4.572087154e-02, -2.267724089e-02, -6.482260302e-03, 1.155989394e-01, -3.635951085e-03, 1.773149334e-02, 9.854191914e-03, 8.116908371e-03, -9.434308857e-03, 8.416783810e-02, 1.026207507e-01, 1.622524112e-01, -1.910226792e-02, -7.785961032e-02, 4.678825289e-02, -4.574398696e-02, 1.379903592e-02, -9.161175787e-02, -1.909107119e-01, 7.074336708e-02, 9.901091456e-03, 2.136843046e-03, -6.894326955e-02, -3.349285573e-02, 1.741083264e-01, -8.961474150e-02, 7.080558687e-02, 6.196401119e-01, 2.788424306e-02, -1.113285273e-01, 4.294816405e-03, 5.107514188e-02, 4.667391255e-02, 3.047134727e-02, 2.939217351e-02, 1.547782682e-02, -1.065749582e-02, -8.793008327e-02, -3.669850901e-02, -5.116090924e-02, 3.176241647e-03, -4.285040125e-02, -6.571894884e-02, 7.458794862e-03, 7.628651708e-02, -8.507791907e-02, 5.049337447e-02, -1.562708020e-01, -4.783836380e-02, -1.085916720e-02, 4.339731112e-02, 1.208309010e-01, 1.453595236e-02, -4.028800130e-02, 2.753889561e-02, 1.480692625e-02, 2.860791422e-02, 9.448745102e-02, -7.275292650e-03, 3.919408098e-02, -4.212507978e-03, 4.685933236e-03, -1.043925621e-02, -6.203848124e-02, -2.038287371e-02, 3.214256465e-02, -2.675400116e-02, 3.016372398e-02, 4.361412674e-02, 3.078882769e-02, -1.114632352e-03, 1.505304687e-02, 4.588822369e-03, 2.777572908e-02, 5.625409260e-02, 1.588532003e-03, 3.563595936e-02, 3.349194303e-02, -2.006424218e-02, 2.190597802e-01, -4.660636932e-02, -2.709387988e-02, 3.754966427e-03, 7.335137110e-03, 2.005691268e-02, 8.660682291e-02, 1.309664100e-01, 6.462248974e-03, -5.153369531e-02, -4.425589461e-03, -5.998346955e-02, -3.494221866e-01, -8.276733756e-02, -2.870853059e-02, -7.873598933e-01, 1.667277701e-02, -9.216548875e-03, -2.715310752e-01, -5.096861161e-03, -1.635569520e-02, 2.677122131e-02, 1.465846971e-02, 6.935524195e-02, 4.544704556e-01, 5.256161839e-02, 1.562220789e-02, 1.919019595e-02, 1.265300363e-01, -5.041079130e-03, -6.079570740e-04, -6.147107854e-02, 8.222053945e-02, -2.694090009e-01, -1.808981039e-02, -2.237722650e-02, -3.113610484e-02}};

const float bias_out[NUM_CONTROLS] = {-1.769825518e-01, 1.600455027e-03, 1.180933639e-01, 4.349702224e-02};

const float in_norm_mean[NUM_STATES] = {1.406552792e+00, -2.220900655e-01, -5.700175166e-01, 2.766958475e+00, -1.021616459e+00, -2.557552457e-01, 1.887733042e-01, -1.436180770e-01, 3.768551648e-01, 8.923721313e-01, 2.870318890e-01, 5.103315711e-01, 7.234059082e+03, 7.711409180e+03, 8.484315430e+03, 8.509792969e+03, 1.045619021e-03, 2.934076474e-04, -7.485544484e-05};

const float in_norm_std[NUM_STATES] = {9.365732670e-01, 1.031749010e+00, 9.482937455e-01, 1.338639379e+00, 1.668405294e+00, 1.232069731e+00, 4.907827377e-01, 3.285350502e-01, 5.012448430e-01, 2.343732357e+00, 2.242748737e+00, 8.384545445e-01, 1.890021118e+03, 1.851930786e+03, 1.443137695e+03, 1.557034302e+03, 2.318379283e-02, 2.296707779e-02, 5.732186604e-03};

const float out_scale_min = 3.000000000e+03;

const float out_scale_max = 1.200000000e+04;

const float weights_hid[NUM_HIDDEN_LAYERS-1][NUM_NODES][NUM_NODES] = {{{-7.662665844e-02, 1.937595662e-03, -6.902843714e-02, 1.919142306e-01, -4.043385386e-01, 1.193834394e-01, -4.452466220e-02, -1.370617747e-01, -4.125685617e-02, 1.688011885e-01, -1.562541425e-01, -6.876943260e-02, 2.514286637e-01, 7.501067221e-02, 4.218429327e-02, -7.780861855e-02, 9.929551929e-02, -4.642054439e-01, -2.452504486e-01, -4.431157722e-04, 1.102384776e-01, -1.713278741e-01, 9.871888161e-02, 3.053962886e-01, 1.008147150e-01, -1.955944300e-02, -6.898935884e-02, -1.097265184e-01, 3.418923020e-01, -1.743046492e-01, -1.770667583e-01, 1.378400922e-01, -8.696639538e-02, 3.867974505e-02, 6.900119595e-03, -7.597486675e-02, 1.853874922e-01, -3.818427771e-02, -1.371971518e-01, -2.457450032e-01, -7.573460937e-01, 2.021805793e-01, -7.597886026e-02, 6.961572915e-02, 1.864313781e-01, 1.693348028e-02, -1.285184473e-01, -6.292092055e-02, 2.164732069e-01, 2.165579051e-01, -3.184990585e-02, 1.390463859e-01, -1.472652797e-02, -1.501115113e-01, 1.381835639e-01, -3.581137657e-01, -7.355995476e-02, 1.451365743e-02, -1.322175562e-01, -3.713276982e-02, -1.131590977e-01, -2.514520474e-02, -3.748098612e-01, -6.004767865e-02, -2.859919369e-01, -4.761100188e-02, -4.916588664e-01, 6.064257026e-02, -3.908729255e-01, 1.737810969e-01, 4.898335040e-02, 7.359832525e-02, 6.695905328e-02, 4.041146114e-02, 2.134199291e-01, 1.134969518e-01, 1.957995892e-01, 7.111395150e-02, 1.606233269e-01, -4.581887275e-03, 1.232401952e-01, 2.155414522e-01, -2.785168290e-01, -5.926482677e-01, 1.527231187e-01, -3.526768386e-01, 3.923490271e-02, 8.761130273e-03, -1.647663862e-01, -1.011604741e-01, -5.823014304e-02, 9.232509881e-02, 1.684877723e-01, 3.282503188e-01, -3.926541507e-01, -1.226331689e-03, 1.273293048e-01, 1.451657861e-01, 1.434387919e-02, 9.244828671e-02, -9.543260932e-02, 2.078504264e-01, 1.709308177e-01, 1.518729515e-02, -2.577993870e-01, 2.931730449e-02, -2.487201989e-01, 3.800866306e-01, -9.075707197e-02, 3.907670453e-02, -1.231702045e-01, 3.979104385e-02, -4.780258983e-02, -3.364253342e-01, -7.101597637e-02, 9.870993346e-02, 1.942992955e-01, -2.535890937e-01, -2.894282639e-01, -4.658639431e-02}, {2.679027319e-01, 4.642463755e-03, 1.099577323e-01, 2.346452698e-02, -1.659379601e-01, 1.497596968e-02, 4.099613987e-03, 2.586738467e-01, -1.308162063e-01, 2.446215227e-02, -1.228891164e-01, -1.466204971e-01, -6.637321413e-02, 3.073592484e-01, 4.629065990e-01, -8.872426301e-02, -9.541370720e-02, -1.066740379e-01, -9.247762710e-02, -6.510598212e-02, -1.684344746e-02, 2.377011478e-01, -1.369154919e-02, 2.071285993e-01, -1.535974145e-01, -3.297308832e-02, -7.110202312e-02, -4.219209850e-01, 1.011733189e-01, -2.588831484e-01, -4.979260266e-03, 3.724189103e-02, -2.473425120e-01, 1.395742595e-02, 9.344037971e-05, -3.062432408e-01, -2.454147637e-01, 1.219107509e-01, 6.527337432e-02, -2.309484631e-01, 1.136977691e-02, 4.574365448e-03, -1.250356734e-01, 5.550805479e-02, 1.013307869e-01, -6.319181621e-02, -2.620436549e-01, -5.089514256e-01, 2.188857794e-01, -3.422736004e-02, -3.188821301e-02, -2.238075286e-01, -1.328115314e-01, -8.349946141e-02, 2.087584287e-01, 7.769326121e-02, 2.520084381e-01, 4.534388781e-01, 2.877416611e-01, -1.902032197e-01, -2.123193443e-01, -2.527843416e-01, -1.785089076e-01, -1.150186062e-01, -3.272512555e-01, -8.060912602e-03, -4.466690421e-01, -1.806334406e-02, -2.804470360e-01, 7.535255700e-02, -8.259024471e-02, 2.838098109e-01, -1.304059923e-01, 1.733064651e-01, 7.896429300e-02, 1.264927089e-01, -9.414499998e-02, -2.276687175e-01, 3.415394574e-02, -2.394223213e-01, -4.658975080e-02, 2.000358701e-01, -6.386254728e-02, 2.380248159e-01, 1.617693454e-01, -2.419883460e-01, 1.199836880e-01, 6.303552538e-02, -1.670514350e-03, 4.917504638e-02, -1.294962615e-01, -2.783527784e-02, 2.214042470e-02, -1.484027058e-01, -2.020817697e-01, 8.004499978e-05, 2.467279285e-01, 1.900251657e-01, 2.091494203e-01, -3.636050820e-01, 3.260864317e-02, -7.635658234e-02, 1.970780045e-01, 2.771476470e-02, -2.686933875e-01, 5.800870061e-02, -2.114877701e-01, 3.021721356e-02, 2.666669488e-01, -1.031209528e-01, -1.429478228e-01, 1.748842746e-01, 7.444740832e-02, -8.718390763e-02, -6.705956161e-02, -2.917566299e-01, -2.820483148e-01, -1.176661700e-01, -9.407644719e-02, -2.637520730e-01}, {1.377526671e-02, 2.381650954e-01, 9.778160602e-02, 1.303835064e-01, 4.909512401e-02, -3.206319874e-03, 2.338113338e-01, -8.917016536e-02, -2.778951079e-03, -1.718137860e-01, -1.128237396e-01, -1.144720986e-01, 7.604141254e-03, 7.475126535e-02, -7.132852823e-02, 3.375634253e-01, 1.002961472e-01, -8.006903529e-02, -7.532893866e-02, -4.012785107e-02, -2.690536901e-03, -9.686076641e-02, 8.966127038e-01, 6.871654838e-02, -2.415944189e-01, -2.105913311e-01, -1.092908680e-01, 2.975088060e-01, -2.328209132e-01, 1.534220278e-01, -1.147303432e-01, 5.946266651e-02, 8.062475920e-02, -1.346431375e-01, -1.867258735e-02, 2.713601589e-01, -9.024392068e-02, 3.632682562e-02, 5.297759175e-02, 2.998173237e-01, -1.209616214e-01, -1.719662249e-01, 1.558687240e-01, -3.207595646e-01, -2.164600044e-01, -1.768026054e-01, 6.461495161e-02, -9.185666591e-02, -3.533964455e-01, -1.925628260e-02, -5.109796673e-02, 2.332061231e-01, -1.260174215e-01, 1.342128515e-01, -1.562591493e-01, 2.851133049e-01, 2.255908251e-01, -1.900798678e-01, -4.537670687e-02, 1.468759179e-01, 3.869876266e-01, -1.423663050e-01, -4.916344583e-02, 2.012655437e-01, -2.830354273e-01, 1.525949389e-01, 2.062274218e-01, 1.701796800e-01, -2.788858488e-02, 1.316361725e-01, 1.360490639e-02, 1.094772667e-01, 1.592018753e-01, -1.338692755e-01, 3.055941463e-01, -1.266746372e-01, 9.151287377e-02, 1.894889176e-01, -3.429882228e-01, 8.245025575e-02, -5.595991760e-02, -7.350931317e-02, 4.939894378e-02, 1.659311205e-01, 5.551784486e-02, -6.516786665e-02, 7.049783319e-02, -1.447838731e-02, 3.858264536e-02, -7.289147004e-03, -1.118673384e-01, -9.085074067e-02, 3.505510092e-02, 4.502614588e-02, 6.944345683e-02, 3.393196166e-01, 3.806012496e-02, 1.955558807e-01, -1.616822332e-01, 2.030818015e-01, 5.257537216e-02, -2.807841003e-01, -3.594165295e-02, 2.449633777e-01, 1.179700941e-01, -2.406565249e-01, -2.490805686e-01, -2.227886021e-01, 1.936775893e-01, 1.180871353e-01, -2.982669771e-01, 1.501144469e-01, 4.832606018e-02, 1.889867485e-01, 9.741427004e-02, 1.247509643e-01, -1.702427864e-01, -9.128202498e-02, -7.380078733e-02, 1.119694486e-01}, {-2.809390128e-01, 5.334576219e-02, 6.036536768e-03, 1.855736375e-01, 6.354366243e-02, -1.417022347e-01, -2.398506701e-01, -5.552969873e-02, 5.437069386e-02, -6.631515175e-02, 2.568822727e-02, 1.387381852e-01, -4.049689770e-01, 6.785591692e-02, 1.245101541e-01, 2.782354653e-01, -5.351151922e-04, 6.368219107e-02, 3.101592325e-02, 4.095125794e-01, 4.841375351e-02, 4.749610275e-02, -2.148062587e-01, -2.718740888e-02, 7.292398810e-02, -5.482466891e-02, -8.050440252e-02, 6.126412749e-02, 1.174257696e-02, 1.301370859e-01, 7.673511654e-02, 7.497041952e-04, 1.168287620e-01, 6.766042113e-02, -2.224234641e-01, -1.326935291e-01, 9.054919332e-02, -8.410972357e-02, 2.772379220e-01, -1.834410131e-01, 7.699703425e-02, -2.672299743e-01, 1.688227504e-01, 2.997421920e-01, -1.569557190e-01, 5.433043465e-02, -1.959068328e-01, -1.450630575e-01, -1.448917240e-01, -3.261395916e-02, -1.045862585e-01, -1.106215362e-02, 1.002904102e-01, -1.083437577e-01, -7.173962425e-03, 2.645745873e-02, -5.304305349e-03, -9.517682344e-02, 2.870255113e-01, 3.497783467e-02, 1.074800119e-01, 2.040214092e-01, 1.653866768e-01, 7.536462508e-03, -4.928622395e-02, 1.030880064e-01, 2.011539909e-04, -1.003694832e-01, 7.970194519e-02, -2.713692784e-01, -5.885078385e-02, -1.513681002e-02, 2.026733905e-01, 3.232720867e-02, -7.603133470e-02, 2.357089967e-01, -2.287428528e-01, 1.456321478e-01, -7.747022063e-02, -9.610077366e-03, 1.162900254e-01, 8.940333501e-03, 6.610499322e-02, 1.649631001e-02, 2.084652781e-01, 2.189485282e-01, -6.469053216e-03, -2.082276158e-02, 1.160931028e-02, -4.974447191e-02, 2.338818014e-01, -5.955613032e-02, -1.312449574e-01, -1.241545975e-01, -2.392378151e-01, -1.891003549e-01, 1.791879237e-01, -2.113617212e-01, -8.173381537e-02, -5.917889625e-02, 9.089396894e-02, -9.341695905e-02, -1.566115171e-01, 1.432966888e-01, -3.236010075e-01, 1.706728488e-01, -5.939044990e-03, 1.855287701e-01, 2.157778945e-03, -5.063812435e-02, 5.907890946e-02, -1.235002205e-01, 7.749970257e-02, 2.352216393e-01, 1.347462535e-01, 6.766898092e-03, -2.190940082e-01, -9.830991924e-02, 3.071554899e-01, -2.989987433e-01}, {-1.309615653e-02, 3.448131308e-02, 9.720470011e-02, 1.248297691e-01, 3.163249698e-03, -1.174729038e-02, -5.322757736e-02, -6.744303554e-02, 1.089648250e-02, -8.682010323e-02, 2.578048781e-02, 3.622805327e-02, -1.159907132e-01, 1.567467451e-01, -1.211315989e-01, 3.700737953e-01, -4.387876764e-02, -1.231023576e-03, 6.247504056e-02, -1.635565609e-01, -1.317757368e-01, 9.925888851e-03, 1.145761982e-01, -5.206568912e-02, -9.797915071e-02, -4.031703994e-02, -2.218373120e-01, 1.964419037e-01, 1.159079652e-02, 1.836823225e-01, 3.208480030e-02, 2.305744588e-02, 4.042296857e-02, -1.140573770e-01, -1.193702072e-01, 2.784600947e-03, 1.159402281e-01, 7.955127209e-02, 4.403979331e-02, -1.939054430e-01, -3.443368524e-02, -7.152415067e-02, -1.005436331e-01, 1.464885771e-01, -2.540806234e-01, 7.226168364e-02, 1.607046835e-02, 4.416035488e-03, -3.846649081e-02, -2.126515657e-02, 2.340491563e-01, -6.917805970e-02, -2.931499183e-01, -2.386762016e-02, 2.491185814e-01, 1.568019688e-01, 1.165807545e-01, 9.382428229e-02, 1.225739643e-01, -1.415738016e-01, 1.316184253e-01, 1.249155477e-01, -1.182955131e-01, -8.362617344e-02, -6.462748349e-02, -9.483149648e-02, 4.515806213e-02, 2.652926445e-01, -1.020751055e-02, 1.113889590e-01, 1.531979293e-01, 6.938956678e-02, 2.215449512e-01, 7.143779844e-02, 4.160141945e-01, -2.037696913e-02, -1.023672614e-02, -4.207337275e-02, 9.451685846e-02, 9.055767208e-02, -5.702070147e-02, -3.901009262e-02, -1.661524177e-02, -1.176745892e-01, -3.909701109e-02, -4.134675022e-03, 1.071681082e-01, -8.112966269e-02, 3.798369318e-02, -8.500025421e-02, 1.192721128e-01, 2.066518664e-01, 2.669069469e-01, -1.584192663e-01, 1.676038802e-01, 1.728457026e-02, -9.331439435e-02, -9.065507352e-02, -3.497523665e-01, 2.389897592e-02, 1.301943213e-01, 7.773796469e-02, -4.860889167e-03, 6.491321325e-02, -1.828141138e-02, -1.396417990e-02, -2.446133178e-03, 2.323306166e-02, 2.254127711e-02, 6.755678356e-02, 1.486026198e-01, -6.007663161e-02, 1.501437575e-01, -1.026049629e-02, -4.418972135e-02, 1.340683848e-01, -1.812913455e-02, 1.302449219e-02, 9.423407167e-02, 1.509141177e-01}, {-6.463807076e-02, 1.146986187e-01, 8.519018302e-04, 1.318299323e-01, 7.496821694e-03, 6.901426613e-02, 4.669050872e-02, -2.239558287e-02, -1.975728013e-02, 2.210952193e-01, 7.531330734e-02, -1.932998886e-03, 2.491929084e-01, 1.571242362e-01, 3.151334450e-02, -3.491981700e-02, 1.717071533e-01, -5.881024897e-02, -3.231925145e-02, 1.937013566e-01, 1.471292228e-02, 1.198385656e-01, 1.868247986e-01, 1.527999043e-01, -1.012458876e-01, 3.907991573e-02, -9.830938280e-02, -4.939666018e-02, -1.676129997e-01, -3.340840340e-02, -2.711431086e-01, 8.439096622e-03, 3.267611861e-01, 1.267927885e-01, -2.417958677e-01, -3.373315036e-01, -6.727444381e-02, 1.389050484e-01, 3.290935457e-01, 1.502863765e-01, 5.930327624e-02, 3.565836325e-02, -8.160413057e-02, 5.474727973e-02, -2.275324464e-01, 1.774019897e-01, 3.432223201e-02, -3.050326742e-02, -2.113726139e-01, -4.225866497e-02, 9.070176631e-02, -1.067674253e-02, -7.275181264e-02, -9.888300300e-02, -1.513914913e-01, -5.402865261e-02, 1.079661623e-01, 5.612853542e-02, 9.179425985e-02, 2.415611893e-01, 6.599596702e-03, 5.606710538e-02, -1.167501882e-01, 1.732751578e-01, -1.798928231e-01, 7.450865209e-02, -4.904133081e-02, 2.387510426e-02, -1.035602391e-01, -3.115746975e-01, -2.325903438e-02, -1.724450476e-02, 7.550571114e-02, -1.697644591e-02, 4.071280360e-01, -4.956024513e-02, -6.279565394e-02, 3.061111644e-02, 3.409153596e-02, 9.629036486e-02, 2.150629014e-01, -1.296863146e-02, 2.584256530e-01, 9.989988804e-02, 2.244740538e-02, -1.783843189e-01, 8.052967489e-02, -1.088501140e-01, 1.224762648e-01, -1.396049708e-01, -2.340275235e-02, -1.615483910e-01, 1.049092412e-01, -1.336257992e-04, -7.691860199e-02, -1.098603159e-01, 7.639200240e-02, 1.270604730e-01, -1.942545623e-01, 1.314419061e-01, -1.052716002e-01, 2.003833801e-01, -3.408749402e-01, 1.536030043e-02, -1.902847923e-02, -1.450655013e-01, -1.920060813e-01, -1.971679926e-02, 1.477894038e-01, -6.144978106e-02, -2.193899900e-01, -1.057091802e-01, -1.252185255e-01, 1.303390265e-01, 1.936805099e-01, 1.025822982e-01, 4.572707787e-02, -2.570794150e-02, -1.558077782e-01, 2.041811645e-01}, {2.143920064e-01, -6.303682178e-02, -2.383417077e-02, -1.687283665e-01, -9.886708111e-02, -2.356900573e-01, 3.301383462e-03, -4.165495187e-02, 5.606534705e-02, 1.865722239e-01, 4.144766927e-02, -2.723933756e-01, 1.062214524e-01, 2.222172916e-02, 9.839410335e-02, 2.150573432e-01, 4.277307540e-02, 1.833623834e-02, 1.534867138e-01, -4.729460925e-02, -7.770252880e-03, 3.133247048e-02, 4.022157490e-01, 2.534691691e-01, 2.456950396e-01, -9.911338985e-02, -1.495693028e-01, -5.161841959e-02, 8.211991191e-02, 3.293475211e-01, 7.177112997e-02, 1.255291253e-01, -7.447532564e-02, 1.888667196e-01, -1.615122855e-01, -1.234263461e-02, -1.562874019e-02, -2.256978601e-01, 1.406807750e-01, 3.156809211e-01, -2.062236220e-01, 7.857710123e-03, -1.980401874e-01, -5.912338570e-02, -2.466323972e-01, 7.538179308e-02, 1.861145347e-01, 2.603755295e-01, -2.539190054e-01, 4.283065796e-01, -1.258686334e-01, 1.961394548e-01, 2.458476275e-02, -3.763085976e-02, 1.063386351e-01, -1.336263269e-01, 6.533136219e-02, -2.323848428e-03, 1.446956862e-02, -5.256612897e-01, 8.106209338e-02, -2.071514726e-01, -2.183598280e-02, -7.819508016e-02, -8.954485506e-02, -1.847653091e-01, 1.973429918e-01, -3.019831516e-02, 2.158223242e-01, -2.292485535e-02, -1.854830384e-01, 2.680026293e-01, -2.685481608e-01, -1.669046283e-01, 1.062005982e-01, 6.114649773e-02, 1.764071584e-01, -2.599093616e-01, -9.074428678e-02, 9.965885431e-02, -4.145663083e-01, 3.148790682e-03, -2.130821496e-01, 2.071396112e-01, -2.524214089e-01, 1.644824594e-01, -1.534383148e-01, 4.086640775e-01, 4.186753035e-01, -1.256711185e-01, 1.394441277e-01, -2.366067655e-02, -7.714650780e-02, -2.466221005e-01, -4.344799742e-02, -6.842334569e-02, 1.353701502e-01, 2.139389813e-01, -1.064861789e-01, 1.607170999e-01, 1.017932668e-01, -1.135686226e-02, 1.107031927e-01, 2.970758453e-02, 1.446302533e-01, 2.988382429e-02, -1.577652693e-01, 6.858244538e-02, -7.298827916e-02, 1.578692496e-01, -2.747932374e-01, -1.122463867e-01, 5.384704471e-01, -1.684000641e-01, 2.021765113e-01, -2.055620551e-01, -2.187531292e-01, 5.207081512e-02, 1.558027416e-01, 1.470525563e-01}, {5.907829851e-02, -9.948337823e-02, -1.835102737e-01, -7.927995175e-02, -5.746399984e-02, 1.477234215e-01, 4.191620648e-02, -6.577786803e-02, -2.866623364e-02, 4.240669310e-02, 1.382977962e-01, -2.769158594e-02, 1.533568650e-01, 6.774941087e-02, 3.541667014e-02, 1.327788383e-01, 5.886467174e-02, -1.335308254e-01, 2.572770230e-02, -2.918129601e-02, 1.384714693e-01, -2.974283695e-01, 6.496357266e-03, 1.354481466e-02, -1.046706885e-01, 7.691258937e-02, 5.176628474e-03, 2.230558842e-01, 3.074014932e-02, -2.525447309e-02, -2.107165009e-01, 2.954263985e-01, -1.430009753e-01, 2.674944997e-01, -6.209196523e-02, -8.638965897e-03, 2.948881499e-02, 1.509689540e-01, -1.339692920e-01, 1.661094576e-01, -9.934423119e-02, -1.279496253e-01, -1.413276792e-01, -5.512793362e-02, -2.794302404e-01, -2.053424902e-02, 1.882239431e-02, -2.156679332e-01, 2.539552450e-01, 8.620336652e-03, -1.730400026e-01, 8.255080879e-02, -1.216971725e-01, 9.310556203e-02, 1.478184015e-01, 2.609834634e-02, -8.087102324e-02, 1.288785040e-01, 1.501533240e-01, -8.863007277e-02, 4.693113267e-02, -2.564457618e-02, 9.919391014e-03, -1.553033013e-02, -6.279440969e-02, 1.159002781e-01, -4.101441801e-02, 6.615462899e-02, -9.292978793e-02, -1.734919846e-02, -3.801517561e-02, 9.803982079e-02, 5.961624905e-02, -3.516815975e-02, -8.643776923e-02, 1.214581728e-01, 4.776518419e-02, -1.374993622e-01, 8.916229708e-04, -2.805994451e-02, 8.954709768e-02, -9.762687236e-02, -3.997738659e-02, -1.113136038e-01, 4.175141454e-03, -1.677165329e-01, 1.580911428e-01, 1.498987377e-01, 4.607260227e-02, -1.724445820e-01, 9.109053761e-02, -4.464635253e-02, 2.136850208e-01, -6.702239066e-02, 1.737246662e-02, -7.346113026e-02, 4.774997756e-02, -1.542974543e-02, 1.100106239e-01, -3.689090908e-02, 5.484126881e-02, 1.833638996e-01, -1.209354401e-01, -2.070599198e-01, -1.973552108e-01, -1.444448233e-01, -4.991485924e-02, 1.764275432e-01, -1.309454888e-01, -6.063118577e-02, -1.434556991e-01, -1.384430826e-01, 2.555668950e-01, -8.982505649e-02, 8.441825956e-02, -1.298286319e-01, 1.399883907e-02, 9.958549589e-02, -1.966621727e-01, 9.377458692e-02}, {4.349821061e-02, -1.044104695e-01, -3.215744495e-01, 2.126582414e-01, -1.580587029e-01, 2.138363570e-01, -9.471019357e-02, -4.115727246e-01, -5.597937107e-02, -3.838610947e-01, -3.157936931e-01, 1.090218201e-01, 1.792018447e-04, 2.285694927e-01, 1.591275036e-01, -1.232309937e-01, 6.285744905e-02, 3.626359403e-01, 5.358327925e-02, -4.997360110e-01, 2.287628874e-02, -1.813255996e-01, -8.757422864e-02, 1.188129559e-01, -3.715787232e-01, 2.800396085e-01, 1.777380109e-01, 1.511075646e-01, -1.315435618e-01, -2.158394456e-01, -8.076000214e-02, 3.034389019e-01, 2.948804386e-02, 4.109175503e-01, 3.797690943e-02, -5.663967459e-04, -1.203063130e-01, 3.822797164e-02, -1.277261879e-02, 1.511505432e-02, -1.175139621e-01, 8.127807826e-02, 1.106697917e-01, -2.043737285e-02, 1.482305378e-01, 4.003438354e-02, -7.247347385e-02, -1.845209301e-01, 9.723677486e-02, -3.931641579e-01, 1.518557668e-01, -8.400178701e-02, 8.602972329e-02, 7.827576995e-02, -1.564757712e-02, 6.779162586e-02, 1.830485463e-02, -1.972027272e-01, -1.920099556e-01, -3.986088037e-01, 1.157619804e-01, -1.319175214e-01, -3.176254407e-02, 6.716282666e-02, -9.603574872e-02, 1.679234207e-01, -3.238945305e-01, -6.922137737e-02, -1.486181021e-01, 1.892918050e-01, -4.343357682e-01, 2.757067084e-01, -3.556429148e-01, -4.031120799e-03, 1.665609032e-01, -2.788016386e-02, -1.099602729e-01, 1.635582000e-02, -2.532076836e-01, 2.066867240e-02, 4.029717743e-01, 4.901641309e-01, -1.919748336e-01, -3.650532365e-01, 1.168356389e-01, -1.556895226e-01, 2.421591133e-01, -1.231644955e-02, -7.833683491e-02, -1.417208612e-01, 1.668496639e-03, 1.105651483e-01, -1.209603697e-01, -1.299227960e-02, 6.199916080e-02, -1.082236990e-01, -1.302772760e-01, -1.108965725e-01, -3.938019276e-02, -3.372791409e-02, -2.174287885e-01, -4.431875050e-01, -1.331680268e-01, 1.529567987e-01, -1.012288481e-01, -7.445133477e-02, -1.639931928e-03, 2.906305343e-02, -2.141024731e-02, -3.112091124e-01, -2.941497974e-02, 6.470010150e-03, 6.373781711e-02, 1.067155078e-01, -7.005670667e-01, -3.758418560e-02, -1.006297097e-01, -1.845379919e-01, -1.485553831e-01, 1.496349126e-01}, {-1.423547789e-02, -1.784612983e-01, -3.167911768e-01, -4.271866754e-02, -9.772260487e-02, 9.962873161e-02, 2.039049566e-02, -2.271881700e-01, 1.086301804e-01, 3.291716278e-01, -1.619534045e-01, -1.555930972e-01, 3.297654167e-02, -6.217470020e-02, -3.757734550e-03, 1.011532545e-01, -7.296706736e-02, -1.866872311e-01, -7.437023520e-02, -2.515342832e-01, 1.398384720e-01, 1.314704418e-01, -5.438444018e-02, 1.289111525e-01, -8.536638319e-02, 1.701459587e-01, 1.242685094e-01, 4.877447337e-02, 6.706257164e-02, 1.004782021e-01, -4.071796685e-02, 7.697223127e-02, -7.560691983e-02, -8.003943413e-02, -2.378463745e-02, -7.020569593e-02, 1.369375587e-01, -5.715487897e-02, -6.115144491e-02, -8.568841219e-02, -3.012366220e-02, 7.619687915e-02, 2.064299732e-01, 1.046107113e-01, -7.709594071e-02, 4.958609492e-02, -1.086007208e-01, -8.399014175e-02, 1.378196478e-01, -1.577481627e-01, -2.532093227e-01, 1.816454530e-02, -3.374082595e-02, 2.063032426e-02, 3.322007507e-02, 1.144368723e-01, -2.344472520e-02, -4.587060958e-02, -3.516098484e-02, -9.292653203e-02, -1.336377561e-01, 2.357627004e-01, -4.474079609e-02, -1.362906545e-01, -1.434002258e-02, 1.042405516e-01, -1.084661111e-01, -1.462454945e-01, -4.503307864e-02, 2.265742123e-01, 2.462043762e-01, 7.845509052e-02, -1.844082475e-01, -5.307277665e-02, -2.407945506e-02, 6.028978154e-03, -4.436647519e-02, 4.342024028e-02, -3.453421593e-01, 2.392913103e-01, 5.658044294e-02, -1.752559692e-01, 5.039924290e-03, -8.563753963e-02, 5.335156247e-02, 3.383910060e-01, 9.422705323e-02, 1.212449465e-02, -2.491368167e-02, -3.577115536e-01, 8.799143136e-02, 5.642274395e-02, 3.532959148e-02, -9.527669288e-03, 2.756096125e-01, 2.686398923e-01, 3.626381606e-02, -5.014801025e-02, -5.277089402e-02, -3.304576278e-01, 1.955678314e-02, 5.722122639e-02, 1.102123689e-02, 2.947515547e-01, -1.501543820e-01, 2.187602669e-01, -9.592463076e-02, -6.658537686e-02, 3.427536786e-02, 3.696265817e-02, 2.561282814e-01, 2.132341862e-01, -8.970172703e-02, -2.771736979e-01, -1.471387893e-01, 1.093537360e-02, -4.230915755e-02, 1.740878075e-01, 1.156566292e-01, 3.748843446e-02}, {-4.883715212e-01, -5.981688388e-03, -7.218238711e-01, -1.825432479e-02, 2.171370536e-01, -9.110043943e-02, -3.927594125e-01, -4.609983265e-01, -3.999122605e-02, -5.833892822e-01, 1.043716148e-01, 1.142068878e-01, -4.640098512e-01, 2.584686279e-01, 1.927113980e-01, -3.679381907e-01, 2.463670261e-02, -2.752990425e-01, 1.809369028e-01, 7.226724178e-02, -5.142199341e-03, -3.384764120e-02, 1.271400042e-02, 1.578840613e-02, -1.898644120e-01, 1.278784126e-01, -1.284679472e-01, 9.077706933e-02, -6.354438663e-01, -3.225961328e-01, -6.448705196e-01, -5.302201957e-03, -3.223343194e-02, 2.764591873e-01, -7.894916832e-02, -1.011950895e-01, -2.681447864e-01, 2.868553400e-01, -8.390900493e-01, 1.693061143e-01, 1.430957466e-01, -8.085233718e-02, -1.226494536e-01, -1.075468540e+00, 1.190587655e-01, -1.202111721e+00, -4.708354175e-01, -4.601756930e-01, 2.804523408e-01, -5.744114518e-02, 1.231463775e-01, -3.583841026e-01, -5.506481528e-01, -1.070119739e-01, -3.785870969e-01, -1.424257308e-01, 1.552439034e-01, -1.138922349e-01, -4.147179425e-01, -7.985294461e-01, -8.100419492e-02, -4.208759591e-02, -5.094928145e-01, 1.313369125e-01, -5.055273771e-01, -1.396607906e-01, -1.770911179e-02, 8.753383756e-01, 5.079071969e-02, 1.468114555e-01, -1.581539750e+00, -6.730638146e-01, -3.098625503e-02, 4.968310595e-01, 5.227892101e-02, -5.743674636e-01, 3.852317333e-01, 7.970573753e-02, 1.150502488e-01, -8.068400621e-01, 8.124018461e-02, 1.878659576e-01, -7.686331868e-01, 3.547336459e-01, -1.011618599e-01, -1.066261008e-01, -2.024762779e-01, 3.295623958e-01, -2.572056651e-01, -7.176227123e-02, -7.093322277e-02, 6.149332598e-02, -8.034172654e-01, -5.340236798e-02, -1.133154631e-01, -4.148229957e-01, 5.360309407e-02, -7.732605934e-02, -1.014566198e-01, 1.674585193e-01, 8.958334103e-03, -1.401342303e-01, -8.321971893e-01, -7.763779163e-01, -5.603641868e-01, 2.109031379e-01, 3.856182396e-01, 1.655157804e-01, -2.623618208e-02, -3.272292614e-01, 1.175813843e-02, -3.309295475e-01, 7.081838697e-02, 1.855182350e-01, -1.593555324e-02, -2.537291348e-01, -7.100694627e-02, 2.332691103e-01, -2.587630227e-02, 1.255054176e-01}, {3.333106264e-02, 2.522023953e-02, -4.626228288e-02, 4.058562219e-02, -7.922133803e-02, -8.447275311e-02, -7.421455532e-02, -1.746935956e-02, -6.875706464e-02, -6.674233079e-02, 6.047307048e-03, -9.978524409e-03, 1.569964178e-02, 2.375336364e-02, -3.746152669e-02, -4.243267700e-02, -2.063913830e-02, -7.991272211e-02, -2.328170650e-02, 2.237843536e-02, 6.990243495e-02, -9.318725020e-02, 4.744576290e-02, -1.021353155e-01, 1.756938733e-02, -1.055054832e-02, 5.745795369e-02, 6.817410886e-02, -2.384258434e-02, 3.553395718e-02, 4.670762643e-02, -5.287505221e-03, 3.557877988e-02, -3.248811886e-02, -2.169270255e-02, -8.595393598e-02, 1.951361261e-02, -3.767987946e-04, -1.822602563e-02, 1.765710302e-02, -8.124642074e-02, -7.810368389e-02, -1.000898774e-03, -8.843876421e-02, -4.996885732e-02, 1.283051819e-02, -6.495653093e-02, -3.842252493e-02, -6.265158765e-03, -6.086363643e-02, 2.774571814e-02, 3.712699562e-02, -9.856633842e-02, -8.796244860e-02, 2.945479378e-02, 6.187894568e-02, 7.556705177e-02, -1.111479476e-02, -6.983423978e-02, 7.457132638e-02, -8.527147770e-02, -3.116111644e-02, -4.892555624e-02, -2.181174234e-02, 2.130587958e-02, -1.400098205e-02, -5.268600956e-02, -7.558272779e-02, -4.424883798e-02, -5.077424925e-03, -5.385504663e-02, 4.851851985e-02, 4.465748370e-02, -3.595739976e-02, 7.624033839e-02, -2.405399084e-02, -4.714000225e-02, 7.919929177e-02, -4.230431467e-02, -2.921394818e-02, -4.690775648e-02, -4.783803225e-02, 3.246181458e-02, -3.060331568e-02, -7.920452952e-02, 2.145058289e-02, -9.152423590e-02, 4.955575243e-02, -8.450596780e-02, -1.163370069e-02, -2.725419775e-02, -2.758564986e-02, -8.084976673e-02, -7.684786618e-02, 3.226301167e-03, 2.981722355e-02, -4.001813754e-02, -2.979732817e-04, -9.843205661e-02, 6.128402310e-04, 1.596392319e-02, 1.868968830e-02, -7.295028120e-02, 2.055486664e-02, -8.559488505e-02, -7.586046308e-02, -7.041999698e-02, -7.260476705e-03, 6.063453481e-02, -8.439480513e-02, 4.910092335e-03, -2.310188301e-02, 7.375015318e-02, -9.437356144e-02, -6.877289712e-02, 1.497923676e-02, -1.275204867e-02, -5.632844195e-02, -5.697624758e-02, -8.600189537e-02}, {2.217991278e-02, -8.846669644e-02, -1.716770045e-02, -9.239220619e-02, -1.006572768e-01, -4.744894803e-02, -1.996051669e-01, -1.153830513e-01, -5.238642916e-02, -2.350673079e-01, 2.102821618e-01, -1.880848706e-01, 2.350917161e-01, 2.408957109e-02, -7.257843763e-02, 1.348856390e-01, 2.084234506e-01, -7.401711307e-03, 3.497275990e-03, -1.661996692e-01, 7.558190078e-02, 1.967988014e-01, 2.450452000e-01, 1.231679246e-01, 7.242146134e-02, 3.295460017e-03, 3.629094958e-01, 1.229268014e-01, 1.251433641e-01, 8.987618238e-02, -6.570887566e-02, 1.293958873e-01, 8.309697360e-02, 1.438100785e-01, -1.179252267e-01, -1.536538303e-01, -2.272946686e-01, 5.977830291e-02, 2.557303607e-01, 5.006126314e-02, 1.674547642e-01, 1.573466137e-02, 1.285892725e-01, -5.099625140e-02, -3.318025963e-03, 6.549079716e-02, -9.938862175e-02, 3.075391054e-01, -1.369810551e-01, 1.439673454e-01, -7.897982001e-02, -9.572180361e-02, 2.230034769e-01, -7.567498088e-02, -2.195311785e-01, -3.804527521e-01, 8.646803908e-03, -2.360393293e-02, 2.368548512e-02, -6.100738421e-02, -1.081399471e-01, -6.155363284e-03, 2.956543863e-01, -2.173746377e-02, 6.887845695e-02, 4.123879969e-02, -8.412953466e-02, 2.857483551e-02, -1.026811004e-01, 1.510639638e-01, -1.090559289e-01, -1.024696976e-02, 1.485744417e-01, -2.346089631e-01, -2.626608312e-01, 1.091892049e-01, 6.740244571e-03, -5.881966278e-02, -7.829979062e-02, -1.206002682e-01, -9.049701691e-02, 9.771286696e-02, 7.455611229e-02, 1.019422263e-01, 9.671992809e-02, 1.469989568e-01, 1.703113765e-01, 3.618304059e-02, 1.827962399e-01, -3.269218504e-01, 1.382094473e-01, 1.720647812e-01, -1.367567927e-01, 3.679139912e-02, 8.420285583e-02, -1.984337717e-01, -4.139107466e-01, -1.374803334e-01, 2.095368803e-01, -2.423425913e-01, 1.549017578e-01, -2.992530763e-01, 6.462928653e-02, -1.327421814e-01, 1.432561874e-01, -3.713798523e-01, 1.523138136e-01, 1.739068031e-01, 1.690162420e-01, -1.059072241e-01, -6.234919280e-02, -2.629287541e-01, 1.548451632e-01, -1.268251389e-01, -2.570420504e-01, -2.894339263e-01, 2.615540922e-01, -1.209069416e-01, 3.168956935e-01, -1.195356399e-01}, {-4.238768667e-02, -1.430473775e-01, -1.096884161e-01, -1.729116291e-01, 1.600904316e-01, 1.542782933e-01, -5.018592626e-02, 8.054544032e-02, 2.808243334e-01, -3.306213021e-02, 2.775039077e-01, 5.385715631e-04, -1.989453845e-02, 1.044577584e-01, 5.249068514e-02, -9.375238419e-02, 8.965941519e-02, 3.501597047e-02, -4.359905049e-02, -6.685062498e-02, -1.552784145e-01, -5.105824396e-02, -8.489114046e-02, 2.267775983e-01, -1.829410531e-02, 1.801038533e-01, 1.706196070e-01, 9.157144278e-02, -1.677508503e-01, 2.130472064e-01, 7.689057291e-02, 1.529054046e-01, 3.321961686e-02, -2.311009467e-01, -2.302100062e-01, -1.211601570e-01, -2.145909145e-02, -1.399849802e-01, 4.605763406e-02, -3.332422301e-02, 1.187440455e-01, 1.894937269e-02, 1.177548692e-01, -6.295763701e-02, 6.893838942e-02, -9.025855106e-04, 1.041452363e-01, -5.265946500e-03, -6.712867320e-02, 5.785681307e-02, 1.258388907e-01, 9.472834319e-02, 6.886159629e-02, 3.075867705e-02, 5.328957364e-02, 6.761226803e-03, -9.548451751e-02, 1.337154806e-01, -8.405388333e-03, 5.517385155e-02, -1.278715432e-01, -1.263141073e-02, 1.558570564e-01, 2.195516601e-02, 4.966539517e-02, 2.673166692e-01, 5.421957467e-03, 1.346684843e-01, 3.606378287e-02, 1.510676295e-01, 2.835668623e-02, -1.172747277e-02, -9.502236545e-02, -1.783819348e-01, 4.965907335e-02, 5.504323170e-02, 1.325998735e-02, 2.339331806e-02, 2.036000639e-01, -4.191641882e-02, -5.061957240e-02, -1.073399931e-01, 2.850933000e-02, -8.550816029e-02, 1.785325855e-01, 7.385232300e-02, 2.704026699e-01, 9.008133411e-02, -8.665460348e-02, -5.666314811e-02, 1.123710126e-01, -2.131325901e-01, 1.116087362e-01, 1.739089191e-01, -1.225462649e-02, -9.363532811e-02, -4.005978629e-02, -3.841784596e-02, -1.285672933e-01, -2.734792829e-01, 9.406817704e-02, -8.967176080e-02, 1.237935796e-01, 6.247176230e-02, -1.016538218e-01, -1.001522169e-01, 2.527652979e-01, 1.427164823e-01, 8.547078073e-02, -1.116928905e-01, -2.965621091e-02, -4.259299859e-02, 8.893840760e-02, -1.418068074e-03, -8.686312288e-02, -1.802431792e-01, 1.715727337e-02, 1.384113729e-01, 1.067307591e-02, 1.568966806e-01}, {1.985859424e-01, 7.738945633e-02, 1.040880606e-01, -1.051056832e-01, -6.091577560e-02, -1.506200135e-01, 1.169512793e-01, -1.518882215e-01, 1.907786727e-01, 1.479965746e-01, -2.203172296e-01, 2.147686630e-01, 1.237755865e-01, 3.473559916e-01, 1.472408026e-01, 1.066176314e-02, -1.526580602e-01, 2.052807361e-01, 1.336905509e-01, 3.321496546e-01, 2.217214555e-01, 9.064189345e-02, 6.787557900e-02, -6.010920927e-02, -1.816717684e-01, -1.008656546e-01, 6.349188834e-02, 1.433552504e-01, -9.473763406e-03, -6.316225231e-02, -1.848869771e-01, -2.090928517e-02, -1.365344375e-01, -6.494636834e-02, -7.711047679e-02, 1.977580041e-01, 1.762767136e-01, -1.093695760e-01, -8.530532569e-02, 1.797183901e-01, -1.150843054e-01, 1.668073237e-01, 1.171106920e-01, 1.086998135e-01, -2.818172276e-01, -1.970583573e-02, -1.323845088e-01, 2.931998670e-01, -1.540791709e-02, -1.592739224e-01, 2.308274209e-01, 1.597555876e-01, 1.955510378e-01, 1.167875081e-01, -8.812788129e-02, 5.921699852e-02, -3.701388240e-01, -3.676796854e-01, -1.763364226e-01, 2.103664428e-01, 1.906472445e-01, -1.692271419e-02, -2.868295014e-01, -2.043960430e-02, -1.562999785e-01, -8.639564365e-02, -1.419109851e-01, 1.014648005e-01, 6.396515667e-02, 4.579640925e-02, -1.091931984e-01, 3.866235539e-02, -2.440697141e-02, 1.935961246e-01, -2.480239980e-02, -1.793612726e-03, 4.444505572e-01, 7.754412293e-02, -3.713214099e-01, -1.580559313e-01, 1.003789976e-01, 2.499591559e-02, -1.070625409e-01, -3.689538315e-02, -9.777405113e-02, -8.264420182e-02, -1.236251593e-01, -1.599253416e-01, -4.477151334e-01, 2.673662007e-01, -2.403485775e-01, -9.085297585e-02, 2.765409648e-02, -1.373758763e-01, -3.365422189e-01, 2.257319838e-01, 1.052108631e-01, 1.697655171e-01, 2.064062655e-01, 1.005315259e-01, -2.117382437e-01, 2.119264193e-02, 1.487920433e-01, 1.711570323e-01, 2.445368320e-01, 1.256020367e-01, -1.742568165e-01, 1.333834976e-01, 3.836492300e-01, -3.988863435e-03, 3.224440515e-01, 1.041722149e-01, 2.194698006e-01, 1.530130506e-01, 1.805411577e-01, 6.253745407e-02, -4.841192812e-02, 4.100340977e-02, -1.304657608e-01, 1.264214516e-01}, {4.538731277e-02, -1.826057136e-01, -1.356010884e-01, 1.785085946e-01, 4.564906284e-02, 1.173445135e-01, 1.038940251e-01, 6.959583610e-02, -3.544538980e-03, 5.631066114e-02, -8.648536354e-02, -1.603445038e-02, -1.664288193e-01, 3.152356446e-01, 1.621257514e-01, 2.197231911e-02, 3.576235473e-02, 5.661471561e-02, -1.105576232e-01, -8.250359446e-02, -1.943589151e-01, 1.575071663e-01, -1.200834364e-01, -6.238944829e-02, -8.805641532e-02, 1.863319576e-01, 4.177880287e-02, -1.243291348e-01, 2.087647021e-01, -8.262334764e-02, -1.144287065e-01, 1.056356281e-01, 8.988004178e-02, 2.568324506e-01, -2.698929608e-01, -7.573190331e-02, 1.632385105e-01, 5.336948857e-02, 7.814527303e-02, -2.884081192e-02, -1.017875597e-01, 1.627805829e-01, -1.469603367e-02, 1.606080085e-01, -1.702248156e-01, 5.786926299e-02, -4.320720211e-03, 1.880831867e-01, -8.305040188e-03, -1.031113863e-01, 5.442985892e-02, 1.928229183e-01, 1.637719199e-02, -1.273411363e-01, -1.529587433e-02, 1.025912166e-01, 1.098985597e-02, 9.957492352e-02, 1.064155549e-01, -1.249334887e-01, 2.530284822e-01, 7.163091749e-02, -4.547103494e-02, 6.599910557e-02, -1.602106728e-02, -7.002930343e-02, 7.035039365e-02, -6.888780743e-02, -5.975775793e-02, -1.762951463e-01, 7.847006619e-02, -5.513719469e-02, 2.126713395e-01, 1.805938594e-02, -2.525494099e-01, 1.593466252e-01, 1.714205444e-01, 1.953082681e-01, -8.886238188e-02, 1.432763040e-01, -1.996943057e-01, -1.051906496e-01, 3.057523258e-02, 6.131201237e-02, 1.404009163e-01, -1.410185993e-01, -1.266162992e-01, -1.827856153e-02, -6.427589804e-02, 1.122908518e-01, -6.676495820e-02, 1.523595005e-01, -4.855009168e-02, -7.131376863e-02, 1.201981157e-01, 7.012281567e-02, 7.980853319e-02, 6.699091941e-02, 3.249569535e-01, 8.050208539e-02, 1.289995760e-01, 4.371859506e-02, -1.229580119e-01, 4.041870311e-02, -1.334758848e-01, 9.967356920e-02, -1.151012182e-01, 2.504775226e-01, 3.019045293e-01, 8.717945218e-02, 2.210685983e-03, -1.234507561e-02, 5.632573366e-02, 4.042797536e-02, -6.198143959e-02, -1.577262878e-01, 1.060362309e-01, -1.117791981e-01, -9.156724811e-02, -6.938249338e-03}, {3.947713226e-02, -1.928095371e-01, 1.542978454e-02, -3.417890966e-01, -1.140308008e-01, 9.092117846e-02, -1.319640875e-01, 8.560945839e-02, 5.584802106e-02, -1.727540940e-01, 4.690811783e-02, 2.107589543e-01, 1.164848283e-01, -1.650721431e-01, 1.751332134e-01, -4.206712544e-02, 1.296369433e-01, -5.822047219e-02, -1.334571689e-01, 1.051641628e-01, 2.888139710e-02, -1.434665546e-02, 1.649195403e-01, 1.263097674e-01, 1.092525274e-01, 9.905702621e-02, -7.181335241e-02, 4.283731803e-02, 1.214328930e-01, 4.784002900e-02, 5.247848853e-02, 4.128541797e-02, -1.066215988e-02, 1.188549399e-01, 2.417263985e-01, -1.316004097e-01, -6.549123675e-02, -2.520609414e-03, -1.878470778e-01, -7.169554383e-02, -1.082931235e-01, 3.000759147e-02, 9.930206090e-02, 5.483035743e-02, 1.064074188e-01, 4.602533206e-02, 5.827799905e-03, -1.395170540e-01, 9.353855997e-02, 5.370030925e-02, -8.247538470e-03, -3.180536330e-01, -1.730680764e-01, -1.457204670e-01, 6.534522772e-02, -5.299881473e-02, 1.124118194e-01, 6.403495371e-02, 6.173180044e-02, 3.006702662e-02, -3.050446212e-01, -1.708173193e-02, 3.340350688e-01, 2.732315287e-02, -2.406002395e-02, 1.829136610e-01, -9.369133413e-02, 4.592552781e-02, 8.138222992e-02, 2.280675769e-01, 2.446068916e-03, -1.046415046e-01, -2.173324302e-02, 1.211403385e-01, 1.095758658e-02, -4.688067734e-02, 8.236996830e-02, -1.782720089e-01, 1.289523095e-01, -1.328877956e-01, 7.916061580e-02, 7.978025824e-02, -8.377965540e-02, 3.986843675e-02, 1.874201894e-01, -1.586374342e-01, -2.999799512e-02, 8.201403171e-02, 1.451421827e-01, 2.083283104e-02, 1.590619534e-01, -1.910023391e-01, 1.146536320e-01, 1.112719476e-01, -2.908715978e-02, -8.388142288e-02, -1.811389327e-01, -8.084813505e-02, -4.852876812e-02, -5.159535445e-03, -3.717204928e-02, 1.296944469e-01, 2.019494921e-01, -1.301819086e-01, -2.202726901e-01, -2.247029245e-01, -6.482075900e-02, -3.306254279e-03, 1.855368763e-01, -6.235332694e-03, -8.867800981e-02, -3.328804672e-02, 3.750851750e-02, -2.354969829e-01, -6.816340238e-02, -1.425150186e-01, 1.466129869e-01, -4.212217405e-02, -2.754581869e-01, 4.692827538e-02}, {-1.873171777e-01, 1.148490235e-02, -1.402124614e-01, 7.127583772e-02, 2.521583140e-01, 1.275913268e-01, -1.969155520e-01, -1.343106031e-01, 6.552347541e-02, 1.058498584e-02, -1.282533854e-01, 1.633904576e-01, -1.120854542e-01, 3.832362220e-02, 6.014569849e-02, 5.047995597e-02, -3.730198368e-02, -4.671534002e-01, 6.714275479e-02, -1.124107316e-01, 2.009515651e-02, -1.258330047e-01, 2.383276224e-01, 6.317038089e-02, -6.545864791e-02, 5.083235502e-01, -3.177347779e-02, 6.478367001e-02, -2.952320576e-01, -2.571593821e-01, 1.554262787e-01, 2.287171334e-01, -2.306232154e-01, -5.518644452e-01, 2.607766390e-01, 3.869170547e-01, -8.898683637e-02, 1.055283938e-02, -1.272663753e-02, 3.175616264e-01, -3.183153272e-01, 1.807262935e-02, -2.405764610e-01, -2.322517484e-01, -3.244383633e-02, 6.285824627e-02, 9.953497350e-02, 7.633119076e-02, -4.482835531e-02, -3.267950118e-01, 3.534584641e-01, 6.187473889e-03, -1.110642254e-01, 1.426125020e-01, -3.675417006e-01, -1.642533392e-01, 3.391857445e-01, -3.260727273e-03, -7.549543679e-02, 2.800479829e-01, -1.209261939e-01, 1.913603209e-02, 2.810121328e-02, 3.725923225e-02, -9.436375648e-02, 1.179636940e-01, -1.232198775e-01, 6.189379096e-02, -3.859146833e-01, 1.136080027e-01, -3.468361497e-02, 2.566452026e-01, -3.669424653e-01, 1.328344643e-01, -2.070619762e-01, 3.807312809e-03, 1.214778572e-01, -1.460925192e-01, -7.402389050e-01, 1.999921352e-01, -6.486322731e-02, 3.884743527e-02, -4.156623036e-02, 3.667957615e-03, 1.938616037e-01, -3.995909989e-01, 3.564338982e-01, -3.720131814e-01, -4.339310229e-01, -1.099090353e-01, 3.236586973e-02, -3.744317591e-01, -9.375564754e-02, 8.374594152e-02, -3.464089632e-01, 1.427160501e-01, -8.611232042e-02, 2.044793963e-01, -7.198337466e-02, 2.175455540e-01, -2.442423254e-03, -2.958071530e-01, -1.855850220e-02, -1.434334926e-02, -2.465052456e-01, 1.830291003e-02, -1.570620239e-01, -2.786919773e-01, -1.824493334e-02, -1.478259079e-02, 1.906916797e-01, 3.481645584e-01, -9.283586591e-02, -2.237335145e-01, -2.474525124e-01, 9.072963148e-02, 1.662545204e-01, -8.944497705e-01, -3.608436882e-01, 3.768100739e-01}, {-9.853480756e-02, 6.262812018e-02, -7.289319038e-01, 1.292164773e-01, -2.267611213e-02, 1.897499859e-01, -3.939024806e-01, -4.453374818e-02, -7.217311114e-02, 7.359170914e-02, -3.142373860e-01, 4.193128273e-02, -1.658681594e-02, -2.387927286e-02, 3.024396487e-02, 1.351865679e-01, 4.210143909e-02, -1.849942952e-01, 1.610547677e-02, 2.419815063e-01, 1.113679036e-01, -1.151411608e-01, -6.604018062e-02, 6.284794956e-02, -1.157001555e-01, -1.958940551e-02, 2.721877992e-01, 6.261264905e-03, -3.205914199e-01, -2.647055089e-01, -1.423604250e+00, 1.737191528e-01, -2.600381374e-01, 2.106409967e-01, 4.256871641e-01, -1.201612949e-01, -7.281699032e-02, 1.035954282e-01, -4.997934103e-01, -4.020214453e-02, 1.280813068e-01, 1.186407655e-01, 1.404688358e-01, -6.056392789e-01, 2.340068221e-01, -4.102855623e-01, 8.089390397e-02, -4.227113426e-01, 1.177793741e-01, 1.181983724e-01, -5.707056820e-02, 4.431002017e-04, 1.288337260e-01, 1.302643716e-01, -1.317158490e-01, -2.150676697e-01, -1.205789149e-01, -1.134371907e-01, -1.885865778e-01, -5.504912138e-02, -4.452083260e-02, -2.290972173e-01, -3.781490773e-02, 1.032545641e-01, 5.859061480e-01, 1.322545260e-01, -1.533174366e-01, 1.058760881e-01, 1.246023402e-01, -3.156770766e-02, -3.218200207e-01, -1.644939780e-01, 3.191376626e-01, 2.435661256e-01, 4.869866744e-02, -4.564323127e-01, 5.600493029e-02, -2.626660168e-01, -8.590613306e-02, 6.552957743e-02, 1.194365695e-01, -3.111006618e-01, -5.150216818e-01, -3.117433190e-02, -2.373484373e-01, -3.872907758e-01, -1.104043201e-01, -2.866357565e-01, -4.668958113e-02, 2.057403326e-01, 1.887840331e-01, -9.800059348e-02, -2.099454254e-01, -3.286180496e-01, -3.587427735e-01, 2.552819848e-01, 1.200028434e-01, 2.349597961e-01, -2.073286287e-02, 2.003416866e-01, 2.552369535e-01, -4.283555597e-02, -1.163071096e-01, -1.808567047e-01, -3.470702767e-01, -5.562182143e-02, -5.669829845e-01, 1.153015941e-01, -1.406619251e-01, -4.447794259e-01, -2.261783183e-01, -1.469803900e-01, 7.419022918e-02, 4.154480621e-02, 3.721424565e-02, 1.927595586e-01, 1.148569509e-01, 2.850578427e-01, 2.335500568e-01, -9.833405167e-02}, {-1.854868531e-01, 2.866235748e-02, -2.158773877e-02, -2.832385339e-02, 1.175103709e-01, -1.832922548e-01, 9.073080495e-03, 2.025506645e-02, 7.841826230e-02, 9.927755222e-03, -5.368366838e-02, 1.626321115e-03, -1.674743742e-01, -5.634420738e-02, -6.148240343e-02, -6.302853674e-02, -6.392932683e-02, -9.427834302e-02, 1.722301245e-01, -6.778473500e-03, 7.919515371e-01, 7.030860335e-02, 9.394986182e-02, 1.138789132e-01, -4.520268366e-02, -3.872786462e-02, -2.451976240e-01, 1.394927055e-01, -9.902133048e-02, 1.983270049e-02, 1.343381591e-02, 6.666361541e-02, -6.839774549e-03, -9.323603660e-02, 1.676112972e-02, 1.278025061e-01, -3.309066594e-02, -5.683913454e-02, 3.863572702e-02, 9.401611984e-02, 4.996529222e-02, 1.284010615e-02, -1.479941979e-02, -1.421822119e-03, -6.413622946e-02, 3.094817325e-02, -5.502563342e-02, -4.084077105e-02, -1.066950038e-01, -1.013122424e-01, 5.684544146e-02, -2.622639760e-02, 3.443543911e-01, -5.190498754e-02, -6.635624170e-02, -7.786761224e-02, 1.578342617e-01, 8.188025653e-02, 1.330966949e-01, 8.280737698e-02, -5.065294448e-03, 4.244673532e-03, 4.107679799e-02, -1.937297918e-02, -1.416523904e-01, -3.930426389e-02, 1.122005954e-01, -2.116073668e-02, 6.629560608e-03, 8.255041391e-02, 1.781624928e-02, 1.589015275e-01, -1.854963601e-01, -5.825407431e-02, -7.067746669e-02, 9.653832018e-02, -1.107698902e-01, 2.553313680e-04, 2.565229870e-02, 1.555577293e-02, -1.007940546e-01, -8.059384301e-03, 2.709168196e-01, 4.951657727e-02, 2.942933440e-01, 7.079791278e-02, 1.575062275e-01, 8.493711799e-02, -2.312134020e-02, 2.280830406e-02, 5.552559718e-02, 1.292534769e-01, -7.759318501e-02, -1.448639855e-02, 5.727297440e-02, 2.257200330e-02, 6.627575029e-03, -7.585867424e-04, -1.398999058e-02, 6.560658664e-02, -6.220825389e-02, -1.024546251e-01, -9.537497163e-02, -1.225234121e-01, 1.459842026e-01, 1.106823757e-01, -6.752602756e-03, 3.047650754e-01, 9.978129715e-02, -3.711276129e-02, 3.168065473e-02, -6.425432116e-02, 2.170362324e-01, 6.470914930e-02, 1.589054912e-01, 4.857314005e-02, -1.831736863e-01, -1.348228455e-01, 2.054436058e-01, 4.330837354e-02}, {-7.298392802e-02, -3.003592789e-02, -2.708854675e-01, -5.169620737e-03, -2.459780276e-01, 4.009263217e-02, -1.229693070e-01, 8.742354065e-02, 5.468891934e-02, -9.976642579e-02, -1.090721637e-01, -4.211028665e-02, -8.603485674e-02, 1.689811945e-01, -1.856800467e-01, 2.561404742e-02, -7.923457772e-02, -1.856561154e-01, 3.314593062e-02, -2.322848737e-01, 1.230910867e-01, -9.206291288e-03, 1.343407035e-01, 1.363361925e-01, 1.501676533e-02, 3.587123454e-01, 2.861037618e-03, -5.569670796e-01, -1.202047765e-01, -4.110645056e-01, 7.569935173e-02, 3.495163321e-01, -7.806853950e-02, 3.492710739e-02, -2.062600851e-01, 1.268398613e-01, -3.011219390e-02, -3.073466383e-02, 1.427334845e-01, 3.570646644e-01, -2.189279497e-01, 1.819583215e-02, 7.146136463e-02, -3.575863540e-01, -2.616234422e-01, 5.461281538e-02, 5.974973738e-02, -3.841027319e-01, -1.657409370e-01, 1.629160158e-02, -1.842517108e-01, -9.039702266e-02, -1.218840554e-01, 4.354052991e-02, 3.713811934e-02, -9.170202166e-02, 2.847098708e-01, 1.203168556e-01, -1.387944371e-01, 5.100272596e-02, -9.947024286e-02, -4.957260936e-02, -7.500404865e-02, 4.278950766e-02, -1.958134919e-01, 9.883441776e-02, -2.513823807e-01, 1.419670042e-02, 1.582093537e-01, -5.005810410e-02, 4.870694876e-02, 4.670127854e-02, 2.333136462e-02, -7.655949146e-02, -3.983496502e-02, 3.280849457e-01, 2.197303772e-01, 2.817470953e-02, -9.699334949e-02, -2.288273424e-01, 2.312855572e-01, 2.744912207e-01, -1.414091047e-02, 1.889900565e-01, 3.147648275e-01, -1.800170988e-01, 2.064058334e-01, -1.527010091e-02, 3.265179694e-01, 6.153710186e-02, -3.351898491e-02, -6.222888827e-02, -5.705021322e-02, 5.327513814e-01, -2.484869361e-01, -1.750833094e-01, -1.242197305e-01, 2.275291830e-01, -1.920523308e-02, -1.073079631e-01, 1.585094817e-02, -2.436276712e-02, -3.182271123e-01, -1.684703231e-01, -1.336471140e-01, -1.658636779e-01, -6.764876842e-01, 2.764713764e-02, 4.086287916e-01, -5.314700678e-02, 3.714792803e-02, 1.034516692e-01, 1.430301070e-01, -2.548133731e-01, -2.790643275e-02, -1.129060611e-01, 8.731476963e-02, -8.952124417e-02, -1.639035940e-01, -1.345830411e-01}, {1.074379236e-01, -4.597477242e-02, -4.099069908e-02, -3.078860343e-01, -3.547437787e-01, -1.204558164e-01, -3.416288793e-01, 1.117308512e-01, -1.648120284e-01, -3.063688576e-01, 3.041070104e-01, -1.292538047e-01, -2.956060171e-01, 1.616525203e-01, 4.627543036e-03, -1.522982121e-01, -1.391487289e-02, -3.236632347e-01, 1.313867569e-01, -9.405124187e-02, 1.444937941e-02, -4.695013165e-02, 4.180929065e-01, 4.870811105e-01, -2.889026105e-01, 4.686382134e-03, 8.807839453e-02, -7.580493689e-01, 8.854971826e-02, 3.943350613e-01, -5.682681873e-02, 8.749604970e-02, -1.959134936e-01, 5.019511580e-01, -1.097962022e+00, 1.059295684e-01, -3.510774970e-01, -2.866328359e-01, 2.604751289e-01, 4.989715219e-01, -2.350617051e-01, -1.380348019e-02, -8.046839386e-02, -5.626614094e-01, -5.361160636e-01, 1.200560108e-01, -2.239739746e-01, 1.558355242e-01, -3.223989308e-01, 3.402882516e-01, -1.652039774e-02, 1.578781903e-01, 1.394787729e-01, 1.425591409e-01, -2.035965398e-02, -9.232024550e-01, 7.757247686e-01, 7.931401581e-02, -1.014723033e-01, 1.128224507e-01, -3.567677736e-01, -6.090511084e-01, 4.972649366e-02, -1.642667353e-01, 9.170917422e-02, -1.395908445e-01, 1.059904024e-01, 1.638709307e-01, -3.170623183e-01, 2.357338667e-01, 5.660088360e-02, 2.737558782e-01, 1.317745298e-01, -1.933576167e-01, 6.387233734e-02, 1.583133787e-01, -8.317536861e-02, -1.353139523e-02, 2.655399442e-01, -4.393627048e-01, -6.162610054e-01, 2.064155042e-01, -9.607926756e-02, -2.097625984e-03, 2.494277656e-01, 5.379243568e-02, -3.159511089e-02, 2.503861114e-02, 2.259752899e-01, -5.774895847e-02, -7.737914566e-03, -3.234671429e-02, -1.234640703e-01, 1.174872369e-01, -1.793966889e-01, -4.520333111e-01, -8.681142330e-01, 1.316349208e-01, -1.009850390e-02, -2.281936854e-01, 1.722599417e-01, -3.806776702e-01, -2.136976123e-01, 1.101566926e-01, -1.653195769e-01, -3.467677534e-01, -5.992782861e-02, 5.028492212e-02, 2.371878922e-01, -3.488543928e-01, -3.920136392e-01, -2.253973037e-01, 5.439686775e-01, -1.139031500e-01, -1.697213203e-01, -3.383147418e-01, 1.216373146e-01, -1.159504429e-01, 2.693046927e-01, -7.854820788e-02}, {3.705453575e-01, -3.532130644e-02, -8.420856297e-02, 2.371001691e-01, -1.182143092e-01, 2.059275098e-02, 8.264139295e-02, -5.997602642e-02, 5.722191557e-02, -1.583537906e-01, 3.345537782e-01, 8.057722822e-03, 5.284773558e-02, -1.347695570e-02, 1.154877432e-02, 3.486497402e-01, -4.099944979e-02, 2.010670304e-01, 1.124509200e-01, -3.996628895e-02, -8.631332219e-02, 1.607128382e-01, 7.521365285e-01, -1.758218706e-01, 1.636959165e-01, 2.319912612e-01, 3.309690952e-02, 2.780539729e-02, 6.330579054e-03, -2.445709333e-02, 4.362192750e-02, 1.117018610e-02, -4.685720801e-02, 1.529810727e-01, 1.416560560e-01, 1.807274520e-01, 3.751057014e-02, -1.271315068e-01, 2.279484272e-01, 4.139166474e-01, 5.542358756e-02, -2.010846734e-01, 6.535914540e-02, 1.937627047e-01, 2.778755128e-02, 7.707002014e-02, 2.658586502e-01, -4.919683933e-02, 3.486091197e-01, -4.938320257e-03, 8.987206034e-03, -3.048038483e-01, 2.879134007e-02, 1.320136189e-01, -8.071862161e-02, 6.844019145e-02, -5.845029280e-02, 1.756868809e-01, -1.942098737e-01, -4.481649492e-03, -8.443018049e-02, 1.639451273e-02, 2.701610029e-01, 3.756126165e-01, -2.063406073e-02, -3.034907281e-01, 1.179392338e-01, 1.125919372e-01, 1.478108019e-01, -2.435142100e-01, 3.912183270e-02, 1.738786399e-01, -6.909827888e-02, 1.399164349e-01, -8.677843958e-02, 7.763709873e-02, -6.262066960e-02, -2.049818933e-01, -5.009945016e-03, -8.442763239e-02, 2.790976465e-01, 1.407109350e-01, 1.619065106e-01, -1.244322881e-01, 4.736212268e-02, 5.762517918e-03, -2.062757909e-01, 2.036294341e-01, 3.452113643e-02, -1.143562049e-01, 1.970216632e-01, 1.815350801e-01, -3.465610743e-01, -1.034620926e-01, -4.834003001e-02, -9.936861694e-02, -6.715325266e-02, -3.796067089e-02, 4.845843092e-02, -1.660669893e-01, 2.116650045e-01, -2.519643307e-01, -1.624338888e-02, -4.016992450e-02, 