#include "nn_parameters.h"

// NN network parameters -- atribute values
const float weights_in[NUM_NODES][NUM_STATES] = {{5.537965298e-01, -3.154168129e-01, 2.103613019e-01, -8.543071747e-01, 4.864373431e-02, -1.364365872e-02, -8.453217745e-01, -3.809032589e-02, -8.218826652e-01, 6.973208487e-02, -3.505810797e-01, -5.534986854e-01, 1.578469872e-01, -1.002660871e+00, -4.323226810e-01}, {-2.979086637e-01, 9.230578691e-02, 4.401826486e-02, -7.988271117e-01, -2.389494628e-01, -2.487870902e-01, -3.992469609e-02, 3.669391870e-01, -2.036932558e-01, -1.347031146e-01, -8.761287481e-02, -2.646297216e-01, -1.951357424e-01, -2.537938207e-02, -1.086835265e-01}, {4.855397642e-01, -2.844585776e-01, -1.034637928e+00, -1.251969337e+00, -1.395995170e-01, 9.826584160e-02, 3.682967424e-01, 1.862981319e-01, -9.637547731e-01, -1.394410610e+00, 8.277967572e-01, 1.484021246e-01, -4.735925496e-01, 1.920273453e-01, -1.245992482e-01}, {-4.386069477e-01, 2.789075971e-01, 3.007211089e-01, 2.748345733e-01, -8.746204376e-01, 2.116060406e-01, -3.780172765e-02, -1.902938485e-01, 6.170783043e-01, -1.134694338e+00, 1.268490851e-01, -6.429198980e-01, -2.584598064e-01, -7.079505920e-01, -3.756933212e-01}, {2.561924756e-01, -3.494059294e-02, 4.685764313e-01, -9.657092690e-01, 1.733691394e-01, 6.302965879e-01, -7.178640366e-01, 1.873826087e-01, 4.241556525e-01, 4.520022273e-01, -1.515416950e-01, -1.166482925e+00, -2.060794681e-01, -4.777225852e-01, 4.335381389e-01}, {-2.205634117e-01, 5.338262320e-01, -4.829449654e-01, 1.584906578e-01, -8.749696016e-01, 2.092747688e-01, -1.062859058e+00, -7.406002283e-01, 3.902186751e-01, -1.891314834e-01, -3.080615401e-01, 1.421395838e-01, 3.461566269e-01, -3.895471692e-01, 2.160984725e-01}, {-3.366792202e-01, 1.760855503e-02, -4.953562319e-01, -9.711753577e-02, -3.784604669e-01, -3.174751103e-01, 2.828362882e-01, 7.887415588e-02, -5.048906207e-01, -7.686302066e-01, 6.904852390e-02, 2.322982252e-01, -1.752477884e-01, -2.156260759e-01, -2.153088301e-01}, {3.386883736e-01, -9.253534675e-02, 3.504880965e-01, -5.534930229e-01, -5.378163606e-02, 1.344996929e+00, 8.827134222e-02, 6.295633316e-01, -7.710491121e-02, 4.625424147e-01, 1.422360539e-01, 3.263700902e-01, 1.109007969e-01, 1.282721281e+00, 5.853763223e-01}, {-7.563725859e-02, 6.960977316e-01, -5.823601484e-01, -1.238251552e-01, -3.087265491e-01, -6.280048192e-02, 4.511654750e-02, 5.352301151e-02, 7.064151764e-02, 4.313879311e-01, -1.203471422e-01, 1.421983093e-01, 2.106769532e-01, 9.422981143e-01, -1.314143091e-01}, {-4.368163943e-01, 2.247605175e-01, 1.111048818e+00, -4.426684603e-02, -5.275367573e-02, 2.555652857e-01, -5.483967066e-01, -7.018162012e-01, 5.822385848e-02, -9.764689207e-01, -6.668632030e-01, 4.817304760e-02, 8.897493035e-02, -3.232009709e-01, -1.020876050e+00}, {-7.958731651e-01, -2.365648001e-02, 8.703098446e-02, 3.740517497e-01, 2.970926762e-01, -2.217256278e-02, 1.739400923e-01, -7.370147109e-01, 2.895537615e-01, 2.270578891e-01, 1.832293421e-01, -1.634368002e-01, -2.469096184e-01, -3.354803920e-01, -5.786504149e-01}, {-6.596340537e-01, -3.848156333e-01, 3.180954754e-01, -4.302142859e-01, 2.568118572e-01, -2.889212072e-01, 6.573294103e-02, -2.273306698e-01, -8.407274485e-01, 3.574927151e-01, 3.943060637e-01, 8.691314459e-01, -5.703356117e-02, 1.995105892e-01, 1.260337383e-01}, {-8.048661351e-01, -6.889389455e-02, -2.046092510e+00, 6.931499839e-01, -1.517032534e-01, -8.494794965e-01, 1.427571476e-01, -1.052956462e+00, -2.323107868e-01, -3.383534551e-01, -1.282651424e-01, 2.110600233e+00, 2.386118650e+00, -2.796550989e-01, 9.491955489e-02}, {3.544663638e-02, 1.721024513e-01, 1.040652171e-01, -5.116708279e-01, 6.014065742e-01, 1.799522638e-01, -1.766279638e-01, 2.806849182e-01, 8.743499219e-02, -2.724579908e-02, 9.506469965e-02, -2.646244466e-01, -5.634146556e-02, -1.098064184e-01, 7.180849090e-03}, {-1.182504058e+00, -6.351607293e-02, -1.553148627e+00, 7.225627303e-01, 3.202600479e-01, -6.125740409e-01, -2.253192216e-01, -9.834818244e-01, 4.921276271e-01, -1.456339508e-01, -4.562221169e-01, 6.770000458e-01, 2.481877327e+00, -1.779876202e-01, 1.694750339e-01}, {-2.087281346e-01, -1.541318595e-01, 5.338356271e-02, -2.150650471e-01, 6.307512987e-03, 7.619246840e-02, 8.337245136e-02, -5.561315417e-01, -2.548888326e-02, 1.864709109e-01, -1.054249108e-01, 2.243011147e-01, 3.934574127e-01, -2.894908190e-01, -5.131866336e-01}, {-5.863202810e-01, 5.945857763e-01, 1.408737991e-02, -2.845737636e-01, 3.112719655e-01, 4.829715490e-01, 7.170293927e-01, 8.821432590e-01, -3.555864096e-03, 1.774754375e-01, -2.045634538e-01, 3.434585333e-01, -5.006809235e-01, 7.174101472e-02, -2.489973456e-01}, {-1.184316754e+00, -4.043017030e-01, 1.288737893e+00, 1.150368527e-01, 5.842157602e-01, -5.690184236e-01, 1.292829961e-01, -6.805268526e-01, 2.210665494e-01, -1.483533263e+00, -1.927881688e-01, -2.061961889e+00, 2.047474980e-01, -8.057072014e-02, -3.932879567e-01}, {-8.415048569e-02, 1.119191572e-01, 2.601852119e-01, -5.182260275e-01, -2.226019651e-01, -2.267515212e-01, -1.872496009e-01, 2.907726765e-01, -3.413001597e-01, 4.948536754e-01, 2.644326985e-01, -3.772204816e-01, 7.498244047e-01, -1.327899378e-02, -2.673099935e-01}, {6.859134436e-01, 8.069322109e-01, 1.427693814e-01, 6.658081412e-01, -8.555672169e-01, 1.937323809e-01, -1.129615307e+00, 1.210645914e+00, -4.838413596e-01, 2.944381237e-01, -1.511128247e-01, 9.223987907e-02, -1.218995173e-02, 6.588218212e-01, 4.591868401e+00}, {7.499549389e-01, -2.090004273e-02, 8.695004582e-01, -5.243645310e-01, -1.176048443e-01, -3.035247624e-01, 1.397022158e-01, -5.733036250e-02, 2.368450165e-01, 8.509399891e-01, 2.434447855e-01, -7.206704021e-01, -5.923768282e-01, 9.265031666e-02, -2.736328356e-02}, {5.521246791e-02, -2.101514637e-01, -4.375708103e-01, 5.821144581e-01, 2.893208563e-01, -6.426595151e-02, 7.099036872e-02, -7.419997454e-01, 1.303500235e-01, -2.965209186e-01, -1.157604530e-01, -2.246796787e-01, -8.208253235e-02, -7.806432247e-01, -6.654763222e-01}, {-2.363047153e-01, 1.846866459e-01, -8.239063025e-01, 8.677644134e-01, 6.886207312e-02, -2.021304816e-01, -8.511824906e-02, -1.305004597e+00, 1.491538584e-01, -3.433640897e-01, 1.378102899e-01, -5.947085023e-01, -2.942672074e-01, -1.015647531e+00, -4.239490628e-01}, {3.951516449e-01, -2.988920175e-02, 3.552142084e-01, 1.798553467e-01, 5.569558218e-02, -3.671112061e-01, 9.757535905e-02, -8.619529009e-02, 1.089220271e-01, 7.891757041e-02, -4.130412042e-01, -3.781599104e-01, -6.700610518e-01, -2.498830482e-02, 8.206244558e-02}, {-3.130982518e-01, 3.399029076e-01, 8.366804719e-01, 3.402160704e-01, -3.040281534e-01, -1.731642008e+00, -5.956428051e-01, -1.521304250e+00, 5.460098982e-01, 3.830328584e-01, -1.190377697e-01, -2.535455823e-01, -2.818201065e+00, -6.106230617e-01, 6.574144214e-02}, {-2.547091246e-01, -3.355427980e-01, -1.274402738e+00, 2.012963891e-01, 4.698709249e-01, 8.986811340e-02, 6.385764480e-01, -2.592543960e-01, -4.448024035e-01, -4.374210835e-01, 1.741261482e-01, 4.233079255e-01, -3.762549758e-01, 9.437242895e-02, -4.966670871e-01}, {-8.770684004e-01, 1.573634595e-01, -7.558522820e-01, 1.081178665e+00, -1.900668740e-01, -5.648409128e-01, 4.919668660e-02, -9.789781570e-01, -3.921838999e-01, -1.480872929e-01, 8.237766623e-01, 2.263005018e+00, 5.778181180e-02, -1.189137399e-01, -5.399917960e-01}, {-1.267733335e+00, 3.735580668e-02, 5.015391111e-01, 2.219047546e-01, 1.187159196e-01, -3.116676509e-01, -7.981498539e-02, 7.073155642e-01, -2.494493425e-01, 1.812675744e-01, -8.947309852e-01, -6.498339176e-01, -7.389268875e-01, 5.165044665e-01, -1.183981419e+00}, {4.720463455e-01, 1.048673093e-01, -4.931522310e-01, -9.073691964e-01, -3.238833249e-01, 4.428676665e-01, -4.337541759e-01, -6.435862929e-02, 3.847411275e-01, -1.327155471e+00, -7.706690431e-01, -3.516122401e-01, -1.720892787e-01, -1.882404238e-01, -2.982707322e-01}, {-1.023494840e+00, -7.504864782e-02, 2.348525524e-01, 6.237486601e-01, -6.873195767e-01, 8.574391901e-02, 2.395737469e-01, -9.523590207e-01, 1.309096068e-01, 7.503923029e-02, 3.585110009e-01, 4.676240087e-01, -6.090742946e-01, 2.076578140e-01, -7.309470773e-01}, {-4.503157139e-01, -5.405620113e-02, -3.279748932e-02, -1.929449588e-01, -2.559315860e-01, -1.315186173e-01, -3.648475111e-01, 4.512965679e-01, -5.734325647e-01, -1.269859672e-01, 1.011428237e-01, -5.856358260e-02, 4.462517798e-02, -4.691706225e-02, -2.462308705e-01}, {1.520549785e-02, -1.499362141e-01, 7.093616128e-01, -5.830031037e-01, -6.193056703e-02, 1.068312168e+00, 3.709476590e-01, 1.087084651e+00, -2.987041473e-01, 7.757299393e-02, -1.486174613e-01, 1.280706823e-01, -2.620154321e-01, 9.460563660e-01, -1.530643851e-01}, {-1.129957199e+00, -5.752251670e-02, 1.289300561e+00, 2.278835922e-01, -1.771339476e-01, -2.965802252e-01, -1.752746701e-01, -4.587369263e-01, 4.034985304e-01, -1.617063642e+00, -2.134091109e-01, 1.330272853e-01, -4.403524399e-01, -3.749122620e-01, 1.908755153e-01}, {3.185440004e-01, 7.624396086e-01, 4.252353311e-01, -6.027111411e-01, -7.126157880e-01, -1.366342008e-01, 6.412907243e-01, -7.417014241e-01, -2.574071884e-01, -1.516265750e+00, 6.515632868e-01, 6.325665712e-01, -1.160871148e+00, -2.694451213e-01, -1.163915396e+00}, {3.901274204e-01, -9.068487212e-03, -5.130634308e-01, -6.057810783e-01, -2.915363014e-01, -2.413981408e-01, -2.647673190e-01, -3.373285383e-02, 8.250663877e-01, -1.210665941e+00, -4.115125239e-01, -4.544413835e-02, -8.924942464e-02, 2.854664624e-02, 1.546298116e-01}, {-1.034651637e+00, 4.441910610e-02, 3.775093555e-01, 8.826990724e-01, 2.648038045e-02, 2.498452216e-01, 2.722797543e-02, -7.855355144e-01, 5.237386227e-01, 1.410080075e+00, -5.055130720e-01, -3.519162238e-01, -2.595398724e-01, 1.212159693e-01, -1.169378281e+00}, {7.521393895e-01, -3.656353354e-01, -5.961811170e-02, 1.382037252e-01, 4.784256220e-01, 5.268048048e-01, 6.978806853e-01, 1.796548963e-01, 4.362984896e-01, 1.218908668e+00, -6.119449437e-02, 2.492068410e-01, 8.161105961e-02, 2.826212645e+00, 6.203463078e-01}, {-1.404660195e-01, 4.612029195e-01, 1.284387559e-01, -4.671329856e-01, -6.234702468e-02, 1.016745090e+00, 4.158889502e-02, 1.388929725e+00, -1.006373614e-01, 9.876770973e-01, 3.820996583e-01, 1.063147411e-01, 1.301046163e-01, -3.679926693e-01, -4.689011872e-01}, {-1.090370715e-01, -9.716107696e-02, 5.969598889e-02, -5.154548883e-01, -1.857354641e-01, 1.866941154e-01, 2.332606018e-01, 1.632591784e-01, 2.159785181e-01, -1.987041906e-02, -3.020372391e-01, -7.104907632e-01, -8.401664346e-02, -4.001137316e-01, 1.494036708e-02}, {1.852127761e-01, -4.327727016e-03, 4.145104885e-01, -4.883770943e-01, 4.593144059e-01, 4.173149467e-01, -9.393901378e-02, -1.357921362e-01, 8.241626024e-01, -1.303628981e-01, -5.505077839e-01, 3.706496656e-01, -1.368136406e-01, 2.329037525e-02, -6.706910729e-01}, {1.565328360e+00, 3.941558301e-02, 5.106731132e-02, -1.430549741e+00, -8.143696934e-02, -5.858300328e-01, -2.554939091e-01, -5.357019901e-01, -1.035647020e-01, 2.508464813e+00, 2.503626645e-01, 8.083277941e-01, 7.954612970e-01, -8.042498827e-01, -9.354615211e-01}, {3.390169144e-01, -3.040618598e-01, 4.185934365e-01, -5.120233297e-01, 5.259134173e-01, 5.880732462e-02, -5.534683466e-01, 2.700258493e-01, 6.161023676e-02, 9.355174303e-01, -1.463781148e-01, 6.625359505e-02, 1.249815151e-01, 8.163509518e-02, -5.807266235e-01}, {-1.219855994e-01, 9.480540454e-02, 1.042301357e-01, -7.452681661e-01, -4.540667310e-02, 5.823206902e-02, 8.935491554e-03, 1.028904244e-01, 5.637414753e-02, 4.061230645e-02, 2.305069417e-01, -3.985425234e-01, -6.049121022e-01, -8.108884841e-02, -3.368813097e-01}, {-2.667248845e-01, 2.205356210e-02, -4.510195553e-01, 1.205149069e-01, -4.117186666e-01, -3.388999999e-01, 1.813464463e-01, -2.009383738e-01, -3.413442373e-01, -4.302181304e-01, 1.511349529e-01, 6.873129606e-01, -5.291799307e-01, 4.628585279e-01, -4.854428470e-01}, {-6.111698151e-01, 9.478807449e-02, 9.966244698e-01, -2.291971594e-01, 1.045189146e-02, 4.593682289e-01, 1.132449806e-01, -1.528457701e-01, -7.143507600e-01, -1.052961230e+00, 1.250706464e-01, -5.359201133e-02, 5.316738039e-02, -1.822984666e-01, -3.247724473e-01}, {-1.385676712e-01, 3.188149929e-01, -5.206106901e-01, -1.282679588e-01, 3.686034083e-01, 4.973497093e-01, -2.554211020e-01, -6.546741724e-02, 5.788604729e-03, 7.241232991e-01, 1.083711814e-02, 1.366116405e-01, 9.615049511e-02, 1.999623775e-01, 8.647335768e-01}, {-7.906302810e-01, 2.765948772e-01, 1.584475160e+00, 1.945550889e-01, -2.957685590e-01, 7.900591493e-01, 1.065313891e-01, 5.536272526e-01, -1.518389881e-01, 1.804503918e+00, -8.765971065e-01, -6.754204035e-01, -6.298879981e-01, -1.512748361e+00, 5.811325908e-01}, {-1.558776200e-01, -2.159915417e-01, 9.345140457e-01, -5.601265430e-01, 3.440654576e-01, 4.944322705e-01, 2.134139277e-02, 3.812096417e-01, -4.789355099e-01, 1.116768956e+00, 4.931078553e-01, -8.206167221e-01, -8.194305301e-01, 4.574654400e-01, -1.059282303e+00}, {-8.156290054e-01, -6.092906594e-01, 1.928922385e-01, 2.673929036e-01, 3.589713573e-01, -1.764043719e-01, -4.479790106e-02, -2.958930433e-01, -4.754793942e-01, 2.081416547e-01, -3.807245791e-01, -4.010176286e-02, -4.444822073e-01, 4.313940704e-01, -1.044695854e+00}, {1.780673414e-01, -1.032198891e-01, 1.412896812e-01, -5.271829367e-01, 4.108533263e-02, -5.156530067e-02, -4.328478575e-01, 4.230687022e-01, -5.970264673e-01, 4.596499503e-01, -2.575376928e-01, -4.578284621e-01, 1.276243925e-01, -8.440992981e-02, -4.387395382e-01}, {-3.530613482e-01, 2.482241243e-01, 2.103309035e-01, -6.116740704e-01, 5.569909886e-02, -2.375976369e-02, -2.329402268e-01, 1.799086481e-02, 1.122377396e+00, 2.838708162e-01, -6.956661344e-01, -4.569206536e-01, 5.745226741e-01, -5.042434335e-01, 1.566339582e-01}, {-1.332097501e-01, 5.714626517e-03, 5.831640363e-01, 5.878606439e-01, 5.222779885e-02, 7.418168783e-01, 7.800957561e-02, 2.506596148e-01, 6.574887633e-01, -3.335072994e-01, -5.959121585e-01, -6.628036499e-01, -5.071220994e-01, -6.058586836e-01, -1.530159712e+00}, {2.709474415e-02, -1.473755091e-01, 1.352707148e-01, -7.296758890e-01, -5.699824169e-02, -1.723034531e-01, -3.872201219e-02, 4.099784493e-01, -3.763579428e-01, 1.127504110e-01, -4.650421143e-01, -4.018292129e-01, -2.778782547e-01, -1.893127412e-01, -1.587785929e-01}, {-2.960964106e-02, -2.243605554e-01, 2.993383110e-01, 9.312112927e-01, 1.737885475e-01, -7.648991048e-02, -4.899258316e-01, 1.932880729e-01, -3.693638146e-01, -5.834111571e-01, -9.020899981e-02, -3.595243692e-01, -1.867275536e-01, 5.088675618e-01, 3.279531002e-01}, {-4.425093234e-01, 2.323143333e-01, 7.532404661e-01, 3.340114057e-01, -5.379761457e-01, 2.627465129e-01, 7.019669414e-01, -2.013874650e-01, -7.975131273e-02, -5.873969197e-01, 8.640295863e-01, 4.737918079e-01, 8.107149601e-01, -1.318146139e-01, -1.367234141e-01}, {-1.078660727e+00, 2.491666228e-01, 1.261525750e+00, -3.627986908e-01, 5.778455734e-02, 1.224454679e-02, -1.014173269e+00, 1.234666407e-01, 5.052627921e-01, -1.275517941e+00, -5.700268149e-01, -4.661701247e-02, -1.934154183e-01, 3.353176713e-01, -1.110374808e+00}, {-6.600927114e-01, -1.845747232e-02, 5.554530621e-01, 6.402462721e-01, 8.749704063e-02, -4.274947345e-01, -1.956532151e-01, -6.729539037e-01, 1.048923954e-01, -7.926376462e-01, 4.353606701e-01, 2.727359772e+00, -7.460345328e-02, -6.633520126e-02, -3.659154177e-01}, {4.964503944e-01, -4.260331765e-02, 2.725849748e-01, -1.506641984e+00, -3.439204022e-02, 1.379228592e+00, 2.560798265e-02, 1.501104355e+00, 1.988328807e-02, 2.800524473e+00, -1.329157948e-01, -1.899509281e-01, -3.251734376e-01, -6.565333009e-01, -3.080059886e-01}, {-2.873683274e-01, 4.908595979e-02, 2.072509825e-01, -3.791265190e-01, -2.981768548e-01, -2.026178241e-01, 1.442301124e-01, 1.340976357e-01, 1.547951549e-01, -1.808264554e-01, 7.228999864e-03, -5.919011235e-01, 3.851767778e-01, -2.139913887e-01, 6.930332631e-02}, {-3.776343539e-02, -7.846117020e-01, 3.582563400e-01, -6.119148731e-01, 1.013264656e+00, 1.887577474e-01, 6.151397228e-01, -8.068352938e-02, -9.151206911e-02, -1.548055530e+00, 1.857341081e-02, -4.883046448e-01, 1.565319896e-01, -6.272464991e-01, -5.299763680e-01}, {-2.121245414e-01, 1.096140891e-01, 7.873449922e-01, 1.075380445e-01, -2.645890415e-01, -1.610169709e-01, 1.602204740e-01, -3.322996199e-01, -5.225375295e-01, -1.344973445e+00, 4.339165390e-01, -8.757949471e-01, -8.516178727e-01, -2.855138063e+00, -3.396803737e-01}, {1.165878307e-02, 1.227632686e-01, 4.017643258e-02, -4.353042245e-01, 6.630253196e-01, 4.323115647e-01, -2.822177410e-01, 1.709250063e-01, -8.343935944e-03, 8.662536740e-02, -2.754340880e-02, -1.945025846e-02, 2.819723189e-01, 5.326135829e-02, 9.673037529e-01}, {7.202684283e-01, 9.213996679e-02, 3.747499585e-01, -9.093638659e-01, -4.520576894e-01, -8.464053869e-01, 2.478639334e-01, -1.086777687e+00, -2.910401523e-01, 1.138366818e+00, -3.860980570e-01, -2.122619301e-01, 8.697252870e-01, -2.467931807e-01, -1.592651904e-01}, {-5.645087361e-01, -4.662227035e-01, 2.717295103e-02, 1.236276984e+00, 1.732988805e-01, -5.923199058e-01, -6.437715292e-01, -1.345477343e+00, 3.543484211e-02, -1.054461718e+00, -8.153903484e-01, -7.550823689e-01, 8.942813277e-01, -6.461086273e-01, -1.352241728e-02}, {4.595912397e-01, 2.015933990e-01, 7.373004556e-01, -1.304053187e+00, 1.267048270e-01, -1.900824159e-02, 3.100476563e-01, 5.283654332e-01, 4.778606445e-02, 1.051745892e+00, 7.534805536e-01, -6.947405338e-01, -8.481474519e-01, 1.453872025e-01, -7.943323851e-01}, {-3.662745357e-01, -9.063903242e-02, 5.233452097e-02, 3.624471724e-01, -2.213494629e-01, -7.641506940e-02, -1.929349750e-01, 7.872281671e-01, -4.151257277e-01, -8.802703768e-02, 2.636012137e-01, -1.124135330e-01, 2.021420300e-01, -2.749125361e-01, -5.394322872e-01}, {-8.771069050e-01, 1.245915592e-01, 1.560088992e-01, 8.840162754e-01, -4.035465717e-01, 2.637794800e-02, 2.577647753e-02, -8.795642853e-01, 3.152892590e-01, 2.529920042e-01, 2.790929377e-01, -3.472098708e-01, -4.172877073e-01, -4.737947583e-01, -4.591414034e-01}, {-2.758087404e-02, 7.531867176e-02, 1.376685202e-01, 9.619164467e-02, 1.814741045e-01, -1.704947278e-02, -1.589218341e-02, 2.833499312e-01, 3.920018300e-02, -2.167947441e-01, 2.058068663e-01, -4.291665554e-02, -4.743318558e-01, -9.391029179e-02, -3.244515657e-01}, {4.275071025e-01, 1.234904528e-01, 5.731667876e-01, -7.168150544e-01, -2.220501453e-01, -1.300344348e+00, 1.665630788e-01, -7.757261395e-01, -5.885101482e-02, 1.094930410e+00, 4.524054229e-01, -1.621528983e+00, 2.182979286e-01, -3.010979295e-01, 5.215090513e-02}, {1.020295978e+00, 8.730906993e-02, 1.563353539e-01, -1.099640250e+00, 1.705418527e-01, -2.900973558e-01, 3.308548033e-01, -1.996063739e-01, -1.334992498e-01, 1.847390890e+00, -4.982200265e-01, 3.772448897e-01, 5.658034086e-01, -3.258338869e-01, -7.017000318e-01}, {-9.956480861e-01, 1.475189030e-01, 1.320695996e+00, 2.224408239e-01, -3.573971242e-02, 4.350199401e-01, -3.059328794e-01, -1.054498672e+00, 2.414005101e-01, -1.518308163e+00, -5.952791572e-01, -6.610783339e-01, -3.538109660e-01, -1.392534494e+00, -1.771111965e+00}, {-4.648751915e-01, 2.819159627e-01, 1.182195991e-01, 8.772346973e-01, 3.310905695e-01, 4.915969372e-01, 4.496367872e-01, 1.067959547e+00, 4.194319844e-01, -5.081093311e-01, -1.260929853e-01, 1.606707424e-01, -5.334654450e-01, 4.590571821e-01, 8.898006380e-02}, {-1.006661803e-01, -1.803678721e-01, 3.215686381e-01, -4.579411745e-01, 1.534815431e-01, 8.249892592e-01, -1.600412130e-01, 7.890206575e-01, 1.861340255e-01, 1.229180217e+00, -1.687924564e-02, -3.510819376e-01, -3.576883078e-01, 1.093160585e-01, -3.926834166e-01}, {-2.786709666e-01, -2.071564272e-02, 1.838350296e-01, 3.544286489e-01, 1.013522446e-01, 5.265690088e-01, 4.690702632e-02, -4.453815520e-01, -6.089528203e-01, -3.171663582e-01, -4.314841926e-01, 2.037188560e-01, -2.985369787e-02, 2.131295353e-01, -1.973780990e-01}, {2.405678630e-01, 3.015165329e-01, 3.284470439e-01, -6.464180350e-01, -1.047217771e-01, 9.732266068e-01, -2.475422621e-01, 4.777568579e-01, -1.362938136e-01, 7.989754081e-01, -1.044010967e-01, 2.551270835e-02, -6.281894166e-03, 6.002853513e-01, 1.179418802e+00}, {5.398387313e-01, 4.609497786e-01, 6.104438752e-02, -3.133277297e-01, -4.127902687e-01, 5.941907167e-01, -3.169050813e-01, 6.914334297e-01, -2.185038850e-02, 6.739789844e-01, -9.570951015e-02, -1.184266284e-01, -7.896106690e-03, 7.291908860e-01, 8.180432916e-01}, {4.885980785e-01, 3.953868151e-02, 2.275014520e-01, -1.069958210e+00, -1.382895112e-01, -7.197727561e-01, 4.653136134e-01, 9.443297982e-02, 8.112957478e-01, 1.316769004e+00, 3.746514320e-01, 1.322885156e-01, -3.116869330e-01, -8.116842508e-01, -6.916796565e-01}, {-3.713323176e-01, 1.223320067e-01, 2.072259337e-01, -6.868919730e-01, -2.246564627e-01, 1.888920665e-01, 2.038522214e-01, 2.093512267e-01, -3.054950535e-01, -6.234405637e-01, -8.359911293e-02, 1.040113047e-01, 2.568989098e-01, -6.306563616e-01, 3.000856005e-02}, {1.425541192e-01, 1.904620677e-01, 2.706844211e-01, -6.720663309e-01, 2.463353574e-01, -8.616430163e-01, -4.454319477e-01, -2.407227010e-01, 1.961595379e-02, 5.238966346e-01, -3.565894365e-01, 7.767366618e-02, -7.229155898e-01, 3.285874128e-01, 2.164992131e-02}, {-1.258781672e+00, -1.386737376e-01, 1.382499695e+00, 4.673618674e-01, 9.955751151e-02, 6.188686490e-01, 6.893044710e-01, -4.849143028e-01, 3.732970357e-01, 5.251899958e-01, 1.048377901e-01, -4.662640393e-02, -3.427318037e-01, -7.903082669e-02, -9.116010070e-01}, {6.164886355e-01, -1.098197475e-01, 1.200354472e-01, -8.539823890e-01, 2.794099450e-01, 2.199471295e-01, -2.876264751e-01, -9.947640449e-02, 5.770027637e-01, -1.354711890e+00, -3.404394984e-01, -1.855106205e-01, 4.752472639e-01, -2.848748863e-01, 1.158941835e-01}, {-1.210121036e+00, 2.189218849e-01, 3.013641238e-01, 7.986956835e-01, 3.736044839e-02, 2.456337586e-02, 1.840983480e-01, -9.085080624e-01, -3.128577769e-01, 3.260291815e-01, -4.583842754e-01, -4.178935885e-01, 1.054098368e+00, -3.556045890e-01, -2.834298313e-01}, {-4.572013021e-01, 1.957319863e-02, 1.072119832e+00, -3.304895461e-01, 4.890506342e-02, 7.657901049e-01, 4.769794047e-01, 6.887122989e-01, 9.018339515e-01, 1.040740252e+00, -5.880873799e-01, -4.344927371e-01, -6.465337873e-01, -1.131823540e+00, 7.299374342e-01}, {5.762622952e-01, -5.313053131e-01, 8.242502064e-02, 3.330212831e-01, 4.906986058e-01, 2.507817149e-01, 9.738239646e-01, 1.930275917e+00, 3.334934711e-01, -4.566125944e-02, 3.085969687e-01, -3.409566581e-01, 3.751523793e-01, 4.532540321e+00, 5.599938631e-01}, {-1.589528680e+00, 9.826209396e-02, 1.422384977e+00, 4.656884670e-01, -2.573270202e-01, -1.428178232e-02, 1.543857306e-01, 1.635002941e-01, 1.423066407e-01, -6.612170935e-01, 8.786574602e-01, -1.897214800e-01, -4.099473059e-01, -8.683262467e-01, 2.361438572e-01}, {-7.884500623e-01, -1.132517159e-01, 1.245199796e-02, 2.781045437e-01, 6.179497764e-02, -7.040143013e-02, 3.612284362e-01, -9.018299580e-01, 7.178534567e-02, -9.773296714e-01, -2.889400423e-01, -1.520804018e-01, 3.089498281e+00, -3.080212176e-01, 3.627410233e-01}, {-1.262827367e-01, -3.017641604e-01, 2.869766951e-01, 1.833188534e-02, 2.105990946e-01, -1.463315845e+00, 7.494776845e-01, -6.780873537e-01, -5.784469247e-01, 9.414137006e-01, 5.316066742e-01, -2.335844040e+00, -9.342120290e-01, -6.928299665e-01, -4.089191556e-01}, {4.271353781e-01, 2.569921017e-01, 4.027771056e-01, -4.580723047e-01, -6.756179333e-01, -6.118136048e-01, 1.055714250e+00, 2.147001624e-01, -3.016936593e-02, 8.695421815e-01, 5.468294024e-01, -9.579927921e-01, -5.825542212e-01, -5.693409443e-01, -9.906404652e-03}, {1.900721788e-01, 1.266186535e-01, 4.714188576e-01, -2.301064134e-01, -3.418915570e-01, -3.749342561e-01, -2.255275659e-02, 6.146490946e-02, 5.107854605e-01, 1.133092403e+00, 2.278913409e-01, -6.118960381e-01, 8.152769506e-02, -5.482111573e-01, 1.894268580e-02}, {-6.352845579e-02, 4.576899409e-01, 2.394569367e-01, -7.693619132e-01, -5.240953714e-02, 1.063178539e+00, 1.873300821e-01, 1.600377440e+00, 3.102281094e-01, 1.203647137e+00, 5.407458544e-01, 5.409505963e-01, -6.218170524e-01, 3.140048087e-01, -6.062432528e-01}, {5.235590339e-01, 1.564767361e-01, 4.138739705e-01, -5.262578130e-01, 4.962521493e-01, -6.848695874e-01, -4.276649058e-01, -1.407945603e-01, 1.923549771e-01, 1.130469441e+00, 9.813121520e-03, -4.075276107e-02, -2.797383666e-01, -5.564821362e-01, -2.008796781e-01}, {7.098203897e-01, -1.635248661e-01, -8.218014240e-01, -6.504485011e-01, -2.641516328e-01, 2.416048646e-01, 6.578902602e-01, -1.592486203e-01, -1.183041707e-01, 1.137242988e-01, -2.962264419e-01, 8.823059797e-01, 6.144731045e-01, 1.220111012e+00, -2.897206508e-02}, {-2.474666834e-01, -6.692487746e-02, 7.628141344e-02, 3.088409640e-02, 1.708105206e-01, 1.831556857e-01, -2.199862003e-01, 4.981835186e-02, 8.072760701e-02, -5.701899529e-01, 2.786880732e-01, -1.657795459e-01, -3.444555104e-01, 1.621427834e-01, -2.816640437e-01}, {8.401910663e-01, -9.041050076e-02, -2.255350351e-01, -5.195488334e-01, 1.517579108e-01, 1.162593886e-01, -5.819988623e-02, -1.027978659e+00, 5.259541869e-01, 5.216889381e-01, -2.512374520e-01, -1.029497743e+00, -1.755695224e+00, -7.365044951e-01, -6.233530641e-01}, {1.406033337e-01, -1.041706130e-01, 3.191601634e-01, 2.392253280e-02, 4.887436628e-01, 6.005213130e-03, -1.493570060e-01, -1.859943196e-02, 3.055170476e-01, 5.321015045e-02, 1.558748186e-01, -1.984990388e-01, -5.959429145e-01, 2.802184038e-02, -2.555565238e-01}, {2.411004007e-01, 1.952508688e-01, 7.708397508e-01, -6.059259176e-01, 3.816571459e-02, 1.333375812e+00, -6.869531870e-01, 1.345490813e+00, -2.336167842e-01, -3.771080971e-01, -2.080008388e-01, -2.781597972e-01, -1.245585978e-01, 3.831661344e-01, 9.503141046e-01}, {-2.718803585e-01, -4.598084092e-01, -1.674240232e-01, -8.040369302e-02, 1.215786263e-01, 4.239802361e-01, -4.180662632e-01, 1.381236553e+00, 4.951566458e-01, 6.101648808e-01, -2.769564688e-01, 3.712402582e-01, 3.215015680e-02, -7.100279331e-01, -5.184260011e-01}, {3.324394226e-01, 1.119888015e-02, 3.392370641e-01, -2.266359627e-01, 1.080327015e-02, 2.403632700e-01, 2.851624787e-02, 8.231002092e-01, -1.013263091e-01, 5.196665525e-01, 4.530856013e-01, 5.055875704e-02, -1.160959080e-01, 8.916880488e-01, 6.598863602e-01}, {4.807791114e-01, -6.495536119e-02, -7.828318477e-01, -7.395551801e-01, -1.401319504e-01, 1.267802417e-01, -1.710509509e-01, 4.525914192e-01, 2.427599430e-01, -6.254330277e-01, 7.828304172e-02, -1.009965241e-01, 4.301795661e-01, -2.790653706e-01, 9.038880467e-01}, {-9.482942224e-01, -1.278042048e-01, 7.263662219e-01, 4.471132457e-01, 2.189204395e-01, -2.327258587e-01, -8.149236441e-02, -5.542102456e-01, -4.423190951e-01, -1.533984303e+00, 7.000340521e-02, -9.903742075e-01, -9.341971874e-01, -6.861550808e-01, -4.309004843e-01}, {3.370876014e-01, -9.826543182e-02, 3.304503858e-01, -9.834756851e-01, -2.487293631e-01, 9.608307481e-01, 2.848275937e-02, 1.264160275e+00, -3.641323745e-01, 1.890337825e+00, -5.961173177e-01, -6.426034570e-01, -4.573876038e-02, -9.398114681e-01, 2.548067868e-01}, {2.195878923e-01, -1.252007782e-01, 5.097770691e-01, 4.885751903e-01, 1.457238942e-01, -2.002035230e-01, 3.751279414e-01, -1.653075367e-01, 6.972415000e-02, 9.485779703e-02, -4.059371352e-01, -1.438461840e-01, -4.421032667e-01, -1.013780460e-01, -1.342958957e-01}, {-5.954759121e-01, -9.981688112e-03, 1.477169693e-01, -7.155638337e-01, -4.505499005e-01, -8.627861738e-02, -1.940261126e-01, 4.916118383e-01, -3.259434402e-01, -9.065383673e-01, -5.086604357e-01, 8.314493299e-02, -1.394243956e+00, -6.290031672e-01, 3.898164928e-01}, {-5.448165536e-01, -1.122925505e-01, 1.895781010e-01, -1.311129779e-01, 1.967899650e-01, 1.789334416e-01, 7.187674940e-02, 2.735724449e-01, 6.150342226e-01, -5.531390905e-01, -4.212035239e-01, 1.391340643e-01, -1.365755051e-01, -2.196222991e-01, -5.252153277e-01}, {-1.457840443e+00, -6.518661231e-02, 1.296318650e+00, 1.362864077e-01, 2.189350277e-01, 1.977837682e-01, -3.621675670e-01, -4.584114850e-01, -2.884697616e-01, 6.064382792e-01, 1.347578019e-01, -1.229178682e-01, 1.621385664e-01, -7.570397258e-01, -1.098904461e-01}, {-1.983736157e-01, -2.693835199e-01, -1.093014255e-01, -3.211782873e-01, 3.039955497e-01, -7.864551246e-02, 2.310146987e-01, -2.626886964e-01, 2.779808342e-01, -3.101655245e-01, 2.508949339e-01, -1.171328545e+00, -3.489495516e-01, 3.412120044e-01, -1.992712498e+00}, {7.391839623e-01, -4.202964902e-02, 1.202739596e+00, -1.202545643e+00, -1.650398821e-01, 7.124251723e-01, 6.510738283e-02, -5.715576559e-02, -5.655717254e-01, 2.593290567e+00, -4.335356653e-01, -5.825070739e-01, -4.076626897e-01, -1.611870974e-01, 2.312872112e-01}, {6.641493440e-01, 8.090812713e-03, 5.608634353e-01, -2.398915589e-01, 1.476043742e-02, -4.744716585e-01, -6.082943175e-03, -7.368102670e-02, 3.383553922e-01, 8.663222194e-01, 2.932389975e-01, 1.252421439e-01, -3.270593658e-02, -1.257136315e-01, -1.301271766e-01}, {-2.708967626e-01, -2.038480043e-01, -1.282513142e-01, -4.258129597e-01, 1.302015036e-01, 7.261124253e-01, 4.296500087e-01, 6.302911639e-01, -3.354429603e-01, -3.760837018e-01, 1.968102157e-01, 2.739805579e-01, 1.760967731e+00, -4.184506238e-01, 1.758465916e-02}, {5.355857611e-01, 4.224906862e-02, 1.223620415e+00, -1.066755533e+00, 2.713614404e-01, 1.159711719e+00, -1.070931554e-01, 4.135533571e-01, 5.951321125e-01, 3.024745941e+00, 6.567897201e-01, -4.607142136e-02, -7.207988501e-01, 6.857324839e-01, -8.670275807e-01}, {-1.476406902e-01, -7.994107157e-02, 1.995509714e-01, 1.701324731e-01, -3.095993213e-02, -3.238170445e-01, -2.571161389e-01, 4.216494039e-03, 2.805177355e-03, -3.777308464e-01, 2.635523379e-01, 3.739505410e-01, -1.500774920e-01, 1.800473779e-01, -1.875635237e-02}, {-1.023705721e+00, -8.288611472e-02, 7.694541812e-01, 1.648695320e-01, -1.694114208e-01, 2.375533804e-02, -3.439824283e-01, -7.103988528e-01, -6.716051698e-02, 1.447264552e-01, 8.508302271e-02, -5.724049360e-02, -6.599741429e-02, -5.780542493e-01, -5.055432916e-01}, {1.251766086e-01, -2.761358023e-01, 3.495132029e-01, -5.331786275e-01, 4.049930274e-01, -4.655190706e-01, -4.448431730e-01, 3.511235714e-01, 1.851406842e-01, 4.345520437e-01, -9.387215972e-01, 2.003106624e-01, -7.177321911e-01, -2.231797427e-01, -1.501641124e-01}, {1.151377633e-01, -2.165821940e-01, -8.879182935e-01, -1.222003698e-01, 6.691710353e-01, -3.739360869e-01, 6.762585640e-01, 2.055853456e-01, -1.916026920e-01, -1.011547208e+00, 8.184370995e-01, 1.069350541e-01, 1.489815265e-01, -1.417338550e-01, 2.034667134e-01}, {-1.111146808e+00, -8.382385224e-02, 3.521193862e-01, 8.885993361e-01, 5.410082936e-01, -2.367454022e-01, 2.185633034e-01, -1.227573276e+00, -1.259005517e-01, -2.675432563e-01, 4.633890688e-01, 4.515169654e-03, -2.783876657e-01, -7.083593607e-01, -4.707500935e-01}, {-5.389769077e-01, 6.474632025e-02, 1.381700397e+00, -3.600791395e-01, -2.468111366e-01, -5.452494323e-02, 8.769205213e-02, 1.338450015e-01, -3.478647470e-01, -9.429974556e-01, 1.769703776e-01, 1.909103617e-02, 1.145051494e-01, -2.044568211e-01, -2.491308451e-01}, {-2.283626795e-01, 3.045295477e-01, -4.000549316e-01, 3.393296003e-01, -5.563060045e-01, -2.266823351e-01, -3.413583040e-01, -7.590470910e-01, -9.563234448e-02, -3.661884964e-01, 2.154813111e-01, -1.918707341e-01, -3.153440952e-01, -5.780916810e-01, -5.475307703e-01}, {5.105553269e-01, 5.998271704e-02, -1.148895621e+00, -1.164240956e+00, -1.374445204e-02, -1.804516613e-01, -2.752282023e-01, 4.324806035e-01, 8.944770098e-01, -1.389943242e+00, -9.231806993e-01, -3.335514367e-01, -2.055835873e-01, -1.876315922e-01, 3.618351743e-02}, {-3.419418931e-01, 2.352507114e-01, -1.167966053e-01, -4.681004584e-01, 1.418230385e-01, -2.544887662e-01, -5.475922227e-01, 4.253949225e-01, -2.219343781e-01, -2.485280633e-01, -6.013402939e-01, -3.271001875e-01, -1.990741640e-01, -3.568939269e-01, -2.118632346e-01}, {6.005842686e-01, 1.052131504e-02, 6.798108816e-01, -7.037546635e-01, 4.465578496e-02, -6.184563041e-01, -2.684881389e-01, -3.041779399e-01, -9.229354560e-02, 6.359603405e-01, -9.824077040e-02, -4.419406950e-01, -5.589417815e-01, 4.759446383e-01, 1.377594769e-01}};

const float bias_in[NUM_NODES] = {1.155279651e-01, 4.887246788e-01, -3.428655444e-03, -4.885780215e-01, -3.177640960e-02, -7.078026235e-02, 1.128276885e-01, -5.565797091e-01, 1.706821285e-02, -1.104317069e+00, -2.625654936e-01, -5.090261698e-01, -7.297520041e-01, 2.055812925e-01, -7.533976436e-01, -8.401962370e-02, -1.950071603e-01, -6.901219487e-02, 3.581739962e-01, -1.627796054e+00, 2.640791535e-01, -9.162448347e-03, 1.888985783e-01, -1.875577271e-01, -8.260283470e-01, -6.522998214e-02, -5.683882833e-01, -5.417466760e-01, -4.512856603e-01, -1.381511241e-01, -2.703362107e-01, -3.195163310e-01, -1.066205502e-01, -9.016381502e-01, 3.956433833e-01, -1.567383111e-01, -7.244881988e-01, -1.868452132e-01, 3.936893344e-01, 1.983437836e-01, 2.354841828e-01, 1.233084723e-01, 1.709358841e-01, 3.651622236e-01, -5.320667624e-01, 2.610753477e-01, -1.130869150e+00, -3.324358463e-01, -3.838928044e-01, 3.305802643e-01, -3.009697497e-01, -9.816487432e-01, 4.235537350e-02, -9.981603175e-02, -2.842191160e-01, -1.944904327e-01, -8.607472777e-01, -1.289536059e-01, 3.078587055e-01, -5.497581363e-01, -1.815929174e+00, -4.518556595e-02, 2.774375677e-01, 2.173065841e-01, -1.734138578e-01, -3.566855788e-01, 2.492980510e-01, -1.930452734e-01, 1.066223830e-01, -5.022739619e-02, -1.452664852e+00, -2.675274611e-01, -1.268872470e-01, 9.665669501e-02, -3.770908117e-01, -4.053738117e-01, 5.750542879e-01, 4.149165750e-01, 1.047216505e-01, -3.582013547e-01, -3.304852247e-01, -4.606094956e-01, -3.378478885e-01, -1.585506678e+00, -2.562710941e-01, -8.213016987e-01, -6.037777662e-01, 7.874070853e-02, 5.316536408e-03, -1.478296965e-01, 5.094863176e-01, 6.113073602e-02, -2.837117761e-02, -4.109610021e-01, -2.678079903e-02, -4.491356611e-01, 2.004929781e-01, -3.938111067e-01, -6.910513341e-02, -6.326158047e-01, -3.839845061e-01, 1.249719784e-01, 1.643756479e-01, 1.521909535e-01, -6.401611567e-01, -8.455934525e-01, 1.775520146e-01, 2.500526607e-01, 5.638591051e-01, -4.275220633e-01, 4.824279845e-01, -7.257015109e-01, 9.603206068e-02, 1.379930824e-01, 2.524757385e-01, -5.432413816e-01, -3.760939538e-01, 1.161806509e-01, 3.208622336e-01, 2.280171961e-01};

const float weights_out[NUM_CONTROLS][NUM_NODES] = {{-1.367266923e-01, 7.035769522e-02, 7.240332365e-01, 2.962950170e-01, 1.958488673e-01, -1.160797104e-01, 2.215873897e-01, 3.162360489e-01, 1.998470426e-01, -2.244397253e-01, 3.514810503e-01, 1.911505759e-01, 1.063807011e+00, 1.073019132e-01, 2.989992797e-01, -1.341048919e-04, -3.154163361e-01, -1.010870218e+00, -6.658624858e-02, -1.044650152e-01, -9.524676204e-02, 4.171189070e-01, 1.106885910e+00, -1.270053536e-01, -2.112793364e-02, 6.169427633e-01, 1.510562539e+00, -2.178546190e-01, 3.483742476e-02, 5.947622657e-01, -4.979384691e-02, 2.362931818e-01, -7.985192537e-02, 7.079023719e-01, -5.070433021e-02, 7.410597801e-01, 6.421454251e-02, -3.312987089e-01, 1.784793437e-01, -2.195886075e-01, -1.407560587e+00, -4.020436481e-02, -2.061128989e-02, 3.847285509e-01, -1.624822468e-01, 1.731357425e-01, 1.441851407e-01, 2.067977935e-01, -8.687957190e-03, 1.279167980e-01, -1.501716487e-02, 1.282378286e-01, 1.878051013e-01, -3.022368550e-01, -7.284951210e-02, 1.714402437e-01, 1.391630292e+00, -6.286844015e-01, -1.601824164e-02, 4.235544428e-02, 1.394540966e-01, 7.066783309e-02, -4.485076368e-01, -2.336353213e-01, -1.407300532e-01, -1.597544849e-01, 6.476965547e-01, -4.313292354e-02, -7.559834123e-01, -4.955973923e-01, 2.312985808e-01, -3.471832275e-01, -2.166993544e-02, -1.768533885e-01, 2.927477062e-01, 3.566931188e-01, -7.232788801e-01, 2.558558621e-02, 1.061300412e-01, 1.100673378e-01, -2.727317065e-02, -9.639081359e-02, -8.980461210e-02, -7.138645649e-02, -1.108011082e-01, -2.516964078e-01, -1.308841944e+00, -5.549545884e-01, -8.056912571e-02, -4.282544255e-01, -1.491338313e-01, 2.376689166e-01, -5.010889098e-02, -4.655514359e-01, -3.011404723e-02, 2.892099619e-01, -2.541216016e-01, 1.361717582e-01, 2.792818248e-01, -3.979954422e-01, -7.369877398e-02, -1.926901489e-01, 3.497031629e-01, -1.755041815e-02, 1.227800697e-01, 5.636359379e-02, 1.431824714e-01, -3.089804351e-01, 1.403714865e-01, -2.617420554e-01, -5.141582340e-02, 7.811158895e-02, -1.006631479e-01, 4.568972290e-01, 6.255609393e-01, -1.441784482e-02, 4.153988063e-01, 2.050268948e-01, 1.820712686e-01, -8.095603436e-02}, {-3.947008550e-01, -9.238144755e-02, 1.776221246e-01, -2.763560116e-01, 5.431386456e-02, 5.353149772e-01, 1.342087686e-01, 4.914278388e-01, 2.047639340e-01, 9.167577326e-02, 2.928878069e-01, 4.999736557e-04, 1.119039893e+00, 2.008725554e-01, 1.573336840e+00, -1.430489030e-02, -1.628246531e-02, 2.438316792e-01, -2.323983461e-01, -2.226633877e-01, -7.716823369e-02, 4.916426241e-01, 7.840770483e-01, -2.251067460e-01, -1.628095031e+00, 3.581953347e-01, 2.732383907e-01, -3.402243853e-01, 5.747630000e-01, 2.253562957e-01, -3.603643551e-02, 1.017871350e-01, -4.391385019e-01, -4.691920280e-01, 4.209435284e-01, 2.268512994e-01, 3.456805944e-01, -6.205505505e-02, 6.267361343e-02, -1.694022119e-01, -1.277856469e+00, -3.364509940e-01, 6.995015591e-02, 1.518755108e-01, 1.791056097e-01, 2.820088267e-01, 3.570404369e-04, 2.141907811e-02, 2.613976002e-01, -3.021383584e-01, 3.988211229e-02, -2.843919992e-01, -2.188925296e-01, -2.448461205e-01, -2.713647783e-01, -8.732949942e-02, -3.424747884e-01, -5.583189726e-01, 7.518666983e-02, 4.080099165e-01, -1.023377478e-01, 2.914383113e-01, -6.160055995e-01, 1.037312031e+00, 1.219086275e-01, -9.765697271e-02, 2.662875056e-01, 3.463848308e-02, 1.243675947e-01, -1.051003337e+00, 8.741236329e-01, -1.834709197e-01, -1.715216786e-01, 2.848292291e-01, 3.491537571e-01, 1.366915107e-01, 1.299816072e-01, 2.516976595e-01, -4.026254117e-01, 9.141210467e-02, 3.365984857e-01, 7.652145624e-01, 2.108696401e-01, -1.049976125e-01, -2.497915775e-01, 1.463659644e+00, -7.650980726e-03, 3.845826490e-03, 1.315749139e-01, 1.297158599e-01, -8.778228611e-02, 4.225673899e-02, -2.194501646e-02, -7.216768861e-01, 1.475648433e-01, 1.842019707e-01, -3.507340252e-01, 4.162646085e-02, 3.395763338e-01, -4.417365789e-01, -3.433037996e-01, 5.690329149e-02, -4.161375463e-01, -1.703472435e-01, 3.049589694e-01, -1.164206862e-01, -1.557333618e-01, -1.785652488e-01, -4.980144203e-01, -1.310006082e-01, -7.654886693e-02, 2.384915054e-01, -4.100889564e-01, -1.258119494e-01, 2.883532941e-01, 1.370055079e-01, 4.529390931e-01, 7.866608500e-01, -2.786070704e-01, -2.154593915e-01}, {-4.963712692e-01, 3.640740812e-01, -2.255162224e-02, 1.429530233e-02, 3.892781138e-01, 4.170447588e-02, 2.462519705e-01, -4.316697121e-01, -2.092276812e-01, 8.506206423e-02, -1.887148619e-01, 1.674712747e-01, 2.148921974e-02, 6.668264978e-03, -2.867562696e-02, -1.445302963e-01, 1.656069458e-01, -4.900968969e-01, 1.173546612e-01, 3.967462108e-02, 4.715727866e-01, -1.395841986e-01, -1.283406168e-01, 2.339868695e-01, -1.440175027e-01, 5.272368714e-02, -1.604757160e-01, -2.116377465e-02, -1.448532939e-01, -2.258057147e-01, 2.372327894e-01, -5.406283215e-02, -4.849225283e-01, -1.723949462e-01, 2.109133601e-01, -8.641717583e-02, 9.491511583e-01, 4.286262989e-01, 1.894562840e-01, 2.894314826e-01, 3.146229088e-01, 8.705093712e-02, 4.256632030e-01, 2.473850250e-01, -9.682606161e-02, -2.868703939e-02, -1.018594980e+00, 5.518405437e-01, 1.200906411e-01, 1.555766910e-01, -2.194813341e-01, 2.420811206e-01, 1.935059279e-01, 6.964832544e-02, -2.124418616e-01, 2.367310785e-02, -1.550293714e-01, 8.609018922e-01, 1.402640343e-01, -2.885395288e-01, -1.484482646e+00, 1.464844048e-01, 4.043271020e-02, -6.079167500e-02, 8.939245939e-01, 2.688553333e-01, -2.072630376e-01, 1.934748888e-01, -1.734653711e-01, 2.903811634e-01, -1.268782020e-01, -1.057716981e-01, 3.092280626e-01, 3.204211360e-03, -2.771140635e-01, -4.646101594e-01, 3.850288093e-01, 1.148222983e-01, 1.757108122e-01, -5.568113327e-01, -1.611196995e-01, -3.814758360e-01, -3.454540372e-01, 1.586606503e+00, -7.726081610e-01, -3.066410311e-02, -7.785237581e-02, 3.614809215e-01, -1.292414367e-01, 6.366901398e-01, -4.682146013e-02, -4.739173055e-01, 1.069378704e-01, -4.746082425e-01, 1.969212145e-01, 4.953765273e-01, 5.472692847e-02, -5.341829658e-01, 6.471755356e-02, -4.727566838e-01, -9.063795209e-02, 7.304993272e-02, -9.395802021e-02, 2.397733927e-01, -5.573957562e-01, 1.341870278e-01, 2.028263360e-01, 1.221490726e-01, 3.945887089e-02, 1.826517582e+00, 2.823845148e-01, -4.630559087e-01, 4.962469265e-02, -6.240497530e-02, -2.105863094e-01, -2.053799182e-01, -1.735649556e-01, -2.276509255e-02, 3.991350532e-03, 4.065166414e-01}, {2.508054860e-02, 2.736237347e-01, 3.554777056e-02, -9.264595062e-02, 5.993047953e-01, -1.358450204e-01, 5.202455074e-02, -1.687201113e-01, 1.224697940e-02, -5.517314672e-01, -2.379153222e-01, -2.033921629e-01, -7.743746787e-02, 2.038699985e-01, -5.520654959e-04, -9.648092091e-02, 9.849484195e-05, -2.860420644e-01, 1.678217947e-01, 1.967095971e+00, 3.276940882e-01, -1.194076762e-01, -1.443310380e-01, 1.238581762e-01, -2.624181509e-01, 4.928803071e-02, -8.158707619e-02, -8.096647859e-01, -1.184839755e-01, -6.471072882e-02, -2.021279745e-02, 3.707367182e-01, -2.129554152e-01, -3.581838906e-01, 1.471618423e-03, -4.341248572e-01, 1.409879923e-01, 2.274729908e-01, 3.073668778e-01, -6.067264080e-02, 2.132091373e-01, 2.831445932e-01, 1.699126959e-01, 1.537066400e-01, -1.384838670e-01, -3.092082441e-01, 7.750160098e-01, -2.877248526e-01, -2.856604159e-01, 1.242236644e-01, 3.011529148e-01, -3.985724151e-01, 2.875633240e-01, -1.776196361e-01, 1.669905186e-01, -6.331505179e-01, -2.355581224e-01, 1.057676077e+00, 3.002509475e-01, -2.435084581e-01, 2.126549333e-01, -2.182166874e-01, 1.801163107e-01, -8.160535246e-02, -9.708485752e-02, 1.294292416e-02, -1.960432976e-01, 1.603341848e-01, 3.492633700e-01, 9.250303358e-02, -8.930099010e-01, 2.702244222e-01, -1.899673976e-02, 2.023385279e-02, -6.405528784e-01, -4.050003588e-01, 7.372705732e-03, 2.897005975e-01, 1.181981713e-01, -6.256564856e-01, -1.303621083e-01, -1.599134803e-01, 6.108953953e-01, 2.796745673e-02, -1.785532683e-01, -1.293528974e-01, -2.370265275e-01, -6.466793269e-02, 3.909802735e-01, 1.154459454e-02, 3.904230893e-01, -1.353221834e-01, 1.805036664e-01, -4.890968800e-01, 2.749757767e-01, 4.635610282e-01, 4.227852821e-01, -8.727293462e-02, -2.163341343e-01, -1.720288694e-01, 9.886205196e-01, 1.403322518e-01, 8.831655979e-02, 1.454930305e-01, -4.488348663e-01, -7.231739163e-01, 1.396152258e+00, 2.173937261e-01, 2.251100093e-01, -4.661253989e-01, 1.058210731e-01, -2.660694420e-01, 1.569055319e-01, 1.580165178e-01, -1.932308823e-01, -1.950221509e-01, -9.663329273e-02, 4.556432366e-02, 2.443446219e-01, 3.979423642e-01}};

const float bias_out[NUM_CONTROLS] = {4.935551062e-02, -5.358350649e-02, 1.354344189e-01, 1.369259655e-01};

const float in_norm_mean[NUM_STATES] = {9.657240510e-01, -1.071850886e-03, -2.196756154e-01, 9.736486673e-01, -6.852848455e-04, -6.307584792e-02, 1.420122862e-05, -3.693522885e-02, -1.172819757e-03, 2.896709833e-03, 8.406690322e-04, 8.163307129e+03, 8.163872559e+03, 8.163151367e+03, 8.163680176e+03};

const float in_norm_std[NUM_STATES] = {7.611456513e-01, 1.801421940e-01, 3.415671885e-01, 8.558626771e-01, 2.903467417e-01, 3.434083164e-01, 7.998836786e-02, 2.922430336e-01, 3.649447262e-01, 1.059593558e+00, 1.363242269e-01, 3.270226135e+02, 3.263830566e+02, 3.184765015e+02, 3.179923706e+02};

const float out_scale_min = 7.638021484e+03;

const float out_scale_max = 8.444150391e+03;

const float weights_hid[NUM_HIDDEN_LAYERS-1][NUM_NODES][NUM_NODES] = {};

const float bias_hid[NUM_HIDDEN_LAYERS-1][NUM_NODES] = {};