#include "nn_parameters.h"

// NN network parameters -- atribute values
const float weights_in[NUM_NODES][NUM_STATES] = {{3.242641091e-01, 1.174750552e-01, -3.688367307e-01, -3.342984021e-01, -2.606656216e-02, 5.642590523e-01, -3.599157184e-02, 2.118721306e-01, -2.617209852e-01, 1.638040990e-01, -3.220607042e-01, -1.657561809e-01, 4.810304381e-03, -1.222506911e-01, -4.180628434e-02, 2.430852205e-01, 5.463417768e-01, -7.717695832e-01, -3.051595688e-01}, {5.217247009e-01, -2.374711633e-01, 2.760978341e-01, 3.102709651e-01, -1.883153766e-01, -2.755986452e-01, -2.314569950e-01, -4.932957590e-01, -5.125634670e-01, -2.367366254e-01, -3.872804940e-01, -3.489466012e-01, -1.079021096e-01, -1.214314401e-01, 1.996995136e-02, 1.879389025e-02, -4.978370667e-02, -1.397183985e-01, -3.274686337e-01}, {4.192681611e-01, 9.320248663e-02, -1.794817746e-01, -4.313032627e-01, -5.735815763e-01, 9.003806114e-02, 3.192047179e-01, 4.207584858e-01, 1.321136117e+00, -2.930329926e-02, 1.211239323e-01, 7.620949298e-02, 3.537358344e-02, 1.706206948e-01, -1.291164011e-01, -1.284453422e-01, -2.688208409e-02, 1.215258390e-01, -6.950949319e-03}, {8.602336049e-01, 5.370160937e-01, -3.691262603e-01, -2.253949344e-01, -4.125023484e-01, 6.959067285e-02, 2.066522539e-01, 3.947874308e-01, 8.494063020e-01, 9.717735462e-03, 3.074848652e-01, -1.075313687e-01, 6.753437221e-02, 9.040601552e-02, -7.921586931e-02, -6.303711981e-02, -5.359965935e-02, 8.421841264e-02, 9.554292262e-02}, {1.705060005e-01, 5.076751485e-02, 1.776583046e-01, -1.459434927e-01, 8.147152513e-02, -1.412386298e-01, 1.211411580e-01, 1.588392854e-01, 1.977990717e-01, 1.391231269e-01, 1.623448282e-01, 8.268541098e-02, 6.648356915e-01, -5.939662457e-02, -7.418500185e-01, 2.275933027e-01, 2.749637961e-01, 3.136848211e-01, 1.251068562e-01}, {-1.024995804e+00, 1.750345707e+00, -2.266467214e-01, 5.029146671e-01, -5.346835852e-01, 2.709057033e-01, -9.315867722e-02, -6.512438506e-02, 6.374986768e-01, -6.842207909e-02, -5.333762243e-02, -3.765690699e-02, -1.122627556e-01, -6.689907610e-02, -7.079824060e-02, -2.675803006e-02, 3.047456220e-02, -3.497472405e-02, -2.144563943e-02}, {-1.470083594e+00, -6.360095143e-01, 1.503149867e-01, 8.073483109e-01, -1.621275842e-01, -2.812076360e-02, -5.729477406e-01, -1.224483401e-01, -2.422356009e-01, 8.986905217e-02, 3.768900782e-02, -6.518639624e-02, -9.535697103e-02, 1.504647732e-01, -8.045357466e-02, -2.709024847e-01, -1.211008709e-02, 4.056280106e-02, 8.919087239e-03}, {-8.784149289e-01, -1.372015029e-01, 7.330223918e-02, 3.347482383e-01, 2.826487124e-01, 9.902220964e-02, 1.267016828e-01, -1.236041114e-01, 2.537010014e-01, 3.818409443e-01, 1.433355689e+00, 1.260311157e-01, 3.299854323e-02, 4.122278839e-02, -1.810646355e-01, -3.587813303e-02, -3.025402874e-02, 2.501756698e-02, 2.148092259e-03}, {-7.920802236e-01, -4.960214496e-01, 5.447534919e-01, 8.129142523e-01, 3.476600349e-01, -5.727927387e-02, 1.528461277e-01, -4.031813443e-01, -4.045276344e-01, -1.019557491e-01, -1.484777182e-01, -9.022891521e-03, -3.065790283e-03, 3.750656545e-01, 1.271735691e-02, -3.729056716e-01, -2.404070497e-01, 3.891022205e-01, -6.579838693e-02}, {1.318204999e-01, 5.025312304e-01, -3.878903687e-01, 1.735055447e-01, -4.253998697e-01, 1.598747820e-01, -6.067597866e-01, -7.178922743e-02, 2.332333773e-01, -5.088914633e-01, -3.037654161e-01, -4.321206734e-02, -2.636574507e-01, 1.690033972e-01, 2.746036947e-01, -1.313759685e-01, -2.649032474e-01, -1.870230883e-01, 2.425992116e-02}, {-9.392309189e-01, 6.099836230e-01, -2.687914073e-01, 4.631598592e-01, 5.854196381e-03, 3.760769367e-01, -1.717990823e-02, -4.330430031e-01, 4.474896789e-01, 1.687932014e-01, -2.598097026e-01, -1.049731001e-01, 2.688892186e-01, -2.139849812e-01, -6.298991293e-02, 2.650156915e-01, 1.688788682e-01, 1.105290949e-01, 9.945197962e-03}, {1.076966882e+00, 3.253558278e-01, -6.021809205e-02, -1.098904610e+00, 1.486006528e-01, 1.013695896e-01, 4.243670106e-01, 6.542894840e-01, 6.945997477e-02, -1.717775464e-01, -2.250170410e-01, 1.718460321e-01, 9.863585234e-02, 5.755449086e-02, -1.107303724e-01, -4.253374040e-02, -3.144808486e-02, -1.405258197e-02, -1.869805753e-01}, {-3.010050356e-01, -1.429725736e-01, 5.605592951e-02, 1.460850090e-01, 1.712081879e-01, -1.830149144e-01, 2.407403141e-01, 3.721754765e-03, 5.051515996e-02, 2.725595608e-02, -1.253976375e-01, -6.964340061e-02, -3.118898273e-01, 1.124603227e-01, 1.676324010e+00, -2.969050407e-02, -1.412960589e-01, -1.414264441e-01, -3.598034009e-02}, {-5.757482722e-02, 5.286783725e-02, -3.382233158e-02, -2.029400691e-02, -2.018042952e-01, 4.949215055e-02, -5.101125315e-02, -4.365302995e-02, -6.867153943e-02, 1.338281035e+00, -9.545003772e-01, -2.674968243e-01, 5.100693926e-02, 2.204236202e-02, -6.260375679e-02, -1.047833171e-02, 6.555770338e-02, 4.120372701e-03, -7.368168235e-02}, {3.381572664e-02, -1.177041158e-01, 4.701438174e-02, 4.019084573e-02, 1.078208089e-01, -1.428579837e-01, 3.141030297e-02, -4.170210660e-02, 6.614493672e-03, 1.634617001e-01, -9.762796015e-02, -1.060098410e-01, -3.803345263e-01, 8.804269135e-02, -1.719854027e-01, 2.627959251e-01, -2.371338904e-01, -4.434394240e-01, 1.237500906e-01}, {-1.667276740e+00, 3.755266666e-01, -7.037501931e-01, 5.832558870e-01, -4.717097580e-01, 6.013941392e-02, -3.590470850e-01, 1.037289798e-01, 7.376211137e-02, -6.780784577e-02, -1.186626330e-01, -2.161558159e-02, 1.848727837e-02, 9.965579212e-02, -2.781782299e-02, -7.560615893e-03, -1.580099016e-02, 3.463403508e-02, -2.167301066e-02}, {3.215055540e-02, 6.596162450e-03, -5.964516997e-01, 7.610369474e-02, -1.690120995e-02, 4.052283466e-01, -3.605897352e-02, -2.764814496e-01, -1.806295216e-01, 4.912446439e-01, -6.021887064e-01, 3.809151798e-02, 1.428528130e-01, -4.378181398e-01, -2.448642626e-02, 3.181008101e-01, 4.029306173e-01, -4.882553518e-01, -1.786646433e-02}, {-7.955013961e-02, -1.143658459e-01, 1.134642884e-01, -4.077596962e-02, 1.786074787e-01, -1.431889236e-01, 2.293822765e-01, 7.626874745e-02, 7.187558711e-02, 8.027445078e-01, 1.486171186e-01, 1.973987967e-01, 7.532691360e-01, 2.700302191e-02, -4.083376378e-02, 1.158467457e-01, 1.276001781e-01, 1.284381300e-01, -1.050841510e-01}, {3.802520633e-01, 1.169422492e-01, 7.275765389e-02, -3.587572277e-01, -3.016132116e-02, 1.317039281e-01, -8.585426211e-02, 1.757628918e-01, 2.233444154e-01, 1.330686454e-02, 7.012803108e-02, 3.285810724e-02, -3.999477029e-01, 5.296960473e-01, 2.062089443e-01, 9.972185642e-02, -1.715276241e-01, -9.192290716e-03, 1.676379293e-01}, {7.306102663e-02, 7.438694686e-02, -1.525317132e-01, 8.195737749e-02, -1.697945148e-01, -9.035826661e-03, 3.560564667e-02, 7.988067716e-02, 3.703913465e-02, 1.680054069e+00, 1.329981804e+00, -1.104413271e-01, 9.726989269e-02, -5.153683946e-02, -6.791082025e-02, 5.945345014e-02, 6.114398688e-02, -8.271380328e-03, -5.964024458e-03}, {-2.319611311e-01, -3.932412341e-02, -1.148553252e+00, 7.202630490e-02, 1.055864245e-01, 7.903019786e-01, 5.111964792e-02, 2.918894589e-01, -7.567875832e-02, 1.485400796e-01, 4.029115140e-01, -7.097544521e-02, 2.890670896e-01, 6.916962564e-02, -3.157530129e-01, -1.448138356e-01, 1.261000931e-01, 5.159924626e-01, 8.101923764e-02}, {3.646859229e-01, 6.856611967e-01, 2.217914760e-01, -2.031688094e-01, -8.054586649e-01, -2.076658420e-02, 5.137203932e-01, -3.462794125e-01, -1.632866859e-01, -1.729424298e-01, 1.200675499e-02, -8.632124215e-02, -1.205154136e-01, 1.542091221e-01, 3.635733575e-02, -1.084553674e-01, -8.750648052e-02, 3.999115154e-02, 3.708221763e-02}, {2.532511055e-01, 2.880360484e-01, -1.089249492e+00, -1.233429164e-01, -2.665244639e-01, 1.012602925e+00, -5.181163549e-01, 3.529320061e-01, -1.867790371e-01, -9.468721598e-02, -1.749404371e-01, -7.422606461e-03, -7.577832788e-02, 9.326747060e-02, -5.311661959e-02, -1.584692746e-01, -6.435257196e-02, 8.173039556e-02, -3.177790344e-02}, {-6.035224199e-01, 4.104193449e-01, 2.539858818e-01, 5.478006601e-01, 1.539277732e-01, -5.408565402e-01, 5.171015263e-01, 1.231625751e-01, 5.496969819e-01, -1.275352389e-01, -9.872717410e-02, 4.886350408e-02, 4.118316993e-02, 2.411958203e-02, -2.688039243e-01, -1.665946990e-01, 8.132407069e-02, 1.177921444e-01, 6.951583922e-02}, {-2.195260376e-01, -1.927654743e+00, -9.987074137e-01, 2.457236946e-01, 7.134615779e-01, 4.978602529e-01, -1.250515729e-01, 2.088777348e-02, -4.137406945e-01, 6.742523611e-02, -1.000590771e-01, -4.342103004e-02, -6.039717421e-02, -6.684168428e-02, -1.221683994e-02, 3.104416095e-02, 8.822213858e-03, -1.902260445e-02, -1.290889550e-02}, {2.218072116e-01, -4.439614713e-01, 5.726296827e-02, -4.646387100e-01, 2.346218079e-01, -1.344244778e-01, -2.577150762e-01, -5.940325856e-01, 3.720049858e-01, 2.721159533e-02, -2.371127717e-02, -4.876901954e-02, 1.106433719e-01, 8.051235974e-02, -2.368173003e-02, -1.871969551e-03, -1.536328252e-02, 3.735825419e-02, -4.024566337e-02}, {1.686120987e+00, 6.370103955e-01, -1.589390822e-02, -1.159999490e+00, -4.607942402e-01, -9.997820109e-02, -1.996777207e-01, 5.265910625e-01, -7.778769732e-01, -2.364413291e-01, 2.712097168e-01, 2.107037464e-03, 7.984399050e-02, 6.890127808e-02, -8.835700899e-02, -1.439705044e-01, -1.699157991e-02, 1.498416215e-01, -4.703717679e-02}, {-6.004361510e-01, 7.208260894e-02, 2.562766671e-01, 7.133117318e-01, 9.334477037e-02, -9.996849298e-02, 4.693932831e-01, 5.211626291e-01, -6.192917824e-01, 4.478124157e-02, -3.243864700e-02, 3.101126291e-02, -2.560939826e-02, -1.258302480e-01, 1.915572286e-01, 1.749091595e-01, -4.188247025e-02, -1.611085683e-01, 8.996202052e-02}, {8.483325243e-01, -2.702465653e-01, -2.358482629e-01, 1.401189119e-01, -7.899107039e-02, -9.659301490e-02, 2.782600820e-01, 1.878384799e-01, 1.167921066e+00, -2.079308480e-01, -2.758585289e-02, 6.422771607e-03, -2.166913003e-01, -2.654665615e-03, 2.058062851e-01, 3.846392781e-02, -4.201303422e-02, -1.382027268e-01, -3.038068116e-02}, {-7.380945086e-01, -2.338877171e-01, 6.179561019e-01, 1.365378380e+00, 1.024878547e-01, -3.964052796e-01, 2.641686499e-01, -7.648917437e-01, -3.906170130e-01, -7.383950055e-02, -1.587424129e-01, 4.656223580e-02, -5.703867599e-02, -9.650943428e-02, 9.490396827e-02, 2.113322318e-01, 5.217665806e-02, -1.295635551e-01, 3.616508096e-02}, {4.738662541e-01, 2.339640856e-01, -3.457606956e-02, -3.479278088e-01, -3.190532625e-01, -1.113460660e-01, -1.940917075e-01, 3.372227252e-01, -1.592543423e-01, -5.421872735e-01, 6.572687626e-01, -1.397266388e-01, 4.481370375e-02, -4.777752161e-01, 1.169578582e-01, -1.158145592e-01, -1.857737005e-01, 2.393260151e-01, 7.066396624e-02}, {4.145224690e-01, -5.341901779e-01, -7.742647827e-02, -1.670390218e-01, 4.904438853e-01, 1.149770766e-01, 4.227007926e-01, 5.540518761e-01, -4.307067990e-01, 9.295935184e-02, 3.633836284e-02, -1.114045233e-01, 5.548808351e-02, -1.295630932e-01, -3.325934708e-01, -6.757807732e-02, 1.219441742e-01, 1.042312980e-01, -3.017248400e-02}, {-1.251306176e+00, 2.301578969e-01, 8.761695027e-01, 7.052986026e-01, -1.991260052e-01, -2.260240763e-01, -1.447888166e-01, -3.656727672e-01, -1.226381883e-01, -4.866681993e-02, -1.073579192e-01, -5.633635819e-02, -3.006719612e-02, 3.953293711e-02, -3.067181073e-02, 1.531008817e-02, -1.879775710e-02, -3.433798999e-02, 3.119197115e-02}, {-2.911031246e-02, -1.975606894e-03, 6.015700102e-02, -3.742931038e-02, -4.263883457e-02, -2.357174829e-02, -1.183607336e-02, 1.064039487e-02, -1.373012662e-01, 9.661508352e-02, -8.291384578e-02, 1.754725873e-01, 8.036522567e-02, -3.121390939e-01, 3.525904119e-01, 1.254714211e-03, -8.254725486e-02, -2.617987096e-01, -2.661750019e-01}, {-5.559598804e-01, -7.096943259e-01, -3.600779548e-02, 3.547041118e-01, 7.211363912e-01, 6.335540861e-02, -4.454697371e-01, 1.673268676e-01, 9.633692354e-02, 2.370147109e-01, -2.887935638e-01, -5.403847620e-02, -2.079941183e-01, 6.622061133e-02, 2.338483483e-01, -6.266670674e-02, -8.560089767e-02, -7.523372769e-02, -2.265310101e-02}, {-1.515149713e+00, 9.694502354e-01, 3.046607375e-01, 5.702158436e-02, -5.370704085e-02, -1.433227360e-01, 3.210417330e-01, 3.218955919e-02, 6.009851098e-01, -9.437128901e-04, 6.865031272e-02, -1.280054301e-01, 1.380791217e-01, -2.467306256e-01, -1.071912721e-01, 1.282072216e-01, 7.632780075e-02, -3.575389460e-02, -2.609651722e-02}, {-1.806462556e-02, -4.626069590e-02, 5.817215517e-02, -2.734139003e-02, 2.846424095e-02, 1.081299968e-02, -3.810495883e-02, -1.401535701e-02, -1.382191945e-02, -1.191610284e-02, 2.488417551e-02, -9.322725236e-03, 2.329124212e+00, 4.630949721e-02, 9.204943478e-02, 1.545904391e-02, 3.603862831e-03, -1.223157253e-02, 2.095753793e-03}, {-1.241644844e-01, 1.056478992e-01, -1.632902175e-01, 2.295014635e-02, -9.860051423e-02, 2.337308973e-01, -1.762142777e-01, 7.875382155e-02, -7.621547580e-02, -1.172517464e-01, 1.647709757e-01, -2.705646213e-03, -3.581932187e-02, -7.343272679e-03, 2.830814943e-02, 2.607249022e+00, -2.142285695e-03, 6.604060531e-02, -1.047803164e-01}, {-2.016334832e-01, -2.689652517e-02, 3.196833134e-01, 3.923353553e-01, -1.398059279e-01, -3.810136393e-02, 9.737858921e-02, -8.960879445e-01, -1.056160405e-01, 1.185649261e-01, -1.805212051e-01, 1.638917178e-01, 1.365115792e-01, -3.831275925e-02, -3.386809528e-01, 6.178688258e-02, 7.709930837e-02, 4.895165935e-02, -2.713287175e-01}, {-9.882028103e-01, -5.317031145e-01, -7.106647640e-02, 7.025591135e-01, 3.084198236e-01, 7.622832805e-02, 2.610403299e-01, -3.624378741e-01, 1.848049462e-01, 2.832550108e-01, -3.191189766e-01, -7.533590198e-01, -8.362697437e-03, 1.569267479e-03, -1.879204214e-01, 3.813162148e-01, 1.239919737e-01, -1.663151085e-01, 1.863696575e-01}, {1.009048894e-01, 2.675061524e-01, -1.061945558e-01, 6.945423037e-02, -3.086119890e-01, 1.592568308e-01, -5.316686034e-01, -3.030496538e-01, -4.941061139e-02, -1.259236336e-01, -1.075770482e-01, 8.440000564e-02, -2.040103525e-01, 8.918911964e-02, -2.261689305e-01, -4.313950613e-02, -2.508433536e-02, -1.938705891e-02, 6.181466207e-02}, {-1.374595046e+00, 4.542188346e-02, -3.775653895e-03, 6.309173703e-01, 7.156239152e-01, -6.445213407e-02, 3.218875825e-01, -3.255150616e-01, 3.246628940e-01, 2.888322175e-01, -3.866332173e-01, 7.548476011e-02, 1.728303581e-01, -2.011519372e-01, -3.357530385e-02, 6.219743565e-02, 1.498385668e-01, -1.640820205e-01, -1.437328309e-01}, {5.572230369e-02, -5.434309691e-02, 3.099898696e-01, -4.111544490e-01, 2.035836875e-01, -1.347267181e-01, 2.081507742e-01, 2.947414219e-01, -9.432584047e-02, 3.461171091e-01, -2.128335238e-01, 1.268716455e-01, 4.015181959e-01, 2.411046028e-01, -2.859905064e-01, -5.173701644e-01, 1.477054507e-01, 1.204355359e-01, 6.325889379e-02}, {-1.138305664e+00, -1.792605072e-01, -2.360639721e-02, -6.248116493e-02, 8.112340569e-01, -3.372267187e-01, 3.067748845e-01, 6.134813302e-04, 2.832067907e-01, -7.937226444e-03, -1.543256491e-01, 5.027844906e-01, 1.477771252e-01, 5.703422800e-02, -2.507893927e-02, 2.384651750e-01, 8.148819208e-02, -1.002315581e-01, 1.084274724e-01}, {1.674773693e+00, -7.205198407e-01, -5.285702944e-01, -1.287437081e+00, 6.499746442e-01, 4.502830803e-01, 1.988865137e-01, 6.686243415e-01, -5.168275833e-01, 2.732139826e-01, 3.467828929e-01, 2.977027185e-02, 2.213716693e-02, -8.278822154e-02, -1.842551529e-01, -7.474153489e-02, 4.226047546e-02, 8.094372600e-02, 5.722779408e-02}, {-9.581776708e-02, 3.693165779e-01, -2.728667259e-01, 5.529525876e-02, -5.029024482e-01, 1.596777737e-01, -7.674931884e-01, 2.757041454e-01, -3.649412692e-01, -2.254205346e-01, 9.867186546e-01, 1.247775927e-01, 7.523351908e-02, 3.540825844e-01, 9.695748240e-02, 4.747423530e-02, -7.355069369e-02, 1.239334568e-01, -7.571061701e-02}, {2.739530504e-01, 3.679580092e-01, 1.137116402e-01, 9.475649334e-03, -4.225171208e-01, 3.188136220e-01, -3.015056551e-01, -2.809941173e-01, 5.746259689e-01, 1.280657016e-02, 5.166178942e-01, 3.412100375e-01, 7.041326165e-02, -4.222032800e-02, -1.053673774e-01, -1.868360043e-01, 4.143564403e-02, 2.598646283e-01, 1.952285878e-03}, {9.459438920e-01, 1.218172073e+00, 1.207047701e+00, -4.173896015e-01, -5.693457127e-01, -4.700296223e-01, 6.320235878e-02, 1.933616400e-02, 2.902409434e-01, -3.031036258e-02, 7.156657428e-02, 5.949466676e-02, 3.013123944e-02, 5.455376208e-02, 1.811645739e-02, -1.647130400e-02, -4.424058832e-03, 4.677097499e-02, 3.347544465e-03}, {-5.909703374e-01, 4.216035008e-01, -2.019123733e-01, 4.635847174e-03, 3.621253371e-02, 4.939219952e-01, -1.432560682e-01, -4.139141440e-01, -1.548079308e-02, 1.222140808e-02, 4.293449223e-02, -1.518070884e-02, -5.190092921e-01, -9.583570063e-03, 4.660995603e-01, 8.659327775e-02, -1.519726217e-01, -3.034352064e-01, 2.993903495e-02}, {2.496614493e-02, 1.001818925e-01, 7.787172496e-02, -8.946146071e-02, -5.659872666e-02, -1.392805278e-01, 1.407363452e-02, 2.437657863e-02, -6.596794724e-02, -1.833743304e-01, -5.571439490e-02, 6.100017577e-02, -1.589507312e-01, -3.730906546e-01, -6.254249811e-01, 2.265676558e-01, -1.394418031e-01, -2.849432640e-02, -6.388509274e-02}, {8.214500546e-01, 9.985237122e-01, 1.831139326e-01, -7.928289771e-01, -1.228587151e+00, -8.199877106e-03, -9.436956048e-01, 4.719357789e-01, -1.555518061e-01, -4.858254641e-02, -5.439080298e-02, -1.296073645e-01, -4.313532263e-02, 1.042725369e-01, -1.496342383e-02, -1.775815040e-01, -4.787278175e-02, 8.655826002e-02, -3.813765571e-02}, {-4.565291405e-01, 1.359970570e-01, 1.842038929e-01, 2.716121674e-01, -2.440159917e-01, -6.384806335e-02, -1.053802371e-01, 5.773252994e-02, -4.683061540e-01, -5.173432827e-01, -3.927595913e-01, 5.201945305e-01, -1.759825051e-01, -5.477617681e-02, 1.112173647e-01, -2.368665636e-01, 6.534142885e-03, -1.180889979e-01, -7.526466250e-02}, {9.364416599e-01, -1.480020136e-01, 6.012071297e-02, -4.876244068e-01, 1.311767101e-01, -3.168843687e-01, 1.948117018e-01, -6.564216614e-01, -3.184134141e-02, 2.127667367e-01, 2.982679009e-01, 7.185621560e-02, 4.864504561e-02, -6.829318404e-02, -4.925859347e-02, 3.694503382e-02, 3.543243185e-02, -6.642611232e-03, 4.961424693e-02}, {-7.020374388e-02, 1.489509702e+00, -4.957325161e-01, -2.965362370e-01, -7.460682988e-01, 3.710978925e-01, -4.032485187e-01, 3.324131370e-01, -9.720621258e-02, 2.419689149e-01, 4.725716412e-01, -4.877986852e-03, 7.745501585e-03, 1.249019243e-02, -1.838295013e-01, -4.904687777e-02, 3.514599055e-02, 6.898685545e-02, 5.359612405e-02}, {-1.600134224e-01, -8.571020328e-03, -8.277926594e-02, -7.623540610e-02, 7.814773917e-02, 1.217340305e-01, -4.766281322e-02, -4.490986094e-02, 6.150197610e-02, -1.698401421e-01, -1.652922750e+00, -1.363973171e-01, -2.620351687e-02, -2.232947014e-02, 1.189867705e-01, 5.752363801e-02, 1.554749208e-03, -1.010186821e-01, -9.396238020e-04}, {5.117144585e-01, -9.619776011e-01, -6.714054197e-02, -3.511950076e-01, 7.717719078e-01, -1.212137863e-01, -5.438063741e-01, 3.322820365e-01, -3.069748580e-01, -3.820541799e-01, -1.873563603e-02, 8.696320653e-02, -5.752996728e-02, -1.901081391e-02, -7.387425750e-02, -2.283973247e-02, 2.110020956e-03, -7.498703431e-03, 5.366671830e-02}, {5.350358486e-01, -3.250067532e-01, -2.384047508e-01, -5.620703101e-01, -2.470238954e-01, 2.590152621e-01, -6.485524774e-01, 6.207836270e-01, -6.438665986e-01, -1.990557462e-01, 2.530889809e-01, -2.854619622e-01, -2.498849034e-01, 3.299891353e-01, 1.789890975e-01, -4.604115784e-01, -1.616858989e-01, 8.391999453e-02, -1.296238005e-01}, {-1.146845818e+00, -3.457165658e-01, -2.407683805e-02, 8.282693624e-01, -2.826124430e-01, 5.593826249e-02, -1.796604246e-01, -3.123960793e-01, -1.265857339e+00, 8.195929229e-02, 1.007852703e-01, -2.854080200e-01, 1.277627200e-01, -2.657912113e-02, -2.119905204e-01, -6.929131690e-03, 7.954213768e-02, 1.340686381e-01, -5.743439496e-02}, {-1.253073364e-01, 1.627161056e-01, -1.033152118e-01, 6.140023097e-02, -1.488475353e-01, 1.764978468e-01, -2.638922036e-01, -1.271349341e-01, -1.685530841e-01, -7.586451173e-01, -2.041603774e-01, -7.968377322e-02, -4.543423280e-02, 2.043907195e-01, 2.589682639e-01, 2.189131826e-01, 3.182609007e-02, -1.554158479e-01, -3.681057692e-02}, {3.059238493e-01, -4.317325056e-01, 8.645595312e-01, -5.265241861e-01, 2.828567624e-01, -4.756865501e-01, -5.253329277e-01, 1.469798833e-01, 3.382311761e-01, -5.109035596e-02, 8.914666623e-02, 1.466561109e-01, 3.015027195e-02, 2.194971405e-02, -9.841577709e-02, 9.560116567e-03, -1.902933046e-02, 3.808844835e-02, 7.219930738e-02}, {5.383151025e-02, -3.136756122e-01, -5.491564274e-01, -3.871924281e-01, 5.405064300e-02, -1.549875736e-01, -1.033071131e-01, 4.890013933e-01, -4.714698792e-01, -9.493772686e-02, 4.571311921e-02, -2.398746759e-01, 6.450228691e-01, 1.912146956e-01, 9.094323963e-02, 3.015907109e-01, 1.707402766e-01, 3.382633626e-02, -9.384316951e-02}, {1.451683491e-01, 1.074237153e-01, -4.859386981e-01, -1.972384602e-01, -2.592958808e-01, 3.621686399e-01, -2.127107233e-01, 8.240150660e-02, -2.400508896e-02, -6.601172090e-01, 6.082516313e-01, 4.146389291e-02, -4.407048598e-02, 5.687673092e-01, 7.647777349e-02, -5.160616636e-01, -2.597343624e-01, 3.004808724e-01, 3.839149326e-02}, {2.050132900e-01, -7.084754705e-01, 1.338799238e+00, -2.521386147e-01, 6.810627580e-01, -3.958877921e-01, 9.077496529e-01, -2.107322402e-02, -3.771995306e-01, 3.082908317e-02, -1.805128902e-02, -2.452000976e-01, 8.096994460e-02, -8.264572173e-02, -8.593381196e-02, 1.889491826e-02, 9.502368420e-02, 1.554488111e-02, -4.785501957e-02}, {-1.299260497e+00, -1.541380763e+00, 1.027594730e-01, 2.495254874e-01, 5.295349360e-01, 1.498262957e-02, 9.102256596e-02, -2.638009936e-02, -1.607557386e-01, -1.162637845e-01, 1.468592137e-01, 1.110903695e-01, 4.219651595e-02, 1.042771712e-01, -1.045742817e-02, -1.003807411e-01, -4.466280341e-02, 6.253205985e-02, -3.539412050e-03}, {4.245232344e-01, 1.961282015e+00, 2.623326611e-03, -1.831688881e-01, -7.767177820e-01, 4.643247649e-02, -1.826472282e-01, 6.648468971e-02, 1.348801423e-02, -2.581468411e-02, -3.191669285e-02, 8.362133056e-03, -5.995693058e-02, 1.777049899e-02, -3.711514920e-02, -3.141441569e-02, 1.315950416e-02, 2.610264532e-02, 5.281643197e-02}, {2.034765780e-01, -9.827330709e-02, -3.103470802e-02, -2.498770803e-01, 2.304618657e-01, 1.133653149e-01, 2.619888447e-02, 1.405792832e-01, 5.275399983e-02, -1.221734285e-02, 2.017270476e-01, 1.117286608e-01, 3.420724273e-01, -3.259881437e-01, 2.050784528e-01, 1.139995083e-01, 9.060350806e-02, 1.751693934e-01, 1.215188578e-01}, {7.445761561e-01, 5.709692240e-01, 3.817245066e-01, -1.904723197e-01, -3.197393715e-01, -2.346387357e-01, -8.593503237e-01, 7.898619771e-01, 6.710298657e-01, -1.606668532e-02, 6.297802925e-02, -2.248370461e-02, -3.771685436e-02, 8.646079898e-02, 8.900430053e-02, -1.641331799e-02, -4.490926117e-02, 2.291674726e-02, 2.635892015e-03}, {1.027654409e+00, -4.947648942e-02, 3.221318424e-01, -6.510033011e-01, -4.405315220e-01, -1.106200889e-01, -8.405912519e-01, 3.755366430e-02, 3.043444157e-01, -1.839203984e-01, 2.658981681e-01, -3.673254550e-01, 8.446996659e-02, 1.162571087e-01, -6.304891407e-02, -1.194585711e-01, 2.992955223e-02, 1.141862944e-01, -7.934864610e-02}, {-1.219107032e+00, -1.188995875e-02, -1.396319866e-01, 4.775756598e-01, 3.855208457e-01, 3.826223016e-01, 1.433655024e-01, -3.856693506e-01, 3.807092607e-01, -6.258004904e-02, -4.765312672e-01, 1.602088809e-01, -3.503676653e-01, -4.154851660e-02, -1.817135960e-01, 1.543370932e-01, 1.650832891e-01, 1.688845307e-01, 4.100309312e-02}, {-2.687980235e-01, 7.164484262e-02, 4.197478890e-01, -5.492793396e-02, 6.834410876e-02, -2.980347537e-02, 1.083227806e-02, -7.041350007e-02, -8.377872407e-03, 1.033250913e-01, 6.986336410e-02, -2.527279258e-01, -8.429332823e-02, 2.943091989e-01, -2.997963428e-01, -2.633081675e-01, -2.383382022e-01, 2.420070916e-01, -1.748516709e-01}, {-1.092254966e-01, 6.722967327e-02, -1.132181361e-01, -1.325102174e-03, -1.584348455e-02, 2.049536258e-01, -4.584033042e-02, -9.481803514e-03, 1.211256385e-01, -3.897020593e-02, 7.536105812e-02, 2.101097815e-02, 1.838698983e-01, -1.088434160e-01, 1.630364656e+00, 1.224239990e-01, 2.273385227e-01, 2.242890000e-01, 5.497969687e-02}, {-1.416959286e+00, -6.209958717e-02, 1.503993720e-01, 7.855236530e-01, -2.807555795e-01, 2.000195384e-01, -4.372774959e-01, -3.637534082e-01, 7.725099921e-01, -7.059758157e-02, 7.091207057e-02, -2.430712245e-02, -4.815000296e-02, -4.696147516e-02, 1.286893487e-01, -6.127812341e-02, -3.984226659e-02, -2.837193757e-02, -5.288056657e-02}, {1.609609246e+00, 3.825930655e-01, 1.747841388e-01, -5.938326716e-01, 3.116083145e-01, -1.478172541e-01, 7.466108203e-01, 8.179212920e-03, -6.309763193e-01, 2.317044884e-01, -1.071773320e-01, 1.757876724e-01, 1.069814041e-01, -1.797049046e-01, -1.528040320e-01, 2.326958179e-01, 1.384003460e-01, -6.364257541e-03, 4.001370445e-02}, {-1.133807302e-01, 3.141036630e-01, 3.781928718e-01, 2.746207174e-03, 2.177645639e-02, -6.008458734e-01, 2.671166658e-01, 2.752206028e-01, 3.581118286e-01, -1.571088284e-01, -2.760300934e-01, 4.094139859e-02, -4.103549421e-01, 9.168737382e-02, 4.054557383e-01, -1.412074827e-02, -1.426243633e-01, -1.586131752e-01, 3.971384838e-02}, {1.595295072e+00, 2.025862932e-01, 3.933617771e-01, -6.520131230e-01, -5.396369696e-01, -1.824720353e-01, -3.839341402e-01, -4.239300191e-01, 1.617707908e-01, -1.829997301e-01, -1.331338584e-01, 2.605964802e-02, -1.580187827e-01, -4.275861662e-03, 1.994615644e-01, -2.842175215e-02, -7.515105605e-02, -7.145434618e-02, 3.571825475e-02}, {-8.016750216e-01, 7.050008178e-01, 2.306547314e-01, -5.181540847e-01, -1.707489341e-01, 1.807027757e-01, -1.215935498e-01, 1.571994424e-01, 9.426033497e-01, -4.562004935e-03, 1.515847296e-01, 3.300600946e-01, 2.039559558e-02, 1.428936273e-01, 4.857776314e-02, -1.615225673e-01, -7.697870582e-02, 8.059302717e-02, 6.281710695e-03}, {-3.334816992e-01, -3.704760373e-01, 6.103467941e-01, 1.501561552e-01, 2.766385376e-01, -4.236386418e-01, -5.708979964e-01, 3.833843470e-01, -1.817765087e-01, 2.179015130e-01, -7.017443888e-03, 1.139995158e-01, 9.366518259e-02, -3.148514405e-02, -9.451632947e-02, 1.223651469e-01, 7.361654192e-02, 1.288858149e-02, 3.677443042e-02}, {-1.754475713e+00, 2.215040773e-01, 1.779345572e-01, 3.247462809e-01, -9.672883898e-02, 4.637112916e-01, -3.796464577e-02, 9.055001289e-02, 4.157074541e-02, -4.958980158e-02, -8.817089349e-02, -4.214736074e-02, -6.870975345e-02, 6.294839084e-02, -8.980822749e-03, -1.076368093e-01, -1.031153277e-01, -1.121798996e-02, 1.833971962e-02}, {-3.729058430e-02, 6.297586020e-03, -9.579367191e-02, 1.610244391e-03, 5.272408202e-02, 8.007812500e-02, 1.662158221e-01, 2.478104318e-03, -3.985760733e-02, 2.684478164e-01, -1.331147254e-01, -1.206743531e-02, 1.439085901e-01, 1.991360307e+00, -5.578000471e-02, 1.105053425e-01, 1.494167596e-01, -1.368043274e-01, -4.193016514e-02}, {-2.475632280e-01, 3.561828434e-01, -1.856552064e-01, 3.466076255e-01, -2.001078725e-01, -1.712977439e-01, 2.956684232e-01, -1.251436770e-01, 2.630067468e-01, -4.713447392e-01, -5.615482479e-02, 2.197948396e-01, 3.308838010e-01, 1.024714485e-01, -3.709416091e-01, 1.370739490e-01, 1.035081521e-01, 9.187109023e-02, 2.010473013e-01}, {-3.031818867e-01, 2.182348967e-01, -1.845140010e-02, 2.458132505e-01, -2.545744777e-01, -2.016268969e-01, 1.316857338e-02, -1.287490875e-01, 1.350709200e-01, 2.261369526e-01, -3.216988640e-03, 1.720147580e-01, -1.530648768e-02, 2.496742606e-01, 3.302190602e-01, 1.705741286e-01, -1.018265188e-01, -3.038262948e-02, -3.590732813e-02}, {2.514895797e-01, 9.422348812e-03, -2.433624119e-01, 1.958559901e-01, 5.678871870e-01, -6.188185513e-02, 6.557932496e-01, -2.711037993e-01, 7.967262268e-01, 2.269010842e-01, -3.518467844e-01, 1.824313253e-01, 2.283724099e-01, -1.801069081e-01, -1.001126468e-01, 3.057025373e-01, 1.013747901e-01, -2.057107538e-02, 1.474243961e-02}, {-4.613954723e-01, 7.102762461e-01, -6.892606616e-02, 6.424893737e-01, -8.344984055e-01, -2.230868489e-02, -5.687658787e-01, -3.349402249e-01, -1.405523121e-01, -1.303560100e-02, 1.535955817e-01, 2.506848276e-01, -3.916912153e-02, 3.968060762e-02, 9.328504652e-02, -5.678014085e-02, -4.177457467e-02, 6.037067249e-02, -1.099205986e-01}, {1.265629828e-01, -3.927087188e-01, 3.658412769e-02, -9.957361221e-02, 3.962669373e-01, 8.834784850e-03, 2.125279754e-01, 3.583347797e-02, -1.786686331e-01, 1.210315078e-01, -1.404142231e-01, -2.710331418e-02, 2.178827673e-01, 4.206534028e-01, -2.864757478e-01, 3.682308272e-02, 1.154849306e-01, -9.003321081e-02, -4.593871161e-02}, {-7.028594017e-01, 5.264642462e-02, 7.715636492e-01, 9.544733167e-01, 2.573351860e-01, -1.372129321e-01, -1.567610949e-01, 9.385047853e-02, 8.396384716e-01, -1.216589361e-01, -3.345952928e-01, 7.902102917e-02, -1.026477069e-01, -1.375788450e-01, 8.915899694e-02, 1.268727183e-01, 3.134307335e-04, -9.371703863e-02, 2.819779702e-02}, {9.238497615e-01, -4.623561725e-02, 4.931489229e-01, -1.133334160e+00, -4.716253579e-01, -3.773362041e-01, -4.631119668e-01, 4.982408285e-01, 7.940099388e-02, 2.660860121e-02, -1.672678441e-02, -1.417504400e-01, -7.411970198e-02, 6.174516678e-02, -5.551232025e-02, -1.399454027e-01, -9.265545756e-02, 1.072842404e-01, 1.559920460e-01}, {2.379736491e-02, -4.691160023e-01, -9.834922850e-02, 1.464655101e-01, 5.089594722e-01, -1.539226249e-02, 2.899598479e-01, -2.217884362e-01, -4.154206812e-01, 1.814123839e-01, 3.328231573e-01, -8.221717477e-01, -8.794464171e-03, 2.908712998e-02, 2.666201256e-02, -5.580801517e-02, -5.779130012e-02, 4.384519532e-02, -5.672605708e-02}, {2.673489451e-01, 1.324231327e-01, -6.400595605e-02, -7.819578797e-02, -1.217447668e-01, -1.486757398e-01, -2.980001271e-02, 2.155996859e-02, 4.837566614e-01, -3.695870191e-02, -2.485805601e-01, 9.761068821e-01, -1.235883981e-01, -1.634141207e-01, -5.164217204e-02, 5.737856030e-02, 4.789545760e-02, -1.253024638e-01, 2.166792154e-01}, {2.021832913e-01, -8.842980117e-02, 1.439406872e-01, -2.029927075e-01, 1.560944468e-01, -9.969042987e-02, 4.509167746e-02, 1.317113340e-01, 5.280602258e-03, 2.351138443e-01, 2.212220430e-01, 3.876870871e-02, -8.407276273e-01, 1.194861904e-01, 1.833748668e-01, -7.887423784e-02, 1.550342441e-01, 1.444619596e-01, -4.583400115e-02}, {2.370318174e-01, -3.185172677e-01, -2.727524042e-01, -2.745286822e-01, 2.858405411e-01, 1.162758246e-01, -1.683186144e-01, 1.533452072e-03, 1.447300054e-02, 2.756526172e-01, 3.525864780e-01, 6.205489114e-02, 6.323632002e-01, -1.137434691e-01, -3.639381528e-01, -5.807773396e-02, 1.843643785e-01, 2.428365052e-01, -2.114757150e-01}, {2.663752437e-01, -1.157909632e-01, -5.423352495e-02, -2.458003461e-01, -2.645983100e-01, -3.985699639e-02, -2.085078806e-01, 5.356818438e-01, -6.069984436e-01, 2.813100219e-01, -1.350256205e-01, 4.418204725e-01, 1.484470218e-01, 5.387439579e-02, -2.893157676e-02, 1.441240311e-01, 6.786309183e-02, -4.116861150e-02, -4.407488555e-02}, {-1.874638796e-01, -1.229224950e-01, -3.064649999e-01, 1.057579443e-01, 2.477222532e-01, 2.994857132e-01, -5.457858741e-02, 1.465723366e-01, -1.688459218e-01, -3.983689547e-01, 2.914410233e-01, -3.491841853e-01, -5.866120104e-03, -1.590556093e-02, 7.533136755e-02, 2.271014601e-01, -4.487404823e-01, 5.205811262e-01, -3.752155304e-01}, {4.949356616e-02, -4.416469112e-02, 6.498642266e-02, -1.840921864e-02, 4.404664785e-02, -9.827974439e-02, 8.563958853e-02, -2.956254408e-02, 4.010000825e-02, 6.544605643e-02, -7.732588053e-02, -1.065173279e-02, 1.913508959e-02, -1.231522020e-02, -2.359720692e-02, -1.018158674e+00, 6.337434053e-03, -3.067137301e-02, 5.014862120e-02}, {2.752545178e-01, -3.592745066e-01, -6.415575147e-01, 1.938113272e-01, 2.889206111e-01, 3.939481974e-01, 1.355628371e-01, -4.986051321e-01, -3.130618632e-01, 2.573827207e-01, -4.937920570e-01, -1.010795310e-01, -4.278708398e-01, -6.206279397e-01, 2.681019008e-01, 2.382242978e-01, -2.614606917e-02, -2.538104057e-01, -6.252029561e-04}, {8.445312977e-01, 1.670881212e-01, 1.193609014e-01, -2.863893807e-01, 9.902609885e-02, -8.375291526e-02, -1.954107136e-01, 4.387420714e-01, 5.194088817e-02, -9.185199440e-02, 1.026926637e-01, 1.096424684e-01, 2.354730368e-01, 3.570064604e-01, 1.138340682e-01, -3.021309376e-01, -1.686199903e-01, 2.406337857e-01, -2.041420788e-01}, {-1.724211425e-01, 2.229087986e-02, 2.134207077e-02, 3.498784453e-02, 5.180289038e-03, 8.015228435e-03, -5.378183722e-02, -6.137538701e-02, -4.999608919e-02, -2.180247009e-01, 5.487671122e-02, 1.691209339e-02, 6.727536023e-02, 2.552207708e+00, -2.294863202e-02, 7.594663650e-03, -9.887140244e-02, 1.639651209e-01, -1.599415205e-02}, {-4.939023554e-01, 1.586334258e-01, -4.620733559e-01, 4.491390884e-01, -6.361220777e-02, 4.173252881e-01, -3.347022235e-01, -3.638624251e-01, 3.222258687e-01, -1.942576766e-01, -2.146362066e-01, 3.923989087e-02, 4.691799879e-01, 8.922790736e-02, -3.308114111e-01, -5.460785329e-02, 4.632847384e-02, 1.340809464e-01, 4.392846301e-02}, {3.198664188e-01, 3.397190273e-01, -2.638556361e-01, -2.872640491e-01, -8.797169477e-02, 6.036083028e-02, -1.268389225e-01, 5.356781930e-02, 4.186359346e-01, 1.803589612e-01, 2.360678017e-01, 1.445939541e-01, -5.033831596e-01, 3.842161894e-01, -2.362601757e-01, -2.607823312e-01, -8.164986968e-02, 2.055421025e-01, -5.351205915e-02}, {6.585732102e-01, 2.950853109e-01, -4.386691004e-02, -3.998495936e-01, -3.545060456e-01, -1.564081199e-02, 1.200845122e+00, -9.842716157e-02, -4.934922457e-01, 3.599057090e-04, 1.820920408e-01, -6.324721128e-02, 2.147338167e-02, 4.358134698e-03, -7.738062739e-02, -6.019601971e-02, 1.448018756e-02, 9.285638481e-02, -3.420654684e-02}, {-4.593381658e-02, 1.990050524e-01, -2.204963416e-01, 7.396020740e-02, -4.369992614e-01, 1.742738038e-01, 9.381386451e-03, 1.376261711e-01, 1.080003604e-01, 2.698440552e-01, 2.314451635e-01, 1.131692901e-01, 2.079987228e-01, -1.570595652e-01, -5.316892266e-02, 3.467072248e-01, 9.944514185e-02, -8.602418005e-02, -1.929006539e-02}, {-8.407834768e-01, -9.117275476e-01, 5.905164480e-01, 4.447120130e-01, 6.144424081e-01, -3.118353188e-01, 1.451262236e-01, -8.403446525e-02, -7.629784942e-02, 3.897482157e-01, -2.302742302e-01, 3.078266280e-03, 4.959277436e-02, -4.308915436e-01, -1.077196002e-01, 4.444126785e-01, 1.644259244e-01, -9.629274905e-02, 4.906419665e-02}, {1.469416618e-01, -2.820684314e-01, -4.048695564e-01, -9.925888479e-02, 3.763958514e-01, 6.567787528e-01, 1.307200640e-01, -9.851078689e-02, 1.635329872e-01, -6.269655377e-02, -1.813821346e-01, 1.967379153e-01, 9.790020436e-02, 2.121723443e-01, 3.091952205e-01, -7.075263560e-02, -2.225030363e-01, -9.135250747e-02, 2.504814267e-01}, {-2.815612592e-02, 1.604732126e-01, -1.348021626e-01, 2.398282290e-02, -4.178919196e-01, 1.293212082e-02, 1.067080736e+00, 5.017807484e-01, -3.318905532e-01, -3.056594729e-02, -6.086331233e-02, -9.023375809e-02, -7.296247035e-02, 6.864886731e-02, 2.041313238e-02, 4.278589785e-02, -3.517195210e-02, 3.296350315e-02, 7.944471389e-02}, {-1.381288171e+00, -1.829303615e-02, -9.886908531e-01, 4.163572788e-01, 3.355354369e-01, 1.274046302e-01, -6.995699368e-03, 5.485030413e-01, 7.311523557e-01, 9.055709839e-02, -3.301904351e-02, -2.157031000e-02, 1.085490286e-01, -4.129708186e-02, -9.134075791e-02, 3.219116107e-02, 4.525176436e-02, 4.517327249e-02, -3.139906749e-02}, {1.119217157e+00, -1.393983841e+00, 7.693384290e-01, -1.851217002e-01, 8.499518037e-01, -1.935329884e-01, 2.681419253e-01, -1.394263059e-01, 3.074410930e-02, 1.884995252e-01, -6.664393097e-02, 7.104802877e-02, -3.360434622e-02, -1.665765643e-01, -1.281925756e-02, 8.789404482e-02, 6.327771395e-02, -2.469971776e-02, 2.922245674e-02}, {-2.105275095e-01, 1.447452754e-01, -1.017761111e+00, 7.956696302e-02, -8.248079568e-02, 4.486892819e-01, 1.626046002e-02, -5.102213845e-02, -1.523399632e-02, 3.881783783e-02, 1.334175188e-02, -1.441976335e-02, 1.368328091e-02, 1.115165204e-01, 6.882598251e-02, -4.426252563e-03, -7.752203196e-02, 8.362280577e-02, -8.458802849e-02}, {-5.055534244e-01, 4.200271964e-01, 5.486381054e-01, 3.687705398e-01, -3.341965377e-02, 6.302219629e-02, -4.036847353e-01, -3.750173151e-01, 5.621770024e-01, 3.966738284e-01, -5.504527092e-01, 2.247435749e-01, -7.118368149e-02, -1.596411616e-01, 3.963745013e-02, 7.565488666e-02, -3.905258328e-02, 2.276416309e-02, 1.497933362e-02}, {3.450073600e-01, -5.042821169e-01, -1.064699769e+00, -3.186482489e-01, 4.788643122e-01, 8.429602385e-01, 3.087787628e-01, 1.123682484e-01, 1.328620017e-01, -3.469201624e-01, -1.263069641e-02, -2.318190783e-02, -2.151703537e-01, 7.415431738e-02, 7.085943967e-02, -1.797873080e-01, -1.174601316e-01, -4.751728848e-02, -6.962666661e-02}, {2.592894733e-01, -6.627401710e-01, -7.118976712e-01, 2.836127877e-01, 2.316607237e-01, 6.426887214e-02, -9.257825613e-01, -7.996259332e-01, -7.567738295e-01, -2.399606816e-02, -2.280240953e-01, -8.825496584e-02, -6.609427929e-02, 2.196741477e-02, 7.199733704e-02, 1.261172146e-01, 3.253153712e-02, -1.678504050e-02, -3.502853448e-03}, {-3.402734101e-01, 1.298703432e+00, -1.166683912e+00, -3.383403420e-01, -2.937600911e-01, 7.264415920e-02, -2.715969980e-01, 8.005459607e-02, 2.647000551e-01, 3.242645413e-02, 1.242262349e-01, 9.444665164e-02, 2.085724287e-02, -2.574492991e-02, -3.545698896e-02, 1.047101766e-01, 6.052155793e-02, -2.481663600e-02, 1.608702354e-02}, {6.219044924e-01, -1.344313920e-01, -1.752446741e-01, 1.477125585e-01, 4.675990939e-01, 3.956536651e-01, 1.486325637e-02, -3.974795341e-01, -2.246623933e-01, -1.472546011e-01, -2.885238826e-02, 1.317058969e-02, -1.277229097e-02, 6.275120378e-02, -2.722008713e-02, -2.719428577e-02, -4.465784878e-02, 7.728654146e-02, -2.598787472e-02}, {5.824428983e-03, -1.794598818e+00, 7.606195211e-01, -4.139142856e-02, 2.163060308e-01, -1.922019422e-01, -1.266481429e-01, 1.073707193e-01, -6.538103819e-01, -1.951957494e-02, 1.741030999e-02, -8.311268874e-03, -4.669601098e-02, 6.420437247e-02, -4.954487830e-02, -3.103484027e-02, -1.439033635e-02, 9.022080153e-02, 6.535442173e-02}, {5.716320872e-01, -1.020389199e+00, 1.080932543e-01, 1.971868873e-01, 8.177762628e-01, 4.544892907e-02, 6.327199340e-01, -3.397186100e-01, -5.391514301e-01, 3.382934928e-01, -3.921946883e-01, 2.025982141e-01, -1.139396578e-01, -5.904741213e-02, 9.189175069e-02, 6.281165034e-02, -1.265999675e-02, -1.007157192e-01, 3.384059668e-02}, {7.108516246e-02, -2.274580896e-01, -2.245057821e-01, 3.593605384e-02, 2.519724071e-01, -4.804193974e-02, 4.418415427e-01, -8.869445324e-02, -6.486894190e-02, 6.227961779e-01, -4.763139188e-01, 1.495130546e-02, 3.596050441e-01, -7.121641040e-01, -3.464799821e-01, 7.327484488e-01, 4.079906046e-01, -2.226614654e-01, -1.865566522e-02}, {-4.104433060e-01, -1.528059989e-01, 2.291862965e-01, 2.876853645e-01, 2.519265413e-01, -4.577137530e-03, 8.769311756e-02, -1.334342957e-01, 1.320353746e-01, -1.177669406e+00, 8.515820503e-01, -2.789098024e-01, -6.653498858e-02, 4.143925011e-02, -2.479906753e-02, -1.715380400e-01, 1.686141789e-01, -1.023147479e-01, -6.181576848e-02}, {-3.625369370e-01, -2.587076426e-01, -4.186704755e-02, 2.417342812e-01, 2.847767174e-01, -7.542331517e-02, 1.443487853e-01, -1.489942223e-01, 1.408435684e-02, 1.620668173e-01, -1.957886852e-02, -1.506569684e-01, -1.088317111e-01, 7.150025368e-01, 1.107856184e-01, -2.032219470e-01, 1.080175117e-01, -2.469787002e-01, -1.287873387e-01}, {-2.476567626e-01, 3.307348192e-01, 1.179441690e+00, 1.995434761e-01, -3.085891306e-01, -7.922394872e-01, 1.138550118e-01, 3.217110932e-01, 2.741671912e-02, -4.074796662e-02, -2.206460014e-02, 1.365767047e-02, -4.499136657e-02, 2.894656360e-02, 4.547841102e-02, 7.709572464e-02, -2.073988551e-03, 1.384005696e-02, -3.598030657e-02}, {4.056827724e-02, -3.097585142e-01, 6.254642606e-01, -2.986642420e-01, 3.622483313e-01, -4.886975586e-01, 5.732533336e-01, 1.225530580e-01, -1.808861643e-01, 2.444947511e-01, 2.912255228e-01, 4.123012722e-01, -1.248591095e-01, 3.088729456e-02, -1.326599866e-01, 9.691894054e-02, 1.792638898e-01, 2.396513671e-01, 5.351755768e-02}, {-1.822228283e-01, 7.052333355e-01, -2.957860231e-01, 3.929760158e-01, -6.338633895e-01, 5.432639718e-01, -2.014898360e-01, -3.560811281e-01, 6.385422498e-02, -3.501065075e-01, -2.730242908e-01, -2.586220801e-01, -5.589487404e-02, -5.133217573e-01, -1.651341170e-01, 1.454861462e-01, 1.800688207e-01, -1.970102936e-01, -2.349990048e-02}, {-1.222850800e+00, -8.142494559e-01, 8.701133132e-01, 4.157698154e-01, 3.804832399e-01, -7.950143772e-04, 3.139187098e-01, -6.584504247e-01, 3.245711923e-01, 8.390968293e-02, -2.806954980e-01, 1.177718118e-01, -3.928593397e-01, 2.541274130e-01, 9.728449583e-02, -1.846004464e-02, -1.332843304e-01, 4.068599665e-04, 1.785454005e-01}};

const float bias_in[NUM_NODES] = {-1.253408432e+00, -6.143375635e-01, -5.279425979e-01, 1.006554723e+00, 4.860733077e-02, 1.898444593e-01, -8.674960136e-01, -9.749410748e-01, -1.262672782e+00, 1.011096001e+00, -6.983096004e-01, -1.501851439e+00, -8.199469447e-01, 8.726307005e-02, -2.607279718e-01, 3.357039392e-01, 9.919894934e-01, -1.161051914e-03, 6.945418119e-01, 4.025802612e-01, -1.062407255e+00, 6.654510498e-01, 8.662340045e-01, -8.840926290e-01, 8.729935884e-01, 2.339209765e-01, 6.242687628e-02, -1.377047539e+00, 3.801015913e-01, -1.864438415e+00, -1.058360815e+00, -6.145322323e-01, 5.179713368e-01, 7.001552582e-01, -4.602173269e-01, -1.379322171e+00, -1.813277602e+00, -1.095489860e+00, -8.259544969e-01, -3.748182654e-01, 5.721362829e-01, -1.755933285e+00, -5.966959596e-01, -9.524968863e-01, 2.136716396e-01, -8.933137655e-01, -6.233402714e-02, 5.755781531e-01, -2.809421122e-01, 1.893020868e+00, -5.459957197e-02, -8.616106510e-01, -3.913720548e-01, -1.729253531e+00, -1.160628498e-01, -1.525602221e+00, -2.081235647e+00, -1.395043731e+00, -1.750285327e-01, -5.137179494e-01, -8.248265982e-01, -2.067124248e-01, -1.286241770e+00, -1.357790470e+00, 2.448432297e-01, 2.106427431e+00, -8.494547606e-01, -8.893705010e-01, -9.019266367e-01, -1.025763035e+00, -1.733065128e+00, -4.325888753e-01, -1.316026807e+00, -3.093455434e-01, -4.109896719e-02, -7.751306891e-01, -1.375539750e-01, -9.268805981e-01, -1.787892699e+00, -1.969339252e-01, 1.037672758e+00, 7.907062769e-01, 4.315890074e-01, 2.202224255e+00, -1.128592491e+00, -1.869821072e+00, -3.530483842e-01, 1.117812276e+00, 1.978021264e+00, -1.347825825e-01, -2.364416420e-02, -8.944542408e-01, 4.258864224e-01, -3.678196669e-01, 7.811982930e-02, -1.376201868e+00, 8.840093762e-02, -8.659382463e-01, -8.578339815e-01, 4.783229232e-01, -1.162445307e+00, 3.558695316e-01, -4.433857203e-01, -1.378053427e+00, 9.754245877e-01, 9.843616486e-01, -3.697195351e-01, -6.626744270e-01, -8.903657198e-01, 3.247153163e-01, 3.809370995e-01, 3.542506993e-01, 3.651702702e-01, -9.461955726e-02, -1.248659372e+00, -2.771078646e-01, -6.215956435e-02, -4.580425322e-01, -1.050700188e+00, -1.137142301e+00};

const float weights_out[NUM_CONTROLS][NUM_NODES] = {{-1.466813032e-02, -6.553296116e-04, -1.009883210e-01, 8.205594495e-03, 1.904967614e-02, -5.289676785e-02, -1.831393689e-02, -1.505689975e-02, -1.332121808e-02, -4.122849926e-02, -5.318358913e-02, 6.198560447e-02, 6.184221804e-02, 5.466643415e-06, -1.789167291e-03, -7.701709121e-02, -8.994748816e-03, 3.346379148e-03, 2.080542594e-02, -1.469659060e-01, 1.441586763e-03, 2.948994935e-01, 1.951779425e-02, -2.405328304e-01, -1.921402290e-02, -4.164871946e-02, 2.239548415e-01, 3.827605024e-02, 8.436611295e-01, -4.965675063e-03, 3.659314662e-02, -2.955318801e-02, 1.659495384e-02, 3.371836990e-02, -2.270121686e-02, -8.018913679e-03, 1.703175008e-01, -2.187524224e-03, 2.422290854e-02, -3.904056922e-02, -1.790007926e-03, 3.804593533e-02, -6.725718267e-03, -1.621590257e-01, 5.069393292e-02, -2.336315520e-04, -7.933036983e-02, 1.307658944e-02, -1.314375550e-01, 6.940505654e-02, 4.005925730e-02, -2.342295833e-03, 1.389983147e-01, -1.824202240e-01, -1.472743601e-02, -4.464974336e-04, -3.300921060e-03, -4.471284524e-02, -2.642711997e-01, -1.831095666e-02, -5.174885318e-02, 1.281682998e-01, -5.429929588e-04, -6.105038896e-02, 1.541559249e-01, -3.387055174e-02, -1.271489915e-02, 2.167056780e-03, 1.149235875e-03, 4.678344354e-02, -5.996854231e-02, 3.070703335e-02, 1.272330284e-01, 2.252292819e-02, -2.087428700e-03, 9.247773141e-02, 2.434895933e-02, -7.216075808e-02, 5.210092757e-03, 1.349379774e-02, -4.118587449e-02, -1.828492433e-02, 2.833445184e-02, -2.133398131e-02, 4.522345588e-02, 6.720371079e-03, -1.301145088e-02, -2.586465562e-03, 3.377209418e-03, -1.198878232e-02, -3.575323382e-03, 1.328943484e-02, 4.224261642e-02, -8.707614616e-03, 1.069611125e-02, -2.124621999e-03, 5.406570435e-02, 5.450605974e-02, -2.992152050e-02, 1.340076886e-02, 3.349438310e-02, 7.764467597e-02, 3.473128751e-02, 1.450905800e-01, -3.013089113e-02, 1.737658381e-01, 3.451644909e-03, 2.696698159e-02, 8.053401113e-02, -4.324196279e-02, -1.109198853e-02, 3.779790178e-02, -5.559045821e-03, 1.197486278e-02, 6.681355089e-02, -3.467043396e-03, -1.108312905e-01, -2.139745057e-01, -5.399720743e-03, 5.211902410e-02}, {-1.098723710e-02, 4.437701702e-01, 4.570019990e-02, -3.554752097e-02, -2.232434228e-03, -1.348261163e-02, -1.774337143e-01, -7.288654149e-02, -1.162261143e-02, -6.897073984e-02, -1.624761708e-02, -1.543766633e-02, 1.219627098e-03, -2.238198929e-02, 5.705502629e-02, -8.157555759e-02, 1.455054153e-03, 9.103646129e-02, -1.460305508e-02, 5.633025244e-02, 1.071829572e-01, 2.554913983e-03, 1.443245560e-01, 4.445761815e-02, 5.097305984e-04, -3.812342510e-02, 1.062152535e-01, 3.682812676e-02, 1.771037467e-03, 7.370500267e-02, 2.374355495e-02, -3.448862955e-02, 1.258987840e-02, 7.645466365e-03, 3.105686745e-03, 3.483706340e-02, -4.244375508e-03, -1.430172194e-02, 8.076679707e-02, 1.446109824e-02, 3.122537024e-02, 1.587745617e-03, 3.192604706e-02, 3.506832058e-03, 1.098855585e-01, -3.417351982e-03, 3.279678640e-04, 1.808526926e-02, 2.243094593e-01, -7.089766860e-02, -3.638474271e-02, 3.766622841e-01, 3.278117180e-01, -4.955544695e-02, -1.148536950e-01, -1.642373018e-02, -3.051914088e-02, -1.582884602e-02, -4.085329361e-03, 3.831402212e-02, -1.061101854e-01, -1.125189359e-03, -2.778589551e-04, -7.096543908e-02, -1.238492802e-01, 8.515767008e-02, -1.728170812e-01, -9.709701687e-02, -2.565061208e-03, -1.049805246e-02, 4.498192668e-02, -1.400647312e-02, 7.722309674e-04, -1.190070616e-04, -2.314571757e-03, 5.012752954e-03, 5.176724866e-02, 6.204399094e-02, -9.488907456e-02, 3.341177478e-02, -4.596539587e-02, 3.261141106e-02, 1.526484918e-02, -1.912222803e-02, -6.660872605e-03, -6.577689201e-02, 2.088785544e-02, 4.084093273e-01, -3.842536509e-01, 5.490464158e-03, 2.070199326e-02, 6.862247735e-02, 5.292123184e-03, 3.892679513e-02, -2.823638730e-02, 6.459046900e-02, 4.706499353e-02, 2.335916273e-02, 6.274162233e-02, -7.346582133e-03, 2.857087529e-04, 2.645958960e-02, -1.273068599e-02, 1.064395439e-02, -3.570251400e-03, 1.342669968e-02, -8.051924407e-03, -7.921919972e-02, -3.674864303e-03, 3.462917404e-03, 7.106792182e-03, -1.780043729e-02, 8.333725482e-02, 6.913623214e-02, 4.144274164e-03, 2.671772242e-01, 9.517323226e-02, 6.735730451e-03, 5.461020768e-02, -5.303678336e-04}, {8.384205401e-02, 7.086684462e-03, 1.614222676e-01, -8.914516657e-04, -7.223834842e-02, 1.191638187e-01, -3.362162784e-02, 2.046386153e-02, 3.409252316e-02, -3.316294402e-02, -4.053736851e-02, -2.807250917e-01, 3.775908798e-02, -6.973423064e-03, -4.138463177e-03, 4.964565113e-02, 1.792847216e-01, -6.669797935e-03, 4.106216878e-02, 8.071143925e-02, -2.789912513e-03, 4.746466409e-03, -1.317357719e-01, 5.299530923e-02, -8.630531840e-03, -2.866511000e-03, -5.042565614e-02, -8.883175440e-03, -2.535178699e-02, -5.048299208e-03, 4.748881236e-02, -2.862855326e-03, 5.213966593e-03, 2.401085570e-02, 1.138951182e-01, 4.001042247e-02, -1.313815359e-02, 7.681316347e-04, -8.652058989e-02, -1.508189291e-01, 5.025833379e-03, 4.808381665e-03, -7.541198283e-04, 1.273412816e-02, 4.613437504e-02, 8.797327429e-02, 9.992572665e-02, -2.930656672e-01, -1.073564440e-01, -5.139201134e-02, 2.586020157e-02, 1.440995838e-03, -9.458016604e-02, -2.473813482e-02, -2.228134871e-02, -3.215279430e-03, -1.352619031e-03, 5.630718172e-02, 4.188992456e-02, -3.113573045e-02, -6.840569526e-02, -3.273756430e-02, -3.585189348e-03, -1.109270751e-02, 1.668741703e-01, 1.203345973e-02, -2.233123779e-02, 2.865551971e-03, 4.230469763e-01, 7.689204067e-02, 5.321140401e-03, 2.883001603e-02, -4.510972183e-03, 5.836349353e-02, 2.387569696e-01, 7.932522334e-03, -1.159036998e-02, 4.051087052e-02, 4.816237371e-03, 3.424359486e-02, -1.789866015e-02, 1.224762499e-01, 3.182518110e-02, 5.500979349e-02, -5.474282429e-02, 4.295322113e-03, -6.184684025e-05, 2.110318019e-04, 6.958326325e-03, -6.649055332e-02, -6.723799556e-02, 9.575655684e-03, -3.320446610e-02, -3.308655228e-03, -1.152760386e-01, -7.613308262e-03, -8.014187962e-02, 3.197150677e-02, -2.292468026e-02, 7.257305831e-02, 8.389256895e-02, -3.148265183e-02, -9.309089929e-02, -1.872835457e-01, -5.282425508e-02, -5.364223942e-02, 5.759083852e-02, -6.063113362e-02, 1.644742489e-02, -8.190993220e-02, 1.649412364e-01, -4.998458549e-02, -9.761543944e-03, 6.771275308e-03, -3.006427176e-02, -1.730491058e-03, 5.263116211e-02, 2.741478384e-03, -7.655479945e-03, 5.027237162e-02}, {7.459262386e-03, -1.695662364e-02, -2.881177934e-03, 1.502433568e-01, 7.718622684e-02, -5.399342999e-02, 1.057133079e-01, 7.831805199e-02, 2.310260944e-02, -3.439062461e-02, -1.117558032e-02, -2.584568784e-02, -5.326494109e-03, 3.746343255e-01, 5.886794254e-02, 6.805712730e-02, 1.033631503e-03, -2.256709710e-02, -3.056561016e-02, -5.723577458e-03, -2.036398835e-02, -2.091256902e-03, -1.791013628e-01, 3.060781024e-02, 5.176513270e-02, 6.168174557e-03, -1.924578100e-01, -1.770674624e-02, 6.302828901e-03, -1.487097330e-02, 4.120758176e-02, -2.024192065e-01, -2.822295725e-01, 1.674446836e-02, -4.025344737e-03, -4.354965407e-03, -2.836669330e-03, 8.894017339e-02, -6.733509898e-02, 3.032313893e-03, -2.110597342e-01, -1.475192234e-02, 6.298718601e-02, 5.236956291e-03, 1.427734047e-01, -1.088970384e-05, -2.131061396e-03, 1.258539874e-02, 1.852855682e-01, 1.121269017e-01, -2.495426871e-02, -4.090845212e-02, 2.306952886e-02, -1.446302794e-02, -2.495312691e-02, 1.739886999e-01, 9.069358557e-02, 6.921986933e-04, -6.607864518e-03, -2.712632157e-02, -1.021460891e-01, 5.511585157e-03, 3.882774115e-01, -6.509813480e-03, -9.374783374e-03, -2.869874611e-02, 2.014785856e-01, 5.959731340e-02, -2.728716005e-03, 3.255639691e-03, 1.586830430e-02, -2.160099149e-02, -9.397836402e-03, 2.345242165e-02, -5.759881809e-03, -4.233200569e-03, -5.588784441e-02, -6.378936768e-02, -8.623169363e-02, -8.642525412e-03, 1.343025174e-02, 5.184374750e-02, 3.484082595e-02, -2.579087450e-04, -3.312309273e-03, -9.002492577e-02, -2.223895118e-02, -7.080077194e-03, 5.343241617e-02, 4.809832573e-02, 4.750250373e-03, -9.204839170e-02, -3.808704764e-02, -5.039742589e-02, 1.347772963e-02, 1.331628952e-02, 3.840807080e-02, 7.389359176e-02, -5.208530277e-02, 1.149561605e-03, 1.572157140e-03, -3.993221000e-02, -1.773746498e-02, 2.969893068e-02, -7.215464115e-02, -5.884582177e-02, -8.743225597e-03, -3.936675563e-02, 7.918646187e-02, -1.541189291e-02, 1.489946898e-02, 1.153240073e-02, 3.231579438e-02, 7.286538929e-02, 3.739797510e-03, -9.004431777e-03, 6.793115288e-02, -6.534715649e-03, -2.510326803e-01, -6.452984642e-03}};

const float bias_out[NUM_CONTROLS] = {9.855031371e-01, 4.262476563e-01, 9.204090238e-01, 5.768639445e-01};

const float in_norm_mean[NUM_STATES] = {1.144793391e+00, -1.064303443e-01, -4.683034122e-01, 1.941223621e+00, -8.287154436e-01, -3.513400555e-01, 1.315174401e-01, -2.114116400e-01, 3.439761996e-01, 6.247094870e-01, -2.175149173e-01, 6.694806218e-01, 7.944470215e+03, 8.270910156e+03, 7.979899414e+03, 8.298893555e+03, -1.882949291e-04, -6.104926433e-05, 3.729970194e-05};

const float in_norm_std[NUM_STATES] = {9.610515833e-01, 9.380991459e-01, 7.273830771e-01, 1.341025591e+00, 1.410648942e+00, 8.978945017e-01, 4.133600891e-01, 3.410835862e-01, 5.389755964e-01, 2.260777712e+00, 2.001104116e+00, 9.017397165e-01, 1.430129150e+03, 1.309358887e+03, 1.310778564e+03, 1.240512817e+03, 2.295240760e-02, 2.326051332e-02, 5.720505491e-03};

const float out_scale_min = 3.000000000e+03;

const float out_scale_max = 9.800000000e+03;

const float weights_hid[NUM_HIDDEN_LAYERS-1][NUM_NODES][NUM_NODES] = {{{1.527222395e-01, -1.155634299e-01, -6.233305335e-01, -5.168122649e-01, 2.889044583e-01, 4.918083549e-01, -7.736565918e-02, -5.247781873e-01, 2.919523120e-01, 1.437631249e-01, 6.038003564e-01, -1.246597886e+00, 2.628321648e-01, -6.580553055e-01, -2.605519593e-01, 3.391158283e-01, -2.778847516e-01, 3.511982262e-01, -5.321559310e-02, -2.127499580e-01, 6.855572760e-02, 2.571128905e-01, -1.767813265e-01, 1.217592657e-01, 2.065171152e-01, -6.843670607e-01, -2.163778305e+00, 3.383215070e-01, -5.965656638e-01, 4.211212099e-01, -4.006063938e-01, 1.092395261e-01, 5.110776424e-01, 2.278098613e-01, 3.347727060e-01, 4.637835026e-01, -1.184140295e-01, -8.569175750e-02, 5.885592196e-03, 2.259986997e-01, -2.559876442e-01, 6.895403266e-01, 2.570464611e-01, 3.475680053e-01, -2.430547625e-01, -9.372341633e-01, -9.106146172e-03, 4.440665245e-01, 7.250667214e-01, 3.081803322e-01, -7.083677053e-01, -4.177348912e-01, -3.702708185e-01, -1.307927370e+00, -7.423887849e-01, -5.584686399e-01, -1.477548599e+00, -1.431718022e-01, -2.102392465e-01, 2.218626440e-01, -2.038934231e-01, 8.027152717e-02, 8.830178380e-01, 5.719752908e-01, -1.743460000e-01, 1.995911002e-01, -1.122768641e+00, 4.156084359e-01, 1.591248512e-01, 1.632396728e-01, -9.128195047e-02, -1.175780177e+00, -2.107984304e+00, -1.152077839e-01, 5.185281634e-01, 5.345388055e-01, 1.811092952e-03, 5.137754679e-01, -1.578570157e-01, 2.627401352e-01, -6.621062756e-01, -9.599864483e-01, 4.243042171e-01, -2.559250966e-02, -7.756163925e-02, -2.154119015e+00, -4.328438640e-01, -6.832668185e-01, 4.047034383e-01, 1.190138087e-01, -7.871430516e-01, -1.802443862e-01, 3.393776715e-02, -2.500570118e-01, -4.220066369e-01, 1.297613680e-01, 1.299163401e-01, 4.017857313e-01, 2.756901979e-01, -5.337800831e-02, 6.484535933e-01, 2.410324216e-01, -1.347065344e-02, -3.891645372e-01, -1.236493587e+00, 2.726552784e-01, -5.899488330e-01, -7.491515577e-02, 2.417800426e-01, 2.946030200e-01, -1.339402556e+00, 2.454513460e-01, -2.140386701e-01, 2.945473492e-01, -7.707471251e-01, 7.859627903e-02, 5.825674534e-02, 4.099428188e-03, 3.412423432e-01, -2.798146605e-01}, {-7.820560038e-02, -2.109389752e-02, -4.886871949e-02, -5.146941543e-01, 3.836250305e-02, -1.818028688e+00, 1.859938726e-02, -3.704004586e-01, 4.239532351e-01, -8.107845485e-02, -1.035639524e+00, -2.297880501e-01, 1.286661439e-02, -2.440328300e-01, 2.487646043e-01, 2.559345961e-01, -1.700430065e-01, 7.448156178e-02, 3.527715504e-01, -2.197233140e-01, -3.166954517e-01, -2.917932272e-01, 1.626378447e-01, -3.093074858e-01, 5.724139810e-01, 1.919046491e-01, 6.767719984e-03, -5.538516119e-02, 1.100636125e-01, 1.944670320e+00, -1.174664646e-01, 1.346862614e-01, -2.734882534e-01, 1.898408979e-01, -2.749629319e-01, 2.477980256e-01, -2.451244295e-01, -3.412060440e-01, -1.610118300e-01, -3.729560226e-02, -5.598833039e-02, -1.564500570e+00, 1.271934062e-01, -1.179171562e+00, 5.517768487e-02, -5.596477389e-01, 1.138104349e-01, -2.863829434e-01, 1.405671835e-01, 4.238315821e-01, -3.329041898e-01, 1.916931123e-01, -5.715978891e-02, -1.564856172e-01, -6.300391257e-02, -7.192391157e-01, -6.526339650e-01, -2.152116299e-01, 9.414525330e-02, -1.137203798e-01, -4.626777470e-01, -1.390868723e-01, 3.319541514e-01, -4.745123386e-01, -9.247221351e-01, 5.161780715e-01, -2.302465141e-01, -7.806863785e-01, -4.214834273e-01, 4.113768339e-01, -1.063244492e-01, 1.007883072e+00, -6.680520177e-01, 3.142020851e-02, -5.543048382e-01, 2.684035301e-01, -1.758926213e-01, 6.712269187e-01, -2.231161833e+00, 2.184363902e-01, -5.516617894e-01, -6.300935149e-01, -3.187747896e-01, 3.930144906e-01, -3.961361051e-01, -3.539098799e-01, 7.994627208e-02, -3.873478174e-01, 3.601348400e-01, 2.713727653e-01, -1.445355266e-01, 4.153171182e-02, 1.313158721e-01, 2.721992433e-01, -2.564397752e-01, 1.249281913e-01, 3.334507346e-02, -1.054650396e-01, -9.559891820e-01, -3.826729208e-02, -2.491879314e-01, 2.082614414e-02, 6.601307392e-01, -1.826634705e-01, 5.126263499e-01, -3.747662008e-01, -6.711592078e-01, -3.445538580e-01, 2.194408774e-01, 2.333380729e-01, 3.447612226e-01, 7.056234032e-02, 2.648309469e-01, 3.919116855e-01, -3.283645213e-01, -2.323210426e-02, 1.813997179e-01, -1.313564628e-01, -5.687286854e-01, -1.075684205e-01}, {1.600066423e-01, 4.387823120e-02, -1.015115082e-01, 3.073837608e-02, -2.457460761e-01, 7.369957119e-02, -3.494478390e-02, -1.015792862e-01, -2.548186481e-01, -1.975882985e-02, -1.149801016e-01, -6.143692136e-02, 8.557779342e-02, 1.494261473e-01, -4.757745191e-02, -5.302971974e-02, 5.055023730e-02, 7.931437343e-02, -3.026909195e-02, 1.633572429e-01, -1.004473045e-01, 1.469602585e-01, -2.350866199e-01, -3.955249190e-01, -4.734960571e-02, -6.041369215e-02, 6.084549055e-02, 5.624528602e-02, 1.817289144e-01, -9.346378446e-01, -1.031710282e-01, 1.081443671e-02, 2.548418753e-02, -1.812034994e-01, -2.651233673e-01, -2.363371253e-01, 2.030766308e-01, 4.144993797e-02, -5.923396349e-02, -3.594992682e-02, -3.036457598e-01, -2.246056348e-01, -1.204625145e-01, -1.363272071e-01, -4.299350977e-01, 3.643446043e-02, -1.167239696e-01, 2.223096192e-01, 2.340318412e-01, 4.661249816e-01, 1.249187738e-01, 6.983500719e-02, 4.013563693e-02, -1.667836010e-01, 1.604115218e-01, -1.218240038e-01, -9.204003215e-02, -1.798198931e-02, 1.017019302e-01, -3.097315691e-02, 3.838789761e-01, 2.737898193e-02, 3.135985434e-01, 3.578867391e-02, 1.225282252e-01, -2.366566211e-01, 1.029702052e-01, 1.347273737e-01, 3.877313137e-01, -3.514584899e-02, -1.526537351e-02, -1.698345393e-01, -2.580781281e-01, 4.343541563e-01, -1.298538130e-02, -2.398248576e-02, 2.973401845e-01, 1.438867599e-01, 8.335819840e-02, 1.109830365e-01, -4.410535693e-01, 1.155399159e-01, 1.947277598e-02, -4.169638753e-01, -1.801283658e-01, 6.162917241e-02, -1.720500737e-01, 7.439920306e-02, 1.515795946e+00, -4.611610249e-02, 8.383613825e-02, -7.100264728e-02, -9.761274606e-02, -2.392994761e-01, 5.989502370e-02, -4.931924865e-02, 2.145559788e-01, -1.750384569e-01, 2.427052855e-01, -9.723002464e-02, -1.987104416e-01, 3.002419472e-01, -1.422299352e-02, -6.890509278e-02, -3.500440344e-02, 1.045208275e-01, 1.353493184e-01, 9.833353758e-02, 1.908162683e-01, 1.358449645e-02, -8.525205776e-03, -2.532757074e-02, -4.637805745e-03, -2.203644514e-01, -4.172615707e-02, 2.101698657e-03, 1.265387982e-01, 3.302163482e-01, -2.430581748e-01, -8.480429649e-02}, {2.162657231e-01, 1.141881272e-01, -1.221238077e-01, 1.575868428e-01, 4.922244698e-03, -1.080833934e-02, -1.143785417e-01, 2.199916393e-01, -5.525990576e-02, 1.314174682e-01, -1.064542085e-01, 5.446416885e-02, -4.715533555e-02, 7.449828982e-01, -1.848528534e-01, -4.032062739e-02, -1.771258563e-01, -5.586966500e-02, 1.041192561e-01, 4.048081934e-01, -7.181511819e-02, 3.289460391e-02, -6.116563082e-02, -3.582736105e-02, 7.556990534e-02, 8.990276605e-03, -2.891139686e-01, 3.446238115e-02, -6.399551779e-02, -3.561726213e-01, 2.421021610e-01, 2.763653994e-01, 1.035505310e-01, -6.984192133e-01, -3.646668196e-01, 2.331670374e-01, 1.288453043e-01, 6.459960341e-01, 3.185092807e-01, 2.143740952e-01, 6.293129176e-02, -5.361123681e-01, -1.124552190e-01, -1.526410729e-01, -1.061698496e-01, 5.608968735e-01, 4.159340262e-02, -1.545031071e-01, -3.660120815e-02, 6.257489324e-03, 2.947186120e-02, 1.445176601e-01, 9.597712755e-02, -4.935789853e-02, 4.358692169e-01, -1.715839058e-01, 3.283631802e-02, -4.580641091e-01, 3.557568192e-01, 1.167398393e-01, 4.126169086e-01, 1.962375343e-01, -7.116776705e-02, -2.577483654e-01, -7.901330292e-02, -3.356387317e-01, -2.755261399e-02, -2.041247115e-02, 6.567050237e-03, -1.282968931e-02, 6.483291835e-02, 2.622655630e-01, 1.842702478e-01, 2.150737196e-01, -7.888822258e-02, 2.442248166e-01, 2.406278104e-01, 2.318827659e-01, 8.445950150e-01, 1.328432262e-01, 3.446111679e-01, 4.442230761e-01, 1.065070480e-01, 6.223608851e-01, -1.938848058e-03, 2.623498440e-02, -1.581820399e-01, 5.208397508e-01, 5.591945723e-02, -2.286778688e-01, 5.749521777e-02, 3.995824456e-01, -8.310328722e-01, -7.066580653e-01, -1.281052679e-01, 8.368306756e-01, 2.388944924e-01, -4.364095330e-01, 2.770242468e-02, 8.744322509e-02, 1.277185827e-01, 1.108789071e-01, 3.064134717e-01, 2.665891647e-01, -2.546982467e-01, 2.709504031e-02, 1.506523043e-01, -2.602418363e-01, 2.314521372e-01, -1.203286275e-01, -1.404220462e-01, -6.704004481e-03, 2.683436573e-01, -9.333750010e-01, 2.429035008e-01, 1.205837280e-01, -1.309403330e-01, -7.613452524e-02, -4.215184599e-02, -9.159867465e-02}, {-3.657831252e-01, 2.189569734e-02, -3.937278390e-01, -1.017237306e+00, 7.181724906e-02, -2.887127995e-01, 3.938929737e-02, -8.018180132e-01, -4.119278789e-01, 2.481276989e-01, 4.763253629e-01, -5.596329570e-01, -8.203065395e-02, -8.640196323e-01, -9.753389657e-02, -1.713438332e-02, 1.276786566e+00, 3.131803274e-01, 3.321219981e-01, -5.286000371e-01, 1.129609942e-01, -3.074889779e-01, 6.692513078e-02, -4.552474320e-01, -2.891842127e-01, 1.230627969e-01, 1.332265884e-01, 1.192449555e-01, 3.895104229e-01, 7.761717439e-01, -6.651254892e-01, 1.180135831e-01, 2.989700139e-01, 7.188611478e-02, -2.033552229e-01, 3.520783186e-01, 1.222553998e-01, 4.039823711e-01, -2.268124372e-01, 3.920952976e-01, 4.695784301e-02, 1.483518332e-01, 9.284498692e-01, 5.244736671e-01, 1.614961028e-01, -8.715066314e-02, 1.403296739e-01, -1.881502122e-01, 2.918733358e-01, 6.275678426e-02, -6.113570929e-01, -3.031441569e-02, -3.405720294e-01, -1.102441847e-01, -9.345421195e-01, -5.407307744e-01, -1.266057938e-01, -2.782360315e-01, -4.836759269e-01, -7.742726207e-01, -1.042028740e-01, -2.959114015e-01, 2.730169296e-01, -2.824016809e-01, -2.272365093e-01, -1.416174769e-01, -2.381548136e-01, 3.320330083e-01, -2.752812579e-03, 1.110664248e+00, 1.244010851e-01, -1.276321560e-01, -9.970158339e-03, 4.042446613e-01, -3.535513952e-02, -1.244366050e+00, -3.666086793e-01, 1.002083719e-02, 8.701617122e-01, -4.727587402e-01, -1.151207387e-01, 1.232955530e-01, 4.722320288e-02, -1.393039078e-01, 2.379705161e-01, -4.543344975e-01, 4.560859501e-01, -6.325730085e-01, -1.217113622e-02, -1.630990207e-01, -3.312445581e-01, -2.683736086e-01, -1.518980712e-01, 6.015002131e-01, 6.802258492e-01, 3.068631589e-01, -4.002901167e-02, 4.218910038e-01, 2.913949192e-01, 1.070972383e-01, 9.693731070e-01, -2.538655996e-01, -2.673032284e-01, 3.164275885e-01, -7.634069771e-02, 2.636508644e-01, 3.710505366e-02, -6.914051622e-02, -6.593304873e-02, 1.719184369e-01, -5.321005732e-02, 2.012884468e-01, 9.581618905e-01, 1.521409005e-01, 1.453156918e-01, -1.588286996e+00, -1.480111182e-01, 1.764556020e-02, 3.421666920e-01, -1.531388462e-01}, {-4.680003971e-02, 3.416504264e-01, -6.170572340e-02, 4.613831937e-01, 1.412846148e-01, 1.141495943e+00, 2.274011523e-01, -3.032669425e-01, 1.714587808e-01, 4.354749620e-01, 2.370203882e-01, -1.133884668e+00, 3.351807222e-02, -3.388504684e-01, 5.605790019e-01, 3.624236882e-01, 8.262684196e-02, -2.079943269e-01, -3.416392207e-01, -4.742957354e-01, -4.248324335e-01, 2.751986980e-01, 1.176909581e-01, -9.400392324e-02, -2.261231899e+00, -3.199971914e-01, -7.851612568e-01, -2.146569937e-01, -1.950790584e-01, 1.492751598e+00, 1.833464503e-01, -4.217302501e-01, 4.220614135e-01, 2.754579484e-01, 9.416583180e-02, -6.237434149e-01, -3.108329177e-01, 8.655095100e-02, 1.339813024e-01, -4.730665386e-01, 1.791095585e-01, -1.408141553e-01, -6.799671333e-03, 9.016315639e-02, -1.009318113e+00, -2.084092982e-02, -1.164595261e-01, 7.867397070e-01, 5.108624697e-01, 1.707961597e-02, 3.312301934e-01, -1.072807759e-01, 5.690363795e-02, -1.651865482e+00, -4.696785808e-01, -3.387633264e-01, 1.967376620e-01, 3.749527037e-01, -2.683186531e-01, 2.413630337e-01, -3.099322617e-01, 3.229525685e-01, -1.114245296e+00, -4.717690125e-02, 3.367025554e-01, -3.476532176e-03, 3.507016599e-01, 3.123641014e-01, 2.131532282e-01, -5.105745047e-03, -9.830505401e-02, -1.338362336e+00, -6.544123292e-01, -3.592521697e-02, 7.673474550e-01, 2.355360091e-01, 4.437118471e-01, 1.046835929e-01, -8.388214707e-01, 4.905414954e-02, -3.301722109e-01, -1.907229722e-01, 2.338176072e-01, -4.455913007e-01, 6.611667871e-01, 1.269532442e-01, 8.895179629e-02, -5.380452275e-01, 3.876690865e-01, 1.802051999e-02, -2.422284633e-01, -5.609869361e-01, 3.169652075e-02, -1.447797269e-01, 1.558993459e-01, -5.398236215e-02, -1.646407694e-01, 2.268529534e-01, -1.063935384e-01, -2.764488198e-02, -2.541391253e-01, 3.326006532e-01, -2.072687745e-01, -1.802310467e+00, -1.141784668e+00, 2.613171339e-01, 2.055618614e-01, -3.071050644e-01, -1.176253915e+00, 4.568769038e-01, -3.944292963e-01, -4.927434027e-01, -2.229616046e-02, 4.632682800e-01, -8.177239299e-01, 1.143427342e-01, -1.683973223e-01, -2.609043717e-01, -1.467486620e-01, -1.322709203e+00}, {-1.344727725e-01, -2.424930781e-01, -2.978247404e-01, -7.217008471e-01, -4.699033797e-01, -2.435501367e-01, -3.158197701e-01, 2.126316875e-01, -1.896566153e-01, -1.297948956e-01, 3.214558959e-01, -1.682251692e-01, 8.199107647e-02, 4.460752243e-04, 3.490346670e-01, 6.372725368e-01, 5.138295889e-01, -1.674066484e-01, 3.817943037e-01, 2.162374556e-01, 3.609021306e-01, 9.848190844e-02, 4.229303822e-02, 8.815255165e-01, -5.809981227e-01, -4.693990946e-02, -7.526723742e-01, 3.197857365e-02, 3.388875127e-01, -1.320409536e+00, -2.471340895e-01, -8.315400034e-02, 3.470132947e-01, 2.900481224e-02, 1.530345380e-01, 2.393615246e-01, -1.194874570e-01, 9.202621877e-02, 2.157861590e-01, -4.124246240e-01, 8.297415078e-02, -5.561902523e-01, 6.791255474e-01, 4.891288280e-01, -4.838597178e-01, -4.715740979e-01, -1.283867955e-01, -1.791168451e-01, -2.250419259e-01, 2.756347358e-01, -3.194026649e-02, -5.368573070e-01, 3.235635161e-02, -2.208297968e+00, 1.593728811e-01, 8.098893613e-02, 3.426473141e-01, -1.779088080e-01, 1.596954018e-01, -1.399864908e-02, -7.904292345e-01, -1.180010363e-01, -6.755232066e-02, -9.906610847e-01, -9.735847116e-01, 7.550998926e-01, -4.299444258e-01, 7.499977946e-01, -9.683803469e-02, 4.136621356e-01, -4.000757933e-01, -2.272865027e-01, -9.094700813e-01, 3.470743299e-01, -5.730133057e-01, 6.974311471e-01, 1.806417853e-01, 2.625657916e-01, -2.561081052e-01, -8.354967833e-01, -5.667107925e-02, -4.689964354e-01, 2.736485004e-01, -2.111236751e-01, -4.111645222e-01, -5.737789869e-01, 8.768805861e-02, -7.179522514e-02, -9.764196351e-03, -2.779813707e-01, 1.619590819e-01, -6.270451099e-02, 4.235622287e-02, -1.503406525e+00, -1.064359695e-01, 1.594475955e-01, -1.846121848e-01, -3.349506482e-02, -3.842875957e-01, 2.825410664e-01, 2.277816087e-01, 1.584162004e-02, 3.570668697e-01, -3.758223355e-01, -4.828485250e-01, -8.476021290e-01, 6.865570545e-01, -1.140660942e-01, 2.480261475e-01, -6.448403001e-01, 9.573922306e-02, 3.630372928e-03, -7.222398371e-02, -6.786681414e-01, 2.110843062e-01, -2.205989510e-02, -2.270026058e-01, 5.703238845e-01, -5.230096355e-02, -6.272053719e-01}, {3.278269470e-01, -3.441072106e-01, -4.223094136e-02, 3.013006747e-01, -1.033654690e+00, 5.299600214e-02, -6.118115187e-01, -5.876829382e-03, -8.435440660e-01, 2.353726327e-01, 7.714021802e-01, -2.301086783e-01, -8.478423208e-02, 4.852279127e-01, 2.915093005e-01, -2.166991383e-01, 6.067997217e-01, -5.712397099e-01, -1.278617233e-02, 2.837006450e-01, -5.818346739e-01, 2.016351968e-01, 3.830523193e-01, 1.831156760e-01, -5.204311013e-01, 1.326280683e-01, 3.976611197e-01, 2.795835435e-01, -3.206786513e-01, 4.249010682e-01, -3.289903402e-01, 2.127230763e-01, -2.115995251e-02, 2.796821892e-01, 9.719468653e-02, 1.309389770e-01, -1.319332421e-01, 4.030339122e-01, 1.373915970e-01, 3.413041532e-01, -5.272134393e-02, -6.622554064e-01, 1.602378190e-01, 5.582143664e-01, -1.243347004e-01, -4.234157801e-01, 3.520422578e-01, -3.783515096e-01, -3.011037782e-02, 5.806504562e-02, 4.611843079e-02, 1.011980847e-01, -3.179221451e-01, -7.911227643e-02, 4.975136817e-01, 8.558288962e-02, 3.753206134e-01, 3.655902445e-01, 6.901431829e-02, 4.679663479e-02, 3.304650486e-01, -5.673554540e-01, -7.801995426e-02, 1.029219151e+00, -3.987165093e-01, 6.550660729e-02, -2.373400778e-01, 2.438580394e-01, -7.696056273e-03, 4.043648243e-01, 6.103427410e-01, 2.992997169e-01, -6.554639935e-01, 1.434887201e-01, -5.882267356e-01, -3.684363365e-01, -2.506333590e-01, -1.203253791e-01, -4.302671179e-02, -5.837462544e-01, -2.496881038e-01, 6.302098632e-01, 3.792124614e-02, -5.283929706e-01, 1.675177664e-01, 4.773074389e-02, 1.341921240e-01, 6.196196675e-01, -6.196091417e-04, -8.726846576e-01, -1.039874628e-01, 6.028430462e-01, -4.747157395e-01, -1.014014602e+00, 3.878178596e-01, 4.239179492e-01, -5.673126578e-01, 6.125286818e-01, -3.538025916e-01, -2.423879355e-01, 1.850122660e-01, 2.980667651e-01, 4.485329092e-01, -1.396628618e-01, 1.318733394e-01, -2.357750088e-01, -2.585092001e-02, -1.548360288e-01, -1.980850101e-01, -5.896534920e-01, -4.196608961e-01, -6.005910635e-01, -2.402202338e-01, -5.295025110e-01, 2.700958252e-01, 3.964371085e-01, -2.708358765e-01, 3.450602889e-01, -1.238978729e-01, -1.835496873e-01}, {3.727467954e-01, -4.671332613e-02, 1.491732299e-01, -3.750378788e-01, -1.100540087e-01, -7.942289114e-02, 3.487894312e-02, 6.156542525e-02, 7.503349781e-01, 1.999935508e-01, 4.155957401e-01, 1.909262687e-01, 4.127008021e-01, -3.905682266e-01, 2.332255393e-01, 3.189064264e-01, -4.879762232e-01, 2.913962901e-01, 9.427523613e-01, 1.116763502e-01, -2.046360970e-01, -2.111565918e-01, 5.228034854e-01, 4.764560163e-01, 3.274888545e-02, 2.361764908e-01, 3.121822886e-02, -1.994480640e-01, -3.083200194e-02, -1.664800942e-01, 6.036430597e-01, -1.026007771e+00, -1.684198380e-01, 2.740824819e-01, 6.600176450e-03, -3.537807167e-01, -4.298381805e-01, -5.607166290e-01, -9.232093692e-01, -3.223766088e-01, 1.196182445e-01, -8.630393147e-01, 4.090255201e-01, -9.381690025e-01, -3.348363638e-01, -2.991010249e-01, 2.603628635e-01, -2.376734763e-01, 2.682306468e-01, -5.269200206e-01, -4.019248784e-01, 2.407437861e-01, -1.811473370e-01, 2.378601134e-01, 1.856947541e-01, 2.448655367e-01, 1.102606058e-01, 3.966994956e-02, -4.165487587e-01, 1.426924169e-01, -2.525935769e-01, 3.803375959e-01, 1.623349637e-01, 3.139928281e-01, 1.329980940e-01, -6.751134992e-01, 2.483153492e-01, -5.759390593e-01, -4.556169510e-01, 5.723767281e-01, -5.676397681e-01, -5.236225724e-01, 1.671069115e-01, -3.118090332e-01, 6.828417778e-01, 9.665847570e-02, -7.286704183e-01, -8.860364556e-02, -5.045798421e-01, 1.856754720e-02, -5.084596872e-01, -2.720125318e-01, -1.023945361e-01, -1.978367418e-01, -4.423545033e-04, -2.518794239e-01, 1.820096374e-01, -3.110187352e-01, 1.726207286e-01, -5.456549302e-02, 2.312752008e-01, -7.275369763e-01, 8.528573513e-01, 7.881773114e-01, 2.409744710e-01, 1.279157043e+00, 4.697698355e-01, -3.177552298e-02, -1.536875665e-01, -3.531681001e-01, -2.287121415e-01, 1.014193222e-01, 1.190444902e-01, -3.884611428e-01, -2.671268284e-01, 3.909440339e-01, 4.317557812e-01, -1.819911599e-01, -2.006220520e-01, -1.010530144e-01, -2.967081070e-01, 3.062236309e-01, 5.514245629e-01, 1.460997343e+00, -8.538642526e-01, 6.005453467e-01, -4.360734671e-02, -1.061072648e-01, 1.881160587e-01, 1.261273026e-01}, {-3.350511491e-01, 2.874930799e-01, -8.839499354e-01, -9.046029449e-01, 4.899798632e-01, 1.788771898e-02, -1.221381035e-02, 4.782944024e-01, 5.825127959e-01, -4.827836156e-01, 2.089537978e-01, 3.091917634e-01, 4.548389316e-01, -3.963132501e-01, -1.239201352e-01, -3.629209399e-01, -1.622316837e-01, -5.544368625e-01, -1.967974007e-02, -6.045664549e-01, 9.492965043e-02, 5.946537852e-02, 3.327984512e-01, 4.080741405e-01, -1.074458659e-02, -1.732906103e-01, -2.452556938e-01, 2.300848514e-01, 1.521890797e-02, 1.073783398e+00, 2.837426662e-01, -2.728737518e-02, 6.932176650e-03, 1.142044663e-01, 1.665153503e-01, 5.741955638e-01, -5.181777477e-01, -7.160164416e-02, 6.836786121e-02, -1.056723833e+00, 9.873931110e-02, 1.189303160e+00, 1.009283885e-01, 2.444343567e-01, 6.052811742e-01, -1.749262452e+00, -1.059989706e-01, -4.942448139e-01, 7.413012981e-01, -7.313637137e-01, 2.987368107e-01, -3.441679478e-01, 5.300738811e-01, -7.854198813e-01, -6.278387308e-01, -6.437876225e-01, -1.132625818e+00, -1.582408905e+00, 2.975462377e-01, 1.808983684e-01, -1.096801758e+00, -9.883232117e-01, 4.205599725e-01, 5.166246891e-01, -3.584479690e-01, -7.303757071e-01, -1.882622838e+00, -1.599184424e-02, 4.488663077e-01, -2.069654614e-01, 4.038894922e-02, 4.823361039e-01, 3.384700418e-01, 3.518487215e-01, 1.640467942e-01, 4.318555593e-01, -2.452561110e-01, 7.629500031e-01, 3.218846619e-01, 9.308431298e-02, -1.260135770e-01, -2.970996313e-02, 2.282917947e-01, -6.080288887e-01, 6.536424756e-01, -1.328715205e+00, -1.511795521e+00, 7.317625284e-01, -8.405622840e-01, 5.672401786e-01, -1.231153011e+00, 3.613071740e-01, 4.862687364e-02, 3.451903164e-01, -4.290445745e-01, -9.087888896e-02, -7.749884855e-03, -2.075782120e-01, -1.961928755e-01, -3.104200363e-01, 4.759650826e-01, -1.863640398e-01, 6.524653733e-02, 1.031867504e+00, -5.899934173e-01, -3.847226202e-01, 3.105004132e-01, 2.370159328e-01, 3.607691824e-01, -1.352794647e+00, 3.482030630e-01, -2.752425969e-01, 3.984453902e-02, -1.422480196e-01, 4.552088380e-01, 3.297631741e-01, 8.822260797e-02, 5.727465078e-02, 4.863465428e-01, 8.309850097e-01}, {2.230103016e-01, 5.164411664e-01, -3.178304806e-02, -2.281471938e-01, -4.499520659e-01, -2.415863723e-01, -2.371016890e-01, 1.910770684e-01, 3.751597404e-01, -2.447390705e-01, 6.461679935e-02, 3.678545356e-01, -3.193527758e-01, 3.446709812e-01, 6.816779822e-02, 1.058787256e-01, -2.314859331e-01, 1.221243013e-02, -2.575044632e-01, 2.016035765e-01, -1.742425375e-02, -7.917351276e-02, 1.402250826e-01, -9.086764604e-02, 1.341335773e-01, 1.477082819e-01, -1.857209802e-01, -2.648906112e-01, -1.635416038e-02, 1.489688903e-01, -3.921236992e-01, -1.419379711e-01, 7.866872847e-02, -2.737438381e-01, -3.414872289e-01, 2.815838158e-01, 2.462273091e-01, -2.764075994e-01, 3.182100505e-02, 4.372856021e-01, 4.501051903e-01, -1.193715572e+00, -5.561145395e-02, -1.060262546e-01, -4.258761704e-01, -6.861936301e-02, 8.987510949e-02, -3.326449394e-01, -1.804807037e-01, 4.901501536e-01, 6.569701433e-02, -8.112892509e-02, -3.727957308e-01, 1.090362221e-01, 2.445624769e-01, -3.145849109e-01, 5.357033610e-01, 7.047181576e-02, -3.024858832e-01, -1.128266230e-01, 3.180221617e-01, 2.448951900e-01, 3.466353416e-01, -1.290438026e-01, 2.461521653e-03, 1.156840086e+00, -9.170008451e-02, -1.318266541e-01, -3.243695796e-01, -1.141681820e-01, 1.507487148e-01, -9.438175708e-02, 2.545472980e-01, -5.020394456e-03, -3.873067796e-01, -5.726835504e-02, -1.765313894e-01, -2.084711343e-01, -2.859463096e-01, -9.402359277e-02, -4.099603742e-02, 4.794681072e-01, -1.207031980e-01, -1.091620088e+00, -2.184577733e-01, -2.159889191e-01, 1.037987024e-01, 1.848608553e-01, -8.064561523e-03, -2.739763260e-01, 3.710342646e-01, 5.367386341e-02, 3.658472896e-01, -1.032397673e-01, 2.886570692e-01, 1.278584003e-01, 6.630964577e-02, -1.428962350e-01, -1.313682199e-01, 3.987308219e-02, 1.009106338e-01, -8.632508665e-02, 8.355326205e-02, 8.436340094e-02, 2.955606580e-01, 1.768835634e-01, 3.653452396e-01, -7.164824009e-02, 3.099346459e-01, 7.024312764e-02, 1.326606572e-01, -5.305834860e-02, -2.557671443e-02, -4.127200246e-01, 7.966679335e-02, 4.128811955e-01, -3.577165008e-01, 3.725625575e-01, 2.241572291e-01, -5.276727676e-01}, {-1.964438111e-01, -3.372316062e-01, 5.673603415e-01, 7.360934019e-01, 6.466495991e-02, 4.653342962e-01, -6.779200584e-02, -9.939067811e-02, -6.219416261e-01, 3.773497045e-02, 7.363878936e-02, -2.728416026e-01, 8.223697543e-03, -1.520435065e-01, 1.193519160e-01, 2.091239244e-01, 3.143735528e-01, 2.784179151e-01, -2.208787575e-02, -4.458466470e-01, -5.157954097e-01, -5.540755391e-01, 6.513873339e-01, -8.028486371e-02, -1.239454001e-01, -3.789919913e-01, -4.258995950e-01, -5.407060385e-01, 2.267760187e-01, 1.565953135e+00, -3.972452581e-01, 2.300315797e-01, -5.359145999e-01, 2.848180532e-01, 4.961435497e-01, -2.811938524e-01, -4.625800550e-01, -1.832831502e-01, -5.905933976e-01, 3.714267313e-01, 2.186097354e-01, -2.340679020e-01, -7.227947004e-03, -1.660142243e-01, -1.236862317e-01, 4.673715830e-01, -1.812216640e-01, -3.418007791e-01, 1.598092020e-01, 4.230810702e-01, -3.825799376e-02, 3.623184562e-02, 1.663250104e-02, -5.564832091e-01, -3.929856047e-02, -3.058637977e-01, 2.315089405e-01, 4.309731722e-02, 6.187666953e-02, -1.350586534e+00, -5.159564614e-01, -2.254352868e-01, -1.145859480e+00, -1.661676168e-01, 3.317342997e-01, 8.374165297e-01, 4.583018124e-01, -3.179651797e-01, 7.405937314e-01, -1.884060800e-01, -6.685313582e-01, -1.687144876e+00, -8.173931241e-01, 2.286746353e-01, -7.217240054e-03, -8.584157228e-01, 6.909490824e-01, -6.915534735e-01, -3.466933072e-01, -6.182121634e-01, -3.104966283e-01, 2.579482794e-01, -5.290204287e-01, 1.689093411e-01, -1.434592962e+00, -2.726809382e-01, 1.019926146e-01, -2.673608959e-01, 3.635042012e-01, 4.648566842e-01, 1.736225486e-01, -4.083382338e-02, 2.055656463e-01, -2.062081099e-01, 5.397738814e-01, -4.747124016e-02, -6.995932460e-01, 2.766537368e-01, 6.739203334e-01, 2.579250634e-01, -3.829865754e-01, -1.605885774e-01, -3.565245271e-01, 5.805672333e-02, -1.115849018e+00, -2.525863051e-01, 3.243922070e-02, -1.513580084e-01, -4.478209019e-01, -2.245454341e-01, -2.406476885e-01, -1.347319603e+00, -4.688078463e-01, 5.854572356e-02, -2.122366875e-01, 3.548353538e-02, -8.488943577e-01, -1.184133440e-01, -1.629611999e-01, -3.994385302e-01}, {-7.599250972e-02, 3.928055167e-01, 3.444400209e-04, -1.344588250e-01, 4.336397052e-01, 3.074669540e-01, 1.545222402e-01, 3.886550367e-01, -1.589611918e-01, -1.687878072e-01, -9.647051245e-02, 9.786379337e-02, -4.111674726e-01, 1.474870145e-01, -2.248319834e-01, 2.145178169e-01, -7.311543077e-02, 3.800018132e-01, 1.216977909e-01, 4.762484431e-01, 4.740917683e-02, 4.687719643e-01, 4.661895707e-02, 2.552681565e-01, 1.073550209e-01, -1.263475269e-01, 1.161014661e-01, -1.875338256e-01, -1.698287427e-01, -2.295711190e-01, -7.561239600e-02, 4.098401368e-01, 2.646198571e-01, -4.044447243e-01, -1.504964083e-01, -6.545029283e-01, -2.195880115e-01, 4.748559371e-02, 9.129787982e-02, -2.171361297e-01, 4.147887230e-01, -2.720034719e-01, 6.551863998e-02, 7.195896655e-02, -4.132707119e-01, -1.239053234e-01, 7.130451500e-02, -1.657653600e-01, 4.256535787e-03, 4.206241667e-01, -4.530038536e-01, 3.691250682e-01, -1.929672211e-01, -1.224697307e-01, 7.160556912e-01, 2.058865428e-01, -1.859539896e-01, -1.282602698e-01, 3.951872587e-01, 7.745856047e-02, 1.031660438e-01, 3.160416186e-01, -2.639158368e-01, 6.856215745e-02, 1.420755833e-01, -3.878618479e-01, -1.963611692e-01, 2.370272726e-01, -7.735781372e-02, 2.332107425e-01, 7.509876490e-01, -2.711138427e-01, 5.095893517e-02, -2.972121835e-01, 7.566326112e-02, -4.320632517e-01, 2.710348070e-01, -3.214786947e-01, -2.113357037e-01, -3.295056149e-02, 4.782003164e-02, 6.879309192e-03, -5.203688741e-01, 8.365236223e-02, 1.755285412e-01, 2.018050849e-02, -3.786222339e-01, 1.536287069e-01, -6.732242107e-01, 1.613212377e-01, -2.269226015e-01, -4.374892637e-02, 2.244156152e-01, 3.950386643e-01, 1.244154200e-01, -5.715276673e-02, 2.219268829e-01, 2.956015766e-01, 1.052518785e-01, -5.687462166e-03, 4.351230562e-01, -8.442516439e-03, -2.519634068e-01, 2.464850843e-01, 2.093592435e-01, -1.083989516e-01, 2.186441980e-02, 6.427722424e-02, 2.042164654e-01, -1.172751263e-01, -9.139288962e-02, 6.668884307e-02, -1.810805649e-01, 1.810503751e-01, 3.523182571e-01, 9.502506256e-02, 2.176373899e-01, 6.187818646e-01, -6.457487494e-02, -4.315695763e-01}, {-1.843223274e-01, -6.385674328e-02, 2.021845430e-02, 1.167120263e-01, 2.645874023e-01, 3.934462741e-02, 3.736317754e-01, 2.717590630e-01, 2.986973524e-01, 1.351471692e-01, 6.708660126e-01, 3.366674297e-03, 2.181446850e-01, -1.907829195e-01, 3.194200099e-01, 2.575830519e-01, 2.506672591e-02, 3.377104923e-02, -1.380768567e-01, 2.983122133e-02, 2.593125403e-01, -5.017545223e-01, -4.469335973e-01, -6.072637439e-01, 3.749305308e-01, 2.198255062e-01, 5.566467643e-01, -3.483876884e-01, -1.545773447e-02, 4.352861345e-01, 2.552914023e-01, 1.909404695e-01, -6.528189778e-01, 5.587608814e-01, -9.423023462e-01, 5.602483153e-01, -2.638342679e-01, -1.052717045e-01, -1.321972013e-01, -2.188141197e-01, -8.538903594e-01, 7.649874091e-01, 4.418145716e-01, -3.451965749e-01, 7.394780517e-01, -1.303890049e-01, 2.030224800e-01, 9.080904722e-02, -3.051462471e-01, -2.096653543e-02, -3.551846147e-01, -4.163869321e-01, -7.962004840e-02, 1.743695438e-01, -4.313520491e-01, -6.701461077e-01, -1.243502945e-01, 4.760560393e-01, 4.808290899e-01, -7.116580606e-01, -5.505321622e-01, 3.126981556e-01, 5.878235698e-01, 4.944956005e-01, -1.015788317e-01, 4.946643114e-02, 1.090839431e-01, -5.369383693e-01, -2.535094917e-01, 4.736824036e-01, -3.573412821e-02, -6.778106689e-01, -2.378691137e-01, 2.145503461e-02, 2.510537207e-01, -1.467105746e-01, -1.197503060e-01, 6.420603395e-02, -4.573092461e-01, -1.329529583e-01, 1.346393581e-02, -4.579730630e-01, -6.929011643e-02, 6.004772186e-01, -1.039586067e+00, -4.040947556e-01, 4.674014151e-01, -1.217471510e-01, 7.822819799e-02, -8.019029349e-02, 1.941918582e-01, 9.703975916e-02, 3.248022497e-02, -1.155121624e-01, 5.241473317e-01, 5.806895718e-02, -7.670720220e-01, -3.176099062e-01, 4.100766778e-02, -3.744009733e-01, 3.018702269e-01, -1.436273754e-01, 8.325495571e-02, -1.030249223e-01, -5.418940187e-01, 7.953038067e-02, -3.217189386e-02, -2.208603173e-01, -4.490223825e-01, 1.069630980e-01, -2.896573246e-01, 2.487572134e-01, 2.084866911e-01, 8.488515019e-01, -5.262855291e-01, -7.956372201e-02, 3.243861496e-01, -4.788568243e-02, -1.065253839e-01, 7.060755491e-01}, {-4.897789955e-01, 1.132365465e-01, -9.496212006e-02, 3.952436149e-01, 5.102214813e-01, 5.323860645e-01, -8.291558176e-02, -3.572723269e-01, -1.139482018e-03, -1.147929907e+00, 1.563617289e-01, -7.698125243e-01, -5.636143684e-01, -2.177106142e-01, -2.690533400e-01, -4.484878480e-02, -2.696348131e-01, 5.895639062e-01, -2.418684363e-01, 1.271030754e-01, -1.471143067e-01, -3.037747741e-02, 6.534136832e-02, -1.760141999e-01, -6.368833780e-01, -1.031419337e-01, -4.150217474e-01, -1.007646844e-01, -5.700917244e-01, -4.151353538e-01, 3.231694400e-01, -7.179924846e-02, 5.698186159e-01, -1.860602647e-01, -6.330001950e-01, -7.444482446e-01, -1.666214168e-01, -1.568234712e-01, 1.124496758e-01, 1.460665166e-01, 3.106116056e-01, 1.827379316e-02, -6.493297964e-02, 1.026089787e-01, -3.924071491e-01, -1.993588209e-01, 5.337249041e-01, -3.436179459e-02, 2.398450226e-01, -2.479630262e-01, 1.498939097e-01, 1.474805772e-01, -5.787662268e-01, -4.136955440e-01, 1.971149892e-01, -2.435683161e-01, 3.298373222e-01, 6.231094897e-02, 1.818051934e-01, -3.795490414e-02, -2.556020021e-01, 3.020899594e-01, -5.312462449e-01, -9.771946073e-01, 3.309195042e-01, 4.259370863e-01, 1.160331070e-01, 3.975461423e-01, 5.357782841e-01, -1.207341030e-01, -8.675240278e-01, -3.080116808e-01, -7.873006463e-01, 8.118452132e-02, -4.931382835e-01, 5.216241255e-02, 2.045940459e-01, 1.206897423e-01, -1.865750104e-01, 6.145910546e-02, -5.761269331e-01, -4.355483055e-01, -4.421138018e-02, 3.408378065e-01, -4.597415924e-01, 7.684075832e-02, 3.257683218e-01, -1.327665299e-01, -9.776433557e-02, -7.687893510e-02, 6.135712191e-02, 2.549614906e-01, 2.528310120e-01, -8.541712305e-04, 6.956578046e-02, 6.741478294e-02, 1.814171970e-01, 3.499511480e-01, 1.875669360e-01, -8.230275661e-02, 6.197240353e-01, 4.198425114e-01, -6.020565033e-01, -1.909829527e-01, -1.057710126e-01, 5.381749868e-01, 4.124968648e-01, -1.575903893e-01, -5.624262094e-01, 8.412507176e-02, -5.777289867e-01, 4.859318435e-01, -4.965025485e-01, 9.733871371e-02, 2.148004621e-01, 1.614896506e-01, 9.476698190e-02, 6.055391952e-02, -4.882809818e-01, 3.482286036e-01}, {2.484888881e-01, 1.623375863e-01, 2.312225103e-02, 1.836121976e-01, -7.301787287e-02, 6.682750583e-02, 3.469430506e-01, -2.538095713e-01, 4.836776853e-02, -3.807671070e-01, -3.312682360e-02, 8.380208164e-03, -4.511954188e-01, -2.683528364e-01, -4.564050138e-01, -2.212089747e-01, 6.989843249e-01, -1.800945550e-01, -3.042370975e-01, 1.659208238e-01, 2.446709871e-01, 7.355199009e-02, -8.117862791e-02, 1.720269918e-01, -2.400764823e-01, 5.359112471e-02, -5.332301259e-01, -2.743198574e-01, 3.474978730e-02, 1.791194826e-02, 3.220721483e-01, 3.504955024e-02, -2.108818144e-01, -9.504438639e-01, -1.334882528e-01, -6.460414529e-01, 1.534823328e-01, 6.346092224e-01, 1.241896600e-01, -2.230133414e-01, -9.623069316e-02, -5.336673260e-01, -2.263126522e-01, 3.706091940e-01, 7.298111171e-02, 1.249790117e-01, -1.705025136e-01, 3.645144403e-02, -2.300409973e-01, 7.780291140e-02, 4.337345660e-01, -4.143413007e-01, -1.127230376e-01, 2.342539579e-01, -5.245040357e-02, -1.082612947e-01, -4.033174515e-01, 3.549545407e-01, -4.791450500e-01, 7.385104150e-02, 2.309074700e-01, -7.253546119e-01, 1.018468067e-01, -2.894815207e-01, -1.743045151e-01, -1.415887177e-01, -2.642709389e-02, -1.234491616e-01, 4.569954798e-02, 7.139904499e-01, 5.654462576e-01, 3.380358219e-01, 1.356433332e-01, 2.021113485e-01, -2.891125977e-01, 3.738997877e-01, -1.927711256e-02, -1.371906847e-01, 3.688297570e-01, 5.123447999e-02, -3.340904713e-01, 3.249459565e-01, 1.423146725e-01, 1.050997734e+00, -2.790405750e-01, -7.887712866e-02, 3.299603984e-02, -3.729411215e-02, -1.974455565e-01, 3.262027502e-01, 3.361782432e-01, -2.117660828e-02, -7.621982098e-01, -9.530096501e-02, -2.685321867e-01, -3.958407342e-01, 4.201755673e-02, 2.151099592e-01, 2.026541717e-02, 3.262362778e-01, -3.332287371e-01, 2.765472531e-01, -2.908595800e-01, -3.333402053e-02, 1.810915470e-01, 1.027380973e-01, -2.816371322e-01, -2.147839516e-01, 1.360616833e-01, 2.254737765e-01, 3.592765704e-02, -9.746585973e-03, -2.467187308e-02, -7.513955981e-02, 5.258839130e-01, -2.003688514e-01, -1.699426621e-01, 1.543592215e-01, -5.525608063e-01, -6.086020470e-01}, {-4.105086327e-01, -3.338444531e-01, 5.586866736e-01, 3.916955292e-01, 3.971813619e-01, 1.397022232e-02, -7.476798892e-01, -4.323587418e-01, -1.194870234e+00, 5.200597048e-01, -5.103421807e-01, -4.445152283e-01, -7.206363976e-02, -1.276424080e-01, 1.173673794e-01, 1.755028963e-01, 6.116884947e-01, 4.788171947e-01, 7.027548552e-02, -1.570550650e-01, -3.592898846e-01, -9.220869839e-02, 6.491169333e-01, 4.327100515e-01, 2.001490444e-01, -2.664201856e-01, -3.479126468e-02, -2.009406090e-01, 6.749131680e-01, -9.169449210e-01, -9.623115510e-02, -5.475743413e-01, -1.072627783e+00, 1.020593643e-01, -3.401976526e-01, 1.891206354e-01, -6.640579700e-01, -5.598988011e-02, -2.938913405e-01, 2.721827030e-01, 7.659536600e-01, -8.499124646e-01, -1.361491978e-01, -1.090050220e+00, 3.297015131e-01, -4.112736583e-01, 1.295974255e-01, -3.428463340e-01, -6.001150701e-03, 2.100073695e-01, -3.049122393e-01, 1.514119375e-02, -2.153169513e-01, 4.085127711e-01, -2.368236184e-01, -3.348118961e-01, 7.843751460e-02, 4.925050735e-01, -1.073036343e-02, -4.484771788e-01, -7.582402229e-01, 3.969359398e-01, -4.689672217e-02, 6.506146789e-01, 4.594283402e-01, 2.617785335e-01, 5.419337749e-01, -5.554160476e-02, -4.377646372e-02, 1.209189072e-01, -1.126512408e+00, -1.122001290e+00, -4.084157348e-01, 2.104589194e-01, -9.597644955e-02, -3.378333151e-01, 2.164158784e-02, -1.149664640e+00, -9.574021101e-01, 1.931633204e-01, -8.832591772e-01, -5.910795927e-01, 9.222026914e-02, -3.534763157e-01, -8.407542855e-02, -4.280483127e-01, -2.472308427e-01, -4.294862449e-01, 2.236654907e-01, -6.742762774e-02, 7.535347342e-01, -6.268813610e-01, 1.178165302e-01, 7.164770272e-03, -1.043045670e-01, 6.297367625e-03, -4.774602354e-01, -2.236298770e-01, -3.942502439e-01, -1.761544347e-01, -5.944716930e-01, -3.398019373e-01, -8.675061911e-02, -6.072365046e-01, -2.946694493e-01, -8.495967835e-02, 9.045995772e-03, -3.785289451e-02, -1.931106448e-01, 1.923325658e-02, 4.687069450e-03, -4.520062804e-01, -4.172892123e-02, 1.878116727e-01, -6.896540523e-01, 2.560565770e-01, -2.199085355e-01, 3.066520393e-01, 9.009780735e-02, -6.254217625e-01}, {8.152377605e-02, -1.186261699e-02, -2.998973057e-02, -4.531062767e-02, -3.515149653e-02, -3.346266598e-02, -4.804519564e-02, 2.677424252e-02, -3.805716336e-02, -3.358066827e-02, -2.592040226e-02, -3.039326705e-02, -5.901155528e-03, -4.322530702e-02, 1.840757206e-03, -8.858056366e-02, -6.091526896e-02, -6.949441880e-02, -6.588971615e-02, -1.965962350e-02, -5.002210382e-03, 2.354617417e-02, -9.680819511e-02, -3.862909973e-02, -5.508493050e-04, 6.652387232e-02, -1.398550440e-02, -7.092446904e-04, 1.425859798e-02, -9.552884847e-02, 6.161675230e-02, 4.366363958e-02, 5.077676848e-02, 1.734699681e-02, 1.635709591e-02, -9.013238549e-02, -9.706782550e-02, -5.277697742e-02, 1.477361284e-02, 4.684586450e-02, 4.179264233e-02, 3.220994398e-02, -5.641574040e-02, 1.659072749e-02, -7.216212153e-02, -3.485402092e-02, -5.345373228e-02, -8.804541826e-02, 2.009547316e-02, -4.648250714e-02, -6.209457666e-02, 1.731114462e-02, 5.447257427e-04, -1.626213640e-02, -8.932124078e-02, 1.209667418e-02, 4.231321067e-02, -8.372036368e-02, 1.952418499e-02, 3.767805919e-02, 6.145104021e-02, 5.283023231e-03, 6.236300990e-02, -7.412306219e-02, -7.797472924e-02, 1.240899786e-02, -4.996654764e-02, -6.526777148e-02, 7.586582005e-02, -6.644349545e-02, 8.572808467e-03, -4.243149981e-02, 8.121440560e-02, 1.304886583e-02, -8.589432389e-02, 4.722405598e-02, -4.075523093e-02, -7.473948598e-02, 3.163578734e-02, -9.660544246e-02, -3.919952735e-02, -7.865285501e-03, -9.124197811e-02, -2.681364119e-02, -3.412974626e-02, -6.442961842e-02, 3.416127712e-02, -1.640182361e-02, -6.253869087e-02, -5.192979705e-03, -6.367599219e-02, -7.930852473e-02, -6.879653037e-02, -4.052822664e-02, 5.284735933e-03, -1.987724192e-02, 5.365825817e-02, 2.538300492e-02, -1.144835074e-02, -4.211728275e-02, 2.144452743e-02, 2.818326093e-02, -2.179269306e-02, 6.740819663e-02, -4.978581890e-02, 2.986234985e-02, -5.627536681e-03, -7.855395973e-02, 2.196645737e-02, -8.210752159e-02, -5.808502063e-02, 5.074732471e-03, 2.192262746e-02, 1.188535057e-02, 8.313490078e-03, -3.710599244e-02, -2.708572336e-02, 7.311987691e-03, -4.461089149e-02, -3.664414585e-02}, {-1.136751622e-01, 2.604906857e-01, 3.303354383e-01, -3.003643453e-02, 1.984353922e-02, 6.687774509e-02, 3.019796312e-01, 2.860150933e-01, -6.837617755e-01, 3.427439034e-01, -5.284608603e-01, -3.014152050e-01, -1.605525017e-01, -3.305954337e-01, -1.882505715e-01, -3.473333716e-01, 5.095744133e-01, 6.077612042e-01, -2.979771197e-01, -1.006342843e-01, -4.435212612e-01, -4.702126980e-02, -6.890242547e-02, -5.076776743e-01, -1.088364422e-01, 9.921998717e-03, 2.927635610e-01, -1.366693974e-01, 1.346054673e-01, 9.177697897e-01, 6.547524333e-01, 3.719685972e-01, 2.997822464e-01, 4.269307256e-01, -2.597428858e-01, -1.103750616e-02, -6.458206475e-02, 1.057871222e+00, 5.269349366e-02, 4.566283822e-01, 1.026442051e-01, 2.352412604e-02, -5.465084910e-01, 2.347599864e-01, 3.638024628e-01, -9.480912089e-01, 1.760865152e-01, 3.184751868e-01, -4.446946084e-02, 1.445079148e-01, -2.711164057e-01, -7.429955155e-02, -1.856390685e-01, -5.810536817e-02, -3.036692441e-01, 1.527024657e-01, 1.440908313e-01, 1.374659091e-01, 3.912862241e-01, 2.749958038e-01, -6.262470037e-02, -1.906885505e-01, 1.049404591e-02, 2.672848403e-01, -1.844376139e-02, 3.258046210e-01, 1.558294296e-01, -4.020808265e-02, 6.851898879e-02, -6.122326851e-01, 3.241150826e-02, -4.340165854e-01, -3.844204545e-01, -9.245431423e-02, -9.014242142e-02, -2.979514599e-01, 1.405096948e-01, -2.015888318e-02, 3.110378683e-01, -3.282197192e-02, -8.517196029e-02, -2.509341836e-01, -1.424725056e-01, -2.234832346e-01, -1.045671180e-01, -1.005763933e-01, -2.115359157e-01, -2.778127193e-01, 9.070067853e-02, -2.125876844e-01, 1.351589859e-01, -4.231998324e-01, -9.809343815e-01, 1.615453213e-01, 2.397493720e-01, -3.843616247e-01, -2.704522945e-02, 5.909891799e-02, -1.180227324e-01, -2.093257010e-01, -4.809970558e-01, 2.997564524e-02, 2.773736715e-01, -5.300724879e-02, -1.190695539e-01, -5.412824154e-01, 2.034346014e-02, 2.731357217e-01, -2.595345080e-01, 1.257196069e-01, -3.173053265e-01, -2.913716435e-01, -3.384552300e-01, 5.933104157e-01, 1.543902606e-01, -3.036677837e-01, 7.986199111e-03, -1.719831079e-01, 5.848467350e-02, 2.448032200e-01}, {2.902219296e-01, 2.416100651e-01, -8.951148391e-01, 2.851262875e-02, -4.000700712e-01, 1.704006195e-01, 2.666971982e-01, 1.144450903e-01, -2.783376873e-01, 7.263094187e-02, 2.750938945e-02, -4.252863824e-01, 3.424305916e-01, 5.688705444e-01, -8.429501951e-02, -7.896962017e-02, -1.104229689e+00, -6.183141842e-02, -5.870181918e-01, 2.405014485e-01, -1.630512029e-01, 6.470017433e-01, 5.066604614e-01, 4.816808105e-01, 1.803297102e-01, 1.191734672e-01, -1.045778692e-01, 7.479448617e-02, 7.915835828e-03, 8.445632458e-02, 1.096496344e+00, 1.493598670e-01, 1.509067863e-01, 1.923794001e-01, 5.368632078e-01, 7.224815488e-01, -1.621047854e-01, 5.439252853e-01, 1.989210993e-01, 4.985427260e-01, -4.289904318e-04, 1.980896592e-01, -1.046508431e+00, 5.435037613e-01, 1.535860300e-01, 3.836542368e-01, 1.747965626e-02, -9.302992225e-01, -5.365634561e-01, 1.656350866e-02, -1.092230231e-01, -9.418143630e-01, 2.421480417e-01, -2.287266493e+00, -4.812448323e-01, 4.077231884e-01, -5.834754705e-01, -4.719234943e+00, -1.010874748e+00, 2.799609303e-01, 1.089631170e-01, -2.601380110e+00, -1.093478575e-01, -1.843947470e-01, -1.904213667e+00, -2.472078614e-02, -1.726608157e+00, -1.414154291e+00, -9.718836844e-02, -1.238193437e-01, -2.670492232e-01, 8.074183762e-02, -9.466649294e-01, 3.550829589e-01, -3.863798454e-02, -1.585445702e-01, 1.840941012e-01, 3.171728551e-01, 6.646862626e-01, 2.535157204e-01, -3.301992118e-01, -1.811558194e-02, -4.302062690e-01, -2.929216921e-01, 1.820629984e-01, -1.844594359e+00, -1.362281479e-02, -1.640341729e-01, -1.285527796e-01, 7.372350693e-01, -1.558577418e+00, 2.152803838e-01, 1.333608031e-01, -1.053988561e-01, -4.377030730e-01, -4.365882576e-01, 4.252961278e-01, 8.819996119e-01, 4.396792948e-01, -3.305123374e-02, -2.849010229e-01, -4.071036875e-01, 2.702322006e-01, 5.817631483e-01, -4.357807934e-01, -1.023562551e+00, 1.223219559e-01, 5.814673752e-02, 4.165116251e-01, -2.170846462e+00, 1.892206073e-01, -1.109329462e+00, -1.170040965e+00, -5.035509467e-01, 7.608938217e-01, 8.446207643e-01, -9.816124290e-02, 3.550197780e-01, 2.676091790e-01, 3.324650228e-01}, {-6.263505220e-01, 1.475788057e-01, 5.222643614e-01, -4.050415456e-01, 2.330659628e-01, 1.218789443e-01, -4.153490067e-01, -5.993404984e-01, -3.222699165e-01, 9.309921414e-02, -5.514526963e-01, -2.141426951e-01, 1.566441655e-01, -4.123228490e-01, 1.471952498e-01, 3.189180791e-01, 3.159680963e-01, 3.460526466e-01, -5.760242417e-02, 1.388641298e-01, -4.057947174e-02, 2.789874673e-01, 4.738292098e-01, -1.882358342e-01, -7.009665370e-01, -7.470073104e-01, -1.294717342e-01, 5.930716991e-01, 4.760304932e-03, 1.249665976e+00, -1.027447581e-01, -2.216438204e-01, 3.924758732e-01, 7.576818764e-02, 6.041810513e-01, -4.462915957e-01, 1.807786822e-01, -2.167743295e-01, -7.579080015e-02, 2.713333070e-01, -2.685408108e-02, 7.425005436e-01, 6.909494847e-02, 1.519467086e-01, 1.513373107e-02, -1.646494716e-01, -1.646060497e-01, -1.747277677e-01, 2.612457871e-01, -8.644356579e-02, 1.103903577e-01, 9.059669822e-02, 3.964596093e-01, -7.508932352e-01, 4.008032382e-01, -1.346890479e-01, 3.375604749e-01, 1.295956671e-01, -3.685539365e-01, 5.154906511e-01, -4.636534303e-02, 4.121777415e-01, 2.015260011e-01, -3.535169065e-01, 1.997299679e-02, 2.893494070e-01, -3.170257509e-01, 6.886054277e-01, 7.638300955e-02, -1.894961447e-01, 1.225384399e-01, -5.429405570e-01, -2.720357895e+00, 1.116639897e-01, -5.834685639e-02, 1.706961542e-01, 3.348031342e-01, 2.818180025e-01, -3.208348751e-01, -1.565803587e-01, 1.110907793e-01, -6.803944707e-01, -4.695308506e-01, 7.430096623e-03, 2.104467601e-01, -1.308173090e-01, 2.573681064e-02, -7.108498365e-02, -7.562270015e-02, 6.188659668e-01, -9.168185294e-02, -3.100814521e-01, -2.435404249e-02, -1.741288304e+00, 4.644648135e-01, 5.076048970e-01, -4.244107604e-01, -1.058142558e-01, -1.172518134e-01, 3.265458047e-01, 8.262701631e-01, -6.351023316e-01, 1.918871552e-01, 1.778540611e-01, -8.261786103e-01, -8.110616207e-01, 6.303708553e-01, -4.082239047e-02, 1.856724322e-01, -2.504029870e-01, 9.722326696e-02, 3.537813723e-01, -5.052273870e-01, -6.156608462e-01, -1.904410273e-01, -2.173725218e-01, 1.992184818e-01, -3.046428040e-02, 6.459390372e-02, 3.800171614e-01}, {-1.691592634e-01, 4.722726345e-02, 4.781394899e-01, 1.960748881e-01, -8.630796522e-02, 3.602129221e-01, -6.350018382e-01, 5.916584283e-02, -2.509393096e-01, 7.667050511e-02, -6.683133841e-01, -5.064582825e-01, -1.774321795e-01, -2.551517785e-01, 7.246810198e-02, -1.911700368e-01, 3.171628714e-01, -2.195522785e-01, -1.678323597e-01, 9.345164895e-02, -2.737469375e-01, 1.749830991e-01, -2.542021126e-02, -6.696846336e-02, -5.498315692e-01, 4.241105318e-01, 4.244531989e-01, -2.719133496e-01, 3.309415579e-01, -2.966080308e-01, 1.756884605e-01, 8.489011787e-03, -1.755561233e-01, -3.241286054e-02, -2.936125360e-02, 1.025334653e-02, 3.862765431e-01, 1.392353624e-01, -8.422003686e-02, 7.493838072e-01, 3.566341996e-01, 1.128666252e-01, 2.931741476e-01, -2.816971838e-01, -1.421845108e-01, -9.018324316e-03, 2.005438060e-01, 4.355207682e-01, 3.495246470e-01, -3.224510849e-01, 7.739831209e-01, 2.550429702e-01, -3.404916525e-01, 1.771001145e-02, 4.599636421e-02, -8.946605027e-02, 3.174714148e-01, 7.127758265e-01, 2.448829412e-01, -1.589384079e-01, 5.130034685e-01, -2.354372144e-01, -3.008298576e-01, 3.118649125e-01, 3.032782674e-01, 2.312679291e-01, 4.391488135e-01, 3.313756883e-01, 3.374314904e-01, 2.889593542e-01, 1.656363010e-01, -7.438153028e-01, -5.292198658e-01, -1.754580438e-01, 2.558080852e-01, -1.533447057e-01, 7.590752840e-02, -1.674083471e-01, 2.468535751e-01, 1.661470234e-01, 1.437385231e-01, 3.264704943e-01, -1.015035063e-01, 2.531864345e-01, 2.884295285e-01, 6.113194227e-01, -1.459719539e-01, 2.128653228e-01, -1.905318350e-01, -2.727065682e-01, 1.104218811e-01, 1.171547994e-01, -2.498179525e-01, -5.989315510e-01, -5.428676009e-01, -6.740079820e-02, 2.259165347e-01, -4.236897454e-02, -1.951316744e-01, -1.400733739e-01, 1.456058025e-01, 1.921760738e-01, 1.262613237e-01, 2.554702759e-01, -1.198151708e-01, 8.209019899e-02, 2.057774737e-02, -1.151696965e-01, 1.937613636e-02, -6.979328394e-02, -1.285655200e-01, -3.684810698e-01, -1.596832275e-01, -3.955872655e-01, -4.523281157e-01, 1.926394850e-01, -4.949329421e-03, -6.173451990e-02, -1.865253896e-01, -1.985584348e-01}, {-2.253805697e-01, 1.567125146e-04, 8.971509337e-02, 1.617353642e-03, -4.015780091e-01, 8.904673159e-03, -1.557198167e-01, 2.644393444e-01, -4.572213814e-02, -1.245769560e-01, -2.162636630e-02, -1.619944423e-01, -3.187064826e-02, 1.215141565e-01, -1.724182442e-02, -2.360777557e-02, 5.558454990e-02, -1.424562037e-01, 3.256424069e-01, 1.152963936e-01, -4.806781560e-02, 2.452102900e-01, -7.312807441e-02, 2.696084380e-01, 8.729534596e-02, 1.946063489e-01, 2.044152617e-01, -9.823191166e-02, -8.404561877e-02, -9.181750566e-02, -5.791272223e-02, -7.836156338e-02, 4.427447543e-02, -6.068189815e-02, 2.616497576e-01, 1.709754914e-01, -2.643253207e-01, 2.874459624e-01, -5.995164812e-02, -3.958769143e-02, 1.817252934e-01, -1.318478137e-01, 6.346429884e-02, -3.328255191e-02, -4.029438272e-02, 1.901688725e-01, 2.017691173e-02, -7.216742635e-02, -1.334838718e-01, -3.175733685e-01, -3.250721693e-01, 2.498363853e-01, 8.446297795e-02, 1.268789768e-01, 1.757057160e-01, -1.510865688e-01, 1.106671616e-01, -1.839128509e-02, 9.402588755e-02, 1.455006748e-01, -3.867070749e-02, -1.740116477e-01, -3.732626513e-02, -2.681631148e-01, -1.274661571e-01, -6.514685601e-02, -1.223056614e-01, 4.823941737e-02, -3.062825799e-01, -3.906766698e-02, 4.146030247e-01, 1.857818849e-02, 3.927127421e-01, -1.484221686e-02, -1.870625764e-01, 2.527153492e-01, 6.966884714e-03, 5.039959028e-02, -4.252201691e-02, -4.891799763e-03, 5.604865775e-02, 2.948171198e-01, -3.016064167e-01, 1.776747853e-01, -3.908073530e-02, -8.235875517e-02, 1.509389188e-02, 5.263385177e-02, 1.643460155e+00, 2.617435753e-01, 7.318283617e-02, -6.238063052e-02, -6.037853956e-01, 1.554937959e-01, -1.059701964e-01, 6.258124858e-02, 2.040708214e-01, 2.551131546e-01, 1.326228976e-01, 1.512561291e-01, -1.443337649e-01, -3.369490206e-01, 1.697514951e-02, 